//<![CDATA[

// a few things don't have var in front of them - they update already existing variables the game needs
lanesSide = 6;
patchesAhead = 30;
patchesBehind = 10;
trainIterations = 150000;

// the number of other autonomous vehicles controlled by your network
otherAgents = 10; // max of 10

var num_inputs = (lanesSide * 2 + 1) * (patchesAhead + patchesBehind);
var num_actions = 5;
var temporal_window = 0;
var network_size = num_inputs * temporal_window + num_actions * temporal_window + num_inputs;

var layer_defs = [];
    layer_defs.push({
    type: 'input',
    out_sx: 1,
    out_sy: 1,
    out_depth: network_size
});
layer_defs.push({
    type: 'fc',
    num_neurons: 32,
    activation: 'tanh'
});
layer_defs.push({
    type: 'fc',
    num_neurons: 24,
    activation: 'tanh'
});
layer_defs.push({
    type: 'fc',
    num_neurons: 16,
    activation: 'tanh'
});
layer_defs.push({
    type: 'fc',
    num_neurons: 16,
    activation: 'tanh'
});
layer_defs.push({
    type: 'fc',
    num_neurons: 32,
    activation: 'tanh'
});
layer_defs.push({
    type: 'regression',
    num_neurons: num_actions
});

var tdtrainer_options = {
    method: 'sgd',
    learning_rate: 0.01,
    momentum: 0.001,
    batch_size: 192,
    l2_decay: 0.001
};

var opt = {};
opt.temporal_window = temporal_window;
opt.experience_size = 30000;
opt.start_learn_threshold = 500;
opt.gamma = 0.98;
opt.learning_steps_total = 150000;
opt.learning_steps_burnin = 500;
opt.epsilon_min = 0.01;
opt.epsilon_test_time = 0.0;
opt.layer_defs = layer_defs;
opt.tdtrainer_options = tdtrainer_options;

brain = new deepqlearn.Brain(num_inputs, num_actions, opt);

// CUSTOM_VARS_BEGIN
var gen_name = 'genP-V3';
var count = 0;
var eval = false;
var save_checkpoint = 250;
var noSaveCheckpoint = false;
var eval_start = 2000;
var target_mph = 67.00;
// CUSTOM_VARS_END

learn = function (state, lastReward) {
    brain.backward(lastReward);
    var action = brain.forward(state);

// CUSTOM_CODE_BEGIN
function getFixedData() {
    var data = editor.getValue() + "\n/*###########*/\n";
    data = data.replace("otherAgents = 0","otherAgents = 10");
    if (brain) {
        data += "if (brain) {\nbrain.value_net.fromJSON(" + JSON.stringify(brain.value_net.toJSON()) + ");\n}";
    }
    return data;
}

downloadNamedCode = function (thisName, forward_passes, data) {
    var blob = new Blob([data], {type: 'text/plain'});
    var url = URL.createObjectURL(blob);
    var blobAnchor = document.getElementById("blobDownload");
    blobAnchor.download = "net-" + gen_name + '-' + forward_passes + '-' + thisName + ".js";
    blobAnchor.href = url;
    blobAnchor.click();
}

if (typeof(count) != "undefined") {
    if(brain.forward_passes >= eval_start) {
        if(brain.learning == false) {
            count = count + 1
            if(count >= save_checkpoint) {
                if(brain.forward_passes > 0){
                    if(eval === false && self.document !== undefined) {
                        thisData = getFixedData();
                        var myWorker = new Worker("eval_webworker.js");
                        eval = true;
                        myWorker.onmessage = function (e) {
                            if (typeof e.data.percent != 'undefined') {
                                // do nothing / placeholder
                            }
                            if (typeof e.data.mph != 'undefined') {
                                console.log('Eval complete - ' + e.data.mph);
                                if(e.data.mph >= target_mph) {
                                    console.log('Saving checkpoint at ' + brain.forward_passes);
                                    downloadNamedCode(e.data.mph, brain.forward_passes, thisData);
                                }
                                eval = false;
                            }
                        };
                        myWorker.postMessage(getData());
                    }
                }
                count = 0;
            }
        }
    }
}
// CUSTOM_CODE_END

    draw_net();
    draw_stats();
    return action;
}

//]]>
/*###########*/
if (brain) {
brain.value_net.fromJSON({"layers":[{"out_depth":520,"out_sx":1,"out_sy":1,"layer_type":"input"},{"out_depth":32,"out_sx":1,"out_sy":1,"layer_type":"fc","num_inputs":520,"l1_decay_mul":0,"l2_decay_mul":1,"filters":[{"sx":1,"sy":1,"depth":520,"w":{"0":0.034014250472706155,"1":0.26027682894174053,"2":-0.340209942811682,"3":0.05875622124480528,"4":-0.20309141285536303,"5":-0.07065852416398023,"6":0.6556392572816054,"7":-0.6441691701841799,"8":0.027508113039856456,"9":-0.04432760506539676,"10":-0.117133988844839,"11":0.050630894636760314,"12":0.14025870173620725,"13":0.013705528884515277,"14":0.04206944557372209,"15":-0.21418022456076657,"16":-0.45899190792978467,"17":0.15797617447981968,"18":-0.020485835131802563,"19":0.6142986795137131,"20":-0.3679888796766859,"21":0.16983836743368821,"22":-0.23873449168789537,"23":-0.054285193394039,"24":0.030471037135155973,"25":0.16869915108100741,"26":0.11984473668354682,"27":-0.13366539609099856,"28":0.22858092675214123,"29":-0.1675203386411845,"30":-0.04612423444880051,"31":0.23878606614441727,"32":0.5169361227819821,"33":-0.1620269610048016,"34":0.1843593441927205,"35":-0.1335664084673944,"36":0.08641591096009384,"37":0.08143361571044559,"38":0.10222514497299634,"39":0.2732158810828809,"40":-0.07012491380547625,"41":-0.0038875292992189853,"42":-0.26622500382246,"43":0.049795783822549254,"44":0.1750117620386082,"45":0.03278824767198422,"46":-0.0948795380103743,"47":0.016897314756754007,"48":-0.006748792335161516,"49":-0.32258935443756065,"50":-0.12960530779555934,"51":0.17689127920950312,"52":0.3706349522654348,"53":0.23372151988319925,"54":0.30465710137792307,"55":0.017203537329915634,"56":0.0028054533226500884,"57":0.34176249565031147,"58":0.0879580106663953,"59":0.04236889698378329,"60":0.09034802340637664,"61":0.321760101911121,"62":-0.1463026882413817,"63":-0.38206727448666067,"64":-0.22367971550237398,"65":0.27800303356256567,"66":0.07828383073917933,"67":-0.08524810372187751,"68":-0.21620166761195744,"69":-0.29795240320343847,"70":0.03972178232871478,"71":0.32718267779022153,"72":0.25208084534394665,"73":0.12007473159567376,"74":-0.02941259802938101,"75":-0.2740602368237968,"76":-0.104169039120994,"77":0.22520894988656473,"78":0.06555490267822775,"79":-0.45121932679601956,"80":-0.1752969125135107,"81":-0.04848931954274544,"82":-0.4656493574905719,"83":0.021496253326210916,"84":0.15172327217351383,"85":0.2559982545971565,"86":0.4911359224340768,"87":0.31920170442229484,"88":-0.2065424985407581,"89":-0.32396978552255146,"90":-0.08104315400986473,"91":0.0014661921222639844,"92":-0.14877393828127483,"93":-0.06643808872846609,"94":-0.21211309368935596,"95":-0.3063579718625636,"96":-0.23665877772023947,"97":0.8623600897432039,"98":0.34386138118567827,"99":0.3323257038547472,"100":0.01164123849598225,"101":0.2505816761984062,"102":0.0932195157127657,"103":0.17825214548597484,"104":0.15027422997330486,"105":-0.10010897716054043,"106":-0.397363018405163,"107":-0.43896304634806044,"108":-0.22750603480225196,"109":0.1720333539688049,"110":0.6566911556276008,"111":0.41778140968089217,"112":0.14238162716407843,"113":0.0760963690745885,"114":0.0815185603311466,"115":-0.49555941566671263,"116":0.11764785475155758,"117":-0.001656134231569295,"118":0.08821375135133798,"119":0.13466367908977336,"120":-0.44528053792256955,"121":-0.11887754198802657,"122":0.20555761945709689,"123":0.6593248492616687,"124":0.9259204492127013,"125":-0.3513491042472582,"126":0.35752905620862646,"127":-0.0296439680997891,"128":-0.6713700367343353,"129":0.14148029601967485,"130":0.033074765239199506,"131":0.09772561115746996,"132":-0.16126035406577618,"133":-0.62280113828038,"134":-0.3319846251302795,"135":0.10861477006063013,"136":-0.03509069445015246,"137":0.6860339914937714,"138":-0.532729788114547,"139":0.1717794836067647,"140":-0.05346642605763021,"141":-0.43755035351618893,"142":0.3240195328576661,"143":0.055346930171926406,"144":0.1263126628664887,"145":0.0780794967240733,"146":0.005102957007830148,"147":-0.0284220208463671,"148":0.5240094835696854,"149":0.2816200179427661,"150":0.43533172710633616,"151":-0.1264425220937284,"152":0.1687470506946536,"153":-0.2859299201390416,"154":-0.34268714572678943,"155":0.02094334305219414,"156":-0.0076854861581012275,"157":0.13641219196983018,"158":-0.005371330596579074,"159":0.07596517320745903,"160":0.2032341294516403,"161":0.3528439485817299,"162":0.3894007046642542,"163":0.6806538724128465,"164":-0.1765100181318685,"165":-0.053735751824844136,"166":-0.11693661638332828,"167":-0.17290046221099642,"168":0.1950167124833163,"169":-0.028758509760759526,"170":0.04636247333087833,"171":-0.2540625092104818,"172":0.05187434792584088,"173":0.1901015330747649,"174":0.7313897998610396,"175":0.9278682089600193,"176":0.33124166627274704,"177":0.10358650067326756,"178":0.24854522146689112,"179":0.09520385278783902,"180":-0.13539997050430297,"181":0.11330985099678607,"182":0.07473617937445641,"183":-0.10997784153822751,"184":0.09129058324375935,"185":-0.08613800921603368,"186":0.3962165265272034,"187":0.5703384766563352,"188":0.65901235372174,"189":0.4722536306992368,"190":-0.10764910735636761,"191":0.13619196770601472,"192":0.04439548912264782,"193":0.23685216703828169,"194":-0.02690912047296639,"195":-0.07197095971896066,"196":-0.3508088487891035,"197":-0.18212246811841706,"198":-0.38229413192840533,"199":0.17257546628802028,"200":0.11717986491772855,"201":0.38039331928067405,"202":0.3271874037388033,"203":-0.3500221776261981,"204":-0.5131868150262378,"205":0.0013537862890729445,"206":-0.13149268696691555,"207":0.10188265498612747,"208":0.020924628631191673,"209":-0.17857370296190164,"210":0.2704132274479197,"211":-0.16054474740249802,"212":-0.1001924305880914,"213":0.3118849612215544,"214":0.4593702320581733,"215":0.5968988991241684,"216":-0.3670466705050352,"217":-0.09433573642872313,"218":-0.09849191682669148,"219":0.4033061364820412,"220":0.3395817782290651,"221":-0.08796542348132995,"222":-0.07321713695680053,"223":0.2231233963902537,"224":-0.20526855371777863,"225":-0.06179772561824688,"226":-0.10442413234418495,"227":0.270533870507646,"228":0.6581412499490057,"229":-0.17685521603578527,"230":-0.07718265417710196,"231":-0.27363002767101713,"232":0.24039427441050565,"233":-0.029788568768782935,"234":-0.20383760051341662,"235":-0.09793699865872317,"236":0.0392261750470418,"237":0.04945547401980871,"238":0.2042501209726925,"239":0.13809815108298726,"240":0.37653642164637746,"241":0.5189816827833169,"242":0.2936419440939066,"243":0.005570143998147325,"244":-0.32407047671044364,"245":-0.4131061745250618,"246":0.05533948114664785,"247":-0.3650486970070083,"248":-0.1961987117438306,"249":0.02707763218140883,"250":0.1452933054833977,"251":-0.22829277380547197,"252":0.12172011317659083,"253":0.316682405711928,"254":0.2952030799473187,"255":-0.2456234591355174,"256":-0.08224389486688177,"257":-0.05502547082820799,"258":-0.35393790805371783,"259":-0.15466598805138948,"260":-0.23004082089524916,"261":-0.2807813402931581,"262":-0.48964395518835446,"263":-0.08081765019707407,"264":0.18027803117031277,"265":0.08035083254821684,"266":-0.18461623115972678,"267":0.47040091638991505,"268":-0.3026072210899745,"269":-0.08549437523767976,"270":0.16676137255161297,"271":-0.0811633952823344,"272":-0.11868384572899554,"273":-0.08636657888064214,"274":-0.4161996310800194,"275":-0.25517093958128495,"276":-0.28343848387820264,"277":0.006718358044247666,"278":0.2355987552810748,"279":-0.2758935408805304,"280":0.18151260713690984,"281":-0.23006345612162638,"282":-0.426368263522077,"283":-0.02960670474891689,"284":0.014475203059371902,"285":0.019895933466035836,"286":-0.10322721117112336,"287":-0.07188977121845078,"288":-0.31393760359230416,"289":-0.23445483726816851,"290":-0.12424408078398179,"291":0.13407493187896927,"292":-0.1231132405569675,"293":0.4293875480858293,"294":-0.06369734628544761,"295":-0.46231579170261694,"296":-0.1090748650981815,"297":-0.04869859732576374,"298":-0.05562337108849162,"299":0.10326347461266262,"300":0.17655175948363047,"301":-0.04596527084611185,"302":-0.20429348379267118,"303":0.219128614370816,"304":0.3537595294350386,"305":0.537513374142005,"306":-0.01101184687547962,"307":0.19724857125610062,"308":-0.4403847410019601,"309":-0.3860794399467068,"310":0.09816610329007583,"311":-0.028229820213948424,"312":0.04747655082449219,"313":-0.11846897190865673,"314":0.12821795346524417,"315":-0.40375334198308543,"316":-0.225887796336053,"317":0.4334417493467358,"318":0.794283125180107,"319":-0.2572667803563676,"320":0.48700953057530616,"321":-0.2431272669570125,"322":-0.18933599075755808,"323":-0.1403277649132604,"324":0.15260777667368022,"325":0.1782679055680877,"326":-0.2934817756188977,"327":-0.31404946812447093,"328":-0.30935449272589627,"329":0.13202016464681274,"330":0.6004190106425437,"331":0.7956198643406663,"332":-0.3941151157255962,"333":-0.13483754169460993,"334":-0.3969990566750804,"335":-0.1620119035802105,"336":-0.10067317284586327,"337":0.17544550499120465,"338":0.17891109496676005,"339":0.020575770890645686,"340":-0.07146095194118972,"341":-0.29782571448450257,"342":0.053969107949486124,"343":0.6695903997460432,"344":0.8273194225638795,"345":-0.7746184450401857,"346":-0.699884987096508,"347":-0.1430802004922482,"348":-0.2527535858875934,"349":-0.031039079548061475,"350":-0.003708538745560507,"351":0.315499755328468,"352":-0.4678092742775828,"353":-0.16627220638595638,"354":-0.6272318586930662,"355":-0.16777909077730166,"356":0.7950962577360359,"357":-0.07327453210892038,"358":-0.3833276950675288,"359":-0.2198300103823037,"360":-0.14684777774451988,"361":-0.4494232129009505,"362":-0.19429392483377567,"363":-0.03852698285144847,"364":0.4128505270728364,"365":-0.3236110196929697,"366":-0.11188866287238462,"367":-0.36991520591390414,"368":-0.23469372106256492,"369":0.5386084601905565,"370":-0.02142638157296545,"371":-0.5701005594324552,"372":-0.09464607411964789,"373":0.040251315010245745,"374":-0.14801136289928096,"375":-0.7056155453003334,"376":-0.06283282211356651,"377":0.049201118519204355,"378":-0.04857319302559272,"379":-0.13275058441928012,"380":-0.22474435898934417,"381":-0.3667003623229042,"382":0.45738878296373425,"383":-0.08305072037742507,"384":-0.7896163339924899,"385":-0.3418693024071741,"386":-0.13677062938581042,"387":-0.29038347363516287,"388":-0.9372378680818981,"389":-0.031144781520353226,"390":0.14632857751069733,"391":-0.4035262063628397,"392":0.0004958069132002117,"393":-0.27892134407652763,"394":-0.47050804341579244,"395":0.1311174213575174,"396":-0.9795437725760155,"397":-0.6015116741098923,"398":-0.02248768012454636,"399":-0.35136421829002346,"400":-0.20604502304575198,"401":-0.6219854504046879,"402":0.48836377831722,"403":-0.39142313205062995,"404":0.061597301487213506,"405":0.011198626652196522,"406":-0.1546840187132804,"407":-0.28386473015695923,"408":-0.03934569389433665,"409":-0.9478702272805841,"410":-0.6416892558995377,"411":0.13406887992189875,"412":0.2376575784203467,"413":-0.0017574399295513924,"414":-0.7144303550828177,"415":0.3501240442799486,"416":-0.20568353902752873,"417":-0.015673439534291678,"418":-0.13707594207297802,"419":-0.33064183672793196,"420":-0.10686383171431513,"421":0.3914273078202157,"422":-0.9483880092097917,"423":-0.5015301658135543,"424":-0.24503324688254094,"425":0.00900021061316258,"426":-0.2667745831521439,"427":-0.04883577466933893,"428":-0.1200200947822069,"429":-0.035521881645003625,"430":-0.18010321744734042,"431":-0.18026445372232572,"432":-0.11498990734193394,"433":-0.43872918867659305,"434":-0.29768042334176853,"435":-0.8542038871164053,"436":-0.5544756843989653,"437":-0.08323646906600614,"438":-0.013044835050940689,"439":-0.05564960236188786,"440":0.21447955283009396,"441":-0.17320495930320506,"442":0.03995852156358316,"443":-0.028230367764129138,"444":-0.11750175327878294,"445":-0.1710282267461243,"446":-0.533605208731121,"447":-0.04678447402067249,"448":-0.14007179951121962,"449":-0.6654614172841372,"450":0.03062213082294436,"451":0.0726752047557934,"452":-0.06951715167357492,"453":0.12054009033379995,"454":-0.3004629846878089,"455":0.5203785606384409,"456":-0.15125639593895343,"457":-0.33786937690168417,"458":-0.13134545548118065,"459":-0.4949465277887774,"460":-0.2811167002422026,"461":-0.44933882687917104,"462":-0.3478549151359703,"463":0.0019743628740478713,"464":0.09192632679797381,"465":0.3229533055316228,"466":0.17146838071437975,"467":-0.21303607391296325,"468":0.2955473303931649,"469":-0.03458259149928442,"470":-0.2850774534899064,"471":0.14626833043430426,"472":-0.13751217824390838,"473":-0.17989138012550715,"474":-0.8118674969345643,"475":-0.33414215069767544,"476":0.48924790526742196,"477":0.5269580093808668,"478":-0.07615912348359916,"479":-0.3801092462372014,"480":0.15713855578004257,"481":0.36765640628764795,"482":-0.21190952122979406,"483":0.05882348578633658,"484":-0.1999494238278301,"485":0.3336138466016227,"486":-0.47308861910372496,"487":-0.7302029881760821,"488":0.05432812543028879,"489":0.06969493537862306,"490":0.5032234038710116,"491":0.3493940510616017,"492":0.4161602218587474,"493":0.32244747144214314,"494":-0.05731001452506774,"495":0.04178040559472972,"496":0.02632567771143738,"497":0.3610631816339762,"498":0.011449126432479428,"499":-0.42637182430113607,"500":-1.8398265672202552,"501":-0.3448369875369424,"502":0.19171786703927315,"503":-0.033705269470897116,"504":0.432520142782314,"505":-0.12232860536018897,"506":0.22682255417277877,"507":0.13736059868694733,"508":0.16538180253305404,"509":-0.1391499918473048,"510":0.18532097459636904,"511":-0.3196866657819145,"512":-0.45160356585041916,"513":-2.0321274573225465,"514":0.14196517280850385,"515":-0.18106134466793827,"516":0.12423722355596001,"517":-0.021348842206934473,"518":0.38969383081507447,"519":0.23376525993054925}},{"sx":1,"sy":1,"depth":520,"w":{"0":-0.33887286853793885,"1":-0.160272158068603,"2":0.19710099568817324,"3":-0.13362871733491258,"4":-0.29287274200324603,"5":-0.574072212836832,"6":-0.007701435914242282,"7":-0.40750439835130375,"8":-0.3390362835157856,"9":0.34057883498086267,"10":0.32806480670190924,"11":0.06957609541263474,"12":-0.14670936002663265,"13":-0.1487817735390548,"14":0.048115014034576985,"15":0.14971733076452007,"16":-0.09576501860773068,"17":-0.2672174601944916,"18":-0.053941513193132354,"19":0.27568032969936446,"20":-0.06045378304108698,"21":-0.18733055137663113,"22":0.31915767138257733,"23":0.309274181036246,"24":0.19995089671351501,"25":-0.15759041172557114,"26":0.09133672115893943,"27":-0.06984097130320065,"28":0.12939806277781393,"29":0.17632940967724592,"30":-0.03319210206425033,"31":-0.2985209636870249,"32":0.011617925488079321,"33":-0.1788147033174117,"34":-0.5889546789349746,"35":0.07597500590557221,"36":0.2284623677504768,"37":0.2758064733158873,"38":0.23861229892226085,"39":-0.202201084033033,"40":-0.2093525172427465,"41":-0.017527156739755346,"42":0.1584400722038675,"43":-0.06636466362825715,"44":-0.3124561872904426,"45":0.05160998588635622,"46":-0.39419445042640483,"47":-0.2474612749698691,"48":0.32891678059485424,"49":0.5014759316898698,"50":-0.14162621885834936,"51":0.52053775296949,"52":-0.3443157155283055,"53":0.028571815478817444,"54":-0.12632152743689518,"55":0.027997698024002093,"56":-0.4923364323859121,"57":-0.3190785624136012,"58":0.07748593824661285,"59":-0.10169631753779239,"60":-0.8275509257537892,"61":-0.5121254467576054,"62":-0.027188376174063715,"63":0.06360064732563889,"64":0.37960014153893545,"65":-0.20458325364382296,"66":-0.06655342529215258,"67":-0.11594166043046689,"68":-0.2092600734972953,"69":-0.046129514466835796,"70":0.04183260236642917,"71":-0.1563022590475782,"72":0.1230654216186211,"73":-0.1864934650524855,"74":-0.2504546321855201,"75":0.08802598082356669,"76":0.38039345564042776,"77":0.5735491770531607,"78":-0.10669083335773834,"79":-0.23175655909135043,"80":-0.24098876278666423,"81":-0.2081840370136896,"82":-0.23886398162088518,"83":-0.5011072326348484,"84":0.24966070452727962,"85":-0.24763660214475955,"86":0.12024567302536368,"87":-0.20479157984817672,"88":-0.15106328265203592,"89":0.11611200126362718,"90":0.45979665788512797,"91":-0.004294186251264498,"92":-0.08191923340946233,"93":-0.04673843177931776,"94":-0.06482830297699137,"95":0.06633216633916217,"96":-0.4401488504252425,"97":0.05438562236510766,"98":-0.09746102973207539,"99":0.33800826181320526,"100":-0.3250187762457548,"101":0.0973337884018859,"102":0.446049956903553,"103":0.3114906296301965,"104":-0.3768938350280879,"105":-0.1964331304381374,"106":-0.1546976470364161,"107":0.20444858757994802,"108":-0.14863854402912696,"109":-0.311582919003749,"110":-0.1383413144169264,"111":-0.18771852623647617,"112":-0.25137319167046535,"113":-0.2458764618139542,"114":-0.3044158995304323,"115":0.31725570782324797,"116":0.3696259985304802,"117":-0.2853741926134471,"118":0.0918638629869766,"119":0.048419681198663224,"120":0.14319054752262994,"121":0.18513652307852838,"122":0.024685463527799646,"123":-0.10452104794671337,"124":-0.376384205450911,"125":-0.3715437426839,"126":0.1316810796829071,"127":-0.043884892854241,"128":-0.12324613577599029,"129":0.15939414875631158,"130":-0.2772003766374819,"131":0.1692423086531513,"132":-0.14416140981543782,"133":0.11142174416793534,"134":0.38956245459451067,"135":-0.16595850809717952,"136":-0.41453911751111305,"137":-0.1532425749741993,"138":-0.38546449874123495,"139":-0.4698089986047503,"140":-0.25547392505420224,"141":-0.30706330286362604,"142":-0.16221440954780303,"143":-0.14920991795275715,"144":0.3181362693971792,"145":-0.17927265539013196,"146":0.038115111817294905,"147":0.08122879300695734,"148":-0.17631299634498435,"149":-0.610365684894111,"150":0.21212337746932222,"151":-0.41147509983404734,"152":-0.04662473044330394,"153":-0.05986391020053468,"154":-0.477031280971607,"155":-0.16756540844181306,"156":-0.04864543650833222,"157":0.4144852033582283,"158":0.16719121871151713,"159":-0.28373491262782635,"160":0.5178517639200529,"161":-0.20920540183263706,"162":-0.5093613677798934,"163":-0.21521644717874988,"164":-0.20042383507746458,"165":0.07320812098479325,"166":0.22713364072840794,"167":-0.2893841874394254,"168":0.1014990391179378,"169":0.3414298130122425,"170":0.09515119483692992,"171":0.2556796019180371,"172":0.297255442426131,"173":-0.17715534024801816,"174":-0.42686207238579904,"175":-0.6140885872687512,"176":-0.19353058255125227,"177":-0.30436538809093494,"178":0.15146851439303796,"179":-0.24206602566266436,"180":-0.2861460678227467,"181":-0.06401780021994868,"182":0.46702006484421105,"183":-0.1037804613111337,"184":0.661166927632414,"185":-0.009283906885017085,"186":0.003073485844197181,"187":-0.2328907952804829,"188":-0.24927426360768964,"189":-0.07898419454489419,"190":0.10480247230954855,"191":0.13078353873839782,"192":-0.024946576977462283,"193":-0.2181297940296213,"194":0.5007549240462883,"195":0.21933715924554872,"196":-0.2120313577728506,"197":0.4896907911779309,"198":0.13582676791661144,"199":0.3722608635674161,"200":-0.08402014192002058,"201":-0.37432160726023334,"202":-0.5295203444265613,"203":-0.19934926239872539,"204":0.02301881657242106,"205":0.15236600829011143,"206":-0.17739276309889554,"207":0.18978254047447116,"208":0.4096554055442106,"209":-0.07361042592472976,"210":0.230856329696803,"211":0.4876289909917781,"212":-0.006892123828560536,"213":0.015432443547162326,"214":-0.2618555481406467,"215":0.032526032654114224,"216":-0.011550648804552616,"217":0.1491112034305556,"218":0.18161604830862144,"219":-0.4369104839927317,"220":0.02624436833655667,"221":-0.04675100583119753,"222":0.07144067867138076,"223":0.2844312329126922,"224":0.5454416788742427,"225":0.15131288956796626,"226":0.22404134177898727,"227":-1.0760873113347953,"228":0.14642082161885878,"229":-0.2846968500426347,"230":0.14117621257539661,"231":0.23967570646228178,"232":-0.19700130318557552,"233":0.1972221172885394,"234":-0.37264608817452016,"235":0.28959423490402286,"236":0.2887502750986658,"237":0.5822982720961202,"238":0.07700049006636378,"239":0.2870364191487615,"240":-0.6620544538893672,"241":-0.09153801767952582,"242":-0.24348462908540724,"243":-0.03397716734911098,"244":0.4289704585008295,"245":0.1164361836037649,"246":0.031075337301299542,"247":-0.1662547400959082,"248":-0.019984043145510923,"249":0.29492330847161435,"250":0.4959176776476322,"251":0.16609685574906805,"252":0.11859940549489369,"253":-0.4260321136369852,"254":0.4110650706994566,"255":-0.2555178972461833,"256":-0.11940151621613312,"257":0.4496139628329273,"258":0.6096835630670231,"259":0.0974746611135553,"260":0.13987174980523587,"261":0.19413614429978376,"262":0.4234578914917571,"263":0.5709735776026278,"264":-0.11275397498762801,"265":0.1556924982848741,"266":-0.717297498900268,"267":0.3212169312942007,"268":-0.16642069253173955,"269":-0.07224694014502255,"270":-0.017594443113791245,"271":0.4607373128674096,"272":-0.1685334692055674,"273":0.16551884907018904,"274":-0.016914825313078814,"275":0.3359574742598758,"276":0.7493453787478106,"277":0.12111937631084566,"278":0.3225924272742733,"279":-0.7813472735638102,"280":0.7095897649233244,"281":-0.052699692530236125,"282":-0.1838812553022803,"283":0.2745967301900235,"284":0.2517666968374362,"285":-0.22591320131420017,"286":0.44375852385312853,"287":0.026313766648583262,"288":0.1017465264614214,"289":0.35979970090991886,"290":0.38259620779999076,"291":0.38564016819830477,"292":-0.37986791808183273,"293":0.7899594239177725,"294":0.19353403598993318,"295":-0.19389639594899072,"296":0.3995835588130619,"297":-0.08280508567025303,"298":-0.07860353277314285,"299":0.2626780712954542,"300":0.4089666399978665,"301":0.1373197415963703,"302":-0.10270102917178474,"303":0.14107267491049424,"304":0.7302460181757942,"305":-0.5707649351846805,"306":0.7823585214636853,"307":0.4770361563680914,"308":0.2635000646616533,"309":0.16213015017500398,"310":-0.2619373526950978,"311":-0.07296320195403108,"312":0.2207104274978888,"313":0.0019623640768099233,"314":-0.058652167324772596,"315":0.04940286397605548,"316":0.04259689912358644,"317":0.7281173295835927,"318":-0.8529417629134164,"319":1.1186284352525444,"320":0.4848807843257881,"321":-0.007451499180265741,"322":-0.12689869200076975,"323":0.35822483448127485,"324":0.025725377046293837,"325":-0.027624103201650745,"326":0.39125654322385806,"327":-0.10689322670391047,"328":-0.24239010484242474,"329":0.20994922862870746,"330":0.4334159057814659,"331":-0.007648762395868452,"332":1.587539508596898,"333":0.723391474518754,"334":0.10431794431937821,"335":-0.056774530982570855,"336":0.20582205173661422,"337":0.12987937572202624,"338":-0.10204400088330326,"339":0.0720462466801142,"340":-0.13315835970119944,"341":0.19423390363540802,"342":0.15717728911944157,"343":0.46320677855141135,"344":-0.5171122978605638,"345":1.9940729354106728,"346":0.7335515422478476,"347":-0.18731085273198897,"348":-0.46214676749661254,"349":0.19934444067301085,"350":0.12273021642030012,"351":0.14132261755108405,"352":0.12362099826099773,"353":-0.16990540063515563,"354":0.4503812358292286,"355":0.07985886960051679,"356":0.6311775809833033,"357":-0.5960211493426839,"358":1.4450531981818866,"359":0.6047686935523032,"360":-0.1800720370219129,"361":-0.28792176465683805,"362":-0.06514642588872391,"363":-0.005671281904720344,"364":0.18835425211897477,"365":0.26096404041824783,"366":0.1393105810503754,"367":0.2922100991488817,"368":0.15458779176018453,"369":1.1824733990238387,"370":-0.7865124563366438,"371":1.2216023114118388,"372":0.5704920176528722,"373":-0.49704575228041564,"374":0.011053441164494731,"375":-0.1852390237908923,"376":-0.3825981911852719,"377":0.23430097905103592,"378":0.14772969614387815,"379":-0.4036977547735908,"380":0.01620611762934903,"381":0.23322108736074942,"382":0.8894798086077743,"383":-1.073305579799186,"384":1.3183230253638094,"385":0.06999708618839001,"386":-0.18617438057575486,"387":-0.218795008877236,"388":0.13449282568303395,"389":0.03447934127908102,"390":0.6385167133657741,"391":0.15230948777850167,"392":-0.27708061244207627,"393":-0.0041754859653639455,"394":-0.02519704373072479,"395":0.36501788283191294,"396":0.8512549822547313,"397":0.7989684603434852,"398":-0.2761971454581304,"399":-0.3813340691592689,"400":0.5483248180402924,"401":0.3336870241957736,"402":0.10147787223123791,"403":0.5832070247220972,"404":-0.1771756157752298,"405":-0.611782679873994,"406":0.21532529918250998,"407":-0.07224654625588363,"408":0.12228993125423768,"409":0.8368149564153492,"410":1.313125738512602,"411":0.1709732413783253,"412":0.054398993697222175,"413":0.2965139653686792,"414":0.5083333613554337,"415":0.17730600324843615,"416":0.4943271029212095,"417":-0.2572991375950854,"418":-0.516311119368136,"419":-0.2627611509723833,"420":-0.2049552917982157,"421":0.28577528901769333,"422":0.7690468469698243,"423":0.8799070923801567,"424":0.5087524156962977,"425":-0.1889427244170921,"426":0.36207311186191315,"427":0.7183467096772796,"428":0.5417445376782359,"429":0.47358734388828494,"430":-0.3181434921420125,"431":-0.4300945085508079,"432":-0.1292682448778987,"433":-0.13136753856687922,"434":0.46902770238327296,"435":0.7996863941442401,"436":0.84406414588149,"437":0.23239264680337104,"438":-0.48936301833509127,"439":0.5573974044672425,"440":0.5038496691876931,"441":0.4427245665728603,"442":0.4714843595055788,"443":-0.21680964627582275,"444":-0.7500185546347552,"445":0.32768288490756337,"446":-0.010032258001534884,"447":0.5564537922403296,"448":-1.20590015212283,"449":-0.11014081318752998,"450":0.23636819507180165,"451":-0.18405089982868,"452":0.09714292640437627,"453":0.4241030232509441,"454":0.3585461010514209,"455":0.3354326362636003,"456":-0.18049055898253258,"457":-0.6085893607320163,"458":0.20024755731694027,"459":-0.3692625279897188,"460":0.16258244038613143,"461":-0.9331263198268205,"462":-0.46207530214927317,"463":-0.05432419869690184,"464":-0.10551824106962122,"465":0.3965871127562641,"466":0.23822006331968618,"467":0.10052924327764554,"468":0.48473037322292123,"469":-0.05777058096608923,"470":-0.6226809010215565,"471":0.645295035438713,"472":-0.643806393604724,"473":-0.18114766466081308,"474":-0.5012469831943982,"475":-0.015954693499265517,"476":-0.12654541828807434,"477":0.230313876132769,"478":0.3836243699008745,"479":-0.12875264469688283,"480":0.31645288193712423,"481":0.3497263272718153,"482":0.24665795420034367,"483":-0.5263706134587774,"484":0.2931891847397347,"485":-0.469895203501251,"486":-0.09586546691046033,"487":-0.11811836458778167,"488":0.05732789801518497,"489":-0.20513808275824089,"490":-0.33999810677842224,"491":0.2826190225929175,"492":0.1649468016185249,"493":0.04826414745938453,"494":0.08828307864023409,"495":0.31009958445164243,"496":-0.007351443977493408,"497":0.18095877509683622,"498":-0.22569285934548824,"499":0.1076614556820702,"500":-0.09731407909979616,"501":-0.36969164491592366,"502":0.23467540043136162,"503":-0.07008113815595904,"504":0.19530716337805798,"505":0.11027054395269816,"506":0.04477879131554174,"507":-0.07277837148145952,"508":0.2476787246698814,"509":-0.1631120183692174,"510":0.08756883892133456,"511":-0.04183671542367645,"512":-0.38422118418759776,"513":0.21883987356976614,"514":-0.3969541946733055,"515":-0.1941623480380905,"516":-0.7618492079620407,"517":-0.16204938863005103,"518":0.30288031090784545,"519":-0.13956132949202088}},{"sx":1,"sy":1,"depth":520,"w":{"0":-0.12075483749637783,"1":0.12246586573978849,"2":0.3627045954738557,"3":0.529872220903311,"4":0.6089018323143364,"5":-0.17288073408898405,"6":-0.7098353079892344,"7":-0.09898987524260475,"8":0.1600829170921488,"9":-0.4713048942873282,"10":0.2749663742722922,"11":0.6029319439367734,"12":-0.3527222063011481,"13":-0.2939663607219363,"14":0.13424697547462525,"15":0.295707824220719,"16":-0.21993163782190805,"17":0.31678899076203215,"18":-0.02028403599556535,"19":-0.5414205749668162,"20":-0.18673669988521796,"21":-0.38283841939235697,"22":-0.12415190798551186,"23":0.08637908614541871,"24":0.32326118080772087,"25":-0.200678622889474,"26":0.23582174858959715,"27":0.40434896390707803,"28":-0.0494942084377253,"29":0.02393778705068975,"30":0.20674665907583603,"31":0.32747754454684935,"32":-0.4098504988351203,"33":0.3611174833149098,"34":0.2053610196452293,"35":0.048198479553647394,"36":0.29064883684226017,"37":0.7353519936991602,"38":-0.16199453375662506,"39":0.005889509011686103,"40":0.3391154534869467,"41":-0.025101595296115768,"42":-0.039410027987491436,"43":0.2052225714332767,"44":0.2370566930945289,"45":-0.6831082255888525,"46":0.11517926637071658,"47":-0.10782852991548932,"48":0.11342679332115695,"49":-0.006697712737992015,"50":0.4191082132532417,"51":-0.04608351849400133,"52":-0.20485549029544167,"53":0.31025005902809677,"54":0.3168253945416323,"55":0.30778953622192284,"56":0.251394242555462,"57":0.4195484833971731,"58":-0.7008735311081039,"59":-0.1141498946163076,"60":0.19623023730468414,"61":0.01537023262633736,"62":-0.23888537398910553,"63":0.6521823590082012,"64":-0.0862542378951178,"65":-0.213183886727855,"66":0.2777838265757744,"67":0.44264089518298094,"68":0.3504541613839962,"69":0.16454196681158065,"70":0.1817926507746128,"71":-0.5312533548894416,"72":-0.1445270278580725,"73":-0.34993813022561576,"74":0.12480460291647243,"75":0.11115506741074625,"76":0.6951909093178243,"77":-0.07201169464712236,"78":-0.25975626480575925,"79":0.3295879168190543,"80":0.2652352883168739,"81":0.5253067226941128,"82":0.04313152277344306,"83":0.08216872139770988,"84":-0.23728744049876382,"85":-0.39845999618315087,"86":-0.656624587329202,"87":0.337016602046187,"88":-0.030538036407154544,"89":0.19315420920473705,"90":-0.040540186038683236,"91":-0.2628886826901567,"92":0.3948470847585696,"93":0.19929331735030759,"94":0.3944541993300015,"95":0.24127627208650204,"96":0.19193919392107148,"97":-0.09094630902627654,"98":-0.326655953173936,"99":-0.011568547652694678,"100":0.32871830866088686,"101":-0.15503003016160496,"102":0.5917074289264875,"103":-0.061969043878763896,"104":-0.4592485806210729,"105":0.9057423309747853,"106":0.3220103755625048,"107":0.5837257915551184,"108":0.10701187919909942,"109":0.19509766337535733,"110":-0.4912436413783824,"111":-0.4556489834909956,"112":-0.3306670094216032,"113":0.12418934470709606,"114":0.3274807701188497,"115":0.3457350883779325,"116":0.08660283692997102,"117":-0.28571647660670096,"118":0.8578238962369021,"119":0.05759856976859399,"120":0.21974584815638962,"121":0.248386232424822,"122":0.2484512054263498,"123":-0.2436235474146699,"124":-0.051022280257461576,"125":0.12487060077903021,"126":-0.0074459756321871556,"127":0.28589060419338924,"128":0.20626164423133778,"129":0.07126474307695482,"130":-0.46511238986199904,"131":0.8473744441548786,"132":-0.1351768603275747,"133":0.19648665657014944,"134":0.1307572481519736,"135":0.04586892151009617,"136":-0.524918479182766,"137":0.054844077940221156,"138":0.09092103472296757,"139":-0.31108990962145644,"140":0.4669243192031801,"141":0.18748666173756312,"142":0.17265864953965138,"143":-0.4225767494139493,"144":0.6328251577866988,"145":0.09356177150908876,"146":0.14168613925437903,"147":-0.030866292777794294,"148":-0.07962807930593041,"149":-0.3241191948678032,"150":-0.7602206332189152,"151":0.17846765330596123,"152":-0.11254994938746889,"153":0.4311393333205638,"154":0.20688092767957225,"155":0.07034371036470308,"156":-0.2712199030273591,"157":0.300472872334198,"158":0.029772859580310194,"159":0.03506180668621523,"160":0.048669108426272485,"161":-0.17239251918653106,"162":-0.4664379855774995,"163":-0.07994779037207365,"164":0.48918969954128344,"165":-0.38334456124637467,"166":0.4381816004264052,"167":-0.20367352080402928,"168":-0.14120666418444197,"169":-0.28000923858495746,"170":0.31111509985289315,"171":0.38187508725224434,"172":0.1455276879433952,"173":0.1880285706275439,"174":0.18905412978196917,"175":-0.5085978720555124,"176":-0.19258450455152454,"177":0.433496743755327,"178":-0.14282286207151204,"179":-0.059140868440676876,"180":-0.42885343613344495,"181":-0.020619751014240188,"182":-0.4143350153513948,"183":0.3284023566178538,"184":0.6307412163791195,"185":0.13322323326425986,"186":0.19392787204686862,"187":0.23143185463201568,"188":-0.4083131891162669,"189":-0.5300611239575401,"190":0.23610058476994794,"191":-0.14450942626797075,"192":-0.29024521885618276,"193":-0.31934570197097933,"194":-0.006067135202228012,"195":-0.22735154018651207,"196":0.19978544168792295,"197":0.2288000302428511,"198":0.13808724535699188,"199":0.10487433836343114,"200":0.07205152443904342,"201":-0.27086206787353984,"202":-0.21467631608307497,"203":0.19293326023745078,"204":-0.09402932184444042,"205":-0.20011897382067248,"206":-0.5185372924413538,"207":0.0056662144282680765,"208":-0.42561292810917195,"209":-0.05553205781042189,"210":0.1217616692006786,"211":0.3729151118971215,"212":0.28897292579204087,"213":0.22068497995250244,"214":-0.24168754976776963,"215":-0.5610228891570732,"216":0.035204393908949,"217":-0.09317265263229431,"218":-0.04035933345114614,"219":-0.5240723165645803,"220":-0.023010488403848686,"221":-0.3612009135537951,"222":-0.16137725385613957,"223":-0.16932307266318078,"224":0.41234392859394736,"225":0.21881845300884872,"226":0.5885156015144184,"227":0.054043157275649976,"228":-0.10493707131134845,"229":0.4037604635217082,"230":-0.1867183691329026,"231":-0.19694919029895813,"232":-0.5978520229352049,"233":-0.02599849616930018,"234":-0.21690709088588575,"235":-0.13415052670219768,"236":-0.07522592724624758,"237":0.22779399779864257,"238":0.3836654847643798,"239":0.7294359562459999,"240":-0.13256067155706341,"241":-0.010247663816594213,"242":0.0665992442502268,"243":-0.16848785129743724,"244":-0.07404258657155176,"245":-0.4152645194326405,"246":0.06805869515645567,"247":-0.46729174170282434,"248":-0.19252456487763558,"249":0.29000693721014914,"250":0.13946133906330646,"251":0.41067555547689744,"252":0.5953685709013893,"253":0.005444748009242814,"254":-0.12601665903413406,"255":0.2240466824917165,"256":-0.02050170530111342,"257":-0.601886271669119,"258":-0.3636700751319705,"259":-0.05198480072081313,"260":-0.19065043803148987,"261":-0.18847551616015457,"262":-0.23673707165836283,"263":-0.10112295867972919,"264":0.42784117988161896,"265":0.5392230270901341,"266":-0.060635848180404926,"267":0.1736163563753234,"268":0.3285481706502492,"269":0.2565504914669703,"270":-0.6921537095132874,"271":-0.3055923150250608,"272":-0.12124519516584446,"273":-0.1316546370923251,"274":-0.3169048749404754,"275":0.39445092434072415,"276":-0.10978585752110194,"277":0.41980052592053463,"278":0.684182796670533,"279":-0.3581627964280129,"280":-0.19278500736276286,"281":0.05302160172538671,"282":0.3288258152010781,"283":0.12950618225349836,"284":0.16256570251719002,"285":-0.09407553798604829,"286":0.06917054822447828,"287":-0.3460285815441587,"288":0.2201444773738974,"289":0.35773162785551166,"290":0.22677977611501016,"291":0.8584313002699515,"292":-0.44964099805806,"293":-0.26887267709909346,"294":-0.03652514508628115,"295":0.15199959681826267,"296":0.0033486215625667852,"297":0.3775877316476177,"298":-0.18208072595455682,"299":0.2129319918441704,"300":-0.3258538343078241,"301":-0.05486542827921384,"302":0.1841003880076284,"303":0.3701013092779923,"304":0.9021742346668767,"305":-0.8903088244247265,"306":-0.6650667223176843,"307":0.020601233082636554,"308":-0.16272717987540528,"309":0.0359364700199457,"310":0.329423169965125,"311":-0.18610185026096915,"312":-0.04110580539641064,"313":0.022198898045119403,"314":0.16106124711560255,"315":-0.05890687525626921,"316":0.1510260490444661,"317":0.9052393806799047,"318":-0.6486303151684408,"319":-0.5692053871184669,"320":0.1819736869146882,"321":0.09851570998495428,"322":-0.024111815807142233,"323":0.10480115461389605,"324":-0.10207685593790823,"325":-0.1259059924261375,"326":0.0402720735943059,"327":-0.24113910220711254,"328":-0.011230049357530912,"329":-0.1474207042295823,"330":0.3944119201609065,"331":-0.9792863232717619,"332":-1.2577878242717535,"333":-0.06290974049979546,"334":0.13298438627359763,"335":0.06183455459767414,"336":0.4265417918062391,"337":-0.20847348010399738,"338":-0.18359249345923664,"339":-0.055235425839946846,"340":0.13821374050055743,"341":-0.01573356287963443,"342":0.01746376161057651,"343":0.4126057678818871,"344":-0.9138423505150327,"345":-0.8206184376705186,"346":-0.0999498180748023,"347":0.023519526446639787,"348":0.10962323316099068,"349":0.5517640922198577,"350":-0.23010232583433599,"351":-0.026017321421914267,"352":-0.1973394617938594,"353":0.5053903431735794,"354":-0.054750279137810616,"355":0.017953827901197376,"356":0.31386998707781005,"357":-0.605196649712553,"358":-0.3132144770447269,"359":0.2177942882627152,"360":0.27899554317813446,"361":0.09802734966814815,"362":-0.12818072319666962,"363":-0.10035555730199275,"364":0.06703675932458644,"365":-0.270687084055597,"366":0.3358436958799033,"367":-0.07331106777378285,"368":-0.2799213826890164,"369":0.6838843333292589,"370":0.08128760341519792,"371":-1.1693475175180534,"372":0.291316953618972,"373":0.018921806893179693,"374":0.21724231773234484,"375":0.559916620076582,"376":-0.18250703898485987,"377":0.17745455982264544,"378":-0.11455796622274039,"379":0.23987695539462664,"380":0.06369830241900871,"381":0.12351224401471014,"382":0.3640114821950006,"383":0.3120851781176094,"384":-1.2123039748122892,"385":0.3776775351232551,"386":0.3592821143549536,"387":0.1098565929266589,"388":0.3385824518072987,"389":-0.10985215578657247,"390":-0.06808645329623018,"391":0.0025850511239301254,"392":-0.047128988156121064,"393":-0.23166990243003546,"394":0.3523096881926765,"395":0.09597538315530392,"396":-0.9714566468136144,"397":-0.8521939515208993,"398":0.05041236893052313,"399":0.21522850533043109,"400":0.16795668061357502,"401":0.21672897371872765,"402":-0.029490937333081595,"403":-0.36258125146061315,"404":-0.02513708835666352,"405":-0.3985584391354178,"406":0.20139378937821265,"407":0.05782929716085013,"408":-0.21990706576722296,"409":-0.9607619066009455,"410":-0.899404677899739,"411":-0.2369278586647376,"412":0.13699115157390437,"413":0.04153796355034316,"414":0.5135233361674165,"415":-0.05920385972361446,"416":-0.25733017576782974,"417":0.2204938324221295,"418":0.02205302594139512,"419":-0.04995622322553697,"420":0.07014599339652451,"421":0.009320279149239179,"422":-0.9607328900604192,"423":-0.6703960414849901,"424":-0.06186619839514434,"425":-0.02375503471586334,"426":0.25849147783072435,"427":0.4638649707656479,"428":0.0029095590865926076,"429":-0.21905073618408885,"430":-0.20608637756677728,"431":-0.32939868362632024,"432":-0.4648013596179549,"433":-0.12508201788491238,"434":0.1909297872480576,"435":-0.9757230147146038,"436":-0.8222832254690675,"437":-0.5427102423909677,"438":-0.7345525584620399,"439":0.5524462660336055,"440":0.5000601369471216,"441":0.024254931168191236,"442":-0.14727302507663145,"443":0.2245799498366739,"444":-0.15546414923892624,"445":0.4404360287857815,"446":0.18327542986771755,"447":0.09978559024079361,"448":0.6062775505063831,"449":-0.26717323294485457,"450":0.41649114858068514,"451":-0.05010090998597971,"452":0.3735373764353399,"453":0.3425144703345316,"454":0.08871291843002577,"455":-0.08021106743909018,"456":0.2657140470827741,"457":-0.10410845227668888,"458":0.34166109480056867,"459":0.1487908784448024,"460":0.13490036843460887,"461":0.24180034126239036,"462":-0.42101366071028706,"463":0.0986554778107933,"464":0.049365600770742125,"465":0.3566519934111882,"466":0.032235721432127364,"467":0.052373257092172734,"468":0.19652120809055368,"469":-0.08707018600734603,"470":-0.6709874200278498,"471":0.44018295899759763,"472":0.10729896962742945,"473":-0.07459093272370322,"474":-0.23950498289067376,"475":0.3601922924240701,"476":-0.05296310054408899,"477":0.1666613679144168,"478":-0.21110028750522786,"479":0.44947670908246384,"480":0.014107992902218914,"481":-0.02802365072159513,"482":-0.03573918368157937,"483":-0.20652288219792952,"484":0.4475181513931477,"485":0.6827223065857081,"486":-0.4654697276189977,"487":-0.3663838046994767,"488":0.19739890262962628,"489":-0.4223581730210404,"490":0.45416615999140914,"491":-0.16175885651098929,"492":0.46722689765065967,"493":0.01745752965619893,"494":-0.2595302140092501,"495":-0.12111202833441904,"496":-0.33820711311064877,"497":0.17816333086137243,"498":0.01176059271702946,"499":-0.01942517346160885,"500":-0.851049327556605,"501":-0.008523513185755558,"502":0.05541042761123657,"503":0.23403744019650685,"504":0.03182195887792005,"505":0.2709088336288464,"506":0.05073394333541619,"507":-0.15048609199807061,"508":-0.15051358708837737,"509":-0.3554087489368686,"510":-0.21959891461367148,"511":0.3172120061617012,"512":-0.28628016590748534,"513":-0.9183729928795727,"514":-0.23549484113582947,"515":0.14221316717542135,"516":-0.03973914084849379,"517":0.22819777002697503,"518":0.37524622993468354,"519":-0.06726483416769119}},{"sx":1,"sy":1,"depth":520,"w":{"0":-0.0767973290138333,"1":-0.09768811727075236,"2":-0.19443527592306475,"3":0.18171873260485977,"4":0.17069477883713816,"5":0.08166102436649157,"6":-0.10219070005806379,"7":0.1420191624839587,"8":-0.5966875221329279,"9":0.3260941527513723,"10":0.06693886053944667,"11":0.3632147545957109,"12":0.06981095459516481,"13":-0.10871540663509076,"14":-0.21580374749515915,"15":-0.08805198061336438,"16":0.11274671114697085,"17":0.20042655202419854,"18":0.04215894438215484,"19":-0.553841342483992,"20":-0.054296711543010044,"21":0.022600818842829034,"22":0.14575160809217025,"23":-0.16999307770387256,"24":-0.17300683754138474,"25":-0.022766328213174605,"26":-0.1169990150021181,"27":-0.125895074011529,"28":0.049326484034450696,"29":0.02361638065560069,"30":0.13021375731343196,"31":-0.3624922912536829,"32":-0.1602727055589468,"33":0.10774088573601102,"34":-0.22560046037103346,"35":-0.02570635393864355,"36":-0.22838368100293815,"37":0.1896243419833033,"38":-0.26465585110540624,"39":-0.0929097715588795,"40":-0.02909213524912945,"41":0.01291631766043653,"42":0.15972776709920167,"43":0.6201713616699241,"44":-0.13039155544263314,"45":-0.3449482627966748,"46":0.11063667702013427,"47":-0.18074575249942007,"48":-0.11641174903253375,"49":-0.33497554596333096,"50":-0.579515622767,"51":-0.05000649439822861,"52":-0.04695209621338892,"53":-0.18499604611286607,"54":0.14190178505328774,"55":0.18448253920018584,"56":0.6641017189354382,"57":-0.14067012829563305,"58":-0.5703911092321138,"59":0.3108746625778019,"60":-0.13311966879689233,"61":0.045016194041251824,"62":-0.34585710723436114,"63":-0.7012212060156666,"64":0.056920512518833295,"65":-0.015957927847349722,"66":-0.11547952582168683,"67":-0.10918046979321527,"68":-0.09115526565202342,"69":-0.028264917135957274,"70":-0.3071275263177219,"71":-0.058708883174363194,"72":-0.33103551059047814,"73":-0.11730159665908663,"74":0.11300881527882538,"75":-0.3197903073529273,"76":-0.28378394786375377,"77":-0.8018138951668888,"78":-0.19913683002126895,"79":-0.10160724062741416,"80":-0.5596746043882183,"81":0.04919954999269071,"82":0.07517319140866528,"83":0.016221735739568293,"84":0.11353761441817681,"85":0.3421569919913155,"86":-0.10434749654418418,"87":0.005255266551070281,"88":-0.34100226621619323,"89":-0.42278283198157013,"90":-0.4165717391349507,"91":-0.28549569813736714,"92":-0.10316871843670926,"93":-0.12313742849553098,"94":0.1821724985432789,"95":-0.09802944551686983,"96":-0.16192750260551694,"97":-0.16333058003782125,"98":0.020900096329767644,"99":-0.16986181823254023,"100":-0.4174281127012603,"101":-0.16510860788663412,"102":-0.3104889360403288,"103":-0.24172617144992697,"104":-0.25020298559255016,"105":-0.07011636785861732,"106":-0.20358308540570963,"107":0.07162158825734243,"108":-0.14107373485342053,"109":-0.3815389533332149,"110":0.28330460933418017,"111":0.2850354852404487,"112":-0.14714454991579903,"113":-0.07152306875588894,"114":-0.18012561460512233,"115":-0.013936428096618443,"116":-0.12448246708314277,"117":-0.07666032945832157,"118":-0.24987214648256348,"119":0.21583771306441665,"120":0.25664609186699,"121":-0.035847886614248745,"122":0.10714249238626196,"123":0.175911936908258,"124":-0.1518166496936416,"125":0.1283936231605975,"126":-0.27990629607244477,"127":-0.4364835453367406,"128":0.12170176472527776,"129":0.13302314230170956,"130":-0.04624531250348036,"131":-0.1607521501288587,"132":0.15632408947362858,"133":0.1297170643837086,"134":-0.21213697571885087,"135":-0.2705127336937023,"136":0.2142178559415555,"137":-0.41924967702259863,"138":0.08203747123212844,"139":-0.37925243324537294,"140":0.04768931719488146,"141":0.10822860691052047,"142":0.17341540785881987,"143":-0.10813198742633243,"144":-0.17781791796015387,"145":-0.04814999958126513,"146":0.10253675463631341,"147":-0.200081993763353,"148":-0.26299200981135107,"149":0.44958943482889,"150":0.12383245918836276,"151":0.30868764230330803,"152":0.14190474870752048,"153":0.3799407100416713,"154":0.22227080499184831,"155":-0.10020913343185536,"156":-0.07078145981048148,"157":-0.27422764236776065,"158":0.20891908793796207,"159":-0.20011205557543163,"160":-0.08543378763585112,"161":-0.10281029636538137,"162":0.2848455026767638,"163":-0.2795369865338205,"164":0.14335046340071933,"165":-0.16103798277318448,"166":0.1992194232025052,"167":0.12524917711796588,"168":-0.32058912179398263,"169":-0.1895962761324726,"170":-0.11518345777827849,"171":-0.2676866658162097,"172":-0.34605920410896823,"173":0.07549940628268378,"174":-0.21922415052136604,"175":-0.0011451778779372232,"176":0.05417073435576177,"177":-0.12670506207180918,"178":-0.4579178216750109,"179":0.4801237362540387,"180":0.17474797317824928,"181":-0.3664123401606975,"182":-0.14751012038168157,"183":-0.13605224197264842,"184":-0.03992845028115054,"185":-0.13090802754677489,"186":-0.25290793193926187,"187":0.06035881785451663,"188":0.5635040969420109,"189":-0.5111571971539314,"190":-0.012857317239253234,"191":-0.12061607977121605,"192":-0.03578665275515451,"193":-0.20280939343152038,"194":-0.35548432753809944,"195":-0.43439751763501483,"196":-0.12039503799311244,"197":-0.39599958768177157,"198":-0.13942797989146044,"199":-0.11505086074695586,"200":-0.3027683772537537,"201":0.44134092947418324,"202":-0.6509272770134678,"203":-0.3987844339647223,"204":-0.3140295979654334,"205":-0.19030344608133182,"206":-0.3832003357877428,"207":-0.3481896470817489,"208":-0.33697895927534327,"209":-0.09517502370090669,"210":-0.296459685081571,"211":-0.29958992406053664,"212":-0.05618070285442004,"213":-0.2505026003266659,"214":0.3919078536490749,"215":-0.5156878860739325,"216":-0.09371225757356168,"217":-0.3738039427154895,"218":-0.18055655584329655,"219":-0.2767464873461496,"220":-0.3196409843794062,"221":-0.2222415614027786,"222":-0.039743175857710866,"223":0.06946658590052615,"224":-0.25116912890365045,"225":-0.054671860581765215,"226":-0.4397711886051585,"227":0.7196491287079866,"228":-0.5059038594262085,"229":-0.8394807083924734,"230":-0.14532676239262576,"231":-0.27179948815003746,"232":-0.3674014481766007,"233":0.09424572099788568,"234":-0.20400213831884198,"235":-0.11972235667604092,"236":0.00564676176855987,"237":-0.21932513804567913,"238":0.25563651483894145,"239":-0.33378278748684204,"240":0.04403549622645455,"241":-0.12515760907050666,"242":-0.6653796074282311,"243":-0.6426666602904573,"244":-0.10654891163144954,"245":-0.4974373275257137,"246":-0.1567880482985878,"247":0.004189069941129115,"248":0.08307708471555214,"249":0.3217513160830544,"250":0.005487540173627806,"251":0.5136511369356483,"252":0.3292467324900938,"253":0.789997559855584,"254":0.21067869829352187,"255":-0.4463553548223891,"256":-0.5257381060236986,"257":-0.05601365362747564,"258":-0.1802070445712078,"259":0.03309566852028763,"260":-0.07598528179829973,"261":-0.17533594663589788,"262":0.16593605188450725,"263":0.06063434017912875,"264":-0.06465107126219095,"265":0.35093383143181,"266":0.5505845668740326,"267":-0.08422725780556362,"268":-0.5163482371849014,"269":-0.30438111188904954,"270":-0.1332634740671072,"271":0.19750275398997186,"272":0.26833903036571904,"273":-0.06617580251443735,"274":-0.2822845669068002,"275":-0.06720007740989271,"276":0.14297077495282925,"277":-0.07331284450659707,"278":0.4355050055185748,"279":0.9076797722496968,"280":-0.02077852618004749,"281":-0.16008899166398471,"282":0.11737458200163668,"283":-0.39998107109023584,"284":0.17343697915102274,"285":0.009652286140917149,"286":-0.16406982808394677,"287":-0.15749545950336297,"288":0.01883310985818326,"289":0.18007143329695277,"290":0.15994287128581464,"291":0.4801641863353199,"292":0.49252381208616974,"293":0.022164614100796835,"294":-0.3376863116142509,"295":0.2987887214616586,"296":-0.10664740075112933,"297":0.5104681449758457,"298":0.13045529611049014,"299":-0.23187830122238057,"300":-0.27176856231155483,"301":0.2090592643279527,"302":0.16567388264357202,"303":-0.1374722316020592,"304":-0.028733209483106738,"305":0.9337563538168954,"306":-0.2804553983411602,"307":-0.07709644119791464,"308":-0.1296656607197289,"309":-0.02990857038418997,"310":0.474007866524604,"311":0.3160210842923189,"312":-0.29769327643013127,"313":-0.051139104489004356,"314":-0.05263352166228735,"315":0.260444649693713,"316":0.16242903390971453,"317":0.11151064578420476,"318":0.7001912915559205,"319":-0.7649951863876524,"320":-0.2883666773559429,"321":0.04280874595153644,"322":0.015102381933419106,"323":0.5525742349598116,"324":0.1519621643604471,"325":-0.13244862588089254,"326":-0.038857054100725284,"327":0.24949251119896348,"328":0.1662156704178189,"329":0.2354039003849196,"330":0.30255442073997973,"331":0.6022020300182649,"332":-0.6129880041430368,"333":0.25373458335664595,"334":-0.4507121413796783,"335":-0.10815920146533405,"336":0.1710866612897119,"337":0.37396369813285524,"338":-0.17625086105025897,"339":-0.05939191578254325,"340":0.1505963516057493,"341":0.030175082594195754,"342":0.10798059066368267,"343":0.35119893733989804,"344":1.032637657790812,"345":-0.8333379443167273,"346":0.06832027622895877,"347":-0.2646275258716757,"348":0.24853588372381677,"349":0.2415793263815724,"350":-0.02075652720103555,"351":-0.17144613224303673,"352":-0.02646461143380554,"353":-0.10472730324940367,"354":-0.3053774762054138,"355":0.16717153003312454,"356":0.14585336527379691,"357":-0.13830136704135335,"358":-0.9648684515227679,"359":0.010850958931025083,"360":0.38554702531930063,"361":0.20895412500695357,"362":0.43661061185544575,"363":-0.1428818186929133,"364":-0.06057470355130958,"365":-0.1447308155856567,"366":0.05240903076471068,"367":-0.3636188214512004,"368":-0.16777631126464965,"369":0.1907960813410845,"370":-0.11903452606167648,"371":-0.375250805211324,"372":-0.030394194604761886,"373":0.3395656404222554,"374":-0.0430848077962684,"375":0.35609333481589556,"376":0.06166821406473505,"377":-0.24939912000434625,"378":-0.049010299516711306,"379":0.011251722839135923,"380":-0.03890283615917445,"381":-0.013227866044890353,"382":0.12419599457275132,"383":-0.39472410810739367,"384":0.10496162355467027,"385":-0.34387356803174846,"386":0.2694142814325821,"387":-0.017945164491844648,"388":0.5342073325379838,"389":-0.29685690946356713,"390":-0.1731518503719392,"391":0.03885243274379491,"392":0.07642507373424515,"393":-0.24430524595804218,"394":-0.1936759489470465,"395":-0.2118904470003355,"396":0.7193868600449189,"397":0.0016689589722625974,"398":0.026544926043874487,"399":0.5546267530674065,"400":-0.14534114709725532,"401":-0.17516887291859218,"402":-0.03250876752473311,"403":-0.1717871426378512,"404":-0.3120999985081109,"405":0.4129415993296458,"406":0.050228367343031835,"407":-0.33429176142591194,"408":-0.19183243377089282,"409":0.7593727889311144,"410":0.3676669809891363,"411":-0.003986763561994411,"412":0.23824638675650936,"413":-0.010380861821319566,"414":-0.03050113899652983,"415":0.10890159886391283,"416":-0.12449891351268501,"417":0.02938592195177602,"418":0.28208808497332355,"419":0.2771781020194938,"420":-0.21700560984976167,"421":-0.18821994267653644,"422":0.8282717429730181,"423":0.7694093275978209,"424":-0.010760896757031005,"425":-0.3034287168182285,"426":0.5001596046104045,"427":-0.3677117445660282,"428":0.15271437144565778,"429":-0.202492613348858,"430":-0.22577951413942218,"431":0.10376959348414101,"432":0.4123357876756339,"433":-0.4905621127754763,"434":-0.07432213122959114,"435":0.8421406172215611,"436":0.3975665923510961,"437":0.1616775466425477,"438":0.08762100496628952,"439":0.7073461720262438,"440":-0.5074404394979064,"441":0.08158216125666494,"442":-0.11426805648334627,"443":-0.4420552427583754,"444":0.11034172834401748,"445":0.457933463149644,"446":-0.24896308001487788,"447":-0.2105186514068911,"448":-0.5161531861078135,"449":0.7065840514936068,"450":0.08947896402902558,"451":-0.1821305523261995,"452":0.5089920229955842,"453":-0.035716676555161975,"454":0.2461659945623394,"455":-0.11869688944907704,"456":-0.1241171683654972,"457":-0.036521751600357276,"458":0.372644681293442,"459":-0.13554366417654773,"460":-0.2845613124502797,"461":-0.28993248033098995,"462":0.42069022433751624,"463":0.1775405900909722,"464":0.024133463221085734,"465":0.2594712649918059,"466":0.054643575680181786,"467":0.24166016907069182,"468":-0.0893607397333902,"469":-0.2020763964988138,"470":0.07830885979359226,"471":-0.005813696716784762,"472":0.008665691801358654,"473":-0.4171745480172001,"474":-0.17330837751997663,"475":0.3074761929898894,"476":0.20935193724752563,"477":-0.07458000531065673,"478":0.18300349698370738,"479":-0.12638155414567548,"480":0.279624004001924,"481":-0.12454928914732954,"482":-0.10185771182070459,"483":-0.22921517657468077,"484":0.10779473080431705,"485":-0.02398018508353731,"486":-0.44456917700203147,"487":1.1776144257947978,"488":0.3111518854228976,"489":0.24359833421530808,"490":0.010232286519489146,"491":0.4061191237722449,"492":-0.22721728078275155,"493":0.3855682910725875,"494":-0.07067767973902185,"495":0.027230279833020985,"496":-0.3424422469818083,"497":0.45543633611064227,"498":-0.3585230626260105,"499":-0.30852356360315136,"500":1.0078513100914317,"501":0.031303116782353896,"502":0.12320857511776546,"503":0.26292379628523427,"504":-0.07599193980430603,"505":0.0732332056654108,"506":0.18038932548057418,"507":-0.06289279362927024,"508":0.06655677667571652,"509":-0.3721278820018641,"510":0.19609193468108843,"511":-0.32832602311458614,"512":-0.25324812201522573,"513":0.4600740323501012,"514":0.4199723534799201,"515":0.5757280490917733,"516":0.37314520405947094,"517":-0.4039564612599721,"518":-0.0935694816099042,"519":0.3609047474742202}},{"sx":1,"sy":1,"depth":520,"w":{"0":0.145871691837833,"1":0.21889586152986085,"2":-0.23158584362072185,"3":0.11408903207678184,"4":-0.708019380934352,"5":-0.12655535648000815,"6":-0.16632175646356817,"7":-0.4606376741605544,"8":-0.06868612824338279,"9":0.3834329503529504,"10":-0.0814235844614835,"11":0.3276500092329386,"12":0.1457077104822946,"13":0.23503313637574555,"14":0.08752735732875995,"15":-0.10304979570533773,"16":-0.15409018972318897,"17":-0.22462902652610503,"18":-0.13136650760636462,"19":-0.16552938008238746,"20":-0.287176754748665,"21":-0.1320831747527499,"22":-0.050055770616483926,"23":-0.03788808451212406,"24":-0.044029473870316624,"25":0.4204376120271399,"26":0.17924202594963634,"27":0.12345096249552454,"28":-0.22277887043180752,"29":-0.23653856599305234,"30":-0.7184116620333968,"31":-0.18740193844851272,"32":-0.49262913336712266,"33":0.1643978632114519,"34":0.21770065018912227,"35":0.07620377644863427,"36":0.09787595956200522,"37":-0.6996149411798703,"38":0.22138375812958683,"39":0.22278405802620757,"40":-0.02660424651524733,"41":-0.05743346114328012,"42":0.25045985648173624,"43":-0.06869006214359763,"44":0.49223820857173634,"45":-0.14959695600143122,"46":0.02132940420900825,"47":-0.004531767002735526,"48":-0.0755819672674402,"49":-0.11738600346449848,"50":-0.30065606300093217,"51":0.4872513996992459,"52":0.06246614998362568,"53":0.1061217579152872,"54":-0.14640277904256901,"55":0.13091728396882374,"56":-0.09305019725485053,"57":0.14301789540125248,"58":-0.442678812131036,"59":-0.3126337923617673,"60":-0.41579386377465544,"61":-0.4115294071128824,"62":-0.12768628664553958,"63":-0.24326636954881325,"64":0.5255267401871204,"65":0.17250273873398464,"66":0.151092962399069,"67":-0.18853689924212116,"68":0.28053902477420345,"69":0.061081904431327036,"70":0.15455409409179505,"71":-0.461161452110718,"72":-0.4177914233049273,"73":-0.4375872839548573,"74":-0.3804529240543511,"75":-0.28020010253812405,"76":-0.24668705833768315,"77":0.3773005900743094,"78":0.17273930048929617,"79":-0.06672957427408618,"80":-0.08164645597538968,"81":0.4348599081039175,"82":0.01760841415863847,"83":0.8068765989903678,"84":0.22951855355463238,"85":0.239850845737723,"86":-0.3508864684722611,"87":-0.6710685415398249,"88":-0.28461187885468153,"89":0.16494978345694317,"90":0.18868132004546082,"91":0.15267205067349615,"92":0.29818279898135674,"93":0.021305565807046036,"94":0.27393534379992657,"95":0.1695536147793424,"96":0.2291144583462211,"97":0.04486735680152173,"98":0.048061239377358796,"99":0.0434457800992908,"100":-0.6566596161241218,"101":-0.1945737034715341,"102":0.6197108215010297,"103":0.1646203883595371,"104":0.21101697545757112,"105":-0.06377583191556044,"106":0.16201714344509205,"107":-0.41044650171521985,"108":0.1335600802721798,"109":0.3067349991880641,"110":0.27199574852933706,"111":0.06757466715504293,"112":-0.22282343818091507,"113":-0.08799269759263234,"114":-0.015069604171795644,"115":-0.4705644394561357,"116":0.13547673632423668,"117":0.11354481582846217,"118":-0.0776774631420455,"119":0.16217628580677979,"120":-0.22472957802451762,"121":0.3301943249376058,"122":0.4796990266049759,"123":0.0283703542125185,"124":0.24923964006566662,"125":-0.06559375774021968,"126":0.3743905714635491,"127":0.30927421022452134,"128":-0.2127917247125327,"129":0.3080177994859994,"130":0.09897058376259385,"131":0.016816998253049036,"132":0.08726005310220208,"133":-0.4265235684772774,"134":0.4580357549090824,"135":0.7331459138533962,"136":0.19731160626366043,"137":0.10092879291628906,"138":-0.5380978520711963,"139":0.09067317079534305,"140":0.07884605319687649,"141":0.09609576429693392,"142":0.4630048777270814,"143":0.11803841834677754,"144":-0.10124312434121939,"145":0.11969407905899977,"146":-0.29173200818977746,"147":0.23642507510756758,"148":1.0650907414224877,"149":0.2474936260870371,"150":-0.24641642889443163,"151":-0.07806506416932987,"152":0.029650580769073263,"153":0.36486059982713603,"154":-0.246111045609729,"155":0.1116198670891624,"156":0.2896737004422446,"157":0.12809560835909461,"158":0.13461791209831916,"159":0.3499685573106883,"160":0.2712220594164369,"161":0.49347295874310365,"162":0.4207657982542207,"163":0.11186542820997583,"164":0.14523446286151526,"165":-0.14764584241817705,"166":0.11171067407241894,"167":0.13061679946623578,"168":0.17716975494466794,"169":0.24343108518824075,"170":0.25903201724032066,"171":-0.0619085904954121,"172":0.1320694890935625,"173":-0.2764540499190699,"174":0.16628356608309722,"175":-0.03882921742996442,"176":-0.10123909120037021,"177":-0.11366192256591898,"178":0.4037339089416244,"179":-0.3364446872641315,"180":0.019928700788539193,"181":-0.07646640839999795,"182":0.17080947994590198,"183":0.17674100754075978,"184":0.018752888743721198,"185":0.112055727162353,"186":-0.38879399371542905,"187":-0.09386479763252745,"188":-0.5381592739425499,"189":0.05601160938348418,"190":-0.2759802325561709,"191":0.5639901540111699,"192":-0.05108226889634199,"193":-0.07584539853849477,"194":-0.30096345972710287,"195":0.003646322741155841,"196":0.051468915452816746,"197":-0.14284837642966725,"198":0.2904070186624814,"199":-0.23747627831055906,"200":-0.5248175845317931,"201":-0.3748440438754242,"202":-0.31867187821640097,"203":-0.0004290689171189715,"204":0.5691194562237786,"205":-0.5745197730373719,"206":0.2613076146514932,"207":0.13711331507116212,"208":-0.030410777398943194,"209":0.08485280869238468,"210":-0.01253339129732963,"211":0.07276472194348642,"212":-0.300339860309314,"213":-0.11466402918778003,"214":0.056312971983971796,"215":-0.28468383542764214,"216":-0.08347770609819342,"217":0.3544058129447551,"218":-0.27965187316050644,"219":0.001535897791887629,"220":0.2422181481574444,"221":-0.0550598295308208,"222":0.10135213378481898,"223":-0.211725528343517,"224":0.28424780628181734,"225":-0.20129718440019034,"226":-0.10190153277427728,"227":0.22528235975508237,"228":0.14239448458350262,"229":0.3496311168363769,"230":0.16566543245582765,"231":0.0031423070650015107,"232":0.12856327771111192,"233":0.3394501688921489,"234":0.02726173542650612,"235":-0.07092803768528075,"236":0.027299796057859507,"237":-0.2326278516197965,"238":0.3145487123135966,"239":0.37209311634235803,"240":0.6003206649218463,"241":-0.0883272082690153,"242":0.7455397606017179,"243":0.006650952619605251,"244":-0.5617059386842256,"245":0.18805983795915385,"246":0.23679994710111138,"247":0.030064349692174416,"248":-0.012182231101059166,"249":-0.17818590177651472,"250":-0.4421252968913164,"251":0.040959289204389404,"252":0.22917356253955523,"253":0.12504101637645673,"254":-0.19012830687623516,"255":0.3627006311203289,"256":-0.16833089871883405,"257":-0.2733823792964026,"258":0.06005425095283056,"259":-0.07161978354861501,"260":0.09390164534590201,"261":-0.25642829628299635,"262":-0.36100795636704863,"263":-0.19791922094841302,"264":0.1539152622494358,"265":0.5047578014648411,"266":-0.6980048364650101,"267":-0.22993833901978455,"268":0.12394051716850428,"269":-0.15427172862512528,"270":-0.014200892462589652,"271":0.11047190279585685,"272":-0.08637861976195156,"273":0.09296890320038793,"274":-0.07691959944104303,"275":-0.07589332371481688,"276":-0.3172209669935058,"277":-0.21434762701541915,"278":0.7277950009463204,"279":0.011670261334395061,"280":0.24684231495538161,"281":0.3009642340819108,"282":-0.5555302702344544,"283":-0.496258499701849,"284":-0.4549966944818237,"285":0.18283804988898206,"286":0.12916358840223066,"287":-0.13197746255668974,"288":-0.4885680084351209,"289":0.0388696299288145,"290":-0.1554456451926173,"291":0.5914580969322094,"292":0.2548256648912044,"293":0.2841096927826711,"294":0.1982201572486627,"295":-0.0487744083929811,"296":-0.06108489583501613,"297":-0.2036373821446645,"298":0.4482751397950996,"299":0.250689117462225,"300":-0.18055647440367317,"301":-0.4917245692184722,"302":0.4198992282714104,"303":-0.08138609786026617,"304":0.6771800721211995,"305":0.5379032998019045,"306":0.34225789055314265,"307":-0.6629876080881553,"308":0.06164111954443185,"309":-0.093346409244572,"310":0.2340548046062169,"311":0.3775487108493351,"312":0.1995165586942443,"313":-0.11773557229159742,"314":-0.34964210764002757,"315":0.08022082699552593,"316":-0.03955297657862939,"317":0.6758853354527552,"318":0.5039279210287162,"319":0.31761604357378026,"320":-0.10328555446031842,"321":0.7391516695156392,"322":-0.03661029702719128,"323":0.6933888549215969,"324":0.3198223343235841,"325":0.21379712781290158,"326":-0.07117994169815575,"327":-0.5237755870130377,"328":0.3185799766247198,"329":0.20314263311891156,"330":0.37572153334311137,"331":0.2107314834344192,"332":0.18560692030502426,"333":-0.10880515759644922,"334":0.6280212532758824,"335":-0.2647684719855724,"336":0.530580413400537,"337":0.3323752675216862,"338":0.23875653183970416,"339":-0.031240464123937314,"340":-0.15974626238401576,"341":0.1832088047783076,"342":-0.01750555332729542,"343":0.2932088752899414,"344":-0.03137555868805569,"345":0.19108741531208462,"346":0.15216037840962623,"347":-0.042827127998162615,"348":-0.4262539463333776,"349":0.4064783118337124,"350":0.016885429523569116,"351":0.25186247491742475,"352":-0.2220835907432435,"353":-0.14426415754982252,"354":-0.6685880498577872,"355":-0.2871055826728313,"356":-0.03656862936834193,"357":-0.4154435867261231,"358":0.47270211903606735,"359":0.21598827378795285,"360":-0.09246788313164658,"361":0.15819703488306844,"362":0.1620055604854668,"363":0.04694531441939153,"364":0.09644352005981224,"365":-0.22604447489413323,"366":-0.010734558768151428,"367":-0.533635521664149,"368":-0.4083416769610151,"369":0.09192700794877227,"370":-0.369039085152021,"371":0.8973090912291501,"372":0.6247007260514328,"373":-0.3106353035425215,"374":-0.18206012892393814,"375":0.13445128483370591,"376":0.0075385899275819375,"377":0.14708509978060413,"378":-0.2099987533535912,"379":-0.1322372581593659,"380":-0.6444056575677332,"381":-0.44288325413354074,"382":-0.31432476826208283,"383":-0.29894944414827446,"384":0.8038691984977778,"385":0.10223649843737183,"386":-0.4997765926408333,"387":0.36482109458804035,"388":0.1971626381407072,"389":-0.06691451681372937,"390":0.1123808233382095,"391":-0.35734391601414117,"392":-0.24496579960277648,"393":-0.4246412406234443,"394":-0.14357714193533422,"395":-0.527891136875431,"396":-0.7156043457244536,"397":1.2049847584476698,"398":-0.04956678411971248,"399":0.044891512974981396,"400":-0.05817015805395233,"401":0.5110847419566986,"402":0.07026511538333653,"403":0.016731882985368034,"404":-0.13507549484449966,"405":-0.21860948366045976,"406":-0.15023620647437735,"407":-0.36836027057355675,"408":-0.09364890916976257,"409":-0.7329907314746478,"410":1.3068666284511012,"411":-0.04560564649766167,"412":0.17126111141655198,"413":-0.20051810776349113,"414":-0.27991103089192804,"415":0.0808991356746871,"416":0.24728436736471293,"417":-0.07737241755143816,"418":-0.3536032282878464,"419":-0.17322051467977415,"420":-0.23172989795916457,"421":-0.0960655905099743,"422":-0.6838410032570645,"423":1.6300122260362389,"424":0.13709390029098978,"425":-0.1469514810101415,"426":-0.3285741209434163,"427":-0.3439037866807484,"428":-0.00008814573965023763,"429":0.1065764004137901,"430":-0.010893900127992151,"431":-0.17900941221623054,"432":-0.1070177944221646,"433":0.08954187300114254,"434":-0.2110406601499205,"435":-0.7808555692367817,"436":1.5782570538099951,"437":0.24628782245606062,"438":0.285216968113143,"439":-0.3739693222675844,"440":0.10217855380290529,"441":0.0696180977460814,"442":0.2695970325612462,"443":0.06909425731835302,"444":-0.10314529401627162,"445":-0.36481833631799526,"446":-0.08638104351826383,"447":-0.7495088693501714,"448":-0.3953163099457469,"449":0.9972907919881433,"450":0.11427128275239153,"451":0.2278812854978887,"452":0.1781964779853819,"453":-0.3247561828046808,"454":0.5215098351946741,"455":0.03242273859342534,"456":0.02683487332350297,"457":-0.052195521081150664,"458":-0.33003737597235205,"459":0.03949832570673114,"460":-0.39879706200379705,"461":-0.4674543215627408,"462":0.4647898252405443,"463":0.100690156842768,"464":-0.4905497473715006,"465":0.25384592296324593,"466":0.09657750859861036,"467":0.5676923901188531,"468":0.027843971484103766,"469":0.03745039075793333,"470":-0.2102185359134694,"471":-0.17964322677848582,"472":0.023909679094423143,"473":0.06076103005365905,"474":-0.5389200505173016,"475":0.133692299905245,"476":-0.2721089698442454,"477":-0.3297064838444821,"478":-0.05922775272246992,"479":-0.1178746971085143,"480":0.2374268751855966,"481":0.013404887087815,"482":-0.5705707564799912,"483":0.10237854874782504,"484":-0.17848962130521617,"485":0.1543105274742158,"486":-0.3284441112449586,"487":-1.0316965551637394,"488":-0.09456388185832723,"489":-0.47232128462868744,"490":-0.28686624826936596,"491":-0.30287572143394736,"492":0.0003391478917153111,"493":0.5215685455539912,"494":-0.049222017968056836,"495":-0.4031622532300371,"496":0.07495792071460623,"497":-0.26785658475330615,"498":0.031014380808271007,"499":-0.07487666444888705,"500":-1.6608583323024824,"501":0.3233436471914849,"502":0.16279201186579703,"503":-0.5593430865943083,"504":0.04687048902357692,"505":0.12692137845077384,"506":0.30500822618535234,"507":0.26860622352727304,"508":-0.3917774888585019,"509":0.0699439214702669,"510":-0.1791462976872679,"511":-0.47440950677277505,"512":-0.3527899442889243,"513":-1.323494677271417,"514":0.026683034660306998,"515":0.267092390531571,"516":-0.513581260941376,"517":0.20556330053390892,"518":0.33323963850339267,"519":-0.08574649350685029}},{"sx":1,"sy":1,"depth":520,"w":{"0":0.04605940849821207,"1":-0.0448474910461376,"2":-0.02188907192927101,"3":-0.01956612950341102,"4":0.19571553845001652,"5":-0.021835421336375012,"6":0.7334028559212064,"7":0.05690948969125632,"8":0.9744581614992767,"9":0.03906041778751618,"10":0.02689101261618688,"11":-0.06567601940214429,"12":-0.16649892614090858,"13":-0.15098499697904644,"14":0.11557593054816617,"15":-0.0008334234650122965,"16":-0.402212114687978,"17":-0.09816777624254752,"18":0.12771998209826735,"19":0.3062138843058636,"20":-0.3779012135064069,"21":0.43442894292023254,"22":-0.29976743767945013,"23":0.028340397504306072,"24":0.017206600981048547,"25":-0.4416389930331633,"26":-0.11021028892542237,"27":0.01601815797847433,"28":0.3140119182821844,"29":-0.008989584369689293,"30":-0.12673690704333046,"31":0.163478133537637,"32":0.18361466427529322,"33":-0.20174249462496202,"34":0.2686084884463602,"35":-0.22006750329586983,"36":-0.15548317681814985,"37":-0.13661862241888006,"38":-0.34918444805877774,"39":-0.10955797420247854,"40":0.18037909967428267,"41":0.5633022443904825,"42":-0.15732586060267914,"43":0.0322474379734743,"44":0.061540965398970734,"45":-0.062763447976419,"46":0.06420730737794525,"47":-0.21469637462442517,"48":-0.0344129546835134,"49":-0.2323531633626716,"50":0.03439457420756857,"51":-0.370231464535967,"52":0.1767283705394621,"53":0.19864670994263647,"54":0.30634375998013263,"55":0.13961319440846945,"56":0.12656196603106779,"57":-0.08661459507803472,"58":0.4341826969923196,"59":-0.04991053343887005,"60":-0.14407752483840838,"61":0.13527526244294988,"62":0.1458039815468301,"63":0.19742292608491332,"64":0.005311772503674337,"65":0.2087990694877842,"66":0.2133162015819134,"67":0.06775757031094957,"68":0.23490084036918302,"69":0.2129387827334227,"70":-0.3326276745627863,"71":0.15089149715892586,"72":0.10613361587490043,"73":-0.06763883774631628,"74":-0.02366854606771162,"75":0.15555886955053946,"76":0.08827119599491419,"77":0.02940577872206997,"78":0.26335689000205476,"79":0.37349019429139363,"80":-0.1406668662563176,"81":0.12956749131532744,"82":0.11774332437857869,"83":-0.3118710307169468,"84":0.47013249816123365,"85":0.15952350609078877,"86":-0.37802046935273526,"87":-0.078898878041185,"88":-0.15535562443428091,"89":0.07889892982976192,"90":-0.05196064067641028,"91":0.11447810877917479,"92":0.150772886664886,"93":-0.09476196400700944,"94":0.38091802990418006,"95":-0.037010472012517524,"96":-0.3877197377468339,"97":0.1396802166323274,"98":-0.21555216436154695,"99":-0.30483508492558736,"100":-0.1576570044808973,"101":0.12044140142436842,"102":0.043640530703536407,"103":-0.15313763181787077,"104":-0.009392586324841391,"105":0.14044485965679182,"106":0.12256595088616802,"107":0.38026850956087016,"108":0.0054525680885636986,"109":-0.12452803061549556,"110":0.462485900782845,"111":0.2013150540018222,"112":-0.27033881234790447,"113":0.08387022635850934,"114":-0.07275747413334563,"115":-0.33519598723711047,"116":-0.5836491519946423,"117":-0.184183027863462,"118":0.2250815761722485,"119":0.21689599427243683,"120":-0.004924667646207761,"121":0.09964514529555545,"122":-0.31931553481601493,"123":-0.21166417944547655,"124":0.5933162637521037,"125":0.26471044498630514,"126":-0.10234899217144963,"127":-0.44636204397426194,"128":-0.09532676496414727,"129":-0.32381523873839835,"130":-0.2196983662973287,"131":-0.010252442992750353,"132":0.31036255171224975,"133":0.380144076547439,"134":-0.2533908626427859,"135":-0.20355934245073948,"136":-0.055894124786475055,"137":0.16742609422672888,"138":0.14451371648890676,"139":-0.18100280129174146,"140":-0.06379490972922865,"141":-0.20455037198270973,"142":-0.24171667305604574,"143":-0.14291698166413594,"144":0.1822059076327322,"145":0.17836589693680466,"146":-0.022248044944367596,"147":0.08852077154893712,"148":-0.0186649781785839,"149":-0.26788100604998405,"150":0.23904521551488364,"151":0.13234365583824126,"152":-0.20546205108008256,"153":0.05948669500238736,"154":-0.010367189842719483,"155":-0.12985188456114807,"156":-0.06482309904920107,"157":-0.16745456884658935,"158":0.08853132061976487,"159":0.04099352475548694,"160":-0.1491128085055396,"161":-0.43702055192618916,"162":-0.5844516369817939,"163":0.03712084823629592,"164":-0.2327049332312763,"165":-0.1577122911946838,"166":-0.022834722685312978,"167":0.19022265905860045,"168":-0.17265516688527682,"169":0.176175960509488,"170":-0.3456305751735705,"171":-0.270917308374384,"172":-0.19230607635090605,"173":-0.09053895752523508,"174":-0.4369871701095248,"175":-0.08535935023107855,"176":-0.05520154019085767,"177":0.024720721985857796,"178":-0.2581068206559932,"179":-0.26396265896172305,"180":0.09907582755586332,"181":-0.15710944900714346,"182":0.06547245536388195,"183":-0.1755250059088904,"184":0.07743092335062994,"185":0.07582794302474187,"186":-0.10612183409294476,"187":-0.6486685436861245,"188":-0.42193243379083784,"189":-0.3498776906579705,"190":-0.025325183229631804,"191":0.024057755750594167,"192":-0.5336112547169707,"193":0.3119916398198829,"194":-0.24687667515326708,"195":0.09622893947600608,"196":-0.13784799243752896,"197":-0.24306285251055504,"198":-0.07724230032057769,"199":-0.323359650510212,"200":-0.7996112701722359,"201":0.05331698272695806,"202":-0.03321342299091105,"203":0.13015314614174897,"204":0.20242660751181923,"205":-0.5282620143955503,"206":-0.13907313730220505,"207":-0.27482811141544067,"208":-0.03212746199153085,"209":-0.16990326720108176,"210":0.08744923522583505,"211":0.0882327523561958,"212":0.2608984223896478,"213":-0.1231063244611833,"214":0.15310790440690664,"215":-0.199819304492833,"216":0.3774870008466801,"217":0.27654905473428115,"218":-0.03901789269788039,"219":-0.006658732661549649,"220":-0.3793730184216331,"221":-0.11884097815271072,"222":-0.20133745042374324,"223":0.058010761449801496,"224":0.22639702615565538,"225":-0.2925865326027641,"226":-0.1097661604029794,"227":0.003001966599100093,"228":-0.5649236090619802,"229":-0.1300765843307715,"230":-0.08420597547641755,"231":-0.06802371588964627,"232":0.049733487616214794,"233":-0.40798491690197947,"234":-0.21868759955800407,"235":0.004325001547601571,"236":-0.3000944677106601,"237":0.4394750059108583,"238":0.28242535612129177,"239":-0.42276411938214026,"240":-0.06528967228762761,"241":0.1128452252057009,"242":-0.006977663725211376,"243":0.3120112174700048,"244":0.3106338895197859,"245":0.18070341374568125,"246":-0.3268895314716876,"247":-0.343905994546447,"248":-0.22469619447327835,"249":0.015675695998726005,"250":-0.03596980575272887,"251":-0.4088728509328899,"252":-0.5618395812948213,"253":-0.1917720995927055,"254":-0.22164578290882034,"255":-0.27177638769549695,"256":0.13050009197540732,"257":0.20117374794610066,"258":0.3567055740550912,"259":-0.4206948377958261,"260":-0.467326821714563,"261":-0.02166087199823965,"262":-0.19777653819986088,"263":0.16549764726723737,"264":-0.48453352707434927,"265":-0.6984576132668213,"266":0.033681419168043465,"267":-0.45697391274855964,"268":-0.00778293838033582,"269":0.1929846957504262,"270":-0.32823606810151434,"271":0.2414352201670029,"272":-0.23105609989067935,"273":-0.1533578644795832,"274":-0.2415270314055788,"275":0.15385591074368157,"276":0.4417916012546968,"277":-0.051279294865137805,"278":-0.5665595048571,"279":0.0789319160293369,"280":-0.19157615716169762,"281":-0.43208411518619627,"282":0.14040221117695525,"283":0.0853797997863474,"284":0.26015678296232225,"285":-0.2124652839502534,"286":-0.3081522617760127,"287":-0.1995954650113372,"288":-0.07612080933935361,"289":-0.17804563986065708,"290":0.04977479999031144,"291":-0.8163225152988481,"292":-0.3282178048252203,"293":-0.34631236964570233,"294":-0.12335662618124203,"295":-0.2206496947659834,"296":0.1539232777288582,"297":0.2150696272882903,"298":-0.08427241171842645,"299":-0.0013758665961274563,"300":-0.018253547002087575,"301":-0.1282345500815819,"302":-0.030270088903055603,"303":-0.2529239693091466,"304":-0.8527283193364047,"305":-0.6594610646071423,"306":-0.8550691100618194,"307":-0.0687214769770108,"308":0.046851794297775494,"309":0.19751830353295388,"310":-0.0015904251011804895,"311":-0.2914845208346946,"312":-0.18894430357520536,"313":-0.4666173969771516,"314":-0.412640509747074,"315":0.13350208043898235,"316":0.0479650579236211,"317":-0.8681278090177275,"318":-0.9249865176257384,"319":-0.7593001387045553,"320":-0.19335421052613314,"321":0.10427084170757005,"322":0.24371619898373895,"323":0.0712881152309586,"324":-0.16637618710260904,"325":-0.4654528239339137,"326":-0.09593329445667982,"327":-0.3947907142123548,"328":0.14184580532008959,"329":0.13604567958791813,"330":-1.2348806129104202,"331":-0.9592949708268381,"332":-0.9851959009276875,"333":0.20894163139664157,"334":0.3419530836439071,"335":-0.23913865967071501,"336":0.35300454534327047,"337":0.06774154420853333,"338":-0.3221202075324873,"339":-0.26158564398961637,"340":-0.32616922525260306,"341":-0.13978966667176312,"342":0.14520268682291979,"343":-0.6935983575304718,"344":-0.767649285629307,"345":-1.068599363765995,"346":0.4192572815921725,"347":0.3129381679842914,"348":0.27420407146071446,"349":0.38196521326867905,"350":-0.03170101097395347,"351":-0.30902197116692653,"352":-0.12015709831599918,"353":0.019505734250234247,"354":0.11517469550620006,"355":0.32026792399450743,"356":-0.6674313724588952,"357":0.04831086011417108,"358":-0.3695249880348654,"359":0.06668780589256165,"360":-0.19195439790283267,"361":-0.09023759560095297,"362":0.6674867260900936,"363":-0.04904465798326405,"364":-0.4717458769034964,"365":0.31494166502822923,"366":-0.4600616074773886,"367":0.25370077011046605,"368":0.07263971441402886,"369":-0.6425954330070681,"370":0.905581658436776,"371":-0.48528819316896415,"372":0.01578340555201203,"373":0.04878271605850694,"374":0.33873002519261464,"375":0.9043114169430577,"376":-0.20798336306459905,"377":-0.07106047007083272,"378":0.0707592478966762,"379":0.3272674101020762,"380":0.28386503992501705,"381":0.5114460756085901,"382":-0.6654555175092817,"383":1.2644956551618673,"384":-0.722650592245885,"385":0.2851511482500403,"386":-0.006820591734834382,"387":0.5782558040729383,"388":0.3494708613241454,"389":-0.7582589156648678,"390":0.1460394315309536,"391":0.30767165009677877,"392":0.27832061007930736,"393":0.494736709834145,"394":0.06060041686452133,"395":-0.26346257531051975,"396":-1.0356632990316021,"397":-0.7162554698870927,"398":-0.11221368585808712,"399":0.02429613916486319,"400":0.16431920339858763,"401":0.5138094031485206,"402":-0.6964732387292366,"403":0.12978674486906036,"404":0.2634785969417493,"405":-0.16058750949545095,"406":0.27787575452957664,"407":0.30949703229398434,"408":-0.2466150261389222,"409":-1.0388346679220726,"410":-0.19638809691946238,"411":0.1919314849506247,"412":0.07712359208852927,"413":0.45530127197846915,"414":0.30527196419875696,"415":-0.8694276193320507,"416":0.3528968472220283,"417":0.16825445426026442,"418":0.061033006102053027,"419":0.1462903784452824,"420":0.3326087908808483,"421":-0.23893052986836513,"422":-1.01594024723405,"423":0.13748929272281302,"424":-0.1641754596172891,"425":-0.053497051206262906,"426":0.07499775289828946,"427":-0.017545771134036086,"428":-0.7513006650649655,"429":-0.07666159455736873,"430":0.5428721685284807,"431":0.019963487144802807,"432":0.4694235314813176,"433":0.38976662297154485,"434":-0.1845000002713142,"435":-1.0587909724592797,"436":-0.27241822054282355,"437":0.09649467981658924,"438":0.4542688737255913,"439":0.282439962629732,"440":0.20714684029837405,"441":-0.2835188130101713,"442":0.1310478959020422,"443":0.5480801107675722,"444":-0.04965682941809822,"445":0.4121421099740862,"446":0.4578514489354125,"447":0.1630399527972564,"448":1.4780400100926867,"449":0.06597945895738831,"450":0.22456979247104905,"451":0.23290736844328025,"452":0.4758420213929498,"453":0.19084201924985958,"454":-0.10785201324499548,"455":-0.11809906697723789,"456":0.37228025053333447,"457":0.1552830063318088,"458":0.7472315144163022,"459":0.7589707422734814,"460":0.5427688957788026,"461":1.3699742073518457,"462":-0.030399309307485505,"463":0.48555630697301555,"464":0.4161987382625511,"465":0.48688322780149124,"466":0.10465405599937179,"467":0.18486067040140275,"468":0.06787968947450464,"469":-0.04913943169092916,"470":0.021550001853228928,"471":0.36627625985485246,"472":-0.1948518686750139,"473":0.5258496250043312,"474":1.1745852313922767,"475":-0.04315172735334645,"476":0.4348701586335475,"477":-0.14088429416465587,"478":0.38469891560938524,"479":0.2881355212695378,"480":-0.2346696226176859,"481":0.1876144388934883,"482":0.06551764139754666,"483":-0.17243241822071625,"484":-0.2027097194370445,"485":-0.12904246691788357,"486":0.1856393607255745,"487":-0.63301198361462,"488":0.1288785102402051,"489":-0.1155098136865173,"490":-0.1271001247516404,"491":0.5099554777624831,"492":0.5011413150359953,"493":-0.12123132033684675,"494":-0.013595160137546676,"495":0.1793023479499073,"496":0.3179123118845262,"497":-0.37479141029471197,"498":0.01992992519506087,"499":0.3267520356993464,"500":-0.16016747776068707,"501":0.38721822641596104,"502":-0.0677640048090052,"503":0.23075874208438119,"504":0.44519062235720547,"505":-0.05846683311518417,"506":-0.5155395265594763,"507":0.22550063281713179,"508":0.019678451250974192,"509":0.20769320232438848,"510":0.027431671110252676,"511":0.17067569470676672,"512":0.08173928488942604,"513":0.10857945555466088,"514":0.25628096575665377,"515":0.5672662107818769,"516":0.12680255588080683,"517":0.6769479346736238,"518":-0.32427904526991974,"519":-0.4208084334855488}},{"sx":1,"sy":1,"depth":520,"w":{"0":-0.20384598773230458,"1":0.3068184363047315,"2":0.5205273561474693,"3":0.417600889179196,"4":-0.06388050268070787,"5":0.54532766035884,"6":0.031484180014959055,"7":-0.19403159036653123,"8":-0.26890145936721055,"9":-0.24041981195913992,"10":0.5284199023006468,"11":0.09305529535657339,"12":0.37271786156373327,"13":-0.14839641850122812,"14":-0.17939716906927328,"15":0.18344434553583183,"16":0.46559905656775274,"17":0.20372867422638688,"18":0.5957325522801621,"19":0.33276860819107024,"20":-0.6008751987636064,"21":0.07865437978943901,"22":0.06152147564461726,"23":0.5537469450121076,"24":-0.13428122806771112,"25":0.16733171395676338,"26":0.03346847897228653,"27":-0.2323233795463998,"28":0.2766719538450206,"29":0.48144312343408036,"30":-0.18847704552409325,"31":0.4720397268798007,"32":0.062242598974986865,"33":-0.2695701714424055,"34":-0.36313256038752517,"35":0.012648275490261481,"36":0.18803702780505652,"37":-0.27737123656856705,"38":0.23743123949674483,"39":-0.24898408372497186,"40":-0.509803393393063,"41":0.3027769988674872,"42":0.2920530046542551,"43":-0.07828523598167372,"44":0.048968940448505624,"45":0.17063188826897638,"46":-0.520229559637241,"47":-0.3130924933658255,"48":0.3233473062268585,"49":0.15655023800640946,"50":0.03286656094306238,"51":0.1343414360481091,"52":-0.13886454721052677,"53":-0.5125741339408895,"54":-0.08073277443667336,"55":0.46692912036166256,"56":0.013101712279809259,"57":0.09428725714093147,"58":-0.20018329132483734,"59":-0.20157214799397638,"60":-0.05652235995429884,"61":0.8202567253434406,"62":0.1953092215131326,"63":-0.07408231411657192,"64":0.11638088834696739,"65":-0.29046486909495794,"66":-0.6895657021983507,"67":0.5140083322400537,"68":0.29961682097759357,"69":-0.04140317314419368,"70":-0.03813533978619879,"71":-0.1960652256636593,"72":-0.41704509240594473,"73":-0.022203935602256173,"74":0.16208201847641154,"75":-0.010781454574549862,"76":-0.1255807118234323,"77":-0.012409955156836298,"78":-0.14107506070324352,"79":-0.5712946894365704,"80":0.2522077580825707,"81":0.11166366387327378,"82":0.41194880560722713,"83":0.1010177296150978,"84":-0.07254631464368344,"85":-0.26988042960588826,"86":0.30156082767680004,"87":0.20536423295044468,"88":0.3627451360674801,"89":-0.0587157687835666,"90":-0.01625383020273581,"91":-0.3354597051103071,"92":-0.8250323526050306,"93":-0.005543748478044549,"94":-0.24737214983338993,"95":0.29763023297091473,"96":0.3482384969987581,"97":0.1135749008478013,"98":-0.11553192973377434,"99":-0.028215380321968676,"100":0.30446759871903833,"101":-0.33341998464609196,"102":-0.11043694501400939,"103":-0.26402621549470146,"104":-0.1239977064359818,"105":-0.646294822219118,"106":0.21010159454027505,"107":-0.0862801679615628,"108":0.06181772374585527,"109":0.14792810622558347,"110":-0.28912244773849216,"111":-0.20232646596957468,"112":-0.10960763523329656,"113":0.20044633132499,"114":-0.18861771717205575,"115":-0.33213860607375395,"116":-0.1390068648881216,"117":-0.29080949132792994,"118":-0.5316561383606001,"119":0.18625155183118067,"120":-0.05869665980553682,"121":0.19245163220351963,"122":0.1830147534560892,"123":-0.6152083861438293,"124":-0.25129202130725714,"125":-0.029920169362657838,"126":-0.07750620737094654,"127":-0.05622604360154768,"128":-0.0832269437581618,"129":-0.16555480713027362,"130":-0.3622762815207974,"131":-0.46481101313745166,"132":0.17983379640705452,"133":-0.16583843637923332,"134":0.22073704105181657,"135":0.1512540999194841,"136":-0.0005183176481515705,"137":-0.19183820379803154,"138":-0.22158897564668073,"139":0.07545970811664088,"140":-0.09833257659240176,"141":-0.19539758372521146,"142":0.017827528971962565,"143":-0.22366583404918225,"144":-0.1260347963843694,"145":0.5681533692640933,"146":0.1811940958539206,"147":0.2536215935357074,"148":0.3048183290359242,"149":-0.16710354904349783,"150":-0.7354157284351622,"151":-0.2085259833084068,"152":0.18145005116735943,"153":-0.003290133680158508,"154":-0.16784481082037994,"155":0.014463985289808077,"156":-0.06452718749085792,"157":-0.043928678016940226,"158":0.2090117361334449,"159":0.10374013931931321,"160":0.41780513255095186,"161":0.013089161564930125,"162":-0.2152237491732819,"163":-0.31461787130011404,"164":-0.1017507415744673,"165":0.48115845155046566,"166":-0.053005927477502414,"167":-0.3000134796949807,"168":0.08698244037652363,"169":-0.09793691454123442,"170":0.1933083302063157,"171":0.20549097946690492,"172":0.08137160622928906,"173":0.03392002596429325,"174":0.3765441605339074,"175":-0.010135087479869916,"176":-0.9641730760411038,"177":-0.363519401400407,"178":0.5338864469754722,"179":-0.09416769195266599,"180":-0.2823387139288071,"181":0.45348861532282225,"182":-0.09246376654992425,"183":-0.18732263697029777,"184":0.3023405935705969,"185":-0.26636650113331845,"186":-0.10480890586272186,"187":0.19455045648193686,"188":-0.09815461571558376,"189":-0.5958786581814964,"190":-0.1572427314840988,"191":0.4504043173966194,"192":-0.3115866822639049,"193":-0.6331891536441797,"194":0.18540924389762747,"195":0.021361785400399888,"196":-0.12261618274666385,"197":0.2910101579941332,"198":-0.10051196108093113,"199":-0.09079826663078078,"200":0.01851750534534237,"201":-0.3815928638280679,"202":-0.3512393331510793,"203":-0.44623437814950045,"204":0.11681529006175782,"205":-0.04782409756982297,"206":-0.33740271325699334,"207":0.08782732513458244,"208":-0.34558976679280595,"209":0.07842069493724925,"210":0.4621388630932053,"211":0.03674117093454027,"212":-0.32253009427771273,"213":0.11205978782855118,"214":-0.19175309019983136,"215":-0.41060870559181933,"216":-0.14085275700660008,"217":-0.059283543423281154,"218":0.12247220620261805,"219":-0.024914562328053756,"220":-0.1141216693269114,"221":-0.4310203819187052,"222":-0.031532356055563704,"223":-0.04634593966789854,"224":-0.03687791737655461,"225":-0.30499432841176055,"226":-0.030207984546441805,"227":-0.19127200208654643,"228":-0.1406920858941641,"229":-0.5775774028708214,"230":0.3954997061234255,"231":-0.06847325494178316,"232":-0.028530116389696887,"233":-0.18703104643526167,"234":-0.30447132342416466,"235":-0.14620174723651233,"236":0.1035687868011477,"237":0.36486046505088426,"238":-0.15939228173088696,"239":-0.35754867182268923,"240":-0.2730173331179674,"241":-0.32717891467389415,"242":0.012555199504484164,"243":0.6836591836426723,"244":0.39595142368045316,"245":-0.0651467454302345,"246":-0.08948312234083187,"247":-0.6999467338022368,"248":-0.3203346617112555,"249":-0.26309700617370124,"250":0.016737490929594468,"251":-0.3262605652145083,"252":0.34056327747408216,"253":-0.5562414587260256,"254":-0.4151575111539556,"255":-0.03334991221046177,"256":0.5766630745955108,"257":-0.05066739292146128,"258":-0.21387841730026402,"259":0.12479308565098313,"260":-0.7177793835262933,"261":-0.5894106704338254,"262":-0.27469421271457645,"263":0.23296092296872392,"264":0.06868869403648568,"265":0.39106851973700035,"266":-0.24326680256911803,"267":-0.5230499488221274,"268":-0.31927410042831045,"269":0.2426464199631661,"270":-0.14838635256791396,"271":-0.44635542573927095,"272":0.3172512318399623,"273":-0.182998944979048,"274":-0.8275494010204312,"275":-0.4592984444133549,"276":0.25830741181409833,"277":-0.3263865262214747,"278":0.0027813387617781344,"279":-0.033102857318132305,"280":-0.34596301793033335,"281":-0.16205078384159566,"282":-0.016255390214327432,"283":-0.1409153329708336,"284":-0.3969026439499047,"285":0.4880396449062148,"286":-0.6128862930406418,"287":-0.5598190022880791,"288":-0.4356883045499967,"289":0.5623266297317665,"290":-0.3507335106177893,"291":-0.3893524445421146,"292":-0.3070027168063779,"293":-0.8984039263839965,"294":0.12907214728624933,"295":-0.3890740928080359,"296":-0.16836417958668762,"297":-0.3533246089700085,"298":0.5926528005660908,"299":-0.5455078074974001,"300":-0.5555141178163694,"301":-0.43602018368428197,"302":0.1524840871461992,"303":-0.43801002346111845,"304":0.13417890913904798,"305":-0.812941270986158,"306":-0.15875919586068152,"307":0.02639903258422488,"308":-0.09127379311840078,"309":-0.4755280051815436,"310":0.020174248905473823,"311":0.4102014281593637,"312":-0.3845078947668984,"313":-0.49857310116833414,"314":-0.33058852660063837,"315":0.04623834028664841,"316":-0.3979283005787666,"317":-0.09208296799364894,"318":-0.7121225069016425,"319":-0.6871363637476606,"320":0.3602143813974717,"321":0.4105541078884318,"322":-0.17813745106461365,"323":-0.05842033040422603,"324":0.17500934803255488,"325":-0.5286430027700542,"326":-0.3886538231000433,"327":0.39738800186872586,"328":-0.10611446968109196,"329":-0.04756436135674879,"330":0.22325860924354937,"331":-0.763443164761706,"332":-0.871760349114685,"333":0.34844060661440396,"334":0.09731632712362576,"335":-0.057529789726251876,"336":-0.01142925302391352,"337":-0.02496706859704708,"338":-0.14391153825851905,"339":0.07608864313490972,"340":0.2425974279969882,"341":-0.24797777767413945,"342":-0.18874583718538152,"343":0.6825173567004122,"344":-0.7717980762162245,"345":-0.4481735950926007,"346":0.1161485802376711,"347":-0.1887856865176389,"348":0.00922883863692249,"349":0.2034295403660571,"350":-0.014780011501261034,"351":-0.16879890506319808,"352":0.5873543362013902,"353":0.4380175045048844,"354":0.4046155931829428,"355":-0.09142205610637967,"356":0.3360059816533566,"357":0.770263117572463,"358":-0.5105914653889472,"359":0.4845123341753406,"360":0.22297992845977452,"361":-0.07921874800217592,"362":-0.03606540597153193,"363":-0.09476196997085151,"364":-0.22410329042649857,"365":0.3213519125893754,"366":0.19030722852749996,"367":-0.059441600009996945,"368":-0.34751603257023644,"369":-0.03235369607745692,"370":0.8522072104322758,"371":-0.3547481601967121,"372":0.02862766229512652,"373":0.12202661386908366,"374":0.1329873187520197,"375":0.7561460345628144,"376":0.20751518603140154,"377":-0.2518110350921703,"378":0.4470397710469269,"379":-0.15241381714893845,"380":-0.24470574693284708,"381":-0.8175736368712474,"382":0.2171023681853624,"383":1.1017864804596966,"384":-0.9942277158579227,"385":0.16930041527687056,"386":0.36152245116400195,"387":0.13742905395028884,"388":0.4745629646163206,"389":0.2580156523987091,"390":-0.6205844422880196,"391":0.23902273345925398,"392":-0.35910522263022854,"393":-0.34716513418597517,"394":-0.2467718116928935,"395":0.31913349650254647,"396":-0.7442157703449349,"397":-0.2679071094108684,"398":-0.06701027695472861,"399":0.08893420646038781,"400":0.035461211735875034,"401":0.8256057578102276,"402":0.08089740983671471,"403":-0.5606021591135211,"404":0.09457536862985919,"405":-0.2868074224312388,"406":-0.20526937469312612,"407":0.005336855119377074,"408":-0.0505793369245479,"409":-0.7575936041402976,"410":-0.1334189985127013,"411":0.08668231621835379,"412":-0.10075393017562013,"413":0.7172387706472241,"414":0.3033125025875388,"415":0.09054630083468475,"416":-0.39445892665847726,"417":0.07591116155491376,"418":0.03075305588004071,"419":-0.02611457420222306,"420":0.25903481035987397,"421":0.31215602722683694,"422":-0.798875529112852,"423":-0.09729599074285283,"424":-0.004090928728307794,"425":-0.08215103334894643,"426":0.20811570136549198,"427":-0.1314538938780269,"428":0.21643670524844266,"429":-0.3518668529272399,"430":-0.05974993346080292,"431":-0.02238569557843893,"432":0.06471836978148594,"433":0.22082168743492522,"434":-0.5655011451597537,"435":-0.74969000010051,"436":-0.006899635431509949,"437":0.12623851288874874,"438":-0.38405017332067715,"439":0.3633501445182698,"440":0.2689914829338488,"441":0.44274090362490337,"442":-0.27913181118114316,"443":-0.36994917733462745,"444":0.2385744111946011,"445":0.15965996095377807,"446":0.08597485664465226,"447":0.17560379950528401,"448":1.2130265289726434,"449":0.5117041507248811,"450":0.19262061924495857,"451":0.19482317121648,"452":0.777823044473059,"453":0.1188541263806258,"454":0.30954230736042626,"455":-0.356608051085428,"456":-0.3573631919599556,"457":0.27389130904052117,"458":0.25352086836368526,"459":0.37475113790204906,"460":-0.1773562639269316,"461":1.0893894728984128,"462":0.3173313022268317,"463":-0.08053889268621653,"464":-0.2901349963261858,"465":0.007818929442541641,"466":0.25785972177703276,"467":0.40100743358346214,"468":-0.3434925221719152,"469":-0.25971066779656166,"470":0.517605059728164,"471":-0.672378107494258,"472":0.010674726390905947,"473":0.04600469744819196,"474":0.8927509079521931,"475":0.4326428827338162,"476":-0.5398896381602678,"477":-0.192741271108035,"478":0.3601446132763343,"479":0.269687357092251,"480":0.05486221882736729,"481":-0.48982312283621326,"482":-0.23690255931055262,"483":0.5475318670226171,"484":-0.3368133663978098,"485":0.32707562348443214,"486":-0.04257832889139458,"487":-0.06871209338712002,"488":0.4125898214323879,"489":-0.20580922145364516,"490":-0.036590542531376946,"491":0.16734053964522635,"492":-0.10647855822129772,"493":0.3976657006612181,"494":-0.16109435105244307,"495":0.0032620209368368425,"496":0.4915580598765613,"497":0.20204986100313935,"498":0.13182491078295785,"499":0.3338356516495149,"500":-0.7127034240680321,"501":0.1879885170059053,"502":-0.2337152262838333,"503":0.37280302569399837,"504":-0.0592587433501262,"505":-0.23496756299007304,"506":0.3552752863264213,"507":-0.015309260296297039,"508":-0.06010852337613894,"509":-0.35327147285623556,"510":0.023386634815127982,"511":0.4765193096625766,"512":-0.1582277391752543,"513":-0.21641089514584724,"514":0.4657882132632937,"515":0.014864824322785868,"516":-0.06558851088489887,"517":0.10496374885279658,"518":-0.28423338521644753,"519":0.3618194691798715}},{"sx":1,"sy":1,"depth":520,"w":{"0":0.5797731550232808,"1":-0.3904453517429184,"2":-0.17651657738424986,"3":0.28444020748605375,"4":0.26299228909865635,"5":0.011874249248984359,"6":-0.2469367436579103,"7":-0.14750172657144403,"8":-0.6962423055968886,"9":0.2948374873182947,"10":-0.25917261558740645,"11":-0.24293309436741653,"12":-0.07832467660644479,"13":0.8399000611032642,"14":0.15223146116353722,"15":0.09777837752570213,"16":0.6910170983091211,"17":0.09959464302402458,"18":-0.10960058840648043,"19":-0.1556005861431096,"20":-0.06279686033577338,"21":-0.18873529585880802,"22":0.24153991768236147,"23":-0.3317052141093311,"24":-0.2867762299560854,"25":-0.13496241233015882,"26":0.4773932187514251,"27":0.1077004943547464,"28":0.1975810122026521,"29":0.47552407520302803,"30":0.05683888776442465,"31":0.16622386944890152,"32":-0.21783322492452778,"33":0.03947253844922963,"34":0.0301434724881947,