//<![CDATA[

// a few things don't have var in front of them - they update already existing variables the game needs
lanesSide = 6;
patchesAhead = 30;
patchesBehind = 10;
trainIterations = 150000;

// the number of other autonomous vehicles controlled by your network
otherAgents = 10; // max of 10

var num_inputs = (lanesSide * 2 + 1) * (patchesAhead + patchesBehind);
var num_actions = 5;
var temporal_window = 0;
var network_size = num_inputs * temporal_window + num_actions * temporal_window + num_inputs;

var layer_defs = [];
    layer_defs.push({
    type: 'input',
    out_sx: 1,
    out_sy: 1,
    out_depth: network_size
});
layer_defs.push({
    type: 'fc',
    num_neurons: 32,
    activation: 'tanh'
});
layer_defs.push({
    type: 'fc',
    num_neurons: 24,
    activation: 'tanh'
});
layer_defs.push({
    type: 'fc',
    num_neurons: 16,
    activation: 'tanh'
});
layer_defs.push({
    type: 'fc',
    num_neurons: 16,
    activation: 'tanh'
});
layer_defs.push({
    type: 'fc',
    num_neurons: 32,
    activation: 'tanh'
});
layer_defs.push({
    type: 'regression',
    num_neurons: num_actions
});

var tdtrainer_options = {
    method: 'sgd',
    learning_rate: 0.01,
    momentum: 0.001,
    batch_size: 192,
    l2_decay: 0.001
};

var opt = {};
opt.temporal_window = temporal_window;
opt.experience_size = 30000;
opt.start_learn_threshold = 500;
opt.gamma = 0.98;
opt.learning_steps_total = 150000;
opt.learning_steps_burnin = 500;
opt.epsilon_min = 0.01;
opt.epsilon_test_time = 0.0;
opt.layer_defs = layer_defs;
opt.tdtrainer_options = tdtrainer_options;

brain = new deepqlearn.Brain(num_inputs, num_actions, opt);

// CUSTOM_VARS_BEGIN
var gen_name = 'genP-V3';
var count = 0;
var eval = false;
var save_checkpoint = 250;
var noSaveCheckpoint = false;
var eval_start = 2000;
var target_mph = 67.00;
// CUSTOM_VARS_END

learn = function (state, lastReward) {
    brain.backward(lastReward);
    var action = brain.forward(state);

// CUSTOM_CODE_BEGIN
function getFixedData() {
    var data = editor.getValue() + "\n/*###########*/\n";
    data = data.replace("otherAgents = 0","otherAgents = 10");
    if (brain) {
        data += "if (brain) {\nbrain.value_net.fromJSON(" + JSON.stringify(brain.value_net.toJSON()) + ");\n}";
    }
    return data;
}

downloadNamedCode = function (thisName, forward_passes, data) {
    var blob = new Blob([data], {type: 'text/plain'});
    var url = URL.createObjectURL(blob);
    var blobAnchor = document.getElementById("blobDownload");
    blobAnchor.download = "net-" + gen_name + '-' + forward_passes + '-' + thisName + ".js";
    blobAnchor.href = url;
    blobAnchor.click();
}

if (typeof(count) != "undefined") {
    if(brain.forward_passes >= eval_start) {
        if(brain.learning == false) {
            count = count + 1
            if(count >= save_checkpoint) {
                if(brain.forward_passes > 0){
                    if(eval === false && self.document !== undefined) {
                        thisData = getFixedData();
                        var myWorker = new Worker("eval_webworker.js");
                        eval = true;
                        myWorker.onmessage = function (e) {
                            if (typeof e.data.percent != 'undefined') {
                                // do nothing / placeholder
                            }
                            if (typeof e.data.mph != 'undefined') {
                                console.log('Eval complete - ' + e.data.mph);
                                if(e.data.mph >= target_mph) {
                                    console.log('Saving checkpoint at ' + brain.forward_passes);
                                    downloadNamedCode(e.data.mph, brain.forward_passes, thisData);
                                }
                                eval = false;
                            }
                        };
                        myWorker.postMessage(getData());
                    }
                }
                count = 0;
            }
        }
    }
}
// CUSTOM_CODE_END

    draw_net();
    draw_stats();
    return action;
}

//]]>
/*###########*/
if (brain) {
brain.value_net.fromJSON({"layers":[{"out_depth":520,"out_sx":1,"out_sy":1,"layer_type":"input"},{"out_depth":32,"out_sx":1,"out_sy":1,"layer_type":"fc","num_inputs":520,"l1_decay_mul":0,"l2_decay_mul":1,"filters":[{"sx":1,"sy":1,"depth":520,"w":{"0":0.007003023018020434,"1":0.2645160666102269,"2":-0.3510618322244147,"3":0.04846236168755367,"4":-0.19638122878011213,"5":-0.08632936401632023,"6":0.6769495599067273,"7":-0.6110709971219251,"8":-0.014647075226751776,"9":-0.03820278039412356,"10":-0.06854623526501638,"11":0.09030323250038849,"12":0.1369095255400062,"13":-0.0025077470490302532,"14":0.05395518643932079,"15":-0.22428147893054737,"16":-0.4685862873514727,"17":0.14861730855264835,"18":-0.046087985192746594,"19":0.6446420248087631,"20":-0.3412830904741447,"21":0.1183894664562176,"22":-0.21234477460796944,"23":-0.04609412622899444,"24":0.07439103668640838,"25":0.1734051876513497,"26":0.10618451275395795,"27":-0.12013218545412158,"28":0.20616643297520157,"29":-0.17302262243142863,"30":-0.08129174804154447,"31":0.19530648358012875,"32":0.5078897004723875,"33":-0.14198297180806593,"34":0.17418058653628968,"35":-0.13840790502845107,"36":0.07460082636285632,"37":0.1324252052583777,"38":0.10229219472771106,"39":0.261043054047431,"40":-0.0743230980355856,"41":-0.008399052678747328,"42":-0.26977280053213,"43":0.04529792874571928,"44":0.15505018962353223,"45":0.012696748403338688,"46":-0.067398507952712,"47":0.015500664490017907,"48":-0.040098893369308074,"49":-0.3083482732691298,"50":-0.13354300159097823,"51":0.1735379826390378,"52":0.35987926363331807,"53":0.2413367195350157,"54":0.30131057430777836,"55":0.021106529793216595,"56":0.0002858426323714158,"57":0.311793441037219,"58":0.05809753160094301,"59":0.035333983724769126,"60":0.08211402005248485,"61":0.29624769701467973,"62":-0.13763459633192976,"63":-0.3935264367166473,"64":-0.2192535797201812,"65":0.2610090719654385,"66":0.075212313629704,"67":-0.08578677370491655,"68":-0.18787369385509542,"69":-0.2792361704768098,"70":0.032321817223722994,"71":0.29074633208078765,"72":0.23705553060364498,"73":0.09653947634688323,"74":-0.02199091406583981,"75":-0.2439451158383935,"76":-0.09224987800141336,"77":0.25227303405193036,"78":0.04436287118503641,"79":-0.44848726262674604,"80":-0.1645847063326732,"81":-0.030224490766491904,"82":-0.4389091699557262,"83":0.001835521304458055,"84":0.14812272082936806,"85":0.2386623569804184,"86":0.4521768360352495,"87":0.3648996391579798,"88":-0.17228945558598255,"89":-0.31256905765535337,"90":-0.045689516905667686,"91":-0.02135828651659059,"92":-0.14247276451670415,"93":-0.06432844874115337,"94":-0.17463906434399173,"95":-0.3221124741895807,"96":-0.2821244351206314,"97":0.8464034196418374,"98":0.3525864982004815,"99":0.31944770241765214,"100":0.057193532104939736,"101":0.2457475685337586,"102":0.09369262061420831,"103":0.1994552039169954,"104":0.1259611744892932,"105":-0.09130265760760423,"106":-0.3875898663652466,"107":-0.40213843415803774,"108":-0.22288777582975128,"109":0.1685141834047102,"110":0.70499957404396,"111":0.39161286096958603,"112":0.13437664878592115,"113":0.16432178970736094,"114":0.08291005822419097,"115":-0.48833864070119526,"116":0.12668003874065292,"117":-0.024124800405909017,"118":0.10149196514675099,"119":0.14732705505424723,"120":-0.43156190187278615,"121":-0.13754710580459273,"122":0.222768210164277,"123":0.6907977040743134,"124":0.9113827619083473,"125":-0.3154051096479385,"126":0.3839136905498744,"127":-0.03379976390884127,"128":-0.6130841613991999,"129":0.13702274888349786,"130":0.015536375408793475,"131":0.10546170136669361,"132":-0.15697611435646813,"133":-0.6049950935978194,"134":-0.3548318856300095,"135":0.14965277640311336,"136":0.004309902642133382,"137":0.682449449697167,"138":-0.491956174790969,"139":0.18565132503615905,"140":-0.06804457896495646,"141":-0.37652305049467183,"142":0.3042720126795695,"143":0.0446172675426413,"144":0.1340759965616451,"145":0.07302667985861132,"146":0.004195686442757984,"147":-0.04163558253804573,"148":0.5713487973619444,"149":0.33919751820568717,"150":0.3672070047711326,"151":-0.11872451086199744,"152":0.18202399989302126,"153":-0.2732936962140838,"154":-0.2886342843008769,"155":0.014749320401737352,"156":-0.014993502028957889,"157":0.13941557639741461,"158":-0.0018398198077016386,"159":0.09174740382629998,"160":0.15479886448425786,"161":0.3696478161773358,"162":0.38883916012755315,"163":0.6331411426974264,"164":-0.17019373707828084,"165":-0.0884437495400671,"166":-0.13139423151867094,"167":-0.1266921290671224,"168":0.20428118395052006,"169":-0.035162992937701365,"170":0.042283504759908754,"171":-0.24844644915983477,"172":0.06948773043036954,"173":0.16327324055518658,"174":0.7177963207192787,"175":0.9284628240572039,"176":0.2629529303149683,"177":0.12940347318314643,"178":0.2633773722459203,"179":0.08699081535953088,"180":-0.15155324482518703,"181":0.12065433063837326,"182":0.06636232547235067,"183":-0.11303297244556561,"184":0.10691972765003321,"185":-0.06258280349478812,"186":0.3714380303882927,"187":0.5321108828911334,"188":0.6344517119677806,"189":0.3891454028117111,"190":-0.09990460274531549,"191":0.1620239777890427,"192":0.038338116867401816,"193":0.23119883468084546,"194":-0.010901670263046401,"195":-0.0740098492498557,"196":-0.34990761450791713,"197":-0.1620275949079247,"198":-0.34833546316721414,"199":0.14051432073545347,"200":0.09281851061622079,"201":0.30807701924846514,"202":0.32787299797670094,"203":-0.31054138847192286,"204":-0.42563631895575893,"205":0.012716248714079184,"206":-0.10815511932490267,"207":0.08866013021748452,"208":0.014192857139920433,"209":-0.17665798408043065,"210":0.2678996599495012,"211":-0.1561784992622474,"212":-0.09081393010198864,"213":0.26612559059473095,"214":0.4240978561482864,"215":0.572062778507367,"216":-0.3259157514293245,"217":0.0050781454159468465,"218":-0.04301917029919513,"219":0.41347117466584843,"220":0.32179672493020417,"221":-0.0953314819341527,"222":-0.0564859105656369,"223":0.21710095876956043,"224":-0.18526320384523964,"225":-0.049820608723903696,"226":-0.13015802108512436,"227":0.25652350972779825,"228":0.661962423904325,"229":-0.1493049922801899,"230":-0.05110071108255905,"231":-0.24689918991451731,"232":0.2684838310999411,"233":-0.018518750907955395,"234":-0.20970492539294652,"235":-0.07927965324208704,"236":0.027640179499262504,"237":0.05684025263549217,"238":0.2260862920012618,"239":0.126025182390804,"240":0.35794164738658896,"241":0.5275059038518624,"242":0.39151754970250946,"243":0.03224013246059847,"244":-0.2869958605676581,"245":-0.4025830783479128,"246":0.060496752266826256,"247":-0.38250107609832323,"248":-0.1838796257649058,"249":0.022620153847270418,"250":0.1544139456704069,"251":-0.2091373719669722,"252":0.1164400356341055,"253":0.35566385866534334,"254":0.277917989543204,"255":-0.15468125808865005,"256":-0.0970469678884911,"257":-0.05118787716538295,"258":-0.36186831993418367,"259":-0.1196232914326042,"260":-0.24602758068745653,"261":-0.2660708307356241,"262":-0.4864585649648364,"263":-0.06324305112733636,"264":0.18399191338055482,"265":0.14702183476743952,"266":-0.19740963582060714,"267":0.487537845099813,"268":-0.20120835889470895,"269":-0.13389329021635765,"270":0.10900284004199148,"271":-0.06931360885102364,"272":-0.07866234609294595,"273":-0.10237459564317804,"274":-0.4136333974019843,"275":-0.25103608860202964,"276":-0.25614504425993223,"277":0.006578316874674326,"278":0.2736801185957903,"279":-0.23248225953463114,"280":0.16557626111707932,"281":-0.15980112558681614,"282":-0.3791302109278236,"283":-0.028063864319096816,"284":0.028276116733067798,"285":0.021773409549714306,"286":-0.12058180619833028,"287":-0.07330677109866354,"288":-0.29474159170795355,"289":-0.2050641181068618,"290":-0.13060334092669917,"291":0.15512367106985755,"292":-0.08094266926902788,"293":0.4128229782085687,"294":-0.054739042240438227,"295":-0.3832923086907244,"296":-0.12147097058963958,"297":-0.017202504946719568,"298":-0.056838022468418965,"299":0.08104849459354384,"300":0.17694888657709504,"301":-0.04235126051378343,"302":-0.18305929214320982,"303":0.20318808553036405,"304":0.35934610513448784,"305":0.5895673443711851,"306":-0.007704834736618901,"307":0.2501339342471544,"308":-0.39183502696142836,"309":-0.39833196454526876,"310":0.14425398413046492,"311":-0.05547463921689644,"312":0.028886650588508842,"313":-0.1336445558059322,"314":0.1337462297067895,"315":-0.37622338527292803,"316":-0.23066695932566478,"317":0.38292876685652055,"318":0.854814714705056,"319":-0.2826826851338192,"320":0.5190503657405782,"321":-0.13778043376085483,"322":-0.17924010300108165,"323":-0.11868671322126743,"324":0.11114853285465254,"325":0.14807678983768,"326":-0.30685530575935094,"327":-0.3233289611659012,"328":-0.30813902148938993,"329":0.1336025969408781,"330":0.564146170305417,"331":0.7889625751750402,"332":-0.3686931641991897,"333":-0.0749025609737872,"334":-0.36686152104150965,"335":-0.1728755404735305,"336":-0.1333287405439606,"337":0.1540945126860962,"338":0.15010207006050783,"339":0.00697513183179112,"340":-0.09283722409603613,"341":-0.3145104969630557,"342":0.05029592750991012,"343":0.6286495814669577,"344":0.843566121495009,"345":-0.7388610087913463,"346":-0.6043092527765442,"347":-0.15010081265132014,"348":-0.27206315649528184,"349":-0.08394120144086216,"350":-0.024748262613564644,"351":0.29044962005909636,"352":-0.48452240835473065,"353":-0.1699981855774246,"354":-0.6287152319294799,"355":-0.1480989566029746,"356":0.7678755279227429,"357":-0.08727944747910196,"358":-0.3204835354927894,"359":-0.17141153685998403,"360":-0.1651942995475845,"361":-0.4600327266726581,"362":-0.2379574750733804,"363":-0.03488146660427957,"364":0.383839323642067,"365":-0.32548334266283074,"366":-0.12729017104463397,"367":-0.36503926467866044,"368":-0.22133480619029944,"369":0.5279647798144822,"370":-0.02376961454730422,"371":-0.49727792073219296,"372":-0.04284816881971268,"373":-0.01578100656740538,"374":-0.14568430868418644,"375":-0.7512204008916787,"376":-0.05500960571310719,"377":0.03308843947102148,"378":-0.03947078912588328,"379":-0.13930244918947735,"380":-0.21552158777770428,"381":-0.3779269775557689,"382":0.41940032593237897,"383":-0.08141275053255274,"384":-0.7118374756751525,"385":-0.3005429424397571,"386":-0.15605102490434117,"387":-0.29457102181692457,"388":-0.9426011172939643,"389":-0.04755596468156649,"390":0.12979072777651995,"391":-0.3940621634027088,"392":-0.0019254421353595774,"393":-0.2580487110402724,"394":-0.4820556913142711,"395":0.11094854528499673,"396":-0.9794785376528294,"397":-0.5732875995496551,"398":-0.030369669561937394,"399":-0.3532148636675001,"400":-0.1865044331223869,"401":-0.6172320944632678,"402":0.48518711028550154,"403":-0.4010008572240857,"404":0.07470990169899124,"405":-0.002059519055164748,"406":-0.14518702764676858,"407":-0.2962814593280244,"408":-0.050427210615867045,"409":-0.9478025152877809,"410":-0.640292530682537,"411":0.06908120430126283,"412":0.2564030486542668,"413":0.05710599650783866,"414":-0.7344843920845968,"415":0.34416624808656043,"416":-0.21557794933133703,"417":-0.004766203910871734,"418":-0.1404539915876556,"419":-0.33099572032298347,"420":-0.1438009789150455,"421":0.38400365647753265,"422":-0.9483203377107774,"423":-0.509554863299055,"424":-0.31954567863596756,"425":0.0055532576075862,"426":-0.2260635435520215,"427":-0.051253472779197264,"428":-0.11667139867127614,"429":-0.04709956965128991,"430":-0.18520908384705595,"431":-0.17912201730146565,"432":-0.11282213985217744,"433":-0.4736599705886451,"434":-0.2897846865309692,"435":-0.8541288498291479,"436":-0.5701099607461361,"437":-0.1328976483775153,"438":-0.03217355072162879,"439":-0.03321716266364483,"440":0.21241401536254872,"441":-0.15784801904008827,"442":0.02856993299861091,"443":-0.03257082929832318,"444":-0.12233644997677622,"445":-0.15430435543440177,"446":-0.5420929899320219,"447":-0.008164355600731397,"448":-0.13824833198784486,"449":-0.6447213675891951,"450":-0.015517615868251376,"451":0.0474309397176462,"452":-0.052354890140537236,"453":0.10042690058860657,"454":-0.301550032017682,"455":0.5014256221705458,"456":-0.15676107799598843,"457":-0.34276404296899965,"458":-0.11413023879619871,"459":-0.4832078379336413,"460":-0.27688334461827285,"461":-0.4474061648144591,"462":-0.35143970673215297,"463":0.006318713996212626,"464":0.09147093776649794,"465":0.29899585015228325,"466":0.16993407743320588,"467":-0.2136879065868576,"468":0.27756055559957094,"469":-0.03870150894975581,"470":-0.29592096533676765,"471":0.16952668807400173,"472":-0.11374153780109038,"473":-0.2051946753495953,"474":-0.8176249905495346,"475":-0.32506936524233665,"476":0.4716057545550775,"477":0.56843895876918,"478":-0.06510075454917412,"479":-0.38716605172532226,"480":0.13168459370960744,"481":0.3478245396069478,"482":-0.21435286338841242,"483":0.04661944599419674,"484":-0.17616783800170727,"485":0.36165527270307696,"486":-0.45962343271908107,"487":-0.7764054239026459,"488":0.04158611504712451,"489":0.03846241826577286,"490":0.5467433572713509,"491":0.359814233703175,"492":0.4059815664020219,"493":0.3016109909694103,"494":-0.07834258638611528,"495":0.039868972683601615,"496":0.017357798476988765,"497":0.3836182446059898,"498":0.011494677282119758,"499":-0.45337174966916194,"500":-1.856035638345921,"501":-0.36893465620640753,"502":0.17243754841013012,"503":0.032676619698946585,"504":0.41657065698729057,"505":-0.07719766024988747,"506":0.25621806211791015,"507":0.11360778037665524,"508":0.16342981952777047,"509":-0.15926898039800252,"510":0.2011227950475546,"511":-0.34300720425355774,"512":-0.4594912323530231,"513":-2.0494959845108998,"514":0.10299838111802156,"515":-0.16312584599073846,"516":0.18698501931270348,"517":-0.05284875641851337,"518":0.39875849017625214,"519":0.262064455367384}},{"sx":1,"sy":1,"depth":520,"w":{"0":-0.31068340390258736,"1":-0.15744161949774646,"2":0.2242450143723372,"3":-0.1502027071966235,"4":-0.2484526568758192,"5":-0.5590932669890527,"6":-0.07965583220064089,"7":-0.3728460132328341,"8":-0.30030337902006204,"9":0.3493042848688699,"10":0.29238485980000073,"11":0.02235568029158662,"12":-0.16277860326904836,"13":-0.12369382530579086,"14":0.05207535217875456,"15":0.14987205959781452,"16":-0.1265844324818857,"17":-0.22681179545505734,"18":-0.03355741582095995,"19":0.24576428911560586,"20":-0.09728802405857052,"21":-0.18003739418919085,"22":0.3310691230111928,"23":0.29530431423899334,"24":0.17813470436699183,"25":-0.17170039077525037,"26":0.11315497357962695,"27":-0.05669413486919924,"28":0.10471255797702338,"29":0.1402832372027477,"30":-0.012501817856393586,"31":-0.3033434825694585,"32":0.02517172114665528,"33":-0.2586856849445124,"34":-0.5272050026556165,"35":0.09651846784532683,"36":0.2282142962461478,"37":0.24464565760079604,"38":0.20875497532530427,"39":-0.19221949922204562,"40":-0.14560454775339135,"41":-0.020788044121160636,"42":0.15168880899738924,"43":-0.04968390120898833,"44":-0.3323696178662798,"45":0.05780242715845452,"46":-0.42054841382513536,"47":-0.1892321551173234,"48":0.3356912961473247,"49":0.5075661829289255,"50":-0.16404878693541974,"51":0.4898839459301423,"52":-0.3386516329116171,"53":0.06447038846956758,"54":-0.12976226031236637,"55":0.0039245524453353445,"56":-0.48552017776123335,"57":-0.3443839900761694,"58":0.09958673334327522,"59":-0.12551544778649415,"60":-0.8072710759853519,"61":-0.4816522248488845,"62":-0.01721714450295719,"63":0.04644972394678732,"64":0.37173507643385795,"65":-0.224354263818089,"66":-0.018858105691775977,"67":-0.11614023465092368,"68":-0.20567797006335586,"69":-0.03468973549962837,"70":0.050462606824967164,"71":-0.16696034307835383,"72":0.14077309251179784,"73":-0.19622912044998633,"74":-0.24457605764189203,"75":0.11107454545647244,"76":0.3467172081332684,"77":0.5481666162454233,"78":-0.1061730082569538,"79":-0.22093259889714822,"80":-0.22891959240676882,"81":-0.17030416642621374,"82":-0.2543783658106405,"83":-0.4904162907315489,"84":0.25695596349880695,"85":-0.23349002393624171,"86":0.06792261938936817,"87":-0.19659807931437365,"88":-0.13205670792556512,"89":0.09826572710954766,"90":0.4390228217199039,"91":0.006221747569241159,"92":-0.1356417600836169,"93":-0.05510244857865696,"94":-0.04910189619644286,"95":0.05686640551244683,"96":-0.3616345968881375,"97":0.07880833058735692,"98":-0.08132007550100281,"99":0.2899592811839164,"100":-0.28597675718295523,"101":0.10591680452907665,"102":0.4345310192074867,"103":0.28022471679579863,"104":-0.3685793427657469,"105":-0.2392739195916678,"106":-0.1860580476848667,"107":0.24520189367175566,"108":-0.1439503210824833,"109":-0.229945825744335,"110":-0.0980995844021929,"111":-0.16137906608306168,"112":-0.271127936248006,"113":-0.2134699791528976,"114":-0.28787721071069267,"115":0.31211674740853296,"116":0.33274851957326695,"117":-0.27454276584644205,"118":0.04913859295203758,"119":0.020162675782105167,"120":0.18420304772386956,"121":0.19775737001309604,"122":0.09093251057783883,"123":-0.08066305525450052,"124":-0.3770132030045036,"125":-0.35269136743407725,"126":0.15751607266676004,"127":-0.039666315208617735,"128":-0.10854801547415403,"129":0.14022170906697587,"130":-0.2604796491500016,"131":0.15622374812382145,"132":-0.17949904989371976,"133":0.1424334341046102,"134":0.40720349728918404,"135":-0.13308865542423753,"136":-0.39230568182628495,"137":-0.15237143863699737,"138":-0.3411199027369552,"139":-0.4501864253399094,"140":-0.1932443753358091,"141":-0.2854581025243365,"142":-0.1745849545014178,"143":-0.14141939180377658,"144":0.3209214346128612,"145":-0.18352347213241024,"146":0.02995613658521508,"147":0.09233042619248984,"148":-0.18243722416424538,"149":-0.6057711855503313,"150":0.1796544616106837,"151":-0.4064260061725567,"152":-0.05727843701754656,"153":-0.01842230546520286,"154":-0.4777532416897815,"155":-0.17345544271384392,"156":-0.0522584767751046,"157":0.4499370087075705,"158":0.16544761955251538,"159":-0.29168117750889755,"160":0.5127583638527561,"161":-0.22853311093816012,"162":-0.482700948873829,"163":-0.2711675411189345,"164":-0.2024306930393089,"165":0.07447793353797115,"166":0.26209118027582395,"167":-0.30823109395861115,"168":0.0879794673131996,"169":0.3372086085942055,"170":0.13159330066610725,"171":0.26093776918538747,"172":0.318680964657031,"173":-0.20109788587433378,"174":-0.4511031959231813,"175":-0.5829728474431852,"176":-0.222963216607587,"177":-0.3063028362847255,"178":0.1411602798869929,"179":-0.20780315418051992,"180":-0.32905003172670466,"181":-0.05714814057442003,"182":0.45414161502245187,"183":-0.08400072079060962,"184":0.6534285501663848,"185":-0.005324485451279642,"186":-0.014198540973441826,"187":-0.21008287681378116,"188":-0.26566806802050336,"189":-0.10145463764438452,"190":0.07664272601672757,"191":0.11547931686462638,"192":-0.036367595187726864,"193":-0.26377862842660915,"194":0.4833686359261638,"195":0.19250674659693331,"196":-0.16818064046834513,"197":0.4615278039341661,"198":0.15896618731763593,"199":0.3470064586961679,"200":-0.0566470661357133,"201":-0.4409197056001781,"202":-0.5352210833455171,"203":-0.24245273866216654,"204":0.036982086386391534,"205":0.1490193832219428,"206":-0.2285717191155682,"207":0.16980641332058077,"208":0.40307506516156566,"209":-0.0570645440078835,"210":0.2122889925143844,"211":0.5073529089288863,"212":-0.028697075323777143,"213":0.06613228656756864,"214":-0.30475253258366547,"215":0.018955285953711196,"216":-0.023434897128346427,"217":0.13464525219725326,"218":0.15355567850120083,"219":-0.47281940613153717,"220":0.004189280253622913,"221":-0.041009292973551055,"222":0.0869907110102829,"223":0.28374745432856097,"224":0.5534155968114574,"225":0.1700871924945049,"226":0.23951732516861096,"227":-1.0899048889442622,"228":0.1296858368577778,"229":-0.30404811514638763,"230":0.15514218680900205,"231":0.2333895528211864,"232":-0.19667559745689442,"233":0.17432572819490733,"234":-0.3554247070192473,"235":0.2996310949151715,"236":0.29241779964147707,"237":0.5723804087239348,"238":0.10658417399395369,"239":0.3159734354551963,"240":-0.6650858828487776,"241":-0.12364895265956911,"242":-0.26801337021504584,"243":-0.019488862859081312,"244":0.41624771922791703,"245":0.09081933832216636,"246":0.014477658576559214,"247":-0.1204447526212964,"248":-0.06291057385867896,"249":0.28980972958458184,"250":0.4812054696295774,"251":0.20349687381115214,"252":0.126217531396815,"253":-0.3736570418494149,"254":0.3625948166847167,"255":-0.25904076764148354,"256":-0.1164570596795467,"257":0.4216784384587913,"258":0.5826202827047477,"259":0.08847081690789016,"260":0.16416304406888216,"261":0.12801212312103452,"262":0.41572019724834547,"263":0.5813899314368166,"264":-0.0809151690555101,"265":0.18919171520513753,"266":-0.7426298074981572,"267":0.3040757921144835,"268":-0.1995934580601317,"269":-0.05459005441845374,"270":-0.021097835065323315,"271":0.41714998560824423,"272":-0.1702279662392874,"273":0.18935899160724642,"274":-0.10554329381955348,"275":0.33632330804221866,"276":0.7025672311480968,"277":0.1265650238430824,"278":0.3751827895959936,"279":-0.7635356885741137,"280":0.7011742563125967,"281":-0.06588111054577842,"282":-0.18948731402409189,"283":0.2600229927684633,"284":0.2041669676378989,"285":-0.24900808928017207,"286":0.4484668806185387,"287":-0.03354126826571617,"288":0.1167515363487843,"289":0.3288040471120953,"290":0.3892746987475737,"291":0.39053655912443697,"292":-0.3687959344719327,"293":0.7999415708002481,"294":0.1995843851213457,"295":-0.18104084253379032,"296":0.39252505395083354,"297":-0.10933663339804058,"298":-0.09899793140192523,"299":0.259279765815889,"300":0.3709994254854165,"301":0.14738771464927128,"302":-0.11569648854161715,"303":0.1467711756125414,"304":0.7344262790874214,"305":-0.6081746224994539,"306":0.775418987070299,"307":0.5096601561846169,"308":0.26010151195513975,"309":0.1545872468389293,"310":-0.30419173946489103,"311":-0.12960008561674333,"312":0.23547301478256621,"313":-0.0175887663030235,"314":-0.04286588721797403,"315":0.00822596538693929,"316":0.09356747279165076,"317":0.701511340762125,"318":-0.868030155716136,"319":1.1296211208341596,"320":0.518190856969619,"321":0.011150365685377635,"322":-0.12659453075450613,"323":0.3378846044393164,"324":-0.02290105291471574,"325":-0.01787977821268159,"326":0.39274340487025866,"327":-0.1325794147929101,"328":-0.24552787363475564,"329":0.2390938361200964,"330":0.4471437996980038,"331":-0.08154241530990287,"332":1.5702546870518215,"333":0.7125905652849005,"334":0.11315696993916878,"335":-0.06747057674552183,"336":0.17434066025727799,"337":0.07517821948627691,"338":-0.09458546412916982,"339":0.032064518107492536,"340":-0.1678468510697672,"341":0.17186594737349803,"342":0.1566861557332385,"343":0.46679934559505076,"344":-0.5718602823681371,"345":1.956083594763518,"346":0.7024647980566275,"347":-0.18509826688582995,"348":-0.4229396751381762,"349":0.1636182188177131,"350":0.05227657240974602,"351":0.1325250641692832,"352":0.08204436707219481,"353":-0.200793299342774,"354":0.45839307514711447,"355":0.09529781472406441,"356":0.6232228658889549,"357":-0.5950606820203189,"358":1.4583928063054843,"359":0.5591773402397868,"360":-0.1846139447671834,"361":-0.2187221045348526,"362":-0.0687294237546707,"363":-0.030110992841403342,"364":0.1686399505917461,"365":0.23395408740631166,"366":0.1147085585173622,"367":0.29463627735121006,"368":0.158134026511526,"369":1.187800919840709,"370":-0.7878702720705774,"371":1.2170804478228041,"372":0.5124064723612516,"373":-0.5155954171151518,"374":0.07119278600466732,"375":-0.1952956090394947,"376":-0.39763249324547373,"377":0.2223592741657917,"378":0.10721521434873964,"379":-0.3888360284776081,"380":0.01742073447529729,"381":0.2364252272297716,"382":0.8370970144209438,"383":-1.0723337766770775,"384":1.2899681266112444,"385":0.042436867343073295,"386":-0.19272598332255778,"387":-0.14044488776931816,"388":0.11572586271341623,"389":0.011122088985370539,"390":0.6311672945751567,"391":0.14552109850820935,"392":-0.2692882306947626,"393":-0.018622965006254436,"394":0.004881518017660628,"395":0.3370396493814374,"396":0.8499716187306392,"397":0.8479471505385637,"398":-0.29234143261476897,"399":-0.36881981657555957,"400":0.585573912931584,"401":0.3134193916564335,"402":0.08896870389872534,"403":0.5940960090045768,"404":-0.15640265349340055,"405":-0.5720035152915437,"406":0.23150028195504638,"407":-0.06383031035662111,"408":0.1452334840723846,"409":0.8355304635907962,"410":1.3191470835557495,"411":0.18813234352418076,"412":0.07720099225788714,"413":0.30177164139013724,"414":0.4908362630538966,"415":0.1423172867022466,"416":0.5072616897469128,"417":-0.24415394236847213,"418":-0.4963407361489455,"419":-0.2684861797894618,"420":-0.20680892655868716,"421":0.25173460589096047,"422":0.7677570542546694,"423":0.8592098456023955,"424":0.5300179914897019,"425":-0.14331793530892215,"426":0.3621268345305754,"427":0.6972502974288929,"428":0.48380861428713207,"429":0.4946476162106124,"430":-0.3039624485300424,"431":-0.4119626703033777,"432":-0.15215162981549332,"433":-0.08758220015790019,"434":0.447176968465643,"435":0.7983989976335742,"436":0.8127821730939333,"437":0.26302688959492926,"438":-0.4628277667525894,"439":0.5695910873903395,"440":0.4581686061531579,"441":0.4035417510528137,"442":0.5010146429281074,"443":-0.2160714107180421,"444":-0.7220393638408137,"445":0.33137748731557265,"446":0.02999755998119763,"447":0.5425150215743159,"448":-1.2072975358416953,"449":-0.17713169327476458,"450":0.3005648838739925,"451":-0.13619940217179788,"452":0.1167551180520364,"453":0.365799319063101,"454":0.3266215661015646,"455":0.357490327860159,"456":-0.1398735970310281,"457":-0.6011786286715083,"458":0.16316097965134202,"459":-0.30555469565558324,"460":0.11795674978512628,"461":-0.9345054342214787,"462":-0.5449539969618167,"463":-0.02427038790660119,"464":-0.08768445193009394,"465":0.43126411121107355,"466":0.19125905829347378,"467":0.06729804477144907,"468":0.48655484411726907,"469":-0.02117705444442677,"470":-0.5889685411726625,"471":0.6665020714313712,"472":-0.5691339146066985,"473":-0.21905598198007037,"474":-0.5029119876345657,"475":-0.08059556628062312,"476":-0.06048501512192902,"477":0.24598223571473565,"478":0.43354147485266,"479":-0.1588954386916054,"480":0.2857811706194132,"481":0.3416405252543086,"482":0.2559994009379797,"483":-0.5177770252260684,"484":0.31241663085891364,"485":-0.45054532579795453,"486":-0.10979325858709045,"487":-0.11283466844969132,"488":0.04160967469799722,"489":-0.18128375687609982,"490":-0.34479437969399096,"491":0.3007248996783919,"492":0.15545179545697788,"493":0.043670237170099296,"494":0.09490842368086526,"495":0.3094372938728479,"496":-0.009683271876280982,"497":0.19258225323718045,"498":-0.23271837246126334,"499":0.08378868311630182,"500":-0.0736133813611066,"501":-0.4007628607218417,"502":0.2386014865585459,"503":-0.08179343192925304,"504":0.16434663824084264,"505":0.1299919788318499,"506":0.03884911632092066,"507":-0.08501627152143883,"508":0.2142044143817193,"509":-0.15507507501373344,"510":0.07216665136547713,"511":-0.035436789902448834,"512":-0.38686860520590854,"513":0.2630952554647348,"514":-0.38006118318875903,"515":-0.16148426974758792,"516":-0.7562669193404972,"517":-0.20647835153154379,"518":0.2904472016885479,"519":-0.13418557533063483}},{"sx":1,"sy":1,"depth":520,"w":{"0":-0.14115821026102401,"1":0.11403514593767372,"2":0.3491593830145097,"3":0.5224757731446614,"4":0.6128077272712033,"5":-0.1568326816659567,"6":-0.6500588440480767,"7":-0.10357540713024721,"8":0.11281864713935437,"9":-0.4781514115561278,"10":0.3033539451125126,"11":0.5925593656154013,"12":-0.3552704455435141,"13":-0.31428873533988344,"14":0.11816058683974524,"15":0.2919886024530175,"16":-0.19472183435911936,"17":0.3095888464493245,"18":-0.01967409621277297,"19":-0.45940877200422964,"20":-0.20581964303288527,"21":-0.4228920159227897,"22":-0.1137530892094508,"23":0.11422323473044813,"24":0.2955732070871212,"25":-0.2032237340312716,"26":0.21568565836820391,"27":0.38612990223103366,"28":-0.08179736780334042,"29":0.032317739253490026,"30":0.18015127049697807,"31":0.37789179839298664,"32":-0.3315166838097127,"33":0.34919429069690944,"34":0.13834659190319673,"35":0.06719666995725976,"36":0.32151541448734583,"37":0.7121063588047795,"38":-0.16397816690946226,"39":-0.014427536995959602,"40":0.31994550424382695,"41":-0.0611411591675644,"42":-0.01691801409375944,"43":0.1693523711815168,"44":0.25853935619197,"45":-0.6263264209139262,"46":0.0715616218591318,"47":-0.1551305839192966,"48":0.10924432982675486,"49":-0.007181728838498389,"50":0.3999742815450485,"51":-0.048041182959683584,"52":-0.22511643357510477,"53":0.2847294464675196,"54":0.29236246717005887,"55":0.3163138821825196,"56":0.1927446292920947,"57":0.401147812382487,"58":-0.6970393449278263,"59":-0.1051426392400259,"60":0.11319206073247878,"61":0.00759356000409468,"62":-0.2737788123036086,"63":0.6360166557406495,"64":-0.08821720107769897,"65":-0.23343020138666626,"66":0.2496457511090422,"67":0.4206824396189192,"68":0.3458697713688278,"69":0.12785091240223936,"70":0.2268054649344891,"71":-0.5907438879598577,"72":-0.13160023504593524,"73":-0.39510923681485866,"74":0.10770261874162042,"75":0.0789754051226759,"76":0.6908075053679988,"77":-0.07397428213704675,"78":-0.27996201061320425,"79":0.29629618678390984,"80":0.27065804170413393,"81":0.4846421958402172,"82":0.0307859566142184,"83":0.07054832202882609,"84":-0.2897005962661237,"85":-0.4273328806190373,"86":-0.7057563251863526,"87":0.31991406691293417,"88":-0.053387963952216476,"89":0.18719597897171436,"90":-0.04305500278218559,"91":-0.28306884338384564,"92":0.3629909848769742,"93":0.21818918579355223,"94":0.3659344094114457,"95":0.2770531198721131,"96":0.21143967090917942,"97":-0.20339238616883643,"98":-0.3241263066075046,"99":-0.019559974473234033,"100":0.3280510161769037,"101":-0.17730141790408127,"102":0.5905901288814315,"103":-0.06449340434934346,"104":-0.47943913896984613,"105":0.860993179153669,"106":0.3171015990834238,"107":0.5372278245385451,"108":0.13827613205025058,"109":0.22670371349411167,"110":-0.5840821661420897,"111":-0.4721739341198174,"112":-0.2970667969468349,"113":0.1083510974267668,"114":0.3080071684093956,"115":0.3038101335834804,"116":0.0840880566750975,"117":-0.3060821028346428,"118":0.8211995263154296,"119":0.04312697267057813,"120":0.19399442729047542,"121":0.2627209577786714,"122":0.2182753356672826,"123":-0.29679011641898256,"124":-0.06873979718062616,"125":0.13676349408444302,"126":-0.008456346387062429,"127":0.24731473436995396,"128":0.16791689179973793,"129":0.0687459772539856,"130":-0.48561514655199634,"131":0.8275326348838755,"132":-0.15519382164757886,"133":0.2115748230813489,"134":0.1349464253412847,"135":0.06160940377236565,"136":-0.5680345299412127,"137":0.039306575600445155,"138":0.13504763282439466,"139":-0.31423493579578127,"140":0.43626496874367837,"141":0.14441964539359425,"142":0.17015252496812475,"143":-0.44312428637170626,"144":0.6169691176579584,"145":0.03789250220882523,"146":0.1282519879945122,"147":-0.08067884999124467,"148":-0.10735365505593107,"149":-0.3227916014533963,"150":-0.7388888775595132,"151":0.16211412320512877,"152":-0.13909495120055035,"153":0.41717960153368683,"154":0.16072515297285048,"155":0.06782739086871761,"156":-0.29174207416041437,"157":0.3010220725178438,"158":0.003950583607617697,"159":0.06542573927045231,"160":0.03174257765849359,"161":-0.18063072791302212,"162":-0.43461668009733034,"163":-0.064536395234343,"164":0.48439652000127914,"165":-0.34662220598993526,"166":0.4186673788943557,"167":-0.22640643227833127,"168":-0.1437351311868249,"169":-0.3003519480605913,"170":0.3069831146950224,"171":0.3524753481806987,"172":0.1509627325550328,"173":0.17639273616109527,"174":0.2032789622961422,"175":-0.5095658437348698,"176":-0.1766818420374466,"177":0.3845843288095601,"178":-0.12170345785873751,"179":-0.06675787962552474,"180":-0.43511408729448225,"181":-0.023135120922992063,"182":-0.4359058869345771,"183":0.31355402100274127,"184":0.601828342524207,"185":0.12017361429801146,"186":0.16329155740204274,"187":0.22290231141933986,"188":-0.4049795762816988,"189":-0.5218788826665878,"190":0.18853694133887383,"191":-0.1465183709401868,"192":-0.27638024326779936,"193":-0.3295813304609541,"194":-0.008580633901990821,"195":-0.24852707746293032,"196":0.17386923873022123,"197":0.23276944982847267,"198":0.13017061864490231,"199":0.1365613337157673,"200":0.09796972151660735,"201":-0.2171250125887655,"202":-0.21748101266072936,"203":0.17561190839471297,"204":-0.08172693641589875,"205":-0.20894056602889577,"206":-0.5192406286136885,"207":0.003157779534563975,"208":-0.44683772275034883,"209":-0.0670186610524417,"210":0.10368644415649528,"211":0.343153504230949,"212":0.3101077782705347,"213":0.20973229670481058,"214":-0.23277422146983595,"215":-0.5603967518737988,"216":0.039523726226833596,"217":-0.1173023776346055,"218":-0.0564545944460796,"219":-0.5237322725577845,"220":-0.024972659985736095,"221":-0.3810738634988329,"222":-0.16804831506298812,"223":-0.1841452292646103,"224":0.41472229035898145,"225":0.23698117185661743,"226":0.5658209837931094,"227":0.033175190830610574,"228":-0.08768518406594684,"229":0.42379798645598743,"230":-0.18026056173115076,"231":-0.19325676689339719,"232":-0.615929207586864,"233":-0.027569726598753973,"234":-0.23544274819185623,"235":-0.1571286710963632,"236":-0.07422836872300331,"237":0.24029279373206444,"238":0.4358247464971604,"239":0.7543041835421364,"240":-0.16010816198742248,"241":-0.005846851370474039,"242":0.043065053415165575,"243":-0.12668158440879046,"244":-0.08177676613869396,"245":-0.40980649920613826,"246":0.0664932146375228,"247":-0.4862992768919608,"248":-0.21412234562207585,"249":0.2959188744123977,"250":0.15106892529559587,"251":0.4138644741790564,"252":0.6261218785906127,"253":-0.013530848224128159,"254":-0.1719418589786969,"255":0.21750879840439324,"256":0.01536251706929619,"257":-0.5842490546386233,"258":-0.3564115879864271,"259":-0.05355767985652653,"260":-0.20976645413141537,"261":-0.22783050302225624,"262":-0.20872027504973545,"263":-0.0801880809712901,"264":0.4552579322852721,"265":0.6159584940123004,"266":-0.09674897816893843,"267":0.1453444240250546,"268":0.31151312591919295,"269":0.2371709406033147,"270":-0.6725337270723584,"271":-0.3036929876616142,"272":-0.12337165517293207,"273":-0.1419647462855418,"274":-0.35725303536084296,"275":0.40142797246901085,"276":-0.06992290255120519,"277":0.460479632492672,"278":0.7554290019745477,"279":-0.352955066667828,"280":-0.2168482753755074,"281":0.00319118993268677,"282":0.28390953546013953,"283":0.13766381213562776,"284":0.14766813809405963,"285":-0.09658525832525608,"286":0.05633906835478259,"287":-0.37039056074901366,"288":0.1987927006855727,"289":0.4140383465019992,"290":0.2748376357457502,"291":0.8812710311507134,"292":-0.444900566356749,"293":-0.24605879014760332,"294":-0.04595266739717715,"295":0.12799811535216393,"296":0.00004232514662972785,"297":0.3504401451609544,"298":-0.18449104964194288,"299":0.20013121009891402,"300":-0.35238043225496457,"301":-0.06296560828401727,"302":0.21864861137496722,"303":0.4044294058164993,"304":0.9302871917354023,"305":-0.904656716182299,"306":-0.650256723179695,"307":-0.01455651054739738,"308":-0.1954877953785032,"309":0.029614187065886616,"310":0.2968206617181634,"311":-0.1870008995296721,"312":-0.05375743716784123,"313":0.004561403754260105,"314":0.14448256522969968,"315":-0.03492369307926878,"316":0.1821431112255404,"317":0.8827611916666775,"318":-0.6351512489122227,"319":-0.5731418146276326,"320":0.09219872058673223,"321":0.102532429745531,"322":-0.04025286512919927,"323":0.07787409875824373,"324":-0.10272882669558736,"325":-0.1525086791001117,"326":0.022159242790580663,"327":-0.2541762265517978,"328":-0.04827858373720373,"329":-0.11921165532995534,"330":0.3666784693700389,"331":-0.960841473578569,"332":-1.2399628205904223,"333":-0.09220299397569352,"334":0.15743123701730055,"335":0.055866607907520405,"336":0.40389812794616864,"337":-0.20913823506681528,"338":-0.20769888648094506,"339":-0.06305073377004128,"340":0.12136941672299678,"341":-0.06320045257492901,"342":0.037514555080190415,"343":0.4257331612711124,"344":-0.8876529234648605,"345":-0.7827990364624632,"346":-0.1384424273648882,"347":0.020786256307624446,"348":0.07819522387095561,"349":0.5215488302230024,"350":-0.2308734732892557,"351":-0.05071919664647418,"352":-0.20508377307328443,"353":0.4651050545646492,"354":-0.07413043819708821,"355":0.03265878474214994,"356":0.3029502335906885,"357":-0.6192992524909616,"358":-0.2753416210232387,"359":0.18510411346266722,"360":0.24181735762999357,"361":0.07890839163816038,"362":-0.15347265268312626,"363":-0.10263442668904674,"364":0.042707010600735104,"365":-0.27767797806706584,"366":0.28260691877326666,"367":-0.106607992519476,"368":-0.2865284659203604,"369":0.7212360450951049,"370":0.06386886571768356,"371":-1.1427920850864368,"372":0.2811803377290972,"373":0.011183216281696058,"374":0.21446109823719417,"375":0.5145007852068739,"376":-0.18501937774076188,"377":0.15695342819182118,"378":-0.11774184467975636,"379":0.19656094463514068,"380":0.08274244545867945,"381":0.10822591931292497,"382":0.3866798016901985,"383":0.29342350168730885,"384":-1.1634576388488596,"385":0.35080500871163345,"386":0.3533021934997845,"387":0.08994431551898814,"388":0.29680449725520724,"389":-0.11236192092990098,"390":-0.08810667479204848,"391":-0.01691669439341291,"392":-0.08575602754315541,"393":-0.21659696623537597,"394":0.3244882455650053,"395":0.09304582505867083,"396":-0.9702808325593287,"397":-0.8016754713377753,"398":0.02090231814477258,"399":0.17623148342962205,"400":0.15559950152422264,"401":0.19621763043162635,"402":-0.030491469582357204,"403":-0.3818756236686361,"404":-0.04969017058154738,"405":-0.42691565355173133,"406":0.19366039599407667,"407":0.047168445307789755,"408":-0.21026859027121889,"409":-0.9595852559509946,"410":-0.8639058512439473,"411":-0.290297927759719,"412":0.13927274076151158,"413":0.03358338376773066,"414":0.4915652288681349,"415":-0.060191484338280636,"416":-0.2795718118003352,"417":0.18819662416044294,"418":-0.0032620788385122473,"419":-0.023301602494354614,"420":0.05116759395543836,"421":0.000008463040857042579,"422":-0.9595562371411906,"423":-0.604693074832679,"424":-0.09721314008072333,"425":-0.0251470968061022,"426":0.24725646108948474,"427":0.47158171129096926,"428":0.0019117837868203081,"429":-0.2412444936120672,"430":-0.2382575101376416,"431":-0.3534659454532964,"432":-0.4588843486705506,"433":-0.1267610077735005,"434":0.2345144718564092,"435":-0.974547534117008,"436":-0.761213028448081,"437":-0.5320887914097342,"438":-0.7189968520553153,"439":0.5293666469520499,"440":0.5147065464317634,"441":0.023259901061585417,"442":-0.1630162380485739,"443":0.1978900261114554,"444":-0.1827719389341826,"445":0.4255520432041236,"446":0.153129124563845,"447":0.10381024715954255,"448":0.5815956066240895,"449":-0.23885451842485972,"450":0.39818895415815264,"451":-0.01747733319851107,"452":0.3605983417114513,"453":0.35311406438503956,"454":0.08621978948989349,"455":-0.09312462064987334,"456":0.24470513042446967,"457":-0.1277433129318378,"458":0.359786212038459,"459":0.15209738096854616,"460":0.18141336505899228,"461":0.21865368963180104,"462":-0.39160218413231823,"463":0.13977393862828313,"464":0.08976758488257602,"465":0.30422882759758024,"466":0.03533261211856558,"467":0.04986237862470347,"468":0.1862761103965715,"469":-0.10522963652067248,"470":-0.6925016268138963,"471":0.44627035709390084,"472":0.10760020691121826,"473":-0.0031720463279828323,"474":-0.26202858637711085,"475":0.4274661973434066,"476":-0.036630186989815704,"477":0.16923505072789755,"478":-0.24478567955647546,"479":0.4420241395260139,"480":0.011824362065324143,"481":-0.03830715245567937,"482":-0.06251578183428358,"483":-0.22267692155863397,"484":0.45215391872561206,"485":0.654486514111762,"486":-0.44974035370033494,"487":-0.38788773658686754,"488":0.2098848571973615,"489":-0.4263430405196545,"490":0.4246298851653338,"491":-0.1783944032279784,"492":0.47153580347317264,"493":0.015174019764824034,"494":-0.2758142651708165,"495":-0.157606726745276,"496":-0.33261146399539654,"497":0.18425517080940812,"498":-0.011413340416628788,"499":-0.0036524314122406906,"500":-0.8563844366466165,"501":-0.01993203095013229,"502":0.0604560299909643,"503":0.23737604763785616,"504":0.015807830865717857,"505":0.2847550841288545,"506":0.048452485304400876,"507":-0.17593910114819025,"508":-0.18480271343519838,"509":-0.3657356492131124,"510":-0.2137029252009036,"511":0.25260514163531667,"512":-0.3285387910248293,"513":-0.9185067507899751,"514":-0.24029084401927295,"515":0.07920409686852362,"516":0.00012464467343231266,"517":0.2373903951020279,"518":0.39425262154009444,"519":-0.06900705996053332}},{"sx":1,"sy":1,"depth":520,"w":{"0":-0.07473230872684401,"1":-0.11782972205479927,"2":-0.22260033169929275,"3":0.15457533847632418,"4":0.1602125504731999,"5":0.11421999951934435,"6":-0.08267299734847089,"7":0.14627837277316605,"8":-0.644404615373706,"9":0.29701662300349285,"10":0.050101619673795006,"11":0.356311962196204,"12":0.04767259860436202,"13":-0.10826061733101781,"14":-0.23279864028639846,"15":-0.12054377616441427,"16":0.07892713579434012,"17":0.19024058241076616,"18":0.05628472044363321,"19":-0.5267718049179533,"20":-0.028580682136898013,"21":-0.004359958493542801,"22":0.14401555484034056,"23":-0.186592300016986,"24":-0.1842064826337358,"25":0.010549146446865512,"26":-0.11853090246679489,"27":-0.1264946784174208,"28":0.007867987295066619,"29":0.021322862398518234,"30":0.12033113173057386,"31":-0.34355355257033704,"32":-0.1401375971969144,"33":0.1078880499895759,"34":-0.2611149003231997,"35":-0.06053187001925038,"36":-0.22007161325018978,"37":0.20234625503939235,"38":-0.23780043697737452,"39":-0.0930032299886879,"40":-0.03360356470873601,"41":-0.008665241364282941,"42":0.18716426749572523,"43":0.6303640331746764,"44":-0.1404705165677548,"45":-0.2816527752903365,"46":0.12001213823204068,"47":-0.17394323246989918,"48":-0.11734447235260898,"49":-0.30590111864000447,"50":-0.5315002738433535,"51":-0.03571092644594283,"52":-0.054750452002190475,"53":-0.20029262786435384,"54":0.14780825698097141,"55":0.22327439332697946,"56":0.6625669521513631,"57":-0.1727351095019039,"58":-0.5409004552313204,"59":0.299307791508867,"60":-0.08958184798138896,"61":0.05237516351451946,"62":-0.3119194824398599,"63":-0.6555178827898784,"64":0.0656739291890568,"65":-0.02461826111014948,"66":-0.13245281393028033,"67":-0.10251801382327833,"68":-0.07019803619084894,"69":-0.04171250593717256,"70":-0.33235955570065867,"71":-0.04034837933452505,"72":-0.33813046584837636,"73":-0.12415357481370894,"74":0.09421268291912839,"75":-0.31035696496702375,"76":-0.24190067491151213,"77":-0.8260204653847231,"78":-0.200318105682837,"79":-0.13708867206904907,"80":-0.5622888791562629,"81":0.03871746601614053,"82":0.07190309335360981,"83":-0.0008154611777611019,"84":0.13121756325924233,"85":0.3939758441204732,"86":-0.06510336495393201,"87":0.01733881497890929,"88":-0.3483215026332105,"89":-0.40143234391640753,"90":-0.4311833067748362,"91":-0.28276777321060276,"92":-0.12670794355729442,"93":-0.13638083371410012,"94":0.1629824925631837,"95":-0.1199791426880744,"96":-0.1530710040593362,"97":-0.15616784584780805,"98":0.048134427860682324,"99":-0.1667188678568985,"100":-0.4039685482337376,"101":-0.15518657663339888,"102":-0.31679095520204564,"103":-0.24242446585923452,"104":-0.24140055967137913,"105":-0.08280237038771293,"106":-0.22884831304901368,"107":0.05904019880015265,"108":-0.12887267524721532,"109":-0.37046589012278713,"110":0.29384342375527206,"111":0.3118202916861589,"112":-0.16486992783014548,"113":-0.07119889007556529,"114":-0.2133091908661757,"115":-0.026599794494578107,"116":-0.12607564281576378,"117":-0.0682422799834383,"118":-0.2416216064028768,"119":0.19366303092828774,"120":0.26035206315945053,"121":-0.015588528585631032,"122":0.11635175911748566,"123":0.17345634135073792,"124":-0.13927794556079912,"125":0.11404364999675907,"126":-0.26211447444240493,"127":-0.46467012990572726,"128":0.11530350660347335,"129":0.13010544735654003,"130":-0.04428418572125484,"131":-0.15721695282317283,"132":0.1596862166711147,"133":0.1410565697462886,"134":-0.21086748955961881,"135":-0.2203211521773826,"136":0.20234490876635408,"137":-0.42976416523131106,"138":0.04407986057438525,"139":-0.37214466144801256,"140":0.02956716063650639,"141":0.08671346438318417,"142":0.17323937422885893,"143":-0.10854005031611678,"144":-0.17356522162082566,"145":-0.04014838890762404,"146":0.09767695208367272,"147":-0.18579701602296278,"148":-0.23137360163190862,"149":0.40919634154841833,"150":0.11332383929555205,"151":0.27416670103249674,"152":0.14036794648623674,"153":0.3501235391251485,"154":0.23607023207115635,"155":-0.09835255451314048,"156":-0.0706956487955575,"157":-0.2653884342052886,"158":0.18377619258275846,"159":-0.20605462583831013,"160":-0.08773028322480836,"161":-0.06972053861049995,"162":0.22302432406124506,"163":-0.2684258097861492,"164":0.1160411497897772,"165":-0.14396265102505099,"166":0.19667211617600752,"167":0.13418617085623663,"168":-0.33516861132734416,"169":-0.18802112863827997,"170":-0.12694356621266356,"171":-0.29391381504501257,"172":-0.3500241457769653,"173":0.06397221851770041,"174":-0.21566491431586368,"175":-0.047290929876814373,"176":0.0595161192963872,"177":-0.17048113577883886,"178":-0.4397288435118009,"179":0.48278315244501624,"180":0.15453803157773216,"181":-0.3854185872569942,"182":-0.14047328488102395,"183":-0.15493219786258933,"184":-0.08703553606725578,"185":-0.11588048497073584,"186":-0.2289793905279693,"187":0.03498713425046848,"188":0.5500841856244787,"189":-0.46022389416794807,"190":-0.05496924121423306,"191":-0.09845472005106479,"192":-0.05277042269681994,"193":-0.20756574197354388,"194":-0.37450890182947977,"195":-0.4282230274003081,"196":-0.1380284561246254,"197":-0.42304862096513296,"198":-0.12003530714338556,"199":-0.12328693178611287,"200":-0.2872820532797677,"201":0.4045794219040152,"202":-0.620619200204923,"203":-0.4118896072366249,"204":-0.2862941800095407,"205":-0.1738187936398342,"206":-0.3978313837813889,"207":-0.38794632266158063,"208":-0.3329380106045189,"209":-0.11305840193274778,"210":-0.31830760209207226,"211":-0.2840216539850793,"212":-0.07416156802949826,"213":-0.2085943362346852,"214":0.3746461292756738,"215":-0.4743514562556328,"216":-0.06569613704847177,"217":-0.34772254727131985,"218":-0.15233220695653904,"219":-0.2803694233925108,"220":-0.34251838822798863,"221":-0.22033288644021987,"222":-0.0401146052791302,"223":0.05567925980061376,"224":-0.2522175338489917,"225":-0.03501265842828694,"226":-0.40163925572194464,"227":0.6928838731712004,"228":-0.4844300306954551,"229":-0.8205184510117723,"230":-0.1615301566092541,"231":-0.24603414400660134,"232":-0.33790759925579417,"233":0.07173871925233118,"234":-0.20854807231143757,"235":-0.1077868175096169,"236":0.020333325378335262,"237":-0.23156953798317204,"238":0.25155540071082616,"239":-0.34517755031797015,"240":0.010840050828112258,"241":-0.14504914133055224,"242":-0.6393408303774784,"243":-0.6548565599146341,"244":-0.054767809656081676,"245":-0.46010486635049685,"246":-0.18277410556418316,"247":-0.00016197398045609388,"248":0.05471859475214306,"249":0.3255916919748049,"250":-0.03380455992656917,"251":0.5142603508164184,"252":0.30803502334521615,"253":0.7845171221435862,"254":0.20114280853498362,"255":-0.4387986052825005,"256":-0.550018583967383,"257":-0.01741070631789531,"258":-0.14326789958543526,"259":0.02494422731554171,"260":-0.0784920016763653,"261":-0.19520616607371966,"262":0.18063862220465035,"263":0.02550691522934648,"264":-0.05303950858946572,"265":0.3002195478576207,"266":0.5185899064229108,"267":-0.09968997227321404,"268":-0.546722016918881,"269":-0.33357648871324314,"270":-0.10900930576660789,"271":0.22801950577244043,"272":0.26454864754688606,"273":-0.06767282657403602,"274":-0.31693834517911823,"275":-0.05455402981828383,"276":0.11392094945364688,"277":-0.08497946256804352,"278":0.40630996633989047,"279":0.8865025383889061,"280":-0.016407649122620892,"281":-0.13934755914491206,"282":0.12455064018752222,"283":-0.3698031975089699,"284":0.18514407027607985,"285":-0.022071694800453418,"286":-0.16401849276727234,"287":-0.19571566368912968,"288":-0.01746111838353593,"289":0.14543663665502612,"290":0.16023841832976005,"291":0.4871686736657038,"292":0.45919697893470524,"293":-0.004391839134019625,"294":-0.3188879672232247,"295":0.33023339236183996,"296":-0.09362720231513907,"297":0.5213153169806162,"298":0.1000287507819761,"299":-0.2320533949190217,"300":-0.29191992871722394,"301":0.17980463586344783,"302":0.14068807622546167,"303":-0.16580824796441798,"304":-0.056986368540071476,"305":0.9041992211203762,"306":-0.28373630813976786,"307":-0.08065212952041986,"308":-0.08663076975901811,"309":-0.026904655340828997,"310":0.47486421800711626,"311":0.2768005071441752,"312":-0.3004340947209193,"313":-0.06874130674972126,"314":-0.08409799997860337,"315":0.2561111999885648,"316":0.1190459265211347,"317":0.061431339922565296,"318":0.7051771049545494,"319":-0.8016009698686162,"320":-0.27392223543937505,"321":0.0766878319793246,"322":0.03870082508685411,"323":0.5589549344882584,"324":0.10318506771835706,"325":-0.136802111449054,"326":-0.06991696916626314,"327":0.1747562619974707,"328":0.14808590782558795,"329":0.2272719597301014,"330":0.26274574820968966,"331":0.6017998656513895,"332":-0.6585232209759166,"333":0.23622864582212572,"334":-0.4220068723108908,"335":-0.09489637772119311,"336":0.17829777979268402,"337":0.3449411775924851,"338":-0.18037748927817554,"339":-0.09460358140892396,"340":0.13294032586662907,"341":0.008283451410009572,"342":0.1103395108674688,"343":0.29550463805775395,"344":1.0167729044732068,"345":-0.8740314323404507,"346":0.054960980540342826,"347":-0.25140976382079777,"348":0.23954050543191177,"349":0.24374684361895485,"350":-0.029298488133942955,"351":-0.173961859466714,"352":-0.0509801476217123,"353":-0.13257946688857433,"354":-0.31265461615999773,"355":0.18825917495728775,"356":0.13683028479565626,"357":-0.15643449792196,"358":-0.9950183360752091,"359":0.018371462570295382,"360":0.38758711843640864,"361":0.18919155810548008,"362":0.4477954625390282,"363":-0.14606383453925692,"364":-0.06504336402087187,"365":-0.18063607125576878,"366":0.03580982734596069,"367":-0.3769412413237813,"368":-0.19191400848335258,"369":0.16250124094941187,"370":-0.14066167680167432,"371":-0.3495310697757981,"372":-0.015166413587824704,"373":0.34892107119725474,"374":-0.04486463172688606,"375":0.3579795064265889,"376":0.0289507666339302,"377":-0.24872568505239248,"378":-0.0822695924672789,"379":0.01798053875251851,"380":-0.020304265885076927,"381":-0.04063515153605118,"382":0.13996573505843998,"383":-0.4130129604806529,"384":0.108953588304822,"385":-0.30152597550203736,"386":0.27726509417715123,"387":0.0012047052133132383,"388":0.5539007332038356,"389":-0.3057203952788737,"390":-0.1727719509801398,"391":0.009186695283456985,"392":0.052168481217808566,"393":-0.1857788118252939,"394":-0.2396410980965361,"395":-0.20087057900425057,"396":0.718282582255943,"397":0.03232406291296778,"398":0.07017451102708495,"399":0.5442122377862514,"400":-0.10361551062534335,"401":-0.11777382408899764,"402":-0.055491301761401275,"403":-0.17341999708676523,"404":-0.32718872862007,"405":0.39457959905598194,"406":0.07999412037093824,"407":-0.3606928387576214,"408":-0.1612761389560091,"409":0.7582716382922171,"410":0.3622904616910631,"411":0.028795581851205322,"412":0.23091551660495177,"413":0.029174384003622107,"414":-0.035142546163332955,"415":0.0714600850284976,"416":-0.1215986391442268,"417":-0.0016037506725292416,"418":0.25865421064416205,"419":0.2824204313826293,"420":-0.20942790262609925,"421":-0.13730359150323815,"422":0.8271759806638526,"423":0.7379258291083356,"424":-0.0014511847178821974,"425":-0.32170184803715685,"426":0.50012892376593,"427":-0.36445068270605036,"428":0.15098689165729323,"429":-0.2048411589408598,"430":-0.2455489630470753,"431":0.11130950324849716,"432":0.3936610813299826,"433":-0.48158888303156316,"434":-0.08950097816304907,"435":0.8410459395452273,"436":0.4164211151508169,"437":0.18431752913962177,"438":0.05896275454073468,"439":0.684921911148853,"440":-0.5133480038183876,"441":0.06664101711102467,"442":-0.11867389987610052,"443":-0.4326566849661259,"444":0.10850131545969015,"445":0.39995170296891275,"446":-0.23911442436650746,"447":-0.17974262115811634,"448":-0.5187420987569078,"449":0.6969024630392339,"450":0.106730693906483,"451":-0.18481317727225302,"452":0.4921328059365161,"453":-0.06497345196417942,"454":0.23036277679119496,"455":-0.12386341540182404,"456":-0.10366678564316731,"457":-0.03777703910892015,"458":0.34823670421294756,"459":-0.12400092079343186,"460":-0.27927620586812585,"461":-0.29267578629095337,"462":0.44055840915632405,"463":0.2282847107279378,"464":0.0313516725464083,"465":0.2566897221417452,"466":0.08823136354041507,"467":0.24290221593086547,"468":-0.096455094975931,"469":-0.1699318213512887,"470":0.10277844778115097,"471":-0.022005430700018758,"472":0.010226550473918307,"473":-0.4047894309430314,"474":-0.17681498600550674,"475":0.29815647931244776,"476":0.2569567310685189,"477":-0.04150884757131037,"478":0.19845412544630198,"479":-0.11144925162158494,"480":0.25750803117394294,"481":-0.12932516936755245,"482":-0.07650790202531073,"483":-0.2182388011394091,"484":0.09748614578188472,"485":-0.032506983296214265,"486":-0.3935187176987135,"487":1.1846387300326928,"488":0.29857570538933537,"489":0.26802031443761903,"490":0.054329186217020056,"491":0.412948323816472,"492":-0.20553827373227096,"493":0.3629014852786804,"494":-0.07507101777500597,"495":0.010809360465476625,"496":-0.31034664528320355,"497":0.42077475672974635,"498":-0.360583032368186,"499":-0.3010260813721428,"500":1.0000121755995632,"501":0.029007340532711957,"502":0.1680159155159099,"503":0.2680423388898973,"504":-0.07010306117307447,"505":0.07731661593976229,"506":0.16303635877644704,"507":-0.06743806869108308,"508":0.02764777956325245,"509":-0.3399550489388939,"510":0.15192742651113886,"511":-0.35763049213732717,"512":-0.25505508306424973,"513":0.4622723832584641,"514":0.40574604340220827,"515":0.5718324908346957,"516":0.36821080294168873,"517":-0.3796338670066823,"518":-0.0917129218231522,"519":0.3295058518635229}},{"sx":1,"sy":1,"depth":520,"w":{"0":0.1538652155378357,"1":0.2278716238165193,"2":-0.24020778439955354,"3":0.105588289539974,"4":-0.6923804943684272,"5":-0.1544841951534894,"6":-0.18888086775704402,"7":-0.49740656601159317,"8":-0.037257832444257066,"9":0.33523389913913004,"10":-0.11317548996234161,"11":0.3627878793537178,"12":0.18647655410564215,"13":0.24318962889079945,"14":0.10791448184241534,"15":-0.11541276438823302,"16":-0.144800800971072,"17":-0.23239535715495896,"18":-0.1526513505278762,"19":-0.179571216731937,"20":-0.30461858761137006,"21":-0.053655977387772655,"22":-0.051153419317449295,"23":-0.03149173390439667,"24":0.00043563516521423154,"25":0.4613617636353259,"26":0.18740099111285424,"27":0.1422371531492043,"28":-0.2242160163272131,"29":-0.21804813548936622,"30":-0.7083348969679986,"31":-0.2138103573121072,"32":-0.5226723434950948,"33":0.12445557183631845,"34":0.2252399726547835,"35":0.042981560428483785,"36":0.1162304152374247,"37":-0.6692224781516782,"38":0.23205757864356782,"39":0.22880705892272438,"40":-0.0245235953554023,"41":-0.05027940207700542,"42":0.25300044551177275,"43":-0.04258034051272891,"44":0.4822399036086887,"45":-0.17527997283410174,"46":-0.012118877713687283,"47":-0.010097486943532913,"48":-0.06217218857068455,"49":-0.07719456960149704,"50":-0.2791587790133634,"51":0.4440792444494083,"52":0.06848650136928591,"53":0.09828652281902941,"54":-0.11672334852363794,"55":0.12951185103856583,"56":-0.10905081137225597,"57":0.14712406158822874,"58":-0.4209760777867502,"59":-0.2469349385185761,"60":-0.4353080197002659,"61":-0.40467883028232693,"62":-0.09635624926759634,"63":-0.2178112547365844,"64":0.45877246036510466,"65":0.1784988709519865,"66":0.13907997157221358,"67":-0.168781097282841,"68":0.26612162329698896,"69":0.04967190344344307,"70":0.17656728762454413,"71":-0.42681384887487783,"72":-0.368375196613335,"73":-0.40744283881435717,"74":-0.3751972498510066,"75":-0.27063047158010856,"76":-0.21208817443389769,"77":0.3215484612815039,"78":0.17875806472563188,"79":-0.06905305415140907,"80":-0.09326501612178599,"81":0.41242795535560506,"82":0.01418384585036039,"83":0.8414493667906603,"84":0.23880066170314984,"85":0.283527942705274,"86":-0.30652694386724944,"87":-0.644577935194155,"88":-0.2566346577804031,"89":0.1525142769033651,"90":0.1543747009824512,"91":0.1589630229394212,"92":0.3061619580219684,"93":0.006866748002049008,"94":0.2562025440926475,"95":0.16773463498153093,"96":0.2547591748119871,"97":0.03197962468791,"98":0.07535398265400592,"99":0.07015856509799116,"100":-0.6697404821645592,"101":-0.17396457313217675,"102":0.6150929618104167,"103":0.13892589937785418,"104":0.21820147458935465,"105":-0.04521238327844415,"106":0.13284464296294526,"107":-0.4037713693642372,"108":0.15160791080432343,"109":0.3135295158779351,"110":0.2197723087029572,"111":0.03887703312545177,"112":-0.24193561554885695,"113":-0.0779993528461706,"114":0.021649964697427453,"115":-0.47350790514602026,"116":0.14257620118860856,"117":0.12054666613194316,"118":-0.056828045907711074,"119":0.13882202739375948,"120":-0.2452612865667588,"121":0.3624656833410593,"122":0.45512712418364804,"123":-0.02772030950821234,"124":0.21026620838708138,"125":-0.14869033246874133,"126":0.3700394319873544,"127":0.28704118553541536,"128":-0.27272812205848285,"129":0.3037717894228386,"130":0.1059475769892382,"131":0.029969335689016663,"132":0.0838733885296601,"133":-0.4395204011401977,"134":0.4686508317380564,"135":0.7287223748552578,"136":0.14161563644654757,"137":0.051701412409040706,"138":-0.5912504877202324,"139":0.09925812615589498,"140":0.06073924627230003,"141":0.11756708059804126,"142":0.43058189303679806,"143":0.12474084453733435,"144":-0.09585966921124901,"145":0.10723944944312111,"146":-0.319300183099526,"147":0.2389330081301498,"148":1.0371345286736917,"149":0.20758805290655796,"150":-0.2205419002231493,"151":-0.12848954006458835,"152":0.04886081819683148,"153":0.3298238845128242,"154":-0.2604077190516943,"155":0.10703132382255856,"156":0.29548867418287206,"157":0.1354902331006755,"158":0.12483856114590035,"159":0.31519876676100267,"160":0.26806734437245794,"161":0.5025122145298886,"162":0.3974871061314512,"163":0.11063293762487168,"164":0.1402772459978597,"165":-0.15164960689264617,"166":0.09896148728592226,"167":0.09836149670883107,"168":0.1428997002483414,"169":0.2494937425850095,"170":0.26885238382662624,"171":-0.06199958005282071,"172":0.11390527638193246,"173":-0.25057606057749,"174":0.14957181109351686,"175":-0.03315815082328118,"176":-0.11939943160493997,"177":-0.12180493786776828,"178":0.41921777445452163,"179":-0.2885585448135326,"180":0.015336999861399346,"181":-0.09036468923230885,"182":0.17686831157402683,"183":0.18683491420064846,"184":0.030429308211744943,"185":0.09398592185305406,"186":-0.36668532521656916,"187":-0.1260393503373769,"188":-0.5493030103391526,"189":0.0670263199910107,"190":-0.2969005518900603,"191":0.5558678794432909,"192":-0.0539556571567353,"193":-0.09433533113269921,"194":-0.2972022849876442,"195":0.010234616496545676,"196":0.07396403415298972,"197":-0.11876610994060322,"198":0.2871962363639961,"199":-0.21105274369765492,"200":-0.5127368731623978,"201":-0.3922116719996593,"202":-0.37661791941274303,"203":-0.027906911682041007,"204":0.5483874422129785,"205":-0.5429630868906296,"206":0.25532760739502297,"207":0.15784759239159468,"208":-0.0240941079896412,"209":0.109396478017925,"210":0.002303648842877154,"211":0.06201498971209252,"212":-0.2906211690448773,"213":-0.0773331720870286,"214":0.020112995345628354,"215":-0.3178708842099577,"216":-0.08035794021889539,"217":0.35945239154815295,"218":-0.23282422581859252,"219":0.011408390543493338,"220":0.2732344647129557,"221":-0.04883499214966019,"222":0.12479387357313292,"223":-0.21050647289179192,"224":0.2803038717354652,"225":-0.22251023431969805,"226":-0.0639628727351356,"227":0.18550491245700657,"228":0.11897893285150948,"229":0.34861352926941136,"230":0.19062062738532765,"231":0.02791318846997593,"232":0.13001066976941855,"233":0.35624294822457353,"234":0.033501620743872064,"235":-0.05152008531795119,"236":0.009209554310256931,"237":-0.23471217443508316,"238":0.30482006114952237,"239":0.4128112623216506,"240":0.5832971950297652,"241":-0.0703228547783505,"242":0.7593924354180277,"243":0.04277293978951469,"244":-0.4799025941747653,"245":0.18245093282303004,"246":0.2599639700275087,"247":0.02790139847654258,"248":0.00046873327788079887,"249":-0.19467641141887707,"250":-0.4429006308893759,"251":0.04155979659983388,"252":0.2542017444741779,"253":0.11500443838754379,"254":-0.2189380168188929,"255":0.3929802817539277,"256":-0.19381112458182786,"257":-0.23580760051157088,"258":0.028779214419717338,"259":-0.0897690563718371,"260":0.09285673916123183,"261":-0.24760809380451831,"262":-0.36060770257132235,"263":-0.18301812513554283,"264":0.16750751259585345,"265":0.47125208566873916,"266":-0.6745519391006639,"267":-0.2910704872707422,"268":0.14340159234853578,"269":-0.15795716032801718,"270":-0.009152195283466849,"271":0.08396796540822728,"272":-0.09178988274334779,"273":0.09199584321699375,"274":-0.07955424761260424,"275":-0.06318677883186291,"276":-0.31595736273419706,"277":-0.17058387521801283,"278":0.7575012274325256,"279":0.013380848103034906,"280":0.1884832973256184,"281":0.31534110721272823,"282":-0.5804255733857879,"283":-0.487419075533099,"284":-0.48830128217883495,"285":0.15590862020662577,"286":0.1311079677818216,"287":-0.14566702205367896,"288":-0.4895279622027776,"289":0.039079004246602246,"290":-0.11888952392898298,"291":0.5423880342342075,"292":0.23411567468485167,"293":0.20868419280375058,"294":0.21915127366816192,"295":-0.1279501867006705,"296":-0.04635079009496802,"297":-0.2474843458131155,"298":0.4006849300361283,"299":0.2602594611151129,"300":-0.1887991346631903,"301":-0.4733086197052015,"302":0.41970591845678207,"303":-0.05801214814620427,"304":0.6080602708767493,"305":0.5911097231017657,"306":0.28162539054458147,"307":-0.6050756713027141,"308":0.01780939473599395,"309":-0.10152677463241541,"310":0.2211918414655956,"311":0.33833459514666664,"312":0.20857859532828765,"313":-0.12236013800708244,"314":-0.34579505069387795,"315":0.07603149504428619,"316":-0.040777247555234805,"317":0.6549564542954488,"318":0.528743763332869,"319":0.31061904601779644,"320":-0.06896522486266048,"321":0.6956626885777665,"322":-0.0475064549803474,"323":0.6755468498611146,"324":0.2826538611201703,"325":0.22280324604730478,"326":-0.06172597983095505,"327":-0.5217245605572168,"328":0.29886570457959794,"329":0.17209318790921804,"330":0.32584764182789233,"331":0.22817834566919215,"332":0.1683591874424469,"333":-0.05008296344433456,"334":0.5835260726808208,"335":-0.2107172329026231,"336":0.5736941905555298,"337":0.31601696116119754,"338":0.24485050187689217,"339":-0.011061466100567775,"340":-0.13647432413385724,"341":0.12891145183715255,"342":-0.05531441536468339,"343":0.25799274996731675,"344":0.0036112473654112457,"345":0.13145290102356097,"346":0.17227781242961118,"347":-0.04018716664309584,"348":-0.4331431582849045,"349":0.4294917508701835,"350":-0.005445769126592338,"351":0.25820390085664,"352":-0.1933011447796075,"353":-0.14904378429142182,"354":-0.6890156560318644,"355":-0.28702997500826827,"356":-0.07605790504943753,"357":-0.4227469325718811,"358":0.4588884006662383,"359":0.22200733442100132,"360":-0.08443543627333393,"361":0.16839532271576343,"362":0.194921226398203,"363":0.03944634582159373,"364":0.10240586509575328,"365":-0.20138068250677862,"366":-0.012999613406201125,"367":-0.5577306384051643,"368":-0.39461870645822816,"369":0.05991700051433841,"370":-0.3567931792129851,"371":0.8570943448804832,"372":0.6122792360426528,"373":-0.30560440082330276,"374":-0.18841704467617948,"375":0.146063549063675,"376":0.004625414327013934,"377":0.153075317975439,"378":-0.1815879059203595,"379":-0.14420858412823975,"380":-0.653159133358056,"381":-0.42080408213106096,"382":-0.3523352653005061,"383":-0.2822227758423584,"384":0.8024838707654827,"385":0.10197021627450113,"386":-0.5198982725739668,"387":0.31647225584404104,"388":0.18396783103743808,"389":-0.08443840269680833,"390":0.11846457278805574,"391":-0.3310421613407017,"392":-0.25590123836527756,"393":-0.41116512224768076,"394":-0.1120293661047474,"395":-0.49518319545476447,"396":-0.716556250810197,"397":1.204697980290874,"398":-0.04645494963159704,"399":0.062067316485555704,"400":-0.03513852946910419,"401":0.49693745050172144,"402":0.07349669350020875,"403":0.02273382880025153,"404":-0.11698432963538084,"405":-0.22121983548290342,"406":-0.14785709392207494,"407":-0.3864935757420749,"408":-0.05424019740721151,"409":-0.7339439962846528,"410":1.3183826338824434,"411":-0.02238127324650307,"412":0.23558102376077583,"413":-0.20358936893716534,"414":-0.29207172422239636,"415":0.071931823235382,"416":0.2534674954690438,"417":-0.054309396913148095,"418":-0.3396537809991364,"419":-0.16636666810541834,"420":-0.21471897525794387,"421":-0.11483446113877985,"422":-0.6847904242504887,"423":1.6263828355635603,"424":0.16503015100265456,"425":-0.12607994699798894,"426":-0.3672080445122316,"427":-0.3304045336408815,"428":-0.004250230841768897,"429":0.11359984137769046,"430":0.005183224124807051,"431":-0.15254512656232466,"432":-0.10939024992674916,"433":0.1006340571158881,"434":-0.2123368131155695,"435":-0.7818125773768857,"436":1.5164949349276406,"437":0.23023235756443616,"438":0.3575232086290006,"439":-0.42128278431860683,"440":0.10133318553658628,"441":0.08729410136698502,"442":0.2762232108384248,"443":0.09281182049329091,"444":-0.07872589483966527,"445":-0.3725723848637886,"446":-0.08323927356327132,"447":-0.7450772226418038,"448":-0.37791643836600475,"449":0.9911932591049463,"450":0.12652506044606984,"451":0.27175232849329717,"452":0.07778867054510538,"453":-0.3186715724443706,"454":0.5498664033995881,"455":0.038770909614118255,"456":0.05515152407166614,"457":-0.01761388318746257,"458":-0.3483625479775386,"459":0.0863431260912092,"460":-0.37829631135109953,"461":-0.45045519602076045,"462":0.4489162464454337,"463":0.09595488163702129,"464":-0.4679157837210026,"465":0.19031055945152683,"466":0.11286877121501966,"467":0.6016357089819222,"468":0.03388551199603247,"469":0.06260316130703283,"470":-0.18572537121591606,"471":-0.1956321277220164,"472":0.024266724753611517,"473":0.08319492423497914,"474":-0.5230802992738073,"475":0.16494827069491955,"476":-0.2961467592251793,"477":-0.2331657129655357,"478":-0.04421715819245752,"479":-0.11786933249669881,"480":0.2846468551132629,"481":0.017179078689713755,"482":-0.5401250962291748,"483":0.11150504629541141,"484":-0.15433507241070551,"485":0.17427759454656064,"486":-0.3246125640905325,"487":-1.0032904828856115,"488":-0.03189206671429941,"489":-0.46758843103836656,"490":-0.2771514521767613,"491":-0.27278752925108246,"492":-0.010619333401584118,"493":0.5459203090478864,"494":-0.045106311770941564,"495":-0.3719693640545676,"496":0.07457061127468521,"497":-0.22635638269319652,"498":0.03993687670273648,"499":-0.10540213858227476,"500":-1.585075021242502,"501":0.30458664925067713,"502":0.16997820820054976,"503":-0.4938428540768191,"504":0.04346471843505936,"505":0.12459361651622418,"506":0.3225985828100446,"507":0.2712335012167869,"508":-0.3579035577817007,"509":0.06531240149416352,"510":-0.131046951455723,"511":-0.45980563130542973,"512":-0.3607710596598584,"513":-1.2630446016215198,"514":-0.011957290132716845,"515":0.2732663247788819,"516":-0.4859461534281759,"517":0.17150741846862944,"518":0.30532516364123097,"519":-0.04529908383395557}},{"sx":1,"sy":1,"depth":520,"w":{"0":0.08069091954980476,"1":-0.024331811988765436,"2":-0.059609609693626955,"3":-0.031713504603601686,"4":0.27728854586530927,"5":-0.047957193277567284,"6":0.6689316515074613,"7":0.08649391550728368,"8":0.9368807485554107,"9":0.032126365028823,"10":0.03530598564873516,"11":-0.08383569561951917,"12":-0.165088242929402,"13":-0.12218971897731078,"14":0.13419327975663317,"15":0.01705877633409378,"16":-0.40186335285274305,"17":-0.018617290114747675,"18":0.06334578782767375,"19":0.26939152365546803,"20":-0.3187521463649975,"21":0.43708098039505217,"22":-0.2721923874991793,"23":0.009300198313336599,"24":0.006571273561561792,"25":-0.4192586586786909,"26":-0.10375409791104745,"27":0.014772599755600998,"28":0.3368824065502876,"29":-0.05241668323356688,"30":-0.08844747726897281,"31":0.1203066123199735,"32":0.13241385029220246,"33":-0.17798889689148745,"34":0.2762272234389497,"35":-0.2044903616972971,"36":-0.18934877323975877,"37":-0.12169583228930995,"38":-0.31851342601067617,"39":-0.108820153447207,"40":0.14832386982721849,"41":0.5774141723987403,"42":-0.20247202246021176,"43":0.008826494371931748,"44":0.023632532927716297,"45":-0.045799947039503755,"46":0.10582832226751826,"47":-0.19746106190069415,"48":-0.06440536505485184,"49":-0.2466182911443979,"50":0.05198658972769895,"51":-0.3348996860994468,"52":0.166585205483516,"53":0.17976545958838816,"54":0.2959229127776372,"55":0.0878395968013837,"56":0.11530936233237554,"57":-0.10955852799360608,"58":0.48635985631696566,"59":-0.03384103644342239,"60":-0.11055199128381708,"61":0.1045739234849743,"62":0.1196518238545014,"63":0.23047712546923363,"64":0.04212982099422898,"65":0.18149805734104799,"66":0.17846334697674637,"67":0.045980075196178104,"68":0.20148752514082896,"69":0.18990628012253924,"70":-0.34581303168061034,"71":0.20957051321507697,"72":0.08301128918383469,"73":-0.04596644056078596,"74":-0.07226934759916463,"75":0.15631710185677683,"76":0.13674137038217798,"77":0.06658634203185879,"78":0.22273348675554921,"79":0.3559301702657503,"80":-0.10574689136069393,"81":0.1024517795261908,"82":0.16897500361787368,"83":-0.3070701152165929,"84":0.4903914821364125,"85":0.18039103463449696,"86":-0.402017243547799,"87":-0.10872715041019852,"88":-0.12710838102427463,"89":0.1353539251338787,"90":-0.016240895941884517,"91":0.06537702689076676,"92":0.15890993700541942,"93":-0.049905099574385756,"94":0.3466118362599954,"95":0.01008303402230173,"96":-0.4031004228427716,"97":0.09436507840494918,"98":-0.21637080773542092,"99":-0.30983064819709616,"100":-0.16871706291043823,"101":0.1263353541244566,"102":0.09357244518783626,"103":-0.12245468583071495,"104":-0.028788295182422954,"105":0.1485844723708534,"106":0.18129505157332312,"107":0.36121095357781624,"108":0.03492454437568996,"109":-0.12227572206666479,"110":0.4138849523663615,"111":0.2166916326476858,"112":-0.291882158843983,"113":0.07461921205161472,"114":-0.05539774167964948,"115":-0.3032579894948759,"116":-0.5570442002043882,"117":-0.1923541152491688,"118":0.23616586680590065,"119":0.30735826939880884,"120":-0.0615483278951061,"121":0.09104936732200315,"122":-0.3182576951001138,"123":-0.22921780276829304,"124":0.6122355573675023,"125":0.2567080793133693,"126":-0.10214437207574427,"127":-0.434487290540736,"128":-0.09038781265869737,"129":-0.2964935641429921,"130":-0.21075503579431348,"131":0.030710602660777592,"132":0.34448001727316835,"133":0.3769829690627105,"134":-0.2537547631619295,"135":-0.2308965462365281,"136":-0.07516989558751104,"137":0.19281336371885444,"138":0.1602082939659661,"139":-0.2001323268204361,"140":-0.04776181683990469,"141":-0.22954780266226757,"142":-0.21402410061705368,"143":-0.12437222901889157,"144":0.2110486563129664,"145":0.17182407647052622,"146":0.012012057280419057,"147":0.09993598258178873,"148":0.00328371702880908,"149":-0.2718532149702573,"150":0.23842143506883806,"151":0.10436875959627044,"152":-0.2334992578355019,"153":0.058840298295596206,"154":-0.02092648184048513,"155":-0.1041041597379528,"156":-0.06251841770667668,"157":-0.14868185008005905,"158":0.1300048037929015,"159":0.06258815017747259,"160":-0.176365867120201,"161":-0.4328313669541617,"162":-0.5431791510233945,"163":0.059929938605828695,"164":-0.2585387310572574,"165":-0.13963969119974276,"166":-0.026124336667383088,"167":0.18547745564487228,"168":-0.1402917461250492,"169":0.19593531839508904,"170":-0.32046963581860954,"171":-0.29101695658558907,"172":-0.16105947115534605,"173":-0.04565964114729255,"174":-0.4318296244230016,"175":-0.09873495031840797,"176":-0.017260621102879858,"177":-0.003398295323042603,"178":-0.21253846342535104,"179":-0.28525268160167455,"180":0.1108348222964242,"181":-0.1270092176418274,"182":0.10517527049598646,"183":-0.16073782960739844,"184":0.06457085344463437,"185":0.07238215716910741,"186":-0.09540327409108643,"187":-0.6003559934264453,"188":-0.4034348427598529,"189":-0.3356137441444204,"190":-0.03370486581974266,"191":0.060878274406415175,"192":-0.5440734188880331,"193":0.3300500419068525,"194":-0.2145359774078172,"195":0.1482709656858238,"196":-0.13081876497000636,"197":-0.2154532953555436,"198":-0.12451594812867536,"199":-0.3252981662405427,"200":-0.7679682380069622,"201":0.0350635273727142,"202":-0.023185172811024234,"203":0.18970739579628798,"204":0.23210605992555752,"205":-0.5230456887260662,"206":-0.1289861509899524,"207":-0.23745285438905214,"208":0.020833424222960934,"209":-0.15974634433609086,"210":0.11462020047080886,"211":0.07244792333701575,"212":0.29415916084664406,"213":-0.17011711469181795,"214":0.09510900355706525,"215":-0.20045023379284443,"216":0.43361474715461007,"217":0.2891952733455349,"218":-0.04240977929158057,"219":0.005644710266531955,"220":-0.3379226794964581,"221":-0.08061733249507716,"222":-0.17913202041412457,"223":0.09365226745721747,"224":0.20040616410995835,"225":-0.3046287772976639,"226":-0.1495506103125842,"227":-0.04553164715287412,"228":-0.5507797475715892,"229":-0.09306430906028063,"230":-0.09060449692760007,"231":-0.045254161484318815,"232":0.04536058104735888,"233":-0.3649280798284616,"234":-0.18944124719135874,"235":0.00023982435747085183,"236":-0.26335341192315503,"237":0.43453686685082277,"238":0.27486427041705525,"239":-0.4477549872281337,"240":-0.11656563102178435,"241":0.1457751109792877,"242":0.020234663204309906,"243":0.30295786469037606,"244":0.326230004120736,"245":0.1693423875508593,"246":-0.30197274651903494,"247":-0.304411545917459,"248":-0.16959759943236502,"249":0.06661714741643009,"250":0.002080028264099887,"251":-0.4033633018871956,"252":-0.5769003274349787,"253":-0.2019478744796324,"254":-0.17116955919619772,"255":-0.2767126681222722,"256":0.17189427212840716,"257":0.23547223098774273,"258":0.3614205823315871,"259":-0.39799398127005015,"260":-0.4331008105788405,"261":0.025545434024028143,"262":-0.18435072742973382,"263":0.20945249935637908,"264":-0.48654199990998814,"265":-0.6626302844600842,"266":0.03293869029496175,"267":-0.43675016236003494,"268":-0.004325085271477811,"269":0.21273457480924104,"270":-0.2803250647345063,"271":0.256271392520993,"272":-0.2182755997088685,"273":-0.13789929482011914,"274":-0.1618604025600066,"275":0.1832206643439365,"276":0.5096856108130703,"277":-0.018280277264435863,"278":-0.5316268275403286,"279":0.06811549074172663,"280":-0.19059398728954471,"281":-0.43721661096702025,"282":0.13552099566774964,"283":0.0969584699028874,"284":0.2798366003860901,"285":-0.1948976488107563,"286":-0.28397487176533004,"287":-0.11135765438435655,"288":-0.021630428976963337,"289":-0.16623284828418503,"290":0.10452104245887851,"291":-0.8123658434661021,"292":-0.3439896657024317,"293":-0.37776305925079945,"294":-0.10532311457313409,"295":-0.16629682447949118,"296":0.14677623288618688,"297":0.24733570311592326,"298":-0.05021601530334556,"299":-0.0014616951389383335,"300":0.03975018759738029,"301":-0.09975710478798416,"302":-0.011064719449511297,"303":-0.16406629283669552,"304":-0.8631543369849309,"305":-0.7082716293216198,"306":-0.8428061652030536,"307":-0.10576806767305247,"308":0.04902116431325738,"309":0.18435790523207574,"310":0.005208981173753342,"311":-0.2518145945804116,"312":-0.18404578184603565,"313":-0.41368099467645947,"314":-0.3642556679663685,"315":0.11220067377993731,"316":0.10379211510404823,"317":-0.8301635363821103,"318":-0.9592148941619387,"319":-0.7407276720777792,"320":-0.21050878716662672,"321":0.1259988806970927,"322":0.21638133624954695,"323":0.08090398532912449,"324":-0.1253321680033108,"325":-0.4493947177508766,"326":-0.10622952009851903,"327":-0.3224605455923911,"328":0.10683311709438222,"329":0.16974994725946305,"330":-1.1813271780566692,"331":-0.9815333376581222,"332":-0.9716563869450479,"333":0.17951447245976693,"334":0.3703043988571318,"335":-0.21873764089081937,"336":0.32764054506347046,"337":0.11024086628021167,"338":-0.3139712545432767,"339":-0.22022734640342523,"340":-0.3181069287662807,"341":-0.1532734897509316,"342":0.16196639719121744,"343":-0.624113302708346,"344":-0.7584276383087261,"345":-1.0624609743008244,"346":0.34609541989773546,"347":0.2803145203800266,"348":0.3195639955485599,"349":0.34300630081477074,"350":0.006324090151050841,"351":-0.315415322120086,"352":-0.091569402317763,"353":0.024839745126284146,"354":0.09443343875392271,"355":0.28384883531916,"356":-0.6308302061157361,"357":0.05816428915991243,"358":-0.38597808570867037,"359":0.054258482983933244,"360":-0.20395015489754031,"361":-0.045040561185994275,"362":0.6226487165859296,"363":-0.021136337647405943,"364":-0.4709053231094229,"365":0.33609354272673986,"366":-0.46498798466168534,"367":0.24837143089933875,"368":0.06919531872313153,"369":-0.6093654007275222,"370":0.899089369936402,"371":-0.4483566158180024,"372":0.004052130174284178,"373":0.030950854998147904,"374":0.4121065041844028,"375":0.8683392379315095,"376":-0.18171937291557885,"377":-0.07062902236110923,"378":0.09716841027674357,"379":0.2753573794319212,"380":0.3045428551850953,"381":0.5292531744274832,"382":-0.68013518752934,"383":1.251735752846957,"384":-0.6980459667564415,"385":0.2915388703627489,"386":0.003422233844156753,"387":0.5912443972084038,"388":0.35122653670604703,"389":-0.7343530410996038,"390":0.149627400352804,"391":0.3076491054186808,"392":0.2557748827255516,"393":0.5207313824620436,"394":0.07407183819688119,"395":-0.2916474688285897,"396":-1.03264187124261,"397":-0.6583704601708099,"398":-0.0714578537809164,"399":0.034187034583242654,"400":0.1586152195105173,"401":0.5428462389571155,"402":-0.667998713271152,"403":0.13959861135747076,"404":0.27285144241457676,"405":-0.1939153106701977,"406":0.2986631081802735,"407":0.35986992608166624,"408":-0.2602035527561484,"409":-1.0358134881539907,"410":-0.18169653510236292,"411":0.25884635198371075,"412":0.0669127661429044,"413":0.478355041280371,"414":0.3285741099847748,"415":-0.8365596439398101,"416":0.33594352573022945,"417":0.1391108088039529,"418":0.05398752860902816,"419":0.17516922975017307,"420":0.3860575823974934,"421":-0.2829808384753446,"422":-1.012917276978872,"423":0.1378238458492196,"424":-0.14817375791612047,"425":-0.07670383994636067,"426":0.07507767300694308,"427":0.0033943382770673424,"428":-0.7158785766333513,"429":-0.0928924429944785,"430":0.5287567785469184,"431":0.0206007670543626,"432":0.4479463323594305,"433":0.3653801634942448,"434":-0.17504664677848347,"435":-1.0557713533992004,"436":-0.21943246318071652,"437":0.13956971288109474,"438":0.4228458273182547,"439":0.31789462683153746,"440":0.24327631338133915,"441":-0.24082944835082926,"442":0.11298586615477499,"443":0.5140390700299323,"444":-0.038273249963442016,"445":0.42340699246944213,"446":0.48118179228366703,"447":0.17332460994818322,"448":1.4584740657779065,"449":0.106261171842481,"450":0.21346681131146497,"451":0.20966280373146243,"452":0.4962365768276019,"453":0.2010353920712914,"454":-0.0765547665770442,"455":-0.1307445265752736,"456":0.31970975888122793,"457":0.17862384202829146,"458":0.7619418445924665,"459":0.7421242322911394,"460":0.5385623416148276,"461":1.3505493532835264,"462":0.0015998410193620027,"463":0.4162962032220995,"464":0.39950075447785877,"465":0.44567355934863745,"466":0.10367493845079431,"467":0.21691964631433083,"468":0.10087344336080173,"469":-0.03883580590329025,"470":0.04079833784620476,"471":0.38560631865899125,"472":-0.17483855368120516,"473":0.5513454885269955,"474":1.1641116549155208,"475":-0.05463826066760534,"476":0.40923515174911446,"477":-0.1786253805585358,"478":0.33436382507929024,"479":0.26839252289412374,"480":-0.20615007746689576,"481":0.22785523034343896,"482":0.12775569919123309,"483":-0.13360052178826914,"484":-0.17305034415253148,"485":-0.11096324511178726,"486":0.1691451040238424,"487":-0.6414348605120922,"488":0.09369594194905727,"489":-0.17648428932158672,"490":-0.14816615891800242,"491":0.43594548203163375,"492":0.45051095236720295,"493":-0.10730745443037347,"494":0.025293213913558116,"495":0.18473973121972703,"496":0.2948928942731783,"497":-0.3299875453858004,"498":0.01758492919979771,"499":0.33804754864721737,"500":-0.1460161577252956,"501":0.37152268131011845,"502":-0.10731724106757466,"503":0.19760636855586558,"504":0.4478511459389021,"505":-0.09329728583416734,"506":-0.5088254808250752,"507":0.27989934020951834,"508":-0.02483156884896521,"509":0.18170412364257005,"510":0.08849008947481336,"511":0.18455534707996252,"512":0.09451865840163957,"513":0.09862386634261737,"514":0.2516831632938189,"515":0.5751985957372595,"516":0.10313586032812336,"517":0.7216850367346885,"518":-0.3332215981543506,"519":-0.4184322259625328}},{"sx":1,"sy":1,"depth":520,"w":{"0":-0.2187006947276446,"1":0.34303916352745645,"2":0.5146932971286502,"3":0.44655919591151266,"4":-0.060027439341420935,"5":0.5767893498804335,"6":0.034827091940006896,"7":-0.23791180620392147,"8":-0.26240226930465704,"9":-0.21505241989804855,"10":0.5044395393863427,"11":0.04651493867704152,"12":0.3609275489384787,"13":-0.15555547302484304,"14":-0.15362064211467166,"15":0.1898755896608331,"16":0.4760746662765646,"17":0.13495539200812012,"18":0.6265513584074598,"19":0.3012636826494019,"20":-0.5541047605659263,"21":0.09379817131545774,"22":0.09161571625517101,"23":0.48470744214880507,"24":-0.17515042851794305,"25":0.13276214433695352,"26":0.02219033246401152,"27":-0.21061030358434496,"28":0.26245949880451386,"29":0.47946595737328757,"30":-0.24419267570485542,"31":0.5241612680682313,"32":0.0027041337812839517,"33":-0.2464910669660699,"34":-0.331335458451722,"35":0.006071607906483567,"36":0.1678575524436626,"37":-0.28477863175048407,"38":0.21430948871002178,"39":-0.24069455963075648,"40":-0.5087273906195812,"41":0.30368565588912677,"42":0.29663022896050545,"43":-0.13130165869125163,"44":0.10512310621081906,"45":0.16666372099829516,"46":-0.4855345838227324,"47":-0.26177197557560955,"48":0.3073631792741987,"49":0.15728697545888637,"50":0.014925840722025635,"51":0.12455474197051822,"52":-0.14300348325100665,"53":-0.5048645606491068,"54":-0.0867024188102408,"55":0.4390516593506341,"56":-0.030655604319572323,"57":0.07849863699715541,"58":-0.20801940616430614,"59":-0.1916258369796151,"60":-0.005605871484201959,"61":0.8167733996127441,"62":0.18277672346918836,"63":-0.08023238211111443,"64":0.11290383034496511,"65":-0.2841743815371288,"66":-0.7066038493626614,"67":0.5003823192533624,"68":0.2794127308775744,"69":-0.04262620122851464,"70":-0.04029918168088704,"71":-0.1276769940168244,"72":-0.4496939024114708,"73":-0.037714780944221614,"74":0.1481168464160941,"75":0.004967443816785269,"76":-0.08815431933544585,"77":-0.0013813014458385075,"78":-0.1373005744042098,"79":-0.5783552967613156,"80":0.23127258363095862,"81":0.10955504589380467,"82":0.3992022849250709,"83":0.08347869789608126,"84":-0.011968905027238949,"85":-0.24023917712492715,"86":0.29321396948918266,"87":0.21372179770343144,"88":0.34768517391682396,"89":-0.013221513220836197,"90":-0.006392415057575094,"91":-0.3334069089174312,"92":-0.7730441028030378,"93":-0.05169982004828747,"94":-0.2630752034908679,"95":0.2935754285725603,"96":0.3506074909194138,"97":0.13158847979708693,"98":-0.08585056449525516,"99":-0.03359989570683523,"100":0.3156492511056042,"101":-0.36171221369027906,"102":-0.04895804201714802,"103":-0.23991692631438064,"104":-0.11486021521603985,"105":-0.6258760378513931,"106":0.18621776908239657,"107":-0.10811686419000462,"108":0.04044839384627828,"109":0.17350686875966698,"110":-0.2871800997799885,"111":-0.17600204339955766,"112":-0.0988813236762878,"113":0.1896484634589051,"114":-0.20472181628657946,"115":-0.27625291246204303,"116":-0.1160887785078604,"117":-0.28082734080932015,"118":-0.514808686219186,"119":0.174279007081118,"120":-0.0980716094958907,"121":0.1627145825361197,"122":0.23892082638572867,"123":-0.6589293871212395,"124":-0.1763706866371721,"125":0.02924034746054871,"126":-0.06843640823695228,"127":-0.05568884909897197,"128":-0.06217743444895404,"129":-0.14639053074762018,"130":-0.35387210207945036,"131":-0.4454017347584424,"132":0.173914981409148,"133":-0.22596788649488378,"134":0.21196919850208862,"135":0.2005183292954179,"136":-0.03707889040931811,"137":-0.13265592416577016,"138":-0.1820429766560336,"139":0.10526417798052645,"140":-0.08017929759667987,"141":-0.19708379122948733,"142":0.036521687101461954,"143":-0.22826034328534134,"144":-0.16274132826544574,"145":0.5712438139559566,"146":0.14885750200729136,"147":0.23963225176148512,"148":0.3343300251334852,"149":-0.16284027555381364,"150":-0.7234381559555723,"151":-0.15324806911917177,"152":0.20351654229934135,"153":0.046775947181461115,"154":-0.1595534905294965,"155":0.019994637141258938,"156":-0.0736388620445498,"157":-0.09775207988506696,"158":0.18958665942711925,"159":0.08140872625905403,"160":0.4082397120080023,"161":0.007497777384990319,"162":-0.1866643425841938,"163":-0.27132614961796603,"164":-0.06659823514514855,"165":0.5412711371580411,"166":-0.011847270663797923,"167":-0.3112498344511908,"168":0.07539043172882043,"169":-0.11779221142855427,"170":0.14063743576872006,"171":0.1818245657733429,"172":0.07747857663978339,"173":0.027692225616588538,"174":0.33501069033960224,"175":0.020809305804393767,"176":-0.9406267133134725,"177":-0.28830052367304865,"178":0.5679004817764254,"179":-0.07938368162186207,"180":-0.2866537898166289,"181":0.4045815085527065,"182":-0.10787045707584836,"183":-0.20608088047870673,"184":0.28227534490863454,"185":-0.2875544394633183,"186":-0.16117915201618743,"187":0.16777406538284068,"188":-0.09916306847336666,"189":-0.6148312776290666,"190":-0.11286106941745772,"191":0.46797685101563524,"192":-0.30501091796966306,"193":-0.6540477534642251,"194":0.14241431969252158,"195":0.032290041310272716,"196":-0.1717041031936038,"197":0.28040971375404566,"198":-0.14919767768174888,"199":-0.13260899430207232,"200":-0.0178281348378111,"201":-0.3720965088680304,"202":-0.3347793925233446,"203":-0.38911998699915284,"204":0.10389727658589695,"205":0.01567380506506657,"206":-0.36337536907071505,"207":0.05716047728478467,"208":-0.3300959615022577,"209":0.03748116565809541,"210":0.45648620791175043,"211":-0.03930621864480331,"212":-0.32659620754413654,"213":0.0938908521568618,"214":-0.2774304158969204,"215":-0.3497261927880237,"216":-0.11840754583951558,"217":-0.02690761719045494,"218":0.15434934249074525,"219":-0.04520087145469649,"220":-0.12924922223866858,"221":-0.4040897273373728,"222":-0.06540605305811144,"223":-0.04466382707187383,"224":-0.12242468928491305,"225":-0.322119918462378,"226":-0.04592941866501183,"227":-0.2685852340608938,"228":-0.11330025981584362,"229":-0.5626735814547079,"230":0.401187100289949,"231":-0.015070914634018502,"232":-0.04890973206475736,"233":-0.18054383156217532,"234":-0.2747972681921027,"235":-0.20358491185712632,"236":0.11716077529878327,"237":0.30556697530050075,"238":-0.11972595408857915,"239":-0.37091192881248014,"240":-0.36238963231544996,"241":-0.2820715963392165,"242":0.06361743308511512,"243":0.6728807266809943,"244":0.447386319198536,"245":-0.07156658371249898,"246":-0.07228241545009745,"247":-0.7016884406207438,"248":-0.3320293955075217,"249":-0.25909043405530013,"250":-0.019925179461240877,"251":-0.3069531073032784,"252":0.3191431914268511,"253":-0.6533609435152321,"254":-0.3962692527114733,"255":0.0026891220270911205,"256":0.626131480145576,"257":-0.034732261652773495,"258":-0.22838374498914216,"259":0.13332352322370222,"260":-0.7133605633409533,"261":-0.5860454164072986,"262":-0.26591393159966636,"263":0.21985842698869645,"264":0.08487555927919839,"265":0.3971878808574045,"266":-0.2509591675967584,"267":-0.5255568910336418,"268":-0.2081600077087318,"269":0.24402808355096564,"270":-0.11757889649272504,"271":-0.4582041011628155,"272":0.2971682147345008,"273":-0.20716580688907252,"274":-0.8023492573683683,"275":-0.4708081691700589,"276":0.2421708199045829,"277":-0.28893710782010285,"278":0.0047412594741868515,"279":-0.037712923298961025,"280":-0.30968346007299946,"281":-0.090907929100826,"282":0.016430282117966245,"283":-0.114779999519561,"284":-0.41292079549970045,"285":0.47568415956132576,"286":-0.6232275902319555,"287":-0.5306829189436159,"288":-0.4525386957930685,"289":0.5392651853321133,"290":-0.3170995560717502,"291":-0.31824963380302496,"292":-0.2803723866542955,"293":-0.8561858109480963,"294":0.1518602443723508,"295":-0.350891286514058,"296":-0.16013700188014193,"297":-0.35520375764717865,"298":0.5600777047283406,"299":-0.5461403463324308,"300":-0.5401760290084209,"301":-0.4536055020105432,"302":0.12183437641581628,"303":-0.4107198689002414,"304":0.20564835700583683,"305":-0.8509941607469778,"306":-0.11725511748079481,"307":0.06596683361409908,"308":-0.08255118660528789,"309":-0.4707788951327556,"310":0.021850931101761242,"311":0.3851303506623755,"312":-0.38421251376615523,"313":-0.5138240970004616,"314":-0.3214506954577374,"315":0.015447993622634349,"316":-0.37987324427671787,"317":-0.010042389904254701,"318":-0.7381133756437561,"319":-0.6450140520444648,"320":0.3364688654093756,"321":0.4096114659260798,"322":-0.1944868563404755,"323":-0.045194684344113494,"324":0.18168879703420435,"325":-0.5061178615411441,"326":-0.43299313312902243,"327":0.3966380835837992,"328":-0.14878836513899094,"329":-0.046958480563615575,"330":0.29346090290844656,"331":-0.7982475810485093,"332":-0.8461652147279073,"333":0.37009049483782736,"334":0.07248778087491442,"335":-0.10010216848559082,"336":-0.004504124080897012,"337":-0.002876293642650931,"338":-0.14353799497064004,"339":0.04075769783750034,"340":0.25770437694610165,"341":-0.2805096587916219,"342":-0.20035945576286832,"343":0.6719181367081511,"344":-0.8201398283459402,"345":-0.4303279152209834,"346":0.11060702019276607,"347":-0.196499091709021,"348":-0.006668148308400549,"349":0.1965771028261298,"350":0.018578264650662844,"351":-0.1505056967516113,"352":0.5548471982412834,"353":0.42261238648654414,"354":0.3736876497470549,"355":-0.09580457574355737,"356":0.38815348429691776,"357":0.7463126065650971,"358":-0.5010695036994705,"359":0.4713786008210597,"360":0.20803187981131965,"361":-0.08871764092520952,"362":-0.03028222059653737,"363":-0.06627741173963671,"364":-0.2025378531654073,"365":0.3155416444971549,"366":0.16107862343428453,"367":-0.06777269809804244,"368":-0.33677188418568726,"369":0.007375932510926626,"370":0.82490690454945,"371":-0.3456505217499328,"372":0.03650968277473915,"373":0.10484295862375391,"374":0.11665350306083372,"375":0.723592573859085,"376":0.21981624965501204,"377":-0.2573342872106215,"378":0.45789874691877996,"379":-0.16104144576077964,"380":-0.21881728593865768,"381":-0.8059935850102137,"382":0.2697812805465013,"383":1.0725140353960911,"384":-0.9327806187550609,"385":0.14350430658300517,"386":0.3775748550367016,"387":0.11693875718710234,"388":0.43855416440075373,"389":0.2662827055480522,"390":-0.6248767016318212,"391":0.22802376234692265,"392":-0.39859881202811864,"393":-0.2830400956896192,"394":-0.2392001988437824,"395":0.38394821197700657,"396":-0.7431911545390872,"397":-0.26278105581119376,"398":-0.07282489954855575,"399":0.1167485253555359,"400":-0.0023288554784612193,"401":0.785252448171489,"402":0.07652205212363936,"403":-0.547636551090042,"404":0.09585139121302227,"405":-0.29424972202464034,"406":-0.1816518253671111,"407":0.014625645600795193,"408":0.020224597094888674,"409":-0.7565700345648407,"410":-0.18489724714087669,"411":0.09646683856584608,"412":-0.04229624112632862,"413":0.631729287527491,"414":0.24801362142730352,"415":0.07870302833577639,"416":-0.38449164857434603,"417":0.05372975822068393,"418":0.015127553741567115,"419":0.004776729569769385,"420":0.27640082155188095,"421":0.36441705306647854,"422":-0.7978551880424815,"423":-0.12737306761171363,"424":0.029614636558270985,"425":-0.06762735774919483,"426":0.190742018300736,"427":-0.15913592857003875,"428":0.17857548177442392,"429":-0.3190901988429056,"430":-0.08451479311669992,"431":-0.03373585550600867,"432":0.07193559527377792,"433":0.2716239468331878,"434":-0.52417906912353,"435":-0.7486658124137152,"436":-0.039433730167614575,"437":0.1255965916669557,"438":-0.4006598078789565,"439":0.3579323122989685,"440":0.24525907125263963,"441":0.3761062509547721,"442":-0.24134746500270032,"443":-0.42405043230064005,"444":0.24779162922489487,"445":0.11685108929122885,"446":0.10911721543177809,"447":0.16956060612479967,"448":1.1796139936023784,"449":0.5167396249500501,"450":0.23227191647549392,"451":0.13182431398038935,"452":0.8121719265913466,"453":0.10371782995375542,"454":0.24843894102903943,"455":-0.34356583527585044,"456":-0.4051231839126676,"457":0.290143798750639,"458":0.24719184800350083,"459":0.37721926470973266,"460":-0.20989758486567825,"461":1.055967332813651,"462":0.36541862494429633,"463":-0.05839486754015678,"464":-0.3763919782502651,"465":0.06657463733422912,"466":0.24875118139263533,"467":0.35297397381512674,"468":-0.343959485930812,"469":-0.28092868001103,"470":0.48685359522004973,"471":-0.6304059560021684,"472":-0.01065231628142389,"473":0.03623200868025162,"474":0.860277548084994,"475":0.4246332679010928,"476":-0.5207778288365125,"477":-0.21610374002235297,"478":0.36215583450233535,"479":0.2849479940702173,"480":0.039672410333305666,"481":-0.49069360109569954,"482":-0.24389916177902474,"483":0.5165731201093386,"484":-0.286907652468263,"485":0.29985436740893245,"486":-0.03593667174478929,"487":-0.08913401196018989,"488":0.406558321505275,"489":-0.20031596767068408,"490":-0.014649898629572502,"491":0.1931037990671757,"492":-0.12599573064819275,"493":0.37312106805196515,"494":-0.16979355070219634,"495":0.04691230227548084,"496":0.4632527820572834,"497":0.22362665106209037,"498":0.11497586840038565,"499":0.3463714566391483,"500":-0.7059136650849277,"501":0.15029738649456564,"502":-0.25615263927158166,"503":0.34968086484977945,"504":-0.08300038210889908,"505":-0.2583314342448929,"506":0.33904769432488086,"507":-0.01762721836507193,"508":-0.059295985637077005,"509":-0.4008349366050161,"510":0.00025628953221402474,"511":0.48153829408216686,"512":-0.21615562172797462,"513":-0.2183952852719892,"514":0.46099867876073847,"515":-0.02415412232214692,"516":-0.06657754137834004,"517":0.07844260848620131,"518":-0.3303514917587975,"519":0.31974365396850996}},{"sx":1,"sy":1,"depth":520,"w":{"0":0.5646585015078761,"1":-0.3914892390082665,"2":-0.15707604045314721,"3":0.31431084657214037,"4":0.27866263419063214,"5":-0.026106231112087996,"6":-0.2946269952957475,"7":-0.17084444965139753,"8":-0.7023183645403369,"9":0.29145117221360417,"10":-0.25211108651139247,"11":-0.2420334580812366,"12":-0.07007029187329085,"13":0.8283974277898198,"14":0.14051434350242933,"15":0.10723642312541344,"16":0.6832547189666749,"17":0.1289977106125349,"18":-0.11911125563859355,"19":-0.19677299191782707,"20":-0.053725809736123245,"21":-0.20464736974560077,"22":0.2596674436565605,"23":-0.3024232440331785,"24":-0.2730731874255004,"25":-0.12329945589258733,"26":0.465494039761786,"27":0.06786099442187944,"28":0.19560909108461857,"29":0.45375679378991646,"30":0.07983953219355737,"31":0.15714647675901292,"32":-0.2363204895274916,"33":0.052699578661527954,"34":0.027794484187992914,