//<![CDATA[

// a few things don't have var in front of them - they update already existing variables the game needs
lanesSide = 6;
patchesAhead = 30;
patchesBehind = 10;
trainIterations = 150000;

// the number of other autonomous vehicles controlled by your network
otherAgents = 10; // max of 10

var num_inputs = (lanesSide * 2 + 1) * (patchesAhead + patchesBehind);
var num_actions = 5;
var temporal_window = 0;
var network_size = num_inputs * temporal_window + num_actions * temporal_window + num_inputs;

var layer_defs = [];
    layer_defs.push({
    type: 'input',
    out_sx: 1,
    out_sy: 1,
    out_depth: network_size
});
layer_defs.push({
    type: 'fc',
    num_neurons: 32,
    activation: 'tanh'
});
layer_defs.push({
    type: 'fc',
    num_neurons: 24,
    activation: 'tanh'
});
layer_defs.push({
    type: 'fc',
    num_neurons: 16,
    activation: 'tanh'
});
layer_defs.push({
    type: 'fc',
    num_neurons: 16,
    activation: 'tanh'
});
layer_defs.push({
    type: 'fc',
    num_neurons: 32,
    activation: 'tanh'
});
layer_defs.push({
    type: 'regression',
    num_neurons: num_actions
});

var tdtrainer_options = {
    method: 'sgd',
    learning_rate: 0.01,
    momentum: 0.001,
    batch_size: 192,
    l2_decay: 0.001
};

var opt = {};
opt.temporal_window = temporal_window;
opt.experience_size = 30000;
opt.start_learn_threshold = 500;
opt.gamma = 0.98;
opt.learning_steps_total = 150000;
opt.learning_steps_burnin = 500;
opt.epsilon_min = 0.01;
opt.epsilon_test_time = 0.0;
opt.layer_defs = layer_defs;
opt.tdtrainer_options = tdtrainer_options;

brain = new deepqlearn.Brain(num_inputs, num_actions, opt);

// CUSTOM_VARS_BEGIN
var gen_name = 'genP-V5';
var count = 0;
var eval = false;
var save_checkpoint = 250;
var noSaveCheckpoint = false;
var eval_start = 2000;
var target_mph = 67.00;
// CUSTOM_VARS_END

learn = function (state, lastReward) {
    brain.backward(lastReward);
    var action = brain.forward(state);

// CUSTOM_CODE_BEGIN
function getFixedData() {
    var data = editor.getValue() + "\n/*###########*/\n";
    data = data.replace("otherAgents = 0","otherAgents = 10");
    if (brain) {
        data += "if (brain) {\nbrain.value_net.fromJSON(" + JSON.stringify(brain.value_net.toJSON()) + ");\n}";
    }
    return data;
}

downloadNamedCode = function (thisName, forward_passes, data) {
    var blob = new Blob([data], {type: 'text/plain'});
    var url = URL.createObjectURL(blob);
    var blobAnchor = document.getElementById("blobDownload");
    blobAnchor.download = "net-" + gen_name + '-' + forward_passes + '-' + thisName + ".js";
    blobAnchor.href = url;
    blobAnchor.click();
}

if (typeof(count) != "undefined") {
    if(brain.forward_passes >= eval_start) {
        if(brain.learning == false) {
            count = count + 1
            if(count >= save_checkpoint) {
                if(brain.forward_passes > 0){
                    if(eval === false && self.document !== undefined) {
                        thisData = getFixedData();
                        var myWorker = new Worker("eval_webworker.js");
                        eval = true;
                        myWorker.onmessage = function (e) {
                            if (typeof e.data.percent != 'undefined') {
                                // do nothing / placeholder
                            }
                            if (typeof e.data.mph != 'undefined') {
                                console.log('Eval complete - ' + e.data.mph);
                                if(e.data.mph >= target_mph) {
                                    console.log('Saving checkpoint at ' + brain.forward_passes);
                                    downloadNamedCode(e.data.mph, brain.forward_passes, thisData);
                                }
                                eval = false;
                            }
                        };
                        myWorker.postMessage(getData());
                    }
                }
                count = 0;
            }
        }
    }
}
// CUSTOM_CODE_END

    draw_net();
    draw_stats();
    return action;
}

//]]>
/*###########*/
if (brain) {
brain.value_net.fromJSON({"layers":[{"out_depth":520,"out_sx":1,"out_sy":1,"layer_type":"input"},{"out_depth":32,"out_sx":1,"out_sy":1,"layer_type":"fc","num_inputs":520,"l1_decay_mul":0,"l2_decay_mul":1,"filters":[{"sx":1,"sy":1,"depth":520,"w":{"0":0.0529260735032207,"1":-0.3918897009467144,"2":-0.2589444725216818,"3":-0.576782006411391,"4":-0.20643212675627626,"5":-0.10318124571055691,"6":-0.2446206094286068,"7":0.07345820301616475,"8":-0.4723612714835815,"9":0.10524261596404691,"10":0.18658812982143,"11":0.10308501873773071,"12":-0.08519858249707575,"13":-0.0003010222389714035,"14":-0.3545855856349341,"15":0.04267413313037522,"16":0.05455289057433926,"17":-0.1073214362425646,"18":-0.37345394554572775,"19":0.2423651465861038,"20":0.25294379767412695,"21":-0.09696558509282027,"22":-0.20587154006854436,"23":0.4293177154494435,"24":0.1235066691341987,"25":-0.06116058438978448,"26":-0.4072825161833383,"27":-0.11087992455079883,"28":0.2746677716936611,"29":-0.05647764026651988,"30":-0.15625507849474057,"31":-0.11881686469218779,"32":0.2941106404153727,"33":0.10744554729854357,"34":0.20500651656071792,"35":-0.08331027434817877,"36":0.5227463234282107,"37":0.22245432319727954,"38":-0.019101244896661266,"39":-0.23488883618224693,"40":0.18639282059791126,"41":0.3257831532748826,"42":-0.03853028428243836,"43":-0.13878787066243123,"44":-0.10289020662857216,"45":0.25550373914516644,"46":0.33551327427016214,"47":0.1633502745095525,"48":0.3834245043559959,"49":0.4633067190188799,"50":0.014688514974818816,"51":-0.0715909900360475,"52":-0.38910666186310056,"53":0.19682907103934486,"54":0.16676494882585396,"55":0.19989827398993518,"56":-0.025030804207764826,"57":-0.2133476283436119,"58":0.1713935815700058,"59":0.014243028843370704,"60":0.45999248993584335,"61":0.316266189194541,"62":0.44150784164985685,"63":0.019364771297775005,"64":-0.010419932608696973,"65":-0.3472495701996843,"66":0.09283153462893705,"67":0.08590167541106435,"68":-0.17444505233138227,"69":0.4371669351925662,"70":0.240054034383826,"71":-0.33123428385977743,"72":0.19925618310455775,"73":0.4995215414623584,"74":0.40252964927742413,"75":0.48232222365538396,"76":0.06959839449409555,"77":-0.07120163651413819,"78":0.2836289210766585,"79":0.45507480209836926,"80":0.4299307697511692,"81":0.006136301053543869,"82":-0.00583989750232505,"83":-0.294596631169878,"84":0.1833271256429446,"85":0.6323295463885026,"86":0.16690102254355987,"87":0.49898808168354863,"88":0.32833304276548325,"89":-0.019528292844474233,"90":-0.06458307761407864,"91":0.3666912360340819,"92":0.004679706800579221,"93":0.10151093759072888,"94":-0.03507824418995541,"95":0.10347464001467459,"96":0.023355882239459703,"97":-0.1445291264318452,"98":0.3160716512503632,"99":0.39369603182855956,"100":-0.2682883483322183,"101":0.44156213164859287,"102":-0.022389915622054703,"103":-0.02611052262876029,"104":0.4586496554090944,"105":0.03164372543155648,"106":0.24023833313088302,"107":-0.1377547829682203,"108":0.1743022511586006,"109":0.11521269076368848,"110":-0.3159789843651483,"111":0.3629442171191279,"112":0.33237445758576833,"113":0.12999376834424836,"114":0.2423423898496941,"115":0.043788549065443,"116":-0.02598529908500135,"117":0.5485947311930239,"118":0.18593787000816653,"119":0.4554525007870585,"120":-0.11071921834404017,"121":-0.11906966796179762,"122":0.13786993806451453,"123":-0.23625367526939703,"124":0.08644513160592344,"125":0.30954127076430976,"126":-0.02425589280225112,"127":0.12315855518546123,"128":-0.0407188255852316,"129":-0.06808565525232102,"130":0.479137330680683,"131":0.014381176343894086,"132":0.6765610485393989,"133":-0.2541353075442057,"134":0.03211902156760138,"135":0.08044932048741625,"136":-0.05885564137505407,"137":0.10887079092275444,"138":0.7789691439625391,"139":0.33226933191289965,"140":0.14000643573440147,"141":-0.05464765745975849,"142":-0.12767388127271434,"143":0.41269656216273115,"144":0.15077802336516835,"145":0.4490598744316193,"146":-0.52136855587657,"147":-0.020867113874127433,"148":-0.2041150946448812,"149":-0.27943003617852297,"150":0.25055370639101365,"151":0.2801263216233866,"152":0.7018905582966168,"153":0.14953411873174363,"154":-0.16473951673010503,"155":-0.19819872725908236,"156":0.39803305953571444,"157":0.1377039785065278,"158":-0.23771413675103836,"159":-0.4173850617791689,"160":0.093567021605714,"161":-0.1502354958842436,"162":-0.43973582957659463,"163":0.857628313601152,"164":0.6504054935607985,"165":0.1485925621179386,"166":0.26530592440645,"167":-0.16902019214346858,"168":-0.19619580337652018,"169":0.252013353334992,"170":0.3103014867257374,"171":-0.08931401941450581,"172":-0.4315846920142109,"173":0.0030659740192074034,"174":-0.3599741937765591,"175":-0.48501578782072813,"176":0.7197142262554578,"177":0.6901173199110191,"178":0.14617596732078866,"179":0.2667431704385844,"180":0.027255252208490933,"181":-0.24101680167758294,"182":0.23824936188361612,"183":0.1699552724390772,"184":-0.41860357291440425,"185":-0.3768535378701379,"186":-0.09667330670151987,"187":-0.044146135666612504,"188":-0.5438831977132423,"189":0.7420234317316706,"190":0.26840264122682755,"191":-0.07270997507472643,"192":0.37498873558763174,"193":-0.21981951097641533,"194":-0.2013337288112394,"195":-0.032125899340055435,"196":0.23911230537020461,"197":-0.11887840873627667,"198":-0.6163228799256849,"199":0.1532251967695865,"200":0.37459344694927943,"201":-0.22966312557977975,"202":1.0037245745678087,"203":0.34510466545361385,"204":-0.5195840573946569,"205":0.38648673097667335,"206":-0.13017815116715908,"207":-0.1437627800115124,"208":-0.02208756822831477,"209":0.23456876591453615,"210":0.6489388155025554,"211":-0.6074740121938731,"212":0.36048880549479706,"213":0.21743108771417763,"214":-0.8609611242750191,"215":0.39085428352190305,"216":-0.04210029826157111,"217":-0.1580326402372459,"218":0.3490996586208726,"219":-0.14642493009420535,"220":-0.03256382421106365,"221":0.22144658480263776,"222":-0.0714663624133903,"223":0.20098292728147973,"224":-0.5567107800733948,"225":-0.2362313125943794,"226":-0.2834700426864734,"227":-0.33017655547326513,"228":0.46423658428751047,"229":0.2064019988812618,"230":-0.5262968665936942,"231":0.34492371066818517,"232":-0.16763644876380976,"233":-0.03596751476584142,"234":0.06132728950438781,"235":-0.16949636279162764,"236":0.21135729784026291,"237":-0.6910980532082578,"238":-0.015569708774955116,"239":-0.2408144242901959,"240":-0.3591515766314291,"241":0.2365621527210123,"242":0.1921445862049766,"243":-0.6319847511960766,"244":0.2920764073052175,"245":0.12594769608784415,"246":-0.09568588588767209,"247":-0.18096380398333803,"248":-0.02273352308891417,"249":0.11883914852037293,"250":-0.2771562025362116,"251":0.09013937441758377,"252":0.29615219209081467,"253":-0.43477535193732786,"254":0.3411498796589291,"255":0.2853391565046007,"256":-0.41648263435340455,"257":0.3170566965084421,"258":0.07421303553862017,"259":-0.1659860964119199,"260":-0.6251470622178789,"261":-0.04173163737199152,"262":-0.4891952417117922,"263":-0.15500870988122856,"264":-0.005518439232486651,"265":-0.2960972593954541,"266":0.3260056411527147,"267":0.12141664927909811,"268":0.6699862950189286,"269":-0.6246663960300292,"270":0.22319944512565218,"271":-0.026352984037636813,"272":-0.1097738393063093,"273":0.024578780889840723,"274":-0.15240396875480558,"275":0.018915848072390287,"276":-0.47394069098746283,"277":0.12338293441449805,"278":0.028737887549848757,"279":-0.21781381524246105,"280":-0.1051502323897995,"281":0.4060777674792039,"282":-0.09139859159668304,"283":0.19997814756494156,"284":-0.10327538707020262,"285":-0.06642657179765346,"286":0.3178970146091895,"287":-0.24720632928470618,"288":-0.34071690471162047,"289":-0.035697764404598605,"290":-0.22259270402734824,"291":-0.0977412980101526,"292":-0.3917407298332445,"293":-0.17439756797829079,"294":0.00013551941003780554,"295":-0.13319643284040833,"296":0.27258955739587576,"297":-0.148684487399976,"298":-0.1034332748620869,"299":0.32801850277301947,"300":-0.06811029820747591,"301":-0.15049165227321365,"302":-0.6066248338657798,"303":0.020967382415558036,"304":-0.15252733735490964,"305":-1.2543384489749745,"306":-0.23206677387712177,"307":-0.24551849011636429,"308":0.15489946092321152,"309":0.31067762983584113,"310":-0.1988602129193629,"311":-0.11910337040662497,"312":0.9072667323950685,"313":-0.30441796174013963,"314":0.1509467629503187,"315":-0.7287479973908852,"316":0.062189337214079835,"317":-0.3657350877604742,"318":-0.8123267423776453,"319":0.2682460917588251,"320":-0.08936032520655544,"321":0.06748257524100355,"322":0.15991410456953906,"323":-0.13267864564272233,"324":-0.09831554127899118,"325":0.4474050673763361,"326":-0.09929369874726116,"327":0.040390720098838935,"328":-0.6079882264053857,"329":-0.10397815237500883,"330":-0.5705060186996501,"331":-0.8131498636794255,"332":0.2205165219990535,"333":-0.6152549928751272,"334":0.09005376462052675,"335":0.18718939496245524,"336":0.03316638409678872,"337":-0.09576421194183024,"338":0.4803248984466296,"339":0.5737775587439553,"340":-0.06515371092802684,"341":-0.4547102157655578,"342":-0.12698521160159754,"343":-0.8732975596834092,"344":-0.7561425801149311,"345":0.4285485612178315,"346":0.015206133028282363,"347":0.6780417131569187,"348":0.1212093619357595,"349":0.06606463447823598,"350":-0.02124471741399403,"351":0.42760020162535173,"352":0.09964950108783222,"353":0.103804756078789,"354":-0.3995087751355739,"355":-0.4129764033180653,"356":-1.0497272707080685,"357":0.3313460705119346,"358":0.21168435785990297,"359":-0.11304488877219802,"360":0.6525396621024571,"361":0.20274074409608012,"362":-0.06860196679370752,"363":-0.15261487284833192,"364":0.23721444455134802,"365":0.19409062521264234,"366":0.29303955352115485,"367":-0.026887840477935937,"368":-0.4415363412047955,"369":-0.5384767916996982,"370":0.2798688169034089,"371":-0.6571409495994766,"372":0.0839597296870654,"373":0.529208704686386,"374":0.20423688082109528,"375":-0.016857493010304803,"376":0.00665166665851238,"377":0.482941097455781,"378":0.29677196490447616,"379":0.05830560146122449,"380":0.07158108533110184,"381":-0.05907769257326561,"382":-1.1852340228838971,"383":0.4450629947705775,"384":-1.0318869820843304,"385":0.28916934806468,"386":0.3890779595909334,"387":0.21666650452816763,"388":-0.0711243060289708,"389":-0.1261243678270579,"390":0.09326615055693672,"391":0.06292694987175675,"392":0.22901545190833542,"393":-0.09513234691180204,"394":0.1643940585418933,"395":-0.831370252287589,"396":-0.001311304558639547,"397":-0.6932699263200915,"398":0.4326107300080785,"399":-0.184254753469311,"400":0.14012357700819592,"401":-0.21883688432518927,"402":0.025354435112180634,"403":0.07265964870718138,"404":0.08711372028736944,"405":-0.05016994545165318,"406":0.21732524870895265,"407":-0.027941840265618443,"408":-0.8416223523443841,"409":-0.02447705279887023,"410":-1.264865017767619,"411":0.4879495478073107,"412":0.2241349653430416,"413":0.19781371966042569,"414":-0.1650003966459479,"415":0.10613007557960326,"416":0.4047713212961965,"417":0.08305531122543876,"418":-0.1278759007638149,"419":0.2505056902278565,"420":-0.433473868797533,"421":-0.5439836217965114,"422":-0.07227865579477019,"423":-0.6561357343934587,"424":-0.03290197842174273,"425":0.2163210672019858,"426":0.3946207088634389,"427":-0.23517918232322993,"428":0.08927759306705593,"429":0.26766628142950016,"430":0.02308257015737892,"431":-0.1847978600878746,"432":0.09420524614791169,"433":0.05371304857776184,"434":-0.3346564550844085,"435":-0.05508930644044416,"436":-0.6090115890164203,"437":-0.08854089492734442,"438":0.5927826960530758,"439":0.4464330942093472,"440":-0.18623487712387934,"441":0.05551252335189012,"442":0.6121918909309537,"443":0.4575058287470899,"444":-0.24750438230159666,"445":0.01489764057450111,"446":-0.12518009125214768,"447":-0.5018304502135166,"448":0.5042111576114433,"449":-0.3866258498564031,"450":-0.02728223385900671,"451":0.5470352279713006,"452":0.6482586018590558,"453":0.04672346715013016,"454":-0.02209268896778471,"455":0.4772305006097972,"456":0.8308555554417676,"457":-0.04837468251132988,"458":0.08783098966051509,"459":-0.3114198437967364,"460":-0.2296905231343125,"461":0.37328383387711983,"462":-0.08736432355670035,"463":0.005644857885630685,"464":0.4876786596561651,"465":0.5653760159467276,"466":-0.023053266915466396,"467":-0.09499161452352427,"468":0.6533622549324226,"469":0.5107428625449649,"470":0.1387361003392651,"471":0.0190879627159026,"472":-0.19021584062128322,"473":0.0005387140737472533,"474":0.40629971137207077,"475":0.03177281284480705,"476":0.24900530321036457,"477":0.2566682987637342,"478":0.2749893641197242,"479":0.0879112894649096,"480":-0.0315430482892705,"481":0.26127140203366966,"482":0.06817406522162447,"483":0.3909165255355191,"484":0.190007792707286,"485":-0.1482711002437462,"486":0.014299645626506392,"487":-0.014992729679954696,"488":0.10315165881872199,"489":0.03513743402192103,"490":0.30833373303194095,"491":0.25382641679375345,"492":0.05321670271817152,"493":-0.1654036122382414,"494":-0.02165224429172233,"495":-0.14988158000617152,"496":0.4322002694505211,"497":0.11751179655224486,"498":-0.09043660248346137,"499":0.2091392604482688,"500":-0.7113256019677155,"501":-0.3017827815363654,"502":0.2789833619496025,"503":0.5473384258344399,"504":0.17548552110741258,"505":0.004967578030802161,"506":-0.03129733565967323,"507":0.37076623640730033,"508":-0.2305282577455052,"509":0.5024460160627274,"510":-0.36556174617720616,"511":-0.09300979489082573,"512":-0.7017367514165596,"513":-0.8267505568422113,"514":0.40090332680717095,"515":-0.2558791550883233,"516":0.18476431474621666,"517":0.14589403543048055,"518":-0.2352744784929732,"519":-0.051367206742839705}},{"sx":1,"sy":1,"depth":520,"w":{"0":0.5481732124218766,"1":-0.0236335542163516,"2":-0.24354660871990877,"3":-0.07573489875424748,"4":0.06987839155404386,"5":-0.03331553430071516,"6":0.3998586832255056,"7":-0.12082411728116142,"8":0.3818748645714623,"9":0.2810762465040464,"10":-0.09965099555794617,"11":-0.32892701961178766,"12":0.2813419302013618,"13":0.6530738211447524,"14":-0.2666376769240477,"15":-0.1188666669759196,"16":-0.4569947208967525,"17":-0.1742344845065855,"18":-0.05383797972819089,"19":-0.4251254515792877,"20":-0.8605199710129885,"21":-0.20569039496700567,"22":0.19047975406913437,"23":-0.0931161829690647,"24":-0.32919875081840916,"25":0.0548198471527143,"26":0.4777028020581514,"27":-0.21590913876258389,"28":0.18909252023671555,"29":-0.1329977256630926,"30":0.08978187344267638,"31":0.12479099795912639,"32":0.0849876695907629,"33":-0.6658267534189422,"34":0.32213409797854753,"35":0.10495714945355124,"36":-0.3671198754946219,"37":0.013317820433168984,"38":-0.3563431492872294,"39":-0.0671751190222397,"40":0.4921634968620032,"41":0.14587571070718597,"42":-0.08521226162214021,"43":-0.09753793439145478,"44":-0.10774479587746905,"45":0.34241187038334286,"46":-0.43139742372584017,"47":0.026831239948249822,"48":-0.03598751135414038,"49":-0.2957446830535843,"50":-0.33400971871957646,"51":0.10430768046728099,"52":0.055646283577267884,"53":0.2781701900619964,"54":0.16709954895275242,"55":0.11026014282913471,"56":-0.48825531266697547,"57":-0.4730005396731678,"58":0.5234855780784275,"59":-0.11116067810476477,"60":0.2236934847389316,"61":0.19731568280257822,"62":-0.17120088616354068,"63":-0.5518016761599681,"64":-0.5276320988512038,"65":-0.23751797936905436,"66":0.2312610800975541,"67":0.22455348518527074,"68":0.19657476792501044,"69":-0.04493974659937473,"70":-0.6226685076749519,"71":0.2986080341291851,"72":-0.1610371591970274,"73":0.4338011024414235,"74":0.030716158163270123,"75":-0.08156197070016298,"76":-0.22762772147582852,"77":-0.20329925240918695,"78":-0.10946366756755196,"79":-0.02359348313946492,"80":0.20838764214784472,"81":-0.11432969675554763,"82":-0.08407520361557011,"83":-0.6684547991369986,"84":0.37024136050148876,"85":-0.2837217045488136,"86":0.3508666235456204,"87":0.19920792016905944,"88":0.13951475645030328,"89":-0.36927896820980105,"90":-0.5333227924831816,"91":-0.10206413926274156,"92":0.03971696246528881,"93":0.5806239661128532,"94":-0.06330773861427573,"95":0.19006145416976888,"96":-0.5852486324558754,"97":0.6181245417986378,"98":-0.4096780892455939,"99":0.026250841595027653,"100":0.2994674898396195,"101":0.25394306027911684,"102":-0.06425242881629246,"103":-0.30706074029352676,"104":0.025034302729289526,"105":-0.128068081526321,"106":0.35217040143485967,"107":-0.17078992286033812,"108":0.11779570556872455,"109":-0.6298905257157209,"110":0.4818391023018717,"111":-0.018357172169644137,"112":-0.11664246663924889,"113":-0.26494996189470366,"114":-0.050173797829788716,"115":-0.47913032312478526,"116":-0.16390249358224934,"117":0.19486249178190757,"118":-0.0844589696892798,"119":0.3935670639649867,"120":0.5001672333874501,"121":-0.1744222978259113,"122":-0.44777847362700024,"123":0.9538999543640471,"124":-0.1421858251024479,"125":-0.230508015101005,"126":-0.18354244560327118,"127":-0.4473802583407984,"128":0.2717802672254827,"129":-0.26695087075627855,"130":0.17511281254249336,"131":-0.19182430708728257,"132":0.12573546763716228,"133":0.5407728695589613,"134":-0.10034030927254597,"135":-0.8179432479662179,"136":0.4073936338847235,"137":-0.08646556745562155,"138":-0.09548806116037199,"139":-0.37869672012569605,"140":-0.6803044630285427,"141":-0.16019881862531682,"142":0.11420644661413563,"143":0.09026918583357892,"144":-0.20634905848900542,"145":0.10150312971359235,"146":-0.11619636250166297,"147":-0.10971486173233473,"148":-0.8855680963978201,"149":0.5258253339655943,"150":0.053846911840943416,"151":-0.0288415513563896,"152":-0.4845106437191919,"153":-0.20657233410669154,"154":-0.1926799346503398,"155":-0.09671324167952919,"156":0.22582747890185115,"157":-0.26419686283454863,"158":0.6378370901245886,"159":-0.10510987001088666,"160":0.09914458200378054,"161":-0.4313268064803091,"162":0.5705854213832225,"163":-0.13801422503015723,"164":-0.04979602751289818,"165":-0.5456906168869654,"166":-0.2898521638684906,"167":0.17411455150142482,"168":0.27279312345987633,"169":0.6021200484467146,"170":-0.25385059647395863,"171":-0.024442335925266012,"172":0.10309296360370043,"173":0.26373657515212373,"174":-0.379701423486228,"175":0.5871578298999375,"176":0.08843061648113254,"177":0.30297241040042416,"178":-0.358978312293247,"179":-0.14386482899278027,"180":0.45106886591371315,"181":0.19352184487141963,"182":0.03676093505063706,"183":-0.013094116387218056,"184":0.4569715671304443,"185":0.30138795916983363,"186":0.12257605880969005,"187":-0.0931273045930703,"188":0.6647939763264935,"189":0.001052676648708549,"190":0.37829157181502404,"191":-0.31668122597646886,"192":-0.3586444800840403,"193":0.49289699474909077,"194":0.032817944575046706,"195":0.5345416324588503,"196":-0.4295971916196046,"197":-0.145923993920558,"198":0.13575074407506713,"199":0.10675869678768707,"200":-0.47421137534290947,"201":0.19491560656089602,"202":-0.26816622642879656,"203":0.18807965814854152,"204":0.0012540645179060974,"205":-0.3452894551643532,"206":0.19307080967334445,"207":0.3290569005169026,"208":0.18742097645515604,"209":-0.1159241564184785,"210":-0.1658190204504219,"211":0.4583939597475475,"212":0.13267501416080732,"213":0.2816094346328848,"214":0.7090390694953088,"215":0.17572792721357267,"216":-0.3173726859935865,"217":0.02360511249510031,"218":0.2249202804988762,"219":0.32714052107789127,"220":0.337341852493016,"221":-0.08698714066603723,"222":0.077627534548913,"223":0.10988023198842535,"224":0.5671792715446907,"225":0.334719748085243,"226":0.5715614056131602,"227":0.41698400586854156,"228":0.013050329794952718,"229":-0.2006140453131662,"230":-0.29579426383298524,"231":-0.19896440474395957,"232":0.029145600213397765,"233":0.19898109677600137,"234":-0.1873049342211846,"235":-0.21038539218896424,"236":0.11351495980783655,"237":0.2986301986053026,"238":-0.12520075217282028,"239":0.4679258000486574,"240":0.8047220483784059,"241":0.3163837822866797,"242":-0.3254235768852886,"243":-0.4436416138333976,"244":-0.016292644211779946,"245":-0.0027418117198600668,"246":0.22258213515242345,"247":0.26696436804858853,"248":-0.24921849386976433,"249":0.02497794208861324,"250":0.5643892902262373,"251":0.10299800271551607,"252":-0.17149470757897098,"253":0.7588392931078283,"254":0.04182172392701435,"255":-0.11039343518769093,"256":-0.3840209436154076,"257":-0.8645613091014639,"258":0.2934525508167279,"259":0.30800054272510413,"260":0.12715045410154766,"261":-0.22513332899344068,"262":-0.13879372878837365,"263":0.7529795683503575,"264":0.3903400383669907,"265":0.056222755643389334,"266":0.7119770206056164,"267":0.14752347588836986,"268":-0.00577222176979201,"269":-0.13191194945005774,"270":-0.366864046259258,"271":0.39822166823821087,"272":0.3301246737731526,"273":-0.18755643412851555,"274":-0.08115660369432688,"275":-0.16455448344579324,"276":0.004897865262713663,"277":-0.1506505395314648,"278":0.34449370543643715,"279":1.08460519926439,"280":0.6059665039339323,"281":-0.3839457426426353,"282":0.41069533773301725,"283":0.029113164915962105,"284":-0.40417259750636736,"285":0.1429652393245905,"286":0.14551589623873543,"287":0.02404503048345361,"288":-0.023412632430653283,"289":-0.17367446857679214,"290":0.30099505520528436,"291":0.7140688772570151,"292":0.5898090337484959,"293":0.9598219604778894,"294":0.052819317865626415,"295":0.22112079836255744,"296":-0.10199595197220758,"297":-0.0865682871336434,"298":0.1209504495145804,"299":0.2143555776159701,"300":-0.11430437768409786,"301":-0.05332384148499709,"302":0.05573351508617158,"303":0.48455455929997593,"304":0.5134113854201677,"305":1.4970510335900242,"306":0.524767061620727,"307":-0.14905218890280791,"308":0.15233040073753687,"309":0.1013970436084671,"310":-0.12550206470706365,"311":-0.23688977609832948,"312":0.06705422797228544,"313":-0.020510040258159074,"314":-0.31857682143913896,"315":0.061907543482546595,"316":0.3793749991455584,"317":0.37192837563274717,"318":0.18997726915376453,"319":0.43957009507542844,"320":0.28898219377154793,"321":0.2011005588539968,"322":0.2947056078000124,"323":0.06385466715010168,"324":-0.6036430556271701,"325":0.037058849625726614,"326":-0.298251811416706,"327":-0.06160936599973132,"328":-0.31741659855782706,"329":0.32494499981001074,"330":0.5661023766665388,"331":0.32633932463783283,"332":0.6969522668880432,"333":0.29595407287619935,"334":0.06647655881838473,"335":0.30822523919973605,"336":-0.09864124543980742,"337":-0.23673932300809244,"338":-0.05803502001439194,"339":-0.15483438504435396,"340":-0.19706093397313587,"341":-0.48983091128628564,"342":0.1563985910636521,"343":0.621343031311643,"344":0.5291729986142826,"345":1.0786786147857648,"346":0.31037515196352616,"347":0.2285024377718042,"348":0.4949860895694813,"349":0.14635240664793997,"350":-0.06060239967409603,"351":-0.2439509392506267,"352":0.39553335234745657,"353":-0.3331804146816517,"354":-0.17581402535760215,"355":0.47469656604494703,"356":1.1964709012687966,"357":-0.7666965142433548,"358":1.2201119439376151,"359":0.013594612164766989,"360":0.23301566846842056,"361":0.42018026924185625,"362":0.13856837427029517,"363":-0.511766413100511,"364":-0.016293859374673828,"365":0.13569854615694507,"366":-0.16076503349032326,"367":-0.15805368587261287,"368":-0.002114223367753379,"369":0.9987045777602983,"370":-0.594091151299803,"371":1.337492460573998,"372":-0.5724923217612392,"373":0.10899332189110077,"374":0.23742306041335443,"375":0.15490030739794688,"376":-0.20577513609062,"377":0.12134050670075706,"378":0.41605931049583805,"379":0.07784583929463469,"380":-0.009838944788983643,"381":0.23999726374251223,"382":0.7492027084758959,"383":-0.6403534424043665,"384":0.7540898959547547,"385":-0.25240631222911614,"386":0.1001182899682678,"387":0.27324920240837824,"388":0.4036099979732819,"389":0.33139681532133847,"390":0.14145480037780384,"391":0.17486967163481454,"392":-0.286516751979002,"393":0.2745022092748236,"394":-0.18871412645428284,"395":0.3881187739691006,"396":0.07678522509498831,"397":0.7203684913193319,"398":0.19710301152548,"399":0.2197494595459065,"400":0.09811679662372479,"401":0.3744596805627452,"402":0.09865450913155072,"403":-0.0466777255642936,"404":0.06583054189867471,"405":-0.3416757384333983,"406":0.05265783114036088,"407":0.07391779075199507,"408":0.7298256923281212,"409":0.07397315143553213,"410":0.9158264413141269,"411":0.6554503652812623,"412":0.014919686796967268,"413":0.3095836830753053,"414":0.30456311907323136,"415":0.10059262625638167,"416":-0.0602004502383669,"417":-0.06001934120552809,"418":-0.3446962324643939,"419":-0.3019599562757944,"420":0.4095377317907155,"421":0.9978375211445445,"422":0.08123461823352608,"423":0.6344038598368953,"424":0.08484612556756521,"425":0.25987245701207107,"426":-0.218138217113988,"427":0.3383012884136792,"428":0.6563568211383672,"429":0.24151338747062714,"430":-0.12955787763744211,"431":-0.3554227003842905,"432":0.21795861452544238,"433":0.4985724790443729,"434":0.8485885161218046,"435":0.1136685247972386,"436":0.7516814387755625,"437":0.3815713339875796,"438":-0.2468064144107254,"439":-0.14905814430483735,"440":0.4353741828035203,"441":0.4381090869743201,"442":0.14215151015165106,"443":-0.04261704728387395,"444":-0.3968846283340413,"445":0.0929952923963846,"446":0.6074039842360411,"447":0.3651870808347462,"448":-0.6594252303969207,"449":0.4031744079840397,"450":0.1885727037042661,"451":-0.002620307773134694,"452":-0.2657606151985609,"453":0.2283720103067178,"454":-0.09060085521577343,"455":0.17944967627178118,"456":-0.03681765777379672,"457":-0.21567652227280626,"458":-0.2570104216228334,"459":0.7168566187406272,"460":-0.15181542924154173,"461":-0.6648902619414125,"462":0.7056681506685124,"463":-0.3146559152756975,"464":0.15034541504631457,"465":0.03590623635141128,"466":0.09112614517958023,"467":-0.30363590411463937,"468":0.13043842629617305,"469":-0.03437150627251332,"470":-0.1510469679375594,"471":-0.35507108434740253,"472":0.6921086939537513,"473":-0.05056373390372504,"474":-0.6771828156376137,"475":0.328088066654338,"476":-0.1899566307915874,"477":0.044195413617194756,"478":0.04983032543633719,"479":0.4734094213627059,"480":-0.6713365687116617,"481":0.08728114271374075,"482":-0.34171630579043777,"483":-0.6518114520535361,"484":-0.46962701417228586,"485":0.6159749274342374,"486":0.12075312965145166,"487":0.11761505403175168,"488":0.19406177390260476,"489":-0.5290226316468446,"490":0.09166425634866326,"491":0.0296612552409593,"492":0.07506343279303819,"493":-0.030689385965972725,"494":0.17407114716639177,"495":-0.17926383214758368,"496":-0.5380810958917727,"497":-0.16889736746234082,"498":0.6053481420902072,"499":0.4647885149742145,"500":0.8853396483747191,"501":0.33987646157468093,"502":-0.7289551192493698,"503":-0.5215802172332447,"504":-0.14105403263860894,"505":-0.026299011253912066,"506":0.12132473163239732,"507":0.031017936726236404,"508":-0.3296281938461884,"509":-0.6525980071131384,"510":-0.1781709416425319,"511":-0.003509362195597828,"512":0.30596025035798496,"513":2.086999559015383,"514":0.15231920869248763,"515":-0.4580886714062953,"516":0.004973965563490419,"517":0.16465022941883084,"518":-0.14199015910530569,"519":0.42786321810127753}},{"sx":1,"sy":1,"depth":520,"w":{"0":-0.001977252890633401,"1":0.06491154057553054,"2":0.04641518693341278,"3":-0.0014847083540328663,"4":0.01656179635405851,"5":0.017750104812404716,"6":0.08962919779783432,"7":0.044523856896951174,"8":-0.028042775661460632,"9":0.034635411057705595,"10":-0.05004029664837778,"11":0.05259788174954781,"12":0.06845193581128889,"13":0.02462187277506518,"14":0.04274436230254609,"15":0.04239990728665347,"16":0.03054326791805994,"17":0.02649001072787554,"18":0.08707833130813863,"19":0.05793803514277912,"20":0.028102864595637576,"21":0.025133664901584547,"22":-0.0038441452470931374,"23":-0.03963990853839157,"24":0.007464131916804572,"25":0.01466045562109765,"26":-0.04603587003278547,"27":-0.014247829197256891,"28":-0.0392440411606254,"29":0.05106330970679482,"30":-0.019034834532168265,"31":0.0697543428510692,"32":0.006523352620321389,"33":0.023912871359573918,"34":0.02313171788822328,"35":-0.026130599705600506,"36":-0.007410290751603506,"37":-0.007965603947672168,"38":0.03931897127220348,"39":-0.09124683530550831,"40":0.017429919336589963,"41":0.02717231488705168,"42":0.06797777704532065,"43":0.001613401998538203,"44":-0.017125775236751205,"45":0.03404211606416223,"46":-0.0022022488326834647,"47":-0.00016180487146483325,"48":0.030370618055959347,"49":0.019712113717882042,"50":0.025546088348315458,"51":-0.011078319328547966,"52":0.03984386867861556,"53":-0.035077966573845355,"54":0.06234748624230597,"55":-0.021051480473127902,"56":0.008451878519853281,"57":0.04397015359218815,"58":0.12437761505631748,"59":0.05254304419510445,"60":0.0029808794143543595,"61":-0.04357435627108574,"62":0.06539571994987163,"63":0.08250816533228916,"64":0.010739501463287759,"65":-0.02106397874266358,"66":0.027300792806915095,"67":0.03487889455757075,"68":0.07281181300638737,"69":0.01841643496729056,"70":0.018986336356437993,"71":-0.05143365966069749,"72":-0.04663764811358304,"73":0.0038511530196509197,"74":0.008995883941475947,"75":0.041516440252156485,"76":-0.02170906825601912,"77":0.09775236245630473,"78":0.0418453814489532,"79":0.011072975399460883,"80":-0.01575133620954702,"81":-0.030562423379446223,"82":0.10767594301334259,"83":0.03665981405400647,"84":0.006718741351392236,"85":0.044051503915343335,"86":0.028571894046309172,"87":0.06518437971245805,"88":0.004929238581742457,"89":0.05871053516684471,"90":-0.047057967109120157,"91":0.04443420491798184,"92":-0.0430757086588661,"93":0.0154214549030975,"94":0.018364715756326366,"95":0.09117671896919632,"96":0.04538048423862177,"97":-0.02226829989019575,"98":-0.020688440899176194,"99":0.04658933966539165,"100":-0.010614424166967097,"101":-0.09179290684587157,"102":-0.025803272404303898,"103":0.005987757714256215,"104":0.03571413016777347,"105":0.050386277046296314,"106":0.0460561547696868,"107":0.0017737913103527407,"108":0.0716961020369859,"109":0.044401282644084515,"110":0.012299500254903608,"111":-0.022891708544743546,"112":0.0524010582023227,"113":0.03758318739721363,"114":0.0028625310012567367,"115":0.05112581113265536,"116":0.055620299217574214,"117":0.04660080668541682,"118":0.025484451587540254,"119":-0.03331622171526434,"120":-0.018576872129786006,"121":0.07647787099007292,"122":0.04236224630905101,"123":0.037916780818585905,"124":0.04890644231068312,"125":0.07580384269694279,"126":0.05660067428160913,"127":0.04085635508718508,"128":0.10308885105311098,"129":0.005932670388641931,"130":0.06605382431538531,"131":0.024166966226494054,"132":0.043770705480125904,"133":0.05455881127922065,"134":0.01842712637534411,"135":0.03604120197391523,"136":0.01973677003017922,"137":0.040849995152821145,"138":0.03359180545108331,"139":0.06948080221018894,"140":-0.019188259548535487,"141":-0.029779853881364875,"142":0.020853893035626247,"143":-0.08231482689167656,"144":-0.027541889833288313,"145":-0.11025447775780088,"146":0.0072179921940375025,"147":-0.024410082712556333,"148":0.047165607676843,"149":0.015315619057196948,"150":0.07401344957569815,"151":0.05175976041223745,"152":-0.0006224811548336995,"153":0.007625690690804525,"154":0.08700012748351142,"155":0.08948694455099755,"156":0.03189363084426426,"157":0.049471346508314376,"158":-0.025054520846102137,"159":-0.05801910022988384,"160":0.00400033918072736,"161":0.07241525004785973,"162":-0.031656937563815206,"163":0.05081298281881546,"164":0.04296935819932106,"165":-0.023415148055501322,"166":0.05440180139766689,"167":0.0118473550393946,"168":0.05685023934113568,"169":0.014563461278103988,"170":-0.07847172855158095,"171":0.0461118711980705,"172":0.004440242975937055,"173":0.08718681562002133,"174":0.06305353078734295,"175":0.028774763737728158,"176":0.038477173340704024,"177":-0.0004131993843841958,"178":-0.0033304580534496545,"179":-0.016420541864599136,"180":0.057346137014919904,"181":0.0035796400586440074,"182":0.08115059776232206,"183":0.011364560537671032,"184":-0.011804190468037648,"185":-0.020816832246650773,"186":-0.02284968501615977,"187":-0.003026555971739047,"188":-0.012548284150562548,"189":0.023871858435367016,"190":-0.009236835878103604,"191":-0.0005987267727606539,"192":0.050337264213282225,"193":0.03993369950483266,"194":0.03915723972759289,"195":0.052981491304102575,"196":0.052967457944259215,"197":-0.026244777387108034,"198":0.022235158899687208,"199":-0.04686775618296919,"200":0.08904650519159381,"201":-0.004770984912129826,"202":0.030015821717939033,"203":-0.021766611784542235,"204":0.04556435548961955,"205":0.010831015571200513,"206":-0.047918733887773526,"207":-0.07980450855500769,"208":0.03310079479295934,"209":0.04804192245847545,"210":-0.04357123699424125,"211":0.008632220249742795,"212":-0.008715616440197057,"213":0.00443652470175416,"214":-0.011402061259363468,"215":0.039380450958454515,"216":0.07991069769657796,"217":0.07529818553634605,"218":-0.008958878425951104,"219":0.07266965671890456,"220":0.06544202087040447,"221":-0.026947541320892426,"222":0.059318467992499284,"223":0.01081181203931499,"224":0.03909442979804736,"225":0.02922360962973726,"226":0.08747916401874221,"227":0.06704237945612865,"228":0.14988719729349806,"229":0.03142149046150385,"230":0.029343523324942333,"231":0.030157059172478164,"232":0.008957470210945239,"233":0.02833183435012103,"234":-0.048655609337406314,"235":0.04008489774774966,"236":0.06948472105753471,"237":0.08969549708023679,"238":0.023009778058791695,"239":0.06404722671650392,"240":0.06512852792897222,"241":0.006628900482682203,"242":0.05421767890600041,"243":0.012074377839612665,"244":0.004378662634131638,"245":0.0632433191270745,"246":-0.06480750216205812,"247":-0.07780040896106218,"248":0.06429738282938285,"249":-0.005039861764311786,"250":0.009100521355099879,"251":0.02250122278630245,"252":0.035740472958869916,"253":0.03100889011168648,"254":0.0009658701668827795,"255":0.053031975187169934,"256":0.04591005291902237,"257":-0.07284438749142803,"258":0.0722372365116854,"259":-0.08082992664667174,"260":0.07945589365639855,"261":0.0020835968461278827,"262":-0.028679697252167843,"263":0.05121470757758856,"264":0.08244147820622164,"265":0.017821025219268455,"266":0.029942108832427657,"267":-0.0171669870059668,"268":0.07338682080960114,"269":0.00006830220498051711,"270":-0.029317229329021453,"271":-0.06895888711278972,"272":-0.032249785848864856,"273":-0.03969128855863703,"274":-0.005181115346261415,"275":0.029010751462076663,"276":0.0181238489599325,"277":0.08752268930649344,"278":0.034937044453781436,"279":-0.002499007869350822,"280":-0.05007970397032447,"281":0.01707424173352619,"282":-0.013395454607877824,"283":-0.017920892487172397,"284":-0.0004345114733523699,"285":0.06098391585911912,"286":0.07515636852819965,"287":0.010007349735738682,"288":0.0292713479512196,"289":-0.06170617405750162,"290":0.004499221920263027,"291":0.015540103220060107,"292":-0.05335238023800927,"293":0.01635277527848987,"294":-0.028653068356365816,"295":0.009593953970026613,"296":0.04901663765328524,"297":0.07072018717499355,"298":-0.0008420398045570439,"299":0.09742129764548316,"300":0.048729725125962874,"301":-0.05058027912075163,"302":0.07182141776978358,"303":0.07127265929135505,"304":0.06911533214884846,"305":0.09569776256672968,"306":0.04535219974624542,"307":0.05636779047391467,"308":-0.039759502353580424,"309":0.0044492193409960915,"310":-0.06712409296297786,"311":0.026859019910468344,"312":0.0074541852638883846,"313":0.019187660147607994,"314":0.06994007836967345,"315":0.07681848338462634,"316":-0.018821510010726343,"317":0.05390080902615599,"318":-0.06971431626814134,"319":-0.049954272513029925,"320":-0.0518614797393912,"321":0.05253215910828509,"322":0.10710435200166087,"323":-0.10841475990944763,"324":0.06784494190191545,"325":-0.022104862402577072,"326":-0.08651145877525941,"327":0.0012372196199375793,"328":0.10166360972624823,"329":0.0391888060839849,"330":-0.029610805494276072,"331":0.027552256075663157,"332":-0.010463982826290108,"333":0.022443538896105456,"334":0.007811786990202075,"335":0.006670958630371236,"336":0.034901322676434095,"337":0.00433058272682105,"338":0.0458149040710969,"339":-0.025045136681512734,"340":0.015667890833285483,"341":-0.07236395073418989,"342":0.024067808158023816,"343":0.0519798009033882,"344":0.0216295509303401,"345":0.058233790353126924,"346":0.09328113440445349,"347":0.03497529464697283,"348":0.0005830505518417291,"349":0.04706269615140046,"350":0.0028022299952439795,"351":0.042838629413276666,"352":0.07866360964849188,"353":0.07835239744487935,"354":-0.02078221251662398,"355":0.03215882400024364,"356":-0.006454507734399226,"357":-0.026380535941705956,"358":0.014352495933752705,"359":0.08154792278099571,"360":0.021112817451491687,"361":0.07652132822412143,"362":0.034162168410445094,"363":0.03876799491622354,"364":-0.019528666532354036,"365":-0.04546001541554122,"366":0.1039370819365621,"367":0.11218601416945975,"368":0.06245940011108246,"369":0.04253415006030107,"370":0.060876524149053576,"371":-0.03182345774204696,"372":-0.020975594702217885,"373":0.05755425186107223,"374":0.05645276707337647,"375":-0.03741519052099463,"376":0.008949854406707257,"377":0.027001000613133822,"378":-0.006022278527116366,"379":0.025414505606963435,"380":0.003449392501887217,"381":0.08512144415136771,"382":0.03580318856947641,"383":0.038848032934454664,"384":0.019364695481947813,"385":0.04314271542015436,"386":-0.0028642691162490716,"387":-0.016318784125119314,"388":0.07000690194858156,"389":0.01983709727671722,"390":-0.05152938118528326,"391":0.05632326155275657,"392":0.07650876799573204,"393":0.03472669534152939,"394":0.07564881771347584,"395":0.17161351531436064,"396":0.0050781957110445745,"397":0.01923661544258082,"398":0.0828734492350948,"399":-0.03350657058115388,"400":0.07578002997663899,"401":0.015032308105703164,"402":0.057298288502114214,"403":-0.05773595430950458,"404":0.011693129126690889,"405":0.00840248353551516,"406":0.012187885780952168,"407":0.06723804038406363,"408":0.10787927214276603,"409":0.05730179187816306,"410":-0.007994038600874425,"411":0.031119318953938577,"412":0.007857570062242804,"413":0.06452306572119532,"414":-0.01714342905700309,"415":-0.02570882677774043,"416":-0.0032088834694359767,"417":-0.045673233696696666,"418":0.11022388478054673,"419":-0.06121315038053025,"420":0.05995729011415616,"421":0.030837877319933506,"422":-0.015201817056594385,"423":-0.035865340609969446,"424":0.06503183892074135,"425":-0.04591851056220667,"426":0.060802665636310274,"427":-0.009755022007033185,"428":0.008164206784142302,"429":0.0073016369409288585,"430":-0.009770152670305371,"431":0.04025616061839462,"432":0.034643703583699594,"433":0.059293808874194984,"434":0.07344662791043115,"435":0.02006761057056571,"436":-0.04057811229029958,"437":0.025692149631640807,"438":0.02993312898988469,"439":0.024441350505842473,"440":0.035348964041569814,"441":-0.0053724686775173365,"442":0.0013359556281173995,"443":-0.052532820840502606,"444":0.06048272635411945,"445":0.015226560893451405,"446":0.043541589914348706,"447":0.06093124801352899,"448":0.07379634199540148,"449":0.06500679334134563,"450":0.02219890149225338,"451":0.13171885883183918,"452":0.06667802884251726,"453":-0.03671595099359753,"454":0.06833464414047277,"455":0.056218796652511026,"456":0.04409824332768538,"457":0.02285572708318268,"458":0.012874209862723692,"459":-0.02497171212872721,"460":0.0436204234647995,"461":0.07430004057120287,"462":0.019721555538806227,"463":0.06327792314701693,"464":-0.01895775065176179,"465":-0.016163340965939153,"466":0.08648665144404342,"467":0.008266787998736218,"468":0.11167598394058302,"469":0.014655717511085773,"470":0.06292921020747057,"471":0.051310908902504816,"472":0.012278203923663715,"473":0.04231922683595957,"474":0.03038199474223148,"475":-0.05759640009645191,"476":0.06645535966804543,"477":-0.001305221612223609,"478":0.007695841606952829,"479":0.04348085937367999,"480":-0.03782685090580468,"481":-0.009971264543947495,"482":0.038579412302901434,"483":-0.004388920608838661,"484":0.021498345100225105,"485":-0.015191930779320947,"486":0.04587058365308026,"487":0.022490392484547646,"488":0.10144543173712743,"489":0.030851799919360996,"490":0.07547196971530201,"491":0.011599693651758875,"492":0.10114055733129984,"493":-0.04192293517368421,"494":-0.019012377707126597,"495":0.08687798195593091,"496":-0.028036401258636802,"497":0.035154685553129394,"498":-0.010886207871513887,"499":0.05103227942032976,"500":0.04831666427161027,"501":0.03384391774798117,"502":0.07856124512282962,"503":0.00253294786600873,"504":-0.01754372954544465,"505":0.009064898275853854,"506":0.023791283131603027,"507":0.017112343103687075,"508":0.04862936043297882,"509":-0.0518955421517866,"510":0.02020708259058402,"511":-0.014382811712937057,"512":-0.0216154794420061,"513":0.04415102858281091,"514":0.021676110823150102,"515":0.01741444849410616,"516":0.014182486547806619,"517":-0.0828916354082664,"518":0.10389794102013597,"519":0.011990214443049697}},{"sx":1,"sy":1,"depth":520,"w":{"0":0.004482502166094622,"1":0.16247384675413176,"2":-0.05114304309833129,"3":0.05858261839075521,"4":0.21063112459381766,"5":0.6170947066380926,"6":0.017869049679234916,"7":0.8089921007958445,"8":-0.5960425736045495,"9":-0.19042200657455569,"10":0.012098462264163022,"11":0.020192743361843676,"12":-0.5887640604085802,"13":0.06282934883754053,"14":0.07016005306652968,"15":-0.052664879354778676,"16":0.22805525468199844,"17":0.16404893820788682,"18":-0.27285587387496224,"19":-0.0834624395598576,"20":0.5628512078856616,"21":-0.5884544981615699,"22":0.06824348537696953,"23":0.5956249584280076,"24":-0.02679146546169344,"25":-0.2895209065534941,"26":-0.06814933723218504,"27":0.20598395690539945,"28":0.35911688097490363,"29":0.1035321916226815,"30":0.22411925155177506,"31":0.12804013282135943,"32":0.041190590578375125,"33":0.45056620887519494,"34":-0.16847481879384396,"35":-0.03227903233230546,"36":0.538840109839407,"37":-0.1521690307886018,"38":-0.6128564121538089,"39":-0.0160743298930524,"40":0.04268979429059339,"41":0.43214121157411206,"42":-0.08031572861080813,"43":-0.23890715745395663,"44":0.23184660621400446,"45":0.31401798331287695,"46":-0.12374142557907479,"47":0.5637421303110752,"48":-0.41474882270344615,"49":-0.014173812685487496,"50":-0.15389086363564503,"51":-0.9430201949777609,"52":-0.03465599120511474,"53":0.12901284157779436,"54":0.13796841241534644,"55":-0.20043989660357947,"56":-0.01574036348604156,"57":0.49929164658744907,"58":-0.16000526647427518,"59":0.7168008752273161,"60":0.3000001878495425,"61":-0.19671080159189772,"62":0.2977986518280536,"63":0.09887683562407171,"64":-0.23545926046229743,"65":-0.022585799878214022,"66":0.1995279039018946,"67":0.19080147914754012,"68":-0.057133481543967225,"69":-0.1813689101429947,"70":-0.021310782788049765,"71":-0.26084940486482194,"72":0.08347093682538746,"73":0.03889542247676592,"74":0.07383925852969063,"75":0.11245676321136437,"76":0.3676073243401441,"77":-0.5260086342266685,"78":-0.03131679796769623,"79":0.2153618064634269,"80":0.08089961752308591,"81":0.05619838080401884,"82":0.08043713004605624,"83":-0.0913069459757506,"84":0.17345863541615536,"85":0.28380241455689453,"86":-0.11571415540364262,"87":-0.4889377928711351,"88":0.25538777866174733,"89":-0.13710630095691967,"90":0.10118615127768883,"91":-0.051093680129425216,"92":0.21296207485107674,"93":0.2566398360679996,"94":0.02499231372308073,"95":0.01865464301413727,"96":-0.24387442188182554,"97":-0.12100820745224133,"98":0.4786792565948757,"99":-0.12520186770562616,"100":0.23635165487860132,"101":0.738560857415989,"102":0.06297600779225807,"103":-0.36663998621977617,"104":0.0378929804761288,"105":0.17823309660365194,"106":0.3101655347874909,"107":0.240187141505964,"108":0.10472481733674043,"109":0.370243273203561,"110":-0.621650203662229,"111":0.9042718846797252,"112":-0.11263523562741053,"113":0.36232484943034393,"114":0.3972681646759784,"115":0.894753849544648,"116":0.4316818169962043,"117":-0.03743363179752974,"118":0.13136506438975704,"119":0.18968118762734312,"120":0.2840429375640396,"121":0.07773573145516754,"122":0.46622728710439376,"123":-0.03245923192658493,"124":0.3109983431294512,"125":0.04021038604043899,"126":-0.07944030709434542,"127":0.06116526450136165,"128":-0.4264122729117097,"129":0.056659173580194976,"130":0.020104159687933835,"131":0.14581500238541767,"132":0.14328070162160728,"133":0.007188795929143793,"134":-0.356020622524894,"135":0.12519863114393479,"136":-0.04822134611925567,"137":0.627767327702306,"138":-0.2731159583659988,"139":0.1594995639239965,"140":-0.011388079309719383,"141":-0.4711894080226431,"142":0.012100217345057625,"143":0.009347303747470581,"144":0.1622469208412453,"145":0.1614629951961498,"146":0.44093112381608424,"147":0.062232728988731806,"148":-0.23344131165537482,"149":-0.7491155848657918,"150":-0.24084869563041972,"151":-0.33536625947553256,"152":0.29238193969133874,"153":0.6442824491725182,"154":0.14847606674273767,"155":-0.40953271604615565,"156":-0.0037979385983239185,"157":0.22481224506731579,"158":-0.14681364128650395,"159":0.0838928478356396,"160":0.03175186760391765,"161":0.14976618168627667,"162":0.005103792646016365,"163":-0.19594286428095595,"164":-0.12092472184064841,"165":0.3362850072722659,"166":-0.034008165280481596,"167":-0.23790677148361533,"168":-0.34327397806056514,"169":-0.038339414998166135,"170":0.09996797160896984,"171":-0.052263502245205595,"172":-0.1033795391703655,"173":-0.29522775770093906,"174":-0.18810159509211635,"175":-0.13621649002570962,"176":0.10033179748673934,"177":-0.28658930417918815,"178":0.4006451626368733,"179":-0.15486638637040234,"180":-0.3829209278156393,"181":-0.47316702726984716,"182":-0.01708848460396679,"183":0.11910436255540383,"184":-0.16474439454696482,"185":0.2839985306005843,"186":-0.04972654794475114,"187":-0.1721209975640056,"188":-0.23933105215035036,"189":0.09663023869070644,"190":0.22677118272204538,"191":0.3497939436739372,"192":0.021345858920258774,"193":-0.25977636625156575,"194":-0.3507159270254122,"195":0.001956303081196365,"196":0.19493179251283885,"197":-0.23746076386205298,"198":-0.27286176391913997,"199":0.6331199811507144,"200":0.39247729804439935,"201":-0.12992107334630662,"202":0.22722909753509085,"203":-0.16710054464053925,"204":-0.2828127494477578,"205":-0.10830725566590055,"206":0.22014109316894254,"207":-0.3467939018030398,"208":0.07641216885807707,"209":0.15266895729422286,"210":0.1310304805180763,"211":-0.05331276852375467,"212":0.5508623912198484,"213":-0.17404829088308976,"214":0.4384529198254759,"215":-0.21905394965716432,"216":-0.11427765955383833,"217":0.10315645627054608,"218":0.3381285859624594,"219":-0.1346554438622467,"220":-0.3071199793724546,"221":-0.049927783411650724,"222":0.2102281983796794,"223":0.04189505761567112,"224":0.22575090629628858,"225":-0.0564301822979925,"226":0.3738743267369597,"227":0.016329689442378226,"228":-0.04345417591750422,"229":-0.4178814011115908,"230":-0.2917173064314615,"231":0.2093388745821613,"232":0.15024549088534989,"233":0.6469470329312575,"234":0.03682208167840532,"235":0.2004841196140568,"236":0.08045213995146684,"237":-0.2975102305693975,"238":0.6744934141615209,"239":-0.0027247551956771834,"240":-0.7576419775170391,"241":-0.8152018328561078,"242":-0.4171510561891552,"243":0.42005144647305176,"244":0.6674273514607691,"245":0.2849386128562907,"246":0.4389555754896315,"247":0.016316355043910578,"248":0.13761744219155603,"249":0.19466891114601562,"250":-0.4866142444078244,"251":0.20233321864610404,"252":0.10910024995135086,"253":-0.40118689296283117,"254":-0.7097487567810611,"255":-0.1672194911089873,"256":0.17556285369123265,"257":0.5488737824722688,"258":0.08148246526822313,"259":0.8055574039564345,"260":-0.057631208631794294,"261":0.22501356255767366,"262":0.08118147138085158,"263":-0.36655580741195953,"264":0.36562846886847933,"265":0.05221791426371627,"266":-1.3643321417110323,"267":-0.8759791319438611,"268":-0.1911942074213964,"269":0.04066198749361597,"270":0.3047884082627065,"271":-0.024415605068026515,"272":0.39434818988632303,"273":0.04011234693770804,"274":0.14764068342324746,"275":0.2624843119010232,"276":-0.11423928352220444,"277":0.14294018605323447,"278":-0.029953345301712096,"279":-1.0979829031534838,"280":-1.4789655013828222,"281":-0.5178921927010016,"282":0.05081588006747484,"283":0.7758217664290283,"284":0.12397197729004944,"285":-0.02040578737101361,"286":0.02750138356458632,"287":0.2729064202125347,"288":0.32172272647233985,"289":0.05910896683762287,"290":0.22645271070365114,"291":-0.021814984477672394,"292":-0.7374825692265365,"293":-1.6768022063120787,"294":-0.12935895091289826,"295":-0.42673120736482484,"296":-0.15552838018954712,"297":0.2994432957989767,"298":0.03327956550171472,"299":0.014896073094143045,"300":0.19734010532695748,"301":0.5193814898439306,"302":0.4039551629772846,"303":-0.131192495887548,"304":0.47982865054280016,"305":-0.6863084060415453,"306":-0.9208135412751611,"307":-0.31396563238125674,"308":-0.014057187702188535,"309":0.32619199232574686,"310":0.22107386083198724,"311":0.7106916475052739,"312":0.11522784456529818,"313":0.22673222385705366,"314":0.3994483083542249,"315":0.620322757326981,"316":-0.038614441000390416,"317":0.28245166978225267,"318":-1.2522722679138105,"319":-1.3876321615999627,"320":-0.6214043844534483,"321":-0.16797903290454522,"322":-0.28984860844854426,"323":0.24035260861073696,"324":0.306001879864256,"325":-0.024542143907845204,"326":0.17113090462589803,"327":0.1362894223716836,"328":0.4949848553635674,"329":0.4320257510950896,"330":0.4396026652180468,"331":-1.2599948307133193,"332":-1.8689065211456732,"333":-0.8817958542502594,"334":0.006961768571074561,"335":0.1396471020817815,"336":0.046057574685335,"337":0.11761658810034016,"338":0.04825816517500102,"339":0.22215624249748187,"340":-0.005445030170609471,"341":0.5307366169731511,"342":0.003853604148016559,"343":0.45576412199948474,"344":-0.8325512840771251,"345":-2.2832259182378083,"346":-0.8454226251765052,"347":0.16865556999137427,"348":0.24048379527225003,"349":-0.25018173900373664,"350":0.5754949073537216,"351":0.004990621815547589,"352":0.12143793365791972,"353":-0.19722048013472745,"354":0.4357227608882724,"355":-0.005842475620777601,"356":0.6782158659819041,"357":0.20218894842991225,"358":-2.1285553743803116,"359":-0.7517298429217592,"360":-0.2922059422175516,"361":0.30172375013177116,"362":0.1643994262090754,"363":0.48738194411710584,"364":0.008956687559932956,"365":0.23128677222702235,"366":0.03673311886575136,"367":0.3036133230245538,"368":-0.16906797064916143,"369":0.3128817183212118,"370":1.2028792579717287,"371":-2.578312701629515,"372":-0.43306240101886867,"373":0.45458004252841355,"374":-0.14875328745388283,"375":-0.21676087887424986,"376":1.3651587118710637,"377":-0.046600726521935254,"378":0.2610850581320345,"379":0.2590277106709751,"380":0.36326544367482533,"381":0.1141290938828441,"382":0.5145760574457972,"383":1.4771149636410803,"384":-2.0128277826319243,"385":-0.1818632376070187,"386":0.2468104531111201,"387":0.09096356524917155,"388":-0.21093147901103146,"389":1.0647492101930998,"390":-0.008364946667160448,"391":0.18850850448527498,"392":0.18181899325487547,"393":0.2715186177792375,"394":0.13225957277171585,"395":0.8985990864948593,"396":-0.1323322725466796,"397":-2.020577102176185,"398":-0.5844503825481552,"399":0.3992754494967505,"400":0.19843687013878564,"401":0.2951903270136196,"402":0.6579476975222927,"403":0.03410167676281045,"404":0.21131952061291456,"405":0.14237755988862918,"406":0.55439286711631,"407":0.4439213995265836,"408":0.75417359188135,"409":-0.16901676061357565,"410":-1.753151504704495,"411":-0.3064345892794699,"412":0.8013780289390767,"413":0.133242781602191,"414":-0.5254945171499319,"415":0.5831702545065353,"416":-0.03640119563828866,"417":0.23880895356230736,"418":0.2540295009089399,"419":0.29987243945543857,"420":-0.027985276410535175,"421":0.5472168887307779,"422":-0.18378035733600956,"423":-1.799637787769373,"424":0.06255408038676213,"425":0.7296208984938644,"426":0.5858641543158574,"427":-0.1719149594647505,"428":0.46292300561460265,"429":-0.046966115520929066,"430":0.1330700573203193,"431":0.046983717915237574,"432":-0.030524541746530326,"433":0.09586817713866659,"434":0.7331663699570266,"435":-0.19131878022675994,"436":-1.337353837078254,"437":0.011095360765875441,"438":0.15652803922870945,"439":0.25841764155715946,"440":-0.14686853355999535,"441":1.1502495271978597,"442":-0.013078099112821782,"443":0.1197674250883663,"444":0.12257397449677958,"445":-0.18793416439554797,"446":-0.1266986451842625,"447":0.7474216972836188,"448":1.7285721941452887,"449":-0.2712192297859316,"450":-0.10603174591769585,"451":0.32490859003485933,"452":-0.5852849429710179,"453":0.16627118080350775,"454":0.8746343692835888,"455":-0.05445290032750449,"456":0.10088729860052774,"457":0.25344108640539514,"458":0.061202843851819316,"459":-0.009917240702324753,"460":1.056687644416451,"461":1.6068944387315742,"462":-0.44050694654949446,"463":-0.03934093833185139,"464":-0.10231405434459613,"465":-0.7050391081531412,"466":0.8627817837633797,"467":0.7118104105201325,"468":0.05449223811883858,"469":0.057510224410067236,"470":0.016640552875795873,"471":-0.18463528617218167,"472":0.14779778249737208,"473":0.40055208854990265,"474":1.601039136898754,"475":-0.18723335381967843,"476":0.1237482568178479,"477":0.10365307372893774,"478":-0.010629701370045114,"479":-0.36281496164090626,"480":0.6398897285794406,"481":-0.004695041043216536,"482":0.11037892866369399,"483":-0.0011989427279398383,"484":0.053616855941234706,"485":-0.07125181574459544,"486":0.4072354983608342,"487":0.20078912506263974,"488":-0.4625082559811029,"489":0.4957791483876174,"490":0.3923751845819502,"491":-0.5960509005251329,"492":-0.04209961998965561,"493":1.1417550495351652,"494":0.10602418469374214,"495":0.26208855347349974,"496":0.08677442565950944,"497":0.3561349935040416,"498":-0.1948228539123139,"499":-0.06138432354446775,"500":0.7394225567250908,"501":0.2439402019368575,"502":0.07708062117679669,"503":0.14830897997157502,"504":-0.6412275270665408,"505":-0.393425618368455,"506":0.24740598333270386,"507":0.011710919282910778,"508":0.25351870464812,"509":0.10886815093925087,"510":-0.1443942686419823,"511":-0.2138608168179631,"512":0.471361399696431,"513":0.614413379589051,"514":-0.02769237212054717,"515":0.21835981303252938,"516":0.4841907222749481,"517":-0.3873034682535301,"518":-0.16098768467216115,"519":-0.7427105509990001}},{"sx":1,"sy":1,"depth":520,"w":{"0":0.8895713798130757,"1":0.7829444071395095,"2":0.6907207106852133,"3":0.43502834008849867,"4":-0.6034139804331247,"5":-0.07144717402728727,"6":-0.7159739744932825,"7":-0.33001560182671075,"8":0.011947085371071612,"9":-0.3574422017198686,"10":-0.6300262527492102,"11":-0.55871296981165,"12":-0.09974917615576809,"13":0.7115647196724642,"14":0.5265943814113919,"15":0.2762873032598869,"16":-0.44578301495420875,"17":0.26749481239939155,"18":-0.32906135277798226,"19":-0.18818066879779036,"20":0.4226714063705331,"21":0.07761665116033178,"22":0.2663832848106538,"23":-0.1944144766778204,"24":-1.0025793744504106,"25":-0.1784709214388876,"26":0.4474413515444059,"27":-0.15099394003023875,"28":0.1467745631763009,"29":-0.13800576081649696,"30":-0.22682926545892607,"31":-0.6007425443128872,"32":-0.07095887077902392,"33":0.6316634705838408,"34":-0.28401965268556717,"35":0.07779624737427887,"36":-0.11926938735233665,"37":-0.5534128331960455,"38":-0.7721002011008946,"39":0.29366957114621595,"40":0.10815325151498327,"41":-0.20020237514731112,"42":-0.5861309191769115,"43":-0.29571352406175994,"44":-0.12928254979527842,"45":0.14536746658607372,"46":0.13087412348249797,"47":0.12298894056813535,"48":0.24915012193545555,"49":-0.12665473364095503,"50":0.1451768079551168,"51":-0.19358709290861928,"52":1.1002217043784288,"53":0.8774004642808884,"54":0.4158815516633654,"55":0.09322160082101856,"56":-0.07962598140869276,"57":0.003796759461370814,"58":-0.28500036831026265,"59":-0.5171037761409082,"60":0.3789487845188133,"61":-0.3099967710152719,"62":-0.4767895892284522,"63":0.11386278285237336,"64":-0.05183126048009108,"65":0.9381234420254863,"66":0.232831656232482,"67":-0.14975970975671943,"68":-0.45192241284947837,"69":0.19881237608957716,"70":-0.4276378848618787,"71":-0.09542467977770941,"72":-0.01631622715299858,"73":0.19139814917669873,"74":-0.059493653766772514,"75":-0.7410271882337908,"76":0.16817948255424112,"77":-0.5283998772149385,"78":0.4246237868220324,"79":0.22680890705053636,"80":-0.010211548979468023,"81":-0.05432727754164336,"82":-0.22500819066840227,"83":-0.6085422097359775,"84":0.07491729679838979,"85":-0.043069283024380844,"86":0.5256910604717898,"87":0.4377575643913815,"88":-0.43901276819124846,"89":0.20966678045790335,"90":0.08606716750463608,"91":0.42562853104932385,"92":-0.2531993264937614,"93":0.306650008526986,"94":-0.25210516936775607,"95":-0.3775562569406236,"96":-0.5199342185237688,"97":-0.3807697414662949,"98":-0.2300459911167395,"99":0.19252071334335255,"100":0.31284740286490487,"101":-0.09327623318229072,"102":-0.04304699274135074,"103":-0.0018153182614400417,"104":-0.3072588498965849,"105":0.09239910502241135,"106":-0.5197194048785356,"107":0.041334917797730825,"108":0.13688030339214668,"109":-0.5937620254262123,"110":-0.24632379055620252,"111":0.4758644840835443,"112":0.3219747856498692,"113":0.47826162359809865,"114":0.44229284866071195,"115":-0.18351163501364395,"116":-0.48567113676464413,"117":-0.6962509234383001,"118":0.3533174721547067,"119":0.5510414496253528,"120":0.06614404409073123,"121":-0.11952191328155465,"122":-0.6129779758310995,"123":0.24016582092957825,"124":0.0938575068648768,"125":0.15619137675137518,"126":0.1993502058175789,"127":-0.22065502568728212,"128":-0.2817091272466068,"129":-0.06929141973416551,"130":-0.0773450399770445,"131":0.4092210245364734,"132":-0.01814377151033541,"133":-0.6341375261671551,"134":-0.07622192323002919,"135":-0.11483992120396389,"136":-0.3253702234811648,"137":0.0807522726882374,"138":0.03353582231754804,"139":-0.0275438408429513,"140":-0.34953102967754923,"141":-0.10507479450996954,"142":-0.5540868757705424,"143":0.33232051175406807,"144":0.49926724761295904,"145":-0.12041253962789043,"146":-0.0060772500010384,"147":-0.31500070697227867,"148":-0.6885043902414062,"149":-0.23665493253243722,"150":0.6227203611102519,"151":0.31765615728227337,"152":0.7582133713580754,"153":-0.11868297916800354,"154":-0.19754119540555962,"155":-0.6991023295932898,"156":0.9787586961271919,"157":0.23980637131322732,"158":0.4354331850807038,"159":-0.6135547662152514,"160":-0.49011454460486076,"161":-1.61143135691103,"162":-0.4690914311008958,"163":0.6453884592862991,"164":-0.05862667999600731,"165":0.19778099849626155,"166":-0.0531163294192548,"167":-0.45978809638866086,"168":-0.5847921758966684,"169":1.5180478663707828,"170":-0.49357064263545597,"171":-0.1071583166634688,"172":0.06757909136184927,"173":-0.3146491080056613,"174":-1.5635791963055872,"175":-0.622557455256699,"176":0.5397253313729659,"177":0.2320492694810553,"178":1.0173036040710013,"179":0.384659517716874,"180":0.0557981134794258,"181":-0.4970836368809945,"182":0.7632596657437275,"183":-0.35796194907969187,"184":0.2881878843571853,"185":0.09677649535167913,"186":0.025434748419299488,"187":-0.8235589362150115,"188":-0.45611842114054346,"189":0.6662962376511097,"190":0.10460942733787754,"191":0.46615281848363105,"192":0.23162709671369455,"193":-0.19202601933530614,"194":-0.31109889279695996,"195":0.6497362863758056,"196":-0.2778364973920744,"197":0.0940715316283628,"198":-0.07989744922716378,"199":0.031181899321634666,"200":-0.8942717506640709,"201":-0.5155130463041038,"202":0.8657317719738716,"203":0.6245531862208061,"204":-0.231289323583034,"205":-0.004029158138917254,"206":-0.021095872883233155,"207":-0.46259315773553833,"208":0.706135359648909,"209":-0.36720292003010085,"210":0.2202397905199055,"211":0.4016191487319381,"212":0.2944777566748975,"213":-0.6863591616441737,"214":-0.5663979112511027,"215":1.0168782747349188,"216":0.6533125843326472,"217":0.4237346998228161,"218":-0.37286493157338774,"219":0.20770396948364522,"220":-0.4002662854005986,"221":0.03758802719750966,"222":-0.13614450062009784,"223":0.37750175002928105,"224":-0.03929609897867856,"225":-0.5829799509389969,"226":-0.6985856916057998,"227":-0.09708552573104179,"228":0.6181140766146803,"229":0.12703822827793443,"230":-0.04140928911345044,"231":-0.07078959376964301,"232":-0.06337984770298359,"233":-0.11993780324791073,"234":0.4300970371266101,"235":0.058743886647062406,"236":-0.36281204546999013,"237":0.35763022020706764,"238":-0.584389063381336,"239":-1.0953640568961118,"240":-0.27210747292745274,"241":1.1470845326069614,"242":0.5146323715218981,"243":0.5104896937767253,"244":-0.023826137423508514,"245":-0.12668681312551283,"246":-0.5658064338146465,"247":0.6985997866640368,"248":0.28256418682601087,"249":0.20389379283122858,"250":0.45657714919357617,"251":-0.46234028623575946,"252":-0.9092336569306795,"253":-0.682775291741729,"254":1.3596248407438138,"255":0.19834764546028152,"256":0.08037863822540661,"257":-0.5169754701410996,"258":-0.45839716657785984,"259":0.01919304429051022,"260":-0.44135481554655537,"261":-0.001600049401056086,"262":0.07709131978592686,"263":0.3933187825637706,"264":-0.40943456383645555,"265":-0.28898062701586863,"266":-0.8391201442136023,"267":0.44408796222015234,"268":0.3707996627684537,"269":0.05677532905093259,"270":0.017750925606218562,"271":-0.2467955216333766,"272":-0.5432375959261034,"273":0.6620407869938026,"274":-0.36091487890971613,"275":-0.14353353610226796,"276":0.06483854664055377,"277":-0.2466532339899556,"278":-0.45497065317988644,"279":-1.3168887778704133,"280":1.1217840908647632,"281":0.5562665823018539,"282":0.3296355817852308,"283":-0.629886715110786,"284":0.1203040214042855,"285":-0.6784162859376008,"286":0.11202101310133387,"287":0.19772824569446032,"288":-0.1347688012171773,"289":0.27000931028635367,"290":-0.042264013458581044,"291":-0.6339484672312694,"292":-1.7699513282073498,"293":0.7727667787597876,"294":1.0122128977061107,"295":0.03183345633696902,"296":-0.8824501606915253,"297":-0.439664810093594,"298":-0.4510193678902619,"299":0.0991200549055692,"300":0.4094815611808134,"301":-0.33794355580895447,"302":0.7485465259441249,"303":0.25310038391205253,"304":-0.6931867667558823,"305":-1.7350999100413342,"306":0.5411718992466145,"307":1.3265544906353466,"308":0.46325660534268953,"309":-0.18940966159111125,"310":0.4594745757420946,"311":-0.9126003500932635,"312":0.373489054297807,"313":0.1035618034189997,"314":-0.2366284647276144,"315":0.48778269932242,"316":0.06788876340647124,"317":-0.4759239163546023,"318":-2.150451808807998,"319":0.6013843865515525,"320":0.7763724596641995,"321":-0.08302630219538731,"322":0.16774069441878964,"323":0.18348494630863585,"324":0.005587912830705368,"325":-0.09538186880089987,"326":0.4527230861786606,"327":-0.09165465807839673,"328":1.028836599668682,"329":0.06804419212174592,"330":-0.48835900307113184,"331":-1.8197010908167084,"332":0.9642489311749458,"333":0.6547583625425211,"334":0.1474276796418992,"335":-0.11917942892017239,"336":-0.25799680326801944,"337":-0.3006210619985782,"338":0.08208304164469013,"339":0.1332902261118775,"340":0.4549100835284689,"341":-0.06587667857531478,"342":-0.04419708249194572,"343":-0.2990701991703712,"344":-1.8357980155450757,"345":0.507277023385647,"346":0.2730072721524985,"347":0.05553531562711009,"348":0.3866301670028091,"349":0.501626188180268,"350":0.06758574260648557,"351":-0.16442402203819081,"352":-0.02487017613305798,"353":-0.0320348350202513,"354":-0.026704615389192672,"355":0.11708645822252506,"356":0.5086760797315238,"357":-0.484417103363688,"358":0.44334099018599243,"359":0.07543273389457762,"360":0.1655806645153617,"361":0.4847070406464052,"362":-0.18685708765954856,"363":0.18756255558607238,"364":-0.22618743536893582,"365":-0.07523188775364291,"366":-0.09006754591548206,"367":0.09501936225624774,"368":0.09210583402007379,"369":-0.11438286167399685,"370":0.5005460528499094,"371":0.5014855021845077,"372":0.04504441820576902,"373":0.4824893817020278,"374":-0.5092164301983223,"375":-0.15120205531264008,"376":-0.25337861894408126,"377":0.06233618758735739,"378":0.32890770232573874,"379":-0.042384344488854635,"380":-0.37406675682755414,"381":0.44546010736591735,"382":0.01635720488716435,"383":1.0812409874857039,"384":0.5530656677411994,"385":0.27383064953978553,"386":-0.11159317347516792,"387":-0.3097443535731871,"388":0.12345894556866475,"389":-0.3194166831764102,"390":0.2886000286181685,"391":0.025447587600664314,"392":0.13612182893708016,"393":-0.16943310239770346,"394":0.16707029097870524,"395":-0.22292737151499828,"396":-0.2665857194718623,"397":0.15665117188001804,"398":-0.27300652414767523,"399":0.09999589569202834,"400":-0.04762027629049866,"401":0.6833815232884525,"402":-0.12369868259633743,"403":0.2521011978806519,"404":-0.037469021028353505,"405":-0.04251345896492256,"406":-0.13215700715191964,"407":0.12743470572500018,"408":0.12919401522951296,"409":-0.2975486517368958,"410":0.19691130218308323,"411":0.059991061213299106,"412":-0.03661805638268748,"413":-0.42307165552440285,"414":0.7417891497572203,"415":-0.037351868656917975,"416":0.6555776017263928,"417":0.06521242995975231,"418":0.27400927240664935,"419":-0.28832671989753267,"420":-0.09870736850616829,"421":0.34797591199556943,"422":-0.30492315899833194,"423":0.04615899770613512,"424":0.47846516842905573,"425":0.051584994938807506,"426":-0.10197882010043297,"427":0.24150464620397336,"428":-0.13508256095024837,"429":0.15575395163508077,"430":0.5456526385763437,"431":-0.24415666828069893,"432":-0.02615289775000313,"433":0.34267490841765263,"434":0.04922188618175083,"435":-0.36829866894052815,"436":0.010739232987811851,"437":-0.07041019367039299,"438":-0.1749308969367136,"439":0.07233665146770266,"440":-0.2064331175997471,"441":0.32479962093840387,"442":0.20772533096635168,"443":0.16084332902701107,"444":0.10929312584865415,"445":0.18454536140100278,"446":0.3004246745014349,"447":0.5444046795563027,"448":2.0044617300192176,"449":0.1385833692074734,"450":-0.039410979210011986,"451":-0.4329653741121205,"452":0.11522130538916647,"453":-0.4765138792954895,"454":0.36242956056450815,"455":0.5941487160962496,"456":0.18059691715437975,"457":0.027164188340042188,"458":0.019221486360708858,"459":-0.15553853239754956,"460":-0.02843334995043441,"461":1.9641820170585709,"462":0.19410491719209838,"463":0.2448268337637723,"464":0.08546103250668775,"465":-0.0634313417872822,"466":-0.640600850427535,"467":0.23655706592079112,"468":-0.2211642444504987,"469":-0.016268429279645148,"470":0.22120494151623307,"471":-0.356825512113678,"472":-0.41171549888744585,"473":0.160980036601804,"474":1.808950791276774,"475":0.11427969326351728,"476":-0.47175909478937594,"477":-0.12421802809181763,"478":-0.22174981599433402,"479":-0.5917683553492608,"480":-0.009198593497302348,"481":-0.3229657299183217,"482":-0.11407900981645167,"483":0.6314026104973179,"484":-0.05756667965455706,"485":-0.14867252170279013,"486":0.5123847082031151,"487":-0.3842414807421856,"488":-0.36092089719219533,"489":0.061842065593451914,"490":-0.15651713306051465,"491":-0.34591281765689047,"492":-0.06691261164787587,"493":-0.359350621618277,"494":0.10222154643108076,"495":0.11612174893158585,"496":0.7058661064388277,"497":0.54011100765628,"498":-0.15677523144545458,"499":-0.06114828535861343,"500":-0.4808350900368412,"501":-0.19427771472843353,"502":-0.4932764383604015,"503":0.022130713436186004,"504":-0.357941660144996,"505":-0.09321951733788356,"506":-0.5816765006220745,"507":0.6174992028786069,"508":0.8960261696403412,"509":0.26369728878441295,"510":0.33344488753522067,"511":-0.2024934320785789,"512":0.3463932657265028,"513":-0.4260786316022141,"514":-0.10356309337945009,"515":-0.5688539068004262,"516":-0.42844876472794635,"517":0.19492277603281497,"518":-0.5880343853627273,"519":-0.6071213448958885}},{"sx":1,"sy":1,"depth":520,"w":{"0":0.06474055040419864,"1":-0.8171774760023972,"2":-0.707187333863097,"3":-0.5455785322231379,"4":-0.28160838952346406,"5":0.5903705308917422,"6":-0.7347256939383426,"7":0.22276216281307606,"8":-1.070218258686438,"9":0.7909690347524791,"10":0.16084787112681398,"11":0.1765871624738954,"12":0.20395427640264313,"13":-0.30834618929310054,"14":0.44271056476857495,"15":-0.22641956986487707,"16":-0.38802638321533023,"17":0.2713031917379058,"18":0.17656531512298473,"19":-0.35009066113085163,"20":0.07589735609195326,"21":-0.9818793598698901,"22":0.5153960879331405,"23":0.05090143032529598,"24":0.14773588442787638,"25":-0.07703417259363864,"26":-0.2708841491666824,"27":-0.12776695328682414,"28":0.36153121874628796,"29":-0.11322624725198868,"30":0.42073616396795377,"31":-0.24139487711720373,"32":-0.1527824453884179,"33":-0.30783090210745945,"34":-0.3562136451899454,"35":-0.17912159128045377,"36":0.04427817528529913,"37":0.5505214047480557,"38":-0.09478259768774953,"39":-0.3753857561348243,"40":-0.23960374940690232,"41":0.20481228278777186,"42":0.18301424178663034,"43":0.7001205673029383,"44":-0.19768258379554352,"45":0.9327703333262376,"46":0.1858929675737147,"47":-0.2446476840514758,"48":-0.29582951520272976,"49":-0.45585061933540194,"50":0.17875616322345098,"51":-0.11831477311886944,"52":-0.872788155565874,"53":-0.39451130245849925,"54":-0.36918127127125,"55":-0.2815606980877386,"56":-0.1387028160840795,"57":0.23934719011755748,"58":0.7246498792403984,"59":0.26077328173792935,"60":-0.30378262108526716,"61":-0.24073512636133038,"62":-0.2863790998408318,"63":0.14265139055941098,"64":-0.09615325701351013,"65":-0.22281336617826378,"66":-0.35082431770754074,"67":-0.8527996824038558,"68":0.0046689564865399465,"69":-0.25547755384171905,"70":0.10564617350312477,"71":0.3599362798413567,"72":0.22668123385766475,"73":-0.5907325930084147,"74":-0.5545088417411939,"75":-0.4267605822029108,"76":0.3358091866697907,"77":0.27836277337265414,"78":-0.5833621971152254,"79":-0.5100906191161877,"80":-0.11679382840608289,"81":-0.5003049138726494,"82":-0.044985426766441884,"83":0.00817456600157674,"84":0.3449757864103141,"85":0.45632289957802835,"86":-0.3718271428117783,"87":-0.3500535460896071,"88":-0.37374178098947497,"89":-0.17545601375075728,"90":0.055611110571991945,"91":-0.5845607788772088,"92":0.23182836760875986,"93":0.08038628659864776,"94":-0.17402734214584853,"95":0.5772904478122799,"96":0.03696306030261411,"97":0.5752995945670482,"98":-0.2018082285072578,"99":0.04942224572777891,"100":-0.02385850579694468,"101":-0.1844222407382692,"102":-0.26990482684178096,"103":-0.06485484798441021,"104":0.10258538702278958,"105":0.27893165043689877,"106":-0.6591953881734127,"107":-0.21246098912023548,"108":0.6041507278498329,"109":0.11137991477894463,"110":1.5782661681270729,"111":0.6198415115921251,"112":0.21849091835042733,"113":-0.6416594811199098,"114":-0.3324983697616795,"115":-0.6151281981829714,"116":-0.11619106216173396,"117":-0.19775310601437063,"118":0.2675036851335274,"119":-0.22979025283017693,"120":0.352415558051387,"121":0.5046266594954122,"122":0.8604272362974994,"123":0.9879387578024782,"124":0.6592328011175959,"125":0.36917369451308557,"126":-0.1980948805031121,"127":0.022583570894425704,"128":-0.6614101026239304,"129":-0.13074485280715334,"130":-0.36108475718567884,"131":0.26552423520660895,"132":-0.8943707403090081,"133":-0.0023697575408348523,"134":-0.02605763110993187,"135":0.3067684144135951,"136":0.7709844797099389,"137":0.3700331635237038,"138":0.2080472827564491,"139":0.09501174978208196,"140":0.3935184025947985,"141":-0.3813735421849478,"142":-0.01902572199472686,"143":-0.7969775000899466,"144":1.0718783660502191,"145":-0.8239851645811112,"146":-0.6254607722650599,"147":0.5626835166887395,"148":0.3583517682169948,"149":0.9101128390406439,"150":0.279568112043112,"151":0.10481798033105158,"152":0.26569017287054597,"153":0.3565882567085231,"154":-0.32022532573272583,"155":0.0569408532359944,"156":0.23908002210477233,"157":0.037106192736821406,"158":-0.07365467623208301,"159":0.09469812746639807,"160":0.3353557272788911,"161":0.8534685461174355,"162":-0.19982674625539643,"163":-0.42297573185604714,"164":-0.2170482020024302,"165":0.18282208818686763,"166":0.07465411228856082,"167":-0.384874368902492,"168":0.03826975253605752,"169":-0.25552639855633663,"170":-0.1882519278839803,"171":-0.39780787643327997,"172":0.18499573322362028,"173":0.0566728932417528,"174":0.8737275110375822,"175":0.22210028502492316,"176":0.07606226109535302,"177":-0.13409685356339546,"178":-0.05704967326551555,"179":-0.39290323154081025,"180":-0.20033778851410036,"181":-0.023529259898394113,"182":-0.5890166095501146,"183":-0.1511255640423408,"184":-0.38843666909290087,"185":0.06331912197076876,"186":0.3039720358896059,"187":0.8722641226159848,"188":0.6972661663928176,"189":0.3714480745253693,"190":0.31375959754547167,"191":-0.390782761140894,"192":-0.20178131573602534,"193":-0.3490168759085663,"194":-0.007596640719493087,"195":-0.15010855094017544,"196":-1.1185853660574698,"197":-1.5167560921506844,"198":0.3031256499441556,"199":0.2541233449670536,"200":0.8523948274702112,"201":0.982637273382203,"202":-0.27941667635882966,"203":0.08067490929728827,"204":-0.2347659919722313,"205":-0.1636396483998952,"206":-0.541530133160379,"207":-0.04328619409333214,"208":-0.3979815406580112,"209":-0.23925799933790187,"210":-0.8393518378613438,"211":0.3287468260347285,"212":0.7861740069883636,"213":0.559795573548293,"214":0.838487691302293,"215":0.028744524800234546,"216":0.017576595908911266,"217":-0.0982999901412608,"218":0.3087086734838779,"219":-0.4340506072512562,"220":-0.053985149433274184,"221":-0.5132161164080091,"222":0.1445935493123952,"223":-0.5375321514339918,"224":-0.018104114188772835,"225":0.39379429655969633,"226":0.3388006474344381,"227":-0.1037227772971232,"228":0.24115150443276703,"229":0.21772297903074458,"230":0.07577991705269291,"231":-0.07243278703921706,"232":-0.33344517143820246,"233":-0.17048409206475693,"234":-0.06497308500644652,"235":-0.41646054692520773,"236":-0.40719039841697663,"237":0.4638759039102038,"238":0.5244509678448595,"239":0.8091936805507315,"240":0.32406675169538124,"241":-0.5094396734693281,"242":0.20294688752999374,"243":0.14409237280627107,"244":-0.17659776138857586,"245":-0.04467695904045,"246":-0.20094333964955657,"247":-0.17569410441894406,"248":-0.3993228763931703,"249":0.29763024212796696,"250":0.2013139349588747,"251":0.03431810785292763,"252":0.6902357043115258,"253":0.17877915899593713,"254":-0.9566444097983372,"255":0.27566833885036446,"256":0.4644305264432969,"257":-0.17776898092943608,"258":-0.4300900149601236,"259":-0.11791662303889303,"260":-0.286079355911791,"261":-0.3722981064787743,"262":0.29097666979352577,"263":-0.2135383348062177,"264":0.05372450563278469,"265":0.8499557468444047,"266":0.9082034419467861,"267":-0.6560361024020698,"268":0.4527080900142942,"269":0.22953589075646372,"270":-0.7352647300955619,"271":-0.4971600060404647,"272":0.0292808400705363,"273":0.2047442061553043,"274":-0.25733047543195997,"275":-0.15846076925047387,"276":-0.07276990421874947,"277":0.7707993012496704,"278":1.4103228848972897,"279":0.5178564348266111,"280":-0.556774947589953,"281":0.06799821336232388,"282":0.08196279397071694,"283":-0.04674760221716135,"284":-0.41902490032574335,"285":0.0298847506489177,"286":-0.2589135439541713,"287":0.09495880528991149,"288":-0.10962583743463933,"289":0.27645608238926056,"290":0.48911067563699356,"291":1.26331398984607,"292":0.03316928540797032,"293":-0.347518076272098,"294":0.007536508234976226,"295":0.44520840930695094,"296":-0.08000658598632954,"297":-0.39096071562001805,"298":0.037746444043962955,"299":0.32942401746711186,"300":0.20952808497182854,"301":-0.48441646884441636,"302":-0.474868310348411,"303":-0.5658033742104245,"304":0.6662437507631918,"305":-0.0468019696469096,"306":-0.4141046178626092,"307":-0.25488471775070776,"308":0.40928523160619923,"309":-0.27816685976507244,"310":-0.7011447109084904,"311":-0.057083605787994145,"312":0.8970402644861571,"313":-0.7011437330612468,"314":-0.2813278467555204,"315":0.47744035670980717,"316":0.037596897839460464,"317":1.3553230371423937,"318":-0.22414095587654984,"319":-0.6179291652038175,"320":0.019629545648601896,"321":0.914121293162911,"322":-0.011909329450799625,"323":-0.6424281103895279,"324":0.022553093907411274,"325":0.3557296925649115,"326":-0.02170718554756115,"327":-0.022561161542618606,"328":0.08217986509726591,"329":0.0342480845372472,"330":1.2719167977973131,"331":0.2787709531425445,"332":-0.7560828916642509,"333":0.3099879072965147,"334":0.5352999537890775,"335":0.12173963991784748,"336":-0.7549433342594749,"337":-0.10051921897468462,"338":0.18174515691298468,"339":0.19451463731952265,"340":0.09293953598958396,"341":-0.09255615290720609,"342":-0.08978743096969016,"343":0.04132843614878428,"344":0.19105478385686187,"345":-0.8280759907570352,"346":-0.15877204711706078,"347":0.187166624202472,"348":0.3480263172278184,"349":-1.0991087877695678,"350":-0.08088764731450065,"351":-0.0578416324619329,"352":0.15339010683894977,"353":0.03272988979419297,"354":-0.5167432316057409,"355":0.567493332727193,"356":0.6185448141388477,"357":-1.1583487939169304,"358":-1.0180495399991678,"359":-0.3134047101336646,"360":-0.26560882615155185,"361":0.46479487095555944,"362":-0.3338318613779963,"363":0.06691771791926397,"364":-0.14378823756505726,"365":-0.07948358624083199,"366":-0.19714560949993892,"367":-0.45584161274767904,"368":0.5093207785820956,"369":0.9692070086174099,"370":-1.2106395944879793,"371":-1.0640731186757906,"372":-0.26762746320777114,"373":-0.2873216289520951,"374":0.05306289531564688,"375":-0.13963395907086024,"376":-0.01824855809769845,"377":-0.25353110559050307,"378":0.06987476394181844,"379":0.20016985798423997,"380":-0.40124577675457807,"381":-0.014975986669122188,"382":0.4823404188834622,"383":-1.3337712357666656,"384":-1.1576644552523103,"385":-0.6170116303799393,"386":-0.03383852716927099,"387":0.315898352618408,"388":-0.32444383476502536,"389":0.21221658950276137,"390":0.5904505893498445,"391":-0.5788783182178633,"392":-0.04770077989814997,"393":-0.6891101673434236,"394":-0.04557220429978578,"395":0.5047103872249759,"396":0.04761628132069267,"397":-0.8408398796461171,"398":-0.23602105694133907,"399":0.18962720067189323,"400":-0.46077860951831806,"401":0.22517165441800424,"402":0.05820254011663253,"403":0.6760792458236472,"404":-0.5973466730747513,"405":0.16168305087185755,"406":0.16578935396673258,"407":0.198185408104077,"408":0.4460844711873749,"409":0.006359212927932427,"410":-0.3280073037440613,"411":0.2141324741362552,"412":0.21551375299157682,"413":-0.037871431760291584,"414":0.06881948556602503,"415":0.06567481399170204,"416":-0.45324919119004164,"417":-0.23960701169090104,"418":-0.2884644932522087,"419":-0.130497033414909,"420":-0.07141995105310216,"421":0.3850110421205406,"422":0.015218322751683593,"423":-0.35493397322344533,"424":0.3697196756602667,"425":-0.04455561999113275,"426":-0.06434499322493661,"427":0.05202146599946188,"428":0.148942688070915,"429":0.13628471193970515,"430":-0.6284168395735309,"431":0.2093511390773657,"432":-0.16756000759501777,"433":0.5514592950577001,"434":1.0572844082325583,"435":0.036752786673437204,"436":-0.48441335914644607,"437":0.17027073487231317,"438":0.22535819372131638,"439":0.014758699069795742,"440":0.21931349790185817,"441":0.20777011879359233,"442":0.26336226068217145,"443":-0.07288022229071495,"444":0.2466223872103803,"445":0.045978255010951055,"446":0.37202365087519007,"447":0.7370438567124391,"448":-1.5236675455564148,"449":-0.3974454274419627,"450":-0.19887573513234555,"451":-0.24478822870942146,"452":0.10230372570106035,"453":-0.3173986060766917,"454":0.09105078246153651,"455":-0.04665767822619547,"456":-0.21077735050499607,"457":-0.4337342173029999,"458":0.008456852105744648,"459":-0.30092297553488984,"460":0.49327347214685763,"461":-1.5744643772190579,"462":-0.07444678308932486,"463":-0.8069933325301126,"464":0.03102061682181843,"465":-0.18888405256870439,"466":0.23734128011332994,"467":-0.03571695602767045,"468":-0.13126086864353675,"469":-0.5344356314833626,"470":0.08448342023245453,"471":0.5537857940721965,"472":0.06119870303006279,"473":0.2596900952474333,"474":-1.5415920663300546,"475":0.22633843764899106,"476":-0.2855562256451311,"477":0.09360677663195036,"478":-0.1430621915633036,"479":0.23750696375609556,"480":0.2052990018403784,"481":0.11648721278554007,"482":-0.3659641185394667,"483":-0.12640751758194937,"484":0.3144498789309274,"485":0.0027407203084803137,"486":0.5485393967472212,"487":-0.673787744492655,"488":0.14523191654962941,"489":0.5651825385791165,"490":-0.11389885125634107,"491":-0.4290301385741799,"492":0.602066598967943,"493":0.22635205281948237,"494":-0.2657664261299727,"495":-0.00741066776738713,"496":-0.2298163764090315,"497":0.5433379624330325,"498":0.285523379561356,"499":0.6270622143303128,"500":-0.33864082654893424,"501":-0.10432240258979837,"502":0.23293106776637384,"503":-0.20855488915582943,"504":-0.04336554629598589,"505":0.2434300287763088,"506":-0.08010704211986744,"507":0.21222530169778336,"508":-0.03564137756749554,"509":-0.31027768402840256,"510":0.16491709813013286,"511":-0.4932672851914807,"512":0.26359263250848813,"513":-0.24791412949850986,"514":-0.06640758613720493,"515":0.07961058812004013,"516":0.07007154118079313,"517":-0.16544181882547795,"518":-0.12561408286619702,"519":-0.13474993223782677}},{"sx":1,"sy":1,"depth":520,"w":{"0":-0.4303065669476355,"1":-0.39748789185589006,"2":-0.2474510149312096,"3":-0.15106074695912033,"4":-0.24208243958309883,"5":-0.43681483166679697,"6":-0.2252132445992569,"7":-0.5348938579442023,"8":0.060399595215048944,"9":-0.21300846237515636,"10":-0.16079217353018055,"11":-0.46393852662107615,"12":-0.10080854275776056,"13":-0.10467904127288152,"14":-0.3661927776202933,"15":0.13076863133162317,"16":-0.033455358390100366,"17":-0.13535490824964824,"18":0.4498559390670514,"19":0.1746061160725464,"20":-0.5257598785251656,"21":-0.0978405772842668,"22":0.24498369420017638,"23":-0.09419137222061164,"24":-0.19510606444549494,"25":-0.008056306715645613,"26":-0.22256734913031098,"27":0.12543752638652314,"28":0.03063998260444338,"29":-0.5399116364238068,"30":-0.5424099758441211,"31":-0.011195043553299403,"32":0.4148075504218896,"33":0.20874951162426458,"34":-0.1217919755023899,"35":-0.2723064412847167,"36":-0.1610414805638629,"37":-0.7422637489079824,"38":0.19792468421897885,"39":-0.09569793968849506,"40":0.11385223168302441,"41":0.30199474869584564,"42":-0.6686006474359676,"43":-0.2118830009266429,"44":0.24555531675219644,"45":-0.09782145356936388,"46":0.011053862557220311,"47":-0.27243780066484763,"48":0.006796040287222769,"49":-0.13139576697039268,"50":-0.2743630528360103,"51":-0.042069908417028075,"52":-0.0609578297925506,"53":-0.19844538806743173,"54":-0.2998267291297015,"55":-0.2856315724923555,"56":0.04206483229192199,"57":0.46586122051251727,"58":0.45288332807451637,"59":0.18939371310859923,"60":-0.2507582189783435,"61":0.2945909224078143,"62":-0.20421285902334813,"63":-0.09525833434650835,"64":-0.36330343187787195,"65":0.3396793253387877,"66":-0.9277132026141119,"67":0.25989526621506576,"68":-0.2299536814520525,"69":-0.5371203072063289,"70":0.1262182341567852,"71":0.0875301923036061,"72":0.1813996041228105,"73":0.16946258198630382,"74":-0.22477966404934835,"75":-0.4075257662342561,"76":-0.39019733209831325,"77":-0.3302661907986055,"78":0.5509773500864614,"79":-1.5982298867025941,"80":-0.08538696426459942,"81":-0.16985445005560085,"82":-0.2526474859645189,"83":0.8462040904383754,"84":0.35668503234315324,"85":0.23353948886748382,"86":-0.15079594743618704,"87":-0.12879622809446356,"88":-0.28738478173372906,"89":0.16735208357231077,"90":-0.28610252278584236,"91":0.4197966190744795,"92":-1.1217604880832743,"93":1.0560710016486858,"94":-0.18335488173813613,"95":-0.6635188606811333,"96":0.6133167764809122,"97":1.1221308637030523,"98":0.30446123556474675,"99":-0.13959204711394882,"100":-0.10268196120344382,"101":-0.4139600741496048,"102":-0.1322409295420679,"103":-0.20335300635783624,"104":0.8178159358183038,"105":-0.11969907222267982,"106":0.4970496668468164,"107":0.11577701290466107,"108":-0.42418557503377463,"109":0.11748814933448319,"110":0.9397338829620475,"111":0.253290501456692,"112":0.2531759964679532,"113":-0.23407749871056935,"114":-0.6317365099879714,"115":-0.4696883133029858,"116":0.0050314095253159346,"117":0.7141813504217678,"118":-0.08327424166741858,"119":0.24812794882474526,"120":0.10599269012822957,"121":-0.4820608153222138,"122":0.11565372116726916,"123":0.8192512673226136,"124":1.0796614016243624,"125":-0.37884139496774266,"126":-0.08375808102253136,"127":-0.19320375126952882,"128":-0.2699442173739627,"129":-0.06661056574913951,"130":0.2907965570387818,"131":0.37843809735035544,"132":-0.07151894503436294,"133":-0.35807885361390585,"134":-0.8244702442562815,"135":0.03142970398898844,"136":1.2185349964671868,"137":0.08379351833039475,"138":0.503657651482739,"139":-0.13800318603597575,"140":-0.050587279139658506,"141":-0.247209375309301,"142":-0.13606961939123208,"143":0.6251165872424133,"144":0.3789763945602281,"145":-0.6424790482986462,"146":-0.8746900336431949,"147":-0.4650939901715291,"148":-0.2243963372277795,"149":-0.18197919830263387,"150":0.11108184208262317,"151":0.4303896396926108,"152":-0.1665307939325109,"153":-0.05558741820203713,"154":-0.10778469312646985,"155":0.06335073448641751,"156":0.4226823826151153,"157":-0.1966094010425977,"158":-0.3453602659571045,"159":-1.1008259175832373,"160":-0.36117409371083675,"161":0.1607674020370394,"162":0.9382977165427384,"163":0.2786413787625494,"164":0.3964405560320907,"165":-0.3681795260420379,"166":-0.13779240856280522,"167":0.08673724889653818,"168":0.005300522655085517,"169":0.3327102986682126,"170":-0.17833286356823724,"171":0.008160166872386609,"172":-0.624411595974531,"173":-0.3194822815955411,"174":0.12569430723656125,"175":0.925666116691233,"176":0.009308501707883306,"177":0.451237707292294,"178":-0.3676355031576672,"179":-0.24013406473635507,"180":-0.2773017947793515,"181":0.10777818464656114,"182":0.6881209931084621,"183":-0.06759419208924683,"184":0.33378542919651966,"185":-0.5065636542867414,"186":-0.09787948559017046,"187":-0.05584859953249438,"188":0.07354667576098857,"189":0.6047931280717074,"190":0.28142341065946297,"191":-0.3345284685080944,"192":-0.28501843321512477,"193":-0.17017905531434152,"194":0.04046607771042575,"195":0.12318743647491412,"196":0.10750985056083873,"197":-0.07410560848915733,"198":-0.3258701832431845,"199":-0.261970052334744,"200":0.32780899009355136,"201":0.6169137795082157,"202":0.6492417005488954,"203":0.0973756550767422,"204":-0.2883361429623884,"205":-0.34024045940677955,"206":-0.24757524379435553,"207":-0.020055052974424455,"208":0.493211750212615,"209":0.2872673291660346,"210":0.122872122494555,"211":-0.4733949530729349,"212":-1.041961119172264,"213":0.7233796968859515,"214":1.5826944535631404,"215":0.513453519333822,"216":-0.14945241652844732,"217":-0.2342317605832007,"218":-0.4226623121453776,"219":-0.23731022924501843,"220":0.0046800311921259725,"221":0.364193928873894,"222":0.6059587239431891,"223":0.29164473856147405,"224":-0.4003411727559443,"225":0.03114934070929928,"226":0.6333990466030007,"227":0.8314705563238642,"228":0.9894823367483866,"229":0.26749548099826015,"230":0.12085817041581041,"231":-0.15586262003354157,"232":0.1003287883692227,"233":-0.026376126930912437,"234":0.08477149770718123,"235":0.5015785998513541,"236":-0.5653030645671312,"237":-0.43211095898175256,"238":-0.23893947842864102,"239":0.4627562894331847,"240":0.7403445063733913,"241":0.7526534619196148,"242":0.06700983419645061,"243":-0.4605173619535651,"244":-0.1816088886121405,"245":-0.08898071723874748,"246":-0.20401228131508167,"247":0.18115499356408296,"248":0.07513684812469361,"249":-0.4341289852592679,"250":0.5258256731255947,"251":-0.084285644993604,"252":0.48191576468271863,"253":0.7580483389786481,"254":0.3992597481722167,"255":0.22872508072650172,"256":-0.22288119857245112,"257":-0.313624197346148,"258":-0.22829489046043078,"259":-0.11958527844395632,"260":0.4387677045974582,"261":-0.847431100220407,"262":0.18552227772851596,"263":0.09899937340475332,"264":0.4335135121081803,"265":0.5333396573705146,"266":-0.6111878842048922,"267":0.8293579285706402,"268":0.08960641759771368,"269":-0.3598336556352055,"270":0.38264975113327426,"271":-0.2581442851861697,"272":-0.14754140800630663,"273":-0.1577535050972708,"274":0.004455902402692714,"275":-0.20817366750419095,"276":-0.37653084171299483,"277":0.11709840931138506,"278":0.70091734236692,"279":0.15100476814308694,"280":0.3758814962193919,"281":-0.24055185813114788,"282":-0.5602321701083991,"283":0.2667050454869533,"284":-0.3871592256200066,"285":-0.17787294001383505,"286":0.15718914180252927,"287":-0.1068065254809942,"288":0.6442067971359539,"289":0.11966861420247839,"290":0.4146984364120116,"291":0.23940056929680076,"292":0.45143553688117144,"293":0.8936040031735227,"294":-0.410639315192299,"295":-0.2038404892809078,"296":0.14484899622946334,"297":-0.251320808647902,"298":-0.04418547472982113,"299":-0.16379140359408859,"300":-0.2773999237202655,"301":0.055806416891806016,"302":-0.19922742124804624,"303":0.18166656799110165,"304":0.31136548197363484,"305":1.4524842044277433,"306":0.7353146422760629,"307":-0.2461526628020195,"308":-0.20320032333479274,"309":-0.030841259793299318,"310":0.024088757527295404,"311":0.06544177404673039,"312":-0.1724730349877482,"313":-0.40645994213447767,"314":-0.5179609758733881,"315":0.16007061190587157,"316":0.0625912845901926,"317":0.6256112418053259,"318":1.1022914344077683,"319":0.8895659238214976,"320":-0.24035106582931587,"321":-0.3553012367140643,"322":-0.437969612612689,"323":0.08495646729367197,"324":-0.018825544801402763,"325":0.17618821157832198,"326":-0.7135676643063972,"327":-0.23425528581333666,"328":-0.03849242154886649,"329":0.3385227861820365,"330":0.2695536556993725,"331":0.6845290151856563,"332":0.18482188405672,"333":-0.35320664478052194,"334":-0.2765632282994615,"335":-0.16478119589665324,"336":-0.22488604163388043,"337":-0.05017689872920467,"338":-0.3011590683773572,"339":-0.21743753555463066,"340":-0.056571837439583744,"341":-0.18852779208893808,"342":-0.053799103381856256,"343":0.39749396871782283,"344":0.9409914180403542,"345":0.11025135032526759,"346":-0.2564813555139099,"347":0.019617961096062946,"348":0.10696591803331888,"349":-0.15711295469945047,"350":0.04479148164793336,"351":-0.30977940748306315,"352":0.343626416844351,"353":0.14709201043113848,"354":0.03468362276016981,"355":0.8388553321842608,"356":0.7540476200021926,"357":-0.6282145599709941,"358":0.18333568462659156,"359":-0.5878419083075433,"360":0.04437283700210823,"361":-0.02211589899141879,"362":-0.23208004720182485,"363":0.01842384684741532,"364":-0.4317837071187481,"365":0.1611105461674038,"366":-0.011275547095167425,"367":0.24527224002207337,"368":0.1991587693711717,"369":0.6061935157012386,"370":-1.2342487786016838,"371":0.24092128791792056,"372":-0.5828419224444519,"373":-0.21599539891894567,"374":0.13384318003295873,"375":-0.20020558756785295,"376":-0.018467003349765535,"377":-0.4314511602570055,"378":-0.11418843535250464,"379":-0.00659387432980243,"380":0.339995751588569,"381":0.24204333427815927,"382":1.1434026538224615,"383":-1.3212083405580557,"384":-0.39179476267068924,"385":-0.3640605308340099,"386":-0.10689867101280084,"387":-0.13902896371387785,"388":0.5726123837821201,"389":0.18231269505758724,"390":-0.16617433832236292,"391":-0.11156529619634677,"392":-0.4750441560829177,"393":-0.08817414426670689,"394":0.27737629288594196,"395":0.8211661575527038,"396":0.1542432884735647,"397":-0.36711830896358194,"398":-0.6900938542870313,"399":-0.3663634201229282,"400":-0.1121181871338714,"401":0.33400487598501266,"402":-0.038584267016139304,"403":0.20836808330865508,"404":-0.051239699274511934,"405":-0.45885110446751765,"406":-0.500620906026071,"407":-0.0023843242401590326,"408":0.31963206745036854,"409":0.1868389746515845,"410":-0.10558926851423481,"411":-0.2316895679593908,"412":-0.6417990502118698,"413":-0.019026464161871266,"414":0.27758090655411904,"415":-0.07108341466511496,"416":-0.35426339231055165,"417":0.3213267517437383,"418":0.04285066759803943,"419":-0.1483951387699454,"420":0.8406638298762802,"421":0.6723311934126772,"422":0.07531926387309341,"423":-0.1671300287083094,"424":-0.12224198455533775,"425":-0.08485267922235293,"426":0.15654371622961627,"427":0.10731562599239552,"428":0.024463461838659033,"429":-0.6512774528801416,"430":0.15141278128358765,"431":-0.38157889105122983,"432":0.0782445656827138,"433":0.24337294086270084,"434":1.0198661749600084,"435":0.06508910529861281,"436":-0.14081649944810035,"437":-0.35192714106253914,"438":-0.01158469878281212,"439":0.3197339644220561,"440":-0.28920771387804783,"441":-0.035127954730930305,"442":-0.34539672676022803,"443":0.6134585725475851,"444":0.3985414069776562,"445":0.5032993198987652,"446":0.25012375883355253,"447":0.3630588861388275,"448":-1.651129786149293,"449":-0.9577823006186045,"450":-0.22805319753016645,"451":-0.12112549692085993,"452":0.2959866440439474,"453":-0.16121060030934958,"454":0.10143338214537874,"455":0.013401106935998018,"456":0.43658625503374143,"457":0.6007925825873505,"458":0.40623425747373626,"459":0.3381758252224929,"460":-0.019377580320192184,"461":-1.660897866998468,"462":-0.8789190162982693,"463":-0.5284590851372158,"464":-0.2051017418657817,"465":0.3965277311664829,"466":0.08736037289876403,"467":-0.18795378662252685,"468":-0.2341239727205683,"469":0.7264868566772171,"470":0.39344638395867687,"471":-0.14262389587838759,"472":0.2548826096870117,"473":-0.42661015024093246,"474":-1.6328172453882421,"475":-0.47379835780407387,"476":-0.005881591100121406,"477":0.01794052004844208,"478":-0.10121534908806919,"479":-0.2610931195906303,"480":0.21453899709704546,"481":0.09882398576633107,"482":-0.08149856557141955,"483":0.14860097744663958,"484":-0.06986223231910448,"485":0.2884204387235703,"486":-0.20700155278990018,"487":0.6197218975099006,"488":-0.8862834324908659,"489":-0.2374767926668368,"490":-0.38019111530772104,"491":-0.06562593338347156,"492":-0.5060767253727037,"493":0.009395348304313197,"494":-0.23655667449022527,"495":0.29132219846224566,"496":-0.2845671319463464,"497":-0.0484102391513671,"498":-0.11828588876476953,"499":0.1536899213675423,"500":0.09318916204214134,"501":-0.239128851294441,"502":-0.5481424838122401,"503":-0.4931472239481411,"504":0.036165468462722464,"505":-0.2752667494310215,"506":0.03531217057559908,"507":-0.09353660235395198,"508":0.23400847025636198,"509":-0.3584343078794608,"510":0.08218810139968363,"511":-0.22058715366809728,"512":0.41474099179032275,"513":-0.1933603540161103,"514":-0.43065885638332857,"515":-0.7210516907910075,"516":-0.11637705839922068,"517":-0.2466795484484906,"518":-0.3845704068962925,"519":0.0029267586812357412}},{"sx":1,"sy":1,"depth":520,"w":{"0":-0.07794901257273443,"1":0.22777163037604378,"2":0.28847060238801353,"3":0.0718904769669465,"4":0.0448998411049322,"5":-0.09777872850493133,"6":-0.09533700543433236,"7":0.09185428641867838,"8":0.12225715480097184,"9":0.00697170849159593,"10":0.04816859689269699,"11":-0.1223667740777598,"12":0.003522849081742335,"13":-0.06875814474748569,"14":0.14125929796554862,"15":0.025378117201285955,"16":0.06346346986888843,"17":0.06070897894652547,"18":-0.07489937982715567,"19":-0.017704392377718047,"20":-0.05673993983713326,"21":0.023980141628492886,"22":-0.0037664197991052126,"23":0.13976980077391996,"24":0.03502992636759666,"25":-0.11862595136943208,"26":-0.0521827815536895,"27":0.08407434626902362,"28":0.1587788826099674,"29":0.10282463581183705,"30":0.08622019039753447,"31":-0.08536883186338907,"32":0.0016155211735200531,"33":-0.1504100460512324,