//<![CDATA[

// a few things don't have var in front of them - they update already existing variables the game needs
lanesSide = 6;
patchesAhead = 30;
patchesBehind = 10;
trainIterations = 150000;

// the number of other autonomous vehicles controlled by your network
otherAgents = 10; // max of 10

var num_inputs = (lanesSide * 2 + 1) * (patchesAhead + patchesBehind);
var num_actions = 5;
var temporal_window = 0;
var network_size = num_inputs * temporal_window + num_actions * temporal_window + num_inputs;

var layer_defs = [];
    layer_defs.push({
    type: 'input',
    out_sx: 1,
    out_sy: 1,
    out_depth: network_size
});
layer_defs.push({
    type: 'fc',
    num_neurons: 32,
    activation: 'tanh'
});
layer_defs.push({
    type: 'fc',
    num_neurons: 24,
    activation: 'tanh'
});
layer_defs.push({
    type: 'fc',
    num_neurons: 16,
    activation: 'tanh'
});
layer_defs.push({
    type: 'fc',
    num_neurons: 16,
    activation: 'tanh'
});
layer_defs.push({
    type: 'fc',
    num_neurons: 32,
    activation: 'tanh'
});
layer_defs.push({
    type: 'regression',
    num_neurons: num_actions
});

var tdtrainer_options = {
    method: 'sgd',
    learning_rate: 0.01,
    momentum: 0.001,
    batch_size: 192,
    l2_decay: 0.001
};

var opt = {};
opt.temporal_window = temporal_window;
opt.experience_size = 30000;
opt.start_learn_threshold = 500;
opt.gamma = 0.98;
opt.learning_steps_total = 150000;
opt.learning_steps_burnin = 500;
opt.epsilon_min = 0.01;
opt.epsilon_test_time = 0.0;
opt.layer_defs = layer_defs;
opt.tdtrainer_options = tdtrainer_options;

brain = new deepqlearn.Brain(num_inputs, num_actions, opt);

// CUSTOM_VARS_BEGIN
var gen_name = 'genP-V5';
var count = 0;
var eval = false;
var save_checkpoint = 250;
var noSaveCheckpoint = false;
var eval_start = 2000;
var target_mph = 67.00;
// CUSTOM_VARS_END

learn = function (state, lastReward) {
    brain.backward(lastReward);
    var action = brain.forward(state);

// CUSTOM_CODE_BEGIN
function getFixedData() {
    var data = editor.getValue() + "\n/*###########*/\n";
    data = data.replace("otherAgents = 0","otherAgents = 10");
    if (brain) {
        data += "if (brain) {\nbrain.value_net.fromJSON(" + JSON.stringify(brain.value_net.toJSON()) + ");\n}";
    }
    return data;
}

downloadNamedCode = function (thisName, forward_passes, data) {
    var blob = new Blob([data], {type: 'text/plain'});
    var url = URL.createObjectURL(blob);
    var blobAnchor = document.getElementById("blobDownload");
    blobAnchor.download = "net-" + gen_name + '-' + forward_passes + '-' + thisName + ".js";
    blobAnchor.href = url;
    blobAnchor.click();
}

if (typeof(count) != "undefined") {
    if(brain.forward_passes >= eval_start) {
        if(brain.learning == false) {
            count = count + 1
            if(count >= save_checkpoint) {
                if(brain.forward_passes > 0){
                    if(eval === false && self.document !== undefined) {
                        thisData = getFixedData();
                        var myWorker = new Worker("eval_webworker.js");
                        eval = true;
                        myWorker.onmessage = function (e) {
                            if (typeof e.data.percent != 'undefined') {
                                // do nothing / placeholder
                            }
                            if (typeof e.data.mph != 'undefined') {
                                console.log('Eval complete - ' + e.data.mph);
                                if(e.data.mph >= target_mph) {
                                    console.log('Saving checkpoint at ' + brain.forward_passes);
                                    downloadNamedCode(e.data.mph, brain.forward_passes, thisData);
                                }
                                eval = false;
                            }
                        };
                        myWorker.postMessage(getData());
                    }
                }
                count = 0;
            }
        }
    }
}
// CUSTOM_CODE_END

    draw_net();
    draw_stats();
    return action;
}

//]]>
/*###########*/
if (brain) {
brain.value_net.fromJSON({"layers":[{"out_depth":520,"out_sx":1,"out_sy":1,"layer_type":"input"},{"out_depth":32,"out_sx":1,"out_sy":1,"layer_type":"fc","num_inputs":520,"l1_decay_mul":0,"l2_decay_mul":1,"filters":[{"sx":1,"sy":1,"depth":520,"w":{"0":0.07184921181937927,"1":-0.4035844178978116,"2":-0.24827954670294203,"3":-0.4898376700654909,"4":-0.16833196287366006,"5":-0.125694553530363,"6":-0.23299961425929003,"7":0.09897390813889302,"8":-0.4820685846920441,"9":0.08070835210943557,"10":0.1697262079348606,"11":0.1062721123593369,"12":-0.08480351008201381,"13":0.028162390192985016,"14":-0.35968596715363604,"15":0.08895105001042215,"16":0.09991764129182322,"17":-0.0781224348132779,"18":-0.40758748139869816,"19":0.242383003625317,"20":0.23995023643214158,"21":-0.13940408919230865,"22":-0.17115761672556135,"23":0.40854749362182347,"24":0.13337245067032188,"25":-0.06076153210291983,"26":-0.3384596821788796,"27":-0.1410952006021998,"28":0.3382096531593281,"29":-0.006926959658454398,"30":-0.1451241805732081,"31":-0.2060517073492331,"32":0.2748925562959569,"33":0.11466100229570576,"34":0.17615293433003956,"35":-0.03765141919462526,"36":0.4931656228972612,"37":0.2252150042344156,"38":-0.018695270977053917,"39":-0.20623279759628252,"40":0.1312998570382367,"41":0.3632718981783422,"42":0.01889954895528972,"43":-0.1256193259522369,"44":-0.17993971171365325,"45":0.26052973174599603,"46":0.35296701919827794,"47":0.14061703985799875,"48":0.4223000066183025,"49":0.43816516772760467,"50":0.018004838421275374,"51":-0.07119319586286763,"52":-0.3813288403513567,"53":0.1982225885885455,"54":0.17923657113131822,"55":0.20775139815026988,"56":-0.04061835284319554,"57":-0.28957393544655896,"58":0.19492308599589725,"59":0.04631935342573228,"60":0.4481481300162037,"61":0.36444808808466433,"62":0.4235224970454825,"63":0.026272702158152146,"64":-0.01001257012885956,"65":-0.35441366541944075,"66":0.09165560318946352,"67":0.05474818380438638,"68":-0.12489216501907573,"69":0.4763153164587802,"70":0.2085113225604632,"71":-0.30442091928251996,"72":0.2140205132757475,"73":0.5264234242914664,"74":0.4045229502870204,"75":0.4659411893411141,"76":0.06940849397877732,"77":-0.07080291808455003,"78":0.21598940101635858,"79":0.44218648409615735,"80":0.37478086851759734,"81":0.05705072701401276,"82":0.03237663639017887,"83":-0.2510612507987705,"84":0.23793522677207757,"85":0.634609068523378,"86":0.17952818284525668,"87":0.4948873382189332,"88":0.31800344246060847,"89":-0.012388832459902235,"90":-0.06418366957117408,"91":0.3604935879123321,"92":-0.03970570119669495,"93":0.08455708700644925,"94":-0.014809482092662658,"95":0.10259547438720022,"96":0.08829772196746137,"97":-0.0918979526102071,"98":0.3902141505538582,"99":0.3720368187252551,"100":-0.29393106723778045,"101":0.4286335265154771,"102":-0.016017810337475197,"103":-0.025705257307444745,"104":0.45590478912480653,"105":0.06406619357841047,"106":0.2538081003510653,"107":-0.15115676241302423,"108":0.15324432980206787,"109":0.16789678892494692,"110":-0.18658508038338603,"111":0.40285320709844785,"112":0.30880276859684946,"113":0.11351789087098087,"114":0.23567309584926335,"115":0.05008212327595115,"116":-0.0255806750313916,"117":0.5535299548860594,"118":0.21422360593258655,"119":0.45279898340338093,"120":-0.12452543358807179,"121":-0.12409974757828736,"122":0.18241771645419627,"123":-0.18486440081748343,"124":0.10083420044205532,"125":0.27635792567780154,"126":-0.037938988395388805,"127":0.11795858359428603,"128":-0.03454231235980007,"129":-0.06768869774996211,"130":0.4832272669528415,"131":0.053863969661312065,"132":0.6921951369183231,"133":-0.3000976336457819,"134":0.017699552367797418,"135":0.10832610677982736,"136":-0.03337221915950811,"137":0.1300478435572619,"138":0.7676783612200977,"139":0.31855143354911797,"140":0.13035329631160336,"141":-0.04882090799685803,"142":-0.12728624127749222,"143":0.40821647545930345,"144":0.21309315568112702,"145":0.45053516128565557,"146":-0.4787726026034615,"147":-0.07598581286449577,"148":-0.18615009447778985,"149":-0.262828146623266,"150":0.18596383950765397,"151":0.2878838176670695,"152":0.7271428077225119,"153":0.1417205573463435,"154":-0.1536394321153631,"155":-0.19782195810277847,"156":0.4109669541387073,"157":0.0793749848317975,"158":-0.18051841084787923,"159":-0.41026955677044064,"160":0.08096749232829642,"161":-0.11739401759237195,"162":-0.44181756378324494,"163":0.801365951701618,"164":0.6792141648584993,"165":0.16033679787479974,"166":0.253491622122341,"167":-0.15884480278001337,"168":-0.19581806766999735,"169":0.26335186999452126,"170":0.24766337576524491,"171":-0.08335241648190114,"172":-0.4671503501089947,"173":-0.013428895387919755,"174":-0.36072085805228615,"175":-0.45590158209176296,"176":0.7380354943609762,"177":0.7142751120115973,"178":0.1444805939186717,"179":0.2608186004319544,"180":0.03667562480425774,"181":-0.24064607794190218,"182":0.2536344573910698,"183":0.09948275660064927,"184":-0.4009304981221967,"185":-0.3858997080793978,"186":-0.10448036520998522,"187":-0.08016025143449104,"188":-0.524246671212488,"189":0.7162423496893562,"190":0.2791574012675761,"191":-0.06116375265449284,"192":0.370844021726709,"193":-0.2102220332679883,"194":-0.20095680302876906,"195":-0.0012725825067470482,"196":0.17699473841846186,"197":-0.09958595489549353,"198":-0.6344319353743605,"199":0.19529490006793293,"200":0.32904125068090334,"201":-0.18742797398113062,"202":0.9846226367736634,"203":0.3461465496333246,"204":-0.5184093649535336,"205":0.3738929192348042,"206":-0.12471149145054942,"207":-0.14337684907104384,"208":-0.0252492222896498,"209":0.2190883256560641,"210":0.6006303954750443,"211":-0.5527742968798994,"212":0.37514796195054634,"213":0.11816133910565847,"214":-0.8875891186563992,"215":0.4033601777994116,"216":-0.05973866750033393,"217":-0.15144350695095585,"218":0.3434692067036476,"219":-0.14028795654507123,"220":-0.0321604921152424,"221":0.173144261581041,"222":-0.09360101598051071,"223":0.23466655305582865,"224":-0.48225330389140686,"225":-0.21425727098737596,"226":-0.4305720299004626,"227":-0.34904757947873,"228":0.44922911177834746,"229":0.2011909707517489,"230":-0.46197093614369955,"231":0.3283121381422497,"232":-0.16125252795067002,"233":-0.03556471020446558,"234":-0.000507517206545122,"235":-0.19909675338735086,"236":0.22910449117180495,"237":-0.6241374821122152,"238":0.011571958693496535,"239":-0.3184916167702223,"240":-0.38769810098875773,"241":0.26096510567050335,"242":0.1736496533328589,"243":-0.5942917630645673,"244":0.27436216077593995,"245":0.13409022730350645,"246":-0.09529242048077427,"247":-0.17221572462865622,"248":0.005505812470608629,"249":0.20328225312827194,"250":-0.2512437182995191,"251":0.0449686818562001,"252":0.19575543101472564,"253":-0.47199002887024416,"254":0.3711860161187085,"255":0.26968308567324123,"256":-0.3645765804461169,"257":0.31654115273706174,"258":0.08242645045296614,"259":-0.1656037148207289,"260":-0.5893910504173389,"261":-0.07505312160639978,"262":-0.3446009861626101,"263":-0.14523786487277568,"264":0.008407603800307707,"265":-0.3143053172498984,"266":0.31909789380907216,"267":0.17233430490747373,"268":0.6420693140003767,"269":-0.565437931792369,"270":0.21701892367333156,"271":-0.018167358104838303,"272":-0.10938266555770568,"273":0.09718121188710664,"274":-0.16886946273344017,"275":0.057764581801961964,"276":-0.4321719154236434,"277":0.13746221687928176,"278":0.12085470080446814,"279":-0.19452256731448883,"280":-0.07720183209564808,"281":0.3878116038198161,"282":-0.07744942831694099,"283":0.20058713609909729,"284":-0.0949759321059458,"285":-0.0660286276087599,"286":0.408244079683453,"287":-0.24058226763088011,"288":-0.362426795078272,"289":-0.04711703438644878,"290":-0.22157749257411707,"291":-0.01622425660840797,"292":-0.3405936270495161,"293":-0.12959986909469565,"294":0.06040064608644113,"295":-0.08640542557912406,"296":0.2776901491739078,"297":-0.14311970053124004,"298":-0.10304111818641055,"299":0.3432329183305134,"300":-0.13384130306448827,"301":-0.26682841631708576,"302":-0.5797057016660944,"303":0.0652915748463419,"304":-0.12836673630753853,"305":-1.185387532569393,"306":-0.21436981490904025,"307":-0.21013523272027274,"308":0.15444279608931266,"309":0.30683379176752607,"310":-0.1937463712043443,"311":-0.11871333387382843,"312":0.9099549218593533,"313":-0.27694558936761543,"314":0.06242546261240484,"315":-0.7264819047756824,"316":0.04609706336886732,"317":-0.35740536364878284,"318":-0.7712558203082288,"319":0.23697407018847932,"320":-0.018137826553692473,"321":0.031459388235347115,"322":0.1646814276383449,"323":-0.12720220468828736,"324":-0.09792225258404642,"325":0.45823633552197995,"326":-0.08480235127842112,"327":0.029952784173081694,"328":-0.6431616683735754,"329":-0.1484905583711675,"330":-0.5973263493055622,"331":-0.7843791339529719,"332":0.22149674905925726,"333":-0.5259697044548114,"334":0.08233999166040412,"335":0.1924876281670287,"336":0.03806105004345301,"337":-0.09537051840766007,"338":0.4756650896063221,"339":0.5905036960778859,"340":-0.01596333365027241,"341":-0.40435517302057217,"342":-0.11865758879438801,"343":-0.9028934974319298,"344":-0.730736971168202,"345":0.39809726399204615,"346":0.045809067725029746,"347":0.6151843986949235,"348":0.11256776760665566,"349":0.07189434640394904,"350":-0.020839425084616395,"351":0.43227736689603447,"352":0.17062934233256782,"353":0.1809209505839288,"354":-0.40242897171229125,"355":-0.40230524673123147,"356":-1.0493735225304621,"357":0.33006301966185614,"358":0.21075752963461875,"359":-0.06899994561265375,"360":0.6191781128833381,"361":0.19826574942282998,"362":-0.06268367416398385,"363":-0.15223037351715052,"364":0.2624841662989179,"365":0.21887043171160167,"366":0.2812458980414,"367":-0.056464994271827544,"368":-0.3608791556683374,"369":-0.5357378998438465,"370":0.2742704312678605,"371":-0.6802798083943792,"372":0.12561339324120574,"373":0.5228695884046831,"374":0.18421087623005586,"375":-0.011262444728213288,"376":0.007061608751811384,"377":0.49432682670088474,"378":0.31089031466184264,"379":0.05726981640753783,"380":0.0167466052568584,"381":0.011829155369041382,"382":-1.195143842025741,"383":0.4391054525400788,"384":-1.044273621982696,"385":0.3228042881385117,"386":0.4011187073679402,"387":0.19571943191940175,"388":-0.0651235285828912,"389":-0.12573519692738552,"390":0.08821468590377196,"391":0.05796311430328845,"392":0.23540954543602208,"393":-0.16761222043817395,"394":0.13354596366342295,"395":-0.8401152473699234,"396":-0.000040346793471873204,"397":-0.7034145142736773,"398":0.4490001600994557,"399":-0.14695092255834152,"400":0.12829897542836446,"401":-0.2126205654027204,"402":0.02576736475543354,"403":0.05478405911920769,"404":0.06336535134345135,"405":-0.03380671396752162,"406":0.16577086032062832,"407":-0.03947878616649129,"408":-0.7702460550027026,"409":-0.02320971858859735,"410":-1.2773374445724488,"411":0.5352419556073902,"412":0.23320904206860155,"413":0.17436595927533247,"414":-0.15903003709801616,"415":0.1065556143910883,"416":0.36810678579888945,"417":0.05456037527460639,"418":-0.09974782509255807,"419":0.15658015104081194,"420":-0.5326728038306308,"421":-0.580666173581483,"422":-0.0710187986463529,"423":-0.6234659051158299,"424":-0.04965805403303616,"425":0.22490013762786906,"426":0.37702144188152736,"427":-0.23008119364312984,"428":0.08969996428220169,"429":0.24287348746205475,"430":0.016039528374674282,"431":-0.1471458954904521,"432":0.012538351140811676,"433":-0.0187400117254962,"434":-0.33083803032219167,"435":-0.05382676055733297,"436":-0.5971279331974055,"437":-0.14329309993926267,"438":0.5458353343112686,"439":0.42704246729352413,"440":-0.181113720041989,"441":0.055929608248978815,"442":0.6208777163215341,"443":0.46590625741100944,"444":-0.26805458113960684,"445":-0.022267058726253248,"446":-0.13185988616801006,"447":-0.5480459800357548,"448":0.4982254004349224,"449":-0.3738513199093379,"450":-0.07855329086077562,"451":0.5283161458620218,"452":0.6190712588405688,"453":0.05324115722816822,"454":-0.021687753275712134,"455":0.4888648727588799,"456":0.8243401424543261,"457":-0.09659046641300613,"458":-0.009994388246744706,"459":-0.3343711618953099,"460":-0.293414702966493,"461":0.3672775977964974,"462":-0.07475940154859592,"463":-0.045040256742745644,"464":0.48903913160293094,"465":0.5414322186450135,"466":-0.01882455185276944,"467":-0.09459805493754092,"468":0.6658730507890802,"469":0.507959655801078,"470":0.07168833149427012,"471":0.006695889090844663,"472":-0.14497277261928426,"473":-0.0058093409588405205,"474":0.4002986385719904,"475":0.06412141649722344,"476":0.24945339315961115,"477":0.264717317270155,"478":0.2725421565510862,"479":0.0972046185030647,"480":-0.031139563725969616,"481":0.23845246855631003,"482":0.0625759725868952,"483":0.3262487494105441,"484":0.15288668764789215,"485":-0.12482739328044928,"486":0.056671051927483625,"487":-0.024949650392075178,"488":0.09628150161513352,"489":0.04212920718238492,"490":0.3199449831425139,"491":0.2534118856452394,"492":0.05342204550640087,"493":-0.16502105847485626,"494":-0.05352272982705126,"495":-0.23259035312972648,"496":0.41254168547770537,"497":0.06853464756684792,"498":-0.06790157967918489,"499":0.26908490367135063,"500":-0.746664318461452,"501":-0.3087181295660635,"502":0.2840629953449341,"503":0.5739146421703037,"504":0.18509828474963866,"505":0.0035102324201704703,"506":-0.030893805571788592,"507":0.3277655851587073,"508":-0.3019251146684047,"509":0.4827018982578439,"510":-0.3790320547545313,"511":-0.047636916436182855,"512":-0.6381557945630945,"513":-0.8415826185694607,"514":0.39949987008004556,"515":-0.23563669440288243,"516":0.22447214774327573,"517":0.15695438186627864,"518":-0.23291170218537388,"519":-0.05096681608504351}},{"sx":1,"sy":1,"depth":520,"w":{"0":0.5482591019658763,"1":-0.023637093020560707,"2":-0.24358454417278508,"3":-0.0757465872867557,"4":0.06988950222599054,"5":-0.033320435992018366,"6":0.3998766296225811,"7":-0.12088414443765974,"8":0.3818887044474096,"9":0.2810755648639266,"10":-0.09971177001010612,"11":-0.32902311856610167,"12":0.28134472383904396,"13":0.6531761136541151,"14":-0.2666792274763948,"15":-0.11888505515186379,"16":-0.4570660404746064,"17":-0.17426157933539085,"18":-0.053846091577256894,"19":-0.4252371855971418,"20":-0.8606992003758029,"21":-0.20576839861310375,"22":0.19046490791313653,"23":-0.09317593280395543,"24":-0.3292948796611827,"25":0.054787210482183275,"26":0.4777776645171825,"27":-0.21594275469647733,"28":0.18912230266196242,"29":-0.13301838859585693,"30":0.08979607569382261,"31":0.12481078659137242,"32":0.08499780828905261,"33":-0.665975528667923,"34":0.32213868988468286,"35":0.10492835592152074,"36":-0.36722248369404215,"37":0.013275268014784973,"38":-0.3564400869516789,"39":-0.06718548224764376,"40":0.4922406333407691,"41":0.14589873321612154,"42":-0.08522544999120492,"43":-0.0975530325960425,"44":-0.10776137963733863,"45":0.3424624028936591,"46":-0.4315095238143863,"47":0.02678972987938293,"48":-0.03599631840611951,"49":-0.29583556908069364,"50":-0.33410659443984586,"51":0.10427925453039402,"52":0.0556551320391539,"53":0.27821385399747034,"54":0.1671258892219148,"55":0.11027752994767205,"56":-0.48833152635064797,"57":-0.4730742486074028,"58":0.5235644598433363,"59":-0.11122268720419926,"60":0.2236838726981952,"61":0.19734323018467548,"62":-0.171272412985345,"63":-0.5519326161859968,"64":-0.5277593654311292,"65":-0.23755498181646573,"66":0.23129740792486267,"67":0.2245887674535495,"68":0.19660565111078904,"69":-0.044946549627099944,"70":-0.6227656274996427,"71":0.29865236893855457,"72":-0.16110697057200876,"73":0.433824379417484,"74":0.03071761956972108,"75":-0.08161982054534359,"76":-0.22770795484852532,"77":-0.20337578687277977,"78":-0.10948064304475313,"79":-0.02359701902696544,"80":0.20842039988747862,"81":-0.1143474259247528,"82":-0.08408812301590511,"83":-0.6685590818300793,"84":0.3702548204394744,"85":-0.2838107063841966,"86":0.35087679267328853,"87":0.199236290482815,"88":0.1394914354856059,"89":-0.3693813573751495,"90":-0.5334509600005511,"91":-0.10207995732500735,"92":0.03972333270048259,"93":0.5807149485468293,"94":-0.06331748844181326,"95":0.1900914148715869,"96":-0.5853399001116566,"97":0.6181766533168631,"98":-0.40978691678850704,"99":0.026210190967789485,"100":0.29946951693553436,"101":0.25393763070253117,"102":-0.06430709634550942,"103":-0.30715351437956373,"104":0.02503816485974887,"105":-0.12808795601487225,"106":0.3522256494906909,"107":-0.17081648487129444,"108":0.1178143634320624,"109":-0.629988776204495,"110":0.48187280097863117,"111":-0.018404793405359804,"112":-0.1167054759911203,"113":-0.2650360636191575,"114":-0.05022668024400744,"115":-0.4792498437894932,"116":-0.16397287574353833,"117":0.1948929181725402,"118":-0.0844720228670342,"119":0.3936288097228102,"120":0.5002456210184952,"121":-0.17444941614324563,"122":-0.447848238392565,"123":0.9540074934518691,"124":-0.14225281547843122,"125":-0.23058885901139917,"126":-0.1836157871786543,"127":-0.4474949226841512,"128":0.27177708052396393,"129":-0.26703737587760257,"130":0.17514015313077144,"131":-0.19185415420693122,"132":0.1257553154304868,"133":0.5408576047056802,"134":-0.10035584492865365,"135":-0.8180709132874894,"136":0.4074155874024868,"137":-0.08652384705334577,"138":-0.09554765432207986,"139":-0.3788005722654484,"140":-0.6804555115567762,"141":-0.16026959989185546,"142":0.11417953879836974,"143":0.09028330150137008,"144":-0.20638117755636518,"145":0.10151917223331867,"146":-0.11621438814943712,"147":-0.10973186376424651,"148":-0.8857063393588915,"149":0.5258653768210423,"150":0.05381069841337849,"151":-0.028890235437538804,"152":-0.48463104439847215,"153":-0.20664930051966554,"154":-0.1927558143994798,"155":-0.09677314282375142,"156":0.22586299864372994,"157":-0.2642380303550509,"158":0.6379370252570541,"159":-0.10512616155723467,"160":0.09916024859680182,"161":-0.4313939976304624,"162":0.5706717098190192,"163":-0.13808045488340479,"164":-0.04984850364224808,"165":-0.545820598941186,"166":-0.28994228591821647,"167":0.17409598944834526,"168":0.272790891653656,"169":0.6022144274059464,"170":-0.2538901456547587,"171":-0.02444601626800329,"172":0.10310923942733251,"173":0.26377798699379923,"174":-0.37976053948469396,"175":0.5872467125245389,"176":0.08839980679043863,"177":0.3029751198971122,"178":-0.359079089196696,"179":-0.14393212202473113,"180":0.45109463937147215,"181":0.19350720464305432,"182":0.036766881299665675,"183":-0.013096006770691953,"184":0.4570431928145666,"185":0.30143524352190326,"186":0.12259539569572799,"187":-0.09314159517144135,"188":0.6648950957541174,"189":0.0010082049784013928,"190":0.37830594406825824,"191":-0.3167753906863129,"192":-0.3587453899336073,"193":0.49292930759192477,"194":0.03277771085107839,"195":0.5346253947329654,"196":-0.4296642267399893,"197":-0.14594664840231947,"198":0.135772128549814,"199":0.10677555924265972,"200":-0.4742852721461789,"201":0.1949438062178723,"202":-0.2682527985677191,"203":0.188063824244502,"204":0.0012096302917789822,"205":-0.34538824849644023,"206":0.19305623055324878,"207":0.3290629434273517,"208":0.18745044259929167,"209":-0.11594213038202723,"210":-0.16584499548795145,"211":0.4584655995303476,"212":0.13269571545059708,"213":0.2816538005406724,"214":0.7091087399433443,"215":0.17571433817490112,"216":-0.3174670683770994,"217":0.023564176860648472,"218":0.22491081347641598,"219":0.32714692582711685,"220":0.3373494218324083,"221":-0.08700059708657885,"222":0.0776398356735111,"223":0.10989738001815938,"224":0.5672679737622265,"225":0.3347720530999791,"226":0.5716509928479423,"227":0.4170079963862707,"228":0.0130106576139346,"229":-0.20069016768022613,"230":-0.2958851667251102,"231":-0.19904017315291578,"232":0.029147734162355558,"233":0.1989670226716375,"234":-0.18733408250789668,"235":-0.21041814164898381,"236":0.1135326724520765,"237":0.29867691081864955,"238":-0.12522039250772637,"239":0.4679992131382468,"240":0.8048066904947454,"241":0.3163915301831124,"242":-0.3255190976995966,"243":-0.4437551678404567,"244":-0.016339817875873672,"245":-0.0027446408673870524,"246":0.2225722364546355,"247":0.2670062725543767,"248":-0.2492573216607175,"249":0.02498180199342508,"250":0.5644775632169342,"251":0.10301405724259027,"252":-0.1715213143519162,"253":0.7589161078585648,"254":0.04178650205249827,"255":-0.11045533950228258,"256":-0.3841255004565727,"257":-0.8647411694817474,"258":0.2934960686585193,"259":0.3080076241959892,"260":0.12717049279372722,"261":-0.22516838626479363,"262":-0.13881527722814463,"263":0.7530975519431543,"264":0.3904012534934777,"265":0.05623171760856218,"266":0.7120848612502184,"267":0.14754338455165283,"268":-0.005814242165257715,"269":-0.13197707690322624,"270":-0.36696611552798475,"271":0.39828157704360573,"272":0.3301350893867117,"273":-0.18758560346666794,"274":-0.08116914032900684,"275":-0.16458005982386545,"276":0.004898577159453514,"277":-0.1506739605492706,"278":0.34454788157130223,"279":1.0847713292473216,"280":0.606058733357296,"281":-0.38404748522151017,"282":0.41071505870481606,"283":0.029073019762330742,"284":-0.40428041121809744,"285":0.1429463920091561,"286":0.14553882591140077,"287":0.024048949049884766,"288":-0.023416127492100463,"289":-0.1737016770548971,"290":0.3010422796236396,"291":0.7141808257108602,"292":0.5898976699318933,"293":0.9599695615400786,"294":0.05278580006007347,"295":0.2211103792548225,"296":-0.10205660986259459,"297":-0.08662642974641856,"298":0.12092810355967708,"299":0.21438927845406128,"300":-0.11432210433787232,"301":-0.05333201141799159,"302":0.0557421902935692,"303":0.4846305374739909,"304":0.5134917411263303,"305":1.4972848000942,"306":0.5248496023558941,"307":-0.14911747657502358,"308":0.15230955466977542,"309":0.10136756103568977,"310":-0.12556670034305056,"311":-0.23697198990997656,"312":0.06706488448670761,"313":-0.02051309636993772,"314":-0.3186264818776931,"315":0.06191718497408145,"316":0.37943453328546745,"317":0.3719866089421619,"318":0.18996500246056597,"319":0.43959704641802033,"320":0.28902344827261195,"321":0.20109085700531193,"322":0.2947086633016827,"323":0.06382008564828141,"324":-0.6037821606477868,"325":0.03706479631935832,"326":-0.29829831151001424,"327":-0.06161903991511623,"328":-0.31746607883880773,"329":0.32499582627306856,"330":0.5661909273030388,"331":0.3263483870300534,"332":0.6970184053805214,"333":0.29599698263076174,"334":0.0664458440879701,"335":0.3082304267104674,"336":-0.09870127017167687,"337":-0.2368210384643495,"338":-0.058043947604442536,"339":-0.15485845169227516,"340":-0.19709179913141225,"341":-0.4899073720049234,"342":0.15642307582748374,"343":0.6214402418215342,"344":0.5292138926372136,"345":1.0788043207140865,"346":0.31042041789466746,"347":0.22849655394645244,"348":0.49502046754016654,"349":0.14633071456223828,"350":-0.06065651603834984,"351":-0.24398894755893585,"352":0.39559537843152687,"353":-0.33323258041225867,"354":-0.1758413678005243,"355":0.4747707968491067,"356":1.1966583029260023,"357":-0.7668609083946416,"358":1.2202994806696055,"359":0.013593661762862558,"360":0.23301048124684212,"361":0.42020358593885987,"362":0.13854585234400807,"363":-0.5118907751568017,"364":-0.016296257969439207,"365":0.1357199298690828,"366":-0.16079023023686045,"367":-0.1580782502861608,"368":-0.002114582654781052,"369":0.9988610524220513,"370":-0.5942285467645663,"371":1.3376984710803754,"372":-0.572626487704634,"373":0.10896466540084393,"374":0.23741553830422227,"375":0.15492150966584842,"376":-0.20585209948951938,"377":0.12135963668800408,"378":0.4161245478173172,"379":0.07785817361922912,"380":-0.009840478975070704,"381":0.24003498398849937,"382":0.7493202118654975,"383":-0.640498074154444,"384":0.7542057252837452,"385":-0.25249097782565044,"386":0.1000882290788982,"387":0.2732472578258041,"388":0.4036700973791421,"389":0.33140373801847867,"390":0.1414770764576312,"391":0.17489718239630697,"392":-0.28656141075756214,"393":0.274545155409289,"394":-0.188743486380647,"395":0.38817958111652573,"396":0.07679551016622775,"397":0.7204822639535304,"398":0.19709208664507774,"399":0.21973852445186637,"400":0.09808738167657034,"401":0.3745151710996405,"402":0.09862461547686745,"403":-0.046684876916909486,"404":0.06584099674185995,"405":-0.3417290251058859,"406":0.05266607649791116,"407":0.07392950462664574,"408":0.7299399398364464,"409":0.07398299664602732,"410":0.9159280946041928,"411":0.6555097762783152,"412":0.014876606870384638,"413":0.3095867143003947,"414":0.3046078409193537,"415":0.10056279686046822,"416":-0.06020971669774484,"417":-0.060028571616711976,"418":-0.34474999159550745,"419":-0.302007179939243,"420":0.4096017454530442,"421":0.9979936612886195,"422":0.08124559927280076,"423":0.6344618840634216,"424":0.08481627087569601,"425":0.2598682488835076,"426":-0.2182177218147517,"427":0.33830962696501987,"428":0.6564139280728947,"429":0.24155131468011523,"430":-0.12957799275213908,"431":-0.3554781373491456,"432":0.2179928689136857,"433":0.4986504193738584,"434":0.8487213032542981,"435":0.1136845791041529,"436":0.7517571623492145,"437":0.3815884740911334,"438":-0.24689051353328717,"439":-0.14912682168635283,"440":0.435397713500723,"441":0.4381321974964283,"442":0.14217389616879644,"443":-0.042623562352149105,"444":-0.39694655071401946,"445":0.09300999613858327,"446":0.6074989529269934,"447":0.36524447586068715,"448":-0.659572845330189,"449":0.4032346092124253,"450":0.18855621671005285,"451":-0.002666099954830847,"452":-0.2658474612360176,"453":0.2283632033254693,"454":-0.09066003441377592,"455":0.17947789641284562,"456":-0.03682326570995237,"457":-0.2157101003269335,"458":-0.257050465290979,"459":0.7169687143799757,"460":-0.15183891753233367,"461":-0.6650387317074951,"462":0.7057756692209135,"463":-0.31474975799593424,"464":0.15032366161610478,"465":0.03586714857281931,"466":0.09109569052152762,"467":-0.30372461753806373,"468":0.13045898008999482,"469":-0.03437673157803232,"470":-0.15107043672433274,"471":-0.3551264663247824,"472":0.6922171112336212,"473":-0.050571343685335814,"474":-0.6773332081882621,"475":0.32813613431698935,"476":-0.19003095737614992,"477":0.04416060998487927,"478":0.04979307276461936,"479":0.4734387930771595,"480":-0.6714828647006569,"481":0.08729493101242627,"482":-0.34176960159835645,"483":-0.6519132497317023,"484":-0.4697003139415708,"485":0.6160714354151413,"486":0.12077200646873493,"487":0.11758862597146393,"488":0.19408954085946473,"489":-0.5291500085979455,"490":0.09163739933347698,"491":0.029621316627232455,"492":0.0750339420129322,"493":-0.030735528592034354,"494":0.17409851017502975,"495":-0.17929172023106346,"496":-0.5381651040225739,"497":-0.16892362752170673,"498":0.605442982693928,"499":0.4648612019275456,"500":0.8854327297480369,"501":0.3398849669257726,"502":-0.7291137702732123,"503":-0.5217029959356588,"504":-0.141120762973993,"505":-0.026344209573358143,"506":0.12130194634698255,"507":0.03102292361146881,"508":-0.32967960171828153,"509":-0.6526999278259673,"510":-0.1781986671478096,"511":-0.0035097588269172586,"512":0.30600808574210514,"513":2.087280044361858,"514":0.15229838972951545,"515":-0.458163302092298,"516":0.0049334614467664096,"517":0.16463137420243673,"518":-0.14205348004995838,"519":0.42788527610964866}},{"sx":1,"sy":1,"depth":520,"w":{"0":-0.002015872793816079,"1":0.06487783773749091,"2":0.04633491494777896,"3":-0.0015624725359644157,"4":0.016475210755722277,"5":0.017672682250685638,"6":0.08955260347894242,"7":0.044469146888207446,"8":-0.02807635182321186,"9":0.034592592661150535,"10":-0.05007274059093766,"11":0.05257205773844432,"12":0.06839432763116628,"13":0.02459096033674346,"14":0.042693485370690586,"15":0.04232345354280402,"16":0.030480116847022693,"17":0.02640979476004763,"18":0.0870011108774308,"19":0.057811208561311854,"20":0.028028698355047038,"21":0.02510867549482738,"22":-0.0038820345859815137,"23":-0.03966780529654533,"24":0.007405724997391216,"25":0.014615288858070154,"26":-0.04607877070271059,"27":-0.014289485667692878,"28":-0.039346293036402004,"29":0.051015764029625245,"30":-0.01913334113827075,"31":0.06966467309165972,"32":0.006390358531629705,"33":0.02383766459275214,"34":0.02310763992852569,"35":-0.02616798873849129,"36":-0.00745614191899688,"37":-0.008000321858977932,"38":0.039283178420310656,"39":-0.09129249539712656,"40":0.017393791783120394,"41":0.02709691394679667,"42":0.06791822360569368,"43":0.0015199100526886902,"44":-0.017211808240032576,"45":0.033902969439384915,"46":-0.002289346650562226,"47":-0.00020750262807836347,"48":0.030331228662866975,"49":0.01966820600467107,"50":0.02548528632670609,"51":-0.011107926973895298,"52":0.03982261325342621,"53":-0.035122549901323394,"54":0.06229198756198409,"55":-0.021117135031671844,"56":0.008410819877484947,"57":0.043901069473033856,"58":0.12425116385261893,"59":0.05249410498666031,"60":0.0029204851466847082,"61":-0.043626643829623155,"62":0.06536493066901561,"63":0.08246089686274574,"64":0.010697108450758514,"65":-0.021085442127591367,"66":0.027274995398968393,"67":0.03481066109016623,"68":0.07275927801763987,"69":0.018369592842508567,"70":0.018947827043413634,"71":-0.051544921943570764,"72":-0.046701743281251804,"73":0.0037839469757742716,"74":0.008949613950026244,"75":0.04147113598186003,"76":-0.02175147143314917,"77":0.09773759251452366,"78":0.041843158143016146,"79":0.01102833611013616,"80":-0.015819370232203478,"81":-0.03064865704106766,"82":0.10765126556821739,"83":0.036648413945465724,"84":0.006601368813359698,"85":0.044009899791455205,"86":0.028502247964865612,"87":0.06514772268976747,"88":0.004884426025430247,"89":0.05868356428431152,"90":-0.047093440087428357,"91":0.04442946364629984,"92":-0.043133965241178754,"93":0.01535485083284692,"94":0.018300060705095305,"95":0.09114647039591584,"96":0.04535515682612735,"97":-0.022371962642649446,"98":-0.02078182386215231,"99":0.046538977999053904,"100":-0.010653120625092067,"101":-0.09183991068749023,"102":-0.02582035321518555,"103":0.005938881921305963,"104":0.035690826836642854,"105":0.0503430025491676,"106":0.04598388848136108,"107":0.0016942586475234469,"108":0.07162053630784067,"109":0.044371251801415545,"110":0.012187793201744158,"111":-0.02299269524306743,"112":0.052372871060030086,"113":0.037557867784103416,"114":0.0028304906640752667,"115":0.051119638600411875,"116":0.05559080463706791,"117":0.04657096584308916,"118":0.025432019955822987,"119":-0.0333904397699154,"120":-0.018668586871592424,"121":0.07641433581096806,"122":0.04230195524440826,"123":0.03782497247523267,"124":0.04884247815054305,"125":0.07577565880326229,"126":0.05654104338796797,"127":0.04084649220421685,"128":0.10308558939507348,"129":0.005920730009148688,"130":0.06601035162278401,"131":0.024102032441567917,"132":0.04371557519782836,"133":0.05447946162938455,"134":0.018339708131308346,"135":0.03596538245793187,"136":0.019650418302708028,"137":0.040757267844179906,"138":0.03356849864181947,"139":0.06939932706098187,"140":-0.019221860152505002,"141":-0.029822392557144622,"142":0.0208538353933283,"143":-0.08237631339743759,"144":-0.02762541743979211,"145":-0.1103407699227355,"146":0.007128216268276888,"147":-0.024495309430053118,"148":0.04707924855651218,"149":0.015207709488852639,"150":0.07394796778464827,"151":0.051730375952095814,"152":-0.0007201222075178758,"153":0.007574670701193334,"154":0.08698059298574898,"155":0.08950861199308875,"156":0.0318506292746361,"157":0.049404510220171,"158":-0.025133173256028634,"159":-0.05811839428822557,"160":0.003923129814728811,"161":0.07233328230735099,"162":-0.03176158573296153,"163":0.05074089274695751,"164":0.04291979386372425,"165":-0.023519877595623354,"166":0.05434769311838238,"167":0.011818972510715012,"168":0.05686276646317692,"169":0.014530188028137072,"170":-0.0785619335317565,"171":0.046049898914382874,"172":0.004344233788120655,"173":0.08711492564324055,"174":0.06300664587602595,"175":0.02865724387084117,"176":0.0383644700412018,"177":-0.00048088751554166767,"178":-0.003412580393135288,"179":-0.016495513968885444,"180":0.057334776718580054,"181":0.003545488549066417,"182":0.0811383488066665,"183":0.011289556366776815,"184":-0.01187219882443488,"185":-0.02089686604212596,"186":-0.02292113820389818,"187":-0.0030812229034568326,"188":-0.012695373345187689,"189":0.023806737773009626,"190":-0.009315738561672124,"191":-0.0006520392319640001,"192":0.05028306046944915,"193":0.03989005352576979,"194":0.03912475205766498,"195":0.05295944110164317,"196":0.052899727085521056,"197":-0.026306988002443084,"198":0.022174074694252633,"199":-0.04695248706620502,"200":0.08900861649412195,"201":-0.004906596454120365,"202":0.029939395812029628,"203":-0.0218133234191183,"204":0.045530419004536346,"205":0.010787331818057086,"206":-0.0479716316081061,"207":-0.07985525201109273,"208":0.03308133447188676,"209":0.047961207174268564,"210":-0.043625323588260934,"211":0.008581469387904673,"212":-0.008812979441351386,"213":0.004371517124051312,"214":-0.011492946990526966,"215":0.039310305767563926,"216":0.07989154325702645,"217":0.07524077699555816,"218":-0.009004904477852222,"219":0.07261206171638807,"220":0.06542268573459285,"221":-0.026992538433900287,"222":0.05922673216489129,"223":0.010757762696772156,"224":0.03906388760016304,"225":0.029135347392707036,"226":0.08741694903742607,"227":0.06699596471241429,"228":0.14984574705600984,"229":0.03140788864025782,"230":0.029288742421636805,"231":0.03012931052203892,"232":0.008886035002456945,"233":0.028317579163218917,"234":-0.04871007069015961,"235":0.04000788923233296,"236":0.06943879606429101,"237":0.08965912305110145,"238":0.02290664157363736,"239":0.06397510428981823,"240":0.06507875747535587,"241":0.006543151148958709,"242":0.05419537916697566,"243":0.012033319148800502,"244":0.004335594456382775,"245":0.06318505942991524,"246":-0.06482930472419599,"247":-0.07785788259143751,"248":0.06422190249682419,"249":-0.005097776954781886,"250":0.009038310800766117,"251":0.02241291240274075,"252":0.035674593428418284,"253":0.030935975586340127,"254":0.0009191376876091177,"255":0.0529852002715318,"256":0.045855820831070766,"257":-0.0729326317611543,"258":0.07218180761027533,"259":-0.08086086669321879,"260":0.07943355580157399,"261":0.002004692582329309,"262":-0.028755139415806038,"263":0.05117618398140422,"264":0.08238572383242027,"265":0.01777220835305398,"266":0.029822263946609372,"267":-0.017216943733356017,"268":0.07337483084119038,"269":0.00003737210708020058,"270":-0.029369958922459055,"271":-0.06902346088522761,"272":-0.03228197698880456,"273":-0.03973481049627823,"274":-0.005255442503287762,"275":0.028943562379967834,"276":0.018066430576588268,"277":0.08747141991168805,"278":0.03491054298903897,"279":-0.0026436312138650663,"280":-0.05014463753896861,"281":0.01704407787700581,"282":-0.013441873056246374,"283":-0.017987650240872812,"284":-0.0004850679859726786,"285":0.0609401278077576,"286":0.07512758412865307,"287":0.00992283715250947,"288":0.02919143015104756,"289":-0.06178859777114448,"290":0.004422617146484324,"291":0.015521503653794717,"292":-0.053501034430663494,"293":0.01627731614635216,"294":-0.02867720791422193,"295":0.009549134874952467,"296":0.048966427126231525,"297":0.07069834597195394,"298":-0.0008960858497106463,"299":0.09738703481178568,"300":0.04865546121489135,"301":-0.050684847710525706,"302":0.07177524964131342,"303":0.07120670249747701,"304":0.06909585907310727,"305":0.0956747539720578,"306":0.04526359417416943,"307":0.05638433151714149,"308":-0.039798073758525045,"309":0.004393039652670085,"310":-0.06718560873745795,"311":0.026815802982716627,"312":0.007403481004630222,"313":0.019098928244409574,"314":0.06987347209159629,"315":0.07674965490802234,"316":-0.018900593560709663,"317":0.053881215621414645,"318":-0.06976104075344557,"319":-0.05005632447456053,"320":-0.05191079037078048,"321":0.052501893491170674,"322":0.10702318134713501,"323":-0.1084830294022505,"324":0.06781879180030749,"325":-0.022143805660091376,"326":-0.08660674494723535,"327":0.0011445318714587524,"328":0.1016207903439049,"329":0.03911733747515063,"330":-0.029670984524204722,"331":0.027515055962879592,"332":-0.010567276165079664,"333":0.022417491393732687,"334":0.007807724654159029,"335":0.006581822211583871,"336":0.03487173863115797,"337":0.004312151883242925,"338":0.04579169267262858,"339":-0.025125017053927116,"340":0.015572610496526076,"341":-0.07243001386488909,"342":0.02403119920913567,"343":0.05192414967238007,"344":0.021605058799269685,"345":0.05816278278482599,"346":0.0932829258374109,"347":0.034961486172628516,"348":0.0005277440882872558,"349":0.047010464150313964,"350":0.002760479067815509,"351":0.04281823768386409,"352":0.07861345603862345,"353":0.0782874517680314,"354":-0.020834573987395223,"355":0.032129084629731255,"356":-0.006535573919094575,"357":-0.026519587026504365,"358":0.014282877460803103,"359":0.08152273883900267,"360":0.021098538920355462,"361":0.07648702518403558,"362":0.0341086166290647,"363":0.038727709911470766,"364":-0.01956504157414484,"365":-0.04551591146789705,"366":0.1038718797156389,"367":0.11214598570949817,"368":0.06242502853972378,"369":0.042447369318132123,"370":0.06075022696910501,"371":-0.031932684455428004,"372":-0.021046210656360784,"373":0.05754675492396634,"374":0.056428273192334635,"375":-0.03748008637121359,"376":0.008877596807791778,"377":0.026959574190823385,"378":-0.006076856401117003,"379":0.02535669759705905,"380":0.0033808966310891198,"381":0.08510276295461981,"382":0.03572563652625291,"383":0.038712378576833954,"384":0.01930297895641083,"385":0.04307265902376057,"386":-0.0029082910070783183,"387":-0.016361458051401743,"388":0.069929080099436,"389":0.019760898295869755,"390":-0.05157602704593552,"391":0.05629069451009688,"392":0.07646966048590208,"393":0.034671729674503896,"394":0.0755954864022994,"395":0.17157598483433242,"396":0.005076600729005732,"397":0.01917752184939862,"398":0.08277893608389672,"399":-0.033556971079480934,"400":0.07572168328854482,"401":0.01497878083639194,"402":0.057246964266485165,"403":-0.05778748699676889,"404":0.011640845439744765,"405":0.008348078921661945,"406":0.01212125781616438,"407":0.0671730075681873,"408":0.10783705108809812,"409":0.05730836564014911,"410":-0.008086442596593591,"411":0.03101942301563446,"412":0.007793436024782291,"413":0.06447703445128543,"414":-0.017195120940646794,"415":-0.025771826552509633,"416":-0.003242704557926361,"417":-0.04572323082527739,"418":0.11016001514907835,"419":-0.06129548393244347,"420":0.05990584037286538,"421":0.03080672067300602,"422":-0.015206584210702529,"423":-0.03594952913310506,"424":0.06497176047423961,"425":-0.04600926421718817,"426":0.06073531671196014,"427":-0.009806820139022409,"428":0.008094957858159089,"429":0.007270599014714682,"430":-0.009807122076113164,"431":0.04017816724417577,"432":0.034569484110064115,"433":0.059217490735838964,"434":0.07340503548768233,"435":0.020068360212452743,"436":-0.040680220607349764,"437":0.025672792410774307,"438":0.02986302958178128,"439":0.024405612342305996,"440":0.03530205876573354,"441":-0.005428065320665804,"442":0.001289628381084911,"443":-0.05258673807949557,"444":0.060419704043750445,"445":0.0151778619569003,"446":0.04348218066843929,"447":0.06086544500166663,"448":0.07366103410316564,"449":0.06493806793309229,"450":0.022194173984247303,"451":0.13166265116462342,"452":0.06666692484779714,"453":-0.0367752236776398,"454":0.06830111009053302,"455":0.056180778552430435,"456":0.04404017928068445,"457":0.022781110505035118,"458":0.012824883298494356,"459":-0.02505114225198921,"460":0.04356749979010483,"461":0.07416483332406872,"462":0.019657829551867942,"463":0.06326554996994052,"464":-0.019034673730648686,"465":-0.01619596234975156,"466":0.08643735531843612,"467":0.008230276422533947,"468":0.11163478780838781,"469":0.014588462396670937,"470":0.06288300150005466,"471":0.05125404716606159,"472":0.012180063613308945,"473":0.042262749797297175,"474":0.030240886887410917,"475":-0.05767334609814142,"476":0.06644007627265684,"477":-0.0013391917818554363,"478":0.007680035584626755,"479":0.043439550391807656,"480":-0.037842947262728195,"481":-0.010032196355936688,"482":0.03850625986096086,"483":-0.004440713741497218,"484":0.021433608803239843,"485":-0.015285949530976783,"486":0.045823504665413406,"487":0.022328859359722307,"488":0.10139414820118095,"489":0.030830522220059657,"490":0.07543784561781415,"491":0.01158297994592649,"492":0.10111505639967173,"493":-0.04196933390239011,"494":-0.019062507209908524,"495":0.08678870965325967,"496":-0.028105917676276983,"497":0.03506346004165533,"498":-0.010990320424332928,"499":0.050981606547921936,"500":0.04817660466855002,"501":0.0337579402500907,"502":0.07852841155524852,"503":0.0024977595257323873,"504":-0.01757892353430997,"505":0.009009311234697384,"506":0.02375340710928102,"507":0.01706019973787802,"508":0.04854127042156912,"509":-0.05197941157775336,"510":0.020095230483636085,"511":-0.014472095486576372,"512":-0.02167693009279186,"513":0.04401653592563924,"514":0.021602128129013708,"515":0.01737413543731606,"516":0.014148154415925878,"517":-0.08293696803749669,"518":0.10388463254735829,"519":0.011971187070320799}},{"sx":1,"sy":1,"depth":520,"w":{"0":0.004483203312998949,"1":0.16147514754609132,"2":-0.06011862086232975,"3":0.0778875874504341,"4":0.30891340116125365,"5":0.6262870993652999,"6":-0.005808738885635739,"7":0.7309491751309724,"8":-0.585176393331443,"9":-0.11526395425418458,"10":0.02019606923064132,"11":0.08008995661034761,"12":-0.5838644114333443,"13":0.06283917651900191,"14":0.07099633160831816,"15":-0.04560060082132935,"16":0.23414710198995267,"17":0.12789943703475792,"18":-0.2851027100807589,"19":-0.09807472642248229,"20":0.5313451445925443,"21":-0.595364685392887,"22":0.08501160996338089,"23":0.5661869754913876,"24":0.03812962954663893,"25":-0.22233721551864377,"26":-0.06815999705900982,"27":0.2066490631091405,"28":0.37004273638847224,"29":0.12852028142053662,"30":0.19750884252173506,"31":0.12942704396172677,"32":-0.027650296478899265,"33":0.46916695335166625,"34":-0.16662540322448507,"35":-0.11997351055987598,"36":0.4636388585634717,"37":-0.1528444055444951,"38":-0.4954457452788447,"39":-0.01607684421791518,"40":0.04116250407787616,"41":0.44462316864872004,"42":-0.050284519850974874,"43":-0.2515810207867965,"44":0.24032041672159196,"45":0.20672726272472014,"46":-0.07658486645207066,"47":0.5745557760000097,"48":-0.4907556200680168,"49":-0.09586322869678003,"50":-0.19574797907256833,"51":-0.8580734280001672,"52":-0.03466141204821745,"53":0.12444378649813116,"54":0.1441408359359842,"55":-0.17738311903787876,"56":-0.00922725913681613,"57":0.5248611896830312,"58":-0.20583079861629858,"59":0.7366449503293279,"60":0.2437756247083431,"61":-0.16605815946417357,"62":0.2015410237503147,"63":0.11194156534552592,"64":-0.25501741883572604,"65":-0.022589332718373285,"66":0.19592701512416655,"67":0.20977454889847738,"68":-0.017243411028548507,"69":-0.16356500041582547,"70":0.0064699099355250145,"71":-0.2818620928735691,"72":0.09532679847786887,"73":0.070509411057506,"74":0.17490862402669405,"75":0.10309089725782791,"76":0.39157714412090905,"77":-0.5503357974904343,"78":-0.0313216964987253,"79":0.2117647146941042,"80":0.09849681205151557,"81":0.05966023511833694,"82":0.10513166329524065,"83":-0.08498581865757042,"84":0.16448200955586145,"85":0.2999022154310383,"86":-0.08120390680485416,"87":-0.4471982657968709,"88":0.25737951148552635,"89":-0.10325842362085325,"90":0.08619008878574032,"91":-0.05110167213351709,"92":0.21570837419414696,"93":0.25108517425584437,"94":0.009778777585610236,"95":0.04795784151911868,"96":-0.19859519458730598,"97":-0.10532971869464773,"98":0.4134064175418221,"99":-0.13006217103998707,"100":0.2428304009666711,"101":0.7662000949617263,"102":0.09444703029759068,"103":-0.3842705529926814,"104":0.03789890764469941,"105":0.18775847143601587,"106":0.282127257154537,"107":0.20869193007217385,"108":0.05823639695603714,"109":0.38771832973855985,"110":-0.6219195386979289,"111":0.8648690108811217,"112":-0.09443735954213771,"113":0.2687570109640123,"114":0.3840244047904878,"115":0.8684830264822154,"116":0.466959342605582,"117":-0.037439487115403555,"118":0.1401470752078478,"119":0.15359493193900015,"120":0.22899968017064068,"121":0.06026795505672278,"122":0.5047034656199134,"123":-0.037772264305360126,"124":0.24715638129760953,"125":-0.01571541468427614,"126":-0.1410151012971856,"127":0.029619504534546082,"128":-0.4729964433584975,"129":0.1327421185367798,"130":0.02010730435330311,"131":0.15319697833226625,"132":0.12173386093901493,"133":-0.012869394596769,"134":-0.3612281351720382,"135":0.19849234787408132,"136":-0.11356931207034017,"137":0.5514425642366212,"138":-0.34385905231693814,"139":0.09990352592193488,"140":0.003911323129583528,"141":-0.4789529150285024,"142":0.05682228030412268,"143":0.009348765840034842,"144":0.15800370163650262,"145":0.12574916196645386,"146":0.43640034856000615,"147":0.0325850793767938,"148":-0.24628951278961447,"149":-0.7357223171346359,"150":-0.2997684270078868,"151":-0.44743162504434547,"152":0.2286221041999544,"153":0.5623472514788671,"154":0.1571286830669712,"155":-0.3640275528190243,"156":-0.003798532666724193,"157":0.21655131057491706,"158":-0.12359432128317019,"159":0.11233252996647258,"160":0.04074416648044391,"161":0.10646748948251336,"162":-0.04506409608952132,"163":-0.18365126987220023,"164":-0.1688935598015611,"165":0.3570993295667842,"166":-0.1388219389971299,"167":-0.1576975179292368,"168":-0.2896556966066332,"169":-0.03834541199741867,"170":0.0914395250248453,"171":-0.02599675014652454,"172":-0.06743275610723183,"173":-0.30453759950781245,"174":-0.16398333756198732,"175":-0.16003135827692894,"176":0.11706334996984694,"177":-0.30623793132099025,"178":0.27309672390555984,"179":-0.22903206110177504,"180":-0.25322158435267994,"181":-0.49419298717000554,"182":-0.017091157561532847,"183":0.11213966657803716,"184":-0.14139157054622442,"185":0.31602644792064644,"186":-0.057575292987893406,"187":-0.20740539086490975,"188":-0.18285301568302312,"189":0.09020967412510919,"190":0.23373489658946087,"191":0.31899508330778675,"192":-0.030023045648609838,"193":-0.19977212123337984,"194":-0.3836452527445951,"195":0.001956609083468864,"196":0.1939665079396659,"197":-0.19129139349584048,"198":-0.2618210064963015,"199":0.5712394183345171,"200":0.37296597594327524,"201":-0.06534435221631071,"202":0.269182472727215,"203":-0.17677695935561796,"204":-0.307241532063289,"205":-0.11205167808392427,"206":0.23412956027216764,"207":-0.313657973010149,"208":0.07642412114580888,"209":0.1513382414239773,"210":0.14879463621999373,"211":-0.0504782777057742,"212":0.5006737659164091,"213":-0.11397722480199003,"214":0.4381885767512613,"215":-0.24395491727790083,"216":-0.1470912150945309,"217":0.08594399986780236,"218":0.37631610263603293,"219":-0.13414979038131644,"220":-0.2836267771080163,"221":-0.049935593047760636,"222":0.20948313457902878,"223":0.07336620208248913,"224":0.2285942117722393,"225":-0.07585042888532831,"226":0.39606880637256525,"227":0.003066746877292313,"228":-0.07397149966302974,"229":-0.46408781416534084,"230":-0.2842361838352807,"231":0.25397065162769084,"232":0.12680473642194623,"233":0.7017883404740164,"234":0.03682784133843963,"235":0.19908348756183394,"236":0.07371463326009123,"237":-0.2655760581640926,"238":0.6811179351236535,"239":0.03502598578010551,"240":-0.8140781019962775,"241":-0.8552468960338508,"242":-0.42538630600639576,"243":0.430180104529281,"244":0.6709992857125877,"245":0.31478793030066893,"246":0.5183347380427967,"247":0.016318907226018923,"248":0.13719644637622644,"249":0.20570190116973824,"250":-0.3931694967910863,"251":0.2206528815428657,"252":0.14221034833627935,"253":-0.48031137638609356,"254":-0.7460954071411982,"255":-0.06916539688722576,"256":0.21912144416324517,"257":0.5605955332261985,"258":0.1351015167054181,"259":0.8205840897943524,"260":-0.05764022322722059,"261":0.22419783495218334,"262":0.07053765391303742,"263":-0.30950628389249746,"264":0.32795397770881834,"265":0.06407547148213782,"266":-1.356356817257559,"267":-0.9369105986919505,"268":-0.13718719512526342,"269":0.023422362497386454,"270":0.2879224227259748,"271":0.010396997426207824,"272":0.4065671841963247,"273":0.040118621256567996,"274":0.14871332887140146,"275":0.2296128331089531,"276":-0.1412122192800238,"277":0.1591181154798517,"278":-0.03889954354284972,"279":-1.0839804355457519,"280":-1.4813885952181873,"281":-0.41178922021136566,"282":0.09208122572258161,"283":0.75803784227393,"284":0.10113371068317133,"285":-0.001533753046712921,"286":0.02750568529367344,"287":0.2724655052265484,"288":0.27760719888119245,"289":0.007099363630545654,"290":0.13962686408232247,"291":-0.017159890124001858,"292":-0.7002675714866419,"293":-1.6210645434714135,"294":-0.02493062577281485,"295":-0.43491594485699014,"296":-0.16358918170811937,"297":0.2565271510992123,"298":0.03261172472883673,"299":0.014898403117676682,"300":0.1940114073041585,"301":0.4621192980070228,"302":0.31145522836344475,"303":-0.09694366532761625,"304":0.5009537700831254,"305":-0.6834468167161163,"306":-0.9594397881179808,"307":-0.23402171200380797,"308":-0.0348868300118571,"309":0.33752434370761003,"310":0.23474730483441308,"311":0.7094911330388411,"312":0.11524586834833604,"313":0.22538411691581184,"314":0.3772532741829344,"315":0.5262437066452749,"316":0.024507113298851572,"317":0.2456702934486245,"318":-1.2342427656172024,"319":-1.3807156787819077,"320":-0.5116503987411479,"321":-0.15696392456988842,"322":-0.2844336913840364,"323":0.25716342829502875,"324":0.33584944754116014,"325":-0.024545982756682072,"326":0.16744054236805148,"327":0.10923259328407676,"328":0.4849907458040321,"329":0.45414897116185504,"330":0.4091891671442266,"331":-1.2716076014050435,"332":-1.9059829089267777,"333":-0.8580569941921694,"334":0.010298558727573615,"335":0.14559123975903301,"336":0.059401015420787455,"337":0.15203498572167556,"338":0.04826571365169265,"339":0.22133475643427697,"340":-0.000784869847729787,"341":0.5327519955938955,"342":0.06640203061542442,"343":0.42842500695788177,"344":-0.8263593778364265,"345":-2.321725761927598,"346":-0.8008316216992298,"347":0.2146876107808599,"348":0.2790452945684635,"349":-0.2679902329147117,"350":0.6253743149278808,"351":0.004991402441837768,"352":0.1214954217285881,"353":-0.18643727058980447,"354":0.4166909919641258,"355":-0.0014515456108336808,"356":0.6641633437698675,"357":0.18673584347234967,"358":-2.0905890132034926,"359":-0.7312655374884496,"360":-0.31052028242844065,"361":0.32203649842406856,"362":0.10005899599438943,"363":0.5227509350386673,"364":0.008958088552843373,"365":0.2309076193009714,"366":0.030496490614921254,"367":0.33539213554072705,"368":-0.16291707584304152,"369":0.3207543795321278,"370":1.1949881160292335,"371":-2.5846588627098344,"372":-0.42630846793483423,"373":0.4158095210551828,"374":-0.12863449896894366,"375":-0.29529233567552576,"376":1.3605493477621795,"377":-0.04660801574432257,"378":0.2591685125545688,"379":0.26114738004977245,"380":0.36538601131991466,"381":0.05622812497752088,"382":0.48251522186953055,"383":1.4577706067094567,"384":-2.0017919797426553,"385":-0.17027643946611634,"386":0.30918745821966026,"387":0.07613642451441524,"388":-0.2478892198453374,"389":1.033025660437476,"390":-0.008366255100763642,"391":0.18558882066645616,"392":0.16411786059581474,"393":0.2565465343471842,"394":0.088454605457718,"395":0.8639391787938039,"396":-0.1316945135421822,"397":-2.042134692466445,"398":-0.6190874092986303,"399":0.4384629708355829,"400":0.1462892694380846,"401":0.3481546692929251,"402":0.6425984317078519,"403":0.03410701090080047,"404":0.2073111156177364,"405":0.13824626476997998,"406":0.5417431820811615,"407":0.3823394078741103,"408":0.7079881322412779,"409":-0.16838473974690832,"410":-1.7241968413254551,"411":-0.28654256908266834,"412":0.8315305985783134,"413":0.13390062964253335,"414":-0.4607480763179423,"415":0.551646147370665,"416":-0.03640688946389984,"417":0.23439775366087584,"418":0.24770795247286218,"419":0.24245487379574862,"420":-0.06221285779513164,"421":0.5783009396859718,"422":-0.18315064577110118,"423":-1.7615797681318173,"424":0.08759438549774357,"425":0.721920354427011,"426":0.6032895319082615,"427":-0.1639207338037058,"428":0.3905634834070237,"429":-0.046973461896967446,"430":0.1323063261345868,"431":0.03544286197473885,"432":-0.06760415514612164,"433":0.16046517335072155,"434":0.755696731056271,"435":-0.190690247811727,"436":-1.345843519508172,"437":0.03608752471973965,"438":0.11755615395064409,"439":0.3499231719272346,"440":-0.10733313930011694,"441":1.1060232333099802,"442":-0.013080144771332963,"443":0.1220013980161957,"444":0.16097877275473818,"445":-0.17505227705881232,"446":-0.039629505383336205,"447":0.7779766105145337,"448":1.7078116950079925,"449":-0.22853347054999965,"450":-0.10742316387028646,"451":0.2759553622108613,"452":-0.5950801083670361,"453":0.13140800425355895,"454":0.7980351397424117,"455":-0.054461417776260436,"456":0.11078547385577477,"457":0.2667636974638119,"458":0.00004713795985982275,"459":0.04245354500618036,"460":1.1010250364934213,"461":1.5861136510319311,"462":-0.49161553602979957,"463":-0.04424798923644313,"464":-0.12737448199060666,"465":-0.6806332488531075,"466":0.8242765188885736,"467":0.6709076920052588,"468":0.054500761720758004,"469":0.06629925256742697,"470":0.02281845516285112,"471":-0.1956114903634464,"472":0.19333655504081843,"473":0.37844365266834157,"474":1.5802584829054678,"475":-0.17386192735488532,"476":0.12452464896437465,"477":0.07175849558171257,"478":-0.004346612980763697,"479":-0.3032338736676881,"480":0.644633832150837,"481":-0.004695775435163517,"482":0.11621852771594386,"483":0.01657242180144272,"484":0.02283770314424848,"485":-0.06518660942868063,"486":0.45693266619130984,"487":0.19011523156244065,"488":-0.42659263639286393,"489":0.4674097077346793,"490":0.3554597236798302,"491":-0.6670327631845306,"492":0.04514468102590354,"493":1.150087510344592,"494":0.10604076885279595,"495":0.2611619429938885,"496":0.06739813563920115,"497":0.3033094200061503,"498":-0.1549840070113758,"499":-0.049054216555567035,"500":0.7191466375886314,"501":0.15122742648313178,"502":0.07923368367028524,"503":0.14472260370001525,"504":-0.5728875279203129,"505":-0.34248953172127783,"506":0.28993649105766445,"507":0.011712751089008749,"508":0.24604966614331336,"509":0.08895873125630485,"510":-0.1014947035806936,"511":-0.15539535569201973,"512":0.47994772856388124,"513":0.6883198429133982,"514":-0.05517584955927859,"515":0.2222442383252365,"516":0.45835496172422796,"517":-0.3370749548282915,"518":-0.07324839893782986,"519":-0.6726917451429212}},{"sx":1,"sy":1,"depth":520,"w":{"0":0.9005685783757764,"1":0.832879334463065,"2":0.5732933714544448,"3":0.3838445334375714,"4":-0.5821386500339694,"5":-0.06410287152772201,"6":-0.7764349301623399,"7":-0.358897245483266,"8":0.0040792380370577985,"9":-0.3639530078737313,"10":-0.6577877630351682,"11":-0.5833896271511637,"12":-0.08493407668457428,"13":0.7226562073404728,"14":0.5740750143948476,"15":0.19592378335850869,"16":-0.40949233284330877,"17":0.2666143604947527,"18":-0.2583493210445252,"19":-0.19891018490384335,"20":0.36404507276133774,"21":0.03674079013800807,"22":0.2519377230258614,"23":-0.24866895794119484,"24":-1.0121211713341551,"25":-0.16972378069578195,"26":0.3919413268692502,"27":-0.13775607975917561,"28":0.1553246551242047,"29":-0.18191028813301427,"30":-0.2399983964495741,"31":-0.6158254194625667,"32":-0.07751593868557498,"33":0.567153660470639,"34":-0.3181594794830547,"35":0.05972575686984492,"36":-0.16040155944785048,"37":-0.5449955618576603,"38":-0.7312755871479033,"39":0.29429730890609496,"40":0.12498036456647507,"41":-0.1560739034241116,"42":-0.6841281239890596,"43":-0.271212506763005,"44":-0.08634096749105452,"45":0.1779434153660313,"46":0.11083143455476839,"47":0.06777095189997967,"48":0.2482477906485817,"49":-0.17244229906246267,"50":0.18913014478275983,"51":-0.15762066788666307,"52":1.1214014439286726,"53":0.9019634041010011,"54":0.5185241377326996,"55":0.0733119788636662,"56":-0.06730137374758337,"57":0.0026840547890453204,"58":-0.23845069864588825,"59":-0.43329784050697273,"60":0.28562906546906386,"61":-0.307475696610763,"62":-0.4653804084278446,"63":0.1482165649714904,"64":-0.01731322100485128,"65":0.9622871021034755,"66":0.23937103413447258,"67":-0.08821964135986918,"68":-0.5074764174485089,"69":0.18311762690467032,"70":-0.4659797436299536,"71":-0.04311455388644806,"72":-0.021306553431912602,"73":0.1233462008193461,"74":-0.09250275751743475,"75":-0.713970844480011,"76":0.18660899035135808,"77":-0.4759817996691305,"78":0.5252512821657571,"79":0.25477473545304075,"80":0.0002762264876334593,"81":-0.13413170630746632,"82":-0.288221354464392,"83":-0.5627165304126188,"84":0.18753556007568292,"85":-0.07504472761773097,"86":0.45301475776372335,"87":0.40999679283484347,"88":-0.40163910349083615,"89":0.2097059995170357,"90":0.10171314717535605,"91":0.47572058059514,"92":-0.24426967202516375,"93":0.353830064523066,"94":-0.2502253346027871,"95":-0.4525926002623548,"96":-0.5705399778889239,"97":-0.3813520630838586,"98":-0.29044182786419315,"99":0.15233766064481435,"100":0.3023009337703151,"101":-0.08160154027303533,"102":-0.06499401031259443,"103":-0.0030777021226734173,"104":-0.2712801077397416,"105":0.06953787207964683,"106":-0.4816955500025651,"107":-0.0029131619240759543,"108":0.08215482837930042,"109":-0.577825389495373,"110":-0.2802404696311988,"111":0.35396187548216723,"112":0.3183798080959553,"113":0.44860309263007586,"114":0.41842050590001767,"115":-0.19218466633852826,"116":-0.45756383889220764,"117":-0.692650652820802,"118":0.3575772862610109,"119":0.5761907681070064,"120":0.047217353528947896,"121":-0.1856885788971193,"122":-0.5918217778916197,"123":0.19311130798238937,"124":0.09120303035340901,"125":0.15802348256258403,"126":0.2034642443400533,"127":-0.2262351886671044,"128":-0.3041667251523036,"129":-0.07293397892985069,"130":-0.09991748503383145,"131":0.4145756755004784,"132":-0.007355690619106427,"133":-0.5627846066114959,"134":-0.06169904581068202,"135":-0.1154536652714971,"136":-0.41151283777328157,"137":0.02197744937532651,"138":0.03508609344146272,"139":0.014938388324504713,"140":-0.37692126732336256,"141":-0.13159595398968904,"142":-0.5395682371106278,"143":0.3094204211943648,"144":0.5427092081827002,"145":-0.11774623454029634,"146":0.05449851682061222,"147":-0.24259894503379179,"148":-0.6380132804500971,"149":-0.30172986334689944,"150":0.6341263563558865,"151":0.30484138316192616,"152":0.7492673693873143,"153":-0.12882979619546955,"154":-0.17271112227496652,"155":-0.6529020978283542,"156":0.9958312972446529,"157":0.2570997365797779,"158":0.4755569022249172,"159":-0.5814657970901643,"160":-0.47864354713952717,"161":-1.6100730711477744,"162":-0.5374153137295113,"163":0.6062439476684607,"164":-0.06103048291917836,"165":0.24385299113885547,"166":-0.02671781171681591,"167":-0.4253882651886645,"168":-0.5570329916019487,"169":1.512599044136444,"170":-0.5145308627674982,"171":-0.023439762840752488,"172":0.06107061577556541,"173":-0.2732235106024613,"174":-1.5512616032664934,"175":-0.6426269223640015,"176":0.4707656226542246,"177":0.23007299361198633,"178":1.0201983592229547,"179":0.364140496315242,"180":0.10660001494084063,"181":-0.44959892493976034,"182":0.7196680126230124,"183":-0.33134445988170486,"184":0.33774733686272307,"185":0.14939946924095696,"186":0.0026000127781698103,"187":-0.7839784638447123,"188":-0.4780373782106941,"189":0.6747743177619521,"190":0.12950342456611466,"191":0.4206721294804216,"192":0.23380501303098075,"193":-0.12099652312068258,"194":-0.2751500153031067,"195":0.6057206851936493,"196":-0.27836696815098305,"197":0.1226512331218886,"198":-0.11124574324544949,"199":-0.03810950816290093,"200":-0.8851655145827942,"201":-0.4857683372781658,"202":0.8633127028721742,"203":0.6492509271859294,"204":-0.23796328471700526,"205":0.027771908266029714,"206":-0.015570894464615499,"207":-0.44907646898645,"208":0.6245547671404817,"209":-0.3486504267279165,"210":0.2011999447538709,"211":0.3894062082399621,"212":0.26222845599505973,"213":-0.648728433818889,"214":-0.5088840816462286,"215":1.053135975200207,"216":0.7295514605823742,"217":0.35886373177286424,"218":-0.3510018829121641,"219":0.18743082896944385,"220":-0.41607785375579404,"221":-0.021270035759279812,"222":-0.03861121656314221,"223":0.3501930119772148,"224":-0.05277035369545318,"225":-0.6387690465040401,"226":-0.763987097232437,"227":-0.12385495077878507,"228":0.6606392076703497,"229":0.18738549912929023,"230":-0.044398373413131215,"231":-0.033772497445733816,"232":-0.050170284884020915,"233":-0.14569033060834605,"234":0.404457395563498,"235":0.05122941805950695,"236":-0.36653825913214033,"237":0.3051643311461669,"238":-0.5577774938669078,"239":-1.1650024400689376,"240":-0.27245002096127563,"241":1.173730035206955,"242":0.5740951226566328,"243":0.5645973993925051,"244":-0.021854213813610083,"245":-0.14324434938706987,"246":-0.5897287038041829,"247":0.6613848708876493,"248":0.3230923713962064,"249":0.2557365568729574,"250":0.40632302547434607,"251":-0.42354058076730067,"252":-0.9581075735213671,"253":-0.7264864860033563,"254":1.3323105239328936,"255":0.21654939920220087,"256":0.10877191906105844,"257":-0.5610636343482258,"258":-0.4379601861881263,"259":-0.0026106581558633687,"260":-0.4165015847468457,"261":0.03632032370596665,"262":0.10713636224507522,"263":0.3971133087101457,"264":-0.34912455404383436,"265":-0.3167055962930663,"266":-0.8321995132047189,"267":0.4133055887756496,"268":0.3783696614536696,"269":0.15145530095937598,"270":0.004702751968702287,"271":-0.22125549098364883,"272":-0.5407179037292871,"273":0.7361403662027524,"274":-0.3363627997422161,"275":-0.13666141404532392,"276":0.11533349110663461,"277":-0.1498742496552229,"278":-0.42236893961838085,"279":-1.2380756810285034,"280":1.1484369374738073,"281":0.5781601527376427,"282":0.418944249480819,"283":-0.5988781495852384,"284":0.11646716258637195,"285":-0.6539287552660243,"286":0.18911116118229282,"287":0.27207617436945775,"288":-0.02406428802327103,"289":0.21882378240043268,"290":0.013073118396209204,"291":-0.578041297556458,"292":-1.6857040038993847,"293":0.7746326114065176,"294":1.013993509759091,"295":0.09688396821907697,"296":-0.8547687141431588,"297":-0.4423362770048379,"298":-0.43208040231888467,"299":0.1670680799599202,"300":0.392127359911672,"301":-0.340212400354559,"302":0.6995939745839566,"303":0.34054219725904833,"304":-0.6711949523562663,"305":-1.6848772857603012,"306":0.5137123312302366,"307":1.290939545732516,"308":0.508700657130017,"309":-0.15698694244176464,"310":0.45817625085489644,"311":-0.9215887646278357,"312":0.39280620296996627,"313":0.1366936560884006,"314":-0.19142013281798712,"315":0.42189655273950083,"316":0.12789099592487257,"317":-0.49360523068258494,"318":-2.167797954919573,"319":0.5812743210557452,"320":0.8029059756552445,"321":-0.08342710772387667,"322":0.1879811135906376,"323":0.1757693527099832,"324":-0.015487625055716043,"325":-0.10488801175023597,"326":0.4694502569077342,"327":-0.020685930229578667,"328":0.9092465813657704,"329":0.08753449815025438,"330":-0.4791083206531141,"331":-1.8529044153483414,"332":0.9261987368599532,"333":0.6865251438709812,"334":0.1445781316616292,"335":-0.12054399585186645,"336":-0.27309735022669335,"337":-0.37407911460057924,"338":0.08506662461813673,"339":0.13272844934462,"340":0.3707763415151638,"341":-0.06401286315166242,"342":-0.01630871726775214,"343":-0.30361578083929847,"344":-1.900932253602036,"345":0.5347643672672565,"346":0.31944374234986567,"347":0.05586561969330102,"348":0.37855084450661697,"349":0.5545189346929899,"350":0.04152886367146093,"351":-0.1285489689983082,"352":0.01320618863341853,"353":-0.045422776748805405,"354":0.010752805218192897,"355":0.09780807741617273,"356":0.49054783966968185,"357":-0.4773332522775661,"358":0.4514530460248003,"359":0.1420282130049174,"360":0.18817986529514763,"361":0.45649835697164154,"362":-0.1759157514141098,"363":0.1608495875357761,"364":-0.19180900103551218,"365":-0.06308685992655505,"366":-0.07842652705213161,"367":0.10612682115068,"368":0.022900810793353026,"369":-0.11027715014274576,"370":0.4983754770884217,"371":0.49740968743225905,"372":0.03231628528877252,"373":0.48523031198402505,"374":-0.5375485746864508,"375":-0.14000077036578876,"376":-0.27345737081471766,"377":0.064137265761455,"378":0.3408457999407012,"379":-0.07442180647467912,"380":-0.3170960602576832,"381":0.3979528997616015,"382":-0.020235422874453575,"383":1.077683300230155,"384":0.5363058502996577,"385":0.2607792864604656,"386":-0.1073285958346039,"387":-0.33062615260418077,"388":0.11654240510947857,"389":-0.2914335894067814,"390":0.2558204128953553,"391":0.051531087612152825,"392":0.16458209102320753,"393":-0.14180533782342267,"394":0.07800711308567562,"395":-0.21526457200888166,"396":-0.2645188277917734,"397":0.11757778878943582,"398":-0.24471526229169135,"399":0.10435467203027127,"400":-0.03206405371459981,"401":0.618509206203491,"402":-0.13823179226181012,"403":0.1837702357013306,"404":-0.06756246845251064,"405":-0.06741618324593439,"406":-0.12589336670771792,"407":0.05323415656807935,"408":0.19660472315808403,"409":-0.29548660323664416,"410":0.21698091345860235,"411":0.11570571767632976,"412":-0.01262339614449129,"413":-0.37007491098037015,"414":0.6684353349433272,"415":-0.06321714779160206,"416":0.6279153319516152,"417":0.09996509054079239,"418":0.14628852413259597,"419":-0.28925065317230153,"420":-0.05690500338748839,"421":0.32722445428269076,"422":-0.3028622640084963,"423":0.0804899265470313,"424":0.511127380635861,"425":0.09718644341903765,"426":-0.058579201146529716,"427":0.18564906295725775,"428":-0.12513251665909095,"429":0.10294746334723359,"430":0.5481886072071755,"431":-0.32146896844230316,"432":-0.03340327709697927,"433":0.34462874165977697,"434":0.10246517869077432,"435":-0.36624768706193317,"436":0.050802020638211695,"437":-0.0006442611263204477,"438":-0.15158070460993625,"439":0.07003623973789057,"440":-0.24378969030340739,"441":0.3426982728678935,"442":0.14500895125892072,"443":0.15661786542497133,"444":0.07359374187817112,"445":0.17989484097853695,"446":0.26140712470039046,"447":0.5659017272838714,"448":1.9950233700701392,"449":0.16767522559441667,"450":-0.0019921911328975076,"451":-0.3761196034483034,"452":0.06629946219364441,"453":-0.5030802510205232,"454":0.3773671230941828,"455":0.5705541276215632,"456":0.21301882076871967,"457":0.024421489463764025,"458":0.05498609403750883,"459":-0.1338132635668029,"460":0.06406097877005582,"461":1.9547367297352651,"462":0.21437823718604399,"463":0.2177294152044097,"464":0.05884558829836535,"465":-0.09725383378883914,"466":-0.6597641320029617,"467":0.27236986724260503,"468":-0.27667216388553717,"469":-0.03505979376295726,"470":0.1852061138247768,"471":-0.3055495786653288,"472":-0.40517223038080796,"473":0.21780552283699334,"474":1.8009445677614027,"475":0.13822369198597342,"476":-0.4903400654973399,"477":-0.11223802879080233,"478":-0.23349226590171646,"479":-0.611840703406019,"480":-0.003747708405347357,"481":-0.36216034966338045,"482":-0.06690049028461305,"483":0.6327570574597031,"484":0.00521666663724448,"485":-0.15909907548781096,"486":0.5789057942764435,"487":-0.35249993760462073,"488":-0.31762421186131645,"489":0.0031576869600550297,"490":-0.11564420933441821,"491":-0.36922230258213407,"492":-0.061838721269928607,"493":-0.35820050478442433,"494":0.10520151524306538,"495":0.14050440597187597,"496":0.7004499860960612,"497":0.5326182472443769,"498":-0.15657181239056847,"499":0.010377958319942898,"500":-0.4326686696566119,"501":-0.14194414738302857,"502":-0.5278417892852004,"503":-0.00417709039124256,"504":-0.3677644362647139,"505":-0.0985865848404459,"506":-0.5743096909163738,"507":0.5921284630218221,"508":0.8367234398990334,"509":0.2781996762443475,"510":0.3333248302491729,"511":-0.18202113576589307,"512":0.29740073204766554,"513":-0.3641638758527174,"514":-0.09855051869952099,"515":-0.5460889578484283,"516":-0.3614870419011202,"517":0.16491770468810016,"518":-0.5619991141802801,"519":-0.5909198122327662}},{"sx":1,"sy":1,"depth":520,"w":{"0":0.052723522777361996,"1":-0.835063458570869,"2":-0.7240680805649532,"3":-0.5348298313955725,"4":-0.25213170962506454,"5":0.4741939215818201,"6":-0.7546693351470815,"7":0.16644580054611074,"8":-1.0505025005088555,"9":0.7446139418402695,"10":0.2348745444938947,"11":0.21245946064361362,"12":0.2039861832751272,"13":-0.3190778741375099,"14":0.43468945778738355,"15":-0.19274022165007726,"16":-0.3505205623928954,"17":0.250432171364467,"18":0.15074428625823708,"19":-0.38792284814618294,"20":0.06925537780285193,"21":-0.9649120689492664,"22":0.5098559892292992,"23":0.12395453961011411,"24":0.16383470235144507,"25":-0.07704621763155854,"26":-0.2710229990965761,"27":-0.12017880539076327,"28":0.4061272813181074,"29":-0.052968287360763186,"30":0.4514926789647715,"31":-0.18466375820254347,"32":-0.11299477392675554,"33":-0.29407388145206625,"34":-0.3600962823853408,"35":-0.21547253764746244,"36":0.09304959724263039,"37":0.530557311088281,"38":-0.09479741893033276,"39":-0.3767896317464346,"40":-0.19855195095959735,"41":0.3013449960163984,"42":0.23582903586775344,"43":0.7203643227241546,"44":-0.1255902425655328,"45":0.8982475613193031,"46":0.1793761651196116,"47":-0.23114228155007163,"48":-0.3301163688461816,"49":-0.44443496041437286,"50":0.1747351102725616,"51":-0.11833327411184368,"52":-0.8444073800249344,"53":-0.3537198663327393,"54":-0.30964252987491636,"55":-0.268710138515787,"56":-0.18597418904924426,"57":0.2344174646726727,"58":0.7149830511318268,"59":0.2617377934950813,"60":-0.3480962440151416,"61":-0.25751128800150175,"62":-0.2683245059605199,"63":0.11831887082828962,"64":-0.09616829152099483,"65":-0.20685754037102969,"66":-0.3878689467560349,"67":-0.8316471247265099,"68":-0.011631579608607062,"69":-0.2555764976479749,"70":0.09670687602765027,"71":0.37141449021607986,"72":0.22670928323493306,"73":-0.5855370100000722,"74":-0.5735244978754732,"75":-0.42202298649646397,"76":0.32235788647826785,"77":0.2784063202339655,"78":-0.5591666762517364,"79":-0.5424356957035701,"80":-0.11411294804124347,"81":-0.5097876342696532,"82":-0.048862804135444714,"83":-0.03642993074885859,"84":0.3600799825715338,"85":0.4439611132515997,"86":-0.3614762956516873,"87":-0.3316719368403646,"88":-0.3731309189624804,"89":-0.14375490770289032,"90":0.05561981489815798,"91":-0.6095503764056968,"92":0.23705268225210355,"93":0.060713059245411545,"94":-0.20403089479905911,"95":0.5829196138574692,"96":0.031547935925629024,"97":0.6051733239072705,"98":-0.16741707775097311,"99":0.02900550453387415,"100":-0.010139273989743425,"101":-0.1677736644591306,"102":-0.2668933811174054,"103":-0.06486498651742913,"104":0.12404501362167851,"105":0.3444685258115651,"106":-0.6347400861300154,"107":-0.24175037854278666,"108":0.6215366076127685,"109":0.13031680420518138,"110":1.4977167558264362,"111":0.6923053109091153,"112":0.2561714412731406,"113":-0.6263257360372677,"114":-0.3359748139927823,"115":-0.5970184275542566,"116":-0.11620923064964811,"117":-0.17905669598544227,"118":0.29894782503064615,"119":-0.24006560840307292,"120":0.37173667755804646,"121":0.5369084551675897,"122":0.8629192392056493,"123":1.059618337629844,"124":0.6730590254569887,"125":0.37768022550111313,"126":-0.20149420082852978,"127":0.042870799556376564,"128":-0.6656395848332953,"129":-0.1307652977975913,"130":-0.3453496628924815,"131":0.31609038285710006,"132":-0.8396485054810657,"133":-0.042818519841197236,"134":-0.061597351380714295,"135":0.38419463930267095,"136":0.761592154707732,"137":0.38940456164970405,"138":0.18047881700398546,"139":0.05804590243618989,"140":0.40590113244326037,"141":-0.4263470848301744,"142":-0.019028692023776713,"143":-0.738486432655209,"144":1.039444429455452,"145":-0.8140817885129926,"146":-0.6447123334201228,"147":0.5321145320367499,"148":0.39518801235154755,"149":0.9129486934431623,"150":0.2795086436619145,"151":0.06750145421893664,"152":0.22501363620475315,"153":0.3755146711815788,"154":-0.37410957517860693,"155":0.05694976553181983,"156":0.2621157675080287,"157":-0.0029425942049001543,"158":-0.10464723255596256,"159":0.0837731749139935,"160":0.22435447619930102,"161":0.8561567075921754,"162":-0.06150308608736497,"163":-0.44695918652030026,"164":-0.2727376241622649,"165":0.1304871255987094,"166":0.12625123787430603,"167":-0.46258675872065885,"168":0.038275744330013205,"169":-0.2095305686679557,"170":-0.17951035966332227,"171":-0.4092579374121737,"172":0.12398062837347923,"173":-0.028586135876394244,"174":0.8675018475418719,"175":0.21809922612483873,"176":0.10590790116916718,"177":-0.16926356728054967,"178":-0.11410088765418347,"179":-0.338586617211482,"180":-0.2906132619107318,"181":-0.023532936605796976,"182":-0.5714212317617775,"183":-0.14671763250628234,"184":-0.4718798589679151,"185":0.07183894801421534,"186":0.2762836494163039,"187":0.7864351794856888,"188":0.6547759065108444,"189":0.34937516512944855,"190":0.31843404615745774,"191":-0.423846566321844,"192":-0.14367488064834566,"193":-0.40027986820305733,"194":-0.007597825055007717,"195":-0.13590775564302474,"196":-1.1039749785603077,"197":-1.540109203198552,"198":0.3073593401631713,"199":0.22570738473973195,"200":0.7905634163508797,"201":0.9155855320419408,"202":-0.2519819777512148,"203":0.12199828325844868,"204":-0.27321403686761786,"205":-0.11853220754474439,"206":-0.5518164312595787,"207":-0.043292961459141424,"208":-0.39401975455674637,"209":-0.2341402752732169,"210":-0.8960271676276041,"211":0.3317497760999883,"212":0.760029880732121,"213":0.5531713970990461,"214":0.7240329401275749,"215":0.0493050263994314,"216":0.06999840501513326,"217":-0.13103906429339401,"218":0.29732942716391947,"219":-0.4010924238773587,"220":-0.05399359033272398,"221":-0.4941389482192629,"222":0.16740004089796456,"223":-0.5995592985754155,"224":0.01941113351821517,"225":0.35355590929552577,"226":0.25462513272338844,"227":-0.14380894471086111,"228":0.2171499519502162,"229":0.24502085454766154,"230":0.06711274506908929,"231":-0.10709810435378368,"232":-0.2932408350871862,"233":-0.17051075356767056,"234":-0.024395307823703798,"235":-0.4171328920989035,"236":-0.4106493074063022,"237":0.4661664727506689,"238":0.4902809454068912,"239":0.707524850746104,"240":0.30452070707081613,"241":-0.47824741483668043,"242":0.23978124753208332,"243":0.10411525748578268,"244":-0.1898622836767005,"245":-0.042591372005900775,"246":-0.20097476572187864,"247":-0.15131802332076996,"248":-0.3954228133513187,"249":0.24816248460949056,"250":0.1777750007539323,"251":-0.03674771742499482,"252":0.6611330518310746,"253":0.21907632300410304,"254":-0.9080024326467381,"255":0.2983186768740828,"256":0.4627857763166459,"257":-0.20533284438869448,"258":-0.42900454541290567,"259":-0.11793506152632931,"260":-0.2504880835869354,"261":-0.3740723559450953,"262":0.26654600672826856,"263":-0.20474070459911364,"264":0.02652024280745278,"265":0.8657815391605904,"266":0.9309945106487919,"267":-0.5734500808886754,"268":0.4647819728451184,"269":0.24346167935214924,"270":-0.7522175536405503,"271":-0.4993417309429851,"272":0.029285426044088844,"273":0.19706098773901942,"274":-0.2642229577496557,"275":-0.14636195471805158,"276":-0.08690299518369925,"277":0.7470074558335494,"278":1.48004132239979,"279":0.5144096630088973,"280":-0.5309894657644261,"281":0.10557756030886707,"282":0.10748229547200652,"283":-0.03606247580160619,"284":-0.45178714643989915,"285":0.029889429528454952,"286":-0.2988370022171607,"287":0.12103813465533382,"288":-0.1472013761898723,"289":0.3060687889875887,"290":0.45593904447541705,"291":1.2575405916822668,"292":0.052866700349910284,"293":-0.35755673886927725,"294":0.04658842352902683,"295":0.47534254018223093,"296":-0.08083711575093491,"297":-0.3893564067399383,"298":0.037752352610916556,"299":0.3243622283520194,"300":0.21453921242759005,"301":-0.4688320935398381,"302":-0.4329125848288592,"303":-0.5505827272204123,"304":0.6944354990708752,"305":-0.07173010153219592,"306":-0.3525415923047886,"307":-0.2331603975555006,"308":0.40255819633105233,"309":-0.25763825954353453,"310":-0.7123751121016558,"311":-0.05709253043398466,"312":0.889505893034051,"313":-0.7095388546302165,"314":-0.2622145868867263,"315":0.47969230241695804,"316":0.09935998981791773,"317":1.3560177893232503,"318":-0.2176978439331752,"319":-0.6242621931244874,"320":-0.02082282865482853,"321":0.9260570670754058,"322":0.015982265322593617,"323":-0.6761628517195843,"324":0.022556625924098926,"325":0.35809240608874665,"326":-0.06293179471906209,"327":-0.0505194385467909,"328":0.12716597623538942,"329":0.06455676447541422,"330":1.2208667939375022,"331":0.2644212397819928,"332":-0.7222495524646425,"333":0.2664019834650643,"334":0.5269413688296614,"335":0.12966282943247628,"336":-0.7310294379104612,"337":-0.10053493629981286,"338":0.20027848396857076,"339":0.11345514560761567,"340":0.1346471550304163,"341":-0.10175019317005429,"342":-0.10333288392145822,"343":0.14335932329199177,"344":0.1949646849695588,"345":-0.8136029036515966,"346":-0.17987854888736401,"347":0.20261949667704626,"348":0.3363071429916407,"349":-1.1073908640451802,"350":-0.08090029350015136,"351":-0.04118919856495585,"352":0.15601280316160818,"353":0.0296802834113854,"354":-0.4671164031261049,"355":0.524342205130182,"356":0.6102093827306639,"357":-1.1433187153151083,"358":-1.0977407028145896,"359":-0.30666006133520046,"360":-0.2175505141608631,"361":0.43037854344084875,"362":-0.3599155141562408,"363":0.06692819084252734,"364":-0.161112944703096,"365":-0.07185356734817748,"366":-0.21003808362303455,"367":-0.40551909288472027,"368":0.4890819195678116,"369":0.8871684168830728,"370":-1.1925418684412774,"371":-1.1808201383756245,"372":-0.22265701530267226,"373":-0.23778261191431863,"374":0.037645240107044724,"375":-0.2067132095174905,"376":-0.018251406857998517,"377":-0.241568549083865,"378":0.11657691656424854,"379":0.22725293109509018,"380":-0.42400706856909065,"381":-0.029676460206976216,"382":0.4888104844169286,"383":-1.3137917675802597,"384":-1.209598775022046,"385":-0.5923107938646777,"386":0.0008550927524533947,"387":0.2907458790347338,"388":-0.3490118115374147,"389":0.21224978989652246,"390":0.593079164347345,"391":-0.523174627868875,"392":-0.083448094555482,"393":-0.6555856768947518,"394":-0.06310769746346004,"395":0.502261096999087,"396":0.04812159585562312,"397":-0.8439759482198818,"398":-0.24936714317231545,"399":0.21120305969291447,"400":-0.4622635414226458,"401":0.19403676190448446,"402":0.058211649472290045,"403":0.689758597076214,"404":-0.6312455203697906,"405":0.15711636132248163,"406":0.15639404371928786,"407":0.18221035708740527,"408":0.43715506521284425,"409":0.006858074088226687,"410":-0.3142359325499444,"411":0.16562365267451717,"412":0.22083880096197744,"413":-0.027358815383744756,"414":0.043083022566826376,"415":0.06568509257628707,"416":-0.4036921221917381,"417":-0.25834821269003105,"418":-0.2526119361222033,"419":-0.11966999632083425,"420":-0.09667061596208265,"421":0.36694583521055046,"422":0.01571856964191123,"423":-0.2920460136249431,"424":0.3640375792954325,"425":-0.027753450404329846,"426":-0.06273500947277916,"427":0.05366450143183601,"428":0.1489659913864309,"429":0.1802158270453138,"430":-0.6611998270415315,"431":0.17966733445857253,"432":-0.11782856947960532,"433":0.49994775085765275,"434":1.0075627083236565,"435":0.03725640195528092,"436":-0.4604011453061271,"437":0.1501930177450277,"438":0.22352908554863204,"439":0.037661044923990965,"440":0.17187526372931114,"441":0.20780262379373654,"442":0.31941395250544896,"443":-0.08615277178956293,"444":0.2297868567835164,"445":0.1003066186302325,"446":0.3596647800644907,"447":0.7017597590222271,"448":-1.5015201044555821,"449":-0.3823974787007186,"450":-0.20885907919112096,"451":-0.21109010204089346,"452":0.10221500493642229,"453":-0.3227930583816584,"454":0.0910650303733089,"455":-0.03519221637730957,"456":-0.18878685737430348,"457":-0.44784202778234483,"458":0.0033682874317146135,"459":-0.28808914360209403,"460":0.43891512913027675,"461":-1.5523248816896367,"462":-0.14309733172525677,"463":-0.7853678476997095,"464":0.04852859943208117,"465":-0.19360312620228132,"466":0.2325621439245898,"467":-0.03572253694197286,"468":-0.1530508371596431,"469":-0.5126298751829231,"470":0.08191147289926586,"471":0.528142439843279,"472":0.014106032312731736,"473":0.2960961186808447,"474":-1.519447437223906,"475":0.1992165517014885,"476":-0.310813496158484,"477":0.10322240357602404,"478":-0.1378257838872971,"479":0.22462899109068848,"480":0.20533112031400003,"481":0.09873576466778106,"482":-0.36403828670036886,"483":-0.15513017811429092,"484":0.35290188968126796,"485":-0.08450032799549674,"486":0.5906863328933993,"487":-0.6832059821032702,"488":0.1438402111436006,"489":0.5608657858159453,"490":-0.07105463554058723,"491":-0.3999937845571058,"492":0.589581643731336,"493":0.2263874643950895,"494":-0.283473608628005,"495":-0.0020504165181368522,"496":-0.2495558605786252,"497":0.5498738482402,"498":0.2155511583834448,"499":0.6740777688554859,"500":-0.3324414257815439,"501":-0.08856296968234338,"502":0.26186578539416744,"503":-0.22978984217926765,"504":-0.005624506452681665,"505":0.22114049851540518,"506":-0.08011956646886126,"507":0.21986352051579547,"508":0.007809880272680421,"509":-0.2945204235932888,"510":0.25084091660792274,"511":-0.47616882667872595,"512":0.3112374995011873,"513":-0.24474923814372804,"514":-0.011862843015657083,"515":0.1055503476855013,"516":0.049442093607031876,"517":-0.11929543294929369,"518":-0.13719654655524402,"519":-0.13477100530822797}},{"sx":1,"sy":1,"depth":520,"w":{"0":-0.43313156611138065,"1":-0.4076601685581378,"2":-0.2500756216306297,"3":-0.16333581980710032,"4":-0.25134353333979065,"5":-0.4298119937153026,"6":-0.22713159235727434,"7":-0.5110638210675086,"8":0.06655734073804123,"9":-0.16913717995043184,"10":-0.14589821707811318,"11":-0.44992289735682306,"12":-0.10082984493311933,"13":-0.0960529790056188,"14":-0.39339622256985357,"15":0.10774455428747184,"16":-0.03488350657126691,"17":-0.19399439325618625,"18":0.46017025130724337,"19":0.16678632938793808,"20":-0.5132466917415223,"21":-0.057858508884532915,"22":0.22280557155201655,"23":-0.11474120265005473,"24":-0.2144143511647819,"25":-0.008063437844604627,"26":-0.2505909224694418,"27":0.08518274681067511,"28":0.034978099484315316,"29":-0.5546992298085067,"30":-0.5146727631268666,"31":0.025139620309889536,"32":0.3747354555230297,"33":0.23283188881852243,"34":-0.08502914126835781,"35":-0.23835920351188566,"36":-0.18198461835838278,"37":-0.72899492775454,"38":0.197948851492168,"39":-0.13695159583572208,"40":0.11570437425178022,"41":0.32860892434506117,"42":-0.6410104359155419,"43":-0.2001754140630681,"44":0.2669776958064768,"45":-0.08455121590675524,"46":0.025631806989639634,"47":-0.23969722777932656,"48":0.021300341370488012,"49":-0.13822907529390327,"50":-0.2794603947656909,"51":-0.0420832988657947,"52":-0.1024229213912529,"53":-0.22172664315532817,"54":-0.31635254695675863,"55":-0.26974567043491243,"56":0.07495446849828193,"57":0.5192298855171015,"58":0.5062901266180906,"59":0.1989988653840205,"60":-0.22543259027984636,"61":0.3139921915648572,"62":-0.2356160793703174,"63":-0.12484248952024363,"64":-0.3633670094023253,"65":0.29134462493354585,"66":-0.9340435581881861,"67":0.27454441153473924,"68":-0.23095259535209695,"69":-0.49996833789259687,"70":0.14941993603878118,"71":0.1363334377280887,"72":0.15265217591958452,"73":0.1375710108148908,"74":-0.17152330071340113,"75":-0.3912264111659581,"76":-0.42084865723992376,"77":-0.33032463476614354,"78":0.564096573298531,"79":-1.5635040652599905,"80":-0.09157557856357827,"81":-0.17576309161000103,"82":-0.2594517018684261,"83":0.8266877561866617,"84":0.36823696962154095,"85":0.2348530412094226,"86":-0.2023420364896657,"87":-0.12291632417906166,"88":-0.27470157877455736,"89":0.14298312248615658,"90":-0.28615349928742173,"91":0.44009333871276984,"92":-1.0873663102540012,"93":1.0447194566985587,"94":-0.2505400739147925,"95":-0.6642025674567874,"96":0.5801575321166933,"97":1.1214531678512911,"98":0.3182598328559237,"99":-0.1480142223908105,"100":-0.09711459233669613,"101":-0.39336188688711365,"102":-0.1236619073054656,"103":-0.20339093118996923,"104":0.8654889720235952,"105":-0.09943679890767212,"106":0.4749972781639743,"107":0.05967331963095982,"108":-0.4451035018616323,"109":0.1166845760661326,"110":0.9154607792606586,"111":0.2339741259987211,"112":0.2666599314481194,"113":-0.26133661197922486,"114":-0.6053161430271115,"115":-0.4419893163632123,"116":0.005026291972060327,"117":0.7593350030755631,"118":-0.08492365441731693,"119":0.23344966311318896,"120":0.05683355117597499,"121":-0.503636169334745,"122":0.074551767953516,"123":0.7628210081466713,"124":1.0728237594012566,"125":-0.3240815637693313,"126":-0.13290827757793566,"127":-0.18512714373107472,"128":-0.23505106474072535,"129":-0.06662687641879665,"130":0.29200318570836287,"131":0.3725809913137449,"132":-0.03098374414663295,"133":-0.4224140936849768,"134":-0.8735187280684009,"135":0.009821834710209136,"136":1.1559275352215728,"137":0.03979079291121916,"138":0.5585231296593249,"139":-0.152257037450452,"140":-0.03404891081618695,"141":-0.22952419418489514,"142":-0.13609735640673606,"143":0.6118312754427879,"144":0.3667891228867302,"145":-0.6278208889111643,"146":-0.8850255894254019,"147":-0.5150019421246276,"148":-0.21083910590317445,"149":-0.28994377214003764,"150":0.1658724750628766,"151":0.43277184075093,"152":-0.15779596692905762,"153":-0.026805200767099194,"154":-0.10866822531409931,"155":0.06335396637764906,"156":0.37539759980153864,"157":-0.14694490588989761,"158":-0.2819430929518874,"159":-1.0885323929787754,"160":-0.37698682721371674,"161":0.15367977088035184,"162":0.8936152417793325,"163":0.32412750280714153,"164":0.38160889540591997,"165":-0.3520879063758188,"166":-0.13545171880724988,"167":0.06729014004413159,"168":0.005294566757379132,"169":0.31175614683716363,"170":-0.13508122016666124,"171":0.07662104672798425,"172":-0.6316760540501928,"173":-0.3807398579822247,"174":0.14546034644921718,"175":0.911757703952635,"176":0.015206977728490558,"177":0.44429199149038856,"178":-0.33977750110551436,"179":-0.22750293437799934,"180":-0.29188812004706893,"181":0.10778826474919016,"182":0.6469270669594599,"183":-0.05925524815427254,"184":0.37204028354040436,"185":-0.5071330430075894,"186":-0.07499796772183222,"187":-0.03517550849548228,"188":0.060525781256279075,"189":0.5713702680217303,"190":0.29153531787846254,"191":-0.3359935097831433,"192":-0.26287193469409503,"193":-0.17297025537869745,"194":0.040465643723127796,"195":0.09644013400610497,"196":0.10868732616523176,"197":-0.01997041813185164,"198":-0.2903410092972874,"199":-0.2695824712215471,"200":0.3075985223959828,"201":0.6704093744732876,"202":0.5872369019913891,"203":0.13325416280957647,"204":-0.28384099151318065,"205":-0.3118661445139664,"206":-0.23744812286593003,"207":-0.020064876848423188,"208":0.47533684625735756,"209":0.26458357532972837,"210":0.18013231742267735,"211":-0.45607629847437253,"212":-1.0787117038145366,"213":0.7078098242193684,"214":1.5433908914681531,"215":0.45363743886350266,"216":-0.14976574415884827,"217":-0.23976752682405159,"218":-0.39074801588973584,"219":-0.20829032005585874,"220":0.004674299847686365,"221":0.3350008994562912,"222":0.5895647546118112,"223":0.2820335351784293,"224":-0.3584197251460092,"225":0.014426565632176345,"226":0.5908306831176294,"227":0.7643303093720687,"228":0.9437250647182001,"229":0.23643798302783559,"230":0.12233842268483472,"231":-0.15691818587011358,"232":0.14239194330728483,"233":-0.02638665906559914,"234":0.09203166558546431,"235":0.5131927595685226,"236":-0.5964195132698126,"237":-0.3681201965827262,"238":-0.33098548621093693,"239":0.47439014294944676,"240":0.7644298921649914,"241":0.7995952104913662,"242":0.043136173696162516,"243":-0.42641327501832343,"244":-0.22398697683749796,"245":-0.0769708655339259,"246":-0.2040505127955201,"247":0.16774921637271556,"248":0.09713578519673,"249":-0.48870442214195675,"250":0.5338567777395181,"251":-0.11770339600286134,"252":0.4942001336581682,"253":0.7114656128216401,"254":0.4103343090493618,"255":0.18045912127155792,"256":-0.2024575563139014,"257":-0.3932846557144009,"258":-0.21642165678590297,"259":-0.11961025219711266,"260":0.41417292524990396,"261":-0.8288720676528438,"262":0.1142080472047131,"263":0.12660875429010068,"264":0.4079546251852895,"265":0.48808131045507985,"266":-0.5795387369997324,"267":0.8625733178512182,"268":0.08745322993813615,"269":-0.33756219144270166,"270":0.28759530037203207,"271":-0.303078314778126,"272":-0.14757991674445106,"273":-0.16337239995899203,"274":0.0425791716423748,"275":-0.18941782601323007,"276":-0.34390529897901045,"277":0.11553780346304028,"278":0.7221910635502828,"279":0.1346680970570497,"280":0.38349658669677217,"281":-0.2400815688252074,"282":-0.5511222408225427,"283":0.20560353358348535,"284":-0.4263441260892686,"285":-0.1779162389039694,"286":0.14262506761096666,"287":-0.0917981540399601,"288":0.6700316561748253,"289":0.15783012310835975,"290":0.4311125638748636,"291":0.25642075787411844,"292":0.41970360381058996,"293":0.854203659139327,"294":-0.3786808147216864,"295":-0.2156162965555601,"296":0.11304272658690717,"297":-0.27678467728156103,"298":-0.04420784130200953,"299":-0.15839468002821486,"300":-0.27395704906812524,"301":0.08833247327760106,"302":-0.16988874339602184,"303":0.13333962045615025,"304":0.34200897652607154,"305":1.357612868250392,"306":0.721832349553184,"307":-0.24543159715089302,"308":-0.2248638414701075,"309":0.006324232404480438,"310":-0.023845063698787642,"311":0.06543668527515183,"312":-0.1443291064390991,"313":-0.4096136633112996,"314":-0.49591480853832276,"315":0.14256483788808205,"316":0.023084888454470397,"317":0.6422216374667573,"318":0.9883632549957222,"319":0.8265158458968913,"320":-0.276320138795599,"321":-0.3430057533473407,"322":-0.354693284505534,"323":0.06549230751463307,"324":-0.01883505079443244,"325":0.17041099018859207,"326":-0.7339128933121921,"327":-0.24535063601779453,"328":-0.04331581861560819,"329":0.28171596981331065,"330":0.2704625000606362,"331":0.6407466625164832,"332":0.21542313984232833,"333":-0.31293488124770774,"334":-0.24353250321460515,"335":-0.133669994242802,"336":-0.2523800882776912,"337":-0.05019063845859992,"338":-0.30582624354421295,"339":-0.24219970885584322,"340":-0.11088254984008115,"341":-0.21421158473837118,"342":-0.07171005799704579,"343":0.3994954866494764,"344":0.8670549314656989,"345":0.13778420681811654,"346":-0.23513571888552734,"347":0.029973423658231246,"348":0.11356569955093758,"349":-0.18414953410765705,"350":0.04479254924729265,"351":-0.31864019170198915,"352":0.32986304662354266,"353":0.10723717774493673,"354":0.010796055479306557,"355":0.8936322972791508,"356":0.7238224270259135,"357":-0.622163960555919,"358":0.22172657978799834,"359":-0.5731490669263211,"360":0.096685381505277,"361":-0.07495630562487275,"362":-0.250838030255527,"363":0.01842052498516453,"364":-0.44684275114855987,"365":0.12396892057925159,"366":-0.031851390125582586,"367":0.32527248727384267,"368":0.3004925152616116,"369":0.6222426051276849,"370":-1.2257343833017271,"371":0.2834693276385226,"372":-0.5927727987160627,"373":-0.20372892923492605,"374":0.08094972722555112,"375":-0.2002108264043006,"376":-0.01847598371648654,"377":-0.4259869564945318,"378":-0.13799627700113054,"379":-0.016917037014234373,"380":0.3725314358863464,"381":0.38177004477794707,"382":1.133509596535306,"383":-1.305642366541948,"384":-0.38813315641195373,"385":-0.4098083362298448,"386":-0.1502161771229422,"387":-0.14896481312123935,"388":0.5646055841109728,"389":0.182334467126047,"390":-0.15709256622151793,"391":-0.17231600048522427,"392":-0.4609800690863449,"393":-0.04380590782637847,"394":0.3263378858010048,"395":0.7456685655013348,"396":0.15081788214559416,"397":-0.3648857261372042,"398":-0.7643004348957853,"399":-0.39264995006190084,"400":-0.11498145735247457,"401":0.33990887858712077,"402":-0.038597151805218166,"403":0.24079141160926634,"404":-0.10354263085194139,"405":-0.4693921495631058,"406":-0.4721919212087276,"407":-0.01044210009574989,"408":0.3265164650561098,"409":0.18341866689660155,"410":-0.14334975502947173,"411":-0.29826653790558144,"412":-0.6613675163857641,"413":0.014574274935475228,"414":0.28301278564094134,"415":-0.07110133456672778,"416":-0.3431653815091028,"417":0.2989554471245501,"418":0.0773297385106549,"419":-0.19308606916953466,"420":0.8380574257554702,"421":0.6672422615083905,"422":0.07188151235632537,"423":-0.17402889044222494,"424":-0.17657228014802218,"425":-0.10789652329913596,"426":0.1817553857760693,"427":0.12364998654050995,"428":0.024460388669731756,"429":-0.6581762322792049,"430":0.12243153700961018,"431":-0.4048670332590685,"432":0.02233636486059533,"433":0.23413577381840353,"434":0.9909883117426582,"435":0.061649753594326694,"436":-0.21767146848271407,"437":-0.38330480567063335,"438":0.005191190390955448,"439":0.30906834858645593,"440":-0.26645850278076383,"441":-0.03514035911836213,"442":-0.3520927457088844,"443":0.6518855280589981,"444":0.4065827809982625,"445":0.4397430115692189,"446":0.23332316805307388,"447":0.4308887508699632,"448":-1.6288825320610012,"449":-1.005071634955882,"450":-0.2229702315928706,"451":-0.10036405798958166,"452":0.32478577745457826,"453":-0.1451479845374867,"454":0.10144275081547129,"455":0.007407931629757074,"456":0.4798439355710307,"457":0.642892297807193,"458":0.3798314727075943,"459":0.3585545677686229,"460":0.01213410566234939,"461":-1.6394946449210586,"462":-0.9293013383695277,"463":-0.4942521723438824,"464":-0.2418171701985115,"465":0.41491634102885394,"466":0.09312415306010152,"467":-0.18798954949799682,"468":-0.23800253832083107,"469":0.7232624845238369,"470":0.39761904883601634,"471":-0.15096398844547712,"472":0.21548814098489746,"473":-0.35349882830335494,"474":-1.6115151252155888,"475":-0.5227854423143807,"476":0.03215568732097358,"477":-0.01277055262002391,"478":-0.09456404397945872,"479":-0.24685764066135643,"480":0.214566358477395,"481":0.11512040974219617,"482":-0.06326969178069104,"483":0.205755825143845,"484":-0.03366999193854333,"485":0.24713712922548337,"486":-0.11673397068406073,"487":0.6392341758380975,"488":-0.8554023118072553,"489":-0.24954343720296782,"490":-0.41634367498750274,"491":-0.018149898460763158,"492":-0.4670194276726363,"493":0.009390634238639813,"494":-0.19899331489094382,"495":0.3050289226474634,"496":-0.26423629719449354,"497":-0.016671915174062343,"498":-0.06169847519716659,"499":0.15242632226708064,"500":0.12409044596759912,"501":-0.2146506735783478,"502":-0.5806010111889386,"503":-0.4946014777097064,"504":0.03231465569657541,"505":-0.23312991888195342,"506":0.03531117104042454,"507":-0.07702626763886572,"508":0.32111478613490047,"509":-0.34204196025716216,"510":0.08685853346094814,"511":-0.16669935741800138,"512":0.43037111811540735,"513":-0.16661537533004056,"514":-0.42717441805011785,"515":-0.7367325450636644,"516":-0.10619089852395357,"517":-0.276848087447479,"518":-0.35885133850468764,"519":0.0029205512666377214}},{"sx":1,"sy":1,"depth":520,"w":{"0":-0.07801016979354812,"1":0.2277612101544578,"2":0.2884587906962253,"3":0.07184355288601008,"4":0.04484186051475821,"5":-0.09780380184019047,"6":-0.09536825492978998,"7":0.09190500311484458,"8":0.12231321657591163,"9":0.007016582909646945,"10":0.048206473703426365,"11":-0.12233829241227087,"12":0.003518973613611068,"13":-0.06881916406372,"14":0.14123693169833526,"15":0.025329831074457035,"16":0.0634127321453917,"17":0.060656900483217396,"18":-0.07491994671123167,"19":-0.017730320636173486,"20":-0.05671860841007127,"21":0.024021855880667412,"22":-0.0037245238703160987,"23":0.1398122167337555,"24":0.03508407255286738,"25":-0.11864775910092534,"26":-0.05224370619141056,"27":0.08404145391823438,"28":0.15876481555560296,"29":0.10277458180169881,"30":0.08618332582390992,"31":-0.08538811296917935,"32":0.0015985675205233386,