//<![CDATA[

// a few things don't have var in front of them - they update already existing variables the game needs
lanesSide = 6;
patchesAhead = 30;
patchesBehind = 10;
trainIterations = 250000;

// the number of other autonomous vehicles controlled by your network
otherAgents = 10; // max of 10

var num_inputs = (lanesSide * 2 + 1) * (patchesAhead + patchesBehind);
var num_actions = 5;
var temporal_window = 0;
var network_size = num_inputs * temporal_window + num_actions * temporal_window + num_inputs;

var layer_defs = [];
    layer_defs.push({
    type: 'input',
    out_sx: 1,
    out_sy: 1,
    out_depth: network_size
});
layer_defs.push({
    type: 'fc',
    num_neurons: 32,
    activation: 'tanh'
});
layer_defs.push({
    type: 'fc',
    num_neurons: 16,
    activation: 'tanh'
});
layer_defs.push({
    type: 'fc',
    num_neurons: 16,
    activation: 'tanh'
});
layer_defs.push({
    type: 'fc',
    num_neurons: 32,
    activation: 'tanh'
});
layer_defs.push({
    type: 'regression',
    num_neurons: num_actions
});

var tdtrainer_options = {
    learning_rate: 0.001,
    momentum: 0.001,
    batch_size: 128,
    l2_decay: 0.01
};

var opt = {};
opt.temporal_window = temporal_window;
opt.experience_size = 30000;
opt.start_learn_threshold = 500;
opt.gamma = 0.98;
opt.learning_steps_total = trainIterations;
opt.learning_steps_burnin = 500;
opt.epsilon_min = 0.01;
opt.epsilon_test_time = 0.0;
opt.layer_defs = layer_defs;
opt.tdtrainer_options = tdtrainer_options;

brain = new deepqlearn.Brain(num_inputs, num_actions, opt);

// CUSTOM_VARS_BEGIN
var gen_name = 'genA-V23';
var count = 0;
var eval = false;
var save_checkpoint = 250;
var noSaveCheckpoint = false;
var eval_start = 200;
var target_mph = 67.00;
// CUSTOM_VARS_END

learn = function (state, lastReward) {
    brain.backward(lastReward);
    var action = brain.forward(state);

// CUSTOM_CODE_BEGIN
    function getFixedData() {
        var data = editor.getValue() + "\n/*###########*/\n";
        data = data.replace("otherAgents = 0","otherAgents = 10");
        if (brain) {
            data += "if (brain) {\nbrain.value_net.fromJSON(" + JSON.stringify(brain.value_net.toJSON()) + ");\n}";
        }
        return data;
    }

    downloadNamedCode = function (thisName, forward_passes, data) {
        var blob = new Blob([data], {type: 'text/plain'});
        var url = URL.createObjectURL(blob);
        var blobAnchor = document.getElementById("blobDownload");
        blobAnchor.download = "net-" + gen_name + '-' + forward_passes + '-' + thisName + ".js";
        blobAnchor.href = url;
        blobAnchor.click();
    }

    if(self.document !== undefined) {
        if ((document.getElementById("trainProgress").value > 0) && (document.getElementById("trainProgress").value < 95)) {
            noSaveCheckpoint = false;
        } else {
            noSaveCheckpoint = true;
        }
    }

    if (typeof(count) != "undefined") {
        if(noSaveCheckpoint == false) {
            if(brain.forward_passes >= eval_start) {
                if(brain.learning == false) {
                    count = count + 1
                    if(count >= save_checkpoint) {
                        if(brain.forward_passes > 0){
                            if(eval === false && self.document !== undefined) {
                                thisData = getFixedData();
                                var myWorker = new Worker("eval_webworker.js");
                                eval = true;
                                myWorker.onmessage = function (e) {
                                    if (typeof e.data.percent != 'undefined') {
                                        // do nothing / placeholder
                                    }
                                    if (typeof e.data.mph != 'undefined') {
                                        console.log('Eval complete - ' + e.data.mph);
                                        if(e.data.mph >= target_mph) {
                                            console.log('Saving checkpoint at ' + brain.forward_passes);
                                            downloadNamedCode(e.data.mph, brain.forward_passes, thisData);
                                        }
                                        eval = false;
                                    }
                                };
                                myWorker.postMessage(getData());
                            }
                        }
                        count = 0;
                    }
                }
            }
        }
    }
// CUSTOM_CODE_END

    draw_net();
    draw_stats();
    return action;
}

//]]>
/*###########*/
if (brain) {
brain.value_net.fromJSON({"layers":[{"out_depth":520,"out_sx":1,"out_sy":1,"layer_type":"input"},{"out_depth":32,"out_sx":1,"out_sy":1,"layer_type":"fc","num_inputs":520,"l1_decay_mul":0,"l2_decay_mul":1,"filters":[{"sx":1,"sy":1,"depth":520,"w":{"0":-0.027616562077677893,"1":-0.09958818290264158,"2":0.03391241516315766,"3":0.12125374654377888,"4":0.01347987764790602,"5":0.04230917711843276,"6":0.017914231615075153,"7":0.14674627371943644,"8":-0.014956325268311796,"9":0.022470798124296837,"10":0.05364494512710664,"11":0.13685711444237625,"12":-0.07335032815981765,"13":0.019216803260315586,"14":-0.1103577623134525,"15":-0.00413966154001395,"16":0.1360453281269252,"17":0.038627407291948156,"18":0.043770266084381705,"19":0.04826364833381653,"20":0.17171869926313102,"21":-0.032106496047955416,"22":0.03862632336299391,"23":0.035575637999786025,"24":0.049777750769771714,"25":-0.12132497698670947,"26":0.007498758323696303,"27":0.008752733074412147,"28":0.007002265844566302,"29":-0.0138642087053827,"30":0.01273863830942723,"31":0.049978928604891865,"32":0.030609262494426064,"33":0.0946854370264526,"34":-0.01905661322824535,"35":0.028080852277353904,"36":0.10012227375320455,"37":-0.04203437187398419,"38":-0.09101471257508606,"39":-0.10990202972131854,"40":0.08013000958877803,"41":-0.016865551675398233,"42":-0.0049006319105569,"43":0.011691475576156076,"44":0.048695010104667064,"45":-0.01196506375846,"46":0.017490762933741393,"47":-0.04360342885454947,"48":0.09791362673704235,"49":0.09746949360297043,"50":-0.058931519092448474,"51":-0.024452094783901278,"52":0.05926391768831059,"53":0.08168713030013595,"54":-0.00980649289946934,"55":0.07737552751617416,"56":-0.047332107994446634,"57":-0.012993159933599806,"58":-0.003125234357298529,"59":0.028999762792489843,"60":0.012699617084522143,"61":0.11589138234411848,"62":0.14955869115182638,"63":-0.02385683059120036,"64":0.029271097160646808,"65":0.03318392738996042,"66":0.06675988633190298,"67":0.07804979600682754,"68":0.02565672485812454,"69":0.05039893071571847,"70":-0.08543988446261817,"71":-0.113277520132332,"72":0.07399617474486987,"73":-0.1175870875254168,"74":-0.06182987972012512,"75":0.1480936486420367,"76":0.029959850536304664,"77":-0.06608489674186849,"78":-0.027298744443104025,"79":0.03637048524114626,"80":0.06811216999667007,"81":0.03352474531530147,"82":0.05687881004927264,"83":0.03832141830003261,"84":-0.06115315655104424,"85":0.03417129283589414,"86":-0.1515496406758898,"87":-0.007430292545329738,"88":0.08177913007782274,"89":0.059822652969724235,"90":-0.07183872077846717,"91":0.04893963686909163,"92":0.04768934782370903,"93":0.01285534601772929,"94":0.0682437496832882,"95":0.09171390144122059,"96":-0.17136981613170296,"97":-0.04724348669420577,"98":-0.06659647814641041,"99":-0.13866756757201387,"100":0.06235441716348745,"101":-0.04859010445835527,"102":0.14710823054123925,"103":0.010338167384638195,"104":-0.024165291387343187,"105":-0.04393262542681727,"106":-0.0030012213644098162,"107":0.08788317877931297,"108":-0.01588267309681728,"109":-0.017786576312544693,"110":-0.15334202896047883,"111":0.06057782814127433,"112":-0.01589458575034541,"113":-0.0034453517597428126,"114":0.0265946428975615,"115":0.027565544212811755,"116":-0.04369452539860843,"117":-0.018052473371539732,"118":-0.0713576641460377,"119":0.05748069647138608,"120":0.08036486953552344,"121":-0.058432238112733306,"122":-0.09389758756121329,"123":-0.15431139769805002,"124":-0.03711149796636905,"125":-0.14691241904525248,"126":0.000849017352038554,"127":0.05774086900804305,"128":0.042436152197508674,"129":-0.0869546860688278,"130":-0.07219933182311923,"131":0.12009876062500043,"132":0.16453128687297802,"133":0.07097270468907127,"134":-0.07706613763291173,"135":-0.17306669019616897,"136":-0.2244018100725517,"137":-0.14957747110747818,"138":-0.13886170361695516,"139":-0.03974765106879801,"140":0.02568702223643761,"141":0.05436997474979001,"142":-0.12407942788849886,"143":-0.0034897017363233434,"144":-0.011989134889626043,"145":0.14222158573873964,"146":0.1203633699561526,"147":-0.004766172966660958,"148":-0.08031993476071564,"149":-0.21888756416915522,"150":-0.1428964754245408,"151":-0.1644164933761972,"152":-0.02789301124643868,"153":-0.011545324643728034,"154":0.02163350988692851,"155":-0.028240621035895183,"156":-0.034075497271026475,"157":-0.04187702612106538,"158":0.0791795024515919,"159":0.04496085835385073,"160":-0.00629708541803676,"161":-0.16333378547491464,"162":-0.2045890665177877,"163":-0.15132986026307352,"164":-0.08642798417390296,"165":-0.09686802831472568,"166":0.05677777180438877,"167":0.08036436691874942,"168":-0.09708129593396109,"169":-0.1303951603461452,"170":-0.1373700445588066,"171":-0.02045999075596465,"172":0.12097181436888126,"173":-0.02481512156054659,"174":-0.09336686800667343,"175":-0.26525817750141356,"176":-0.12995139999057675,"177":-0.08514614260988111,"178":-0.022255938189474436,"179":0.09122079099427936,"180":0.007030076701653582,"181":-0.007227258994044409,"182":-0.08453659530429222,"183":-0.1771263346846852,"184":0.046314984659605096,"185":0.015428682915572258,"186":-0.08185256412307684,"187":-0.06353927200113207,"188":-0.2920283072426151,"189":-0.20051071749551866,"190":-0.08148802793236236,"191":0.03703742194921286,"192":0.03824432741063879,"193":0.021711255910864036,"194":0.033390244775891906,"195":-0.12054152133879745,"196":-0.11275962482617409,"197":0.016833556301157328,"198":0.14413747605738722,"199":-0.12102751483687135,"200":-0.13921704297368717,"201":-0.3183497853334608,"202":-0.10935525829378165,"203":-0.11894496742064967,"204":0.08063583999204117,"205":0.005561649152810801,"206":-0.0429263874244891,"207":0.07420268553656635,"208":-0.16934619421944117,"209":0.0011586641305391856,"210":0.07668318883104366,"211":0.18637028168916928,"212":0.0479553401591183,"213":-0.12604834888028674,"214":-0.25889195117255476,"215":-0.17523385437900502,"216":-0.13649211070508363,"217":0.04452511710686737,"218":0.11075921828118335,"219":0.045854434868488725,"220":0.05649527731206981,"221":-0.118465559254526,"222":-0.09054431900259155,"223":0.02112798838349829,"224":0.0025904362958364445,"225":-0.02944747324379631,"226":-0.06838269171173397,"227":-0.22589222930142885,"228":-0.19480768692021178,"229":-0.02003506628313098,"230":-0.01045755771164242,"231":-0.02481523572935788,"232":0.049350130611866216,"233":0.1041356119020652,"234":-0.11525607340556898,"235":0.032110883902104786,"236":0.020907197316035454,"237":-0.03310727002384728,"238":-0.010820148504811137,"239":-0.06559912671412343,"240":-0.27152971874387427,"241":-0.26051626024908264,"242":0.022379841979437237,"243":-0.03627751337564516,"244":0.003931290004805642,"245":-0.021706032742497862,"246":0.1540582125906789,"247":-0.046548376551117474,"248":0.03839202362893427,"249":0.03330689047145957,"250":-0.053836048121103854,"251":-0.009763985977162326,"252":0.051272684086378445,"253":-0.2272063461485157,"254":-0.12123645616353407,"255":0.03425219783366095,"256":-0.004366475616981032,"257":0.11306620827143411,"258":-0.02601923825730271,"259":0.09069312878886222,"260":0.013237858209427352,"261":0.026792050722224365,"262":0.03229094870425624,"263":0.03822131239651799,"264":0.11281257787051173,"265":-0.03508769236462299,"266":-0.14450509581769938,"267":-0.15001854516209262,"268":-0.040256945277093795,"269":-0.10952994557199254,"270":0.07885286432386951,"271":-0.034569666889998074,"272":0.1110091818736525,"273":-0.1261386024695118,"274":0.008782431650360642,"275":0.04622543595910272,"276":0.010513055615226087,"277":0.09274409145609867,"278":0.021283654652436163,"279":-0.10648309527602086,"280":-0.2768774538331332,"281":-0.039726867236026135,"282":-0.06834429363046056,"283":0.11002167830727148,"284":0.0025397864918257156,"285":0.046644920049645065,"286":-0.05722757647342313,"287":-0.022638326053176984,"288":-0.06795950401300817,"289":0.08711108224220097,"290":0.10589541394486965,"291":-0.09291395572357403,"292":-0.13364502947582352,"293":-0.23831297654462977,"294":-0.011870502599017166,"295":-0.07565078487509778,"296":0.04942712417183483,"297":0.02766506500405265,"298":-0.05719280514718275,"299":0.008927848748775608,"300":-0.04014291837761845,"301":0.07888880247282823,"302":0.01267131146888154,"303":0.11880271258566026,"304":0.1753579014710394,"305":-0.14366150749082385,"306":-0.16428075873835235,"307":-0.02129331303841233,"308":-0.08423582739952441,"309":0.04548555484907122,"310":0.09398205309648561,"311":0.049757535762426836,"312":-0.01823314914108082,"313":-0.03522130249110944,"314":0.06203948760325903,"315":0.012116369680546482,"316":0.19489782296239727,"317":0.19139695192699935,"318":-0.10441606232088302,"319":-0.1650361519204344,"320":-0.02998970067312022,"321":0.006518662947127026,"322":-0.020277460908698287,"323":0.05047344196012899,"324":0.041755343322378485,"325":-0.08873660045108141,"326":-0.1069952251298302,"327":0.005812580365975384,"328":0.011509115361254168,"329":-0.025754775027606928,"330":0.19683973933762128,"331":-0.1547181714011669,"332":-0.19557799841339737,"333":0.019727646739165522,"334":-0.17586612431624718,"335":-0.014916585990894132,"336":0.11189694295107912,"337":0.10567158529836705,"338":-0.05935865075379494,"339":0.01717784590980416,"340":0.06970391170412656,"341":0.05261360557348823,"342":-0.0243026985298586,"343":0.2606839375592069,"344":-0.22194914772607863,"345":-0.07093876101756662,"346":-0.005340176946318654,"347":-0.09780608026236805,"348":-0.09605593810285085,"349":0.037369192126917125,"350":-0.03019835724730632,"351":-0.030036577560904772,"352":0.0838695557751229,"353":-0.04211845966011437,"354":0.17067556302653006,"355":0.14563581006628354,"356":0.028885857579704983,"357":0.11177770150566499,"358":-0.12079156970583399,"359":-0.10199723985140162,"360":-0.061590700130590474,"361":0.05800980757332523,"362":0.07577529960209785,"363":0.13082423261255632,"364":0.017318702437020262,"365":0.14156388018150146,"366":-0.05241324975589988,"367":0.11228197783641546,"368":0.13302095124050362,"369":0.10775229915618605,"370":0.19780250426855084,"371":-0.08304246526727165,"372":-0.10143774678288839,"373":-0.013531868682120819,"374":0.1134785010630338,"375":0.043050306228438584,"376":0.09735206342294586,"377":0.1217528630718692,"378":0.0006782603700908763,"379":-0.11003212809553302,"380":0.04064449224031144,"381":0.09113413959520811,"382":0.24986643825280738,"383":0.33791081444024407,"384":-0.11047444723922327,"385":0.03430339110916584,"386":-0.0074524638451316716,"387":0.008046002599232212,"388":0.05011443206634517,"389":0.010814849373778575,"390":0.018992973983930808,"391":0.12228324684196619,"392":-0.015006298233532585,"393":0.09975901254166886,"394":0.09547418483959606,"395":0.221917728753147,"396":-0.05309941459214761,"397":-0.07780487614130446,"398":0.016432643643527103,"399":0.06429124289913832,"400":-0.016402658717466826,"401":0.03962202546053344,"402":-0.003176879788837812,"403":-0.108723852546325,"404":0.03224663860690443,"405":0.0008300323538723164,"406":0.03858557810991099,"407":0.04539388860806464,"408":0.14320451216218918,"409":-0.08559255234229945,"410":-0.1097208736548697,"411":-0.05656301905755743,"412":0.08239928459860632,"413":0.07614925149600045,"414":0.10789794434305736,"415":0.06584540312083789,"416":-0.158807934276229,"417":-0.023365362302919395,"418":0.024994003643419326,"419":0.025156688777383356,"420":0.06882524021086997,"421":0.1439667144126374,"422":-0.014600339124751607,"423":-0.060584908761092876,"424":-0.03315715192851507,"425":-0.011207843934390484,"426":0.057457735370218366,"427":0.011570432752458622,"428":0.046454166962647266,"429":-0.17214008494338334,"430":-0.032630974101232404,"431":-0.025667706076712156,"432":0.0864265641187684,"433":0.10151782481706738,"434":0.008731825528952481,"435":-0.07194998339186315,"436":-0.16808214405071298,"437":-0.044782286641431135,"438":0.0755604948401925,"439":0.027085851000921406,"440":0.009861385880059678,"441":0.1277440728305417,"442":-0.08750533457822353,"443":-0.07803340715999878,"444":-0.02933058849834378,"445":0.0705054004208399,"446":0.16112022610324353,"447":0.13178098046977957,"448":0.30554628428971575,"449":0.05676972075669696,"450":0.07581531673748651,"451":-0.008258814861423007,"452":0.08193553369364354,"453":0.026058996925710055,"454":0.08136087396738934,"455":-0.0872329718483303,"456":-0.1260791470652073,"457":0.03760618505321751,"458":0.10590145523259781,"459":0.08080351047130645,"460":-0.0029175186644425162,"461":0.40131828151372634,"462":0.04624156518470325,"463":0.03197361541443787,"464":0.13620425155216348,"465":0.06766391988338993,"466":-0.13484677663079844,"467":0.08639876375425612,"468":-0.0849029440571643,"469":-0.1363359066129308,"470":0.03901995950490418,"471":0.12776001015872632,"472":0.0708348319890725,"473":0.1466293239252639,"474":0.37645649792899505,"475":0.09494734855724746,"476":0.05825138074158357,"477":0.09448766168110727,"478":0.14822105750226644,"479":-0.025034188401788945,"480":0.0978329372003607,"481":0.0026766835353233477,"482":-0.003682043379981371,"483":-0.081010557789792,"484":0.042011046991747535,"485":0.08688483192006101,"486":0.061124327232856504,"487":0.011328801431611172,"488":0.08622526900450955,"489":0.11822869140138371,"490":0.018037193820799963,"491":0.10623986007553576,"492":-0.0317299316974885,"493":0.09485011318815191,"494":-0.08770473276963449,"495":-0.04408649977461778,"496":-0.07436053127361454,"497":0.10463799532466511,"498":0.10751574239941208,"499":0.017138371042070843,"500":-0.056334120034169835,"501":0.05253357079495761,"502":0.04524733910302582,"503":-0.03670931661831507,"504":0.17021610747960622,"505":-0.1258031698065377,"506":0.048026524747260484,"507":0.03312330752757212,"508":0.02665331868590191,"509":-0.15638396626341997,"510":0.2009766117365466,"511":0.045516901427826,"512":-0.0785818822247126,"513":-0.09292817369333703,"514":0.039099861074205974,"515":0.09913189447120577,"516":-0.02424685218185436,"517":0.06598156748430652,"518":0.0045661668932653245,"519":-0.04639701795739282}},{"sx":1,"sy":1,"depth":520,"w":{"0":0.05055843796002862,"1":0.030563589234850398,"2":0.06661367280916768,"3":0.06616814708839153,"4":0.02295344281704043,"5":-0.04870736169002345,"6":-0.02237834271722318,"7":0.0788881091300151,"8":0.1904817754717605,"9":0.031401047617020006,"10":0.008706633727332531,"11":-0.10442402786705116,"12":0.1196032232175186,"13":0.037273861454371615,"14":0.010217879433631156,"15":0.003445964270287555,"16":0.10819397311575371,"17":-0.011853453143575544,"18":-0.09713093945710827,"19":0.0660065150797982,"20":-0.1144537755647231,"21":0.06571194790637651,"22":-0.07849651863243808,"23":0.005618167273266444,"24":0.042995835930667296,"25":-0.08972091167070757,"26":-0.034964099005372715,"27":0.04260642274960236,"28":-0.013205865003939594,"29":0.07318173608332972,"30":-0.0076358715528818235,"31":0.017493567612153253,"32":-0.0036465483826671795,"33":-0.10102206724502116,"34":0.029816124758653858,"35":0.00842613313985064,"36":0.03344992422345498,"37":0.056233275318329404,"38":0.051238624431105564,"39":-0.048258444622476984,"40":0.005119247959236578,"41":0.17019888643197043,"42":-0.053644223019569996,"43":0.12094890054681628,"44":-0.05549293691170014,"45":-0.10527359463580532,"46":0.055989900847152156,"47":0.0479186629585943,"48":0.02593738289662906,"49":-0.053738864210192853,"50":0.06537655446686098,"51":0.08338952474907751,"52":0.043564878657872376,"53":0.04576446193976809,"54":0.10345051501134651,"55":0.07530726300881936,"56":0.1293317891476112,"57":0.0030048401974437406,"58":0.10985205757026931,"59":-0.04184367132430227,"60":0.02532712796778648,"61":-0.01903513756793201,"62":0.024700983613938056,"63":-0.011244537839875418,"64":0.1099339019396702,"65":-0.08474602575136107,"66":0.044247305217521495,"67":0.0740171087748847,"68":-0.0026302721015875907,"69":0.10242137135911412,"70":0.09197196784679419,"71":0.06438018449301686,"72":-0.09062237140500155,"73":-0.03932368398090012,"74":0.051408464367945765,"75":-0.006185439012793779,"76":-0.10054678538021318,"77":0.05718656339648739,"78":0.022947024050964344,"79":0.033150637928512264,"80":0.02370555403138407,"81":-0.03760827932749315,"82":0.002128062544254197,"83":0.03162060150396909,"84":0.024659998635574835,"85":0.029474081666744967,"86":0.05879648831476742,"87":0.04717053104444863,"88":-0.08208947254414113,"89":-0.02023485522465675,"90":-0.01927454253366584,"91":0.035826354036616555,"92":0.09398569280879995,"93":0.08267069524827265,"94":0.037237083019253825,"95":-0.06520175204117913,"96":0.060447237810996764,"97":0.05945734526422114,"98":-0.07250346332394925,"99":-0.028017392457609622,"100":0.10640254733388829,"101":-0.003571777633553052,"102":0.08900996642493958,"103":-0.014814970535240333,"104":-0.03129645970193963,"105":0.04464286222757865,"106":-0.10233737185734403,"107":0.008818898849978806,"108":-0.06316367906110658,"109":0.09516849934036883,"110":0.09933113127837156,"111":-0.018257267540718363,"112":-0.017542406198002736,"113":0.07601484566894122,"114":0.09067696147481275,"115":-0.04911924340216569,"116":0.017641662793954953,"117":-0.0775392099036968,"118":0.06466720785497793,"119":-0.034891529663087784,"120":-0.048248164500543846,"121":0.0039674499366257245,"122":0.03486587419267541,"123":0.005647437875539091,"124":0.022893338074208017,"125":-0.01780124241317102,"126":-0.02068243572991871,"127":0.0396700260344399,"128":0.029624916222462678,"129":0.03807090905142647,"130":0.05377638797365005,"131":0.013120634885652155,"132":0.02071084136177902,"133":-0.07545182832670817,"134":0.06572777834605847,"135":0.06936786853833661,"136":0.03376717151356294,"137":0.024545271429261148,"138":-0.03405588296942205,"139":0.005551466392383712,"140":0.08014963721284642,"141":0.05301951398535995,"142":0.08305017944244121,"143":0.041293974908491966,"144":0.06939573745502182,"145":0.04330622335956985,"146":-0.03482013847140304,"147":0.08752497965488812,"148":0.01355572098776716,"149":0.023885544936938917,"150":0.014196677519049674,"151":-0.027255079336259362,"152":-0.007484728709357427,"153":-0.01025523910601445,"154":0.0011023297451302693,"155":0.097369163604787,"156":-0.0633201480640525,"157":0.05572363152487228,"158":-0.016675606780443525,"159":-0.005588012163843665,"160":0.12596686276552976,"161":0.08520394491867625,"162":0.05901824767085352,"163":0.14519548456108108,"164":-0.10278510269229287,"165":0.041584191054619406,"166":0.037196625752272144,"167":-0.08219886636780054,"168":0.025998524656355913,"169":0.11748454997062555,"170":0.09022659141519804,"171":0.17056714456182243,"172":0.03468803783221507,"173":0.023611189389619085,"174":-0.018784971798486066,"175":0.059886198743320886,"176":0.05412995086737096,"177":-0.03834606387542374,"178":0.03842392871951471,"179":-0.04828513966758933,"180":0.007625153749576133,"181":0.045702731947325215,"182":0.024753112660824302,"183":0.042054535406310496,"184":0.0984512493085041,"185":-0.030787750207974893,"186":0.04083626793118974,"187":-0.06466740615713311,"188":0.03882481218605368,"189":0.07302222168640207,"190":-0.04560435900237621,"191":0.05790429728572097,"192":-0.016547731594600372,"193":0.05675051273905486,"194":-0.09022407273426783,"195":0.027695289309914738,"196":0.058041006727952975,"197":0.06104902996262631,"198":0.021853455699811696,"199":0.0261772044531358,"200":0.019684963848400867,"201":0.14184010993735954,"202":0.020818962387298415,"203":-0.032121025199736745,"204":-0.019763915766351177,"205":0.048111561053475596,"206":0.09984236746586668,"207":0.04129178982522907,"208":0.0013350118703652997,"209":0.06289884745531239,"210":0.11139602831564357,"211":0.08857168027018232,"212":0.1717491195121975,"213":0.037783396555831766,"214":0.09952146996492846,"215":-0.019080754356462132,"216":0.04687838108123499,"217":-0.01298470866518728,"218":-0.04362049449283586,"219":0.15920836820958134,"220":-0.09265379393728641,"221":0.03899707827686429,"222":0.06550113304543026,"223":0.00647693239152645,"224":-0.010537022273258338,"225":0.11849599528908138,"226":0.06223807103039818,"227":0.013146745673027344,"228":0.03306178018730693,"229":-0.025607149749553228,"230":-0.043521388380376246,"231":0.004697521173314724,"232":0.04837745890609911,"233":-0.04777770889573609,"234":-0.04060699818639091,"235":0.05280311436418979,"236":-0.04984581106018003,"237":0.08053684482833959,"238":0.054112822402815834,"239":0.05119341939071862,"240":0.040509314731549756,"241":-0.022667889479891516,"242":-0.056948570561497436,"243":0.053689475618291876,"244":-0.02718262206544942,"245":0.14366436825662518,"246":-0.018953249320769125,"247":0.011698886142083142,"248":0.039546340632345335,"249":-0.03494600067667314,"250":0.032204545828260385,"251":0.0280014093408831,"252":0.014681588858244866,"253":0.0006659640871119712,"254":-0.13135866364720017,"255":-0.06865394474497916,"256":0.05556824307457662,"257":0.053742340557691164,"258":0.06726751049691214,"259":-0.12244469716126778,"260":0.06808144813704536,"261":0.09583927791597657,"262":0.02285480552016544,"263":0.004277042749414614,"264":0.05308342899751927,"265":0.11513579078457167,"266":-0.024634066915584445,"267":-0.11727131054108898,"268":-0.15167616010215487,"269":-0.023469379463784724,"270":0.08895390960992264,"271":0.11286747316792879,"272":-0.027314473484974042,"273":0.05347806359279622,"274":0.048976278717212954,"275":0.00031086951729215244,"276":0.04032235467369185,"277":-0.003343464192333162,"278":0.055717468271829974,"279":-0.09644442657298133,"280":-0.07577486336626955,"281":-0.009972424745873306,"282":-0.01674495267482026,"283":0.024991444141439344,"284":0.16293741081182897,"285":-0.0035270072596721236,"286":-0.010984344966727058,"287":0.007823912113319188,"288":0.09734008361098735,"289":0.015411349860715405,"290":0.009595743079819126,"291":0.15484907570245657,"292":-0.09158748807330956,"293":-0.13992295635808424,"294":-0.018561746245143812,"295":-0.026226865615441648,"296":0.012373671718095511,"297":0.047914840375931446,"298":0.008738588527977332,"299":-0.019388324821897118,"300":0.10209196690090867,"301":0.06356924673602124,"302":-0.13148260700639977,"303":0.06372878750794161,"304":0.07402896429600533,"305":-0.3139731291177769,"306":-0.24543265346404525,"307":-0.21895686661213903,"308":-0.012836613666114152,"309":0.06731678985427221,"310":0.02135994720440035,"311":-0.06075150840870824,"312":0.012778572029314214,"313":0.0028313435004887724,"314":-0.052159771129253275,"315":-0.017996337804214512,"316":0.026193375455781806,"317":0.14305054869852898,"318":-0.16346046204380701,"319":-0.35776729446257605,"320":-0.09959884875396786,"321":0.06088674962374005,"322":0.12558314129230685,"323":-0.061022986135884257,"324":0.03826652606663464,"325":0.012920312673367303,"326":0.03995615906443092,"327":-0.033955243788065956,"328":0.02622108492698587,"329":0.15221446247979983,"330":0.14681077524430888,"331":-0.08891223981170507,"332":-0.4870170961745104,"333":-0.13995009977160444,"334":0.022348123052275487,"335":0.08426401732746351,"336":-0.03752786100546031,"337":-0.004851525680472602,"338":0.03020171200331746,"339":-0.011512655180332563,"340":-0.07695971653118092,"341":0.023714527158819415,"342":0.08606742092081149,"343":0.1251034409073022,"344":-0.18430132696773932,"345":-0.475680276013322,"346":-0.1574346125254661,"347":0.09277641951622934,"348":0.04149022498749391,"349":-0.07521216734292081,"350":-0.009150481338840517,"351":-0.008978492471436861,"352":0.13563631063405152,"353":-0.05437575070158147,"354":0.030374102728539663,"355":0.0652370963323215,"356":0.1539227892041884,"357":-0.009145176857305377,"358":-0.49745287082282397,"359":-0.16340110602396782,"360":-0.023401744402811966,"361":0.03172571057353134,"362":-0.10930943757417981,"363":0.09128828587163784,"364":0.0735543912251747,"365":0.0386819937866867,"366":0.011875947977551926,"367":-0.021957091096847216,"368":0.1064883308009518,"369":0.19381669515573607,"370":0.2349309369022111,"371":-0.5306096679441668,"372":-0.05996723185351998,"373":-0.025210982971674723,"374":0.023127505391940747,"375":0.08174402566610144,"376":0.11387443997498585,"377":0.048797833332936975,"378":0.022414875558406103,"379":0.08924689209130092,"380":-0.026287585082444376,"381":0.04390956974930451,"382":0.10530120554363737,"383":0.42738294930360565,"384":-0.5578856525033695,"385":-0.12457623233292098,"386":0.04914477840491096,"387":0.05655886024850063,"388":0.030024368746068848,"389":0.23290765152282716,"390":-0.10391566812658638,"391":0.07137516407399606,"392":0.07649260357084306,"393":-0.03262687471711928,"394":0.053383032320048825,"395":0.0859966232268344,"396":-0.05296442767317117,"397":-0.44421105831674773,"398":-0.12058894547374775,"399":-0.08034960729970592,"400":0.028048070649360195,"401":0.036981381058373154,"402":-0.005627895814405555,"403":-0.019773511909037842,"404":0.014979595265291967,"405":0.10165822002595179,"406":0.06957213389963895,"407":0.07751491613179627,"408":0.035850039214346006,"409":-0.01883850806962658,"410":-0.3632738149279424,"411":-0.08974527008696119,"412":-0.06564828621574215,"413":-0.11886114609201487,"414":-0.03277327016599688,"415":-0.006234177823217728,"416":-0.018501799695628516,"417":0.014118206349298857,"418":-0.03345215694005256,"419":0.085255214074379,"420":0.036228205011659,"421":0.08710392609529631,"422":-0.029918583881143764,"423":-0.407755981694855,"424":-0.08171560898306131,"425":-0.0411974708722683,"426":-0.0737620579857887,"427":0.031668191417715555,"428":0.013512182039972672,"429":-0.07603633735030063,"430":-0.011896772215440405,"431":-0.058738725631190786,"432":0.08418277582432844,"433":-0.03938312776237952,"434":0.07632824204296917,"435":-0.034693419708375466,"436":-0.3759138805628635,"437":-0.040751760633156595,"438":-0.057661248531392935,"439":0.02143919439259112,"440":0.02403470653629616,"441":-0.022272962680360633,"442":0.03678255573499837,"443":0.03308606606885139,"444":0.0020275805967090456,"445":-0.03587083176428788,"446":-0.0667753541536561,"447":0.04472447776038699,"448":0.4458564359423053,"449":-0.22586103285144143,"450":-0.013860108580609102,"451":-0.055640137940811886,"452":0.10039520271139889,"453":0.03856902460863122,"454":-0.029963263903039928,"455":0.01366306791127618,"456":0.016129796064949357,"457":-0.02852841121530415,"458":0.02628528971061168,"459":-0.07632041885095103,"460":-0.035182484224597306,"461":0.3867986203755046,"462":-0.20451111813826064,"463":0.04990387638830762,"464":-0.013594576428124602,"465":0.13452424522284098,"466":0.15839246014141467,"467":0.013929986157567895,"468":0.05279539453198926,"469":0.06215657240512986,"470":-0.00009265481921437546,"471":-0.02425996875954114,"472":-0.05762278919236452,"473":-0.05256997767566365,"474":0.35928461563495373,"475":-0.13714379656450654,"476":0.008989648817647878,"477":0.023734193702108164,"478":0.07551964343583632,"479":0.0009347467943639292,"480":-0.04904338027956101,"481":0.06936491700453701,"482":0.023597273131536513,"483":0.06825133132738091,"484":-0.029363114299545592,"485":-0.009201907833347407,"486":-0.07015763627455011,"487":-0.049454779665478746,"488":0.10209069240124699,"489":-0.1349728528631603,"490":0.06624752788983183,"491":0.06532926544880963,"492":-0.06593619476975184,"493":-0.12822225534375892,"494":0.022488989654280034,"495":-0.008095841717790892,"496":0.0952798863877582,"497":-0.03415067425545308,"498":0.0681142255576101,"499":0.03156666206690475,"500":-0.06118124099852131,"501":0.05620601017582902,"502":-0.07751846897105147,"503":-0.035775323798552916,"504":0.07420682018869712,"505":-0.035853262542402266,"506":-0.03833274686940051,"507":-0.010858945707555386,"508":0.0678695762380919,"509":0.11494503379721845,"510":0.007208851784295664,"511":0.03677911586683399,"512":-0.022430695921894957,"513":0.11676770091475384,"514":0.1844263476533862,"515":0.008119739825784551,"516":0.07318850588081496,"517":0.015688865284264934,"518":-0.06651519252873078,"519":0.03461234939453359}},{"sx":1,"sy":1,"depth":520,"w":{"0":-0.050637143710381076,"1":0.03869403143344835,"2":0.05872829948914105,"3":0.0527451671613421,"4":0.033320832212413186,"5":-0.03239991638934337,"6":0.05383377285893089,"7":0.012684680821330497,"8":0.04106697940667728,"9":-0.07892784128798633,"10":0.08803419114137313,"11":0.092153577479073,"12":-0.009062245892524641,"13":0.041557791253681295,"14":-0.09313778648224084,"15":0.08010239554556449,"16":0.0071847648150379535,"17":-0.032316104581380026,"18":0.04731933236801485,"19":-0.028284536401969658,"20":0.041300895596590795,"21":-0.006429905284203004,"22":0.07868173920212113,"23":-0.06865390748102145,"24":-0.04722456902539378,"25":-0.007129208027598404,"26":-0.03573537825869908,"27":0.0055743621540853385,"28":-0.025255675189263374,"29":0.006795883688743852,"30":-0.05889571415121176,"31":0.010684269372098243,"32":0.12795725157493051,"33":0.036166793963297195,"34":0.008257028011250825,"35":-0.003924513158702081,"36":-0.002964326115274947,"37":0.029136989194044012,"38":0.038703702872366096,"39":-0.028218687683618623,"40":0.025130106912648408,"41":-0.04016857102670909,"42":-0.07909498404766065,"43":-0.05038212922583388,"44":0.09319374572427434,"45":-0.019542758538893874,"46":0.015600780981552584,"47":0.07566099430156613,"48":0.05129038231477797,"49":-0.08085375591286849,"50":0.026266875393367882,"51":0.03394538157696062,"52":0.03978483636804924,"53":0.09189331839033686,"54":-0.008016170051688124,"55":-0.018357774230375896,"56":0.039188899711892294,"57":0.03412687972415276,"58":-0.0031077376397185687,"59":0.07205056484924988,"60":0.024580045849255095,"61":0.051216874778757554,"62":-0.0783813799256343,"63":0.007745329937049272,"64":-0.03584398091545162,"65":-0.022446698363420153,"66":-0.03179266189045224,"67":-0.02644597309013473,"68":-0.0032501507396598826,"69":-0.028323918246798994,"70":0.042891413183502036,"71":0.09358227361903959,"72":0.06798277299366864,"73":-0.011133784858446688,"74":0.011220302286211244,"75":0.04264832669320766,"76":0.06714057175980297,"77":0.010590475986513873,"78":-0.05380720244123355,"79":0.028858538242331866,"80":-0.02776056803994175,"81":0.05069836494039067,"82":-0.05729936980796172,"83":-0.019098069540226487,"84":-0.03323249856718109,"85":0.042059230525209775,"86":0.12243636911903669,"87":0.11864849637033537,"88":-0.0067001827854207855,"89":0.08404829046206556,"90":-0.045617653775347315,"91":0.02344970055041308,"92":0.02887947189005664,"93":0.010143242136657241,"94":0.007403640941579628,"95":0.04963064716402835,"96":0.08159463311177208,"97":0.04506061083670187,"98":-0.051666938640649335,"99":0.06715294354476882,"100":0.061917266032107204,"101":-0.014002549861415957,"102":-0.008131951348209408,"103":-0.06863139176748442,"104":-0.01922053215228618,"105":0.08486707926326238,"106":-0.013342028434637148,"107":0.033160026261170164,"108":0.00622057021383707,"109":-0.07366721747026969,"110":-0.036431301390786236,"111":0.07567730353971783,"112":0.05953435239915711,"113":-0.08261338949323757,"114":-0.008657221496758778,"115":0.07794282855736609,"116":0.02241453273952325,"117":-0.0076834241344443015,"118":-0.009722633963616127,"119":0.023557494691609972,"120":0.05379696119350012,"121":0.06685295253824548,"122":0.12064810088167739,"123":0.025628827918492844,"124":-0.10209859070468706,"125":-0.011936229362049808,"126":0.023291641437753995,"127":-0.008126449818832423,"128":-0.01797125225792246,"129":-0.020530621371438317,"130":0.03604542887839384,"131":-0.03532142721561617,"132":0.0034294659849946874,"133":0.05496364228083631,"134":0.03480040784986836,"135":0.006633993555711164,"136":0.10688150066573124,"137":0.04471178326626946,"138":-0.007245284305223438,"139":0.015109746303681296,"140":-0.031202570635410296,"141":-0.027044185531781808,"142":0.038390887027675215,"143":0.011230120903896697,"144":0.07557259676364406,"145":-0.03182980784273075,"146":0.035995851996845615,"147":0.1356605638025151,"148":0.036487657271658966,"149":-0.010261532978767642,"150":0.04701170272818717,"151":0.014248670580640001,"152":0.0547221071786566,"153":0.04751769856830976,"154":0.030722093404603412,"155":0.0862765453931733,"156":0.1359521381447832,"157":0.028841163420989406,"158":-0.017433718305603772,"159":-0.005707322965122171,"160":0.0033853856604334023,"161":0.05328744904101687,"162":-0.007465773011849533,"163":0.023271638954458263,"164":0.03905184378832097,"165":0.0336787279902808,"166":-0.09652141890791498,"167":0.06226946771833055,"168":0.1216999148121858,"169":0.0244493159070955,"170":0.06564865925990773,"171":0.07362085872549189,"172":0.009725777721883324,"173":0.0329988697308891,"174":0.0060701714702138775,"175":0.050740668980187045,"176":0.004713414785005433,"177":-0.025535845176264796,"178":-0.08384705203118722,"179":0.026450720814564795,"180":0.018965177635278576,"181":0.03287244780123601,"182":0.09329062082868889,"183":-0.011854399745535628,"184":-0.05148847720140382,"185":-0.01788947869383399,"186":0.024482929754835382,"187":-0.002086568640579854,"188":0.03477675849023489,"189":0.02509603012868146,"190":0.027085301643845906,"191":0.07635992801103672,"192":0.0008866284246804387,"193":0.06521010716473828,"194":-0.003225701242453898,"195":-0.00009596680755329249,"196":-0.06281511318955003,"197":0.01965017954944154,"198":0.03843569340870274,"199":-0.004721306089040174,"200":-0.09527221042744835,"201":0.058298756413230644,"202":0.030478050717677396,"203":-0.004858726599607608,"204":-0.02574054243163186,"205":0.11329606973092857,"206":0.061117165715059076,"207":0.0983667704531337,"208":-0.055593755796611695,"209":-0.03717955380460078,"210":0.01277374702881075,"211":-0.0005095940237420092,"212":-0.02604483740821365,"213":0.013051590863039792,"214":0.039699865377919086,"215":0.06419188465188432,"216":0.04641292689903826,"217":0.0671555964491618,"218":-0.04053033428006892,"219":-0.011314066200306819,"220":0.03762668057659014,"221":0.012564326882275056,"222":0.01718765640401551,"223":0.03477411662427904,"224":-0.029641349968057118,"225":0.03612181780030573,"226":-0.0191888347609355,"227":0.025230504036880073,"228":0.03167661915819437,"229":-0.03769064232857422,"230":-0.007905275283118142,"231":0.012565988298960945,"232":0.05730179691974893,"233":0.01356124465817964,"234":-0.01811570744210809,"235":-0.03320797017120234,"236":-0.028615600639848283,"237":0.06948168428302164,"238":-0.01499872498859487,"239":0.016167654956365296,"240":-0.05127217579934546,"241":0.021105689648847268,"242":0.04695830370288356,"243":0.027393541582437522,"244":-0.03894373269086183,"245":-0.03846524352950732,"246":0.008591599539759465,"247":0.017187307330663707,"248":-0.016516674108614578,"249":-0.0628390736343375,"250":-0.0690412455684858,"251":0.0448291221604947,"252":-0.11290522378734459,"253":-0.013558307325014202,"254":-0.009857737465079376,"255":0.01084057827617777,"256":0.040851287207832467,"257":-0.0031427542356080767,"258":-0.1004544130517353,"259":-0.05742772644727559,"260":0.05579559861439843,"261":-0.04347452896394706,"262":0.09836242104417182,"263":0.07672252849079687,"264":-0.025624907581049284,"265":-0.03948686818425023,"266":0.021305982186005806,"267":0.04820505161206785,"268":0.0017092792645624082,"269":0.07260901879294414,"270":0.040052707372336155,"271":0.03773885103698352,"272":0.0007512774804913163,"273":0.02943549459622647,"274":0.06581529518445799,"275":0.05791356571008116,"276":0.045374912074069566,"277":-0.006045119980444493,"278":-0.016875323854748943,"279":0.07075912557861314,"280":0.028561390281542334,"281":-0.009139407801609203,"282":-0.0060415121822161195,"283":-0.02530736938790714,"284":0.024842976671805215,"285":-0.0576635337358409,"286":-0.00047678576917921893,"287":0.03899134794718931,"288":-0.013083865963928715,"289":-0.020323596299681074,"290":0.08875787403357427,"291":0.03113722565590401,"292":0.041394153620537805,"293":0.04414215388296704,"294":-0.03686505636659874,"295":0.06869326937087178,"296":-0.003932096815376322,"297":-0.03326126605839289,"298":0.0038659119835540725,"299":0.08392155081475809,"300":0.06428942340527107,"301":0.056076400008470334,"302":-0.058644764714421746,"303":0.06259681072878405,"304":-0.013986289241219961,"305":-0.08479884723763305,"306":0.09057495416264448,"307":-0.03636402831898228,"308":0.07466695495068147,"309":0.05680189222971947,"310":0.047253930884657354,"311":0.012774694033067469,"312":0.023185429898945255,"313":-0.038123697051123895,"314":-0.08339219425770934,"315":-0.02958280852987797,"316":0.03881530111991108,"317":-0.050383088881177165,"318":-0.0008564540599123951,"319":0.011617563038350242,"320":0.04380823198960861,"321":0.050948009405131264,"322":0.059443648078149676,"323":0.019121513276720386,"324":-0.0702567303586005,"325":0.008542265075694194,"326":-0.07286169385514855,"327":0.028204908008804402,"328":-0.002126104215907036,"329":0.018266554654115932,"330":0.05497537596950439,"331":-0.05223519910083257,"332":0.048709265893063985,"333":0.008016849651319971,"334":0.03049525218991494,"335":0.02055747574072936,"336":-0.029198793003065212,"337":0.030201766412295494,"338":0.0799719273546136,"339":0.005901459633830053,"340":0.040353671185890616,"341":-0.03177758971878631,"342":0.051656911414920056,"343":-0.08603932145369526,"344":-0.028223084199431564,"345":-0.006382369876642225,"346":0.013271239181962277,"347":-0.013526250310588907,"348":-0.007858960397267625,"349":0.03732308677535496,"350":-0.023767354523489215,"351":0.009064893478024083,"352":0.06271702070901916,"353":-0.02411961244080073,"354":0.06938249836582737,"355":-0.01436504810689778,"356":0.005734692805673399,"357":0.07643944926363193,"358":0.029657118976419913,"359":0.010696654828601927,"360":-0.0353222259180623,"361":0.06866664562933038,"362":-0.03163113011151498,"363":0.0033655339001476734,"364":0.0037412885286890003,"365":-0.020760862316901687,"366":0.04868468423578214,"367":0.03844176519423437,"368":0.13321926723361205,"369":-0.021967943863394034,"370":0.052665516438755895,"371":-0.01944441467351012,"372":0.030463897111773632,"373":0.06311130133760037,"374":0.07393736153416375,"375":-0.0106984525297838,"376":-0.022444606950421456,"377":-0.030261714594860413,"378":-0.011043502654626424,"379":0.029794046247905843,"380":0.0025652910577629814,"381":0.0220269649583611,"382":-0.044625820308815886,"383":0.02868685217703213,"384":0.004906675214476268,"385":-0.01823087252410849,"386":-0.015859094653518084,"387":0.027825037260179257,"388":0.07733657489452996,"389":-0.016362228306710535,"390":0.06262044244706948,"391":-0.007236893946063902,"392":-0.017213771371548784,"393":0.050621370851464134,"394":-0.04124037630737059,"395":0.039399497347597255,"396":-0.013077747607734573,"397":0.013054798685763107,"398":-0.0967485706050528,"399":0.015335844635214025,"400":0.030109892170889316,"401":0.08486836760662884,"402":0.03358006948745669,"403":0.03622652611424733,"404":-0.005287480053204804,"405":0.05126109262353202,"406":0.06865248222255861,"407":0.012398324438780162,"408":-0.011472950592484819,"409":-0.03944270990821671,"410":0.024539281445641416,"411":-0.0023824216663439137,"412":0.028360049313756918,"413":0.03306769759273822,"414":0.023574508267585986,"415":-0.03236280210905449,"416":0.010309530255096433,"417":0.048921680852212414,"418":-0.00433300638122806,"419":0.023322064342563578,"420":0.03545098543132973,"421":0.03682489576157357,"422":-0.02438588936168363,"423":0.010035850125497037,"424":-0.06607200465451146,"425":-0.010856835602739073,"426":-0.04305247905730597,"427":-0.0406831851580861,"428":-0.0413355629021509,"429":-0.022615827192073237,"430":-0.06253546727046917,"431":0.04571606857173522,"432":-0.006851250972505306,"433":0.05586302885079199,"434":-0.07386374271694512,"435":0.00214716642690256,"436":0.044386403499614216,"437":0.015246882552924002,"438":0.07054444442939731,"439":0.04458611287261604,"440":-0.037382119409311985,"441":-0.0583436805839949,"442":0.00610598769786182,"443":-0.027268764542239303,"444":-0.021724571300420895,"445":-0.03770319637408962,"446":0.02937517472723348,"447":0.018617396356245687,"448":-0.009040119726992578,"449":0.03462122248228073,"450":0.016402856443608928,"451":-0.048983609543402994,"452":0.04060133226364165,"453":0.07156753140556335,"454":-0.017577916453795618,"455":-0.05046981815149161,"456":0.0368824103310934,"457":-0.01832777383004488,"458":-0.11070172654365869,"459":-0.06558836481986076,"460":0.07092817571521985,"461":0.031117545290113298,"462":-0.034787527134006756,"463":0.010713318497142658,"464":0.02319292152467872,"465":0.011537716392061251,"466":0.032783148425807755,"467":-0.021751212960361546,"468":0.007437614085817539,"469":-0.022709569907385065,"470":-0.005759498497377672,"471":0.08942304438051242,"472":0.07504993601661196,"473":0.03356128862254229,"474":0.1268615651716618,"475":0.011125845216933147,"476":0.06955806823132508,"477":0.023234771650908852,"478":-0.03071787488872205,"479":-0.007761961521251374,"480":0.007852142321108098,"481":0.03233077507771177,"482":0.0677339999764281,"483":0.017886760318225288,"484":0.009819766794279414,"485":-0.014297841821409831,"486":0.013962762280849717,"487":0.04480956973542249,"488":-0.011629523149314229,"489":-0.023040558508214952,"490":0.06447586219730915,"491":0.019602517904471206,"492":-0.0006648739974785368,"493":0.054936900932567034,"494":-0.07013582154473966,"495":-0.0018126671783262726,"496":-0.08434562989155545,"497":-0.03401540413449669,"498":0.06365130422616587,"499":-0.04671781905329164,"500":-0.03328404610119221,"501":-0.04420541874821157,"502":0.03238058405286809,"503":-0.010535623076724445,"504":0.01210241922403219,"505":0.00019852536052893276,"506":0.04763964155504203,"507":-0.039935499306895876,"508":0.01921198092228444,"509":0.05123890787866099,"510":0.018810864954100302,"511":0.04792576259936527,"512":-0.030595201773981395,"513":-0.08022754162727799,"514":0.07457936177009,"515":0.023796701173714244,"516":0.0009209166379797791,"517":-0.058465377951224536,"518":-0.08007739188657226,"519":-0.10096908479298863}},{"sx":1,"sy":1,"depth":520,"w":{"0":0.046143103906586026,"1":-0.0718004301654118,"2":0.021651992387899697,"3":-0.038168837896040066,"4":-0.09390640129465598,"5":-0.0992574304365387,"6":0.07070545081322985,"7":-0.019108409062819125,"8":-0.006201695097574171,"9":-0.042785074835185954,"10":0.0705338905393196,"11":0.1353191083801413,"12":0.02582323447551187,"13":0.0459984549579539,"14":-0.08411293786494385,"15":-0.04490431712067143,"16":-0.07225949092239302,"17":-0.05651030172976272,"18":-0.0483821864018255,"19":0.07220018299946396,"20":-0.06484884734809317,"21":-0.014273895377044335,"22":-0.023214221960710844,"23":0.04988825739101122,"24":-0.008841458933986584,"25":-0.06075092562710766,"26":0.015379347770891172,"27":-0.07171707386904326,"28":-0.06744688804654199,"29":0.010353750174268313,"30":-0.0398042508855958,"31":0.02416553767682508,"32":0.08817559095990857,"33":0.06991199021197447,"34":-0.05622615998937529,"35":-0.004298676572781145,"36":0.001261240100648194,"37":0.03582841907484238,"38":0.04955250886387228,"39":-0.09387927305794128,"40":-0.028619306818503627,"41":-0.006840386215134118,"42":0.14986054713991345,"43":-0.07876866510545497,"44":-0.03810361993284928,"45":0.016348357620828497,"46":0.06609305899002511,"47":0.07270979743239762,"48":-0.005899087024096106,"49":0.03441784521967119,"50":0.0744302271559088,"51":-0.08424438858735302,"52":-0.16580928069240128,"53":-0.046892871901683744,"54":-0.017132706110362998,"55":0.04335964878491491,"56":-0.031076946896178393,"57":-0.0331680681966828,"58":0.0038543000120784517,"59":-0.08376795834902648,"60":0.07423260718788131,"61":-0.024871200765333324,"62":0.07014323448258554,"63":0.00575056203669276,"64":0.04529412374276224,"65":-0.05389653386761656,"66":-0.003497491462461943,"67":-0.03598466605561391,"68":0.11470199247700738,"69":-0.038086433755215615,"70":-0.10857415078633777,"71":-0.06167256472324058,"72":0.11045067303374827,"73":0.025430273299282807,"74":-0.0013813364737415646,"75":0.15588677680187712,"76":0.07240442754657549,"77":-0.04341759829568727,"78":0.007992799927599332,"79":-0.027962172439026413,"80":-0.060777260154070395,"81":0.008270308089411328,"82":0.039899988675679676,"83":-0.10942667108960219,"84":-0.03188480555655963,"85":0.09976603690912562,"86":0.07031472566765797,"87":-0.08094833031452911,"88":0.023173795618026537,"89":0.04139436566049789,"90":0.000044814476970278305,"91":-0.014948757646491284,"92":-0.04878545790494381,"93":-0.008527351800474784,"94":0.06953413392794712,"95":0.0021073969063125212,"96":-0.04621383155714529,"97":-0.055855243659262685,"98":-0.05023094264072902,"99":0.015728682919762656,"100":0.015605660494437628,"101":-0.02658687824631386,"102":-0.036371775734693544,"103":-0.021341781403507648,"104":-0.09745790727318657,"105":-0.04386416807841135,"106":0.0014167303191391562,"107":0.06089494797255621,"108":-0.05762216345924116,"109":-0.10408335512613788,"110":0.01495573715405939,"111":0.02695033416313127,"112":0.0842876313831329,"113":-0.011563308528439026,"114":-0.039252820332316286,"115":0.03179877445857204,"116":0.004247696974130437,"117":-0.035136375953326394,"118":-0.030303588125140734,"119":-0.1018593074331918,"120":-0.0009333849470192313,"121":-0.018667980858484052,"122":-0.0453593237146999,"123":0.09581557997462153,"124":0.1299065703066846,"125":-0.0013009428323519743,"126":0.011598143853413196,"127":0.006008512824252415,"128":0.09473528043082213,"129":0.036452964629871173,"130":-0.08131067532693961,"131":-0.09517366167587372,"132":0.05077184854500655,"133":-0.014815062275198139,"134":0.012732983802734694,"135":-0.10730254932223844,"136":0.0007201402761346982,"137":-0.02257269103454429,"138":-0.002119060138862391,"139":0.014775289525481594,"140":0.031875579081995564,"141":0.026107503108880707,"142":0.01698645912284736,"143":-0.06024805463055442,"144":-0.05063054151380662,"145":0.09990783659758497,"146":0.004730699539831062,"147":-0.05337324950665009,"148":-0.09837631162144549,"149":-0.010390454102990079,"150":0.08360719599152264,"151":-0.0384520132656448,"152":0.04337381677264819,"153":0.01644975448950975,"154":0.04624165993284756,"155":0.05503470449806691,"156":-0.0037938116664711433,"157":-0.03252090966444904,"158":0.06039132835143977,"159":-0.01466244899962048,"160":-0.12221979396232853,"161":-0.1808650334944618,"162":-0.09703493673506754,"163":0.14988122202380397,"164":0.03452621675859976,"165":0.025732844919665303,"166":0.04177382092564347,"167":-0.01573038464115127,"168":0.018933317822798428,"169":-0.02942679930216745,"170":-0.003417702361493978,"171":-0.025653318931167186,"172":0.026320983693655004,"173":-0.059701052681602584,"174":-0.17218697798091195,"175":-0.03077569959912809,"176":0.10159323589368655,"177":0.03395798747635487,"178":0.01500360631477004,"179":-0.040895708774595654,"180":-0.024004374982888023,"181":0.12763491677729855,"182":0.016569036030810048,"183":-0.045997585367258585,"184":0.08068493651452781,"185":0.031663678410820885,"186":-0.04616923835904528,"187":-0.008531748957200078,"188":-0.020516910405325522,"189":0.1395711559433546,"190":0.052765774805145486,"191":0.06479342776499208,"192":-0.015931572985238143,"193":0.019896555349329742,"194":-0.02181760867309184,"195":-0.02675136212708456,"196":-0.035116844557348856,"197":0.024284985244576812,"198":-0.026036007737160104,"199":-0.05150361900188914,"200":-0.011668337648772002,"201":-0.056666858918589934,"202":0.10532131450143921,"203":-0.05754138866113586,"204":0.03909596808651855,"205":-0.020132944250283516,"206":0.10264533580931197,"207":0.04984798227907017,"208":-0.06620125965582999,"209":-0.12049777044986282,"210":0.012680402943834207,"211":-0.07595166108097419,"212":-0.01606351929605012,"213":-0.0158430076923323,"214":-0.07677389196435473,"215":0.2563271608471544,"216":0.04841554865070619,"217":0.035404907010448655,"218":0.07340400074988092,"219":0.011495392714807874,"220":0.0607223852860825,"221":-0.0811920391560231,"222":-0.030555776926314806,"223":0.13088892632402557,"224":-0.0874550303807801,"225":0.01878279262902326,"226":0.04245682884063614,"227":-0.06183637193550256,"228":0.06562168186819554,"229":-0.014035583068939145,"230":0.017302119514593935,"231":0.009960034043456122,"232":0.10051571790706469,"233":0.11097126626768983,"234":-0.07107391073544103,"235":0.013024918439021246,"236":-0.11820909770120516,"237":-0.17074010205342596,"238":-0.008607951510054527,"239":-0.05294278434138128,"240":-0.029623837000658026,"241":-0.013680548020038001,"242":0.05483311815404945,"243":-0.03560147522097696,"244":0.007330466571603175,"245":-0.010576894087257564,"246":0.0028401292643846416,"247":-0.0014738082796595076,"248":-0.027217050137232114,"249":-0.04459905221729042,"250":-0.02291152654102866,"251":0.034163556060747474,"252":0.0035906446742418824,"253":-0.03664389527807968,"254":0.017231596793414666,"255":0.037228756284533294,"256":-0.012743572049346851,"257":-0.03658168304907401,"258":-0.06201588566002446,"259":0.017095297686778702,"260":0.020630639535313976,"261":0.0031544329668975507,"262":-0.011556440913373586,"263":-0.04363971983196346,"264":-0.035299524471197656,"265":-0.0055954871534286575,"266":0.03853719892824168,"267":0.12804082808537792,"268":0.04428738756271626,"269":-0.029646859113740178,"270":-0.06606656211222596,"271":0.005928620804078889,"272":0.013629172850851846,"273":-0.04169952253491489,"274":0.014448148507045356,"275":-0.04164034370764534,"276":-0.008010025330185638,"277":-0.0819986360737524,"278":-0.06465738795643135,"279":0.04332028169595571,"280":-0.015344488185652122,"281":0.07922778483395342,"282":-0.026418632924061516,"283":-0.10156791556397063,"284":0.06005430550061632,"285":0.05382593273518545,"286":-0.09975459503231689,"287":-0.05906126902342673,"288":0.013141370588386457,"289":0.00426446777793592,"290":-0.1193539304310806,"291":0.03479519362230672,"292":0.009190565755687078,"293":0.029266821442201035,"294":-0.041005177765891264,"295":-0.057629719835062286,"296":0.019878268140277478,"297":0.021467937195035192,"298":0.06143095161609108,"299":-0.014041141073934385,"300":-0.05849241883699252,"301":0.01524334894837094,"302":0.004850588752704474,"303":0.04535849836549541,"304":0.044718946641257785,"305":-0.0890469254523136,"306":-0.05792809877949729,"307":-0.03407321957979442,"308":-0.008286903048094697,"309":-0.0273886527712729,"310":-0.03603727361259372,"311":-0.032866320651661916,"312":-0.0017755456647894018,"313":-0.026636606098451577,"314":0.040690788360652846,"315":0.018107063637839,"316":0.01833111213229993,"317":-0.01333656993388744,"318":-0.07956632690635894,"319":-0.06259181932859473,"320":0.003559904874009101,"321":0.06154247763854513,"322":-0.021956975624787843,"323":0.09911101294324103,"324":0.07098493644944788,"325":0.003368209251630196,"326":0.049388737401572756,"327":-0.020033201906867276,"328":0.10366891392340667,"329":0.0973469774226636,"330":-0.03172702434023533,"331":-0.1219978351814436,"332":-0.10532332956279077,"333":0.015602813850813564,"334":0.03080225941478336,"335":0.003942620951085921,"336":0.03170021851531123,"337":-0.04295813231313031,"338":-0.03469638524413018,"339":-0.06665347856544898,"340":-0.020186882186700013,"341":0.01756609619110993,"342":-0.006171222328399716,"343":-0.03161350485958029,"344":-0.10646948995553744,"345":-0.1568850048462125,"346":-0.010501322384478162,"347":0.07623177793374658,"348":0.025554888271533,"349":0.057418231442611205,"350":-0.01634011853346798,"351":0.005765950980108285,"352":0.025980928847566576,"353":0.0012995876188073795,"354":0.05039655110015799,"355":-0.042515742059750235,"356":-0.07021916235293654,"357":-0.03769081278949929,"358":-0.18704458608627866,"359":-0.09268248099648373,"360":0.01924587377588144,"361":0.03218421123710785,"362":0.015531490265812934,"363":-0.021203136716546597,"364":0.028353823897195266,"365":-0.04335964132902672,"366":-0.08340913985594627,"367":0.03287972772406364,"368":0.02871517474925495,"369":0.016533758648964707,"370":0.06695635262708974,"371":-0.24813410900264324,"372":-0.11284143725261543,"373":0.042279175752806396,"374":-0.02397190483094753,"375":0.061091270550039566,"376":-0.03081265273715118,"377":-0.03659914226495773,"378":0.002813153984097515,"379":-0.009261785147158069,"380":0.07825746345636962,"381":-0.059522093725208974,"382":-0.017403835570440056,"383":0.07497099401505464,"384":-0.17566645932931887,"385":0.008283632067126475,"386":-0.0036611226897939517,"387":-0.08998634120787916,"388":-0.04126953560820792,"389":0.036382024331866256,"390":-0.018679335751721815,"391":-0.0409446904193767,"392":-0.06532250274746948,"393":0.1313330289487346,"394":-0.05685934090938073,"395":-0.040878762939106174,"396":-0.006138947857076623,"397":-0.14057498535603274,"398":-0.11689320809025666,"399":-0.07229430893863642,"400":0.0440382510706859,"401":0.015936934269905525,"402":-0.016647520571090816,"403":-0.014771442082782927,"404":-0.05321485501379931,"405":-0.03414610168894089,"406":0.05459325531969542,"407":-0.09326878636337198,"408":0.03781916110995313,"409":0.02039395232658228,"410":-0.18947965843987613,"411":0.03300672723583142,"412":0.011774198104912549,"413":-0.030696735687280187,"414":-0.007806452486708797,"415":0.012293451522623716,"416":-0.06835929774367783,"417":0.0321940841052664,"418":0.01547657766954191,"419":-0.002706347215364996,"420":-0.07763713671169145,"421":-0.14290653531055375,"422":-0.0013431047181434344,"423":-0.2314596204130652,"424":-0.024959349526154025,"425":-0.013045487616168422,"426":0.04887789029412201,"427":0.020942175799820953,"428":0.05659034865882947,"429":-0.03385516689561408,"430":-0.020717370438444183,"431":-0.024564715410102956,"432":-0.02061913019571236,"433":-0.12359694776471321,"434":-0.12315440411420592,"435":-0.04838367478714243,"436":-0.2655688999411924,"437":-0.09216452858401185,"438":0.04874788428251014,"439":0.11697330016940682,"440":-0.01644875747689459,"441":0.09168311998938597,"442":-0.12002790653962925,"443":-0.017687373722213254,"444":-0.058667766540125545,"445":-0.012978907212791994,"446":-0.10657130909207176,"447":0.07385088806669625,"448":0.0879136702338215,"449":-0.16317858129977342,"450":-0.05363000887658381,"451":-0.04695875745163189,"452":0.042125955953405333,"453":0.1164873662883972,"454":0.03610279683508929,"455":0.02245575967260769,"456":-0.059510588925517735,"457":0.02837492088973401,"458":-0.03990084403155332,"459":-0.0057093657120955415,"460":0.10262948618614964,"461":0.04698270559298296,"462":-0.046494543318108164,"463":-0.0001100956665763626,"464":-0.021485951992946922,"465":-0.046752862909984816,"466":0.09637514620821849,"467":0.047003380341615573,"468":-0.001560738145322837,"469":-0.03287153844135542,"470":-0.003561053103582582,"471":0.0035591762810169266,"472":0.060771414935443226,"473":0.16836593966815924,"474":0.12192603429634656,"475":-0.007471653002458388,"476":0.06602986450134299,"477":0.05049769306796968,"478":-0.005420632554684969,"479":0.10053977958876481,"480":-0.030126213090819202,"481":-0.022660708277596177,"482":-0.06864748266942806,"483":0.043514831944973936,"484":-0.010834570188896069,"485":0.09944868767193846,"486":0.1172474612028291,"487":0.008128516107623463,"488":0.08160645484724179,"489":-0.00043638028631475895,"490":0.03073352364949061,"491":0.0018318147368569864,"492":0.04442338567709924,"493":0.040281935241753795,"494":0.029291788047852346,"495":-0.009951842291544397,"496":-0.0024920272424137305,"497":-0.02157467728682919,"498":0.07637372657952259,"499":0.05038222274262615,"500":0.06952527103118931,"501":0.07789917484462633,"502":-0.06869143128042944,"503":0.0014208296280398328,"504":0.053154739865988995,"505":-0.06523673970147507,"506":-0.07621795679621998,"507":0.009238626580927983,"508":-0.08003826694619577,"509":0.03299943021749825,"510":-0.011539631154135527,"511":0.05778639695588161,"512":0.0676064815867757,"513":0.1407655196950763,"514":0.06078624331318644,"515":-0.042613499398267106,"516":-0.03232075151180585,"517":0.09156450821971689,"518":0.03837776712795314,"519":0.11580446172424559}},{"sx":1,"sy":1,"depth":520,"w":{"0":0.02006919384363536,"1":0.08638406765003125,"2":-0.055278646461235384,"3":0.052851911603920276,"4":-0.07676544824276393,"5":-0.07389954762350329,"6":0.13521140421900213,"7":-0.006541952145355204,"8":-0.008040139771960391,"9":-0.014251502957075602,"10":-0.112448642880407,"11":0.025448263467803815,"12":0.03975673191793789,"13":-0.026305354977791608,"14":0.15395988187792936,"15":0.04069272293506684,"16":-0.03641678211653591,"17":-0.1695938591174159,"18":-0.07707612402205469,"19":0.06437699155890297,"20":0.0619474345373682,"21":0.09721707127240815,"22":-0.013613709541112505,"23":0.001396752809119827,"24":-0.06520484162628502,"25":0.022927678124836568,"26":-0.03115284093243158,"27":0.011897059892556348,"28":-0.010376202219682969,"29":0.01609785759600245,"30":-0.10774483582602154,"31":0.033955771862124305,"32":0.013928744360316556,"33":-0.01377187220948302,"34":0.08177300602028512,"35":-0.0833642263005803,"36":0.011960935940731948,"37":-0.070913777950465,"38":-0.05008432711979291,"39":0.004034556178835682,"40":0.0007045791765187202,"41":-0.03940162665865456,"42":-0.02421928779504025,"43":-0.04737767953815659,"44":-0.018806095604434064,"45":-0.06254051104413078,"46":0.026271020604165488,"47":0.08492730363492476,"48":-0.058482418286967965,"49":0.049054516251989144,"50":-0.016363570956226578,"51":-0.06788526824282326,"52":0.023414628817236476,"53":0.038580927398501594,"54":-0.03497517008313544,"55":-0.08412292377435636,"56":-0.09119292879737133,"57":-0.03690071745380529,"58":0.030459041795885433,"59":0.07739088556380344,"60":0.09704575267645553,"61":-0.030997459957500497,"62":0.028975616211070258,"63":-0.004211663760178886,"64":0.011845090399501662,"65":0.01058764023087418,"66":0.026345101221521842,"67":-0.09110362187076537,"68":-0.0746100926367534,"69":0.042304548775002504,"70":-0.0004227208170544282,"71":0.02390600429965619,"72":0.01784088563495402,"73":0.06060506695392325,"74":-0.0016977484932211946,"75":0.03273588727515322,"76":-0.015209872836459509,"77":-0.06320439500271487,"78":-0.06926123187561824,"79":0.028001080543256236,"80":-0.04940201532618601,"81":-0.03764548546511347,"82":0.014270578019100746,"83":-0.0289008834183702,"84":-0.07789406569429744,"85":0.07027394121668026,"86":0.029337805146875836,"87":-0.023359686689689168,"88":0.07236816465696898,"89":-0.03140680657775765,"90":0.012841588021877527,"91":0.026337465811322628,"92":-0.08931675112277306,"93":-0.09830207148872018,"94":-0.02940310877658138,"95":0.013212872201491822,"96":-0.05965665637755512,"97":-0.032530141940621655,"98":0.08764251738560622,"99":0.09121594267400344,"100":0.04787363483590341,"101":-0.03859862976713065,"102":-0.09525077207839545,"103":-0.008833575663783129,"104":0.0012647347195796491,"105":0.03450612952610641,"106":0.005949279744325027,"107":0.023972228864268075,"108":0.006725197946382297,"109":-0.03430762472456974,"110":-0.05099504022582771,"111":0.06123758784633418,"112":0.07620718758275376,"113":0.007594106220677222,"114":0.054770388708249136,"115":-0.0716249966417457,"116":-0.023199087408224964,"117":-0.0022153678417014605,"118":0.022713601182957628,"119":0.039495097335331596,"120":0.07258914702330657,"121":0.006807763326615618,"122":-0.015088547252966517,"123":0.04240851927494195,"124":-0.05563622170149472,"125":-0.032198931883463344,"126":-0.0021097043922712515,"127":0.005918088785256805,"128":-0.03388609505254824,"129":-0.018513250482851854,"130":-0.01510991589507765,"131":-0.01935804320878265,"132":0.0319128623284957,"133":0.04151289175578049,"134":-0.015296202778896383,"135":-0.003834290765523061,"136":-0.04909227256806646,"137":-0.05516913333108525,"138":0.14303444640456706,"139":0.056288428620555636,"140":0.06996038536959191,"141":0.0160390873640437,"142":0.021807213397287167,"143":0.05135829328947807,"144":0.010709740203618071,"145":-0.09145352230000929,"146":0.07828145435528648,"147":0.11350914040598711,"148":-0.0550625559178038,"149":0.0546010734823355,"150":0.07508964662744523,"151":0.05536968151040323,"152":-0.032003125102016576,"153":0.02081570658378356,"154":-0.025964077614714594,"155":-0.03208598137915581,"156":0.0686286196152772,"157":0.054359028513333976,"158":0.03581171708828513,"159":-0.019272813812517612,"160":0.011229232551712773,"161":0.10078725054585337,"162":0.0511006665825953,"163":0.05253082774778278,"164":0.07594549937884405,"165":0.047703500488182865,"166":-0.008117246143987424,"167":-0.05095108649357639,"168":-0.11279249430383757,"169":0.015114814353952951,"170":0.009526000752613395,"171":0.11368887670844664,"172":0.10619016269947291,"173":0.09446806600576108,"174":-0.06796340533408377,"175":0.03906921725089312,"176":-0.02446877158533492,"177":0.07251533107720275,"178":0.018818771637664374,"179":0.02308299735664112,"180":-0.0459271526504802,"181":0.04681987491298817,"182":0.08079708951313147,"183":0.006648668536228275,"184":-0.13040447748177544,"185":0.08937893436156708,"186":0.10193888712967368,"187":-0.10753260486727582,"188":0.10979044805593655,"189":0.1038588909785918,"190":0.03112584997044488,"191":0.07820711484928515,"192":-0.041404627238061,"193":0.01155429622183908,"194":-0.045197075498774206,"195":0.038245722777674775,"196":0.009222178433463629,"197":-0.0705836444816229,"198":-0.02743280678892546,"199":0.04033994433814168,"200":-0.03106250299601926,"201":0.0551566910839361,"202":0.05674058350394077,"203":0.04311393356601238,"204":-0.051786796925027585,"205":-0.006154014324256383,"206":0.0013325798794038887,"207":-0.10205936706606775,"208":0.004497757476098542,"209":0.001341456024584413,"210":-0.04838710269887447,"211":0.015389537735972876,"212":0.024305446459050438,"213":-0.03633527102813812,"214":0.14330388777803912,"215":-0.0002574102882348162,"216":-0.06136833394880249,"217":0.10208818294700996,"218":0.0731613814229652,"219":0.09086293655502906,"220":-0.05110201393872501,"221":0.07480655577007991,"222":-0.012969635680694756,"223":-0.060137099638388924,"224":-0.030728624837709693,"225":0.06469066217676331,"226":-0.08051687385091592,"227":0.08319433672829608,"228":0.06457679147033529,"229":-0.007296102549952104,"230":-0.04863979360643362,"231":0.06723393997058523,"232":0.02540558778252277,"233":0.05566448268295559,"234":0.09908007315519203,"235":0.043107723372129675,"236":0.008113126599174647,"237":0.04863905065827847,"238":-0.026749313665821405,"239":-0.06836658082877192,"240":0.09553418607454066,"241":0.08256020885393572,"242":-0.05115574980899561,"243":-0.0851012895191703,"244":0.02087817299303343,"245":0.12817127310787177,"246":0.025400455986632976,"247":0.03391300393261003,"248":0.060621965809090114,"249":-0.012500324375264944,"250":0.037081320522858244,"251":0.06149524888203671,"252":-0.116870495836848,"253":0.04805833108382161,"254":0.02830104404760658,"255":-0.03588637872922517,"256":0.010964144780057819,"257":-0.060530665107111505,"258":0.015991937993168743,"259":0.06482859503437016,"260":0.09749001942180686,"261":0.018645125257345768,"262":0.027115105697579796,"263":0.10589981316745005,"264":-0.11430301845208152,"265":0.005490620044057475,"266":0.04557408225820804,"267":0.06316344569322709,"268":-0.016755726251132565,"269":-0.03422378918589595,"270":-0.04479887190241832,"271":-0.0026882152135083454,"272":-0.04170599694146277,"273":0.04982201477133026,"274":-0.07230339115423254,"275":-0.017962512064327328,"276":0.027890465498847865,"277":-0.029332741418130907,"278":-0.042770672770003085,"279":0.07870730385547706,"280":0.005381670927958007,"281":-0.0969861807502335,"282":-0.016379047956487647,"283":-0.05740057998630056,"284":0.05663422557400718,"285":-0.07632348362422821,"286":0.02482543319704586,"287":0.0032470615052131746,"288":-0.03677767082015063,"289":-0.024175624523879693,"290":-0.13060465398528143,"291":0.03951677269204642,"292":0.008220969037966049,"293":0.015745174152874776,"294":-0.04511488734400561,"295":0.01768484706047312,"296":-0.06597492723800844,"297":0.0601719882399055,"298":0.003372484967526086,"299":-0.0025794445494056297,"300":-0.015525016361730919,"301":0.03525943969348868,"302":0.06431147671699483,"303":-0.13035315289971272,"304":-0.10488802331663241,"305":0.11212267657523414,"306":-0.0600371708224142,"307":-0.12851662017445067,"308":-0.04721418241841062,"309":-0.06324490015256114,"310":0.0612283972072597,"311":-0.06279828810249115,"312":0.06685962894787134,"313":0.08371457170071403,"314":-0.0707318812641515,"315":0.0013096766615980442,"316":-0.03506989371566401,"317":-0.1219195456646479,"318":0.1401929482239416,"319":-0.09809279992596998,"320":-0.060784519996253686,"321":0.08422760292932321,"322":0.006367835623692825,"323":0.09364528795139437,"324":-0.09677261917499451,"325":-0.018311884730557674,"326":0.03711694795892449,"327":-0.08150250653214684,"328":-0.0036222952746095553,"329":-0.0007606220449354602,"330":-0.2090909963680406,"331":0.16193864216085696,"332":-0.12002618038218937,"333":-0.04542343908336684,"334":-0.020477331208735537,"335":-0.062477339876523985,"336":-0.07373552155310487,"337":-0.031029511108860035,"338":0.04856353178125194,"339":0.05783058576569169,"340":-0.11707425234984475,"341":0.00844764979261706,"342":0.04444992584574702,"343":-0.19013655197217644,"344":0.20704311036322282,"345":-0.1646212332004966,"346":-0.0488543924113567,"347":0.012127964767766864,"348":-0.07462083918629774,"349":0.04405324751641813,"350":-0.045219201229028144,"351":0.13075099735678078,"352":0.06662768958099433,"353":-0.013016484478714816,"354":-0.029649962124506712,"355":-0.027627924270950982,"356":-0.11810405572389053,"357":-0.008967846309453945,"358":-0.09456680162756505,"359":-0.060769044620578035,"360":-0.0046506220103847765,"361":-0.006056243020256976,"362":-0.051241709040370335,"363":0.010260802376443272,"364":0.047088523377259627,"365":0.05352311662993057,"366":0.03321500919365971,"367":0.0825997563707196,"368":-0.0016359979999541975,"369":-0.08053257480521445,"370":-0.001984398025798347,"371":-0.15899048315318595,"372":-0.03488491564323207,"373":0.07028951444177399,"374":-0.005465827412099489,"375":-0.0983859679908909,"376":-0.0313251208245888,"377":-0.034002788498713896,"378":0.10405316649506022,"379":0.059911833320348565,"380":-0.05050505753330929,"381":-0.024723820120052205,"382":-0.21744450254281572,"383":-0.012688561604354248,"384":-0.034425258128572736,"385":-0.07132669143349021,"386":0.02256698047256816,"387":0.019411656458117935,"388":-0.09592387160471134,"389":-0.0653899181313142,"390":-0.01843513282872759,"391":-0.0687853283790754,"392":-0.07328630724849286,"393":0.032837415812868836,"394":-0.1192636648805718,"395":-0.03930072296438375,"396":0.0306646096145809,"397":-0.0852240833819482,"398":-0.0327345672603795,"399":-0.0550340178664741,"400":0.01013603472279962,"401":0.03432619169070891,"402":0.030547588371220343,"403":0.06657663037856155,"404":0.027073634724999487,"405":-0.08660180693169353,"406":0.0723792706726504,"407":-0.02769646424379555,"408":-0.054893950624044896,"409":-0.020381252752302077,"410":0.07657428524604222,"411":-0.10191219356645773,"412":0.010410189706227263,"413":-0.11762346017850756,"414":0.05617424740784318,"415":0.10100278213934301,"416":0.05053589171790577,"417":0.0886417274970884,"418":-0.04416633895526818,"419":-0.029348784310221563,"420":-0.15535481287573785,"421":-0.012917310908202397,"422":0.027119023698883846,"423":-0.06282270289959231,"424":-0.01674053416320673,"425":0.00814848963870247,"426":-0.039388638579544735,"427":-0.052631918384521525,"428":0.018685627519734033,"429":0.043304019992040914,"430":-0.011112624509441721,"431":0.02064200111147044,"432":-0.051095212636468414,"433":-0.12079932334504753,"434":-0.0024998053349023545,"435":-0.006467742002325328,"436":-0.007449341819988846,"437":-0.022917664647521735,"438":-0.1265273831201815,"439":-0.07956043118603563,"440":-0.07014597837014144,"441":0.05335388996028316,"442":-0.020521094478470978,"443":0.07972241769800839,"444":0.05504108522015538,"445":0.008079179376396286,"446":-0.060027325599088965,"447":0.021939923690709493,"448":-0.010388818186314423,"449":-0.10223081190838156,"450":0.11075247343261291,"451":-0.06276616910545464,"452":-0.04895262375174327,"453":0.07481038444800621,"454":-0.04750255025313783,"455":-0.03436101186303995,"456":0.10805408432105754,"457":0.023186769079497637,"458":-0.021938458961423532,"459":-0.00433043983569354,"460":0.007164858253890758,"461":0.08550499354313669,"462":-0.17250512464264395,"463":0.042164611250524175,"464":-0.010308585407407277,"465":0.06092002341470234,"466":0.13494941223570922,"467":-0.07924207223728613,"468":-0.0443742744809391,"469":0.02050697307061563,"470":0.008699859728375805,"471":0.017765386951518025,"472":0.07364808444418904,"473":-0.02981597183837526,"474":-0.07217473931551559,"475":-0.14834782583167888,"476":0.011373639291649707,"477":-0.012312313922455744,"478":-0.009864451780941457,"479":0.029774954382330073,"480":0.000021513066431823227,"481":-0.12042170840551072,"482":-0.016994308697911173,"483":-0.007446514688111884,"484":-0.019843380533414494,"485":-0.0665510964942226,"486":-0.03085189445650183,"487":0.006742460067715908,"488":-0.056610916192042976,"489":0.02011287627740374,"490":0.05075526244387304,"491":-0.0517910700804488,"492":0.014193606517447385,"493":-0.090331560353454,"494":0.03535252217424139,"495":0.0211836294380233,"496":-0.03621387451432754,"497":-0.02689240465156553,"498":-0.05354705879274221,"499":-0.024702777578735,"500":0.07404610054012664,"501":0.05996437469085026,"502":-0.04388276197723017,"503":0.09961312470272513,"504":0.004887127917055057,"505":0.04390087308869669,"506":0.03175777723840113,"507":0.004010731680332948,"508":-0.09112989260383339,"509":-0.03515493058456988,"510":-0.16694044012584097,"511":-0.09850644309634986,"512":-0.011540715430235503,"513":0.09124357213702376,"514":-0.14029918861742355,"515":-0.031372605589225805,"516":0.13471815935865666,"517":-0.0518720374306206,"518":0.2016257584643355,"519":0.009477007919131083}},{"sx":1,"sy":1,"depth":520,"w":{"0":0.002586646875654485,"1":-0.009753148172327171,"2":-0.017745572553964493,"3":0.06815684668425179,"4":0.07020093440278466,"5":-0.010478337017985296,"6":-0.0028055004060854893,"7":-0.106371651572471,"8":0.16409646787290802,"9":-0.052865830794677514,"10":-0.07218765549487619,"11":-0.055514320008978615,"12":-0.0332082315611942,"13":-0.04728199960809489,"14":-0.04022740882439594,"15":0.00014819053372189275,"16":0.06422253774640772,"17":0.0016852923456286166,"18":-0.014376450890803635,"19":-0.051423239922495735,"20":-0.046549891036642935,"21":0.0437657547310326,"22":0.07534143176518181,"23":0.02702593107890642,"24":-0.08374057450912245,"25":-0.028514186762195522,"26":0.02392402305136487,"27":-0.08517896826437536,"28":0.06307790077134386,"29":-0.06529745934769451,"30":-0.013187253382616433,"31":-0.006929174004792823,"32":-0.11916498664287326,"33":0.0760745956362757,"34":0.023657518376402304,"35":0.11598192716412509,"36":-0.06664123797150928,"37":-0.07439048825760618,"38":-0.021705668597663298,"39":0.018010736044366718,"40":0.08347170428171492,"41":-0.010549385815569714,"42":0.05432871705231019,"43":0.040679797827747,"44":-0.011697894875139097,"45":-0.08261068368329952,"46":-0.015923007133380598,"47":0.03427123689431383,"48":0.047620930333576936,"49":-0.03742685103921381,"50":-0.0409331411287893,"51":0.01228726138219551,"52":0.018458882186133074,"53":0.028871172857749962,"54":-0.034395156144076816,"55":-0.03882952926149684,"56":0.0852219108747723,"57":-0.03841348071551033,"58":-0.14040544585254297,"59":0.004137198408354526,"60":0.09466458966255056,"61":0.049816382732809764,"62":0.05087981287110435,"63":0.0207827723418644,"64":-0.01991596777083104,"65":0.056381401913769204,"66":0.11267964647759371,"67":0.11748467206749358,"68":0.002558991977979017,"69":0.08915924782706196,"70":-0.020833778449720383,"71":-0.06681113210688155,"72":0.08760513883201566,"73":0.04551155286797471,"74":-0.032602793208126334,"75":0.08080880488853596,"76":-0.03663695886159474,"77":0.04159663800163705,"78":-0.014052065356465146,"79":0.02270705397472661,"80":0.05492421591955298,"81":0.13776539363444568,"82":0.16399425736439993,"83":0.00859805017054655,"84":0.011470037272152846,"85":0.05435187231519191,"86":-0.05363917190837282,"87":0.014768439177856696,"88":-0.008467611362775658,"89":0.004836476844401615,"90":-0.017695546735620224,"91":-0.014200677035780974,"92":0.034496267740106834,"93":0.009927998348649306,"94":0.04648857736501526,"95":0.07270036841277053,"96":-0.03420205994242505,"97":0.09689210424282639,"98":-0.00031149746173331075,"99":-0.003463045127585074,"100":0.053853429805852226,"101":-0.02395702004005931,"102":-0.01735456479754344,"103":-0.05871097275864213,"104":0.04706960162300235,"105":0.0073469909782174145,"106":-0.004976803167697892,"107":0.04974286569001194,"108":0.15803888585328954,"109":0.01638146949716896,"110":0.04289304263399201,"111":0.007917540756278525,"112":-0.08773195636266777,"113":0.04694016303416666,"114":-0.012629257113424901,"115":-0.08300039623516363,"116":-0.08290450878452411,"117":0.03802088671165215,"118":0.016372166793630197,"119":0.0006615951440002214,"120":-0.042275717290298824,"121":0.12623686886290553,"122":-0.003727270059194015,"123":-0.07240408761697947,"124":-0.039634449945199685,"125":-0.06994262264217933,"126":0.04108641860426428,"127":0.0902954501616453,"128":-0.06842532904214337,"129":-0.004598478164669164,"130":0.05757204658654455,"131":-0.08171193087249759,"132":0.04982655971079119,"133":0.06271542260996998,"134":-0.042705714501064446,"135":-0.007613471472021243,"136":0.043888800544507195,"137":0.05234494787432755,"138":-0.024896941835055364,"139":0.008617987238743414,"140":0.09038379960496086,"141":0.05711686476402028,"142":-0.03761851338108432,"143":0.03550489503541679,"144":-0.03537681772007315,"145":0.015795867791372178,"146":0.08908544856068257,"147":0.05716374929901728,"148":0.03503166807375996,"149":-0.043001242489991306,"150":-0.07923530917500553,"151":0.007377654597891455,"152":0.16226933004996852,"153":0.061629274994394835,"154":0.06128476212605981,"155":0.00786650187499468,"156":0.029427463732880185,"157":-0.0013173979086056277,"158":0.015549103131153473,"159":-0.02955239102143961,"160":0.0009581648708449738,"161":-0.004566629511429363,"162":0.030822179715878258,"163":-0.09730779799618831,"164":0.0879965384061407,"165":0.0483864360893744,"166":0.0753984440150127,"167":-0.04125367989634289,"168":-0.01086290444888123,"169":0.002514120885750774,"170":-0.0014314845431374025,"171":-0.03852075811787437,"172":-0.017112343858905487,"173":0.0377749649392808,"174":0.05800782169512147,"175":0.021155110461116303,"176":-0.0244281069093686,"177":0.007018634970963649,"178":0.0792340777422431,"179":-0.0040353165477617125,"180":0.004847372366788228,"181":0.011804696225133814,"182":0.0024300312167146094,"183":0.04829809417657296,"184":-0.058925040665652365,"185":0.02476777101489003,"186":0.02484534270434275,"187":0.10107182857474434,"188":0.004064091052552196,"189":0.01258812203851147,"190":0.02568229845311479,"191":-0.0015361873223284272,"192":-0.0919186464076697,"193":0.00779630736350831,"194":-0.04926536172325446,"195":-0.02798988960722898,"196":-0.002224808287483571,"197":0.006060339376772986,"198":0.05444780679033537,"199":0.06500447645804822,"200":0.03073579748960596,"201":0.15165733572565163,"202":-0.030923347849613984,"203":0.027769043854836008,"204":0.11466461861734334,"205":-0.13027627430632685,"206":-0.05905072627984217,"207":-0.04320260634083217,"208":0.07245420021871783,"209":0.10309147141213393,"210":-0.03757986605533727,"211":0.038315992191200084,"212":-0.04088149735950803,"213":0.13579413571414267,"214":0.10859340580384216,"215":-0.08519094541883036,"216":-0.04073395530647176,"217":-0.0016590777520206965,"218":-0.12567061902812743,"219":0.042231634070102254,"220":-0.04891267341400298,"221":0.022605643028674564,"222":0.042337948735618816,"223":0.04048448561557856,"224":0.0003528366330643935,"225":-0.019283459107994082,"226":-0.00338391949436996,"227":0.014850001666083506,"228":-0.0598099085523529,"229":-0.08071353561393455,"230":-0.0373626830400282,"231":-0.04564712222490899,"232":0.07023519158486348,"233":-0.06716442152729477,"234":0.014446650627507817,"235":0.041069342538654054,"236":-0.0028514338565467827,"237":-0.021581676026176184,"238":-0.02803878559421608,"239":0.07601390711430252,"240":-0.08078904354137129,"241":-0.09821357033316777,"242":-0.01474617886343035,"243":-0.044281000190089057,"244":0.017307700539449394,"245":0.0015585228582554755,"246":0.04259197902104436,"247":-0.030664463138822422,"248":-0.009758472873514536,"249":0.0834911450440301,"250":0.022990148210007662,"251":0.0116048311859212,"252":0.11131878239793772,"253":-0.056841830156138244,"254":-0.09523150005351357,"255":-0.05995837036496016,"256":-0.08667801234727457,"257":-0.060400062620519696,"258":-0.051408032407767,"259":-0.014455532183267962,"260":0.028275333726852637,"261":0.04532143039810357,"262":0.038357118991484605,"263":0.0745911375663667,"264":0.061341027780512446,"265":-0.013200496156923579,"266":0.03725334606876877,"267":-0.11873775345708167,"268":0.07522560957845087,"269":0.036536199032073786,"270":-0.09290930559764402,"271":-0.009822935783546738,"272":-0.05742033825317828,"273":-0.06582086530226405,"274":-0.05491147197931044,"275":0.024075072999970176,"276":0.0970436123388292,"277":0.02989030958101213,"278":0.06988967030416499,"279":-0.020672789067949164,"280":-0.07498065315575025,"281":-0.050001360848831826,"282":-0.015388279194040733,"283":-0.05861107880266824,"284":0.007405244352713199,"285":-0.007615169320326768,"286":0.03854478211149958,"287":-0.0028022303753430324,"288":-0.01446072446865093,"289":0.10059194517254688,"290":0.19825636403321759,"291":-0.02420384451962887,"292":0.002979572308982643,"293":-0.04540870659927474,"294":0.0707056566084648,"295":0.022555287805909586,"296":-0.051705490674857746,"297":0.08518097644993712,"298":0.03640527305270453,"299":0.026290104605184998,"300":-0.017135387290212006,"301":0.01606418645391108,"302":0.087641404549042,"303":0.034829901589889294,"304":0.03386183938066885,"305":0.025789704684708505,"306":0.14717649473659913,"307":-0.11408444612948924,"308":0.03933478775948017,"309":-0.06677666146181951,"310":-0.04141515608078456,"311":-0.10265644338694116,"312":-0.054906899421726246,"313":0.045981174009501316,"314":-0.10724564017696032,"315":0.04792732459607414,"316":0.16574538171538114,"317":-0.061044699803229685,"318":0.011172927580495795,"319":0.1592180952188606,"320":0.025732405188300052,"321":-0.014750842186752055,"322":0.0473950075669939,"323":0.042554711970766566,"324":-0.12022605833163408,"325":0.0168031377027511,"326":0.022019097889351632,"327":0.01896737957979354,"328":-0.010888621856516864,"329":0.12682757449775375,"330":0.002143159006159954,"331":0.013063389037964326,"332":0.1293214037160775,"333":-0.019997648226598674,"334":-0.13512823744536456,"335":0.023251823692934118,"336":-0.10559660461157559,"337":-0.003664644005426792,"338":-0.0029487261691726187,"339":0.039745411694605166,"340":0.008074980892149029,"341":0.046113312094027234,"342":0.04745896331061303,"343":-0.01956209920057287,"344":0.03340185367918054,"345":0.05731214039064233,"346":-0.05023880004773395,"347":-0.07325434770986035,"348":0.0531869324314328,"349":0.00894493288261663,"350":-0.05700110872536649,"351":-0.02989695029159108,"352":-0.00019698591547392025,"353":0.08635220797920044,"354":0.04378732517050008,"355":0.07640558026875355,"356":-0.17421396675238157,"357":0.06116431460251556,"358":-0.06850730324436725,"359":-0.013865586935500121,"360":-0.03712804591290576,"361":-0.02707390475578118,"362":0.011765647630689208,"363":0.049128159522433046,"364":-0.0143368684425736,"365":-0.037662758006645015,"366":-0.044873850881576506,"367":0.03604881147752197,"368":0.017208077187864067,"369":0.024499478163749873,"370":0.14823761220681697,"371":-0.14505160816292254,"372":-0.06292124253590393,"373":0.018421601533432867,"374":0.06509172518347772,"375":0.016526012694178343,"376":0.04328269178598973,"377":0.006016016289899096,"378":-0.03293105432183387,"379":-0.013401121556736836,"380":-0.010139790565833378,"381":0.04341139715600686,"382":-0.10412468091858341,"383":0.07387785189132633,"384":-0.15663519035534518,"385":0.043981914197938364,"386":-0.02926789035044438,"387":-0.03735546328367049,"388":-0.1140647767233551,"389":-0.0073283683516245975,"390":0.05785325980099566,"391":0.051876468159358015,"392":-0.0559870736797173,"393":0.10413069078428935,"394":0.0902639239364645,"395":-0.005891315328197803,"396":-0.00045323464344379586,"397":-0.0824630568623297,"398":-0.012836486879771385,"399":-0.09010440868796556,"400":-0.08862586419633973,"401":-0.0036817574118988366,"402":0.028727134201415653,"403":-0.039300231333534705,"404":0.016074118837738724,"405":0.05629649825160519,"406":0.03761686505895386,"407":0.14302122832751704,"408":-0.013591934765241124,"409":-0.03128282853753939,"410":-0.1430370077941787,"411":-0.11598857411598808,"412":-0.11392231674285505,"413":-0.07139665989933286,"414":-0.05533512186062798,"415":-0.018385214873609973,"416":0.022599404229703062,"417":0.05027943305492828,"418":-0.010130039589864363,"419":0.03497655886132151,"420":0.15993135268508454,"421":-0.01887678787428018,"422":0.05061908293197707,"423":-0.19641516409786863,"424":-0.02234052001820482,"425":-0.05431237956234854,"426":0.042784282220332995,"427":0.0006023695813656372,"428":-0.020278993543226938,"429":0.04116171849243282,"430":0.0193363880515159,"431":0.020196605117681687,"432":0.02518210375397209,"433":0.1359146704642831,"434":-0.03780213599015688,"435":-0.0885041742489434,"436":-0.17681229471142262,"437":0.016110126791571935,"438":-0.12024815474455992,"439":-0.03255694562144308,"440":-0.10258494317915706,"441":-0.005548209110046187,"442":0.03034881051433473,"443":-0.019753439230971465,"444":-0.017395947281409505,"445":0.018777842007980845,"446":0.05652219564274137,"447":0.07831622493897064,"448":0.11823376782071061,"449":0.025440349155580688,"450":0.09112347685089116,"451":-0.034367166238565755,"452":0.012963806672014896,"453":-0.04586006770281047,"454":-0.06627894093160253,"455":-0.027705626035381143,"456":-0.023459385403272703,"457":-0.016488283349207086,"458":0.05647847937111083,"459":0.07122702540854674,"460":-0.05688656236381535,"461":0.11999201413149292,"462":0.049637492525110016,"463":0.11663401086673954,"464":-0.055689525931915514,"465":0.05392305782177913,"466":-0.040847750394406364,"467":0.007273150081115018,"468":-0.011097771380079816,"469":-0.030895564808520216,"470":0.04680892403359005,"471":0.04376533981080505,"472":0.012957870645624118,"473":-0.010332027626784122,"474":0.14255706963828044,"475":0.06730265192786639,"476":0.05203265500164977,"477":-0.08224189864901482,"478":-0.0007292574654017373,"479":-0.06387868259305741,"480":-0.056959951215451256,"481":-0.002847197123993975,"482":0.059652463014082065,"483":0.0317533540646077,"484":0.022693656742598343,"485":-0.05858041648876117,"486":0.07238420778241209,"487":0.15949593418141375,"488":0.08451421724364644,"489":-0.019761596898727096,"490":-0.09567165353263356,"491":0.001474423877420493,"492":-0.04121951679048566,"493":0.027034728724686482,"494":-0.015781224920944026,"495":-0.04964548522550302,"496":-0.015858576841935475,"497":-0.0050358944015473665,"498":-0.012465525628444983,"499":-0.06258281113369733,"500":-0.027803753329808112,"501":0.07335621933435979,"502":0.02970263977056512,"503":-0.021696511981021186,"504":0.015179741610969178,"505":-0.04318417418319199,"506":0.017449818694560693,"507":0.0008780214447306418,"508":0.014805686553527111,"509":0.025293258214574642,"510":0.03218028330535953,"511":0.01371014542813319,"512":0.08188079741398181,"513":0.0910474017230434,"514":0.08496061670085713,"515":0.030035424448414335,"516":-0.007898929569770221,"517":0.06249492832592867,"518":-0.02474514993909939,"519":-0.04550711929154233}},{"sx":1,"sy":1,"depth":520,"w":{"0":0.0169752600940457,"1":0.05895767788059221,"2":-0.062845503651742,"3":-0.23723039624414036,"4":0.04389885291328137,"5":0.0840972488650432,"6":0.02552931958373032,"7":-0.043242101212480046,"8":0.04171651844185008,"9":0.06006580841549698,"10":0.022504266004284568,"11":-0.08300418215986474,"12":0.017920417564216983,"13":0.04164537327034003,"14":0.007147309922833452,"15":-0.034490929131852775,"16":-0.18858899580584962,"17":-0.06129143833895657,"18":0.13761598176711262,"19":0.1862415846656443,"20":0.10633346139594498,"21":0.10152006455061476,"22":0.07473360969147808,"23":0.02650426448022842,"24":-0.010812079399925161,"25":-0.035488627953121264,"26":0.014266496970680357,"27":0.025121605693639432,"28":-0.018426338515064578,"29":-0.16136850830461313,"30":-0.1795731927623678,"31":0.0270238458112729,"32":0.08944403621532968,"33":0.13169355219125828,"34":0.035294355693292825,"35":0.027253956054002618,"36":0.07979483005379175,"37":-0.06858828324910152,"38":0.01028574278286036,"39":-0.01772157156605562,"40":0.03573054734834886,"41":0.014036892574557107,"42":-0.07990480329918077,"43":-0.004970591709539892,"44":-0.18102002411198667,"45":0.12811206751949616,"46":0.048427100627720744,"47":0.06844603410155066,"48":0.06913913356323348,"49":0.0062344817537109635,"50":-0.053352555852522826,"51":-0.06601349722199151,"52":-0.0869435771480892,"53":-0.07115194702907914,"54":-0.018419260115532212,"55":-0.02529220067444054,"56":-0.0004858533683835995,"57":-0.15314615552687177,"58":0.08163704167079458,"59":0.011515218065935286,"60":-0.03214400830230671,"61":-0.11668141782472963,"62":-0.08033773589476485,"63":-0.04378479425919923,"64":-0.055353088313224476,"65":0.001447589237987181,"66":-0.06504063464435332,"67":-0.015421783882139255,"68":0.04169242487205488,"69":0.01643802510853646,"70":-0.09888960411453429,"71":0.20375267477978692,"72":0.051916617917288334,"73":0.05163826822933453,"74":-0.026889447378081265,"75":-0.051587980749113325,"76":-0.1313673104383617,"77":-0.062294302851012874,"78":-0.13471926968618197,"79":0.12023473491404449,"80":-0.04270873452977226,"81":0.04465224403688891,"82":-0.012431718575671246,"83":-0.16669493738132843,"84":0.22101005173167373,"85":0.012007444755041678,"86":0.12510555527051279,"87":0.00481121798611577,"88":-0.11861546619640764,"89":-0.0745684994301031,"90":-0.10187929491254531,"91":-0.025899165346552008,"92":0.07043980380251996,"93":0.08960096126777144,"94":0.08003867150926817,"95":0.027103935628842005,"96":-0.09346909851768126,"97":0.23572042868922663,"98":0.05653730891605267,"99":-0.021609637345672887,"100":-0.052237627935564544,"101":-0.14562683042143226,"102":-0.028554584974092447,"103":-0.07469263987566047,"104":-0.039709086859970995,"105":-0.07193633213115629,"106":-0.12274351539515947,"107":0.061997338763800425,"108":-0.009444351389839543,"109":0.00037126845757949985,"110":0.2802869910760766,"111":0.10991365521136776,"112":-0.047294453375334895,"113":-0.0673908367707623,"114":-0.11117374810652982,"115":-0.05839241073950127,"116":-0.08838311243978396,"117":-0.026829299611786126,"118":-0.013286652171705488,"119":-0.14244662208995987,"120":0.2141924071533579,"121":-0.11495685674255636,"122":0.056863547015422296,"123":0.28230598203690144,"124":0.19058922104869438,"125":0.08530475924128224,"126":-0.05987453659743283,"127":-0.06026610609002806,"128":-0.07038710954329615,"129":-0.056100899667189084,"130":-0.11387522705590096,"131":-0.019513176968874148,"132":-0.1637841231932653,"133":0.0996632177708953,"134":-0.06063170996865287,"135":-0.0005126482009536721,"136":0.1757497830165174,"137":0.10026144850122114,"138":-0.015543399864306171,"139":-0.04146083825305236,"140":0.05844072045448035,"141":0.13404967526598666,"142":-0.07993406107935846,"143":-0.016375822760802194,"144":-0.1244409874810025,"145":-0.01671805775560445,"146":0.1220958274034643,"147":0.08548688273693883,"148":-0.02002470134875895,"149":0.11014379974511543,"150":0.17122052623816278,"151":0.08957626366981888,"152":-0.038449371236824174,"153":0.1294359732978365,"154":0.0011805025281715585,"155":-0.10429197307555049,"156":-0.09094810480222128,"157":-0.048568922690603165,"158":-0.015151777408455054,"159":0.051269995959104246,"160":0.15719002510276273,"161":-0.006035086568793998,"162":0.09230341046228754,"163":0.16964547553179313,"164":0.07497785364184767,"165":-0.00864039581088973,"166":-0.002963968283370028,"167":-0.018607094018453493,"168":-0.1087356402792114,"169":-0.15576539558854013,"170":-0.12076539060898701,"171":0.08457157729035215,"172":0.10837040450734015,"173":0.23088059851320175,"174":-0.05927010783507297,"175":0.11832028143932775,"176":0.32326689898759964,"177":0.011837566089492619,"178":-0.08100779506553298,"179":-0.031093269450152977,"180":0.0163047306423287,"181":-0.08299476925465861,"182":-0.22396941262346573,"183":-0.028957174571298167,"184":0.04462669955094959,"185":-0.04948506053845236,"186":0.09496053534617942,"187":0.13374352140592793,"188":0.025825935760247738,"189":0.217159024781774,"190":0.029730580069332577,"191":-0.006260496405298451,"192":-0.02815380101051902,"193":-0.026127542245738117,"194":-0.06836789536443895,"195":-0.17927296141986876,"196":-0.07434640086584818,"197":-0.0018824771601089621,"198":-0.11245075370897847,"199":0.13075775981886176,"200":0.14452982631708325,"201":0.12634733097441178,"202":0.1586248764378931,"203":-0.03240428470534241,"204":0.0688902637086241,"205":0.012811436060394268,"206":-0.13025867277043696,"207":-0.028455594070112986,"208":-0.14162073775147574,"209":0.10750386707805258,"210":-0.08519101128860415,"211":-0.1825272911077752,"212":0.002941774158860489,"213":0.09371319806226763,"214":0.18034122824020662,"215":0.20997982090159562,"216":0.13751601405652966,"217":0.07679947436803856,"218":0.08055540990818016,"219":-0.022774008594515446,"220":-0.029429873786687495,"221":-0.08629146298106213,"222":0.007422596852795369,"223":-0.13357899248878696,"224":-0.18187289888928865,"225":0.1316465318298909,"226":0.05631904226244652,"227":0.10485945056010049,"228":0.25337451571964975,"229":0.059009290979467825,"230":-0.008986506832311423,"231":-0.09311375344176469,"232":-0.06218997777020579,"233":-0.027640930390275965,"234":0.08443463256032457,"235":-0.06579135479298986,"236":-0.13015417654538206,"237":-0.021062395468125477,"238":0.02614099593232715,"239":0.11811050006234826,"240":0.15634544556994892,"241":0.24612936839292968,"242":0.045039184129432454,"243":-0.004354718189741202,"244":0.0286601724702561,"245":-0.010039076740446228,"246":-0.06423280655025039,"247":0.05696295692082329,"248":-0.04838401650116879,"249":-0.09438640546734868,"250":0.002998516796583176,"251":0.09849418650806926,"252":0.054264649608569596,"253":0.051901380775436046,"254":0.03584039042187673,"255":0.11411929138760517,"256":0.08323024571578183,"257":-0.1420429949012634,"258":-0.024924158420177863,"259":-0.08244996875633238,"260":0.05312206964603582,"261":0.12835965874596678,"262":-0.07349875665216607,"263":0.020500038505723954,"264":0.020844303095362563,"265":-0.018510735810836742,"266":-0.030626377808745657,"267":0.11429871381172316,"268":-0.00028751237213203566,"269":0.040639706714645514,"270":-0.03817896608884035,"271":-0.12498469095235284,"272":-0.020222354113600207,"273":0.13595553250909245,"274":0.009602654897666325,"275":-0.036752876052047995,"276":-0.02149978054458297,"277":0.044571974784860274,"278":0.12397046903032506,"279":0.19375289922581468,"280":0.05608425748124937,"281":-0.045615365018879354,"282":0.05542421679934118,"283":-0.11178733505311016,"284":-0.007138928960329479,"285":-0.07218901943196855,"286":0.11925535760423793,"287":0.025223940052360488,"288":0.018446834542266415,"289":-0.06614464692293767,"290":0.10839079924991765,"291":0.10036325325316899,"292":0.12231041763619625,"293":0.1270927285927721,"294":0.02740959312927436,"295":0.02568857409277628,"296":-0.16528634655612184,"297":0.012672539369271067,"298":-0.09895249562879063,"299":0.11856708206610811,"300":-0.06543064112612532,"301":-0.02225777592294646,"302":-0.050870448089249384,"303":-0.019975807650766914,"304":-0.10476890819360295,"305":0.25093035294466626,"306":0.039536503335406835,"307":0.004716314768199956,"308":-0.01684096663166064,"309":-0.0922778647797883,"310":0.008258387726683329,"311":-0.005447874612179799,"312":0.057105003897287114,"313":-0.007101713230624347,"314":0.01711736456335833,"315":0.05102006712200827,"316":-0.06490046232147928,"317":-0.28172322263795024,"318":0.22548363476189087,"319":0.029986490485490794,"320":0.04805012608324723,"321":-0.08671704713810728,"322":-0.019374675692111324,"323":-0.011022575124497423,"324":-0.05597882881600966,"325":0.08812733802935867,"326":-0.04814321896470419,"327":-0.0266809320935029,"328":0.09253948227245805,"329":0.035514167942147234,"330":-0.08475038604319214,"331":0.1521348800818894,"332":0.004117753940375112,"333":-0.15039951960175515,"334":-0.005665906339533548,"335":-0.06909070821244583,"336":-0.19015862365600564,"337":-0.036094514331571625,"338":0.11730932782008613,"339":-0.039865164475981,"340":-0.17382269040278872,"341":-0.014913094104186753,"342":0.11521020063502148,"343":-0.12532404299387673,"344":0.22080686187654605,"345":-0.027726481315939366,"346":-0.12653380490249083,"347":-0.0231095940346745,"348":-0.17103102770678585,"349":-0.04422713377872095,"350":-0.058829234026147224,"351":0.13704954984304538,"352":-0.053113584438020875,"353":-0.015256386341088536,"354":-0.027399539807470664,"355":0.017123545195998593,"356":0.05934465994537776,"357":0.07949656547539245,"358":0.006717274981017322,"359":-0.04998779423975494,"360":-0.012282955205336541,"361":-0.04187554309550482,"362":-0.0924888888821036,"363":-0.02050460218275037,"364":0.09635340428066409,"365":-0.10701178566304485,"366":-0.04271719142199471,"367":0.012038635531757805,"368":0.10649550317997498,"369":0.1626962577326286,"370":-0.13869111379859947,"371":-0.1342300488941378,"372":-0.06756737064155409,"373":0.032546972020089444,"374":-0.18885813183478176,"375":-0.09083168272856833,"376":-0.07243415139849484,"377":-0.020726012168103297,"378":-0.11149161729639565,"379":0.07058133582142408,"380":0.052233317608540344,"381":0.20673243043060724,"382":0.07920295169779486,"383":-0.3251069466027736,"384":-0.26692048740806606,"385":0.009865509381162742,"386":-0.023447639249460014,"387":-0.08743214923561429,"388":-0.008609935080779264,"389":0.00434882991710561,"390":-0.0320019903558708,"391":-0.17079141970902012,"392":0.12536249163125507,"393":0.04353996038860444,"394":0.0684625439378207,"395":-0.02547983149891299,"396":0.045505137349586416,"397":-0.21627610540186448,"398":-0.08643726955944557,"399":0.027974072475037783,"400":0.017047580196255057,"401":-0.02217675845073504,"402":0.03805695395538885,"403":-0.15491158906855917,"404":-0.012195621021045754,"405":-0.05887549902649982,"406":0.026596907252291295,"407":0.09385009099468102,"408":0.023024196024428584,"409":0.036152700705453816,"410":-0.08626136090188058,"411":-0.14013102461272733,"412":-0.002282252141524743,"413":0.03873759093857529,"414":0.07097047849179904,"415":-0.07268342416522441,"416":0.06279451490903357,"417":0.07297323409732506,"418":-0.10985327472287887,"419":0.06205195552624105,"420":0.05207935405861683,"421":0.05964889163689293,"422":0.09013413518954717,"423":-0.07293195692203104,"424":-0.15448978955492032,"425":-0.0069477479545076975,"426":0.043359012523434146,"427":-0.09252867885794441,"428":0.06720509993193012,"429":0.05154130067990886,"430":-0.09813207066254662,"431":-0.10509077769544231,"432":0.0237828381905058,"433":-0.06129642413036411,"434":-0.0439245340663773,"435":0.07561039867026961,"436":-0.08850850843789886,"437":-0.048180322605646954,"438":0.055810928527933304,"439":0.055119738957498395,"440":-0.04490840727915803,"441":-0.009951981441619078,"442":-0.04165132457986452,"443":-0.018772681634944055,"444":-0.1335593268405087,"445":-0.06815503873152352,"446":-0.10256898664268636,"447":-0.07512516372884609,"448":-0.287008342512183,