//<![CDATA[

// a few things don't have var in front of them - they update already existing variables the game needs
lanesSide = 6;
patchesAhead = 30;
patchesBehind = 10;
trainIterations = 130000;

// the number of other autonomous vehicles controlled by your network
otherAgents = 10; // max of 10

var num_inputs = (lanesSide * 2 + 1) * (patchesAhead + patchesBehind);
var num_actions = 5;
var temporal_window = 0;
var network_size = num_inputs * temporal_window + num_actions * temporal_window + num_inputs;

var layer_defs = [];
    layer_defs.push({
    type: 'input',
    out_sx: 1,
    out_sy: 1,
    out_depth: network_size
});
layer_defs.push({
    type: 'fc',
    num_neurons: 32,
    activation: 'tanh'
});
layer_defs.push({
    type: 'fc',
    num_neurons: 16,
    activation: 'tanh'
});
layer_defs.push({
    type: 'fc',
    num_neurons: 16,
    activation: 'tanh'
});
layer_defs.push({
    type: 'fc',
    num_neurons: 32,
    activation: 'tanh'
});
layer_defs.push({
    type: 'regression',
    num_neurons: num_actions
});

var tdtrainer_options = {
    learning_rate: 0.01,
    momentum: 0.001,
    batch_size: 192,
    l2_decay: 0.01
};

var opt = {};
opt.temporal_window = temporal_window;
opt.experience_size = 30000;
opt.start_learn_threshold = 500;
opt.gamma = 0.98;
opt.learning_steps_total = 150000;
opt.learning_steps_burnin = 500;
opt.epsilon_min = 0.01;
opt.epsilon_test_time = 0.0;
opt.layer_defs = layer_defs;
opt.tdtrainer_options = tdtrainer_options;

brain = new deepqlearn.Brain(num_inputs, num_actions, opt);

// CUSTOM_VARS_BEGIN
var gen_name = 'genA-V13';
var count = 0;
var eval = false;
var save_checkpoint = 250;
var noSaveCheckpoint = false;
var eval_start = 2000;
var target_mph = 68.00;
// CUSTOM_VARS_END

learn = function (state, lastReward) {
    brain.backward(lastReward);
    var action = brain.forward(state);

// CUSTOM_CODE_BEGIN
function getFixedData() {
    var data = editor.getValue() + "\n/*###########*/\n";
    data = data.replace("otherAgents = 0","otherAgents = 10");
    if (brain) {
        data += "if (brain) {\nbrain.value_net.fromJSON(" + JSON.stringify(brain.value_net.toJSON()) + ");\n}";
    }
    return data;
}

downloadNamedCode = function (thisName, forward_passes, data) {
    var blob = new Blob([data], {type: 'text/plain'});
    var url = URL.createObjectURL(blob);
    var blobAnchor = document.getElementById("blobDownload");
    blobAnchor.download = "net-" + gen_name + '-' + forward_passes + '-' + thisName + ".js";
    blobAnchor.href = url;
    blobAnchor.click();
}

if (typeof(count) != "undefined") {
    if(brain.forward_passes >= eval_start) {
        if(brain.learning == false) {
            count = count + 1
            if(count >= save_checkpoint) {
                if(brain.forward_passes > 0){
                    if(eval === false && self.document !== undefined) {
                        thisData = getFixedData();
                        var myWorker = new Worker("eval_webworker.js");
                        eval = true;
                        myWorker.onmessage = function (e) {
                            if (typeof e.data.percent != 'undefined') {
                                // do nothing / placeholder
                            }
                            if (typeof e.data.mph != 'undefined') {
                                console.log('Eval complete - ' + e.data.mph);
                                if(e.data.mph >= target_mph) {
                                    console.log('Saving checkpoint at ' + brain.forward_passes);
                                    downloadNamedCode(e.data.mph, brain.forward_passes, thisData);
                                }
                                eval = false;
                            }
                        };
                        myWorker.postMessage(getData());
                    }
                }
                count = 0;
            }
        }
    }
}
// CUSTOM_CODE_END

    draw_net();
    draw_stats();
    return action;
}

//]]>
/*###########*/
if (brain) {
brain.value_net.fromJSON({"layers":[{"out_depth":520,"out_sx":1,"out_sy":1,"layer_type":"input"},{"out_depth":32,"out_sx":1,"out_sy":1,"layer_type":"fc","num_inputs":520,"l1_decay_mul":0,"l2_decay_mul":1,"filters":[{"sx":1,"sy":1,"depth":520,"w":{"0":0.5261078282343357,"1":-0.3063100107461136,"2":0.2622614329432942,"3":-0.5415296018304037,"4":0.0879584794579519,"5":-0.16434432425768275,"6":0.6566093241760443,"7":0.6139957684380192,"8":0.13751453224854635,"9":0.45298195995577956,"10":-0.002362009492889398,"11":-0.5081452469165982,"12":0.2441690152809311,"13":0.511048734291134,"14":-0.07338862101805502,"15":0.3701500281659321,"16":-0.12535348876642582,"17":-0.3658342768313641,"18":-0.07041447543123211,"19":0.529550500156821,"20":0.19833195727938202,"21":-0.221218323263745,"22":-0.11002687132406641,"23":-0.2664112014827803,"24":-0.02954320158720244,"25":0.7034919190821536,"26":0.2505607456943629,"27":-0.13779404538877527,"28":-0.591515953916313,"29":-0.07887455323842818,"30":0.04281478081127724,"31":0.06805539245327266,"32":0.013038280142390222,"33":0.5073340709271895,"34":-0.26761600066438773,"35":0.24316653474193697,"36":-0.09306462916022672,"37":-0.05196401198061115,"38":0.30344922564744636,"39":0.03947968252205717,"40":0.1904305239739492,"41":0.004859592760796157,"42":-0.06358539593869199,"43":-0.13263782980804606,"44":-0.07487260110359986,"45":0.5185680294427502,"46":0.6798100344232831,"47":-0.02351140281003866,"48":0.25237022576928125,"49":0.09913893652103345,"50":-0.6786118601815287,"51":0.4690662312382003,"52":-0.3117666889613137,"53":0.030606414029008277,"54":0.23994123368954887,"55":-0.36015344897489926,"56":-0.09233858584645326,"57":-0.11819633456555154,"58":0.361465479492667,"59":0.853266867199026,"60":-0.03635954696397017,"61":-0.3031522004027646,"62":-0.40675816779183027,"63":-0.26484891067210053,"64":0.08208069546747722,"65":-0.32885174879266155,"66":-0.22978592355467148,"67":-0.030559902396042976,"68":-0.38250074497224446,"69":0.05013215471022562,"70":-0.6396451433793034,"71":0.18070145215427036,"72":0.649632902896113,"73":0.21662993160968502,"74":0.11813627395091471,"75":-0.012590205687233314,"76":-0.280842652723773,"77":0.13873928782949455,"78":-0.2737770679766621,"79":-0.18061142100248684,"80":0.023717471001252384,"81":-0.20146688622619816,"82":-0.11804321839265315,"83":-0.3368532537051012,"84":0.4427872338908512,"85":0.21299121311774874,"86":0.8912699704038999,"87":0.19901216010423112,"88":-0.006592082232009888,"89":-0.42888077436676836,"90":0.24485098471120953,"91":0.10681455920448674,"92":-0.27978401217541166,"93":-0.13104910094946362,"94":0.07844535036566193,"95":-0.0022068130737827674,"96":-0.032150630618799456,"97":0.8168883442715861,"98":0.594486045806927,"99":0.07380610049416214,"100":0.35408634431216707,"101":-0.11221497593573057,"102":-0.28776738743467906,"103":0.3789441500028769,"104":-0.16145612909501958,"105":-0.30174377603647295,"106":-0.2211078553582927,"107":0.2969599751058873,"108":-0.18426969576411253,"109":0.35145632749788663,"110":0.7072780973889103,"111":0.7387542623249603,"112":0.37717606190718866,"113":0.4185245371018865,"114":-0.08425417012366658,"115":-0.1297561150745753,"116":0.11349659649552243,"117":0.22952987310619472,"118":-0.027954084815697382,"119":-0.09020672738267534,"120":0.029410853605637454,"121":0.450192068789026,"122":0.2184986548366663,"123":0.5817201400868954,"124":0.8764879920736013,"125":0.18743312741786264,"126":0.5241831842652759,"127":-0.5046145226837558,"128":-0.07181655663124807,"129":0.1995942532278471,"130":-0.10447476983788591,"131":-0.2394008545306173,"132":0.18956656845134412,"133":0.2857730445952854,"134":0.03520591999101034,"135":0.3185868525271166,"136":0.2688253732942875,"137":0.8102373536627899,"138":0.2967423698017686,"139":0.19012882520896382,"140":-0.35491705744929375,"141":0.3068550184626401,"142":0.012466428978320454,"143":0.089566123184825,"144":-0.3051758339342936,"145":0.3220410361450048,"146":-0.28471972739349233,"147":-0.13096528489142736,"148":0.6626868933692487,"149":0.46988460279247174,"150":0.3419811660524851,"151":0.5897798753442711,"152":0.07613490665512583,"153":-0.3122075901164346,"154":0.14541942340345032,"155":-0.17536282394286412,"156":0.34417118534283553,"157":-0.11100729849879465,"158":-0.2700176556170735,"159":0.19766688622496426,"160":0.47097230760357706,"161":0.1911220388273206,"162":0.9043854190597543,"163":1.0760804107733513,"164":0.1649096085655341,"165":0.17642242985112236,"166":-0.291442082897498,"167":-0.2811680630176384,"168":0.06078474060992135,"169":0.5605058162812013,"170":-0.15127891193352277,"171":-0.20917328281681014,"172":0.284562229606345,"173":-0.012342735791311659,"174":0.22855586269895803,"175":0.5537123257109325,"176":0.7321876484186484,"177":0.336938364415333,"178":-0.17641564384823008,"179":-0.19763622907192632,"180":-0.5709551427145658,"181":-0.36547466729352673,"182":1.041283462068691,"183":0.8482230543663101,"184":-0.570628301606199,"185":-0.13734370749020955,"186":0.4169487656748093,"187":0.6247017016702345,"188":0.3593430447082461,"189":0.7533932103924974,"190":0.12067340440570803,"191":0.05322230102033577,"192":-0.492280172955487,"193":-0.2949655867589488,"194":-0.0687803246381721,"195":0.4923979831130992,"196":0.12635699302312645,"197":-0.48890379209476986,"198":0.051060107512102666,"199":0.07951293931828826,"200":0.42160349666308994,"201":0.26111293024042165,"202":0.5011730907611495,"203":0.48587436204210616,"204":0.2676763792946839,"205":0.026126572280550046,"206":-0.23729838054295072,"207":0.022629663438498305,"208":0.48819340197307576,"209":-0.19913537367903167,"210":-0.48250674201036603,"211":0.1128417048959663,"212":0.2911589260653454,"213":0.8241615299551445,"214":-0.25916111725543395,"215":0.3327612702846482,"216":-0.09553034960492977,"217":0.07758594432235301,"218":0.37802030316498036,"219":0.07165177155996712,"220":-0.05382411502125693,"221":-0.10730697387465558,"222":0.19488596785546453,"223":-0.005848902861859313,"224":-0.02097513302183606,"225":0.02676374501004388,"226":0.6016714319626436,"227":0.3816066279821557,"228":0.41748704003554427,"229":-0.09645478485816401,"230":0.18399343298153661,"231":-0.12275566266855309,"232":-0.06543560428338727,"233":-0.06667461120343958,"234":-0.0021841034671634062,"235":-0.33542949755607815,"236":-0.12593254593387615,"237":0.05396877602422643,"238":-0.02084486148006062,"239":0.29983325269383915,"240":0.6293491019787578,"241":0.4027736025549414,"242":0.2875421900338985,"243":-0.21777637243465572,"244":-0.04283109915967357,"245":0.013831349704469744,"246":-0.20097613652532179,"247":0.2468096583911037,"248":0.37631747915107805,"249":0.08807194170511182,"250":0.33206809695127565,"251":0.21852759845517186,"252":-0.16076486549461794,"253":-0.0859871832616831,"254":0.5141565456173655,"255":-0.1605992940127572,"256":-0.11792019381611758,"257":-0.1454329307195698,"258":-0.2984982286885579,"259":-0.03166587688202905,"260":0.019646672909617715,"261":0.2603942185489675,"262":0.048388714620292476,"263":-0.0009737286420241772,"264":-0.08454187013696236,"265":-0.25714723162575237,"266":0.1626240727422921,"267":-0.5497171435459216,"268":0.08179957534990961,"269":-0.19666642655076788,"270":-0.49086929719565797,"271":-0.28538536441507356,"272":0.01388976404523123,"273":0.2005308589252113,"274":-0.23628867912506,"275":-0.2220712198907709,"276":-0.12294644783803307,"277":-0.09448464075321075,"278":0.2852857921136524,"279":-0.13378844450267618,"280":-0.13754089947928674,"281":0.24550053710289027,"282":0.21621841275084383,"283":0.06292090137599615,"284":-0.11333104729783804,"285":0.09602198836291297,"286":0.1097172441308858,"287":0.295935233286409,"288":0.12508056632098466,"289":-0.1576838287366415,"290":-0.17130785986521477,"291":0.18506554822823465,"292":0.305008483660902,"293":-0.1295544866416155,"294":-0.06306613584535148,"295":0.3031967248544971,"296":0.45223343716009756,"297":-0.13465095123937043,"298":0.08392147724964955,"299":-0.2259597453011223,"300":0.0101730484452393,"301":-0.3698053325666984,"302":-0.3401891927380619,"303":-0.4073949514376256,"304":0.08092149482099104,"305":-0.4554824928405962,"306":0.13661372211605274,"307":-0.18872107201029814,"308":-0.17078791574614752,"309":0.2753259962053464,"310":0.1303658358087875,"311":-0.16868514781543828,"312":-0.21565697328726874,"313":0.3823043978352344,"314":-0.2410882312891931,"315":-0.35312233314481967,"316":-0.18728227095837574,"317":0.8561814698080136,"318":-0.9573150587063215,"319":0.32206447251069564,"320":0.06246124456686423,"321":0.07253373894679974,"322":-0.03158177948773268,"323":-0.32043809503157344,"324":-0.08756593165432315,"325":-0.2002346867731585,"326":0.29470429778777973,"327":-0.14921352944846972,"328":0.08433773439300424,"329":-0.13638037851514248,"330":0.6959385429172579,"331":-0.6362463339956476,"332":-0.263880803668271,"333":0.04422684738974277,"334":-0.04094978313460553,"335":-0.14574418069484837,"336":-0.09196862445823197,"337":-0.23971386332928057,"338":-0.20709915086975364,"339":-0.09188544580398507,"340":-0.2513816438885804,"341":0.06711404796533942,"342":-0.3658244790088049,"343":0.019684508371769913,"344":-1.2664588345137182,"345":-0.20303194293059948,"346":-0.29105436698485637,"347":0.4920182127902604,"348":-0.4737301128858693,"349":0.1217736062459631,"350":0.01787080322694915,"351":0.006034988203892119,"352":0.1476216665602214,"353":-0.17243663121179142,"354":-0.09403988885277581,"355":-0.0460464725764984,"356":0.19128661561306362,"357":-0.5568155822720041,"358":-0.4434438131841537,"359":0.00409682594734853,"360":0.14174939495009087,"361":-0.34600548460867087,"362":-0.0016512663424148913,"363":0.09798051487689326,"364":0.13150296621990887,"365":0.06131847920208434,"366":0.06191136223518372,"367":0.06008403962386634,"368":-0.5230495188192128,"369":0.05787985319207239,"370":-0.3104969192205092,"371":-0.5699005970362158,"372":-0.062214663033866004,"373":-0.3798612723273378,"374":0.08281619489940575,"375":-0.08217698443257576,"376":0.10864347908386848,"377":0.02814918290764918,"378":0.34107430858200566,"379":0.14092994415853144,"380":0.06423610770713603,"381":-0.04596908334328528,"382":-0.1335189077229885,"383":-0.5426842856715538,"384":-0.7717400415461954,"385":-0.1450849416833822,"386":-0.2707273227909172,"387":0.35505469924558947,"388":0.242098481956904,"389":0.2649112526938891,"390":0.09661339362829574,"391":-0.12349477019790808,"392":0.024318372173945033,"393":0.17699009790341072,"394":0.3071240403861778,"395":-0.15778315814904925,"396":-0.05739890499692855,"397":-0.8035863594643115,"398":-0.03086326439507,"399":-0.2612846749650983,"400":0.15049660631408326,"401":-0.01490557022009118,"402":0.1512184496004172,"403":0.2636106931750987,"404":0.07897552904033993,"405":0.16928022254290212,"406":0.012691584406682983,"407":-0.5684062419502411,"408":0.07552416143478696,"409":-0.05792120201670403,"410":-0.8459562757348495,"411":0.010632313164653625,"412":0.09681030742660465,"413":0.05316833719288865,"414":-0.059826261426621334,"415":0.13036256375182348,"416":0.4240665400236886,"417":0.21152439190074715,"418":0.31900846663362775,"419":-0.023563758311436322,"420":-0.25733652482896074,"421":-0.31179518426601616,"422":0.03909670300348706,"423":-0.5818971682986174,"424":0.05855587457913012,"425":0.3474826486228113,"426":-0.1009728108415894,"427":0.09033457034585896,"428":0.0427508345727116,"429":0.25526525112015563,"430":0.09416222968433403,"431":0.30374117311229365,"432":-0.07259677590859344,"433":-0.4356944768100182,"434":-0.664323700779414,"435":-0.03824679455067917,"436":-0.35883903449393345,"437":-0.09931817721468153,"438":-0.017417082177599807,"439":-0.2920296180622283,"440":0.1633099143673505,"441":-0.1967349504613291,"442":0.08282768565657626,"443":-0.03079696592088393,"444":0.3727997249285497,"445":-0.21029730579325398,"446":-0.4412202109105226,"447":-0.3040875486066723,"448":-0.7175697869094418,"449":0.05556869843786837,"450":-0.242912842555503,"451":0.17881082172260826,"452":0.019521337525875607,"453":0.10234078167922701,"454":-0.2936600737308209,"455":0.30872705861981403,"456":0.11410504154758144,"457":0.3910524241805107,"458":0.07044773947618489,"459":0.02952059567188324,"460":-0.400703527088886,"461":-0.6891579233151507,"462":-0.2461892688298217,"463":-0.18220934356856033,"464":-0.048419820651727626,"465":-0.10497728397776616,"466":-0.18865164529449502,"467":-0.09885304194041315,"468":-0.0488631252852801,"469":-0.16303224535583374,"470":0.30734387260334134,"471":0.7123601869286413,"472":-0.1424211366658059,"473":-0.22706373963091772,"474":-0.6810052008376515,"475":-0.1792012122572218,"476":-0.2269396937116468,"477":0.31167915152352665,"478":0.03134891384846258,"479":-0.08371741085338794,"480":-0.08290817306858611,"481":0.2902006841188579,"482":0.00004304328706404982,"483":-0.03579166077967571,"484":0.39598676488195933,"485":-0.031798380480861095,"486":-0.4373510124285312,"487":-0.5918853852518685,"488":-0.2140654988785005,"489":-0.24433044264775589,"490":0.2068773825110133,"491":-0.0840274322633342,"492":-0.2848923953776242,"493":0.3751994558203635,"494":0.42262694926151106,"495":-0.14933179388974666,"496":0.21172962102028445,"497":0.25088435014534843,"498":0.06940331331596375,"499":0.3590321636634292,"500":-0.45286530599253016,"501":-0.18774421048275092,"502":0.2129905999141322,"503":-0.37894954283833726,"504":-0.19743230391817704,"505":0.05523608385722604,"506":0.12814760670627934,"507":0.15915539428347134,"508":-0.21877055946702642,"509":0.1809347529704082,"510":-0.25543815223621896,"511":0.07613186848730549,"512":0.15155935235236895,"513":-0.47713524269739316,"514":-0.3677699909950546,"515":-0.19140531933870014,"516":0.15775087528704276,"517":0.3598960664522393,"518":0.0003020892826703938,"519":0.5557749168442637}},{"sx":1,"sy":1,"depth":520,"w":{"0":-0.022411292745536042,"1":0.03067901447971979,"2":0.04117382776325091,"3":-0.015305649959100906,"4":0.005779906787836396,"5":-0.026370314489126634,"6":0.006033516784719128,"7":-0.020034022697262475,"8":-0.05686889522459541,"9":-0.03187996193553577,"10":-0.021274919297154932,"11":0.003940710945721119,"12":-0.06743971502274804,"13":-0.027905366479563716,"14":-0.028594924018546772,"15":0.0012945487437822417,"16":-0.03323793075138519,"17":0.036040205131928064,"18":0.02619924540434707,"19":-0.0032368347790794087,"20":-0.12582731019815785,"21":0.03797456985920116,"22":-0.022868473178260285,"23":-0.035530447717469674,"24":0.029397137667397745,"25":0.04476716398613406,"26":0.04450841004771107,"27":-0.06564279977185121,"28":-0.005375540793064165,"29":-0.01566573018227887,"30":-0.0008140885245063745,"31":-0.08949886655107332,"32":-0.074507048845834,"33":-0.02455734708854469,"34":0.005624967263366685,"35":-0.03813641905225093,"36":-0.006231680149246428,"37":-0.04031731048344881,"38":-0.010223903364661934,"39":0.011236311352162803,"40":-0.023285538080217983,"41":-0.06453371540603574,"42":0.005862385470259851,"43":-0.08133057650752522,"44":0.015933280817411133,"45":-0.09878005316341706,"46":-0.02022028937463509,"47":-0.01049439822276286,"48":0.08172831368907973,"49":-0.06501594699436777,"50":-0.0012981466966683702,"51":-0.0559194714261757,"52":-0.06993939007795326,"53":0.046162096480023014,"54":0.005874015587549389,"55":-0.018303829175808115,"56":-0.025964038965737502,"57":-0.05731808125428479,"58":-0.04361612220195797,"59":-0.0700591413437266,"60":-0.014343489825561748,"61":-0.018035147705107477,"62":-0.05832528909121722,"63":-0.10152702364878897,"64":0.02256842208898434,"65":0.04350990380388932,"66":-0.09424032182109496,"67":0.035501114264113745,"68":0.04325159296887263,"69":0.03857244768130247,"70":-0.025417144209814516,"71":-0.00517385421962121,"72":-0.08610204201854664,"73":-0.007567937416429268,"74":0.011598598076672444,"75":-0.0601670813790015,"76":-0.04566805992378257,"77":0.052886424612072054,"78":-0.024336572341825954,"79":-0.01072373584478246,"80":-0.05067876044043177,"81":0.021003857058793207,"82":-0.022024700487937927,"83":-0.0515387310768841,"84":-0.00255803539275577,"85":-0.02457814085149671,"86":-0.028796523563715738,"87":-0.049983833963938865,"88":0.008364867726301874,"89":-0.10675823565600011,"90":-0.017827468290859537,"91":0.006743879804800199,"92":0.0056267379014713235,"93":-0.10064471291359992,"94":-0.030738021895136382,"95":-0.035974726224818475,"96":-0.006205203285348671,"97":-0.0008816289681165659,"98":-0.02260866909572721,"99":-0.05726868482080337,"100":-0.023984253762401174,"101":-0.006440105448088569,"102":0.024715807035103822,"103":-0.03313809248732533,"104":-0.09085812292003123,"105":-0.04023575390092681,"106":0.02935124985471236,"107":-0.07357827872299119,"108":-0.035280874183465545,"109":-0.06939617417307999,"110":-0.061544807706886355,"111":0.06825108599446511,"112":0.021322051712163396,"113":-0.022215261624193353,"114":-0.013711658532984509,"115":-0.06307564156767463,"116":0.005435355677494838,"117":-0.060625763751591975,"118":0.0354002082190973,"119":0.03627349228727409,"120":-0.028627444204946707,"121":0.05104581112345012,"122":-0.026019511007322332,"123":-0.01881232106332498,"124":-0.08017588483804843,"125":-0.027997539848027,"126":-0.03627811161719309,"127":-0.05899070616876663,"128":-0.0731853079080164,"129":-0.029667924493425542,"130":0.03702060288485039,"131":-0.0719581221524015,"132":0.05548509242801077,"133":-0.043852932709277724,"134":-0.010746015320050924,"135":-0.03896719463118314,"136":-0.0547496971675527,"137":0.00037967227028558754,"138":-0.010611042202202605,"139":-0.10632003106815936,"140":-0.03744436854153123,"141":0.007549053801214918,"142":-0.0012024958844108291,"143":0.018673394956560754,"144":0.030830800565197596,"145":-0.06449620577649054,"146":-0.03748087413074561,"147":-0.004677368926294604,"148":-0.06585022656448158,"149":-0.06475263017334452,"150":-0.06875569004345873,"151":-0.07049952253391029,"152":0.03584445548354797,"153":-0.064910268517898,"154":-0.029531970181144826,"155":-0.0028071196415400414,"156":-0.08328487840016427,"157":0.014670897070078766,"158":-0.0009419967193549881,"159":0.059776667577514576,"160":-0.04608747925585956,"161":-0.06579229205918449,"162":0.032942280591022846,"163":0.02444388809399793,"164":0.003920435954714646,"165":-0.015746813579913962,"166":-0.030491949893149392,"167":-0.009607946805599215,"168":-0.1172347393004938,"169":-0.0008323548172542803,"170":-0.046951477333809874,"171":-0.007889302061655475,"172":-0.08725353511081249,"173":-0.07732691555434361,"174":-0.07123827686339013,"175":0.020660082195442363,"176":-0.034035558697902646,"177":-0.029353634718611653,"178":0.02571392062682435,"179":0.010322029633700512,"180":0.046079719337583896,"181":-0.03440507749022429,"182":0.059384931140846385,"183":-0.03318750007698422,"184":-0.034324574570289146,"185":0.05420165203773144,"186":0.007751721191611302,"187":-0.041138971037699694,"188":-0.0956639805075604,"189":-0.054575675894036856,"190":-0.00875322651306715,"191":0.0903265244312413,"192":-0.11353758016996872,"193":-0.022472709267789277,"194":-0.033890452007610636,"195":-0.02046063760365327,"196":-0.03382385598720755,"197":-0.0297044239483352,"198":-0.005772839703668756,"199":-0.03598768568685208,"200":-0.008790140091183889,"201":-0.0074165041227286545,"202":0.025145119073999436,"203":0.012988001587213926,"204":-0.026032895451523763,"205":-0.10249100467632777,"206":-0.009535099900038825,"207":-0.028335035080135518,"208":-0.07001499096310476,"209":-0.019112257983722944,"210":0.028757679077067364,"211":-0.021560083826862954,"212":-0.021985666999741877,"213":-0.007896642650918181,"214":-0.007799341555696278,"215":-0.035746065991601766,"216":-0.051218658082224866,"217":-0.0018239671525988501,"218":-0.06301432779788074,"219":-0.03895412067912538,"220":0.075736128840859,"221":-0.03096232773883794,"222":-0.043739367070166894,"223":-0.041485264546401494,"224":-0.011511363650778636,"225":-0.00857495938569584,"226":-0.030537260720467085,"227":-0.10421030619276056,"228":0.03522936474044362,"229":-0.052136699155632175,"230":-0.06178459353874065,"231":-0.019226224137517487,"232":-0.06373815406107845,"233":0.016581472001089545,"234":-0.04321478754741805,"235":-0.08354980211008213,"236":0.007017358894510612,"237":0.036655161167647846,"238":-0.018158557496586143,"239":-0.05325469369701002,"240":-0.035724087841432786,"241":-0.02532450782010987,"242":-0.06772116989290836,"243":-0.07253297742854614,"244":-0.00926289110245739,"245":0.04933643968967951,"246":0.0036859224705967815,"247":0.060986479274322616,"248":-0.038797263904010316,"249":-0.01746530250227474,"250":0.007601561681107724,"251":0.007961239209982774,"252":0.050112005212239435,"253":-0.050107743121555415,"254":-0.043184376146628276,"255":-0.00999018282602714,"256":-0.08194781136423458,"257":-0.008743659870065411,"258":0.05580155751640863,"259":0.03455228658859998,"260":0.02476842089177777,"261":-0.05309760960395233,"262":-0.044986376825307255,"263":-0.006175025950091848,"264":-0.022293861758645648,"265":-0.026415994802821537,"266":-0.059053283872528686,"267":0.037930527483516274,"268":-0.022036041938366727,"269":0.0484892344666739,"270":0.00447659841476162,"271":-0.025373105113921872,"272":-0.062250162605327966,"273":0.007142643239660856,"274":-0.02180325396522914,"275":-0.027392331599917042,"276":-0.07429517387754253,"277":0.05567513224966701,"278":-0.02176082009614137,"279":-0.08230020550989507,"280":-0.05600513598450481,"281":-0.03563988366171668,"282":-0.048502693876739104,"283":-0.00670508429456639,"284":-0.012983585263934368,"285":0.0440525444553972,"286":0.038300775155401826,"287":0.00912805189454124,"288":0.019656709962848875,"289":0.025598210436092925,"290":-0.038052224390565735,"291":0.020418496155869523,"292":-0.05145426682531786,"293":-0.006814798664230676,"294":-0.05791388875964838,"295":-0.1261904785110507,"296":0.028346591222984555,"297":-0.05262258087357667,"298":-0.02978505991445985,"299":-0.005092322596548542,"300":-0.11869168534808264,"301":-0.020732070458385526,"302":-0.10972672672379025,"303":-0.05545838631469485,"304":-0.1283624235945295,"305":-0.013680070527163987,"306":0.010038195080500212,"307":-0.032696278480102675,"308":0.03418667529248189,"309":-0.05128359456140769,"310":-0.04379086138781625,"311":-0.039825908389440896,"312":0.006007508874091678,"313":0.003778977010635282,"314":-0.061802252521509185,"315":-0.012186952301882442,"316":0.010778674715460967,"317":-0.03265024597594554,"318":-0.03640125278680725,"319":-0.019178156078660323,"320":0.0374021148937316,"321":-0.04966377614117114,"322":-0.045018336263240616,"323":0.10311042788300384,"324":-0.027098678493578266,"325":-0.04165997474476281,"326":-0.026833727083226077,"327":-0.013610131767498115,"328":0.014711042314544431,"329":-0.026743095066502624,"330":0.03719035632422345,"331":-0.035391405041624635,"332":0.03777561429631826,"333":-0.05560088486455025,"334":0.0036689887242011563,"335":0.017548134006129278,"336":-0.07314406941074117,"337":-0.00697259488793353,"338":0.01988092347936551,"339":-0.05788127857427743,"340":-0.04774853350444673,"341":-0.025964357568244095,"342":-0.08357835645420424,"343":0.003179373407343249,"344":0.005478593927274097,"345":-0.08986116837688964,"346":0.0017216255211573806,"347":-0.06961951630553685,"348":0.014566841760055701,"349":-0.022732917084631474,"350":-0.0413418971998659,"351":0.025134248832564984,"352":-0.06531899872631483,"353":-0.0869139193012233,"354":0.027427356267082845,"355":0.06652127291160119,"356":0.02452085870940565,"357":0.0125462151379724,"358":-0.00545326125190909,"359":-0.027428686769107452,"360":0.01620471514321499,"361":-0.05535074213649281,"362":-0.0451829865336796,"363":-0.08334149466710969,"364":-0.009776127954338567,"365":-0.04877184973833811,"366":-0.010939159579055925,"367":0.012400438134902127,"368":0.0542385518989333,"369":-0.06011627125483346,"370":-0.05356912799476974,"371":0.0189772672530211,"372":-0.08707981401335474,"373":-0.031171804324454547,"374":-0.07756474850405419,"375":0.02531287010578266,"376":-0.009332553565495741,"377":0.1109237986812326,"378":-0.021762478130256564,"379":0.04671009456242105,"380":-0.03754440932878381,"381":-0.002396978382734776,"382":-0.0460698207661194,"383":-0.038834992830737367,"384":0.012089862925560847,"385":-0.0025136499371270554,"386":-0.02379206949250387,"387":-0.0730642456858319,"388":-0.03457839703821348,"389":-0.030413521800598683,"390":-0.02667601866510479,"391":0.007469812963287724,"392":0.04746389149984153,"393":-0.0971317802951215,"394":-0.09427541858826767,"395":-0.03208957347943127,"396":0.016981001513966636,"397":-0.021546009254583717,"398":0.024106382494721988,"399":0.0007063979868364839,"400":-0.010683590752286169,"401":-0.03709018080672765,"402":-0.07594937061596746,"403":0.050228251088397326,"404":0.0908765427542008,"405":-0.05181301336366223,"406":-0.005117218675175246,"407":-0.002937915249586062,"408":-0.04711092652796237,"409":0.03461682512741416,"410":-0.02762598071604683,"411":0.015303745326198357,"412":-0.02934439419819725,"413":0.02289591323992454,"414":0.05901010717792507,"415":0.004296707281457558,"416":-0.010257963304907433,"417":-0.02089284052180798,"418":-0.03251650529639938,"419":-0.10158524335686102,"420":-0.020822490895321958,"421":-0.008350269698932992,"422":0.06741201359530478,"423":0.00018772180570634023,"424":-0.07925584442867807,"425":-0.0003865514167689057,"426":0.0529816476053648,"427":0.026923510362683246,"428":0.04188362209910392,"429":-0.08071433687418167,"430":-0.03348389670845974,"431":-0.01099456817502988,"432":-0.061546910503047704,"433":0.015797786316693447,"434":0.01921836679270347,"435":-0.010063889058143906,"436":-0.03633009796861895,"437":-0.05886782366305556,"438":0.023762897787730136,"439":-0.00014138962573834204,"440":0.019890192477866893,"441":-0.04801026724144494,"442":-0.004511286762743129,"443":-0.10927861839501907,"444":-0.11378790190615767,"445":-0.042151232701308064,"446":0.014697246383273724,"447":-0.05077234808173102,"448":-0.028695879263966585,"449":0.007791465665485453,"450":-0.022264749673294257,"451":0.026293073342511828,"452":-0.021929143198619917,"453":0.005068186246650429,"454":0.017336954112066767,"455":-0.00713618611875287,"456":-0.05040759069243911,"457":-0.018829227874664622,"458":0.017640508922635845,"459":-0.04460031091981767,"460":-0.046950289504519724,"461":-0.07371799006419467,"462":0.02964195724760998,"463":-0.0972152443979218,"464":-0.029383142209744844,"465":0.009070991805461935,"466":0.018260257159400075,"467":-0.037410020368460015,"468":-0.03168438973781863,"469":-0.027914173997624248,"470":0.015265433575329453,"471":-0.022485942583600798,"472":-0.10227733641517947,"473":-0.07224861786768236,"474":-0.028536729437367563,"475":-0.05222592732273457,"476":-0.05520849909448391,"477":-0.0401353848231481,"478":-0.03693227550603033,"479":-0.0070539253879380445,"480":0.06668877716662745,"481":0.026763407741308937,"482":-0.04472901980103152,"483":-0.004889184389482324,"484":-0.029426250269044343,"485":-0.08028547989327227,"486":-0.10444048856724063,"487":-0.045551640456111556,"488":-0.04216158821642285,"489":-0.05338159094727627,"490":-0.04316714284024718,"491":-0.03985965587493913,"492":-0.04442481705710378,"493":0.00871120607185672,"494":-0.014959019559637386,"495":-0.037922266080544026,"496":-0.051328127238467205,"497":-0.0013283663241951695,"498":-0.01812268422874972,"499":-0.05590294552326392,"500":-0.0798982084232509,"501":-0.08055490317296306,"502":-0.019228334199888716,"503":-0.09691976097216858,"504":0.049856539363125105,"505":-0.007612494148319429,"506":-0.0051975498472144315,"507":-0.027301994034785247,"508":-0.03744770906074687,"509":0.029125975841332096,"510":-0.042781182653646485,"511":-0.09809453024980769,"512":0.008934024625755273,"513":-0.05882810439392146,"514":0.02824197013105001,"515":-0.1393248654490663,"516":-0.03393137169535786,"517":-0.037869796659420175,"518":0.003263569959663932,"519":0.015517164951579444}},{"sx":1,"sy":1,"depth":520,"w":{"0":-0.05612680455611908,"1":-0.040070974615111866,"2":-0.042506237648743755,"3":-0.047633608022146175,"4":-0.05810496118358561,"5":-0.34537666236125153,"6":-0.21205996799055554,"7":0.1082048091321708,"8":-0.16250415838609117,"9":0.1635941123111195,"10":-0.645498273444711,"11":0.5688500881976826,"12":0.20969767680481122,"13":-0.0982579177607023,"14":-0.08687271791819072,"15":-0.07846931666516586,"16":-0.04270254235473158,"17":0.008335985611196594,"18":0.23816898941758838,"19":0.0609046750453451,"20":-0.1973834265396703,"21":-0.5938037747329651,"22":0.3857553117413553,"23":-0.32659543127989465,"24":0.6195785178637406,"25":-0.02860034713560959,"26":-0.004573886491333516,"27":-0.06187818446840234,"28":-0.051614380231030384,"29":-0.03139900831485322,"30":-0.15052603872129847,"31":0.17734347853561372,"32":0.02287592386350978,"33":-0.41071613585528843,"34":-0.3391573131229577,"35":0.01620574715163966,"36":-0.1875682120049176,"37":0.2799083676201987,"38":0.005414468112224242,"39":0.005052207856074752,"40":0.02688109652081965,"41":-0.034003923902943836,"42":-0.11657075008059363,"43":-0.00030834904007883605,"44":-0.05666554969878261,"45":-0.09503547542652555,"46":-0.2142709171456198,"47":-0.16714898292985175,"48":0.449010096644744,"49":0.017906886099881957,"50":0.18276079958977065,"51":0.04551965497296486,"52":0.028597702821972076,"53":-0.023961320718937144,"54":-0.03195938103951921,"55":-0.06366509614472328,"56":-0.0032247174016696418,"57":0.030917185179967936,"58":-0.31299167322461413,"59":-0.03951933209988452,"60":-0.33996729612021914,"61":0.24208540397417652,"62":0.04861715510247832,"63":0.02477293610780776,"64":0.038092328539545944,"65":-0.04827242125947127,"66":0.015894662997379138,"67":-0.08540344491698111,"68":-0.11923357469681592,"69":-0.09896346547393695,"70":-0.7544834156295342,"71":-0.5788418494278526,"72":-0.0958532646957969,"73":0.06149457905650114,"74":-0.33481376683978753,"75":0.10168687864171053,"76":0.28652160333320986,"77":0.3334622127467171,"78":-0.02733020341718371,"79":-0.05693539662521203,"80":-0.04672901530970433,"81":-0.0469221866833536,"82":-0.03289254068386114,"83":-0.3518670279448922,"84":-0.5029753253581235,"85":-0.23657752129496665,"86":0.13588917980759024,"87":-0.02342980103315249,"88":-0.11845226817192735,"89":-0.28724078879158327,"90":0.12096019318125308,"91":-0.12583587685803008,"92":0.020503435720726756,"93":0.055741111073395154,"94":-0.03045342491883382,"95":-0.04403055783658922,"96":-0.3822930858484325,"97":-0.3314646513807426,"98":-0.4728950541847457,"99":-0.16358102414970274,"100":-0.06374833529707226,"101":-0.3790312558934554,"102":0.10450253983502888,"103":0.03250862316683297,"104":-0.011246225292397109,"105":-0.061231159898353996,"106":-0.049319473284454164,"107":-0.035217891908416815,"108":-0.0643158392885337,"109":-0.4449823602761899,"110":-0.6527856139457234,"111":-0.4642726103800066,"112":-0.03802665067192802,"113":-0.5285248450182043,"114":-0.2029074856681683,"115":0.03813600599093179,"116":0.12119521012941639,"117":-0.04054111062590887,"118":0.04551057798185922,"119":0.005596839416167123,"120":-0.05305850461984052,"121":-0.022043839574559146,"122":-0.5517443482260406,"123":-0.25213871717763964,"124":-0.6478967142298185,"125":0.24455461675159584,"126":0.02802057977639982,"127":-0.1298252625739758,"128":-0.41497202291208596,"129":-0.09782933061782426,"130":-0.050095530683506154,"131":-0.06970836667673051,"132":-0.02258854734938762,"133":-0.06345684917268835,"134":-0.1289367004210566,"135":-0.31928103183343676,"136":-0.2987569309980171,"137":-0.729267397733853,"138":-0.07654588914418337,"139":-0.06622484615993518,"140":-0.29210996743095663,"141":0.3675745302780267,"142":-0.4121723147008613,"143":0.00740258575807653,"144":-0.02192104232570199,"145":-0.09179617054234125,"146":-0.0702471048488345,"147":-0.0803900703443074,"148":-1.1232762093961883,"149":-0.23343593537551477,"150":-0.08085296065361736,"151":-0.0328849484945576,"152":0.0013732569432932927,"153":-0.02220247631125206,"154":0.3326182332823638,"155":-0.5366670336035746,"156":-0.00781388623084437,"157":-0.04583283957393979,"158":0.01885363825168675,"159":-0.15885411323125714,"160":-0.12695170769285335,"161":-0.836369638459397,"162":-0.13387827447638562,"163":-0.21482702652909524,"164":-0.3108960744237918,"165":0.17966799192680857,"166":0.0622554172859005,"167":0.4945539604321415,"168":-0.6156114513932195,"169":-0.13910125068134957,"170":-0.02895325791879307,"171":-0.06949974321213317,"172":-0.02836251768433455,"173":-0.15460086242631518,"174":-0.38932781373009034,"175":-0.1345791508406568,"176":-0.23114506817042663,"177":-0.11042629164718955,"178":0.29497328075741464,"179":-0.23883021106155772,"180":0.03136722407401595,"181":-0.38706652528523905,"182":-0.06064653012365769,"183":-0.008143287945129358,"184":-0.02083215759564589,"185":-0.06124606968120327,"186":-0.1056902984832683,"187":-1.0894849969196339,"188":-0.30707729503629866,"189":-0.18631286980864997,"190":0.028056394118205066,"191":0.07715678674027224,"192":0.25867040185936974,"193":0.09846144514588964,"194":0.1632018961311223,"195":-0.1156437301952067,"196":-0.0516653249264263,"197":-0.06821943520366679,"198":-0.1361745017246909,"199":0.0008370862631639018,"200":-0.06764836891306031,"201":-0.5614249140515105,"202":-0.12956191833956077,"203":-0.03012753537032304,"204":0.2599862262224889,"205":0.224568474107628,"206":0.15602349834297294,"207":0.18498265636074107,"208":-0.06973515997430145,"209":-0.10781211067893386,"210":-0.04344054327255504,"211":-0.05882831178949924,"212":0.009505309796718634,"213":-0.2724978430725828,"214":-0.7903188570229627,"215":-0.128219570804255,"216":0.07885225952134334,"217":0.30784857053406406,"218":-0.08586918142800616,"219":0.15870090047752625,"220":-0.11743557592315199,"221":-0.11274375524063392,"222":-0.10718778375518973,"223":0.01961219143827691,"224":-0.11544283351042686,"225":-0.039078658916388835,"226":-0.28885692099608334,"227":-0.787432054269767,"228":0.11963761996740427,"229":-0.27739796978612563,"230":0.33992692761309873,"231":0.035079343238616785,"232":0.6522425661986886,"233":-0.19980610423480685,"234":-0.05122673205897359,"235":0.03617907984688506,"236":0.05538473750536294,"237":-0.006898757303699116,"238":-0.10392575925191118,"239":-0.03697355254255167,"240":-0.6260870461818749,"241":0.20732431610344224,"242":-0.19611383521624046,"243":0.5044711335619153,"244":-0.20012721895237406,"245":0.5886339476776603,"246":-0.5792974698188778,"247":-0.004231617299131608,"248":0.05541195074735631,"249":-0.01616976320518931,"250":-0.08322124598087,"251":-0.1349935641459594,"252":-0.1900811428108135,"253":-0.5975785773560505,"254":0.2801225228088124,"255":-0.18613510453388088,"256":-0.00795194912912514,"257":0.17520911837636888,"258":0.6670589840712989,"259":-0.5901215651416081,"260":-0.03009228062056077,"261":-0.1433745383535469,"262":-0.031088325666312637,"263":-0.04495196754269326,"264":-0.03450347050930077,"265":-0.05049599213566068,"266":-0.26871050851783257,"267":-0.12015675115173824,"268":0.2890595669246787,"269":0.35710949791226554,"270":0.5748756873302141,"271":0.9638792790731481,"272":-0.31262892157999694,"273":-0.05146418623889692,"274":-0.031071867413506146,"275":-0.0801986736576781,"276":-0.11303559592487561,"277":-0.08719872949052654,"278":0.40160859255478143,"279":-0.40533963070410484,"280":0.19375434341251976,"281":0.19078384649055918,"282":0.36037536662935066,"283":0.12670960806375464,"284":0.8483063426865031,"285":-0.43861704549692276,"286":0.031020362686845618,"287":-0.06390431597213113,"288":-0.03066856186832049,"289":-0.055883975727601704,"290":0.012012431379020312,"291":0.599953450129032,"292":-0.4384219488566248,"293":-0.5199882424703022,"294":0.10622411556460652,"295":0.19665781324531256,"296":0.41228575810805435,"297":0.4594283198773545,"298":-0.49449368169245705,"299":-0.018747786411981247,"300":-0.05249698291507409,"301":-0.014494977176365186,"302":-0.13753946440872977,"303":-0.009797205818836094,"304":0.7775014495307937,"305":-0.32187611091117374,"306":-0.16691736777123445,"307":-0.028684687329711533,"308":0.34245352020989983,"309":0.1518301699494116,"310":0.27180432951642636,"311":-0.11027774000845719,"312":-0.04084404886659324,"313":-0.04812563886207983,"314":0.0197308057851851,"315":-0.05804604909342108,"316":-0.006685223054720022,"317":0.6808734761319298,"318":-0.2601068767751861,"319":0.0680500192199374,"320":-0.5637067573734034,"321":0.10300641805175473,"322":-0.07675866740812869,"323":0.2458238979658408,"324":0.06989498397413822,"325":-0.027777443778374468,"326":-0.05138566912173933,"327":0.02300005754497508,"328":-0.051867935543907076,"329":-0.07768347746402453,"330":0.8216845874684712,"331":-0.48694664607653254,"332":-0.35070622894334585,"333":-0.7768726777035567,"334":0.16952756990266696,"335":-0.006086326925286421,"336":0.564672987909167,"337":0.31438523143904856,"338":-0.03595884743231774,"339":-0.06046514627630646,"340":-0.07102646891838926,"341":-0.06826245976998116,"342":-0.07520934857779635,"343":0.6415539075234071,"344":-0.40775533941634645,"345":0.0016705483325490478,"346":-0.3116579801418968,"347":0.028057526819706576,"348":-0.2727614479381492,"349":0.7821592373390082,"350":0.04352175301067977,"351":0.011804455099841977,"352":-0.05125784107919218,"353":-0.10330246687255737,"354":-0.041761069103136456,"355":-0.07486619420657135,"356":0.48784498166738216,"357":-0.25336924711449943,"358":-0.004158155183883879,"359":-0.6375378751029994,"360":-0.580590777843163,"361":-0.21586033442635627,"362":0.2811531329839288,"363":0.20554641319819997,"364":-0.056814055476770764,"365":-0.08588315171864444,"366":-0.08857279466517474,"367":-0.028414503750966765,"368":-0.07188520235620538,"369":0.5084255306382965,"370":-0.08162988137876605,"371":-0.15756273592336084,"372":-0.6011405375389597,"373":-0.030289902132930764,"374":-0.47971967376008423,"375":0.553005537519968,"376":-0.10768581544337996,"377":0.01802027237002618,"378":-0.08146045102210041,"379":-0.03743723771011023,"380":-0.044890888586235786,"381":-0.08897847958605742,"382":0.22263626957580357,"383":0.12488068250499307,"384":-0.2688800583596462,"385":-0.3922110451110664,"386":0.14801031391008426,"387":0.05384011830957694,"388":0.3477785357813348,"389":0.06265122688820295,"390":0.06276204157081902,"391":-0.03134395992274464,"392":-0.0805712196580663,"393":-0.14753499993951144,"394":-0.09459310398145022,"395":0.11406612410985754,"396":-0.03282391075115527,"397":-0.15406407355396565,"398":-0.39367909941414747,"399":0.265385454471682,"400":0.15523963405222435,"401":0.11700277474680504,"402":0.46654084417144587,"403":0.028445625131187507,"404":-0.042461552834489144,"405":0.015814771676691493,"406":-0.03414028169845303,"407":-0.03829206956477747,"408":0.18911368445128957,"409":-0.00005365270855066758,"410":-0.4159481421366728,"411":-0.00913812157567426,"412":0.06265428519387628,"413":-0.032051995386733,"414":0.10930001964212578,"415":0.4078084546302806,"416":0.0010223481367763467,"417":-0.02292147549276938,"418":0.0026743365963371474,"419":-0.0914673950642047,"420":0.006602973623712121,"421":0.1975757779958114,"422":-0.1126250723434209,"423":-0.38898557899665603,"424":-0.16470219336766184,"425":-0.2728255590045414,"426":0.16094519793142298,"427":0.11257210858600232,"428":0.35297499452013625,"429":-0.03429330491708165,"430":-0.020192854627762397,"431":0.002197273310379901,"432":0.03933983329065901,"433":0.0025851923694026895,"434":0.19976647900114175,"435":-0.04134573184331526,"436":-0.24688077920309376,"437":-0.19916617143326787,"438":-0.05547300572968169,"439":0.21998053403430223,"440":0.2205112359663532,"441":0.061001029501530794,"442":-0.0757353194133127,"443":-0.04752304202245362,"444":-0.02079219101317182,"445":-0.06108725490281461,"446":-0.0019184169239356383,"447":0.32858731258976254,"448":0.2096554100644288,"449":-0.09993910772346072,"450":-0.3224987453288492,"451":-0.1350356457431968,"452":0.10430173772712518,"453":0.23507970578262252,"454":0.06971528968447445,"455":-0.012086776675817961,"456":-0.12561099849747082,"457":-0.03121223156242153,"458":-0.011945037038202844,"459":0.006178391714547184,"460":-0.0979289327644303,"461":0.0785505476797882,"462":0.19264060373289607,"463":-0.2999607360152644,"464":0.40432583041573866,"465":-0.3186282185701936,"466":0.6030696943128517,"467":0.061365747078554925,"468":-0.0038977802534684537,"469":-0.0955924614491573,"470":-0.045446691773751435,"471":-0.0989130135194042,"472":-0.009217325878494036,"473":-0.6080981043225496,"474":0.11963053679052268,"475":0.3837093070241173,"476":0.33033388369065125,"477":0.22939035534889493,"478":0.06724525978400606,"479":0.4498196630221533,"480":-0.2849061923861891,"481":-0.0053756792444770015,"482":-0.07219947552507146,"483":-0.08134011253409079,"484":-0.15183364363458715,"485":0.0598104281565413,"486":-0.32045374009744726,"487":0.24403433022335294,"488":0.5531233125931969,"489":-0.1914003430811343,"490":0.30068883242591204,"491":-0.36078522719831846,"492":0.5428021931284363,"493":-0.20713752393099322,"494":-0.03833623241757425,"495":-0.07158099137086957,"496":-0.033622534955014084,"497":-0.07184698126349444,"498":-0.05068466392923547,"499":-0.3346154684728375,"500":-0.12286808610538463,"501":0.5256320271574286,"502":-0.5052463059022018,"503":0.3118666316018713,"504":-0.31776357847433817,"505":0.23747180532746054,"506":-0.46765245953560375,"507":-0.11999055899873243,"508":-0.051706071222931096,"509":-0.020483505098571757,"510":-0.07938988999211878,"511":-0.04605905216155044,"512":-0.03095953942047864,"513":-0.48304720222270386,"514":0.5261916207811426,"515":-0.010330564595800423,"516":0.5255120825599235,"517":0.2761016587906535,"518":0.6587688165666309,"519":-0.4349668970581043}},{"sx":1,"sy":1,"depth":520,"w":{"0":-0.004793087529800071,"1":-0.017791947839132665,"2":0.014096135403999328,"3":-0.011457679371756752,"4":0.0060742268790741835,"5":-0.011591050317106449,"6":-0.03787254063032676,"7":-0.022088172319929242,"8":-0.03484801569396324,"9":0.03287779537323354,"10":0.010673126751308638,"11":0.06683611618776414,"12":-0.027886636260335794,"13":0.05967204410491407,"14":0.06439267426081136,"15":0.09684668216127476,"16":0.06189030747513524,"17":0.005262488423253842,"18":0.03357930761417712,"19":-0.010409700199941006,"20":0.006272692545839031,"21":0.06929402158274307,"22":-0.007084375002911388,"23":0.0323551279986737,"24":-0.09483876808999896,"25":0.06898691801312805,"26":0.014659655760237368,"27":-0.06478510902585163,"28":0.047784968095945415,"29":-0.0005803295633257617,"30":0.07086848403929748,"31":0.018523137056020787,"32":0.06229917543505619,"33":0.04851887030415628,"34":0.03640171485058472,"35":-0.033842190338038695,"36":0.007774053861800751,"37":-0.007558140999740726,"38":-0.031933371351158195,"39":-0.028161668944012095,"40":0.025173851134989097,"41":0.05982478618026507,"42":-0.005939553794567153,"43":-0.022913752936281707,"44":0.07628104531987669,"45":0.0738490525670496,"46":-0.016494279435035286,"47":-0.020521676490704032,"48":-0.0005290115538859413,"49":0.046104007400808965,"50":0.0418985781350439,"51":0.050445000125056164,"52":-0.001843893453450397,"53":-0.015017638775283235,"54":0.008370716861344565,"55":0.05627427081246128,"56":0.05994487375288597,"57":0.019051735893790327,"58":0.08021125028249805,"59":0.1125922462139872,"60":0.011898016539494878,"61":0.06123975952086628,"62":-0.029847218150767657,"63":-0.0001522125882455612,"64":0.04704991672717129,"65":0.0019743252990597807,"66":0.0008339033144665549,"67":0.05342253960987967,"68":0.04621257670416281,"69":0.03892432754451588,"70":0.014549667645598126,"71":0.06277443854018618,"72":0.11489991096521819,"73":0.06923577267108944,"74":0.0418726739859448,"75":-0.0205335234430491,"76":-0.006986390726221623,"77":-0.038524247049824135,"78":0.0533560668097917,"79":-0.03659282069091364,"80":0.01816509498731483,"81":0.0368044643078828,"82":0.033861036339300314,"83":0.019059021589770846,"84":0.020938049119806495,"85":-0.021559721456159153,"86":0.06510391844790384,"87":0.07848094723720969,"88":0.030506739740532737,"89":-0.055577812549812644,"90":0.07455560181802719,"91":0.03668719574487362,"92":0.08423531519373081,"93":-0.0014950779472391103,"94":-0.03297765290179035,"95":0.02392438197552533,"96":0.047265244318610844,"97":-0.005020380692264138,"98":0.0070447558576564335,"99":0.04252351837539125,"100":0.0634975801119146,"101":0.04466336570456319,"102":0.004687349620155131,"103":0.051212756131674024,"104":-0.020215217996126647,"105":0.03998605189049379,"106":0.025470998167265717,"107":0.014151637463299078,"108":0.019080133409605137,"109":0.061953751414130724,"110":0.11503923143135499,"111":-0.021145611263902984,"112":-0.03481251554103989,"113":0.11549304362709065,"114":0.024904857590253928,"115":-0.007505261966589179,"116":0.02860028078932833,"117":0.07713362551612486,"118":-0.02644660173158483,"119":-0.018729937090887654,"120":-0.012829793085480844,"121":-0.059629735640921874,"122":0.02758683196710967,"123":0.019305772611417277,"124":0.04762518829490906,"125":-0.034271501918560016,"126":0.029350946222298165,"127":0.05958093843628601,"128":0.007652724209042923,"129":-0.001672415688206549,"130":-0.020304845275607747,"131":0.024757302756130552,"132":-0.045975513771765716,"133":-0.031189571653424956,"134":0.08484127479999105,"135":0.10263097498539991,"136":-0.014538189673540577,"137":-0.058546926183150785,"138":-0.01768210400335589,"139":0.03562909470750507,"140":-0.05456076393822119,"141":0.05200762814073434,"142":0.06145975958237792,"143":0.0035331160095521583,"144":-0.046827348283929975,"145":0.023323768623692422,"146":-0.014658964046703957,"147":0.0005186694354016514,"148":0.0392682793095842,"149":-0.017453405706023783,"150":0.02097918900271201,"151":0.06056438348643246,"152":0.024946381867393168,"153":0.03609923707267575,"154":0.020451005606351724,"155":-0.0642299330091377,"156":-0.013948080032417019,"157":0.006603214906609267,"158":0.0020081317456590838,"159":-0.01159202446489752,"160":0.09346137352939314,"161":-0.045588262287645634,"162":0.018513830812263172,"163":0.012741337009804997,"164":0.007737812220672481,"165":-0.028019458201984843,"166":-0.013953228307539053,"167":-0.0014116399677497336,"168":0.06250015817325631,"169":-0.002287972939619108,"170":0.041036281269110866,"171":0.04560258333452449,"172":-0.013509981431362289,"173":-0.007992546453540398,"174":-0.0081537724203252,"175":-0.026337402969934687,"176":-0.027709051630728072,"177":0.018629027652806194,"178":0.020972656630568912,"179":0.03227624099354046,"180":0.003009905239576856,"181":0.10362962597121791,"182":0.02588750608986371,"183":-0.044757369954300415,"184":-0.006362671261108789,"185":0.029754189864837292,"186":0.008145593829992262,"187":0.006898776475777039,"188":-0.0005821415838104597,"189":0.03674642784899589,"190":0.04600806302452695,"191":-0.019142442139285062,"192":0.0809479323085576,"193":-0.05440692833055357,"194":0.0959986641853042,"195":0.06925153858259758,"196":-0.016743416606224085,"197":-0.026244556017347955,"198":0.035710683709592725,"199":-0.005534475440249302,"200":0.08795119712603494,"201":0.04640858627254287,"202":0.018010677908073393,"203":-0.023672929176816165,"204":-0.003991666819672215,"205":0.0057527536986036265,"206":0.01349770507573214,"207":0.04471785911258526,"208":0.023493797693611408,"209":0.06616364264884658,"210":0.028822975023518264,"211":-0.03897635650379855,"212":0.08807877474821176,"213":0.11094479409205546,"214":0.07655626191104356,"215":0.049436562814346344,"216":0.07500773884208177,"217":-0.020015107655674363,"218":0.06117519288968985,"219":-0.03884798506716156,"220":-0.019317310263134147,"221":-0.0367893876873043,"222":0.061311724774693495,"223":0.01547247162581919,"224":0.07143330905009784,"225":0.03730964727745544,"226":-0.020903100897150674,"227":-0.007168529046512022,"228":0.017273656683947907,"229":-0.005185399121466935,"230":0.00023866168923087337,"231":-0.04845951236657315,"232":0.0003185786402380824,"233":0.030727788920642016,"234":0.027424950591390825,"235":0.07799116571520257,"236":0.039207940943637276,"237":-0.0023238041104319926,"238":0.1214667447825323,"239":0.024258958344772954,"240":0.046345235471731375,"241":-0.030612636728032425,"242":-0.024318121912036986,"243":0.011316869113255901,"244":0.03271634537638673,"245":-0.009112592922546042,"246":-0.03478672980826206,"247":0.013726123749287132,"248":-0.040158964711326434,"249":0.005952516535786152,"250":0.05091791385787701,"251":-0.027375134503413945,"252":0.028048701226084993,"253":0.06408295314735353,"254":0.09534869687148706,"255":-0.02996756568832788,"256":-0.009593386829446424,"257":0.030119477484368135,"258":0.010231134888698725,"259":0.14902363488065062,"260":-0.012471465377865497,"261":-0.0504947540519431,"262":0.11534365359650589,"263":0.03287428291613769,"264":-0.019463317897572812,"265":-0.03751740894620198,"266":0.1488846866824835,"267":0.019611157672892416,"268":0.08861827141448819,"269":0.011397687850390045,"270":-0.0038610816737939843,"271":0.04561959078961461,"272":0.07144379453491646,"273":-0.019608336970249957,"274":-0.010207800531890463,"275":0.05249209896954226,"276":0.04347325995667519,"277":-0.00887495091565463,"278":0.01762025111468274,"279":0.015419897585536278,"280":0.06269677218011886,"281":-0.030242726247877227,"282":0.00656329809310706,"283":-0.0075483302066931485,"284":0.0842886146075917,"285":0.013589134504213571,"286":0.07624453435995564,"287":-0.013340130680605059,"288":0.16200581793041885,"289":0.012584659353458592,"290":0.05887777608620493,"291":0.05397450854218139,"292":0.10679406823523029,"293":-0.020670300365855713,"294":0.005040519643367173,"295":0.08811637250162359,"296":0.06938468249480734,"297":0.07711586027367949,"298":-0.030662211014447112,"299":0.07215086632932965,"300":0.0011602131483457979,"301":0.012481224579676906,"302":0.04842979277905103,"303":0.001501712084495222,"304":0.05430960943239138,"305":0.024199981071003216,"306":0.0057779356661514245,"307":0.04489448202305428,"308":0.11100213203814892,"309":-0.0016931127702161657,"310":0.02498638821584704,"311":0.07371477227232488,"312":0.034028825619412284,"313":0.12642945200559105,"314":0.00481086263388152,"315":0.09824455879649567,"316":0.05410188626505644,"317":0.05575061822674441,"318":0.045850156949737715,"319":-0.01866200895915589,"320":-0.006724048765797025,"321":0.007380590177703109,"322":-0.02795421787239062,"323":0.0294228613815634,"324":0.0391136087545818,"325":0.03159629002760043,"326":-0.0067097071750831854,"327":-0.014379302411645914,"328":0.05404501482914851,"329":0.03700299521620929,"330":0.10069021185208676,"331":0.09084297641988401,"332":0.03952185535680858,"333":0.04788645310973058,"334":0.009650580979605876,"335":0.05603553416446965,"336":0.021422496054461386,"337":0.016927497272994363,"338":-0.02752988170280689,"339":0.010451444786452942,"340":0.043034563372892076,"341":0.034062881666420484,"342":0.04091808242152372,"343":0.004916662923092477,"344":-0.041200270493861824,"345":0.010559873481690739,"346":0.04461311388071022,"347":-0.042530757718800126,"348":0.055691177745601325,"349":0.05910465741713512,"350":0.04768843829061513,"351":-0.00990743618438218,"352":0.059472288302782304,"353":0.058851288382349036,"354":0.015449015554026316,"355":-0.02765647069310891,"356":0.040510212129248845,"357":0.0378786766103596,"358":0.08550762119585203,"359":-0.06395452479604058,"360":0.08399472880028018,"361":0.0821234165541437,"362":0.06141473005264739,"363":0.008909495874418041,"364":0.042412092285228374,"365":0.10887549145645896,"366":0.00045860434153728504,"367":0.040443995966609636,"368":0.05256366562742275,"369":0.03693394038094789,"370":0.01888802786941149,"371":-0.01950303744991785,"372":0.014719318277983742,"373":0.030759660497439632,"374":0.05622807263719648,"375":0.03491986974801769,"376":-0.020273929185573195,"377":-0.0009853124968839818,"378":-0.022802335522074328,"379":0.010270037614457925,"380":0.062059134035566746,"381":0.04593399750453174,"382":0.03949660521442417,"383":-0.027345686626083696,"384":-0.011943815787455382,"385":0.028434330169320267,"386":0.0034020848603563397,"387":-0.007172615248130738,"388":-0.020364371482774268,"389":-0.013340296019119704,"390":0.03037999703243083,"391":0.06665967165652113,"392":0.009697430445044513,"393":-0.00923177255243965,"394":0.006814462531476991,"395":0.03030614855377426,"396":0.00008452646968910697,"397":0.03845610550994566,"398":-0.008808654746487869,"399":0.051980900402779875,"400":0.0503995929235763,"401":-0.026607915003074505,"402":0.034592523640479114,"403":0.037972918610207226,"404":0.019185400594577063,"405":0.03360207367956987,"406":0.009919230972472829,"407":0.023021424314513574,"408":-0.06938858646647553,"409":-0.0416657167058598,"410":-0.024228792188280338,"411":-0.053835995960395754,"412":0.053061730210846265,"413":0.04101510432556307,"414":0.008757869847242538,"415":0.03877731454150024,"416":0.005055845117808567,"417":0.005559064543747263,"418":-0.0372835367827446,"419":0.03999181625573258,"420":0.04149070735818189,"421":0.03400014710692355,"422":-0.050593230308906695,"423":-0.014748066418557438,"424":0.06666447552969745,"425":0.0316742100305257,"426":0.0015089454396787494,"427":-0.001197010040396008,"428":-0.11302253515327285,"429":-0.005648515086976109,"430":0.008181906156713527,"431":0.029877032819572782,"432":-0.03379270631008318,"433":0.034467226744310596,"434":0.03562178302470791,"435":-0.007829949961407514,"436":0.016351916077092063,"437":0.080850575833488,"438":0.0012470591853800774,"439":0.035278962577177754,"440":0.028102932827499157,"441":-0.014706834074540294,"442":0.025427878673026053,"443":-0.009018854427455772,"444":-0.006197157203384419,"445":0.020036292096156337,"446":0.026130168456013313,"447":0.06041992045759651,"448":0.08593019671475116,"449":0.00003068256470901202,"450":0.09580400214263066,"451":0.017942788035891416,"452":-0.014922680634543387,"453":0.08055256145111643,"454":-0.017667128278394954,"455":0.010701826318898546,"456":-0.0010777284613189414,"457":0.051843868112887055,"458":-0.08958679817356814,"459":0.014856481042097879,"460":0.08766483766989687,"461":0.052695271783400555,"462":0.0664675060573257,"463":0.07471703163731729,"464":-0.002750954059125465,"465":0.009947017998941082,"466":0.11312072069185738,"467":0.058713499887325674,"468":0.09500145091093143,"469":0.008972624913917364,"470":0.012691009239846653,"471":0.07157394177492717,"472":0.023006136578716287,"473":0.0568579191078354,"474":0.04408137971348142,"475":0.03588111254705232,"476":0.0018477180520496002,"477":0.0022076896412068802,"478":-0.05100173234216823,"479":-0.01595066548837359,"480":0.04574640834955501,"481":-0.00671111433489452,"482":-0.10968580567880472,"483":0.03416407668772202,"484":0.010238454449884178,"485":-0.012629409511812975,"486":0.09492145822529285,"487":0.01130863184083938,"488":0.12065021617807185,"489":-0.031147001041671365,"490":-0.07588132542419215,"491":0.05797234011925788,"492":-0.001274616589204201,"493":0.041459418934944085,"494":0.037320942442909406,"495":0.006174568339446917,"496":-0.015380969607430116,"497":0.05516045713742045,"498":0.052903318199898824,"499":0.038820450959247674,"500":0.038346702128368666,"501":0.08857253956823548,"502":0.04152095700149878,"503":-0.01161234552851807,"504":-0.03161572856977248,"505":-0.03501893284229675,"506":0.027004257804826563,"507":-0.0117538049015288,"508":-0.006994505158858705,"509":-0.01542042655725405,"510":0.002910952617375338,"511":0.061789751703926865,"512":0.00821933618825324,"513":0.07287128315438486,"514":0.10876263617304123,"515":0.011193740537060315,"516":0.04151373105691371,"517":0.04043859645336209,"518":0.07214560660231935,"519":-0.07410939894148388}},{"sx":1,"sy":1,"depth":520,"w":{"0":-0.2887543260899926,"1":-0.11902181805079196,"2":0.47903280619961186,"3":-0.14664841334664608,"4":-0.22747627511419652,"5":-0.10543787906823662,"6":-0.1467189579391709,"7":-0.06547627948372102,"8":0.43754910482601694,"9":0.15938471050628517,"10":0.034159195938531735,"11":-0.3191763397639675,"12":-0.028292537310593644,"13":0.11022470345016709,"14":-0.3343224671865283,"15":0.04396352465743184,"16":0.1118867097393175,"17":-0.09941428518221986,"18":-0.3511949479780905,"19":-0.27836855493562324,"20":-0.28457526958186014,"21":0.2561773536836227,"22":0.20393968929573802,"23":0.2747403958025843,"24":0.024378525269980775,"25":0.08506382277577908,"26":-0.011343241511092783,"27":0.31002485196514,"28":-0.1491532940860446,"29":-0.1749679855646206,"30":-0.05766732081603847,"31":-0.025454020800567433,"32":0.307107879306684,"33":0.07909373666044386,"34":-0.2859482546014247,"35":0.1749566191752151,"36":0.4451848517736009,"37":-0.23358523381240362,"38":-0.02306505889313281,"39":-0.13581713907212542,"40":0.2526855528852221,"41":0.2908182623150986,"42":0.09989064563547642,"43":-0.16236828167933184,"44":0.015866191492226667,"45":0.23172556493120333,"46":0.07131277797079957,"47":0.30276759530853203,"48":0.31352792333167456,"49":0.27334369607622466,"50":0.25819312316944554,"51":-0.005185606895318015,"52":-0.0728225847912922,"53":0.06606500117943573,"54":0.007567250776944329,"55":-0.16129711820406847,"56":0.21292985770209022,"57":-0.08434122764061082,"58":0.1427883119531966,"59":-0.3513656139846057,"60":0.573289495037707,"61":0.10972755106447077,"62":0.3424829433591217,"63":0.12683969213716556,"64":-0.04363137408308914,"65":0.06031903382917099,"66":0.1302909601009089,"67":-0.23807522190298624,"68":-0.066478987457188,"69":-0.09710646560852974,"70":-0.23169159935793124,"71":0.01181245120734734,"72":0.4336192147488915,"73":0.25393274819017786,"74":0.28555002382680905,"75":0.3449383555852289,"76":0.3996852960714009,"77":-0.002416130506604065,"78":0.19016573641892962,"79":0.21447868277809812,"80":-0.14230080417900529,"81":-0.09454198243571167,"82":0.028431516277669155,"83":0.15898722237546017,"84":0.17738782243028853,"85":0.027381547310753943,"86":-0.1690969821431885,"87":0.07881065812131641,"88":-0.01398591792658027,"89":0.3521286807114676,"90":0.007888893207168133,"91":0.31026007085033225,"92":0.12086919794167988,"93":0.009579420965930415,"94":-0.0768815517024689,"95":-0.5490794138383998,"96":-0.13137003511080736,"97":0.039376928025958845,"98":0.12830104349992244,"99":0.16907807428187488,"100":0.004362734970092715,"101":0.08747421186813614,"102":0.361286546696671,"103":0.0036037173020498914,"104":0.45383493635112077,"105":-0.002305427792291339,"106":-0.29192980236232136,"107":0.04800637063267789,"108":-0.29993794759378734,"109":0.307158517541884,"110":-0.03153217290109931,"111":-0.04551230935946399,"112":-0.3517249236384343,"113":0.20264392235178957,"114":-0.014417943440770709,"115":0.35287329114070437,"116":0.026521616401579528,"117":0.5119428906963162,"118":-0.07290278028449866,"119":-0.07310538847814384,"120":0.2382228338980957,"121":-0.22469939086601237,"122":-0.09001215786086388,"123":0.13533802607608814,"124":0.009729797731409877,"125":-0.11392154888081711,"126":-0.14076503177417904,"127":0.014996871534250517,"128":-0.08702246335128494,"129":0.04838340192838811,"130":0.20852393482768447,"131":-0.1670421826000718,"132":-0.216232315630425,"133":-0.0988689595891094,"134":-0.27080995219370035,"135":-0.24979894828290988,"136":-0.2511252960892997,"137":0.043215351296720314,"138":0.04885867917879542,"139":0.34447706901067887,"140":0.02694260770574832,"141":-0.002294076173803722,"142":-0.026366588308285036,"143":0.5382364271675637,"144":0.2720348933392817,"145":-0.18485682408418985,"146":-0.3325785160543484,"147":0.10255416253957934,"148":-0.21888943022273077,"149":0.08507993058115403,"150":0.3232371145476402,"151":-0.1121744734119344,"152":0.39323024476720086,"153":-0.10015763175735307,"154":-0.024964716150746663,"155":0.07677764724521237,"156":0.21432298799835195,"157":-0.06468503089977573,"158":-0.029616513593667224,"159":-0.22780094046088498,"160":0.10190393347469066,"161":-0.11073352488563627,"162":-0.39680307330411635,"163":-0.03331929921408407,"164":0.004735975208724026,"165":0.18736158105838047,"166":0.10738235732132362,"167":-0.12341100772573217,"168":-0.044637037177748744,"169":0.36233033167296597,"170":-0.12511538933390476,"171":-0.13031283014249234,"172":-0.17264202324240935,"173":0.000583415281019844,"174":-0.1448648388725624,"175":-0.31560822856514725,"176":-0.1731255591494649,"177":0.3063581877261018,"178":0.3098209344547252,"179":-0.04100485661634002,"180":0.17490000963545835,"181":0.00987210784053439,"182":0.25243102033948633,"183":-0.2940186440277399,"184":-0.21914320574792479,"185":-0.19348065322863808,"186":-0.04008602095290003,"187":-0.3942947584459951,"188":0.2849710668167703,"189":-0.06224209736021696,"190":0.05415099589753579,"191":0.15695020380260077,"192":0.08878404299796583,"193":0.09849901886463644,"194":0.018647542463928697,"195":0.1939489977694675,"196":-0.5665722628534359,"197":0.2000357759099141,"198":-0.01831887115413516,"199":-0.08341417649438415,"200":0.04518346530020906,"201":-0.17240409727243156,"202":0.14062314585950247,"203":-0.23515601396766553,"204":-0.1318625741407578,"205":0.15209996643075718,"206":0.05471567412498431,"207":-0.03480792620794584,"208":0.07751337378905253,"209":-0.02029255924478628,"210":0.24409705381228977,"211":0.09161355363153098,"212":0.01442966574029628,"213":-0.04178436970257638,"214":-0.07756924390822208,"215":-0.16637029109000714,"216":-0.02059560383586118,"217":-0.041133287550376305,"218":0.25450772641640645,"219":-0.027040326107602774,"220":-0.017597194545316344,"221":-0.01567794881199836,"222":0.06089231731503321,"223":0.05530607690064687,"224":-0.014924334144100482,"225":-0.0997422670837698,"226":-0.0892215854746852,"227":0.45665641746887536,"228":-0.1154775588435892,"229":-0.26728883474000015,"230":0.10024584605681205,"231":0.20301377561239206,"232":-0.11186879542105037,"233":-0.009130711520760225,"234":0.1204668560934082,"235":0.11277056643213569,"236":0.3068778486292908,"237":0.18948243659018393,"238":-0.04208742583902634,"239":-0.062212785681464274,"240":0.4639359999357673,"241":0.1731572005057721,"242":0.12813438492225387,"243":0.12077003015269278,"244":0.18801784639842745,"245":-0.056640664387352144,"246":-0.05728576634437477,"247":0.009680194904560515,"248":0.01753871335769961,"249":0.15885354899295176,"250":0.33214361330947745,"251":-0.3026778902247353,"252":-0.3313150067403938,"253":-0.19654456549297067,"254":0.08541840062116134,"255":-0.027628654619097266,"256":0.4353211912983109,"257":0.10506157884842314,"258":-0.07646219446301902,"259":0.14239838297598148,"260":0.03912110027980874,"261":0.17160155434212201,"262":0.4854880858369921,"263":0.25775652209783667,"264":-0.2577085631744459,"265":-0.12253957245999504,"266":-0.024533107802588033,"267":0.19555064210325404,"268":0.09010279411992603,"269":0.39524700592027157,"270":0.3531888221752727,"271":0.38904373792583263,"272":0.057827660110722406,"273":0.0024850167652981864,"274":-0.10307394193718879,"275":0.04081423564651588,"276":-0.16681657368301603,"277":-0.1575136958347669,"278":-0.26540800905014983,"279":-0.2853160103738467,"280":0.2269059393681418,"281":-0.15414690591849162,"282":0.7732066457217712,"283":0.32061138541821876,"284":0.45484564897094126,"285":-0.007755856364592887,"286":0.0342923731404821,"287":-0.03012775058635926,"288":0.015486893633304388,"289":0.5052688323922266,"290":-0.06926192951861054,"291":-0.679341778462651,"292":-0.6355353390013515,"293":-0.04294696651970409,"294":-0.06817388942416594,"295":0.7023877105710287,"296":0.10432107712294023,"297":-0.1437825418057276,"298":0.05234154745309986,"299":0.21643355515212576,"300":0.1284834147313061,"301":-0.09305804160395606,"302":0.330303094254815,"303":0.3512280014381146,"304":-0.7643437726581904,"305":-1.0049775326405264,"306":0.22804342346454434,"307":0.18267166671332113,"308":0.2893228754648732,"309":0.24186286554825046,"310":0.01776939546796548,"311":0.01004429482520577,"312":0.28287533856595193,"313":0.2857853550550459,"314":0.06393111906612485,"315":-0.05496583115523067,"316":-0.1678570321726249,"317":-1.2389477100896498,"318":-0.7588233044716846,"319":0.35707644660588805,"320":0.019921266811971577,"321":0.13701353410570735,"322":0.03211563666798594,"323":-0.1947710031742652,"324":0.11590734155235634,"325":0.03320955313130069,"326":0.30670409354896727,"327":0.04711839258855469,"328":0.07001860636061308,"329":-0.1307185261922042,"330":-1.4940054402924396,"331":-0.5253930779606996,"332":0.2520305212945551,"333":0.16841957683281714,"334":0.06214142067941627,"335":0.16944354234272402,"336":-0.36268240542874813,"337":-0.005885513621480005,"338":-0.04204420263241729,"339":0.0364512863349084,"340":0.13485786343463582,"341":-0.2231357232845141,"342":0.16015723201709467,"343":-1.333860756142812,"344":-0.8025793578833476,"345":0.3997313677660291,"346":-0.0052817900545080836,"347":0.1454842712706427,"348":-0.1330826052247565,"349":0.31394843210198337,"350":-0.03236142367782764,"351":-0.23474930335185612,"352":-0.028258766607074427,"353":-0.10856580765304423,"354":0.3131647953849987,"355":0.08078515855698883,"356":-1.290326886700401,"357":0.6796780007045733,"358":0.13513099193818096,"359":0.20592891671231875,"360":0.21325480565233376,"361":0.14153441481668763,"362":0.2106937491103969,"363":0.009410108127263941,"364":0.04857306669299018,"365":-0.08845364054822262,"366":0.4284333809218492,"367":0.14366943232268486,"368":0.16251856106630663,"369":-2.1611588170549765,"370":1.0627199806135104,"371":0.498429261422744,"372":-0.05982685153814986,"373":0.16477487653739642,"374":0.16554740552974379,"375":0.11371598927611917,"376":0.0964338573876396,"377":0.020040322649272815,"378":0.048887366917089566,"379":0.5038850021772115,"380":0.15329174774791796,"381":0.5703797638963188,"382":-2.412344697722168,"383":1.182433652485891,"384":0.5819336691224084,"385":0.02138438591600701,"386":-0.22919669538203824,"387":-0.13484338799611228,"388":-0.10426705792991611,"389":-0.011496046027202505,"390":-0.18491312120121364,"391":0.06637761642058801,"392":0.42166192190412294,"393":-0.20539443995743814,"394":0.38774058072863504,"395":-1.5795331302816937,"396":-0.1669751534650051,"397":0.5693484799058398,"398":0.5328216568224196,"399":-0.13441739709105116,"400":0.21328816315403484,"401":-0.45785894980211783,"402":0.056218404232117714,"403":-0.21783019093273187,"404":-0.011139097460523339,"405":0.35208358708764154,"406":-0.3391809357137586,"407":0.0666838849721003,"408":-1.692788456079032,"409":-0.15491856509977234,"410":0.18732229260002553,"411":0.26880776046634647,"412":-0.3265764276991626,"413":0.00018591640199112805,"414":-0.38323337302385496,"415":-0.058821150453619415,"416":-0.014651806192358948,"417":0.19553230845648692,"418":0.21482601976321344,"419":-0.056576842542489174,"420":0.006551559063218918,"421":-1.8806554962936037,"422":-0.10304856020026341,"423":0.29532679628783837,"424":-0.4202798558989877,"425":0.0027030451601427656,"426":0.166379809636958,"427":-0.4034439468407741,"428":-0.00679380236092888,"429":0.1315156028062319,"430":0.6578972922513084,"431":0.2500902464183161,"432":0.13199670100658442,"433":-0.10821709956736368,"434":-1.7921609600233148,"435":-0.15878579815405278,"436":0.20709367945941193,"437":-0.329966135565356,"438":0.09691597666380994,"439":0.14137005467419786,"440":0.04773768483610048,"441":-0.0496342130946314,"442":0.31390511703419544,"443":-0.019375824734772593,"444":0.09380301766945034,"445":0.06000389325825924,"446":0.09046574844756619,"447":-0.9475390544668774,"448":1.5889932080788889,"449":0.5693677647096717,"450":-0.04010632151088785,"451":-0.27818859826305503,"452":0.3560735958401512,"453":0.32236289201603613,"454":0.10610710299176158,"455":0.02100545649723101,"456":0.8021844972243657,"457":0.03141052408280009,"458":-0.06627794554593516,"459":0.38524695750469135,"460":-0.9567889573498105,"461":1.571902021198564,"462":0.7451053090726337,"463":0.27669098314923113,"464":-0.3391343715827542,"465":0.2462215228081361,"466":0.07662530376410745,"467":0.05357700989000352,"468":-0.18883249565746227,"469":0.36415872981063746,"470":-0.2052124261803042,"471":-0.06690083558941147,"472":-0.03213635349520405,"473":-0.44647681371940245,"474":1.4212641597429598,"475":0.296283790128257,"476":0.4388935127509076,"477":-0.08343890893784812,"478":0.15356761983637082,"479":0.4473417031431433,"480":-0.01672155006504746,"481":0.2608640812746274,"482":0.1646559964361315,"483":-0.03788357330274777,"484":-0.0703231476638456,"485":-0.12532751416851415,"486":0.2850825750111802,"487":-0.19238239250147712,"488":0.0747775900974724,"489":0.11958010935329177,"490":0.14936803899378048,"491":-0.28686629995121254,"492":0.4000989053122825,"493":0.032921664592156466,"494":0.4782576717364954,"495":0.40096512835362697,"496":-0.2665985966767171,"497":0.14874234959950638,"498":-0.0230851040799734,"499":-0.20681379233374952,"500":-0.001976360454773948,"501":0.08323447189714975,"502":0.32023884069101505,"503":-0.22596660625816167,"504":-0.32923481004454397,"505":0.2686990874967011,"506":-0.035366360164407695,"507":0.23126864627647195,"508":0.016754765306633272,"509":-0.1855612134199447,"510":-0.11254201773702269,"511":0.3688319323950804,"512":-0.443339653544447,"513":-0.22390584903366573,"514":-0.10309359368084454,"515":0.2726303234959471,"516":-0.3352933605357147,"517":-0.11449666600630551,"518":0.457852103701306,"519":0.0047140003704604395}},{"sx":1,"sy":1,"depth":520,"w":{"0":0.2502912986916444,"1":-0.5857111114594781,"2":0.15125995472181325,"3":0.27514374613879344,"4":0.027275560399968066,"5":0.09003138680082128,"6":0.013631045874881705,"7":-0.16943550501791702,"8":-0.5348656354387262,"9":-0.25382818398417395,"10":0.16800366710718145,"11":0.06592969144123481,"12":0.37398280996726796,"13":-0.4678498182361104,"14":-0.33827891493465356,"15":-0.33421504178086114,"16":0.08026049285213283,"17":-0.7383097442637924,"18":-0.3782682195495029,"19":0.2602753557718602,"20":0.12948715350016468,"21":-0.5114977449750556,"22":-0.3291270977188633,"23":-0.12399051327528403,"24":-0.2330933845110451,"25":-0.13312531393835197,"26":-0.007650350444941274,"27":-0.40753062216738783,"28":0.006794010131512592,"29":0.08729960349332018,"30":-0.08450705310110819,"31":0.06344498990339191,"32":0.2721903667059569,"33":-0.1918755524262436,"34":-0.03789090092977134,"35":-0.379129149167951,"36":-0.31410798471070245,"37":-0.4038041474058241,"38":-0.2697887659930224,"39":-0.22350893207535819,"40":-0.436466883127855,"41":-0.3056756158736946,"42":0.14554000162588865,"43":0.09852410228362062,"44":-0.0593500332277057,"45":-0.24065402775907382,"46":0.05350131432547299,"47":-0.5216813167547142,"48":-0.10729384006984002,"49":-0.06723825134291672,"50":-0.06200611479591209,"51":0.2530240318676619,"52":-0.5158785804542795,"53":-0.6562328041558516,"54":-0.3120031623151567,"55":-0.03530543591581839,"56":0.09146612799161664,"57":0.017589277791945003,"58":-0.2681122598305754,"59":0.35003502208675125,"60":-0.4222380380882778,"61":0.47143842707580824,"62":0.23219703899615404,"63":0.25422858472810633,"64":0.1350728410820679,"65":-0.005429954139249169,"66":-0.3172287326598678,"67":0.34350435665383566,"68":0.24896468187610019,"69":0.2609009929504636,"70":-0.6531943351911664,"71":0.15724815128698727,"72":-0.11844863545815669,"73":-0.4969544051004101,"74":0.10231577565044953,"75":-0.09085157786975427,"76":-0.1975383831325477,"77":0.3379790097490767,"78":0.2878379553642349,"79":-0.3157972820513568,"80":0.0098614524122355,"81":0.08363184155734031,"82":-0.38502787247438347,"83":-0.2777729155388446,"84":-0.22313560358929305,"85":-0.35037015456881365,"86":-0.3751742246358867,"87":0.23617581261741408,"88":-0.024058432258345856,"89":0.018241151878529826,"90":0.09503609824034126,"91":0.1776287723485301,"92":-0.18296109200005756,"93":0.10810057849783719,"94":-0.26962811651288465,"95":0.03863673022831678,"96":-0.2565306340942635,"97":0.1991043568666008,"98":-0.45329965008087086,"99":-0.1542527824071712,"100":0.27758123172833465,"101":0.14808929955625252,"102":-0.3255924756139189,"103":0.14186432908283042,"104":0.10932155618877465,"105":-0.35860057287914243,"106":-0.291890537268884,"107":-0.14756978847584717,"108":0.02151558090297768,"109":-0.22989141806520855,"110":-0.1112299912487881,"111":-0.28098729883798157,"112":-0.08434964662925541,"113":0.19751593644989834,"114":-0.10812921052007336,"115":-0.31417031945608453,"116":0.4921540155770215,"117":0.23425461583677015,"118":-0.38229673052629803,"119":-0.10724173487754152,"120":-0.03960095887568657,"121":-0.19738573305320498,"122":-0.13715525420951546,"123":-0.09145887125921194,"124":-0.33549278978900654,"125":0.09280940139757816,"126":0.006121514276165556,"127":-0.5561059018657315,"128":0.17165038710532524,"129":0.20567158765052582,"130":-0.06770140479218625,"131":-0.1520033516715291,"132":-0.36967565408664804,"133":-0.05053020946541526,"134":-0.13909362921193444,"135":-0.14444186278764842,"136":-0.3826692300848077,"137":-0.09568914687563003,"138":0.09707384385754117,"139":0.18996311602042315,"140":0.43569692225415607,"141":0.247333280849632,"142":0.4906229203853918,"143":0.009697469244568017,"144":-0.26137393921802254,"145":0.30438081463986355,"146":0.061127118895490905,"147":0.05472571964844134,"148":-0.475639974401354,"149":-0.7817729713962491,"150":-0.35600736314174153,"151":-0.4598076908284444,"152":0.10567309984820687,"153":0.1316299003271539,"154":-0.023481418656250103,"155":0.24197913975602212,"156":-0.17036880586533723,"157":0.043608901620213567,"158":0.7083165329663225,"159":0.21935052717412948,"160":-0.22707613898426385,"161":-0.01375213912561937,"162":-0.7159582414677013,"163":-0.27626697712196047,"164":-0.25285023653967886,"165":-0.12529296093687425,"166":0.11351055878911268,"167":-0.04238564176259002,"168":0.03155119549673778,"169":0.11003081608901896,"170":0.4125905094482487,"171":-0.06259627497761756,"172":0.024504747066724623,"173":-0.29964474820555775,"174":-0.06359723128734014,"175":-0.876380464829333,"176":-0.17983868887041868,"177":-0.300031549900906,"178":-0.07856126431800656,"179":0.000877437939323957,"180":-0.23768899585557657,"181":0.05782201480880118,"182":0.1675607078533386,"183":0.7422729946476806,"184":0.13255548237990386,"185":-0.11985565533632642,"186":-0.2484362957924725,"187":-0.5943274415138563,"188":-0.7343211803123311,"189":-0.7152169042774926,"190":0.044737382730980664,"191":0.13060910395795244,"192":-0.1782088250499843,"193":-0.32567557752649995,"194":0.014618638300770516,"195":0.4007769950415771,"196":0.27489252630948113,"197":0.1576652358721536,"198":-0.14189817729091167,"199":0.036537500577213854,"200":0.289773237135691,"201":-0.9056868121684221,"202":0.055984760581255705,"203":-0.42171597159987656,"204":-0.0396700675121052,"205":0.015062051944191588,"206":-0.2552017284778725,"207":-0.48347513009771215,"208":0.47232261650186774,"209":0.44133534346123293,"210":0.385266559824219,"211":-0.023208857272619236,"212":-0.051745603400626686,"213":-0.03421703066437549,"214":-0.33670668559728734,"215":-0.5103506006256735,"216":-0.31383309668228243,"217":0.28205912503489283,"218":-0.10810137653350643,"219":0.08500506371644809,"220":0.16669825081122103,"221":0.3932761789676562,"222":0.6816519690157916,"223":-0.03787021279280991,"224":-0.08973140718109016,"225":-0.0008769392466025458,"226":-0.0169091730583702,"227":-0.75822016522707,"228":-0.38835270990491905,"229":0.025287049967004305,"230":0.10950634656838679,"231":0.11962598368711504,"232":-0.0323330956007497,"233":0.21022844182744196,"234":-0.1658923111033164,"235":0.44201313433027634,"236":0.042617268558940075,"237":0.1588159777963647,"238":-0.09436145068453944,"239":-0.6088476796016017,"240":-1.081592537329704,"241":-0.6020450218715504,"242":0.015567774017941044,"243":-0.0427354235310126,"244":0.126751948275578,"245":-0.1925618894436681,"246":0.524568008110521,"247":-0.5119985133597734,"248":0.7504560415556115,"249":-0.20457944195443156,"250":-0.18958872539104693,"251":-0.020978503525725493,"252":-0.09886527040038522,"253":-1.11989941151126,"254":-0.5124682267882997,"255":-0.05109330304773617,"256":-0.019884253222797806,"257":-0.07111920155585602,"258":-0.4245200353601284,"259":0.7855860245057207,"260":-0.4324366206306547,"261":0.5927312473070502,"262":-0.4089370703812841,"263":-0.0346483235789199,"264":0.05350362574550047,"265":-0.019845055862807014,"266":-1.3614581948013162,"267":-0.5737317645220201,"268":0.2366989343096852,"269":-0.032277843057958944,"270":0.2713066204632189,"271":0.22689529409621836,"272":0.4408755837130261,"273":-0.21027353744079627,"274":0.7212118237421148,"275":-0.3989058392008172,"276":0.18882473296331223,"277":-0.007788072723764371,"278":0.03877570351078423,"279":-1.3562813893430432,"280":-0.44572709222576423,"281":0.33254239631703314,"282":0.06269163028923229,"283":0.6013050391167675,"284":0.26467043282286834,"285":0.36160104232423007,"286":0.09632974550917782,"287":0.28747819424801735,"288":-0.20712674868594144,"289":0.04197354233294885,"290":0.19185455980212957,"291":-0.13036076153063703,"292":-1.1191047187734535,"293":-0.48905269218774683,"294":0.2986547547870792,"295":-0.005463668973954652,"296":0.5120938054643921,"297":0.4951441115850491,"298":0.3241401342384533,"299":0.024883029673378423,"300":0.18968090623136052,"301":-0.19679351440905274,"302":0.09642779923662205,"303":-0.0662927593746362,"304":0.6808449771576353,"305":-2.6885908279169604,"306":-0.1586941653121709,"307":-0.03992274844132841,"308":0.3433334111580322,"309":0.12180179345580505,"310":0.365809717748078,"311":0.218314388880324,"312":0.037874845401613455,"313":-0.0008504798770651165,"314":-0.09360452268515608,"315":0.06405501029910386,"316":0.10224014292693323,"317":0.6790375979430535,"318":-1.95981714767168,"319":-0.2237415151545099,"320":-0.06644429237931783,"321":0.8651565194251124,"322":-0.1042975897170384,"323":-0.08467394288488102,"324":0.09928468368744296,"325":-0.34325837164594136,"326":0.2841342219048892,"327":0.3592954322372568,"328":-0.3861554673933886,"329":0.33303743480130404,"330":0.5187783858863176,"331":-2.6118239265498984,"332":-0.3190335384788798,"333":0.28457791720312675,"334":0.6023806512407691,"335":-0.15198884997599427,"336":0.6288738726119579,"337":0.19688368360030487,"338":-0.25329350594986366,"339":0.1993297981500357,"340":0.1424840417882871,"341":0.03655996541238439,"342":0.49347245223412556,"343":1.298624581623666,"344":-2.0171337853541256,"345":-0.4192057914204322,"346":-0.0314410439732685,"347":0.13000249367994612,"348":-0.21265546137604485,"349":0.24081462512490784,"350":0.22065833369984375,"351":-0.2034563659149396,"352":-0.11035516470630992,"353":-0.10180511803188252,"354":-0.0701198782669018,"355":0.15226370266672873,"356":0.21177547321700907,"357":0.6855019192920438,"358":-0.06425331158335357,"359":0.3543102334365529,"360":0.09841599822629227,"361":-0.05511259172868648,"362":0.6796806101601681,"363":0.17640661485683723,"364":-0.1794192135263314,"365":-0.051293222423675754,"366":-0.031058987651163602,"367":0.023942672699891226,"368":-0.1673619182823079,"369":0.7134684187519584,"370":0.9685805786222416,"371":-0.16481364897804263,"372":0.6295404443994627,"373":0.2936610123598503,"374":-0.08934224751719207,"375":0.17741226179925576,"376":0.5528403272968959,"377":0.08004901411150195,"378":-0.8404808789905645,"379":-0.2720009712976833,"380":-0.3453635649478291,"381":0.021956513046931116,"382":1.3437508998254097,"383":1.0347344780144283,"384":0.08529253659084625,"385":0.3401573957002877,"386":0.0006745045297375809,"387":-0.14494360127784836,"388":0.23779157872568457,"389":0.5505775619013118,"390":0.10487915673658113,"391":-0.20689771461156117,"392":0.24906431873630924,"393":-0.03234761818070037,"394":0.09937013646084783,"395":1.0869952485646495,"396":-0.17153460725787198,"397":0.39405712675978044,"398":-0.07048768188965622,"399":0.06698559151734056,"400":-0.11523928668585094,"401":0.256643898540118,"402":0.6821361095422326,"403":0.2403223152922311,"404":0.05053772677160365,"405":0.5837732924018257,"406":-0.04988105399683419,"407":-0.06097912024006501,"408":0.8233271006738547,"409":-0.11895034744683812,"410":0.036775860676137806,"411":0.3361137163140492,"412":0.19467821989348486,"413":0.09636261642199387,"414":0.274875085696977,"415":1.011025920430186,"416":-0.03593024803205191,"417":0.04736183822955415,"418":0.21609213014562617,"419":-0.05488896894696527,"420":0.16107932836630942,"421":0.7416605729899933,"422":-0.15086970281685932,"423":0.41510655604965013,"424":0.2978445325308066,"425":-0.3566736795129503,"426":-0.1383478192228397,"427":0.11790080327061203,"428":0.1556416488415936,"429":0.42568246290296946,"430":-0.16452531111157712,"431":0.2141935550391521,"432":0.6419805493408448,"433":0.5091113253719732,"434":1.5351998672861649,"435":-0.221396235370521,"436":0.4155882744030018,"437":0.004529158343752049,"438":-0.1977341871904175,"439":0.07356912596748845,"440":0.4157320521742014,"441":0.2058083202419026,"442":-0.005740354674747294,"443":-0.12322665106596994,"444":0.8622970604364116,"445":-0.01831608365283002,"446":0.6478609518794907,"447":1.2277140795627832,"448":1.1498815382681875,"449":0.6936568357018993,"450":0.3867679632183573,"451":0.05082863808799654,"452":-0.11212931195370553,"453":0.06342535100993404,"454":0.2877776881394214,"455":-0.21897536991859895,"456":0.17528060727393788,"457":0.5368570510207821,"458":0.07768831799529773,"459":0.4476140829709339,"460":0.8517203430552769,"461":1.1797363743480649,"462":0.9008730651415541,"463":0.3370938598701098,"464":-0.13515796684563208,"465":-0.04585265805653885,"466":-0.06349105467939026,"467":0.5437484224291594,"468":0.31988524498217313,"469":0.025197721587460014,"470":0.3219046976518077,"471":0.0022383577592108707,"472":0.14920252782443014,"473":0.7078592506326152,"474":1.1150080994663862,"475":0.5800910519523576,"476":0.1175504102590587,"477":-0.7298302350090741,"478":0.20343768452478075,"479":0.09643517479321985,"480":0.23834308619818587,"481":-0.16839953018987017,"482":0.18617646462062928,"483":0.22578522930672326,"484":-0.28937226561247636,"485":0.19105818304950617,"486":0.2648371197579145,"487":-0.385964517439294,"488":0.5417485444304323,"489":0.11053505179117395,"490":-0.2985053522307205,"491":0.40095730091815623,"492":-0.4413858179249795,"493":0.23013434214187822,"494":0.07478710960233963,"495":-0.26863112236530357,"496":0.0923920511368968,"497":-0.09111583395677564,"498":-0.1952478329667701,"499":0.8596033904623287,"500":-0.6451511450691746,"501":0.44460359640685304,"502":0.21386724684333344,"503":-0.3810150658578966,"504":-0.13671053626290305,"505":-0.2746163217938229,"506":0.1458100658450044,"507":-0.07122793128376499,"508":0.19008645213302147,"509":-0.025845358479805968,"510":0.22138439777469407,"511":0.16496206594530444,"512":0.6974186142660175,"513":-0.5030223321107212,"514":0.19297180425736793,"515":-0.26443022665540356,"516":0.09108073580159723,"517":-0.10622510487214615,"518":-0.11665495529458657,"519":0.15426262972317725}},{"sx":1,"sy":1,"depth":520,"w":{"0":0.3774612510993804,"1":0.09020334106842959,"2":0.006345143440442928,"3":0.18205402784301167,"4":-0.03347506059004197,"5":0.17629472022675416,"6":0.19972969403060606,"7":-0.7491655797270586,"8":-0.23132190220939353,"9":0.03948472196350892,"10":-0.122211545106919,"11":0.26210983374005276,"12":-0.18251730670859884,"13":0.14862152128827857,"14":0.22916881250146665,"15":0.27784532029238296,"16":0.37898072262455057,"17":0.30271726662147896,"18":-0.04268459436486332,"19":0.17368889874944962,"20":-0.5292580367595194,"21":-0.03278383578779455,"22":-0.015881275867390587,"23":-0.14099406517271199,"24":0.08903868110757261,"25":-0.2599302142715714,"26":0.08634448782315211,"27":0.14318279987606036,"28":0.15264069741466643,"29":0.2994791691720174,"30":0.3944299385011002,"31":0.031401822115334786,"32":0.1236320820658492,"33":-0.397021146957217,"34":-0.07621245813491752,"35":0.05083072547663927,"36":0.2786275781418734,"37":-0.13912757208600282,"38":-0.052776172158850256,"39":0.1322158583230024,"40":0.4512156077036341,"41":-0.20289509531109667,"42":-0.028353754283817614,"43":0.23729217955223114,"44":0.3330393787918126,"45":0.5574573685074173,"46":-0.32548637976343053,"47":-0.25261905005781243,"48":0.3541072548901901,"49":0.1196893699495269,"50":0.1149625896153064,"51":0.04512639687737874,"52":0.08972863233908791,"53":0.12568490443675562,"54":0.2069561586771585,"55":0.156105681952068,"56":0.3123004393822347,"57":0.2596819969919892,"58":0.2764510414609211,"59":-0.3641838043549427,"60":-0.07463612404441454,"61":-0.1350490794468693,"62":-0.251625004078475,"63":0.09482458694251812,"64":0.057426651215385094,"65":0.1584784322558019,"66":-0.1029413113415438,"67":0.20914164539058488,"68":0.07930435028370231,"69":0.2021192822104549,"70":0.14700794959103075,"71":0.2817704365027117,"72":-0.28518978515958,"73":-0.16053682297036967,"74":-0.30206922977530215,"75":-0.13572302453639754,"76":-0.0002491918555683368,"77":-0.1078391141235616,"78":0.3308484877670304,"79":0.09399747140662654,"80":0.11077086312028184,"81":-0.041530907139810634,"82":-0.056674984491975666,"83":0.25527655485822864,"84":0.1764750499833656,"85":0.01154330719399179,"86":-0.07401410843381762,"87":-0.20373154310580358,"88":-0.36051439504348776,"89":-0.1622604976409875,"90":-0.2612748841556474,"91":0.12016279422034191,"92":0.12930319954284356,"93":0.16460067208804283,"94":-0.06879820823809113,"95":-0.015499426430969259,"96":-0.02842169471766323,"97":0.36281217106911173,"98":0.17021856201762967,"99":0.2992466890634557,"100":-0.08147873096108829,"101":-0.39686906444340414,"102":-0.08355455246160089,"103":-0.17975466953180272,"104":-0.001755310442252284,"105":0.30175437359155755,"106":-0.11692616758195319,"107":0.14112895068027348,"108":-0.07934630927892335,"109":0.014299655819405642,"110":0.2445686099024158,"111":0.0805226528346443,"112":0.2492163216914092,"113":0.31003372637783927,"114":-0.44288686972917346,"115":0.28855314700861107,"116":-0.1969104627068137,"117":-0.10221434401554783,"118":0.13522475206291926,"119":0.07032865621693186,"120":-0.055093809453968356,"121":-0.1773124329579117,"122":0.3624391109338424,"123":0.39792632293581864,"124":0.0037150248829578027,"125":0.3862352042562102,"126":0.32321013553923056,"127":-0.36845952885889416,"128":0.32091476637269,"129":-0.11191750612215845,"130":0.1227077374728463,"131":-0.06881331932084177,"132":0.051454182418842205,"133":-0.22094576130654123,"134":0.08016947540013092,"135":-0.02963405076202828,"136":0.4419236981263837,"137":0.23747441272033382,"138":0.3514467355777401,"139":0.1628118858415603,"140":-0.5791030194513879,"141":0.18322273344478143,"142":-0.1761193895259475,"143":0.060274388587289174,"144":-0.15277305861202495,"145":-0.35018169529237647,"146":-0.3804039053171304,"147":-0.16299856134038157,"148":0.14946376297936015,"149":0.089370638501771,"150":0.22137406941723015,"151":0.17124074963595318,"152":0.20695659058390375,"153":-0.3082387484070744,"154":-0.05067527294954097,"155":-0.2958505763167751,"156":0.039935161888340495,"157":-0.2949835574611719,"158":-0.05699968851782781,"159":-0.18848301867122977,"160":0.10176797157751574,"161":0.25964273420106065,"162":-0.0052094774819661785,"163":0.3028789231563835,"164":-0.1835803039702725,"165":0.11767430063840591,"166":-0.05371360669052122,"167":-0.31625277950733993,"168":-0.2818128818234102,"169":0.11178922536224115,"170":-0.17708509950510623,"171":0.029428851337005266,"172":-0.15495577767120108,"173":-0.09956581310886171,"174":0.2827911851101414,"175":-0.01451876932986027,"176":0.5787706224594414,"177":-0.07052474937438315,"178":-0.022493979048015013,"179":0.4198579660216573,"180":-0.11059373698920269,"181":-0.24239321824452126,"182":-0.07065295581258402,"183":-0.06365371304412869,"184":0.020906559044686714,"185":-0.06687970983638626,"186":-0.17298709976465343,"187":0.4572290491961936,"188":0.09343624961324516,"189":0.4678941915442092,"190":0.15671436250643095,"191":0.12024732617040272,"192":0.0931510989980171,"193":-0.28868906938038397,"194":-0.4346167243235832,"195":-0.1173574564141185,"196":0.011692027025674461,"197":0.08166457086801894,"198":0.27546555417134866,"199":-0.32703118636874495,"200":0.5560773973337373,"201":-0.0630465941042656,"202":0.24663897421068204,"203":0.49125318893591813,"204":0.030352313094694976,"205":0.007558977559435367,"206":-0.172310061830824,"207":-0.5458129755465274,"208":-0.15606533142695342,"209":-0.0816993978108238,"210":-0.05993018528231559,"211":0.22032327543555147,"212":-0.45215954795317354,"213":0.4323522507835504,"214":0.19687803940440474,"215":0.1849809605867394,"216":0.6511144069097053,"217":-0.14841340228653038,"218":0.024237908450483365,"219":-0.19013359157918608,"220":-0.4483075947438621,"221":-0.128830692698819,"222":-0.08852725144671607,"223":-0.19619549309082057,"224":0.1984415147509962,"225":-0.20046954756779284,"226":0.542381416142947,"227":0.2075919267800628,"228":-0.04063729386405524,"229":0.4009027968043398,"230":0.09741877820341265,"231":-0.16259926108902997,"232":-0.11122128038316557,"233":-0.33121362169428636,"234":-0.17219293494162988,"235":-0.41108228798582375,"236":-0.009025294544165893,"237":0.06794258614132868,"238":-0.1096633476350931,"239":0.8297339371867579,"240":0.1888844011409913,"241":0.048706110273674726,"242":-0.14550028737140935,"243":0.07611704653683221,"244":0.2433570394755209,"245":-0.17584760057433854,"246":-0.1407285998211746,"247":-0.1991620191370357,"248":-0.22464833214303462,"249":-0.028076916488078873,"250":-0.19505834515346315,"251":-0.019773920677348622,"252":0.5428896206042468,"253":0.3591537295122381,"254":-0.34746653767535746,"255":-0.19849143912653516,"256":-0.020022505953002517,"257":0.35202238325017143,"258":-0.3300932493488652,"259":0.026244679505805203,"260":-0.16146333639133648,"261":-0.26784311388664217,"262":0.13235507949590006,"263":-0.003725861360497267,"264":0.1813779224817089,"265":0.6121667117861107,"266":-0.06640692990738507,"267":0.2552843404598727,"268":-0.11513175283572198,"269":-0.06430257226997169,"270":0.3448609644426929,"271":-0.3160228191211068,"272":-0.08171254582216332,"273":-0.15616687350181574,"274":-0.39432616806414705,"275":0.10613432954344015,"276":0.1771786664078508,"277":0.32129432483492365,"278":0.7003837716362507,"279":0.0006139272712430517,"280":0.5678572327576392,"281":0.20293818867046765,"282":-0.051549174299697395,"283":0.11172426646832502,"284":-0.5418512749001898,"285":-0.22908070764936234,"286":-0.228018248270583,"287":-0.19356535197108848,"288":-0.0847071804940812,"289":0.2606842203469443,"290":0.1280973884973086,"291":0.4698007901391919,"292":-0.23234320171156145,"293":0.22602207772341293,"294":-0.0896145988470192,"295":-0.2804143504178129,"296":-0.1562568092465658,"297":-0.06318520703784865,"298":-0.3260362310983272,"299":0.0783533105233726,"300":-0.22878532355398334,"301":0.04515901097515075,"302":0.34875506919758276,"303":0.312206289905329,"304":0.10682386193208085,"305":0.45751262962239164,"306":0.09483284171956705,"307":-0.04119618092771449,"308":0.006269244761099595,"309":0.021919136102662353,"310":-0.1286446166887998,"311":-0.37059905822837913,"312":0.04751689265273994,"313":-0.19642172902319172,"314":0.037492018326531804,"315":0.12141227819224731,"316":0.23735398149894493,"317":0.1411880997455032,"318":0.5378274886071799,"319":0.14480404036321134,"320":0.08504825723107702,"321":0.1249421272707733,"322":0.014350874836544675,"323":-0.25271203983324236,"324":-0.44045269458551684,"325":0.0675812688644854,"326":-0.257181589179668,"327":0.018178102018813324,"328":0.1994822069165902,"329":0.004935827382011252,"330":0.3329323882330395,"331":0.4684768607924035,"332":-0.016781523470496065,"333":0.07463033375745184,"334":0.27637683460904583,"335":0.14948026674890458,"336":-0.12190066609804892,"337":-0.4761797665341313,"338":0.1916965353855001,"339":0.02135760847875935,"340":0.09768790419526589,"341":0.022848049060211248,"342":0.09349306745633852,"343":0.2625469789875825,"344":0.6214086838607716,"345":0.14310308997106022,"346":0.6366400446077313,"347":0.481611377847664,"348":-0.13325468162599555,"349":0.02044586943885986,"350":-0.09559248149984619,"351":0.0331496143886348,"352":-0.09359059215212528,"353":-0.024582244459980432,"354":0.030868631699526982,"355":0.20714134399752418,"356":0.74303225346364,"357":-0.1284031398888651,"358":0.359003451886533,"359":0.38439012808560985,"360":0.23662540140918967,"361":-0.11845289003991352,"362":0.16690875663573854,"363":0.059897003973118604,"364":0.066777687845715,"365":-0.0692318882280287,"366":0.12751675035515536,"367":0.08813236553476364,"368":0.0012410187002442473,"369":0.8925577195328409,"370":-0.4671322902686557,"371":0.31627879206675846,"372":-0.06488358014481933,"373":0.08204976659947581,"374":0.2969503892059205,"375":0.1346470033374214,"376":-0.07609241849010584,"377":0.25787179859504616,"378":-0.010057515917730055,"379":0.18168654347213375,"380":0.07557343670884784,"381":-0.06821883204911725,"382":0.5552737356555227,"383":-0.41344715219142275,"384":0.2584397417681928,"385":0.17778297476168964,"386":-0.03721866921692012,"387":0.32142090969303716,"388":-0.13155507544481704,"389":0.1119805135123944,"390":0.15636731560634937,"391":-0.1822843648360115,"392":-0.021988699021581782,"393":0.49906731743998,"394":-0.19882728768737493,"395":0.6522357891350802,"396":0.0721088302328785,"397":0.15572427127878644,"398":-0.20998814744661795,"399":-0.21989458608481122,"400":0.3872410826407255,"401":-0.3404693516588643,"402":0.004554324921402736,"403":0.009244471183891996,"404":-0.2906772850520899,"405":-0.21339288967728726,"406":0.41503424641535286,"407":-0.1517771394389277,"408":0.3209511324832261,"409":-0.0040994411800401006,"410":0.11131625329063297,"411":0.13059534725991354,"412":-0.16667170304723755,"413":0.21046399841879554,"414":-0.3868274281263205,"415":0.0007926819338260556,"416":-0.06217800750117697,"417":-0.1886913455464501,"418":-0.24529037745109034,"419":0.2466565614928677,"420":0.0900273910407266,"421":0.2231956048595487,"422":-0.024204707652178345,"423":-0.09465971310848023,"424":0.2818180644066742,"425":0.1405611197152476,"426":0.23517533261936147,"427":-0.37846725520703756,"428":0.12157072476497642,"429":-0.2157883703559785,"430":-0.22466627622660382,"431":-0.18826282995730212,"432":-0.09149588384659443,"433":0.10753017427985428,"434":0.2218826071074324,"435":0.03643944437145678,"436":-0.10479712384426831,"437":0.07957442849789417,"438":0.06653835001235535,"439":0.05802651882520447,"440":-0.04551542602460521,"441":-0.09446059509421591,"442":-0.19330526837258896,"443":-0.3534593030124169,"444":-0.1443134436130612,"445":-0.1159645508061993,"446":0.11860138448249866,"447":0.02980044639170981,"448":-0.4872853403072436,"449":-0.13374104227769576,"450":0.06865682052025811,"451":-0.12056519905124473,"452":0.14053308498712463,"453":-0.24497401020293044,"454":0.13951295071649722,"455":-0.024351952028410742,"456":-0.1635684689369936,"457":0.06629200041918155,"458":-0.19981889815651277,"459":0.015939538187287106,"460":-0.014566411088171808,"461":-0.5515401395308386,"462":-0.06781976394616845,"463":-0.10831522113283587,"464":0.004708226587343516,"465":0.14304737265562623,"466":-0.5734004561645065,"467":0.04964841620395086,"468":0.001127474060778321,"469":-0.34814483310121785,"470":0.21034964405777393,"471":-0.10880790617283823,"472":0.1855929494323527,"473":-0.2795629599400586,"474":-0.49873656516001297,"475":-0.16910459145708892,"476":-0.09897991797510726,"477":0.07248525403108974,"478":-0.41755562578619093,"479":-0.40518362837113336,"480":0.025304209477472573,"481":-0.13848006370539864,"482":-0.23230400265498424,"483":-0.15733066851248598,"484":-0.026891555117654026,"485":0.0935513439716197,"486":-0.2047325316876164,"487":-0.36950242978527453,"488":-0.6071761035198691,"489":0.07934659820961475,"490":-0.15895129425486124,"491":-0.19468461176328958,"492":-0.49345663407872437,"493":-0.019103280694891787,"494":-0.1031163248291378,"495":-0.22495765464718642,"496":-0.235419747778768,"497":-0.22422178506844404,"498":0.06508228866634919,"499":-0.35796761634364327,"500":-0.7555379821241612,"501":-0.5088185199429807,"502":-0.12792852260812232,"503":0.13137127065775117,"504":0.17232975788840993,"505":-0.1458137054365546,"506":-0.19753022144992866,"507":-0.01925746837869476,"508":-0.11234616853514842,"509":-0.520347811457727,"510":-0.49587061244856695,"511":-0.10953865336811833,"512":-0.27454752513276937,"513":-0.7059818846853099,"514":-0.88248104351664,"515":-0.21023596687895887,"516":0.0734496486031562,