//<![CDATA[

// a few things don't have var in front of them - they update already existing variables the game needs
lanesSide = 6;
patchesAhead = 30;
patchesBehind = 10;
trainIterations = 130000;

// the number of other autonomous vehicles controlled by your network
otherAgents = 10; // max of 10

var num_inputs = (lanesSide * 2 + 1) * (patchesAhead + patchesBehind);
var num_actions = 5;
var temporal_window = 0;
var network_size = num_inputs * temporal_window + num_actions * temporal_window + num_inputs;

var layer_defs = [];
    layer_defs.push({
    type: 'input',
    out_sx: 1,
    out_sy: 1,
    out_depth: network_size
});
layer_defs.push({
    type: 'fc',
    num_neurons: 32,
    activation: 'tanh'
});
layer_defs.push({
    type: 'fc',
    num_neurons: 16,
    activation: 'tanh'
});
layer_defs.push({
    type: 'fc',
    num_neurons: 16,
    activation: 'tanh'
});
layer_defs.push({
    type: 'fc',
    num_neurons: 32,
    activation: 'tanh'
});
layer_defs.push({
    type: 'regression',
    num_neurons: num_actions
});

var tdtrainer_options = {
    learning_rate: 0.01,
    momentum: 0.001,
    batch_size: 192,
    l2_decay: 0.01
};

var opt = {};
opt.temporal_window = temporal_window;
opt.experience_size = 30000;
opt.start_learn_threshold = 500;
opt.gamma = 0.98;
opt.learning_steps_total = 150000;
opt.learning_steps_burnin = 500;
opt.epsilon_min = 0.01;
opt.epsilon_test_time = 0.0;
opt.layer_defs = layer_defs;
opt.tdtrainer_options = tdtrainer_options;

brain = new deepqlearn.Brain(num_inputs, num_actions, opt);

// CUSTOM_VARS_BEGIN
var gen_name = 'genA-V13';
var count = 0;
var eval = false;
var save_checkpoint = 250;
var noSaveCheckpoint = false;
var eval_start = 2000;
var target_mph = 68.00;
// CUSTOM_VARS_END

learn = function (state, lastReward) {
    brain.backward(lastReward);
    var action = brain.forward(state);

// CUSTOM_CODE_BEGIN
function getFixedData() {
    var data = editor.getValue() + "\n/*###########*/\n";
    data = data.replace("otherAgents = 0","otherAgents = 10");
    if (brain) {
        data += "if (brain) {\nbrain.value_net.fromJSON(" + JSON.stringify(brain.value_net.toJSON()) + ");\n}";
    }
    return data;
}

downloadNamedCode = function (thisName, forward_passes, data) {
    var blob = new Blob([data], {type: 'text/plain'});
    var url = URL.createObjectURL(blob);
    var blobAnchor = document.getElementById("blobDownload");
    blobAnchor.download = "net-" + gen_name + '-' + forward_passes + '-' + thisName + ".js";
    blobAnchor.href = url;
    blobAnchor.click();
}

if (typeof(count) != "undefined") {
    if(brain.forward_passes >= eval_start) {
        if(brain.learning == false) {
            count = count + 1
            if(count >= save_checkpoint) {
                if(brain.forward_passes > 0){
                    if(eval === false && self.document !== undefined) {
                        thisData = getFixedData();
                        var myWorker = new Worker("eval_webworker.js");
                        eval = true;
                        myWorker.onmessage = function (e) {
                            if (typeof e.data.percent != 'undefined') {
                                // do nothing / placeholder
                            }
                            if (typeof e.data.mph != 'undefined') {
                                console.log('Eval complete - ' + e.data.mph);
                                if(e.data.mph >= target_mph) {
                                    console.log('Saving checkpoint at ' + brain.forward_passes);
                                    downloadNamedCode(e.data.mph, brain.forward_passes, thisData);
                                }
                                eval = false;
                            }
                        };
                        myWorker.postMessage(getData());
                    }
                }
                count = 0;
            }
        }
    }
}
// CUSTOM_CODE_END

    draw_net();
    draw_stats();
    return action;
}

//]]>
/*###########*/
if (brain) {
brain.value_net.fromJSON({"layers":[{"out_depth":520,"out_sx":1,"out_sy":1,"layer_type":"input"},{"out_depth":32,"out_sx":1,"out_sy":1,"layer_type":"fc","num_inputs":520,"l1_decay_mul":0,"l2_decay_mul":1,"filters":[{"sx":1,"sy":1,"depth":520,"w":{"0":0.10768068322722488,"1":-0.24880959741560138,"2":0.1521006690418449,"3":-0.18216056452581966,"4":0.016056068168653653,"5":0.031492690302576794,"6":0.3789570955031542,"7":0.6192261398684771,"8":0.06043309481302521,"9":0.5213229090236678,"10":0.09273572398422573,"11":-0.43346617272132676,"12":-0.006007371762849184,"13":0.2241162681799419,"14":-0.0651897237929198,"15":-0.17870424559761855,"16":0.056003968062097044,"17":-0.34594181758570136,"18":0.07595901207039743,"19":0.4678958167864515,"20":0.15598906151423111,"21":-0.09991729919423802,"22":-0.1233751758682299,"23":-0.07757879892583387,"24":0.05397246259214759,"25":0.19065760852776487,"26":0.1587606039931128,"27":-0.16607591863876234,"28":-0.4419174291908336,"29":-0.2047634855472533,"30":0.08014114937740469,"31":0.23444139820574983,"32":0.20116522439332526,"33":0.4197855348149139,"34":-0.13199975867360086,"35":0.1773313805615022,"36":-0.13867299171164502,"37":0.02283385653255393,"38":0.00115151711871844,"39":0.054021034189626484,"40":0.14694654386635425,"41":-0.15873167928160528,"42":-0.06045692524653811,"43":0.08485037563438999,"44":-0.01083714327442368,"45":0.3603066544045692,"46":0.4427935342083256,"47":-0.09185933878355551,"48":0.17261277718017262,"49":-0.10512890912901174,"50":-0.3947986081337994,"51":0.4131558128381103,"52":-0.16319778301015292,"53":0.007574094666787404,"54":0.1370949790685128,"55":-0.4227113238693578,"56":0.04372990843627281,"57":-0.04964454705280621,"58":0.4118432542232485,"59":0.565856458238008,"60":-0.21828636405675567,"61":-0.2971479786430952,"62":-0.41744506031944806,"63":-0.2541694193356478,"64":0.18677223330158177,"65":-0.29317078235946914,"66":-0.2006994548318633,"67":0.14238781726800243,"68":-0.43166520667525615,"69":0.0374029939035754,"70":-0.2680161969114615,"71":0.2731516198681571,"72":0.51746766451888,"73":0.011867222390555864,"74":0.005086204389117986,"75":-0.15013624946056248,"76":-0.26029356103604157,"77":0.34690673555394863,"78":-0.3208520846589941,"79":-0.011552079170420268,"80":-0.02294751344266885,"81":-0.11562161637716667,"82":-0.05191813616676344,"83":-0.054107296952550246,"84":0.4275046507968322,"85":0.06819540474434103,"86":0.5911617462964511,"87":-0.008799862694422822,"88":0.1053112028870791,"89":-0.34876624348299196,"90":0.30388554833906883,"91":0.013754999675152018,"92":-0.18454257185531908,"93":-0.20640147034933376,"94":0.0013952857129343574,"95":-0.00009010376374063564,"96":0.0347030322075575,"97":0.3619553623843775,"98":0.3791975451029686,"99":-0.09319172001295484,"100":0.1476885372467879,"101":0.11781100221263695,"102":-0.13843615534825374,"103":0.14333108277721046,"104":-0.19782856517777767,"105":-0.030366801280803924,"106":-0.3004817302544513,"107":0.1768179459453501,"108":-0.25151884002257635,"109":0.25618107892628295,"110":0.4290226417008841,"111":0.8572455349190813,"112":0.16631360946712057,"113":0.1692906975192981,"114":0.028536712173386714,"115":-0.14324459686789578,"116":0.03343564095625369,"117":0.054665689120993954,"118":0.10799333735850622,"119":-0.03837056432510897,"120":0.2212408134047403,"121":0.5140187289501155,"122":0.060129762465280824,"123":0.5973647892512087,"124":0.5948506033429558,"125":0.042574495765883756,"126":0.14327358822390723,"127":-0.2315836859340455,"128":-0.12320210338726773,"129":0.23827671070928716,"130":-0.09108224064679432,"131":-0.16179747189806126,"132":0.12041629195341352,"133":0.43996935668090076,"134":0.1695185693670924,"135":0.1802259451646327,"136":0.4448105085745418,"137":0.6414493839320667,"138":0.008163709700916254,"139":-0.13515470414598146,"140":-0.2366011978413584,"141":0.08315796304296243,"142":0.13186886905746056,"143":-0.21338363883824724,"144":-0.18689455282391226,"145":0.3285185415919497,"146":0.042953973887483614,"147":-0.014422597447289355,"148":0.3925904945280818,"149":0.6256045861740449,"150":0.021351322480409853,"151":0.5811795433569136,"152":-0.10942845077854924,"153":-0.35795048229281795,"154":-0.06603756195283843,"155":-0.017354265137392594,"156":0.013143901778329505,"157":-0.13032903361674875,"158":-0.17501734924602344,"159":0.3463320012912374,"160":0.5444924027624082,"161":0.20312668978864162,"162":0.7867858022761338,"163":0.6279569794121658,"164":0.04815608383964446,"165":0.06157622086420064,"166":-0.22398771338136703,"167":-0.09643770316248614,"168":0.08493485132727377,"169":0.2553375239906395,"170":-0.08601098407074534,"171":-0.19362854502015833,"172":0.12392557625161525,"173":0.1413538146620731,"174":0.11876476532048794,"175":0.4803220292456254,"176":0.6759511014050001,"177":0.201012010856397,"178":-0.049468207643850896,"179":-0.14632487577542969,"180":-0.30539249124767526,"181":-0.29749445105774686,"182":0.5864603531745936,"183":0.802378883592569,"184":-0.2618526819984112,"185":-0.1601925942833963,"186":0.3704179323486295,"187":0.4998594084474362,"188":0.25147753338982004,"189":0.6454745110743859,"190":0.22826128953577748,"191":0.07725898042278653,"192":-0.4219396374602596,"193":-0.0367887636598116,"194":-0.12006719448132373,"195":0.2854958890309718,"196":0.33525786798731816,"197":-0.3154342576282383,"198":-0.026945022723980687,"199":-0.11274280615055658,"200":0.24458715751819918,"201":0.18404275211739254,"202":0.31813645227257437,"203":0.3673474673273971,"204":0.2311816511302145,"205":0.12441909568667125,"206":-0.009217012527312296,"207":0.027277397371247167,"208":0.33332711607822335,"209":-0.0029946886336652476,"210":-0.14747998746764965,"211":-0.04839971046564699,"212":0.2583611549681986,"213":0.3824541851497345,"214":0.1720229978110013,"215":0.4297525382318513,"216":0.08518295964360267,"217":0.06105346687435427,"218":0.21225146986176202,"219":0.18495684010498695,"220":0.11044366246198795,"221":-0.031898981585186954,"222":0.17620112398399537,"223":0.029383539338785316,"224":-0.01482468617061784,"225":-0.07512826662723286,"226":0.3877278983192915,"227":0.24375776879908287,"228":0.5544138676157723,"229":0.18510402113632085,"230":0.08774659314707524,"231":-0.27209479668685765,"232":0.007681627831431416,"233":-0.014725859576846481,"234":0.06200133394064585,"235":-0.18464208172900673,"236":-0.12316655585001067,"237":0.22637715626671878,"238":-0.03604372252867204,"239":0.024861861178943744,"240":0.4674838921814068,"241":0.3111951099985508,"242":0.5851517302231837,"243":-0.05657761440336001,"244":-0.10953882390314981,"245":0.25604134515525767,"246":-0.034356735450321,"247":0.15972868456135744,"248":0.15895367479611536,"249":0.12040964198842814,"250":0.24219017790285852,"251":0.2356144958219494,"252":-0.17021238450283355,"253":-0.024637338388615072,"254":0.8055505460503165,"255":0.06090458008077095,"256":-0.12188231881011562,"257":-0.27103807535023383,"258":-0.1445384550709067,"259":-0.027098012643301445,"260":0.08510580601915319,"261":0.2484179948643366,"262":-0.03675869548985085,"263":0.13423167134411426,"264":0.0026843524000134573,"265":-0.240762643874463,"266":0.2477446584042624,"267":-0.4012069681450392,"268":0.21532369319940206,"269":-0.10604542190225878,"270":-0.4698264362041776,"271":-0.11555522996160522,"272":-0.08774072716627677,"273":0.3201893336812344,"274":-0.10781634767090104,"275":-0.20965190981453746,"276":0.023800364738099156,"277":-0.0648218936895867,"278":0.19623412799420456,"279":-0.11959733736843972,"280":0.014540867948190197,"281":0.18751676538925502,"282":0.06685880335367532,"283":-0.1042926585837434,"284":-0.013194290389429526,"285":0.013791895499338517,"286":0.2467330048935364,"287":0.11950326668906819,"288":0.16521910348823726,"289":-0.42442791689844933,"290":-0.043355876406415327,"291":0.007225980404978063,"292":0.005771124175491691,"293":0.024300805758394002,"294":-0.07114725029627114,"295":0.310682914326165,"296":0.029186162988631727,"297":-0.07171894590363036,"298":0.1110591361303798,"299":0.06243608927930257,"300":0.10687393016721078,"301":-0.16607064841140817,"302":-0.4913887262141378,"303":-0.0810298103876354,"304":0.13628641984686918,"305":-0.39163598410014716,"306":0.1481264081378417,"307":-0.030554939292578766,"308":0.056501778616839464,"309":-0.009389353615073348,"310":0.10174093098577168,"311":0.08353511850459264,"312":-0.1662291744868399,"313":0.1709970257845957,"314":-0.18646041770511207,"315":-0.35909483980754964,"316":-0.019550181207034993,"317":0.6707711747714936,"318":-1.0537278431234305,"319":0.4304850215462305,"320":0.2708512667283605,"321":0.11302231071164996,"322":-0.018174911570429563,"323":-0.24834147091220937,"324":0.12487121337767704,"325":-0.09595355192933831,"326":0.10049312021332747,"327":-0.18599766380201138,"328":-0.06757647337684011,"329":-0.024449631486624514,"330":0.46956963425849757,"331":-0.49534543524754954,"332":-0.12614741373723884,"333":0.13130149334092803,"334":0.12537001429878816,"335":0.03836728301666388,"336":0.02392040179121631,"337":-0.11818835061250466,"338":-0.13424698203551938,"339":0.009850548192402837,"340":-0.2678321216874209,"341":-0.09248293759625806,"342":-0.1999414876109649,"343":0.1808598401985928,"344":-0.912068087480714,"345":0.005102351012228893,"346":-0.12135354124961673,"347":0.3406146013450349,"348":-0.2380092719375371,"349":0.09653279211637622,"350":-0.20668111986265555,"351":0.2489416052660775,"352":0.18859199589300957,"353":-0.281509539785236,"354":-0.010993208748313953,"355":0.17521573066248744,"356":0.3181428540755029,"357":-0.4429952607592102,"358":-0.3626805673945852,"359":0.13338911626713912,"360":-0.04311190473285839,"361":-0.21105926552923426,"362":0.12971689526222951,"363":0.10338840321827075,"364":0.21954361736319683,"365":0.22840830807914497,"366":0.05393105798267845,"367":-0.07912472152911898,"368":-0.23843034818094758,"369":0.37614757820584016,"370":-0.21725882378071926,"371":-0.4834677325699266,"372":-0.04191002754088408,"373":-0.15784029649618822,"374":-0.05817506664612106,"375":-0.0031679300431696608,"376":0.08321022474087068,"377":0.08364298665435307,"378":0.43867279419199356,"379":-0.025193766645096434,"380":-0.16863772708330704,"381":-0.05773408576932374,"382":-0.14455061153391985,"383":-0.4520317638128614,"384":-0.7493569419499772,"385":-0.0847040493063866,"386":0.045175366042388504,"387":0.06262264366125767,"388":0.15912516690080347,"389":0.18003916010641607,"390":0.09355711933889449,"391":0.03439248786627143,"392":-0.1074549428745491,"393":-0.059118278405034225,"394":0.20413684795656342,"395":0.09044946197457444,"396":-0.05085275227069912,"397":-0.44182293260932826,"398":0.13738006589530322,"399":-0.16580259883494847,"400":0.1679485893135804,"401":-0.05992647733156483,"402":0.22348530832583324,"403":-0.06361735943538487,"404":0.06970479887407678,"405":0.13392855439421392,"406":-0.2801833729289643,"407":-0.6645197038155108,"408":-0.07846712008531241,"409":-0.051380386263844044,"410":-0.7177944077843899,"411":0.03957321476035095,"412":0.12242903009452984,"413":0.14371920228613974,"414":-0.12805494298550865,"415":-0.02040088450520821,"416":0.25177882241808686,"417":0.11984828081396551,"418":0.03653052163362991,"419":-0.10656271068416169,"420":-0.248203072550747,"421":-0.4331016995602825,"422":0.04662887416498932,"423":-0.5089461347539487,"424":0.07045983507134654,"425":0.18557461257780097,"426":0.04704774408630884,"427":0.08720715845177052,"428":0.005685130232312221,"429":0.03818605146119294,"430":0.050779967959738846,"431":0.22156152358313666,"432":0.0630956497495667,"433":-0.16836126855149733,"434":-0.5774658925579147,"435":-0.03150494033745289,"436":-0.44523848399846133,"437":0.0030107971258087544,"438":-0.08371385380048967,"439":0.08261117986203931,"440":0.19303391889762525,"441":-0.12012657384636173,"442":0.003983320489415485,"443":-0.17433983327247207,"444":0.3346873606241156,"445":-0.160160778403005,"446":-0.39020070189188105,"447":-0.6277054254682879,"448":-0.622257335928398,"449":-0.22709778115602786,"450":-0.46437601511572957,"451":0.07929874928635292,"452":0.004073510061640938,"453":0.20825577486087954,"454":-0.25415980660704723,"455":0.2845244433514943,"456":0.0036613447539667375,"457":0.38347121023150416,"458":0.20898307546759307,"459":0.05443317761667414,"460":-0.5651209112302555,"461":-0.5935858587452013,"462":-0.371621312542684,"463":-0.20291392045698786,"464":-0.0036920532457299245,"465":0.02818254621908502,"466":-0.018338423700609358,"467":-0.1576129752528478,"468":-0.05829176740465135,"469":-0.11300075104079559,"470":0.09789671229540482,"471":0.4570848663986674,"472":-0.439072549290814,"473":-0.03418089566730347,"474":-0.5860038582059122,"475":-0.40332006711508755,"476":-0.15443568354366527,"477":0.022797549910792834,"478":0.00944833147788247,"479":0.11602249019028707,"480":-0.11021930537660102,"481":0.2867996982689257,"482":0.01488876701572786,"483":0.017097497876504924,"484":0.21758342956274246,"485":-0.32554414959987266,"486":-0.2281208920142145,"487":-0.4892786128623002,"488":-0.4333632418383897,"489":-0.08449387330262885,"490":0.05839035896120493,"491":-0.17160470090199698,"492":-0.14099873909262625,"493":0.15464917274826295,"494":0.2630291456714309,"495":-0.07361925169577407,"496":0.062225117778664255,"497":0.3011204132459452,"498":0.013951371772932892,"499":0.43555797709375427,"500":-0.37802206687151246,"501":-0.30710707994788866,"502":0.23250534183739716,"503":-0.14586303261549774,"504":-0.020734545128080966,"505":0.11899721265741796,"506":-0.005844179413474222,"507":-0.016976004803741916,"508":-0.09380699176593484,"509":0.021439520418913914,"510":-0.14530837802362725,"511":-0.06398045003017376,"512":0.24605614913861376,"513":-0.5084815088621258,"514":-0.569224931487071,"515":-0.26353048740761387,"516":0.014793351458724291,"517":0.22355435755029288,"518":0.18806455701324837,"519":0.25535561831749565}},{"sx":1,"sy":1,"depth":520,"w":{"0":-0.021792047137154207,"1":0.03142250645394004,"2":0.04228760781359146,"3":-0.014694063773896262,"4":0.0069352067655100375,"5":-0.026177639942701527,"6":0.007888453957049422,"7":-0.019211371950320986,"8":-0.056121926914512635,"9":-0.030968555193371473,"10":-0.020167659507762045,"11":0.005077071132477535,"12":-0.06683373832397278,"13":-0.027419076993687713,"14":-0.028404521563426027,"15":0.001929960033621698,"16":-0.03270195016607401,"17":0.037457653574034216,"18":0.0267838488617488,"19":-0.0015225129464843856,"20":-0.12552088291909533,"21":0.03991926947979554,"22":-0.021817316150311846,"23":-0.034760658973452103,"24":0.030711036983710374,"25":0.04657037234148399,"26":0.04575780735356379,"27":-0.06605396359226937,"28":-0.004856565483155707,"29":-0.015101411854823412,"30":0.0002767238338374784,"31":-0.08997006382818085,"32":-0.07336248931607338,"33":-0.02325424729417463,"34":0.007124930191295488,"35":-0.03718421017178089,"36":-0.005378608998886725,"37":-0.03970568556002722,"38":-0.009191128635673009,"39":0.011906798022689168,"40":-0.023414018766241492,"41":-0.06468887344204499,"42":0.006506418657658387,"43":-0.08118384624206308,"44":0.016396218035698604,"45":-0.09816734661948488,"46":-0.01876037584251125,"47":-0.009271860612896574,"48":0.08403150514743002,"49":-0.0647614315725856,"50":-0.000011639888928137234,"51":-0.055392946122889926,"52":-0.07022408970604299,"53":0.04673834810557601,"54":0.006553794085010376,"55":-0.017898572819693787,"56":-0.025375046722941944,"57":-0.057401488492355233,"58":-0.04221080816583043,"59":-0.06933697925969501,"60":-0.013432847735463344,"61":-0.017044404997997784,"62":-0.057857101988726484,"63":-0.10127079669176928,"64":0.023932500202330516,"65":0.044479585337635325,"66":-0.09506645304678327,"67":0.036257922740057895,"68":0.044250997710963205,"69":0.03979372044723271,"70":-0.024843153460162522,"71":-0.0030026926948824428,"72":-0.08590172004754719,"73":-0.006660653914861575,"74":0.012739650982434807,"75":-0.05960337234739473,"76":-0.04487806678090845,"77":0.05456245049640853,"78":-0.023843900711189137,"79":-0.01023412181789244,"80":-0.05069578409757531,"81":0.021994293774458485,"82":-0.021655427333401298,"83":-0.05110160669390071,"84":-0.00044361483717959886,"85":-0.02341342042120118,"86":-0.02791743217088961,"87":-0.04958631399546184,"88":0.009395763683344672,"89":-0.10685737174856273,"90":-0.01692863130498703,"91":0.0076442473081260644,"92":0.006544907332512941,"93":-0.10091894695368016,"94":-0.030322620048224787,"95":-0.035740062596998586,"96":-0.004999512410250061,"97":0.001251027123426799,"98":-0.021665868614940263,"99":-0.05660213865366872,"100":-0.023428265531599726,"101":-0.00551276788547121,"102":0.025770388342097154,"103":-0.0325179763590666,"104":-0.09090314102590792,"105":-0.03960564079929901,"106":0.03035725198897267,"107":-0.07354914882612923,"108":-0.035135728479422944,"109":-0.06934826320379772,"110":-0.06048508274242555,"111":0.07037819447746012,"112":0.022806991729165366,"113":-0.0213145178854415,"114":-0.013032728127401765,"115":-0.06303767747804111,"116":0.006422685056754477,"117":-0.06060711601473661,"118":0.03690497881926674,"119":0.037443058533822106,"120":-0.028313113378808655,"121":0.05205077683628605,"122":-0.025587449587301116,"123":-0.017458175658324613,"124":-0.07950568772721074,"125":-0.027028642858182482,"126":-0.03546319782628414,"127":-0.058602849358778276,"128":-0.07312955192225484,"129":-0.029068941534701267,"130":0.03783938415679013,"131":-0.07157421375925188,"132":0.05672131018063543,"133":-0.04403376275653687,"134":-0.010309714132867555,"135":-0.039191436869481996,"136":-0.05383039730999349,"137":0.0015847782040765788,"138":-0.009452219167233444,"139":-0.10632347066807735,"140":-0.03651763525072503,"141":0.008537354127029738,"142":-0.0000620672085691529,"143":0.019387101380665205,"144":0.03219274605205788,"145":-0.06439786749196293,"146":-0.037249612044398514,"147":-0.003827780324827829,"148":-0.06657098068046274,"149":-0.06375364825550442,"150":-0.06839505383050831,"151":-0.07003643080217142,"152":0.03722355336380905,"153":-0.06441802638763841,"154":-0.029130847612013684,"155":-0.0017334895407154656,"156":-0.0839662777617892,"157":0.015394192700401817,"158":-0.00008473819788383772,"159":0.06095511185454582,"160":-0.04557691959622631,"161":-0.0660833313518813,"162":0.03510849330040996,"163":0.025875680901984978,"164":0.0051787813635586905,"165":-0.014826225854911172,"166":-0.02943667480694584,"167":-0.008700841269519076,"168":-0.11748424027265983,"169":-0.00028014428075202397,"170":-0.04742369346079039,"171":-0.00701886147517656,"172":-0.08738431728479608,"173":-0.07729612152756699,"174":-0.07171525012998642,"175":0.02291541612975024,"176":-0.033221112991453375,"177":-0.02838269869137438,"178":0.02706939994450801,"179":0.011707224662043979,"180":0.047524239609520284,"181":-0.0335941945788713,"182":0.06032841740095065,"183":-0.033589733929034374,"184":-0.03373307210016527,"185":0.05581939664045536,"186":0.008628446576890549,"187":-0.04089144880140411,"188":-0.09459999147536587,"189":-0.053969197963731154,"190":-0.007496374656764887,"191":0.09260417070113927,"192":-0.11361751605646937,"193":-0.021802824035676453,"194":-0.033208931306613974,"195":-0.020499320038589185,"196":-0.03451184350290418,"197":-0.029181636785844577,"198":-0.004971931132691343,"199":-0.03590326497999184,"200":-0.008071184012811936,"201":-0.005872491620585773,"202":0.026768998750753534,"203":0.014305194114777027,"204":-0.024866675633325633,"205":-0.1023688905049107,"206":-0.008492954581615931,"207":-0.027489339077555634,"208":-0.07044240994373809,"209":-0.019287082128996734,"210":0.029936509887794158,"211":-0.020911443300365682,"212":-0.021875298387726397,"213":-0.007259713968414629,"214":-0.006511026978384326,"215":-0.0349964527309971,"216":-0.05056468673535805,"217":-0.0005371385077906789,"218":-0.06283014067625639,"219":-0.03827875295881016,"220":0.07779622895982519,"221":-0.031106742365305848,"222":-0.04363792395842954,"223":-0.04101867490836352,"224":-0.010882892456092199,"225":-0.008223724357939848,"226":-0.030230823094985145,"227":-0.10399376185548351,"228":0.036850731902412455,"229":-0.0513980288963935,"230":-0.06094006948243613,"231":-0.018742953376762548,"232":-0.06334493343766961,"233":0.017807021986005304,"234":-0.043231938940123754,"235":-0.08386705745648275,"236":0.008169918944699277,"237":0.037732399466233295,"238":-0.01782763880623694,"239":-0.053262827553085305,"240":-0.03422642314307677,"241":-0.024306052254437938,"242":-0.06715030748442169,"243":-0.07204936537495533,"244":-0.008701420570716998,"245":0.050917419386746855,"246":0.004713573690025414,"247":0.06223137130693522,"248":-0.03862666192450905,"249":-0.016579724675342897,"250":0.00842461316584308,"251":0.00835579117255693,"252":0.05121226703509743,"253":-0.048291115596754114,"254":-0.04231715540286447,"255":-0.008892448994749199,"256":-0.0818226899812909,"257":-0.00799492115253135,"258":0.05753424989643997,"259":0.035742913603061484,"260":0.025753736487007413,"261":-0.052892875667904134,"262":-0.04453170770705172,"263":-0.005484034599227255,"264":-0.022108900170725504,"265":-0.026398576695586293,"266":-0.05646356430925136,"267":0.040133158029644754,"268":-0.02092719612364916,"269":0.050047140130171745,"270":0.00568082688936398,"271":-0.02491211966921589,"272":-0.06254191327706622,"273":0.00798339029446439,"274":-0.021315979950045142,"275":-0.027043432874806567,"276":-0.07428900835918176,"277":0.05695531096323647,"278":-0.021801169037443353,"279":-0.07984334484893336,"280":-0.055095093028782495,"281":-0.03474801908164467,"282":-0.04842978452050492,"283":-0.005706295509694122,"284":-0.012492863597311218,"285":0.044974612034011895,"286":0.03935191553249079,"287":0.009631206989102775,"288":0.020474234000456427,"289":0.026538916517756132,"290":-0.03792015593754641,"291":0.02066881694884454,"292":-0.04916320240684949,"293":-0.005857538423836148,"294":-0.057219438416812506,"295":-0.12686116513174128,"296":0.029606677586689292,"297":-0.05240072716468285,"298":-0.029506433445906508,"299":-0.0046422433931458985,"300":-0.1194268206380937,"301":-0.02063056749288959,"302":-0.10987586624441736,"303":-0.055480560472808894,"304":-0.12946530106096807,"305":-0.013522552943323187,"306":0.010836848304117942,"307":-0.03177575140461904,"308":0.0352185353344968,"309":-0.05080110226729248,"310":-0.04359582446903952,"311":-0.03962520696118891,"312":0.006402425626168599,"313":0.00411971428930234,"314":-0.062106993797198626,"315":-0.011287576582130853,"316":0.011455735885817131,"317":-0.03283845885262458,"318":-0.03694531570464243,"319":-0.01954574674524041,"320":0.0390095047965071,"321":-0.04943509264070017,"322":-0.04460747407765362,"323":0.10531880392512144,"324":-0.026285900466431925,"325":-0.04177886701411788,"326":-0.026632142636967338,"327":-0.013146809699073989,"328":0.015846344056602575,"329":-0.026765070643775278,"330":0.037790548025544,"331":-0.03604173331638503,"332":0.03806120154642279,"333":-0.05518271457604708,"334":0.004621080029265579,"335":0.018797932602578723,"336":-0.07276962320630909,"337":-0.0059711625195630535,"338":0.0203773468814152,"339":-0.0578020525459813,"340":-0.047806959548203125,"341":-0.02532055821369715,"342":-0.08391548040930516,"343":0.003744549891919164,"344":0.005277666912533649,"345":-0.0905653642954344,"346":0.0025765803849900136,"347":-0.0693884683990886,"348":0.015757519069707248,"349":-0.021888844934398324,"350":-0.040604139249250194,"351":0.025853108548597015,"352":-0.06538895706905504,"353":-0.08715318394866897,"354":0.028308941855828135,"355":0.06811639804654421,"356":0.02505045189698369,"357":0.014889554729417486,"358":-0.004860901194098987,"359":-0.026718291361948827,"360":0.017392554356871148,"361":-0.05515034505399175,"362":-0.04461593116853604,"363":-0.08329641819501321,"364":-0.009450531733148262,"365":-0.04860918558837664,"366":-0.010460208569398903,"367":0.01314015670596586,"368":0.05571877272757513,"369":-0.06032347862625586,"370":-0.051905694462180636,"371":0.019930709436833553,"372":-0.08698643969586368,"373":-0.03050237053411507,"374":-0.07772148583743248,"375":0.026486667600795356,"376":-0.008630862641563802,"377":0.11240588234997606,"378":-0.021479459284158425,"379":0.047634280276300144,"380":-0.03756781513130105,"381":-0.00107444775050309,"382":-0.046124564269911544,"383":-0.03700171900144816,"384":0.012911957800727618,"385":-0.0015981618484169821,"386":-0.02324086479130285,"387":-0.07319617367626463,"388":-0.033881888792616166,"389":-0.029913708900986415,"390":-0.026721847949477448,"391":0.008000402186300761,"392":0.0483103487923865,"393":-0.09736493535095174,"394":-0.093892224624718,"395":-0.03199815448832365,"396":0.01718796876873896,"397":-0.021139748700133198,"398":0.025437955420913233,"399":0.0016213006953098756,"400":-0.009720216327459397,"401":-0.036623258024688875,"402":-0.07599927873836601,"403":0.05062927135812204,"404":0.09238873988920608,"405":-0.051974824993247064,"406":-0.004319470477641202,"407":-0.0018065840056855852,"408":-0.047465524904902176,"409":0.03500400003686023,"410":-0.02774561985546217,"411":0.016685001976466624,"412":-0.028738634969541405,"413":0.024403407648693268,"414":0.060717427128910595,"415":0.005487974787873062,"416":-0.010202395957103157,"417":-0.02058632626057959,"418":-0.03239983114709321,"419":-0.10177590435614216,"420":-0.019664352469997207,"421":-0.008179967078577818,"422":0.06813429868320958,"423":0.0003885845736100802,"424":-0.07900599839543798,"425":0.0006284630903285886,"426":0.05516652260739934,"427":0.0282340211492329,"428":0.043408258339961356,"429":-0.08136963280803965,"430":-0.033334849856736314,"431":-0.010624152069054529,"432":-0.060984625886405436,"433":0.016965794332248107,"434":0.019720371831362955,"435":-0.010133273869922603,"436":-0.03646248191878381,"437":-0.058345773106931315,"438":0.025162494924433117,"439":0.00134597577680286,"440":0.020902915903951106,"441":-0.04755362488179824,"442":-0.00424915875939712,"443":-0.10977081686396307,"444":-0.11432885626148505,"445":-0.04153505963683619,"446":0.01571355342928658,"447":-0.05051622015438489,"448":-0.026733769414044803,"449":0.008655745347114862,"450":-0.0215301009113765,"451":0.02760152022546611,"452":-0.021077925544652067,"453":0.005977610002591071,"454":0.018559046147152772,"455":-0.006548194563134806,"456":-0.05017164952525761,"457":-0.018421896197806844,"458":0.018826918310524115,"459":-0.0440511580605796,"460":-0.046408202874753855,"461":-0.07222559029905586,"462":0.031656837880222895,"463":-0.09712642004574204,"464":-0.028674549782086497,"465":0.01028788100893397,"466":0.01907549888517806,"467":-0.037022443148512905,"468":-0.03138665259295789,"469":-0.027442152995647413,"470":0.015875194031905442,"471":-0.02189666977402913,"472":-0.10217413838515739,"473":-0.07157034684103716,"474":-0.026589019872201667,"475":-0.050897164225442625,"476":-0.05432041340421777,"477":-0.039696051585427564,"478":-0.03648666654576606,"479":-0.006327789422526115,"480":0.06834948604381631,"481":0.027772836294599954,"482":-0.0444370394840136,"483":-0.004477084565912367,"484":-0.028936913163692374,"485":-0.08008052466936211,"486":-0.1037362207565132,"487":-0.04420332003227332,"488":-0.04073276546044284,"489":-0.052170016746990414,"490":-0.04270280720267371,"491":-0.039051229733413365,"492":-0.04402824430772131,"493":0.009905782650622507,"494":-0.014292910137763695,"495":-0.03766489023326264,"496":-0.05143766836167794,"497":-0.000490149462558785,"498":-0.017195869953633595,"499":-0.055249059593521437,"500":-0.07895987577939681,"501":-0.07958537944571296,"502":-0.01780479025260501,"503":-0.09702492757020298,"504":0.051898721907711096,"505":-0.006661698252105278,"506":-0.004151047130086709,"507":-0.02676579158635506,"508":-0.03727103003769854,"509":0.030010775799743303,"510":-0.042365899460051044,"511":-0.09799691890408496,"512":0.010394392082535172,"513":-0.05768120724511327,"514":0.030010520221197854,"515":-0.1395052520109693,"516":-0.03345107827488806,"517":-0.036791803110989514,"518":0.004480849314326938,"519":0.016863733458800576}},{"sx":1,"sy":1,"depth":520,"w":{"0":-0.05670032032713642,"1":-0.040480427367763056,"2":-0.04294057714680542,"3":-0.04811983710822426,"4":-0.058705108455240185,"5":-0.3550114393968929,"6":-0.4228246292711083,"7":0.2782133337967156,"8":-0.08668654586671148,"9":-0.004454662051348819,"10":-0.22892820631544322,"11":0.4143537634925923,"12":0.21281971896272125,"13":-0.09926194143865893,"14":-0.08776040368969285,"15":-0.07927113599626107,"16":-0.04313837076715858,"17":0.008420108640732806,"18":0.21234108082749198,"19":0.0557160155446758,"20":-0.0055310450711208055,"21":-0.3001606144078168,"22":0.524749158687333,"23":-0.05473103016812994,"24":0.560870901369182,"25":0.03464993501627451,"26":-0.0046206211910929836,"27":-0.06251046912405663,"28":-0.05214178932685887,"29":-0.03171929609277394,"30":-0.15206500882896382,"31":0.22845141236907388,"32":0.1716846822527601,"33":-0.2918938031310919,"34":-0.05450283207989876,"35":0.3249635366570102,"36":-0.0925253277470988,"37":0.43827276069152377,"38":0.018276651484722666,"39":0.0051038352985124545,"40":0.0271557786181169,"41":-0.034351384502613935,"42":-0.11776127539502622,"43":-0.00031236136655038416,"44":0.07021380018105053,"45":0.0858729518682118,"46":-0.21618948101371807,"47":0.21474361082969992,"48":0.46474343086434505,"49":-0.09566316797048838,"50":0.24870484093460407,"51":0.24676979338531227,"52":0.028889924591324535,"53":-0.02420616001967857,"54":-0.03228594668067693,"55":-0.06431506079283804,"56":-0.0032581136913745943,"57":0.24644504117488436,"58":-0.003952249309911344,"59":-0.1531163075509119,"60":-0.21031346903939896,"61":0.3599467162343757,"62":-0.1887544580605797,"63":0.2641265952208427,"64":0.09469734767151025,"65":-0.04876567865100145,"66":0.016057083031297204,"67":-0.0862761169756194,"68":-0.12045137096682838,"69":-0.09998051249731377,"70":-0.4512446700447519,"71":-0.8026508291144908,"72":-0.2537450455493139,"73":0.04085417615288143,"74":-0.19078133614536977,"75":-0.21622228592554052,"76":0.4356250589490291,"77":0.23826331205120713,"78":-0.027609468310706965,"79":-0.05751717400437357,"80":-0.04720650085568725,"81":-0.04740113416566587,"82":-0.03323476958275845,"83":-0.3013399487215231,"84":-0.6026732089449238,"85":-0.30290904479246944,"86":-0.11953930129404078,"87":-0.04887465916141097,"88":-0.1886529252044639,"89":-0.1857137688875018,"90":0.0656944438404118,"91":-0.12712169927196992,"92":0.02071294927782771,"93":0.05631069317051711,"94":-0.030764086059222505,"95":-0.04448655354564477,"96":-0.23188499327795772,"97":-0.4955177392945631,"98":-0.09245201869388271,"99":-0.2555859024346049,"100":0.07516937454900864,"101":-0.42517651312467275,"102":0.1400895467833106,"103":-0.15262383560525644,"104":-0.011361139364352138,"105":-0.061856832372842056,"106":-0.049823429180962484,"107":-0.03557704257964719,"108":-0.06497428435396306,"109":-0.4999522989694008,"110":-0.6485758707000308,"111":-0.19902752055081246,"112":-0.03923893970446711,"113":-0.4021686527359115,"114":-0.36787926414627714,"115":0.05885398424971168,"116":0.14656077663866876,"117":-0.040955367840738575,"118":0.04597562167377727,"119":0.005654033458225418,"120":-0.05359995310010491,"121":-0.02227044301110026,"122":-0.45408852780204334,"123":-0.17304960319612125,"124":-0.3012122014207822,"125":0.05873870474157768,"126":0.13562518812941562,"127":-0.11429689965090495,"128":-0.43397719632391185,"129":-0.07161685991558099,"130":-0.05060741750767379,"131":-0.07042066249462182,"132":-0.022819359878844463,"133":-0.0641045519749767,"134":-0.13025546340361804,"135":-0.31327849884315034,"136":-0.3420745561693845,"137":-0.5216347980137587,"138":-0.09579560988336239,"139":-0.03725017317325698,"140":-0.4485452251589404,"141":0.30900852921900107,"142":-0.3017125529815753,"143":0.007478230024698325,"144":-0.022145034584763586,"145":-0.09273416578463198,"146":-0.07096419298263161,"147":-0.08121300583767356,"148":-0.8227393893463799,"149":-0.3148475453502638,"150":-0.5400779148579992,"151":-0.119413629767133,"152":-0.03911909664776221,"153":-0.1811305492489989,"154":-0.082158392494577,"155":-0.2770410159915318,"156":-0.007893728077236003,"157":-0.046301168678050446,"158":0.0190462931481013,"159":-0.16047695430685133,"160":-0.12825579645423965,"161":-0.5465009614357462,"162":-0.37438188413263995,"163":-0.23115902804659294,"164":-0.1606022531877098,"165":0.19637930105831544,"166":-0.1493404902677831,"167":0.10236596315313629,"168":-0.3639403318391062,"169":-0.14052262261181978,"170":-0.029249106831964352,"171":-0.07020990727213894,"172":-0.02865194803586596,"173":-0.15618735014421764,"174":-0.23389171867377287,"175":-0.1568097853784875,"176":-0.13046572074711996,"177":0.061386653164659924,"178":0.4179743949431248,"179":-0.3245303458808127,"180":-0.24068708475489967,"181":-0.23584011152477033,"182":-0.061266229563119744,"183":-0.008226494090085763,"184":-0.02104502250810159,"185":-0.06187158763546949,"186":-0.1067769318675859,"187":-0.6261870964306631,"188":-0.14559310595575758,"189":-0.16618597167215776,"190":0.252124998383628,"191":0.23417165676306398,"192":-0.1427389652668309,"193":-0.11852612735465362,"194":0.058520977077515704,"195":-0.11682540589525403,"196":-0.052193251522510135,"197":-0.06891651591753997,"198":-0.13756565925374326,"199":0.0008390620632741237,"200":-0.29181534383383667,"201":-0.5330750443052279,"202":0.026226363685343992,"203":0.13217635546168355,"204":0.3288458450851555,"205":-0.18409092666775514,"206":0.21464035390514244,"207":-0.060797218321032534,"208":-0.0704477294030764,"209":-0.10891376075262665,"210":-0.043884426717132295,"211":-0.059428975152510874,"212":0.009596524075334012,"213":-0.08250164194887152,"214":-0.7292507798412398,"215":-0.3380854516631893,"216":0.17783722137576422,"217":0.32561422731545847,"218":-0.3744003433968478,"219":0.19851097538843754,"220":-0.2973087037829599,"221":-0.11389579824385442,"222":-0.10828305432471008,"223":0.01981259794269408,"224":-0.1166220085064649,"225":-0.039483949423448746,"226":-0.02931777363232407,"227":-0.5175297573484143,"228":-0.1120427607620565,"229":0.02062033293271808,"230":0.3711906942984831,"231":0.0064027480141179574,"232":0.5910022413915109,"233":-0.2285094490374784,"234":-0.05175017788689407,"235":0.03654877090841377,"236":0.05595067780367457,"237":-0.00696872606999134,"238":-0.10499385033846674,"239":0.15307633799544795,"240":-0.5847280285944332,"241":0.053250378242713135,"242":-0.3006595396079639,"243":0.5627545496642052,"244":0.12007148340240033,"245":0.3346503563064856,"246":-0.46399798085502975,"247":-0.004274854261705176,"248":0.05597816920979528,"249":-0.016334986284337306,"250":-0.08407170330214599,"251":-0.13637901757206156,"252":0.3418643268059446,"253":-0.2880875946297865,"254":0.2828091789809974,"255":-0.16851677321280858,"256":0.1244373927361145,"257":0.2125056843019559,"258":0.2928748242318444,"259":-0.1585533288261782,"260":-0.03039977060232352,"261":-0.14483957406018197,"262":-0.03140599049245478,"263":-0.04541138075236368,"264":-0.03486248119037828,"265":0.12419636960510291,"266":-0.2166610742045454,"267":0.127991098078828,"268":0.05440502885236058,"269":0.48590189442571774,"270":0.5033055797043932,"271":0.5128942012688964,"272":-0.09255383948631186,"273":-0.05199006012201749,"274":-0.03138936381119647,"275":-0.08101816130115802,"276":-0.11419070971545427,"277":-0.0880962060073493,"278":0.3952006942400365,"279":-0.4525194738504143,"280":0.03411294287177387,"281":-0.3189834150544939,"282":0.40551951376705403,"283":-0.04731564049043635,"284":0.568036773932729,"285":-0.16447374438267096,"286":0.031337338907947855,"287":-0.06455730303910517,"288":-0.030981937357815365,"289":-0.05645509421084181,"290":0.01212885906743627,"291":0.4352219476476372,"292":-0.4593931401622289,"293":-0.19988382298887744,"294":-0.21557336413696002,"295":0.26261651295173644,"296":0.19965244411154445,"297":0.3235430223596001,"298":-0.23567919233734244,"299":-0.018939354824826497,"300":-0.05303340697234956,"301":-0.014643087164559853,"302":-0.13894435018495363,"303":-0.009903563199887272,"304":0.39766153715221136,"305":-0.19804255557492637,"306":-0.16673413984859187,"307":-0.2144436291117869,"308":0.45380444183987245,"309":0.3307319260045769,"310":0.221989187815037,"311":-0.2764248782160419,"312":-0.04126140101755405,"313":-0.04861739639008907,"314":0.01993242484280736,"315":-0.058638597430265206,"316":-0.006760094428412901,"317":0.4144749445724737,"318":0.11410809211686936,"319":-0.1989985610404338,"320":-0.44324881744936995,"321":0.04790491723766634,"322":0.09772695307695316,"323":0.20171812178751305,"324":-0.14110418341391934,"325":-0.02806127781832518,"326":-0.0519107383567282,"327":0.02323508305873963,"328":-0.05239730328634453,"329":-0.07848377290416433,"330":0.38637322300694243,"331":-0.18289253290078178,"332":-0.3999008773945259,"333":-0.5379275062663992,"334":0.14450780067212055,"335":0.09278741737086407,"336":0.4950825149386392,"337":0.08305258193574763,"338":-0.036326281357331444,"339":-0.06108299235663871,"340":-0.07175223203411384,"341":-0.06895935543301736,"342":-0.07598433441952708,"343":0.4306195760780277,"344":-0.1043796229033468,"345":-0.3094831108375144,"346":-0.3569266599934199,"347":-0.04099970162536368,"348":-0.09445207611158929,"349":0.5249936394280753,"350":0.1046998858673716,"351":0.011925079129425439,"352":-0.05178160406708561,"353":-0.10435803441039285,"354":-0.04218776714924535,"355":-0.07563778881619952,"356":0.31502252615022147,"357":-0.1684100223964464,"358":-0.3111950027674155,"359":-0.7180527834982435,"360":-0.3589377259055675,"361":-0.2440405076710058,"362":0.18833923013726706,"363":0.3136358469856543,"364":-0.05739459399307636,"365":-0.08676072486863122,"366":-0.08947785158237355,"367":-0.028704876208041043,"368":-0.07262607321530645,"369":0.3009703018704887,"370":-0.06539001498306549,"371":-0.07660383593670517,"372":-0.723177700206929,"373":-0.12818389063756971,"374":-0.3146621274821417,"375":0.3920502028534279,"376":0.21199793142418663,"377":0.018204411431936685,"378":-0.08229283196667402,"379":-0.03781978091979688,"380":-0.045349815186569775,"381":-0.08989369085375314,"382":0.18568632677864252,"383":0.1460829483631391,"384":-0.10273287311134273,"385":-0.5538240357480498,"386":-0.22772477604003444,"387":0.05697069242049815,"388":0.09664713993778226,"389":0.2996873613419726,"390":0.06340336434940241,"391":-0.03166423677683947,"392":-0.08139451773773343,"393":-0.1490427766187188,"394":-0.09556571212407769,"395":-0.05133757655776302,"396":-0.02502349313894185,"397":-0.12243443056711313,"398":-0.3560478609286511,"399":0.16075758056586636,"400":0.06465362046061353,"401":0.06815681447845856,"402":0.33892916221747205,"403":0.028736293967070822,"404":-0.042895432384481263,"405":0.015976372119661724,"406":-0.0344887628280187,"407":-0.03868925928504608,"408":0.21563330396321773,"409":0.008081620336238424,"410":0.034569629886605675,"411":-0.2961858771783426,"412":-0.16615713100148372,"413":-0.09633861207331454,"414":0.10238707845590457,"415":0.3411607075150944,"416":0.0010327981703371137,"417":-0.023155689105754995,"418":0.002701664993042073,"419":-0.09240164972311789,"420":0.006664317164331786,"421":0.15164326833054015,"422":-0.10564008476078647,"423":-0.1901123794778873,"424":-0.35430600967704073,"425":-0.07555169144556974,"426":-0.03303550893221171,"427":0.03791314958061194,"428":0.3957877907659909,"429":-0.03464371941286566,"430":-0.02039918648034716,"431":0.0022197300029426874,"432":0.0397423567463154,"433":0.002605104339828419,"434":0.19845635565558975,"435":-0.03363239252277821,"436":0.12623836186717247,"437":-0.5159172246068937,"438":0.09832531394275279,"439":0.11424788549906603,"440":0.14617658585531232,"441":0.16878628023633255,"442":-0.07650919985177315,"443":-0.04800864159480869,"444":-0.021004646734900725,"445":-0.06171088128051037,"446":-0.0019444897154566104,"447":0.37099584131192226,"448":0.2365036644793477,"449":0.17102838263960948,"450":-0.37693335695959035,"451":-0.11446947084970928,"452":0.08085460836411498,"453":-0.022321791097430745,"454":-0.015112700854665628,"455":-0.012210279583186613,"456":-0.1268945225441408,"457":-0.03153116229117568,"458":-0.01206651575851017,"459":0.006235142634647492,"460":0.05249293895716086,"461":0.10405913686077846,"462":0.23146639171181843,"463":-0.3014528510856845,"464":0.3838150730064699,"465":-0.09577193789070589,"466":0.1880407823280579,"467":0.17863996904485147,"468":-0.003937605605487438,"469":-0.09656925115893499,"470":-0.04591107445657416,"471":-0.09992316447633484,"472":-0.009317841979105701,"473":-0.3213783744821313,"474":0.14554906477704,"475":0.4234264865837909,"476":-0.050793587615696065,"477":0.07569761773711318,"478":0.140528042974587,"479":0.04293800015105547,"480":-0.3740889984789221,"481":-0.005430606616774843,"482":-0.07293722980292067,"483":-0.08217126707201794,"484":-0.1533847162794132,"485":0.06041530018409448,"486":-0.10741717928459021,"487":0.11303899606742468,"488":0.4930632852127835,"489":-0.11289657335094941,"490":0.4760743044557679,"491":-0.18157128018399488,"492":0.3852989867613759,"493":-0.15097298291165345,"494":-0.038727959628317314,"495":-0.07231242545461573,"496":-0.03396609892693841,"497":-0.07258077104149714,"498":-0.05120898607458329,"499":-0.16864438384999803,"500":-0.35412845551545274,"501":0.5334800857939179,"502":-0.4040843096815845,"503":0.3259516226936106,"504":-0.31556680925666747,"505":0.17489603363736267,"506":-0.005092748126529263,"507":-0.12121665183471168,"508":-0.05223441668638225,"509":-0.020692810940846604,"510":-0.0802007558202414,"511":-0.04653625680191773,"512":-0.05364565349457396,"513":-0.5066262672520426,"514":0.41774899110072006,"515":0.09093297694463899,"516":0.4669519285938549,"517":0.09664563900168771,"518":0.3775487143208428,"519":-0.264242101355383}},{"sx":1,"sy":1,"depth":520,"w":{"0":-0.005397697676036589,"1":-0.018418112084970042,"2":0.013721336509471292,"3":-0.01228286389585513,"4":0.005359169352264501,"5":-0.01231261641826678,"6":-0.03949546260437859,"7":-0.02283687183073762,"8":-0.03569548595064545,"9":0.03237128646661318,"10":0.009892459276688985,"11":0.06656034728419057,"12":-0.02854223900459022,"13":0.05974215327885377,"14":0.06465075452105541,"15":0.09736675021595097,"16":0.06183219229389749,"17":0.0045499001211041,"18":0.03326626842688247,"19":-0.011323853679327922,"20":0.0051704255757721845,"21":0.06931990740349622,"22":-0.008094782321931815,"23":0.031790318684040975,"24":-0.09667087503211429,"25":0.06913093907178759,"26":0.014259176680697193,"27":-0.06584876646840784,"28":0.047793578136128646,"29":-0.0011419880439665013,"30":0.07091825566702767,"31":0.018081578606505805,"32":0.06202460121903641,"33":0.04805504022613895,"34":0.036184492051198607,"35":-0.03501592803278027,"36":0.007090185683684552,"37":-0.00829016284646316,"38":-0.03263600509718492,"39":-0.028937515603833296,"40":0.02502181314832871,"41":0.05998682867188126,"42":-0.006474733101557439,"43":-0.02377825950978262,"44":0.07646635816946831,"45":0.07374999981715202,"46":-0.017828792334664723,"47":-0.021334955087736,"48":-0.0017181786556919433,"49":0.0457435489339193,"50":0.04154492643010519,"51":0.05045231918791234,"52":-0.002373920783273569,"53":-0.015633183011451002,"54":0.007868613771033595,"55":0.05644584084579958,"56":0.06000564338581788,"57":0.018569009657867334,"58":0.08006671703254399,"59":0.1127337231100328,"60":0.011380864549644031,"61":0.06106576243065599,"62":-0.031296368646096244,"63":-0.0007799245926408754,"64":0.04689039600151207,"65":0.0014645977266584634,"66":0.0002799934342917894,"67":0.05335948189206613,"68":0.04620074486426908,"69":0.03881291606501553,"70":0.014033702043839382,"71":0.06184627404096622,"72":0.1156953664837479,"73":0.06939637201949686,"74":0.041595888646867925,"75":-0.021694482102048152,"76":-0.007671350251692922,"77":-0.03942869017116268,"78":0.05327796583245673,"79":-0.03757750716381809,"80":0.017703319507809148,"81":0.0365009127533426,"82":0.03369308949740215,"83":0.01843961516238223,"84":0.019350152520149044,"85":-0.022339773173157385,"86":0.06504799705908097,"87":0.07889487685081283,"88":0.03029219761132075,"89":-0.05653006508291747,"90":0.07469721563739116,"91":0.036480495715963,"92":0.08446570274641085,"93":-0.0022615179142547468,"94":-0.03405471756639589,"95":0.023646780723626692,"96":0.046961368758161086,"97":-0.00713406184555556,"98":0.006901212475373079,"99":0.04227475213901354,"100":0.06397682257113613,"101":0.04467545293936172,"102":0.004326614479243883,"103":0.05131450021457192,"104":-0.020968458644821976,"105":0.039711275525454864,"106":0.02505827678715653,"107":0.013500168023903426,"108":0.018749197097306766,"109":0.061985708876322924,"110":0.11438775283033395,"111":-0.021924406049075976,"112":-0.03565217858108245,"113":0.1160733338005517,"114":0.02492033588916203,"115":-0.007969527213632198,"116":0.02859481679013958,"117":0.07734469194832197,"118":-0.027376315058235828,"119":-0.019575460738343306,"120":-0.013710520031828315,"121":-0.060773548695231494,"122":0.02724194413919288,"123":0.01805769916471506,"124":0.04726703528043175,"125":-0.03530802341469703,"126":0.029372460010165784,"127":0.05986356198451581,"128":0.007343762040036284,"129":-0.002128313783644868,"130":-0.020970514589513285,"131":0.024358149483153308,"132":-0.047048863342874975,"133":-0.03215426497650792,"134":0.08511715625953499,"135":0.10319189695665654,"136":-0.01582329735532768,"137":-0.06000365568106267,"138":-0.018655981167918983,"139":0.03549525603567321,"140":-0.05594240614459775,"141":0.05215872423126775,"142":0.061439567662973336,"143":0.003036130379026731,"144":-0.047992756112493956,"145":0.0229485845048796,"146":-0.01552410363613441,"147":-0.00016135797517597862,"148":0.03923096406250411,"149":-0.018570441704463928,"150":0.02049650351543015,"151":0.060484864357705385,"152":0.025008945096811293,"153":0.035681973634392114,"154":0.02050183020760871,"155":-0.06564811605644798,"156":-0.014504050279029648,"157":0.0060993590738719515,"158":0.0013578119754169586,"159":-0.012397827907126905,"160":0.09370877035445972,"161":-0.0467214895241748,"162":0.01766671464476852,"163":0.01217944003068707,"164":0.007171642264094895,"165":-0.028536720822145797,"166":-0.015118649739309188,"167":-0.0018187274860154853,"168":0.06258301047496584,"169":-0.002803485183910462,"170":0.040961138822062634,"171":0.045343124642903215,"172":-0.014303678239902473,"173":-0.008732941872398195,"174":-0.008780553428611806,"175":-0.027968488568261028,"176":-0.02878249526486451,"177":0.018206651070144075,"178":0.02072369301529966,"179":0.03173939335421775,"180":0.002592418963995867,"181":0.1038778003283544,"182":0.025758614603529635,"183":-0.04566631933761831,"184":-0.007108810655997745,"185":0.02931923685894484,"186":0.007620865079243033,"187":0.006440967359112995,"188":-0.0018388217410006842,"189":0.03665435884060006,"190":0.045896244639570316,"191":-0.02005678307256618,"192":0.08091389339115747,"193":-0.05553306207841205,"194":0.09638076359581867,"195":0.06968942901439076,"196":-0.017240032510417436,"197":-0.02721057059765478,"198":0.03541517450979612,"199":-0.006073257780239414,"200":0.08813162305323972,"201":0.045794908232213306,"202":0.017232240587317423,"203":-0.024378434171955402,"204":-0.004992162378631977,"205":0.0049816517433958615,"206":0.0129141962327688,"207":0.044662471577505525,"208":0.023442964877282303,"209":0.06644433955833146,"210":0.02838295392533689,"211":-0.0400182967001681,"212":0.08854473581039386,"213":0.11144899083285308,"214":0.07658099818079232,"215":0.049381399736007775,"216":0.07501846612867645,"217":-0.0210425149006049,"218":0.06139786744723527,"219":-0.03980699607327982,"220":-0.02011237493771539,"221":-0.03747557769948287,"222":0.06145039996233989,"223":0.014943000508782148,"224":0.07153470175274806,"225":0.03719154048746309,"226":-0.021877826740977015,"227":-0.008053101216659638,"228":0.017023608651501713,"229":-0.005883720193818401,"230":-0.0007019938321649832,"231":-0.0493652622255711,"232":-0.00015396418137181853,"233":0.03053777303726969,"234":0.02727615509338296,"235":0.07831781111128538,"236":0.03885074233790485,"237":-0.0028828373289337436,"238":0.12211579255069545,"239":0.02370743005186501,"240":0.04572165316752966,"241":-0.03158288824362802,"242":-0.025270083934529976,"243":0.010794562432744155,"244":0.03286601066709479,"245":-0.009772184279471508,"246":-0.03565953038831339,"247":0.013319541356141752,"248":-0.04112910775338629,"249":0.005383132720783299,"250":0.05089197441351966,"251":-0.02828607381359568,"252":0.027658116683879755,"253":0.06335205071102135,"254":0.09583739567077768,"255":-0.030960969370994178,"256":-0.009873571338197943,"257":0.029822289573139663,"258":0.00956128011726247,"259":0.1503075210712249,"260":-0.013182680185530227,"261":-0.0516065604538452,"262":0.11607708837245466,"263":0.032566752626753015,"264":-0.020331662966423178,"265":-0.03844413952538538,"266":0.148349934306129,"267":0.018522506804028626,"268":0.0889804123062932,"269":0.011221750219355916,"270":-0.00500057043009768,"271":0.04568200760764414,"272":0.07226064200418048,"273":-0.02034137076229301,"274":-0.010917476344066937,"275":0.05275210735693429,"276":0.0433439867603937,"277":-0.009678348725185783,"278":0.017489161383709526,"279":0.013706423729012747,"280":0.06258813471997048,"281":-0.03117461817655876,"282":0.006783876418726795,"283":-0.008563070231100455,"284":0.0849459992705556,"285":0.013902513442091652,"286":0.07654185269032265,"287":-0.013965313746205249,"288":0.1633225241795074,"289":0.01216493653109244,"290":0.05889312831349556,"291":0.05433291430970986,"292":0.10606930209370134,"293":-0.021198595173994243,"294":0.004500816718845939,"295":0.08920262949826312,"296":0.0693484327951238,"297":0.07766155916820185,"298":-0.030906275791281804,"299":0.07253176490715105,"300":0.0007164621717318399,"301":0.012258174405524498,"302":0.04835937255423376,"303":0.0009661517737050084,"304":0.05451080982815066,"305":0.02463451635823389,"306":0.005534471867344859,"307":0.04521865031742144,"308":0.11216152058864665,"309":-0.002288657058873834,"310":0.025198939221388637,"311":0.07435170148228593,"312":0.03400812473556431,"313":0.12730036524805943,"314":0.004371717959585728,"315":0.09876309521462044,"316":0.054055086925089056,"317":0.05592692448270349,"318":0.04671842158880965,"319":-0.018023619498521545,"320":-0.0069647382404016,"321":0.007480703561272123,"322":-0.028472216504921023,"323":0.02903333275736575,"324":0.03902568458390811,"325":0.03158657457375438,"326":-0.007276444120441173,"327":-0.015177376928706226,"328":0.0540717383836713,"329":0.03679088589907587,"330":0.10115338477224797,"331":0.09213195638200487,"332":0.04082720914541483,"333":0.048383842977197014,"334":0.00935508392002221,"335":0.056327171174261316,"336":0.020908561530137926,"337":0.016525462579427292,"338":-0.028137785789415778,"339":0.009972646125555986,"340":0.04290128679312882,"341":0.03385980529115179,"342":0.04069376065087863,"343":0.004256252882817785,"344":-0.041231250020260665,"345":0.011204404968621203,"346":0.04492721339874183,"347":-0.0434950277401246,"348":0.055975967032460196,"349":0.05888004077220368,"350":0.0473640262003657,"351":-0.010474249143643605,"352":0.05954559034060605,"353":0.05896138504502335,"354":0.01512072776969275,"355":-0.028715778388949245,"356":0.04025956048354752,"357":0.03672429365777341,"358":0.08683383745836636,"359":-0.0652151751012019,"360":0.08404428355290124,"361":0.0829459224011477,"362":0.06136154953575454,"363":0.008326814042095279,"364":0.04243389457597214,"365":0.10941296182305875,"366":-0.00006739381393552178,"367":0.040291772091648144,"368":0.05233786926692718,"369":0.03643532107009022,"370":0.017604476113286284,"371":-0.019381859667143952,"372":0.014185760102866776,"373":0.03012515750417721,"374":0.05675526488550217,"375":0.03492798162290697,"376":-0.021038804947797838,"377":-0.0014020184361601057,"378":-0.023529111564950102,"379":0.00992948859420475,"380":0.06219324271097979,"381":0.0455989417980353,"382":0.039080001361285324,"383":-0.029112805780026185,"384":-0.01184027138550317,"385":0.02810769218645389,"386":0.0029954135028921634,"387":-0.007378279701090459,"388":-0.02108732502332095,"389":-0.013896691827300797,"390":0.030301984288840456,"391":0.0668622272661907,"392":0.009388323205760801,"393":-0.009948570139061098,"394":0.00614116228170601,"395":0.02973335567938241,"396":0.00007288295137529843,"397":0.0390700462332782,"398":-0.009444600098709005,"399":0.051998122622476925,"400":0.05025046521066505,"401":-0.02721230471465212,"402":0.03472398688016033,"403":0.03806467872029705,"404":0.018792509079094737,"405":0.03341075852743469,"406":0.009327266756607373,"407":0.022614388462281098,"408":-0.07079056425180989,"409":-0.042103975593528256,"410":-0.023945940596975933,"411":-0.05512471234584678,"412":0.05324688099485842,"413":0.04043975301484154,"414":0.00813842997057876,"415":0.03868453772336723,"416":0.0046566683397621066,"417":0.005032309814157564,"418":-0.03814390630227114,"419":0.039729998317222244,"420":0.041191843167217204,"421":0.03367134303132597,"422":-0.05112271296495349,"423":-0.014625645300060174,"424":0.06686857952148537,"425":0.031683780833875075,"426":0.00042278599435461754,"427":-0.0018330765214869477,"428":-0.11462514745910413,"429":-0.006211928126528499,"430":0.007658301945227232,"431":0.029691790561440962,"432":-0.034903326230042,"433":0.034209519020924686,"434":0.03526166997464271,"435":-0.007922465758038339,"436":0.016473547908552703,"437":0.08113948721333301,"438":0.0007279726234483312,"439":0.034649699776029066,"440":0.0280338870482848,"441":-0.0152489028485534,"442":0.025175382657329583,"443":-0.009730210883904382,"444":-0.006752258046283354,"445":0.019502350171600347,"446":0.025723650737103747,"447":0.06010986458579667,"448":0.08529007167562477,"449":-0.0006678826118442929,"450":0.0963012577136293,"451":0.01782909537028623,"452":-0.015673866801421726,"453":0.08113327023899708,"454":-0.018349616780125692,"455":0.010175470566203585,"456":-0.001726982803740639,"457":0.05190321182060445,"458":-0.09121093621360865,"459":0.014283067795215161,"460":0.08750956789652568,"461":0.051719166892786515,"462":0.06558246312282884,"463":0.07490044775639161,"464":-0.003043336507969222,"465":0.009376590875177844,"466":0.11425281333208231,"467":0.05904370287630337,"468":0.09540411748855601,"469":0.008420333720073093,"470":0.012433771771315334,"471":0.07167390476959597,"472":0.022465411062864923,"473":0.05647776784773955,"474":0.04302395493093628,"475":0.03480697227893797,"476":0.0008386559117253127,"477":0.002064722815951311,"478":-0.05218932597407644,"479":-0.016389118399571953,"480":0.04573355057040009,"481":-0.007319113389909612,"482":-0.11142205807060634,"483":0.03414567274328889,"484":0.009726059672890933,"485":-0.01352121115327634,"486":0.09486924977456608,"487":0.010018361740514034,"488":0.12052241404249148,"489":-0.03269236845380222,"490":-0.07700342522006416,"491":0.057328032028023695,"492":-0.0016846995510870941,"493":0.04138892640157922,"494":0.037113825647820495,"495":0.005640263020189037,"496":-0.015975550089160948,"497":0.054998156353285615,"498":0.05279283705750331,"499":0.03838903750936321,"500":0.03751692916829468,"501":0.08847289416704744,"502":0.04099230439283216,"503":-0.012438926043181244,"504":-0.0334451388681082,"505":-0.035961218335927324,"506":0.026805134347157027,"507":-0.012399655597695031,"508":-0.007656828348310858,"509":-0.0161336020234167,"510":0.002237840583137803,"511":0.06176775425140924,"512":0.007522756513345719,"513":0.07240227797723624,"514":0.10910318786087998,"515":0.01068162919748213,"516":0.04144175778062694,"517":0.03949824066187358,"518":0.07236253367209032,"519":-0.07545201807902396}},{"sx":1,"sy":1,"depth":520,"w":{"0":0.13454704484604196,"1":-0.026490604285528414,"2":0.23652836800251698,"3":0.008018792654577547,"4":-0.049011358728396716,"5":0.26857041848654,"6":-0.12503702560703608,"7":-0.18633165168055138,"8":0.3413994864141861,"9":0.2787755725160206,"10":-0.0943326214188278,"11":-0.3171253488695199,"12":-0.028581638172339476,"13":0.15416239564104767,"14":-0.10366078241692173,"15":0.131215638340594,"16":-0.005929540324064593,"17":0.10607077753703167,"18":-0.1939877986218238,"19":-0.2869697214666361,"20":-0.01640653545080069,"21":0.39396412940016956,"22":-0.03650498861580344,"23":0.15103707184306042,"24":0.006734860047795885,"25":0.08593302811180777,"26":-0.08722484854787345,"27":0.09775082131882003,"28":-0.20830212084535868,"29":-0.01945861256593434,"30":-0.020450501812980616,"31":0.05147658442103595,"32":0.20408687308075796,"33":0.04344612236454559,"34":0.20253303743581344,"35":0.18999741820520735,"36":0.3919494172443588,"37":-0.29921985110177474,"38":-0.023300743954916686,"39":0.09793995744157076,"40":0.007184053233505174,"41":-0.004052471586895798,"42":-0.08935242666185765,"43":-0.19890972745586807,"44":-0.0663629168062748,"45":-0.02869495530990783,"46":0.06498802936764098,"47":0.5672600236960404,"48":0.34585458563525984,"49":0.22382677349170346,"50":0.06895422338197708,"51":-0.005238594841160558,"52":-0.13619940882325932,"53":-0.06844396485091231,"54":0.034256978616146516,"55":0.02989656172758405,"56":-0.011918328202173778,"57":-0.009723252216190827,"58":-0.10086673772701912,"59":-0.2523213930085153,"60":0.6429470346068876,"61":0.17244678372632039,"62":0.20232481386361417,"63":-0.10449109979116028,"64":-0.044077211360996765,"65":0.02887799072600429,"66":0.07214944900551384,"67":-0.3435662746286078,"68":0.1621916361928064,"69":-0.08463415496803862,"70":-0.21232935100875613,"71":0.17990845682807247,"72":0.11539412713955206,"73":0.3571242855629681,"74":0.4116852354573983,"75":0.21847744921959916,"76":0.10514679827331244,"77":-0.0024408191869277856,"78":0.18175440013981847,"79":0.16220326141906652,"80":0.010436306459399304,"81":-0.006916978424787317,"82":0.17988233160305997,"83":0.012749117102947516,"84":0.13340233979072716,"85":-0.10393829585193307,"86":0.03968655526671755,"87":0.2231741708325952,"88":-0.06415678960051306,"89":0.11846564560870504,"90":0.007969504069155878,"91":0.12196078532409058,"92":-0.11429146649006702,"93":-0.0792552266532646,"94":0.08819885374933305,"95":-0.21944472220146272,"96":0.050722892026152884,"97":0.15499168452083653,"98":0.11398453485773,"99":0.06278603552925976,"100":-0.011587235882955902,"101":0.10536096567230945,"102":0.1952641745904856,"103":0.0036405410682210752,"104":0.35865836599561685,"105":-0.0638696836325892,"106":-0.051420270962830306,"107":0.12632151505167122,"108":0.034132173564969046,"109":0.284784471235938,"110":0.15600369123731975,"111":-0.04174451201704837,"112":-0.14157372234566099,"113":0.25793180192434534,"114":0.03530487126086092,"115":0.2690432112645634,"116":0.026792621510056465,"117":0.3343140223053638,"118":-0.006859052671730183,"119":0.1809497337271804,"120":0.21883271794926612,"121":0.11490532880344625,"122":-0.10432885178284754,"123":0.17472985982364073,"124":0.06764785169660006,"125":-0.04210513554708625,"126":0.08700824638876203,"127":-0.15782262604666497,"128":-0.05443799640303584,"129":0.04887779672296969,"130":-0.03786202788594527,"131":-0.06154543657000911,"132":-0.028309620535477732,"133":-0.0924127688732542,"134":-0.2741043007092693,"135":-0.18507782881141605,"136":-0.09702469346281709,"137":-0.04413331025712796,"138":0.058286044832032306,"139":0.30080145223705335,"140":-0.17799781377167678,"141":-0.01681667016833945,"142":-0.02663600929699957,"143":0.14609056996462885,"144":0.2235656381039861,"145":0.0035362807109796278,"146":-0.20733003288413074,"147":0.10428148902258777,"148":-0.21339892241328393,"149":-0.07024200272106235,"150":0.08283306709285289,"151":0.15194155214072966,"152":0.378951402712614,"153":-0.13613955282081963,"154":-0.052843534486976936,"155":0.0775621821809962,"156":0.06790283704183328,"157":0.11606942005954829,"158":0.14666938228272597,"159":-0.021966681031500943,"160":0.17810461741548075,"161":0.04378485621695213,"162":-0.3312002545975374,"163":-0.10315490169430423,"164":-0.0105638359931153,"165":0.0920769738415053,"166":-0.005410236509575713,"167":-0.19243240095168865,"168":-0.04509315059513446,"169":0.27008301571413446,"170":0.014703558798484624,"171":-0.03342111702916849,"172":-0.15090784354857548,"173":-0.008562505103188296,"174":-0.09263569179319638,"175":-0.14005079288156227,"176":-0.2546982471371455,"177":0.00772784904045095,"178":0.36165374595784056,"179":0.03356306461739054,"180":0.01753965257766478,"181":0.00997298373026883,"182":0.23758891539030452,"183":0.13896372764103987,"184":0.0959528145239593,"185":-0.14182421362618233,"186":0.11445544878314927,"187":-0.34597991506988107,"188":0.09709255168313852,"189":-0.06848950770662127,"190":0.05495087630411994,"191":0.215755660437451,"192":0.14016231539419227,"193":-0.016796773604281032,"194":0.018838088137561226,"195":0.12553495012183952,"196":0.0910283131220691,"197":0.3078534294164297,"198":-0.12368785844013398,"199":-0.08913859262711432,"200":-0.5526324446810827,"201":0.008981814541907416,"202":-0.1538370747128052,"203":-0.10351785253030628,"204":0.14143577641233185,"205":0.0808844042110368,"206":-0.0028031213792332095,"207":-0.035163603089602105,"208":0.12211474132436285,"209":0.0899916995318705,"210":0.3840374092753388,"211":0.2124953707706305,"212":-0.3964331530135696,"213":-0.36763410035605926,"214":-0.32376871804734464,"215":-0.187399568500113,"216":0.04539715804599317,"217":0.14197540347419874,"218":0.244422089773355,"219":-0.014029781991304132,"220":-0.017777007477775112,"221":0.1635466081575543,"222":0.1905177828927627,"223":0.2132095584017583,"224":0.09013914803324378,"225":-0.13763243035164555,"226":-0.2510127069008883,"227":-0.4357625343266571,"228":-0.00968060821937448,"229":-0.04642919721348041,"230":0.1012429063096865,"231":0.1454464181919327,"232":-0.06712989527041575,"233":-0.009224011620876327,"234":0.19149407907091923,"235":0.08253471774548052,"236":0.1821371284166182,"237":0.3914254552289173,"238":-0.2895715610910488,"239":-0.25237324137742134,"240":-0.0038901460095505,"241":0.18322342960975707,"242":-0.004614445624361346,"243":0.25343524451616467,"244":0.08893155757376568,"245":-0.046390650854046804,"246":-0.057871127925760206,"247":-0.08393091604275806,"248":0.2972857472049966,"249":0.29716135715048175,"250":0.35061223873708613,"251":-0.2072650124502894,"252":-0.1924055031129631,"253":-0.22482051066092268,"254":0.2514319393182381,"255":-0.016266642146743407,"256":0.3181023696177734,"257":0.09410662790278035,"258":-0.09853195753047116,"259":0.14385344848285186,"260":-0.06220106289806357,"261":0.36672233929012327,"262":0.26801911014959506,"263":0.14953066492002054,"264":-0.12455007868662371,"265":-0.4203461171154453,"266":-0.09656285157640608,"267":0.16772947101325192,"268":0.3365567290937321,"269":0.31081753795978617,"270":0.2459671155079113,"271":0.2585711940445384,"272":0.05841855890971207,"273":-0.16012348114752964,"274":0.3138851871735887,"275":0.2948256952648766,"276":0.1154424019431832,"277":-0.5596121640990189,"278":-0.5195444369862349,"279":0.04851608907106301,"280":-0.033622509108615195,"281":0.2504020644174031,"282":0.4066355180760553,"283":0.48328160885754606,"284":0.19723438896012505,"285":-0.007835107820423657,"286":-0.04979213314570847,"287":0.5484191775149619,"288":0.18179802101565068,"289":0.29146636296092443,"290":-0.3117168525574381,"291":-0.6250086551147351,"292":-0.39171756747648395,"293":0.005906133920160586,"294":0.024827901916617736,"295":0.45452099103105903,"296":0.2470536594803087,"297":-0.14246883464193236,"298":0.052876387657021046,"299":0.3012866419043397,"300":0.24999532944484656,"301":-0.06061267709749733,"302":0.2440156374303202,"303":-0.1066751198332198,"304":-0.2977387517881707,"305":-0.6854380561686568,"306":0.2538056663547666,"307":-0.08687480600415505,"308":0.10089092736677835,"309":0.3183514386157716,"310":-0.034505446441395124,"311":0.010146930168036009,"312":0.18882109261276875,"313":0.42076196542375927,"314":0.2312844737869349,"315":-0.1955102617369478,"316":-0.5007622863144507,"317":-1.0112175502716514,"318":-0.24740924737720277,"319":0.3830302972486289,"320":-0.23219553251940586,"321":0.052262494616058745,"322":0.07948427192790807,"323":-0.11644284205078775,"324":0.11709171437432134,"325":-0.0867860746467099,"326":0.2692166204981638,"327":0.11142266907522914,"328":-0.30686093739930126,"329":-0.20879456130201562,"330":-1.1570067149124597,"331":-0.16233834336306696,"332":0.1843016498336263,"333":-0.13156335423258217,"334":0.08244072800187628,"335":-0.00426898305363479,"336":-0.11571262943202251,"337":-0.005945653404569408,"338":-0.10688514348799688,"339":0.1532980578871026,"340":0.14776223229213908,"341":-0.29182329803146734,"342":-0.11496379578740838,"343":-1.1548748188757803,"344":-0.44947028121891625,"345":0.3580674539714298,"346":0.10165605668287528,"347":-0.03359581884671192,"348":-0.09906003405553643,"349":0.25656982167315795,"350":-0.03269210152939761,"351":-0.061721812173718,"352":0.10222283912118159,"353":0.23614700160380853,"354":-0.08673300579561989,"355":-0.08837413647514236,"356":-1.246168463568137,"357":0.38599924157820226,"358":-0.14295809930599776,"359":0.42955113958579105,"360":0.23486833649893027,"361":0.050854967791607,"362":0.17126699150476724,"363":0.009506263178078534,"364":-0.0020580429171829042,"365":0.04760233136409115,"366":0.11793543345893627,"367":-0.12565437707382018,"368":-0.13491919629944785,"369":-1.6726589379839583,"370":0.7069922961397295,"371":0.4727345922368602,"372":0.12405121629399497,"373":0.27586128643824986,"374":0.16781345379405163,"375":-0.003226799242707482,"376":0.09741924483837569,"377":0.048450824936280154,"378":0.1689718314978612,"379":0.09239902989893553,"380":-0.06762878236735942,"381":0.006468062968271739,"382":-1.657360858125644,"383":0.8327559811143441,"384":0.5708456338591031,"385":0.11634329154175904,"386":-0.11383864665733241,"387":-0.2313945273698103,"388":-0.12955023715052164,"389":-0.011613515760235114,"390":-0.22966144825107898,"391":-0.1075395532184914,"392":0.25110062832136987,"393":-0.26744871479305093,"394":0.28241173090184424,"395":-1.0914126501162145,"396":-0.14815665925702243,"397":0.42752847946302847,"398":0.3246566041094745,"399":0.1469187227261946,"400":0.1229390879934029,"401":-0.4017551093668824,"402":0.056792859216423505,"403":-0.28565971615596397,"404":0.08854662793015729,"405":-0.03967448267901289,"406":0.16243843691932003,"407":0.04482481054868455,"408":-1.0027504988511287,"409":-0.1359768733842485,"410":0.5247273451156585,"411":0.12049224935305361,"412":0.05223505120015104,"413":-0.003074371291640718,"414":-0.33065486740434874,"415":-0.059422201008443656,"416":-0.1434664919509043,"417":0.17650453810967007,"418":0.11478936859104098,"419":-0.05696526896001962,"420":0.003067527367175257,"421":-0.85607392832012,"422":-0.08357684663059986,"423":0.2235876061920686,"424":-0.3218343343283993,"425":0.12039979737393872,"426":0.018961999109063585,"427":-0.22772581057268268,"428":-0.00686322328599094,"429":0.006490447500530803,"430":0.2790101477227052,"431":0.05273895017178127,"432":0.07587583407097934,"433":-0.13782695418782787,"434":-0.9862060528782417,"435":-0.1398836228804046,"436":0.25323448754645145,"437":-0.3527016892584493,"438":0.35936070995926894,"439":0.18403622072835749,"440":-0.01826003588063569,"441":-0.05014138901840075,"442":0.43418090087091915,"443":0.05734966589770997,"444":-0.0189897695089718,"445":-0.09694691912739095,"446":0.08163974891495958,"447":-0.46784117319752216,"448":1.238958217433511,"449":0.4743333233040626,"450":-0.12378481752110986,"451":-0.12120748418681074,"452":0.38051656622781677,"453":0.13065854681321942,"454":0.10719133430370748,"455":0.04831321172662221,"456":0.12070697587608746,"457":-0.01571142023949005,"458":-0.2684311627604591,"459":0.3369298795898309,"460":-0.49594043130772936,"461":1.2216999054236035,"462":0.6852233689404293,"463":-0.018301350107110786,"464":-0.32268758170964473,"465":0.08608967000570843,"466":-0.06198397227952216,"467":0.05412447438656759,"468":0.13526479128075164,"469":0.07826181271019739,"470":-0.04476817797119713,"471":0.19865680010795914,"472":-0.08982776860997542,"473":-0.19134773631846172,"474":1.0761570028042402,"475":0.34028681042454084,"476":0.16307159074179145,"477":-0.03567486721012412,"478":0.14593223127017702,"479":0.1486652599304419,"480":-0.016892415423338893,"481":0.35714168717338135,"482":-0.04520356953644883,"483":0.056808444335884875,"484":-0.09977993968078044,"485":-0.16016617673105887,"486":0.2947668596001817,"487":0.0516086736008542,"488":0.11447665936625046,"489":-0.05659845124377562,"490":0.07534632578875984,"491":-0.04479435978584707,"492":0.16145288835071722,"493":0.03325806713804133,"494":0.4889550205818848,"495":-0.02848151856624382,"496":-0.2238666915430724,"497":-0.00625850094131703,"498":0.022632697144362814,"499":-0.09093302072913684,"500":0.11938317260923326,"501":0.11847975389113206,"502":0.034002619182310914,"503":-0.051602542340906485,"504":-0.23707457732331014,"505":0.10248590988048227,"506":-0.035727743276390736,"507":0.37084712951179105,"508":-0.26357104879725257,"509":-0.1423715617485074,"510":-0.3463195284472366,"511":0.15384548101899914,"512":-0.12550266824005996,"513":0.17889271102393361,"514":-0.058604978923525106,"515":0.14605613589057334,"516":-0.06977390706503832,"517":0.0868145948365018,"518":0.22207048165710777,"519":0.004762169311497192}},{"sx":1,"sy":1,"depth":520,"w":{"0":0.040281654114939426,"1":-0.3654876973166626,"2":0.3128894945109843,"3":0.42177397608902834,"4":0.07322156869001381,"5":-0.08790927184641434,"6":-0.11717814696929202,"7":-0.19844116961832506,"8":-0.2525212378307156,"9":-0.056663757374256336,"10":0.06500360744423045,"11":0.22006197180210207,"12":0.5162750959580682,"13":-0.5612045251456481,"14":-0.3686180153841328,"15":0.12494694463889608,"16":0.264303206318292,"17":-0.16401234989724414,"18":-0.1018831073432699,"19":0.32793775292139715,"20":0.14609449288055276,"21":-0.286799230064476,"22":-0.14885963041922748,"23":0.1810196101992274,"24":0.23968641609743804,"25":0.20652159899015288,"26":-0.2687935239038183,"27":-0.5985670155779179,"28":0.24459795170889476,"29":0.27709060018867276,"30":0.20831984187457503,"31":-0.0749943273738806,"32":0.22799539156471435,"33":-0.2944536784578655,"34":-0.14010732774523604,"35":0.0033859679508956003,"36":0.053210161499547395,"37":0.1434253136053492,"38":0.2955704258585772,"39":-0.3070837599384565,"40":-0.6214184252348074,"41":-0.234469813621529,"42":0.1036202156067592,"43":0.29856527107383424,"44":0.04318466792850104,"45":-0.12499810737226581,"46":-0.1732425491121731,"47":-0.3427359143123071,"48":-0.1615175864341643,"49":0.40162199303513185,"50":-0.10589048783958196,"51":0.3574005476853827,"52":-0.5317228081157027,"53":-0.6986406626975954,"54":-0.15675375841680417,"55":0.018048103886640212,"56":0.5001249348188587,"57":0.25767182614923834,"58":-0.16132712116775225,"59":-0.13405758770418458,"60":-0.20195569395419743,"61":0.1346453719203863,"62":0.2577658235042137,"63":0.28962902755129655,"64":0.2764881396851668,"65":-0.15693900048884615,"66":-0.23154272351094146,"67":-0.06813016333239798,"68":0.08978582503266089,"69":0.07323089978154634,"70":-0.6164562626758341,"71":0.11747149717835743,"72":-0.20514759889048736,"73":-0.42646150028810575,"74":-0.13540816933954383,"75":-0.04898756593254223,"76":-0.21955364492949034,"77":0.3815729476324105,"78":-0.06689249989643198,"79":-0.19156995636093996,"80":-0.043883470596103945,"81":0.0499063830378757,"82":-0.11227639922645256,"83":-0.07404393192922419,"84":-0.06565588107048725,"85":-0.4335647145754755,"86":-0.4093311483815377,"87":-0.08104641761624436,"88":0.015187094954822237,"89":0.1410465414820772,"90":0.16187855198927587,"91":-0.059557737744505436,"92":-0.050485116021222604,"93":0.07616856067951289,"94":0.02397216689357526,"95":0.19614867195917926,"96":-0.5495125807112661,"97":-0.03422874561914705,"98":-0.12360694361120944,"99":-0.26504869246154034,"100":0.35933137450754393,"101":-0.11102470307604298,"102":0.15574506129908053,"103":0.26250791375679966,"104":-0.06325859141112046,"105":-0.011184122981872498,"106":-0.07164721970379598,"107":0.22850865360401645,"108":0.18219520510433593,"109":-0.23178076545308407,"110":-0.1792982668414719,"111":-0.20432620613662159,"112":-0.23992309270470988,"113":0.19056922188494324,"114":0.1467308581752294,"115":-0.08946588853367339,"116":0.4830563238725179,"117":0.019014674641553715,"118":0.07833682651628517,"119":0.06208899973900345,"120":0.21520098359136922,"121":0.14175330594582364,"122":-0.2996690934931805,"123":-0.06369328287234678,"124":-0.08752508576904722,"125":-0.04742263782478252,"126":0.24789774291964145,"127":-0.5056151547455324,"128":0.4814496469524652,"129":0.2189456527944934,"130":-0.09737520192096408,"131":0.2323537115770847,"132":0.09670431727786388,"133":0.1799887738311634,"134":0.11162073712235818,"135":-0.26886640076558344,"136":0.06941198377420998,"137":-0.10772610266365647,"138":-0.16761130559888296,"139":0.43633127013819795,"140":0.15113680165271406,"141":0.2258145093331766,"142":0.3336297996336673,"143":0.010384210878546352,"144":0.11362331327953226,"145":0.18225907902538338,"146":0.10548209960327894,"147":-0.03713459390376185,"148":-0.25149892677463104,"149":-0.2889006136626624,"150":-0.263786663789187,"151":-0.38147305400786297,"152":0.11455905628428976,"153":0.2090691458210163,"154":0.05994722984457075,"155":0.21632563813328753,"156":-0.008254572062910612,"157":0.20165503686680253,"158":0.44944408698988314,"159":0.2486469673817713,"160":-0.17551513523236267,"161":-0.16122296276035772,"162":-0.4776397947235892,"163":-0.2613205383108067,"164":0.006056081278139671,"165":0.02691970957755417,"166":-0.021847470493357023,"167":0.25140207281136895,"168":0.11589896009311884,"169":0.03744816476107869,"170":0.319572376964667,"171":0.009993847066464182,"172":0.12209449696756926,"173":-0.06350317961813602,"174":-0.0281385422108609,"175":-0.5510314058775464,"176":-0.3679152294259248,"177":-0.19353271591221394,"178":0.011687151232112818,"179":0.15773190032609832,"180":-0.1500403896645674,"181":0.1840021473669832,"182":0.19502957641179408,"183":0.42740997422379023,"184":-0.1200490130692077,"185":-0.07888626330484849,"186":0.017611153493536993,"187":-0.414475759465815,"188":-0.7532216611685901,"189":-0.6623829862945917,"190":-0.06227334219917724,"191":0.030031722866894563,"192":0.020546699441493586,"193":-0.024054080688282943,"194":0.14108592939262327,"195":0.2330997768805723,"196":0.2778869461016404,"197":0.10631128346880678,"198":-0.039223112466141824,"199":-0.06174586603529013,"200":0.10251498166100949,"201":-0.9686300984801023,"202":-0.0962789665582476,"203":-0.5430758487821425,"204":-0.0018407957653777073,"205":0.1157477415352494,"206":-0.18517874715957308,"207":-0.4658183298386493,"208":0.18428563299234368,"209":0.3096357594017865,"210":0.18374534482453186,"211":0.11584211123211877,"212":-0.18688805227853617,"213":-0.264477899716874,"214":-0.6520155372057875,"215":-0.3092685250951714,"216":-0.6522916565548172,"217":0.614694601932477,"218":0.15509753227511622,"219":0.06537836272213447,"220":0.11556804275548556,"221":0.23387919117469244,"222":0.5571362808853405,"223":0.12599374994701423,"224":0.1303068221650165,"225":-0.24564685972556113,"226":0.11382566577427573,"227":-0.8706434354954566,"228":-0.29848657774435877,"229":-0.15247123571675963,"230":0.2667790253872643,"231":0.22569689332934625,"232":0.16138864186268287,"233":0.023168108828464377,"234":-0.07545947622323902,"235":0.4154610107724552,"236":-0.05356636061197335,"237":0.22590969658562773,"238":-0.25329889000320943,"239":-0.3982077815255382,"240":-0.9485484382507121,"241":-0.7232346058020734,"242":-0.2290423222840638,"243":0.05009931299546881,"244":0.2780252335069714,"245":-0.2735734774198141,"246":0.14947580541195152,"247":-0.15546979769597155,"248":0.35829660778667344,"249":-0.1681098101894382,"250":0.17223876532803797,"251":0.03849686078640427,"252":-0.14299396392459104,"253":-1.0513724644284137,"254":-0.5678644061855124,"255":-0.1966154333282363,"256":0.14833291651540578,"257":0.1651535463725235,"258":-0.3740446075455444,"259":0.7402721386138312,"260":-0.12368511955954599,"261":0.46529156357801366,"262":-0.24400227316304585,"263":-0.030058482242820362,"264":-0.0751419472381087,"265":0.215657090519511,"266":-1.2121052420946627,"267":-0.49881557897812395,"268":-0.055174238257194516,"269":0.02088687623580512,"270":0.08395455344486577,"271":-0.1497785233144658,"272":0.2886331832685992,"273":0.116654029046173,"274":0.42087022691049975,"275":-0.37892670626427777,"276":0.07961928192045674,"277":-0.13742317413921298,"278":0.00964896175752246,"279":-1.494335202889829,"280":-0.4956762872016612,"281":0.2825285381441047,"282":0.12204675873277762,"283":0.35196586558610465,"284":-0.07009724005486845,"285":0.14826656030665802,"286":0.272299238255467,"287":0.26402358206686893,"288":-0.015178539870729407,"289":0.05174366412232781,"290":-0.21834285250100136,"291":0.014104784895020227,"292":-1.1306423038474203,"293":-0.14562423113658518,"294":0.15554688980529158,"295":0.22963683992219894,"296":0.23167894396205735,"297":-0.04833778821795516,"298":0.14174257443866206,"299":-0.042541156250943124,"300":0.18526150662529828,"301":0.18945470105123,"302":0.12761487436875912,"303":-0.14587712401037387,"304":0.7821216984511559,"305":-2.297777412284942,"306":-0.1096570669650572,"307":-0.1542131484631252,"308":0.26874160366450506,"309":-0.022340617546149754,"310":-0.01066202563189457,"311":0.01669845086591219,"312":0.11842765403291775,"313":0.09563529385537328,"314":0.17051624820147196,"315":0.060884641827620274,"316":-0.1286282817346056,"317":0.476979844312215,"318":-1.3546483932102529,"319":-0.4851311201199508,"320":-0.14842318812926444,"321":0.8077219480162715,"322":-0.04022989895457759,"323":-0.2817101547617568,"324":-0.06770526382855012,"325":-0.2407988556929021,"326":0.2388539096915492,"327":0.3103579130611344,"328":-0.394244550292904,"329":-0.1516990707344792,"330":0.6170063029434377,"331":-1.7264702428690575,"332":-0.2583461874838169,"333":-0.10837847986044631,"334":0.6531540289092548,"335":0.03398460507258235,"336":0.25373900594035115,"337":0.13474758197075876,"338":-0.2340108875981627,"339":0.14609397702855614,"340":0.2084245860521411,"341":-0.08700074107089173,"342":0.2821803338595735,"343":1.1346310896590763,"344":-1.7322848571133862,"345":-0.37473351755496864,"346":0.11420268260632326,"347":0.13504440188999609,"348":-0.13736650375513232,"349":-0.0014909991905903471,"350":0.054942826452916406,"351":-0.22137579523684198,"352":-0.08561584314124321,"353":-0.02791833046594446,"354":-0.28575079577070744,"355":0.017996221482188334,"356":0.45414018160500363,"357":0.6705607009872305,"358":-0.3155266079159487,"359":0.4012291954507311,"360":0.04770788052815959,"361":0.03617425912235122,"362":0.1104186856599654,"363":-0.1614283793798637,"364":-0.2995459990589529,"365":-0.03393271315950583,"366":-0.2639872558650264,"367":-0.001909413127203043,"368":-0.2105590575594136,"369":0.5617306917746645,"370":0.8008352039165387,"371":-0.1033875719142969,"372":0.41694702357894137,"373":0.22011931823149128,"374":-0.15517264596492467,"375":0.06607369304457349,"376":-0.04865636555861814,"377":-0.08962847118028607,"378":-0.7344708550365396,"379":-0.27933130369389847,"380":-0.17174755688705642,"381":-0.11140572930874032,"382":1.3130428772733702,"383":0.892297473466903,"384":-0.29384353228012217,"385":0.2684984896755738,"386":0.07769178528909466,"387":-0.14166422875417212,"388":0.027300981810873353,"389":0.08437771861335729,"390":-0.10837459773060128,"391":-0.1350515940997105,"392":0.2384676305612023,"393":-0.051125219365447935,"394":-0.058553833715594486,"395":1.029823757975451,"396":-0.1368330498458665,"397":0.09221352866489321,"398":0.036962158922086596,"399":0.1972740225444097,"400":-0.06816887017765275,"401":0.14476442964953956,"402":0.11162013461518086,"403":0.02149851491548249,"404":0.14591092998819838,"405":0.09265734462417838,"406":0.06820686412085793,"407":-0.2695722964114698,"408":0.7542849742643332,"409":-0.08371146972924264,"410":-0.08290642228211967,"411":0.34706088966051174,"412":0.37528849555890775,"413":0.13165707292330342,"414":0.2948875567813925,"415":0.45803232608342676,"416":-0.12040327020655359,"417":-0.17295869474840062,"418":0.17980587794859862,"419":-0.011857630201391214,"420":0.037482507595591574,"421":0.8569094390847605,"422":-0.11595698577630666,"423":0.1722541027625362,"424":0.3854038576517747,"425":-0.457497782125903,"426":-0.031045967970547733,"427":-0.07021830043024489,"428":-0.10726203691633782,"429":0.038074104382691785,"430":0.04630607280620867,"431":0.14516126339378035,"432":0.1922664749193231,"433":0.12247175950734256,"434":0.9319237284086155,"435":-0.1872041776709966,"436":0.24875748302402287,"437":0.16965778789462824,"438":-0.31304445020479416,"439":0.13835778215547698,"440":-0.04161525440082961,"441":0.03815169261324682,"442":-0.21921963983942114,"443":-0.10752739100659674,"444":0.30683007637774595,"445":-0.0024119965627977897,"446":0.24332276751401025,"447":0.802096127264294,"448":1.0113866171343102,"449":0.3678963935797058,"450":0.24724703698734357,"451":-0.11223537564050373,"452":-0.01142979177348032,"453":0.0041643262734415674,"454":0.16842607565292306,"455":-0.22440020909701594,"456":-0.021384000491977608,"457":0.29834436925139424,"458":-0.10944977307401337,"459":0.13207023325983164,"460":0.6813922006865222,"461":1.0415478569189818,"462":0.5286104305346304,"463":0.2908168172782265,"464":0.01530642656996967,"465":0.04303467667047918,"466":0.04569522435086264,"467":0.1993055282276277,"468":0.1553222699329128,"469":0.016750662191865516,"470":0.14305042796941891,"471":0.07618596127445716,"472":-0.24454677492901034,"473":0.540917152164838,"474":0.9780270968560479,"475":0.4922023867287097,"476":0.16929917566916453,"477":-0.4637346249247243,"478":0.010278314596270488,"479":0.07959762783061303,"480":0.02852060931685498,"481":-0.28383811827093836,"482":0.11697720815981526,"483":0.07950419297498622,"484":0.024418862550801775,"485":0.027756733255703457,"486":0.29547319027579544,"487":-0.26509022692259937,"488":0.6225001231135098,"489":0.0785218831865591,"490":-0.4439299002184276,"491":-0.11785598905557297,"492":0.03649181681692738,"493":-0.024300953756815413,"494":-0.18898546139021644,"495":-0.20104254650589068,"496":0.3461240820361516,"497":0.005181604607840312,"498":-0.12326853735505906,"499":0.5416504942596764,"500":-0.13124843363935468,"501":0.615429375791909,"502":0.21708556192639142,"503":-0.29086905024550874,"504":-0.228885704493578,"505":-0.05546172141012398,"506":0.45329873009583355,"507":-0.3446473496226976,"508":0.3527689997335751,"509":0.0027859267164559638,"510":0.2309857735556602,"511":-0.2087944075309227,"512":0.5092395634356306,"513":-0.23041016522712957,"514":0.19906060270612602,"515":-0.32750921538665134,"516":-0.16206688769119354,"517":-0.08918946836174738,"518":0.02444266280526467,"519":0.6298320553021671}},{"sx":1,"sy":1,"depth":520,"w":{"0":0.33598874320989747,"1":0.10583444299388085,"2":-0.13629604826822578,"3":0.12079834685202362,"4":-0.15851174831183784,"5":0.07239259947842357,"6":-0.0706104600719348,"7":-0.43948412569862866,"8":-0.18741311335534794,"9":-0.11316696161862481,"10":0.11386942388988637,"11":0.08732304583793864,"12":-0.19659525053681146,"13":0.12221189751763917,"14":0.1021014989654589,"15":0.055477154813743594,"16":0.17428543755570836,"17":-0.006475115681909212,"18":-0.03200202787726521,"19":0.08968124440303143,"20":-0.11654613362754922,"21":-0.06747351549071509,"22":-0.007424730092102863,"23":-0.04664806262722797,"24":0.11031986397164277,"25":-0.26979327054846514,"26":0.0948402796546183,"27":0.09339789643296764,"28":0.031628166782017055,"29":0.023544800722121263,"30":0.0764072162768774,"31":0.0700148554043527,"32":0.09223497189380524,"33":0.02840193177543517,"34":-0.1017717958088823,"35":0.12807467742780532,"36":0.2445678726596076,"37":-0.08056219720197287,"38":-0.0686948210245043,"39":0.09958619210698677,"40":0.26259718012122857,"41":0.02612580368732366,"42":-0.0648429541426072,"43":0.017425584356481116,"44":0.16759227657889944,"45":0.4862513104154192,"46":-0.0836247450056005,"47":-0.1585359662162554,"48":0.45374156819030087,"49":0.11901061760818607,"50":0.042865225432899855,"51":0.019803486893537878,"52":0.09432846191238473,"53":0.1544848329014867,"54":0.09287197236480253,"55":0.1694134300483577,"56":0.20029909747930258,"57":0.13891958125204779,"58":0.29942741216471386,"59":-0.3921181597567135,"60":-0.14985424148224152,"61":0.05724275326071785,"62":-0.2652039196464643,"63":0.08566698625512759,"64":0.08880973342695236,"65":0.11127525706842445,"66":0.02544284932482057,"67":0.1198969401111667,"68":0.004194608474748518,"69":0.3128311314588788,"70":0.1362331138534649,"71":0.18721572476612552,"72":-0.33765733361321043,"73":-0.17862336318672378,"74":-0.2110136356800081,"75":-0.09537308761776914,"76":-0.09487748131127285,"77":-0.0754060918008947,"78":0.2782720767598948,"79":0.1693938169937308,"80":0.054845315270694195,"81":-0.03963237877382616,"82":0.045393310021807576,"83":0.17313522915491525,"84":0.24796050485426838,"85":-0.121782288124156,"86":-0.004140382205583349,"87":-0.13896371725443005,"88":-0.12718208154459784,"89":-0.19732736095142858,"90":-0.24487544363784708,"91":0.1573210788765741,"92":0.19503434370927272,"93":-0.08886712753042633,"94":-0.13498035606951006,"95":0.08030616034392266,"96":-0.028339230352962052,"97":0.35039507727678804,"98":-0.06802047773267685,"99":0.17529036238840684,"100":-0.10241014434869022,"101":-0.1661444710699914,"102":-0.07009326158346936,"103":-0.22416518571996608,"104":0.008395578752775261,"105":0.19893530245409877,"106":-0.13368399773379547,"107":-0.15271824590706595,"108":-0.08378945034474326,"109":0.15770868065873,"110":0.3969771806633664,"111":-0.1942285797869467,"112":0.17126965645183345,"113":0.07305379511219362,"114":-0.15718347374827518,"115":0.1844141636055991,"116":-0.21420474519622196,"117":-0.03175112627727671,"118":0.08201456918561506,"119":0.08027278250368722,"120":-0.19842303815229953,"121":-0.10133979081634915,"122":0.2951990534404887,"123":0.5642704441178134,"124":0.010205268732193528,"125":0.5180943079033945,"126":0.06778617348175253,"127":-0.09814767689600411,"128":0.16823508100369367,"129":-0.15553844859309138,"130":0.19601194708051198,"131":-0.14932576328615885,"132":0.06523522161143054,"133":-0.21543916338186297,"134":0.12256603520346983,"135":-0.0331821485679697,"136":0.5985212891511262,"137":0.09931380682237272,"138":0.31468275740724416,"139":-0.16766393496290682,"140":-0.3948750206712145,"141":0.018265655494404492,"142":-0.20102002779931705,"143":0.05191540507394948,"144":-0.20537055710175725,"145":-0.21844880501695535,"146":-0.3453917025530875,"147":-0.09691652779461146,"148":0.22317142732709203,"149":0.30443588396584775,"150":0.02514920202804119,"151":0.28793816678198214,"152":0.06684440495939234,"153":-0.31055808264437884,"154":-0.15192672095377935,"155":-0.2602428183971409,"156":0.015658596062621953,"157":-0.1698799270130822,"158":-0.10913686305838166,"159":-0.081073622928267,"160":0.09637787761781709,"161":0.23797887569095286,"162":0.11091161680345195,"163":0.4201614881477659,"164":0.09728636380976281,"165":-0.01605159576801333,"166":-0.14107344990723014,"167":-0.25931204923778284,"168":-0.272685881871643,"169":0.06145185720741398,"170":-0.07211684412647838,"171":-0.11416415179616712,"172":-0.18892473519966205,"173":0.028204999650865734,"174":0.05983141152101796,"175":0.11816252709309719,"176":0.29125573075166256,"177":0.048526132040294566,"178":-0.03186794727875439,"179":0.19387556076260892,"180":-0.09685772220864754,"181":-0.2013644828158719,"182":-0.11749539717886372,"183":-0.035015563142883496,"184":-0.0726392026640882,"185":-0.14602963383810486,"186":-0.07424798738146905,"187":0.17722566342436483,"188":0.142157167735885,"189":0.18278419339325674,"190":0.1411605527757493,"191":0.12399092253652183,"192":-0.008916626047544857,"193":-0.19010346864665986,"194":-0.3806864614421311,"195":-0.08033144750197105,"196":0.056457716234791594,"197":-0.040822078471955674,"198":-0.047199767078382526,"199":-0.08635443909203314,"200":0.3001849882579997,"201":0.11624612737501218,"202":0.1871056073580265,"203":0.3459480275099532,"204":-0.08341619814344269,"205":0.034908571128493285,"206":-0.22589437485120026,"207":-0.46933911153762586,"208":-0.07923026612692027,"209":-0.09439370524168524,"210":0.009965865560714474,"211":-0.13217524854698473,"212":-0.17214892769553375,"213":0.3530130641052384,"214":0.12913357921382726,"215":0.17974409064733748,"216":0.4460469016574149,"217":-0.0729891487329611,"218":0.2813161862169956,"219":-0.1908281805586429,"220":-0.3731633341103925,"221":-0.03214819726370731,"222":-0.077590096495799,"223":-0.12163387728503541,"224":-0.004041246794572203,"225":0.0023390898314632016,"226":0.6225456719585885,"227":0.18348956953851597,"228":0.11839443713718235,"229":0.24401476591166812,"230":0.06842033884280718,"231":-0.06232156768002614,"232":-0.07286344325003813,"233":-0.2661678801865048,"234":-0.0733764477022866,"235":-0.1635951011118956,"236":-0.03731981302734729,"237":0.03705342176596882,"238":-0.013895908781134744,"239":0.9414629830665754,"240":0.17015526380165602,"241":0.12433170105667284,"242":0.019517987104266544,"243":0.03870426713773761,"244":0.2134028190214604,"245":-0.20819639012056204,"246":-0.09130779522832257,"247":-0.11515106804090898,"248":-0.01701357980716531,"249":-0.012620223367362817,"250":-0.13065390381098968,"251":0.04411498635108138,"252":0.6713658193449648,"253":0.24775486077646575,"254":-0.21850541342688656,"255":-0.012813723010893643,"256":-0.05638060152233233,"257":0.3839981799690649,"258":-0.28303016933862407,"259":0.053295495300458774,"260":-0.11418627395704008,"261":-0.02686264150451724,"262":0.12099831127854332,"263":0.002355006059341187,"264":0.449911439008026,"265":0.3635063565168112,"266":-0.02110351254995228,"267":0.18376793575190345,"268":-0.001504549123500065,"269":-0.05930501790318935,"270":0.21297031783121687,"271":-0.37526508993964564,"272":-0.047701328543655636,"273":-0.1083593010535189,"274":-0.19209619428495886,"275":-0.09577481632652218,"276":0.10402471068505478,"277":0.46798606150248795,"278":0.3591492998658248,"279":0.09495842175586178,"280":0.24197996527157717,"281":0.2785263919456575,"282":-0.061870239083132036,"283":0.057133212193541,"284":-0.5351914883110083,"285":-0.2083808253354732,"286":-0.12145453341860397,"287":-0.04658926552832621,"288":-0.17539813300065432,"289":0.06678252744007311,"290":0.418046172905246,"291":0.44335670587737713,"292":-0.09065610110488304,"293":0.02801675022763258,"294":-0.07773873757065267,"295":-0.0782419404929995,"296":-0.10027131605244967,"297":-0.05539950313609834,"298":-0.29834826654489777,"299":0.18745255589861742,"300":-0.0005892761414147285,"301":-0.01994710143079886,"302":0.1314506681211891,"303":0.38396474202201786,"304":0.149810383353116,"305":0.698063034077283,"306":-0.02983636055284252,"307":0.03971615694224352,"308":0.1620765602113893,"309":-0.07432097171767113,"310":-0.04743823299541034,"311":-0.31069356629389255,"312":0.1320596521457558,"313":-0.031288038617021736,"314":-0.053112191570789724,"315":0.05249170765216775,"316":0.036768575878989226,"317":0.2019124328772693,"318":0.4399465163319913,"319":-0.03946361753847989,"320":0.1503398871427914,"321":0.10208636387002296,"322":-0.08929513679747551,"323":-0.1526514703054537,"324":-0.39755071900994904,"325":0.14169616000951782,"326":-0.0356122416384503,"327":0.0738893527764699,"328":0.1786727289492412,"329":-0.056301863759449414,"330":0.48548079407900924,"331":0.272696661090781,"332":-0.11142568318992978,"333":0.22588598442832708,"334":0.27457973661037155,"335":0.15067470327096502,"336":-0.10949158731057836,"337":-0.4221141890876702,"338":0.18513127632711182,"339":0.07413771689510083,"340":0.00248936750289169,"341":0.0014523922076521835,"342":-0.2071794702643369,"343":0.3359750706032979,"344":0.44049328435977797,"345":-0.3408700155606712,"346":0.5694116612919392,"347":0.275270701125519,"348":-0.1341606441182017,"349":0.05262583431697108,"350":-0.04472082252743421,"351":0.02189469292814861,"352":-0.0897251559086414,"353":-0.09336620611420755,"354":0.043132940355817995,"355":-0.0718324746907456,"356":0.7049309846423301,"357":-0.3585918048197102,"358":-0.16765197958286776,"359":0.3946388326243457,"360":0.0513458165659748,"361":-0.15400139001371965,"362":0.06845649738876816,"363":0.08062542192847402,"364":0.05946148720813128,"365":-0.0922297348704954,"366":0.12624797783510283,"367":0.03595867888196827,"368":-0.15074733819367078,"369":0.8203748799855769,"370":-0.431001720744614,"371":0.015269581538772215,"372":-0.008773002555840513,"373":0.12356855249223957,"374":0.17921898093940836,"375":0.025128349975123285,"376":-0.06317370736798242,"377":0.25215119680301695,"378":0.013679480635679505,"379":0.16704844123679347,"380":-0.025631297398557077,"381":-0.11716033696999505,"382":0.632434981660952,"383":-0.3758821613056003,"384":0.13243037223553994,"385":0.12716717509521516,"386":0.032781582017952685,"387":0.15893108081306656,"388":-0.21941374408788697,"389":0.10438734412408907,"390":0.17175346865811686,"391":-0.16655939614982732,"392":0.054585075599601206,"393":0.17621479605225213,"394":-0.07394377495071847,"395":0.588182466467504,"396":0.06664159286350381,"397":0.49289306338243477,"398":-0.12427242781471447,"399":-0.08123210172972696,"400":0.2926689462061307,"401":-0.47481753393758497,"402":-0.007518493415836835,"403":0.04015321369926464,"404":-0.13540085799060883,"405":-0.08274130882756393,"406":0.08230342080492804,"407":-0.11933584136741368,"408":0.2489052385700613,"409":-0.0103453954474222,"410":0.26884679107030945,"411":0.007410703239529757,"412":-0.10983671041574586,"413":0.18824991599329016,"414":-0.4873777229123279,"415":-0.013291456974225388,"416":-0.0002862121500623503,"417":-0.020740775670159188,"418":-0.0401072366809534,"419":-0.09542562324835029,"420":0.1259057730734434,"421":0.19126520288369278,"422":-0.030656103014739436,"423":0.07268662893431575,"424":0.25198677617355547,"425":-0.2021884206512337,"426":0.2460344266345893,"427":-0.4482562859956382,"428":0.12536757479807734,"429":-0.14484970168402767,"430":-0.08038055329148452,"431":0.00463785205202377,"432":-0.22061191109716913,"433":-0.07392076130405657,"434":-0.02077973353860445,"435":0.0306077274909099,"436":-0.0778387465848313,"437":0.012877769143436578,"438":-0.27646381764272704,"439":0.0946526953309498,"440":-0.13632627396811464,"441":-0.07113656137162701,"442":-0.11935205150674114,"443":-0.1840209971391954,"444":-0.07994762215563657,"445":-0.016917324747693002,"446":-0.16468153616548628,"447":-0.1150783106884425,"448":-0.4504748915838853,"449":-0.1936312612193224,"450":-0.02318958903686642,"451":-0.5028762315610776,"452":0.09258246067872994,"453":-0.2988163617906173,"454":0.16896132659547383,"455":0.061292254323154445,"456":-0.12083812702280215,"457":0.09383467706702132,"458":0.03529760475816848,"459":-0.07212267079753465,"460":-0.16321964906701583,"461":-0.5153862638662093,"462":-0.08958972050586705,"463":-0.04562218944682614,"464":-0.3053650907121179,"465":0.2028730699329083,"466":-0.6276898899416768,"467":0.07519070815522026,"468":0.08359103602275637,"469":-0.23433314309299508,"470":0.12722390053140092,"471":0.17254420806348997,"472":0.10995219642143778,"473":-0.1019144141882638,"474":-0.46204312468826564,"475":-0.318432375180926,"476":-0.13107851954361766,"477":-0.022431056117821473,"478":-0.29778755392026907,"479":-0.33885499821275983,"480":0.03189396874125248,"481":-0.05260655786007159,"482":-0.1732775094423974,"483":-0.16068581244633273,"484":0.1289542909784075,"485":0.06385527852594496,"486":0.10876883084741715,"487":-0.3601513253187579,"488":-0.5708463487694976,"489":0.10040296348236884,"490":-0.009302727316769633,"491":-0.04503956378779685,"492":-0.2505779073641308,"493":-0.010544087809780193,"494":-0.015882337059759645,"495":-0.09663895324828795,"496":-0.06853417386656105,"497":0.04552946522479819,"498":0.13453875598305126,"499":-0.01759863233312313,"500":-0.7770315092098953,"501":-0.43287522926709887,"502":0.033177378690629346,"503":0.33606545613265176,"504":0.2926667666617683,"505":-0.05128638211885275,"506":-0.2464623036479251,"507":0.0514714784124335,"508":-0.046457958653723576,"509":-0.15435748175148714,"510":-0.05811348263977042,