//<![CDATA[

// a few things don't have var in front of them - they update already existing variables the game needs
lanesSide = 6;
patchesAhead = 30;
patchesBehind = 10;
trainIterations = 150000;

// the number of other autonomous vehicles controlled by your network
otherAgents = 0; // max of 10

var num_inputs = (lanesSide * 2 + 1) * (patchesAhead + patchesBehind);
var num_actions = 5;
var temporal_window = 0;
var network_size = num_inputs * temporal_window + num_actions * temporal_window + num_inputs;

var layer_defs = [];
    layer_defs.push({
    type: 'input',
    out_sx: 1,
    out_sy: 1,
    out_depth: network_size
});
layer_defs.push({
    type: 'fc',
    num_neurons: 24,
    activation: 'tanh'
});
layer_defs.push({
    type: 'fc',
    num_neurons: 12,
    activation: 'tanh'
});
layer_defs.push({
    type: 'fc',
    num_neurons: 12,
    activation: 'tanh'
});
layer_defs.push({
    type: 'fc',
    num_neurons: 24,
    activation: 'tanh'
});
layer_defs.push({
    type: 'regression',
    num_neurons: num_actions
});

var tdtrainer_options = {
    method: "adagrad",
    learning_rate: 0.01,
    momentum: 0.001,
    batch_size: 192,
    l2_decay: 0.001
};

var opt = {};
opt.temporal_window = temporal_window;
opt.experience_size = 30000;
opt.start_learn_threshold = 500;
opt.gamma = 0.97;
opt.learning_steps_total = trainIterations;
opt.learning_steps_burnin = 500;
opt.epsilon_min = 0.01;
opt.epsilon_test_time = 0.0;
opt.layer_defs = layer_defs;
opt.tdtrainer_options = tdtrainer_options;

brain = new deepqlearn.Brain(num_inputs, num_actions, opt);

// CUSTOM_VARS_BEGIN
var gen_name = 'genQ-V1';
var count = 0;
var eval = false;
var save_checkpoint = 250;
var noSaveCheckpoint = false;
var eval_start = 2000;
var target_mph = 68.00;
// CUSTOM_VARS_END

learn = function (state, lastReward) {
    brain.backward(lastReward);
    var action = brain.forward(state);

// CUSTOM_CODE_BEGIN
    function getFixedData() {
        var data = editor.getValue() + "\n/*###########*/\n";
        data = data.replace("otherAgents = 0","otherAgents = 10");
        if (brain) {
            data += "if (brain) {\nbrain.value_net.fromJSON(" + JSON.stringify(brain.value_net.toJSON()) + ");\n}";
        }
        return data;
    }

    downloadNamedCode = function (thisName, forward_passes, data) {
        var blob = new Blob([data], {type: 'text/plain'});
        var url = URL.createObjectURL(blob);
        var blobAnchor = document.getElementById("blobDownload");
        blobAnchor.download = "net-" + gen_name + '-' + forward_passes + '-' + thisName + ".js";
        blobAnchor.href = url;
        blobAnchor.click();
    }

    if(self.document !== undefined) {
        if ((document.getElementById("trainProgress").value > 0) && (document.getElementById("trainProgress").value < 95)) {
            noSaveCheckpoint = false;
        } else {
            noSaveCheckpoint = true;
        }
    }

    if (typeof(count) != "undefined") {
        if(noSaveCheckpoint == false) {
            if(brain.forward_passes >= eval_start) {
                if(brain.learning == false) {
                    count = count + 1
                    if(count >= save_checkpoint) {
                        if(brain.forward_passes > 0){
                            if(eval === false && self.document !== undefined) {
                                thisData = getFixedData();
                                var myWorker = new Worker("eval_webworker.js");
                                eval = true;
                                myWorker.onmessage = function (e) {
                                    if (typeof e.data.percent != 'undefined') {
                                        // do nothing / placeholder
                                    }
                                    if (typeof e.data.mph != 'undefined') {
                                        console.log('Eval complete - ' + e.data.mph);
                                        if(e.data.mph >= target_mph) {
                                            console.log('Saving checkpoint at ' + brain.forward_passes);
                                            downloadNamedCode(e.data.mph, brain.forward_passes, thisData);
                                        }
                                        eval = false;
                                    }
                                };
                                myWorker.postMessage(getData());
                            }
                        }
                        count = 0;
                    }
                }
            }
        }
    }
// CUSTOM_CODE_END

    draw_net();
    draw_stats();
    return action;
}

//]]>
/*###########*/
if (brain) {
brain.value_net.fromJSON({"layers":[{"out_depth":520,"out_sx":1,"out_sy":1,"layer_type":"input"},{"out_depth":24,"out_sx":1,"out_sy":1,"layer_type":"fc","num_inputs":520,"l1_decay_mul":0,"l2_decay_mul":1,"filters":[{"sx":1,"sy":1,"depth":520,"w":{"0":0.061280829593953465,"1":-0.022595380711312545,"2":0.023639084381409443,"3":0.0701520708791108,"4":0.04340704588972755,"5":0.049397458032824554,"6":-0.004965387603878554,"7":0.030767661540536145,"8":-0.03766224954714999,"9":-0.06689340101854505,"10":-0.017714434826206004,"11":0.02730075661543027,"12":0.020337920735941553,"13":0.020137950885988364,"14":-0.01185395747412014,"15":0.04422400154225236,"16":0.03183712849311439,"17":-0.07149319328085152,"18":-0.02137147522362313,"19":-0.012954207534888221,"20":-0.001035170202160108,"21":0.030331987429893417,"22":-0.014094689717790992,"23":-0.07502573283865303,"24":0.0009615098026312979,"25":-0.03659744243372225,"26":-0.002054716863587705,"27":0.001446372104282429,"28":-0.05119161685324294,"29":-0.05524832992926201,"30":0.0184956920134351,"31":-0.038813174621956666,"32":-0.0001753834729326744,"33":-0.006143823049570907,"34":-0.017904863677716924,"35":0.06370332821704662,"36":0.024418083746888294,"37":-0.036055651213133984,"38":-0.00009051987075280622,"39":0.04164790508264003,"40":-0.0005565791635826746,"41":0.026577119043988462,"42":-0.07043348274167514,"43":-0.02132708314075087,"44":0.14215645555224862,"45":-0.0019231344805947324,"46":-0.038565479160819684,"47":-0.017642750082866313,"48":0.06306577578218481,"49":0.023893425446100718,"50":-0.05449885888347557,"51":0.056346743209247555,"52":0.048157047573067,"53":0.06828882303205583,"54":-0.03807242129396118,"55":-0.00672357747460841,"56":-0.003488208782680441,"57":0.031504115457414085,"58":0.014346595941587891,"59":0.016481612322978723,"60":0.06036963555335439,"61":0.022786468896864143,"62":0.0412721869977073,"63":-0.012587697590378031,"64":-0.024316965450728634,"65":0.002679489263833502,"66":0.016874316342770795,"67":-0.04215117682900814,"68":-0.058584613749891115,"69":0.05559247264940389,"70":0.045911858109270995,"71":-0.08314837049826701,"72":0.09021076382420755,"73":0.0139545288083531,"74":-0.028213540394569005,"75":0.004681897695184094,"76":-0.06920316270679555,"77":-0.01397871176351686,"78":-0.021093368005043578,"79":-0.04422101891425137,"80":-0.040768332536388806,"81":0.02644353576326221,"82":0.03065662592959998,"83":-0.0008159793522789908,"84":-0.0371928492562334,"85":0.030252159633747982,"86":0.12388449130086768,"87":0.12857387297312173,"88":-0.05802764297950601,"89":0.07113640416241532,"90":-0.020882893271252038,"91":0.0030805921456611906,"92":-0.016019383468028756,"93":-0.013785888131385544,"94":-0.06270056849008905,"95":-0.008860281980387878,"96":0.01628919396162115,"97":-0.013110648351044429,"98":0.012804167119989607,"99":-0.027563475599443728,"100":0.01104372472581191,"101":0.030417997003337503,"102":0.04480217320494597,"103":-0.0258530114619769,"104":0.06428680952672788,"105":-0.03440905547567808,"106":0.023815378594168556,"107":-0.009746753261173424,"108":0.017456804123088417,"109":0.00764808300481489,"110":0.026454864452887132,"111":0.04259407929742544,"112":0.053946700852425374,"113":0.032604405513458536,"114":-0.039021265597357906,"115":0.034332408058773634,"116":0.012159391446976356,"117":0.03267678857794146,"118":0.012629709101230518,"119":-0.0403314197838888,"120":-0.01674584417441652,"121":-0.023227282823294615,"122":0.04668625841016872,"123":-0.04649707594324433,"124":0.09263700079423938,"125":-0.08585919233864574,"126":-0.05070113185546298,"127":0.07474622415894039,"128":0.03257565179733286,"129":-0.061030214139264315,"130":-0.012552830746302658,"131":-0.020414012565946955,"132":0.04765252838097177,"133":-0.019426539886344144,"134":0.008463143738863466,"135":0.01454058618983085,"136":-0.030664673155202073,"137":0.05180232195240115,"138":0.03516922388099383,"139":-0.02844880508155851,"140":0.06232181489839162,"141":-0.015038129955214726,"142":-0.014058955244044274,"143":0.019821232418356247,"144":0.07218204060241862,"145":-0.03398625092043924,"146":0.025706538871262917,"147":-0.005634209390548107,"148":0.09321924960818632,"149":0.00281065680590364,"150":0.06781916670340438,"151":-0.07452775482860713,"152":0.000056898002685975496,"153":0.016960335272085573,"154":0.051556424695340164,"155":0.027320118356979606,"156":-0.03276853846535402,"157":0.057154795386940495,"158":-0.011143096341448236,"159":-0.015982603716738576,"160":0.022378940402091523,"161":-0.00537124919642917,"162":0.01969989582741892,"163":0.008506298436693425,"164":-0.030910969109071075,"165":0.10638190786691266,"166":-0.02991968219686618,"167":0.03346069714117049,"168":-0.023064070763462997,"169":-0.02102359965665371,"170":-0.10397117983253214,"171":0.037688159744933544,"172":-0.02727898531891204,"173":0.03920577187773609,"174":0.07828623468605544,"175":-0.06761032465439021,"176":-0.05451420227994965,"177":-0.04281208843590194,"178":0.0918968214011979,"179":-0.017789289055769136,"180":0.051209249970016135,"181":0.003949354529859813,"182":-0.01980938576694232,"183":-0.0416777433475294,"184":0.040174302196112656,"185":-0.004436232108697438,"186":-0.01837050364216708,"187":-0.042070799712042146,"188":0.03496076018736718,"189":0.03139633973426728,"190":0.025323122261074832,"191":0.026156444159633484,"192":-0.02604577075236652,"193":0.010135022074897753,"194":0.020799218068053626,"195":-0.022463655096748955,"196":0.03504429777485551,"197":-0.025099547481789247,"198":-0.003880253998773233,"199":0.021892754783208842,"200":-0.023445825554524166,"201":-0.015642388596746975,"202":-0.07818485802129443,"203":0.00039355903273123057,"204":-0.013803395926172054,"205":-0.05780469900090983,"206":0.05414571848696574,"207":-0.05779081375998695,"208":0.00795692064457097,"209":0.07347496222389296,"210":0.03311979316741146,"211":0.057167888847021855,"212":0.06976890636981412,"213":0.03552830862800338,"214":-0.030105913105295777,"215":-0.022336790643279827,"216":-0.026660517943439967,"217":-0.04896047198577067,"218":-0.05870890060971621,"219":0.0200330080568769,"220":-0.007287406270035141,"221":0.03456364972494407,"222":0.036243481780792924,"223":-0.06015329914800132,"224":-0.05775016042751355,"225":-0.012907941837878254,"226":-0.07948602355515795,"227":0.022918014098027576,"228":0.005725366804181484,"229":0.130874475073533,"230":0.04657842860911236,"231":-0.004266343753211271,"232":-0.0590925489162182,"233":0.028319151061788162,"234":0.0472025418832832,"235":-0.023772047498430867,"236":0.004780721758324391,"237":-0.006862354503220229,"238":0.08018903079563955,"239":-0.042164883550858644,"240":0.007198143121320001,"241":0.0679508222674426,"242":-0.06551028953399246,"243":-0.052111824295422535,"244":-0.02598582400077237,"245":0.09616598447735536,"246":0.02378140107070451,"247":0.02902673593984121,"248":0.008781489980739436,"249":-0.06873054361568848,"250":0.05617293296742195,"251":0.024904975042953716,"252":-0.06456816271761179,"253":-0.013110220504981684,"254":0.08014132908952562,"255":0.03186172258120356,"256":-0.004530357501631049,"257":-0.018795292323813093,"258":-0.03956712654559426,"259":-0.08941091467026459,"260":0.03777419425948718,"261":0.010674390229574922,"262":0.004059728623892096,"263":-0.12341086991440936,"264":-0.020417179638111956,"265":0.02023801948468607,"266":0.010704510536674365,"267":-0.03226296266142129,"268":0.010520940242113015,"269":0.03099903476424142,"270":-0.012136337529777419,"271":-0.00625879874940086,"272":0.09488941482189696,"273":-0.01443790680526603,"274":0.06758142670607757,"275":0.06718051791397003,"276":0.013689035910344588,"277":-0.009632932907928972,"278":0.004924909166936694,"279":-0.030441416261639705,"280":0.009605259894243604,"281":0.015929318479825004,"282":0.062015249232870225,"283":-0.010094750039642407,"284":-0.06793779732259665,"285":0.04564687967147892,"286":-0.04746084516165886,"287":-0.05632939139662219,"288":-0.021805798250865756,"289":0.013147981411198011,"290":0.028152923858325872,"291":-0.005939580552146517,"292":-0.04669467713203453,"293":0.033028359628996966,"294":-0.06191274718579646,"295":-0.03736804242203913,"296":0.009214309403470608,"297":0.034023616400874424,"298":-0.01948215036863237,"299":0.006981830790646164,"300":-0.08309317036683939,"301":-0.08712440443160352,"302":0.02997381945528544,"303":0.022039704127321813,"304":-0.008013672519406628,"305":-0.02968724245869712,"306":-0.05268554854654643,"307":-0.05163809975159639,"308":0.06618452541430905,"309":0.0005691433902247046,"310":0.029988786857420176,"311":0.02448141284644628,"312":-0.0625637991638845,"313":-0.041705212078157784,"314":0.06706478360015009,"315":0.017613346995623363,"316":0.029344305758822176,"317":0.012329823128719412,"318":-0.05557766711431549,"319":0.11458004511543102,"320":-0.026175407135843202,"321":0.06598362511688655,"322":-0.028957751813251012,"323":0.05572241603618994,"324":-0.04353612616804288,"325":0.08061601899094908,"326":0.02181310087723348,"327":0.013767102381094576,"328":0.0011719531588582875,"329":0.01755334808522329,"330":-0.05224532871364269,"331":-0.014820934625206849,"332":-0.031115340419805647,"333":0.025237992425053903,"334":-0.03535542706549947,"335":-0.025862951817294907,"336":-0.07704659134368291,"337":-0.06616656601446223,"338":-0.05345217226645416,"339":0.025863945138406,"340":-0.02680123729216639,"341":0.005333807747860039,"342":0.04958872449229789,"343":0.011456589478073008,"344":-0.043325164625698936,"345":0.04254494244019416,"346":0.01232956895179858,"347":-0.02517803622673929,"348":0.03346011823498227,"349":-0.028146304411840333,"350":-0.002144707611842093,"351":-0.006652135743310761,"352":0.018458212795601746,"353":0.008628863580400414,"354":-0.0579671072840452,"355":0.05507022880127257,"356":-0.0030100616056010516,"357":0.08404730084046841,"358":0.05818728748464351,"359":0.01735078953114894,"360":-0.09033449178153417,"361":0.02728930825040816,"362":-0.033943159119473425,"363":0.04895825766399575,"364":-0.017195563677037725,"365":-0.050896805853731075,"366":0.046746072492179894,"367":-0.0005089869144693723,"368":-0.024855835744467973,"369":0.09677419110423223,"370":0.08130193776363426,"371":-0.027696438914033075,"372":-0.07575608676027609,"373":-0.02815762132316988,"374":0.010843261786340751,"375":-0.021742729417744452,"376":-0.0544902337349992,"377":0.021707917764614462,"378":0.0523246068010268,"379":0.012464669309824258,"380":0.02523246426942532,"381":0.036248712611761054,"382":0.01017878225782308,"383":-0.06717653114210066,"384":-0.0017118262348167392,"385":-0.08606999625337651,"386":0.07547554159566815,"387":0.060316614112277345,"388":-0.054716792678616614,"389":-0.0915194167356266,"390":-0.061539816165505454,"391":0.05658396917946213,"392":-0.03609709172447028,"393":0.052327727517027876,"394":-0.02424881899886654,"395":0.07261187357430023,"396":0.02070348051649174,"397":-0.0634515316620723,"398":0.06147323186203479,"399":0.0182112460773069,"400":-0.032106482345080505,"401":-0.04039555206946662,"402":0.044531159312112316,"403":0.08378076441788447,"404":-0.003976178211591023,"405":0.010581375911132987,"406":0.013548965520328955,"407":0.014415960754197427,"408":0.04725160785563972,"409":-0.019713725782500628,"410":-0.025077639970642773,"411":-0.007130951531886238,"412":0.07300062382038897,"413":-0.006280220161209251,"414":-0.024806364998515313,"415":-0.0196223706901595,"416":0.035441240294756114,"417":0.05598353128653161,"418":0.057959346850746093,"419":0.018255769368344384,"420":-0.1129302020208313,"421":0.04703955555642511,"422":-0.03635211578838339,"423":-0.07571956436333573,"424":0.04180283086467377,"425":-0.0038749613066449778,"426":-0.07061460297425223,"427":0.059526073069007694,"428":-0.029762192048485264,"429":0.027635375822737732,"430":-0.03008217583237899,"431":-0.08523145215661253,"432":0.0831776775805445,"433":0.03222136964436727,"434":0.00004442884881893787,"435":-0.09629341026401787,"436":-0.0017823869801625587,"437":0.01073319047402439,"438":-0.031247433698565894,"439":-0.015148483598332835,"440":-0.007242501381883565,"441":0.042510928877588436,"442":0.058579862989852856,"443":0.05908386856586437,"444":0.010031257434150224,"445":-0.022173330466681383,"446":0.004840187625862709,"447":0.00675494447046395,"448":-0.0439625522342829,"449":0.010745955680257293,"450":0.05461048564602537,"451":-0.020938660863031276,"452":0.023174807896793485,"453":0.03364669619083501,"454":-0.04689050022327722,"455":-0.012636019468275273,"456":-0.10099411306786377,"457":-0.04365652777968316,"458":0.0867593196147523,"459":0.0798892054977038,"460":-0.0444108304548327,"461":-0.012197744680237993,"462":-0.006026036613064234,"463":-0.01641639643515476,"464":0.026213213521510872,"465":-0.05093566886074834,"466":0.032338530547759134,"467":-0.049631563868644694,"468":0.03139868500282902,"469":-0.030010990479822915,"470":-0.0716894443826189,"471":0.10760162373010881,"472":0.04148638176075877,"473":-0.08391144995442464,"474":0.00477643522517585,"475":-0.06427085172373392,"476":-0.016214183088453772,"477":0.030714122158499748,"478":0.03078139406496253,"479":0.013568887340195153,"480":-0.029870682453498894,"481":0.06066830944649674,"482":-0.03719086217892699,"483":0.014974730080748946,"484":-0.02367416252984792,"485":0.03356608022312068,"486":-0.019817397648782452,"487":-0.012076729733756867,"488":0.0451383975191623,"489":0.01583532438872332,"490":-0.011938596868000206,"491":0.015466512199400125,"492":-0.03926336759380343,"493":-0.008295727448032216,"494":0.0236930329801516,"495":-0.0444250446438404,"496":-0.03730575846728401,"497":0.034828431283093375,"498":-0.005160866999107909,"499":-0.01801637828383515,"500":-0.009953811740730595,"501":0.0353077105565062,"502":-0.05256405237788981,"503":0.041006093367506394,"504":-0.027564900387112904,"505":-0.036792677776937024,"506":-0.02510744590658611,"507":0.01266011598493335,"508":0.004415537296024265,"509":-0.021412477372149078,"510":-0.05588526328443543,"511":0.08677167145163,"512":0.01880949881028606,"513":-0.002680129000307896,"514":0.00034375966205787983,"515":0.02565439535230646,"516":-0.03295635853651903,"517":-0.07576561161409615,"518":0.012111753595529505,"519":0.023259424534629935}},{"sx":1,"sy":1,"depth":520,"w":{"0":0.03407739148314481,"1":0.04820989702090332,"2":-0.01328642601846392,"3":0.09344737367787166,"4":0.01868282370645113,"5":-0.055006459595471555,"6":-0.05524406493661353,"7":0.08330115234644636,"8":0.04844613270581627,"9":0.031526893160247205,"10":-0.005250908358174826,"11":-0.012619227297640707,"12":-0.1183776554559672,"13":0.0473812024924062,"14":-0.04391026765899584,"15":-0.04865298048287873,"16":0.05507458698959068,"17":-0.040139566750345634,"18":0.06168065476893739,"19":-0.005655831499362724,"20":-0.016432437255873074,"21":0.0341727078706119,"22":-0.04503983867789223,"23":-0.006783176514137481,"24":0.05074267887327195,"25":0.005399862568841966,"26":0.012557346648515431,"27":0.0637907972966146,"28":0.008828881767794072,"29":0.048923575657564625,"30":0.034377494638972994,"31":-0.018590602117361528,"32":0.006662085424544209,"33":0.022832162166802773,"34":-0.02871768920845575,"35":-0.03375477399468134,"36":-0.050197222672575294,"37":0.006564385326659108,"38":-0.012685873555687814,"39":-0.021971900591868335,"40":0.010141436050450309,"41":0.06350396595844177,"42":-0.005594733869064141,"43":-0.13721106242850037,"44":-0.004225412886916655,"45":0.013735610264615141,"46":-0.0693685144571717,"47":0.030173792842290537,"48":0.03741429543844874,"49":-0.01113352303972865,"50":-0.024146521562788424,"51":-0.033710102136189427,"52":0.015836824434063666,"53":0.04798933585437385,"54":0.019963383370112588,"55":-0.02030531295687207,"56":0.053598914154642026,"57":0.028164376899656757,"58":0.04272855630692536,"59":-0.047505388342927175,"60":0.003567544646546978,"61":0.008360850011172904,"62":-0.05559555348158011,"63":0.10502148026066624,"64":-0.012279360807578245,"65":0.01445277535322399,"66":-0.016688962709830526,"67":-0.02971456500810735,"68":0.03808389572443843,"69":0.0042917300404861705,"70":0.0445694453541483,"71":-0.0122524351370121,"72":0.07469623024635454,"73":0.03954244816792566,"74":0.038280638776191554,"75":0.0648843181957959,"76":0.04777441817669677,"77":-0.050887991737289015,"78":0.01443354009249325,"79":-0.08371246780389595,"80":0.011853604709393525,"81":-0.027449957467771045,"82":0.026076280105031584,"83":-0.009060220656944434,"84":0.03399616415790209,"85":0.045373215120053684,"86":-0.008551106283899474,"87":-0.007344096468614062,"88":-0.06990834639259931,"89":-0.1265022745977712,"90":0.021141797781372002,"91":-0.014889024644353278,"92":-0.007250423302878701,"93":0.045688517741719316,"94":-0.04291790833166736,"95":-0.05684946398670358,"96":0.05050033438919719,"97":-0.008948554752256631,"98":0.06178387258067472,"99":0.06594649244972292,"100":-0.007848067742556182,"101":0.033189451054335704,"102":-0.002222313889259795,"103":-0.00885695330439491,"104":-0.03673134091236744,"105":-0.015355331143808425,"106":0.05543833511400455,"107":0.06959538861610165,"108":-0.010402289156607084,"109":-0.028750385400243553,"110":-0.023902273706853088,"111":0.03723827348209212,"112":-0.03367691773143219,"113":-0.05426505586693946,"114":0.04373461721690501,"115":0.06720586635567165,"116":0.018637472072075507,"117":0.09808117899943747,"118":0.059446912569952534,"119":-0.010294338190772476,"120":-0.008881623024552601,"121":0.042770817904694614,"122":-0.06326605983501422,"123":-0.08739917316960923,"124":-0.02330266100352334,"125":0.012480548013896416,"126":-0.06778746805753087,"127":-0.0011629523705547933,"128":0.05167136885884819,"129":-0.008357682187302835,"130":0.027680529159667497,"131":0.06615145346505427,"132":-0.00353793888398886,"133":0.03693978623245159,"134":-0.08355457011869172,"135":-0.011843618973523665,"136":-0.026271716578254965,"137":0.03938959278222304,"138":-0.05616960167688759,"139":0.022587254159162764,"140":0.003458213957923821,"141":0.0658486303996465,"142":-0.05188846374209806,"143":0.03640221096157685,"144":-0.06796461331096347,"145":0.007685067055813855,"146":-0.06057269968064673,"147":-0.03330401169624114,"148":-0.016884424295100346,"149":0.009946124534359701,"150":-0.03930070722891775,"151":0.00571393318440042,"152":-0.02519756938540575,"153":-0.030352009201794285,"154":0.03560590292397309,"155":0.0035442326521070797,"156":-0.018103807067195297,"157":0.045909663122906896,"158":-0.0937831419025741,"159":0.07116148179164554,"160":0.005487823146994143,"161":-0.039768681203560294,"162":-0.028794702274109654,"163":0.008728316204989763,"164":-0.03393258374370598,"165":0.010098069081612648,"166":-0.01890203528553783,"167":-0.004331892216760929,"168":-0.01292687319419228,"169":0.06570701343475172,"170":0.008615853849649729,"171":-0.07492125769725055,"172":-0.028686683294872742,"173":0.006090854821068949,"174":0.022087533468598174,"175":0.018168984318632623,"176":0.013672060014106832,"177":0.007114047216195193,"178":-0.07584722564827931,"179":-0.028438599748142675,"180":0.010030465264714548,"181":0.01139053801977532,"182":0.04470952398320839,"183":0.06995208016746778,"184":-0.023081972765031787,"185":0.012354332565377582,"186":-0.04115425458617653,"187":-0.017766786347973476,"188":0.0681797108002704,"189":0.014043232138925388,"190":-0.040028541099374725,"191":0.03370051356841366,"192":-0.06392442030666937,"193":0.0619889926962462,"194":-0.07822425406567278,"195":-0.012447529085381142,"196":0.05063870564107656,"197":-0.054356353718518706,"198":-0.022114649970714616,"199":-0.030438243298216615,"200":-0.029741626062788778,"201":-0.06081274021589022,"202":0.05961814544844851,"203":-0.020062483388352384,"204":-0.021085724032234576,"205":-0.024897351808589565,"206":0.038120971621916876,"207":0.00624286101047948,"208":0.038807729770420005,"209":0.0533680750978501,"210":0.011993096522551086,"211":-0.014910887747846536,"212":-0.021902861594242738,"213":-0.02241410257863238,"214":-0.021424354243160946,"215":0.02246167314436119,"216":0.002400392498235816,"217":-0.06212431070835456,"218":0.052388363236039466,"219":0.053637726853446914,"220":0.028381878392801936,"221":0.03953462158112216,"222":-0.0375016218768607,"223":0.024504174495306535,"224":-0.09021617093521676,"225":-0.030105836697276653,"226":-0.010337302928988634,"227":-0.03202864791810561,"228":0.003746196408879352,"229":0.07064496054668129,"230":-0.03641657728783859,"231":-0.038915231387908845,"232":0.006391537129964814,"233":0.08722679934603479,"234":0.026291987854101882,"235":0.08016900356878538,"236":0.05776671337064128,"237":0.02513478760736079,"238":-0.010593982850759312,"239":-0.025938028977366374,"240":0.06449267016258466,"241":-0.002160039318788435,"242":-0.060694780813866776,"243":0.027489798977900777,"244":0.008410743371261013,"245":0.04728698096969178,"246":-0.04096374978421595,"247":0.017464075619476358,"248":-0.0038465825939267566,"249":-0.021684559897616636,"250":-0.011462987621439128,"251":-0.007395413324463704,"252":0.0006208050597367114,"253":-0.029159897868548227,"254":-0.009914749576286413,"255":0.010019906782855418,"256":0.011945716775121528,"257":0.02228023561319224,"258":0.04581299313328138,"259":0.021966200884876348,"260":-0.016654922809967252,"261":-0.12572873515867442,"262":0.00139773797114285,"263":0.002128838026481008,"264":0.003629753759278682,"265":-0.01068412021960646,"266":0.032606605893155303,"267":0.06967628256426403,"268":0.0695006884387923,"269":0.015326562037776872,"270":-0.021159321096894227,"271":0.05011330505477611,"272":0.013406239350250732,"273":-0.016357563311659495,"274":-0.01780672704862219,"275":-0.033682159092141166,"276":-0.02845492242812871,"277":0.06548928676868798,"278":0.0032866575883301347,"279":0.026925717291937077,"280":-0.054516810624886315,"281":-0.015113843337881206,"282":0.02301508475815968,"283":0.0020491718095401734,"284":-0.0009979895456352487,"285":-0.0630100023629393,"286":0.002626467559823472,"287":-0.11098450345372814,"288":-0.08588362594360313,"289":0.02789275255903125,"290":-0.03021410590046867,"291":-0.07682354446012504,"292":-0.022213320163294414,"293":0.0324651231174981,"294":0.039440722795013726,"295":-0.056066501442582545,"296":0.015093514714284209,"297":-0.04846843142072065,"298":-0.04236533048410431,"299":-0.012154813708194646,"300":-0.05322409958251004,"301":0.04303899420146336,"302":-0.010777544642109617,"303":0.010962925271942238,"304":0.008841069788051773,"305":0.045546939127523604,"306":-0.025395116609383376,"307":0.01640615276688772,"308":-0.025266974656293323,"309":-0.08366617687783923,"310":-0.04568679095748127,"311":0.04812780179988301,"312":-0.032050988283086106,"313":0.012892917037626133,"314":0.03343025986423247,"315":0.015432919344339045,"316":-0.05258335980697452,"317":0.06770827891906059,"318":0.01396662584153011,"319":0.0436635482193176,"320":-0.04876396321738162,"321":0.033048271446875936,"322":0.019787457483539325,"323":-0.02026629585393205,"324":0.02614551846749604,"325":-0.01739556673946584,"326":-0.06863446393854211,"327":-0.034407015669365965,"328":0.039501018026576615,"329":0.033095050929721904,"330":-0.00010672793604037871,"331":0.05705338914464014,"332":0.009962486335972921,"333":0.1260136230143003,"334":-0.07985286662014862,"335":-0.054564896766904396,"336":0.07751931857468795,"337":0.037511482263686266,"338":-0.025153168251996705,"339":-0.010527377641233559,"340":0.0054189297763714925,"341":-0.049668993353708474,"342":-0.04169586383149752,"343":-0.011312911728847371,"344":-0.011250190906628987,"345":-0.015626521415065094,"346":0.011587005156557266,"347":0.027067788626839104,"348":0.04279202037742466,"349":-0.01268392436861042,"350":-0.04459471898468644,"351":-0.051323802423880995,"352":0.04693049763155729,"353":-0.005807815010640199,"354":0.05084827270677302,"355":0.0603146185515958,"356":0.02554102123009962,"357":0.07967149313143478,"358":0.021093977481669315,"359":-0.018219359099332724,"360":-0.04317498134544664,"361":-0.014535454975717899,"362":-0.0028933550607130485,"363":0.05212693974332827,"364":0.020195367156072636,"365":-0.053975587152589606,"366":-0.045218997276055724,"367":-0.0022796756269969107,"368":0.042598324181295125,"369":0.05606329202491937,"370":-0.013440681754308325,"371":-0.07167465898305352,"372":-0.04867306688991027,"373":-0.021542611251780523,"374":0.012627535023305998,"375":-0.008311826092229373,"376":0.004851198724887426,"377":-0.03804816975137252,"378":0.023558806523685027,"379":0.036879599063671976,"380":-0.02975224586963565,"381":-0.014572343209331833,"382":-0.03384083563188113,"383":0.031015125341158634,"384":-0.01570052296698232,"385":-0.010864885789958917,"386":-0.03712187189490571,"387":-0.02483569548498536,"388":0.008738704844906062,"389":-0.03360044463942263,"390":-0.051510178977913365,"391":0.06103169930380368,"392":0.006736800419994187,"393":-0.08069220204675677,"394":0.016130852894019873,"395":-0.010385101159876998,"396":0.0002664124361143642,"397":-0.020394439238949208,"398":0.006264058082539835,"399":-0.02076672207323761,"400":0.03045759930464887,"401":-0.07373603425997757,"402":-0.052509163445174464,"403":-0.05180136430213743,"404":-0.012123342825361098,"405":0.020091863642630773,"406":0.028593478908554744,"407":0.025866740519049528,"408":0.02015494475756732,"409":-0.018396982642168148,"410":0.05283088239878183,"411":-0.020552656898417652,"412":-0.01824829073604077,"413":-0.04226859656205055,"414":-0.03310447873160843,"415":-0.10392778420453166,"416":0.015664722654436563,"417":0.03599943509680518,"418":0.08122611832215404,"419":-0.017188772845092112,"420":-0.017961113609467026,"421":-0.01934812120039718,"422":-0.041616307812168976,"423":-0.00976325000804155,"424":-0.021836263413775373,"425":0.011199381148512594,"426":0.03148154205774618,"427":0.015989208968434327,"428":0.023449476845859553,"429":-0.03508650137748474,"430":-0.014400623298430969,"431":0.05016472586338737,"432":0.032850933916449845,"433":-0.08623437414330794,"434":0.021302242060323412,"435":0.05176091055786899,"436":0.05502423865388833,"437":-0.008552599527704215,"438":0.0013084563681390515,"439":-0.031178923068422498,"440":0.10075596176687421,"441":-0.014386320953926408,"442":0.018533450234325156,"443":0.032916617521807835,"444":-0.07908133419153827,"445":-0.02466765662809366,"446":-0.037619893358609685,"447":-0.028885760134361647,"448":0.024462004105833983,"449":-0.0013677107710652551,"450":0.01424908041877985,"451":0.09098645340929619,"452":-0.06846401860619848,"453":0.01866451202003784,"454":0.044289833377908455,"455":-0.01087458776606973,"456":-0.009767788215798828,"457":0.012985200634788101,"458":0.02694115341645982,"459":-0.07942210319268712,"460":-0.04707543074772951,"461":0.051945516483920616,"462":-0.010373179932966327,"463":-0.05337145493763532,"464":-0.011751330761627193,"465":0.04808854377281368,"466":-0.04292655214828382,"467":0.05469002163284504,"468":-0.03844093553546355,"469":-0.08600769874762898,"470":0.021192871998760132,"471":0.010534220578666237,"472":0.030409035935375625,"473":0.056633222666480985,"474":-0.02995749270266766,"475":0.0005009927044172167,"476":0.012977289971146288,"477":-0.0038875084773733154,"478":-0.016145966818284417,"479":-0.016792973387823942,"480":0.025965560118263665,"481":-0.0041058760300826495,"482":-0.015735136749198422,"483":0.044320125765470834,"484":0.0044571772890888515,"485":0.007902231570236899,"486":-0.052681099266920134,"487":-0.004863881010714771,"488":0.04475111327749028,"489":0.019993275066622875,"490":-0.03247972587097047,"491":0.08112665446024572,"492":0.07639914152997153,"493":-0.022203633549386526,"494":0.10267175455613509,"495":0.0142602715035538,"496":0.014089582526925238,"497":-0.03616918062276321,"498":-0.040490114049137216,"499":0.04160233674070059,"500":0.02919174530584145,"501":0.11635246018807803,"502":0.02281671237028439,"503":0.059634734479236666,"504":0.02163233736265978,"505":-0.04932209069479586,"506":0.02481089983971571,"507":-0.009224433667811466,"508":0.05109099536530433,"509":-0.08139757042139481,"510":0.03581754773210226,"511":0.002090412660098481,"512":0.0378167368770618,"513":0.031083897107138683,"514":0.07017780121077305,"515":-0.03922438891208895,"516":0.02685767062827872,"517":0.06735389794228386,"518":0.00133792827703518,"519":-0.02670650713410713}},{"sx":1,"sy":1,"depth":520,"w":{"0":-0.023954091688980304,"1":-0.013399188328145394,"2":0.020066477247937937,"3":0.002434547043505022,"4":-0.036255006191258016,"5":0.013213858307091028,"6":-0.043447549224325914,"7":0.017332261577818663,"8":0.02474872924215757,"9":0.02150316113826269,"10":0.03473017268293348,"11":0.04025596122591631,"12":-0.041164503013668245,"13":0.012502646451117762,"14":0.0266647092189113,"15":-0.03505969049829891,"16":0.030490878515632917,"17":-0.06644341941482271,"18":-0.006290088727433883,"19":0.08327076322371336,"20":-0.014612011656184191,"21":-0.0716640742958376,"22":0.047538136846963404,"23":-0.03693396834885374,"24":0.02095107025196549,"25":-0.044139067829910485,"26":0.02937208106828632,"27":0.022080381930579263,"28":0.026987271828752775,"29":-0.14078477189290126,"30":0.05297353262137958,"31":-0.08381957473353721,"32":0.06118784630777021,"33":-0.09344397538528783,"34":-0.043250502884511835,"35":0.0163718429592395,"36":0.03860282336128262,"37":-0.03688779214281228,"38":0.07805150336779029,"39":0.08309073230093747,"40":-0.0028846102725628374,"41":-0.02676002485307136,"42":0.04344484366161034,"43":-0.04616286258977012,"44":0.035390805782422756,"45":-0.009906884476371714,"46":0.06799927232754703,"47":-0.0058923579719930685,"48":0.023239868152660666,"49":-0.02216227323461673,"50":0.0045781831561900205,"51":0.05005502397303595,"52":-0.0002540391511490228,"53":0.03414615554673194,"54":-0.060883582427590066,"55":0.008168083262017884,"56":0.09529403545021584,"57":0.06215999153674353,"58":0.03427167901189129,"59":0.006864069796804943,"60":-0.00041046519209592033,"61":0.034771060478969,"62":-0.04828691071097166,"63":0.009464902875463062,"64":0.003130245774728579,"65":-0.007296717405440748,"66":-0.0689468371132411,"67":0.017091634825931706,"68":0.015422493047993265,"69":0.003217726357329964,"70":0.007203122157256299,"71":-0.05666192925037164,"72":-0.09303910042338559,"73":-0.04018638458507134,"74":-0.02311300729234508,"75":0.006967381405112062,"76":-0.023764185183268796,"77":0.02042620381266884,"78":0.06416790215452578,"79":-0.02500233926418138,"80":0.03939557707382472,"81":0.09714948481591695,"82":-0.01899922391685845,"83":-0.04993752513813633,"84":0.020314689486841522,"85":-0.1309442843477872,"86":-0.03503429101237802,"87":-0.03397785681250168,"88":-0.003167375983397705,"89":-0.07942511541693992,"90":0.09080503832664709,"91":0.05486756018762528,"92":-0.0312754456182664,"93":0.06556078033694909,"94":0.01682441662620804,"95":-0.0002930739356679076,"96":0.009385653012899384,"97":0.06568232430227294,"98":0.01455151078239939,"99":-0.1021399233841538,"100":0.03431031798519546,"101":0.07272835869208723,"102":-0.025676361128956,"103":-0.013385068071155156,"104":0.012773629098346407,"105":-0.08040719669923735,"106":0.05062737398879046,"107":-0.008725089539393615,"108":-0.07310901115080307,"109":0.005968734826939119,"110":0.06790057283335377,"111":-0.06148699286159355,"112":0.019062358007286256,"113":0.06926743446984293,"114":-0.005623029557282576,"115":-0.02399152548780885,"116":-0.06793152089961164,"117":-0.02072619801416686,"118":-0.019764242533373905,"119":-0.005245098314648483,"120":0.02527210126433699,"121":0.04471459800594514,"122":-0.02391540215404218,"123":0.025338026505525954,"124":0.014817898690872938,"125":0.03608561706669135,"126":0.009524374938058614,"127":-0.034214671635847516,"128":0.07461018285168648,"129":0.03002350954512649,"130":-0.023878614673149643,"131":0.022250971015053186,"132":-0.07907314847241567,"133":0.034902012107871375,"134":-0.05628004612206867,"135":-0.04369077477349017,"136":0.002167948647802507,"137":0.1293867683895266,"138":0.04004242544023661,"139":-0.03816193079900528,"140":0.04294289717521114,"141":0.023825496868378288,"142":-0.006475969709654044,"143":0.018501936016378135,"144":0.019734872111528506,"145":-0.02490933073715434,"146":-0.011010583467038097,"147":-0.11348271771211473,"148":0.026593932566224537,"149":-0.033774114614138595,"150":0.016560970222524257,"151":-0.018244548805568094,"152":-0.07438499440299638,"153":0.024792622086023702,"154":0.05534270280057349,"155":0.0722486792477359,"156":0.0916048124036848,"157":0.021114207526185855,"158":0.1369028268670731,"159":-0.017368092800374917,"160":-0.0052268670046430364,"161":-0.006523229762087143,"162":-0.04547037692034763,"163":0.07980816581112776,"164":-0.06423249052310741,"165":-0.07712488706156102,"166":-0.005160651658064863,"167":-0.00585319583433677,"168":0.04493456225584117,"169":0.08549493581527988,"170":0.046510831107057116,"171":-0.042927117973983936,"172":0.008737712084904276,"173":-0.03676622930701849,"174":0.03110523891149535,"175":0.04405283018862008,"176":0.10060678622581473,"177":-0.05972052735267277,"178":0.07973189818875662,"179":0.0628784932652329,"180":0.0032766509163204226,"181":0.01597952283903138,"182":-0.07395341169314194,"183":0.030476140460428285,"184":0.04864180007193134,"185":-0.03221899444481258,"186":-0.07504970897735232,"187":0.04161995937615012,"188":0.046866901714001714,"189":-0.04638787630624203,"190":0.026432592892806226,"191":-0.012324961902272353,"192":0.00533685632638208,"193":0.010569051554375705,"194":0.00399127759887051,"195":-0.07011388003547336,"196":0.0010885150379844606,"197":-0.0056553901085624764,"198":0.0393386269798258,"199":0.06868828193735649,"200":0.061498443420192304,"201":0.05092823809043166,"202":-0.0358771539965615,"203":-0.0007206268826407243,"204":0.003046373869088498,"205":0.027089566720017652,"206":0.060931052361073025,"207":0.05266732324860051,"208":-0.028442845131609863,"209":0.02295942814620531,"210":-0.07239282282779626,"211":-0.00013923167124120882,"212":-0.07038368748032046,"213":-0.0261871576001773,"214":-0.009773217048860978,"215":-0.04323209229748043,"216":-0.02053098939490079,"217":0.026752375030409527,"218":-0.016847457992250195,"219":-0.05590731340262736,"220":-0.024406160639220676,"221":0.01482163278367314,"222":-0.030947341446222715,"223":-0.05861680042278651,"224":0.008008267084305916,"225":0.03019441691449682,"226":-0.04226102034192411,"227":-0.07568112787861829,"228":0.03734440371753014,"229":-0.030058251469121,"230":0.0594504259354956,"231":-0.020916335119085184,"232":0.019811727288112542,"233":-0.027619160138272644,"234":-0.020925752276084793,"235":-0.04837203196348518,"236":0.01383885797762963,"237":0.035925773652489904,"238":-0.02837638342498695,"239":-0.006592106839866954,"240":-0.0441358107512285,"241":-0.06358334342170513,"242":-0.024327427518770917,"243":0.03910679586080921,"244":0.03969387884945085,"245":0.011756399994679118,"246":0.032450566145345236,"247":-0.0775914471745042,"248":0.009153909679675342,"249":-0.04234234531377827,"250":0.016483069407071508,"251":-0.06675047489555685,"252":0.04942506649669502,"253":-0.005820936313423994,"254":-0.011817109731928769,"255":0.0014036425389725295,"256":0.017379058476877027,"257":-0.04966071451591409,"258":-0.02887751814055894,"259":-0.009129873239763275,"260":-0.022092267492034356,"261":0.09335241318810181,"262":-0.11442003891620256,"263":0.05171519658527547,"264":-0.006020842947936092,"265":-0.003105592900254147,"266":-0.03501571848990974,"267":0.05911712022941998,"268":-0.03823217700813966,"269":0.02809036113646424,"270":-0.00974754114063467,"271":-0.02490595011006091,"272":0.021489693019235683,"273":0.04341949302015937,"274":0.042281400611109,"275":0.05726373222386893,"276":-0.037816608816630945,"277":-0.03143387083297452,"278":0.007655318039118401,"279":-0.03975619284166495,"280":-0.00557222059156478,"281":0.07181142055694864,"282":0.017107849869663606,"283":-0.07574125986627929,"284":-0.008970617964700845,"285":-0.038902075755610874,"286":-0.00429210826091972,"287":0.05692166284733704,"288":0.034371679446443246,"289":0.029038615733521376,"290":-0.08170342555114679,"291":0.03746914816095152,"292":-0.005076989255086385,"293":0.048690930565238405,"294":-0.007011041888278898,"295":0.037644381319810113,"296":-0.07623027311570549,"297":-0.03732327895740151,"298":0.06785536635167226,"299":0.018695169347716707,"300":-0.023296153797124044,"301":0.041184835649121274,"302":-0.05243436043837896,"303":0.001193406021242141,"304":-0.055820041888171384,"305":0.05188800390316466,"306":-0.03602505884852304,"307":0.021664022385388705,"308":0.0493359098938149,"309":-0.033810576755291324,"310":0.03273733134790568,"311":-0.06336961716368933,"312":0.002775521117919692,"313":-0.006744912525175408,"314":-0.08053966197457316,"315":0.009906646101749947,"316":-0.03796724476709537,"317":0.005326323039266805,"318":0.03623856048206766,"319":0.0041122767652477495,"320":-0.059761264186259294,"321":-0.032073164067484256,"322":0.031417482278056956,"323":-0.018342378058397214,"324":0.07774208913435036,"325":0.04301425077364523,"326":-0.09062429412223572,"327":0.004497164912623221,"328":-0.014885587960504612,"329":0.05840874281072298,"330":-0.012939101549416665,"331":-0.038753908470028756,"332":0.03872054725605355,"333":-0.006848824633863535,"334":-0.027945739577907202,"335":-0.06639427672555477,"336":-0.03625772058928928,"337":-0.02016724734340918,"338":-0.07354147873077085,"339":-0.003055203613341417,"340":-0.02974194116614987,"341":0.02035750217077847,"342":0.0064754972844236645,"343":0.00950368536102337,"344":0.018300743550187765,"345":0.020805850187933288,"346":-0.0352941962447421,"347":-0.02782578580585512,"348":-0.039705877558525976,"349":-0.10078962762166747,"350":0.0173223357634939,"351":0.035626944972076385,"352":0.012659380306160031,"353":-0.04874708514683326,"354":0.002491408806319986,"355":0.01685048115611659,"356":0.04722756010571374,"357":-0.019747988678080506,"358":-0.04802736071459228,"359":-0.08373848578503451,"360":-0.016323665728110136,"361":-0.013027341957767929,"362":0.024021520270910056,"363":0.0434601933610443,"364":0.04142623187741783,"365":0.08014370359851729,"366":0.0135755725602213,"367":0.03969546434643631,"368":-0.004268023811235847,"369":-0.03912006732681553,"370":-0.00895676707054167,"371":-0.03960031489915663,"372":-0.010258116762584498,"373":0.04768982585506329,"374":0.0069228995714620675,"375":-0.060978554012567625,"376":-0.027628787018590624,"377":0.028912023535925837,"378":-0.010289890675241768,"379":-0.008247458977903353,"380":0.04882148234274955,"381":-0.024264585296689144,"382":0.04805130094190984,"383":-0.05136878610353372,"384":-0.05138615805375866,"385":0.05078891139179921,"386":-0.058637354777612685,"387":-0.03421352901576804,"388":-0.011892607114010032,"389":0.02417071443704334,"390":-0.04364655881156772,"391":-0.01757377927849649,"392":-0.07005908775205522,"393":-0.0906184069580788,"394":-0.0018993464249967942,"395":0.025309588755823394,"396":0.010693523157694866,"397":-0.009555154098561747,"398":0.04334812966212885,"399":-0.022077039689437826,"400":-0.025982911385955567,"401":-0.03876735627482473,"402":-0.026324845965766584,"403":0.05801927410142986,"404":0.07442636966288858,"405":-0.03554119425751319,"406":-0.009170800045998106,"407":0.03279415590244153,"408":0.06160773262996345,"409":-0.03370242355034436,"410":-0.01582276969832317,"411":0.024054410534160717,"412":-0.006944376715244836,"413":0.048872587838664217,"414":-0.032013147051471694,"415":-0.00799501447186697,"416":-0.030451909503072267,"417":0.0689039185994973,"418":-0.027468105428579553,"419":-0.014241310577024623,"420":-0.027347406447429033,"421":0.024375361402767526,"422":0.08629673760437585,"423":-0.0024013647045296434,"424":-0.044808709169827016,"425":0.03779664399696539,"426":-0.02327812167305483,"427":0.00933134027430731,"428":0.018556769673516185,"429":-0.03527016513768984,"430":-0.0888856671728281,"431":-0.1172012103655871,"432":0.049422572261258846,"433":0.04066210311785523,"434":-0.024157369571152033,"435":0.016625162367485354,"436":0.03194452223777863,"437":-0.07546023412637863,"438":-0.02622335116849584,"439":-0.01632926421411072,"440":0.027839306452541953,"441":0.03307285755969435,"442":0.021708411235916703,"443":-0.022566938309477445,"444":-0.03539929019410185,"445":-0.011895759646320461,"446":0.023521560585433025,"447":0.0444463953821859,"448":0.054748633361828725,"449":0.008495132993572862,"450":-0.10245998728836833,"451":-0.022971899884598343,"452":0.10080625121154908,"453":-0.10931861167464803,"454":-0.08967591872452742,"455":0.03854615155374498,"456":-0.018271791796343657,"457":0.00604276195235299,"458":-0.0022412525777236528,"459":-0.01225672450952393,"460":-0.053721787243011895,"461":-0.016581920577130392,"462":-0.010550178574982291,"463":0.004122324191683299,"464":0.09251338222028851,"465":-0.005783362477696134,"466":0.046433949119092495,"467":-0.040005587028926363,"468":-0.01266263047287479,"469":-0.03770479258201025,"470":-0.005688262246119625,"471":-0.04654775931115718,"472":-0.00007586916994877334,"473":-0.05159179626194796,"474":0.017662715476011684,"475":-0.019908414780770604,"476":-0.02363454242548546,"477":-0.01961024539270997,"478":-0.04613714014679645,"479":0.02645879179404028,"480":0.03308636807123216,"481":-0.00503102881744316,"482":0.1168134387350001,"483":0.0043662291843720525,"484":0.0012327671110275195,"485":-0.024423185467730438,"486":0.03081542757669516,"487":-0.003413913932718872,"488":-0.030132064492635346,"489":-0.06299747653646456,"490":-0.0532439176812602,"491":-0.008471603756586898,"492":-0.05096390275384968,"493":-0.06239364534684912,"494":-0.005572334211854598,"495":-0.062009577671183536,"496":0.018652118382480102,"497":0.08213908928996767,"498":-0.0357664689424304,"499":-0.020706355309269855,"500":-0.026462038400647907,"501":0.06284730170177578,"502":0.010563933735504256,"503":-0.016744682181453512,"504":-0.004611918469461818,"505":0.05709037316316354,"506":0.053895745119374935,"507":-0.014864535658762737,"508":-0.001818826001037794,"509":-0.004819702707281908,"510":0.05058002347970377,"511":-0.0021002963576188948,"512":-0.08130560398433705,"513":-0.060482676574757206,"514":-0.003545221881735212,"515":0.001720467810267358,"516":-0.0561571683436929,"517":0.060741081944586856,"518":0.054221138035946574,"519":-0.03994611244545522}},{"sx":1,"sy":1,"depth":520,"w":{"0":-0.01690374755077927,"1":0.01661037025926574,"2":0.0013733986863790316,"3":-0.054406264138698805,"4":-0.032971425874936226,"5":-0.05381103351988644,"6":-0.024039584332115827,"7":-0.04214353788760271,"8":-0.01892316995895821,"9":-0.031078708429527483,"10":0.04750489509692961,"11":0.002902881036389168,"12":-0.001787255470007019,"13":-0.034709547445117526,"14":-0.019147285237736233,"15":0.028527598268560793,"16":-0.009341272486543682,"17":-0.07578880666335558,"18":-0.0999309830295498,"19":0.04495948404834295,"20":0.044078031824116126,"21":0.010356755227896456,"22":-0.06748547651942005,"23":0.044967606758704246,"24":0.03387039476122906,"25":-0.02914119952299896,"26":0.029786990116416553,"27":-0.05063976785848847,"28":-0.0861157264846158,"29":-0.027232360265166875,"30":-0.01575669841823224,"31":0.030513945765107395,"32":0.055012313418798475,"33":-0.008053880265178824,"34":0.07238801944774974,"35":-0.04467639968436286,"36":-0.03764708218546452,"37":0.05352508495256249,"38":-0.029118676713860637,"39":-0.04068306329611935,"40":0.04835314429041161,"41":0.09615667763642252,"42":-0.0629799117409126,"43":-0.0026505192654314386,"44":-0.043117161510895216,"45":-0.02585001631765379,"46":-0.013528488782843818,"47":0.07202413887388902,"48":0.10029866261319492,"49":-0.006444217963474601,"50":0.03345688434688144,"51":0.02057439540739844,"52":-0.015834853773434524,"53":0.015371535650586868,"54":0.004765282144583963,"55":0.027274446376082194,"56":0.0673117222006828,"57":-0.013556517771952478,"58":0.02544791677155378,"59":0.021042684212860707,"60":0.01823972467228181,"61":-0.012608816199388095,"62":-0.010007320297051056,"63":-0.026701070765597332,"64":0.004688304581124678,"65":-0.05452251330223875,"66":-0.05887084814089801,"67":0.029824927403260995,"68":0.044612662034232205,"69":-0.0005342589030537932,"70":0.039563739901415346,"71":0.011612521749079072,"72":-0.054320434892141986,"73":-0.022818645589134018,"74":-0.0034673733778967175,"75":-0.012109334219771426,"76":0.027051482434468237,"77":-0.01507730904746132,"78":0.044481674699550285,"79":-0.017665594388639166,"80":-0.03115780644923312,"81":-0.06657187669307925,"82":-0.015618402997139997,"83":0.08613904835527013,"84":-0.026670946840074792,"85":-0.08322085655037156,"86":-0.02803930853853221,"87":0.09010400661270972,"88":-0.060640085318252,"89":-0.03424753256227819,"90":-0.044130212387323876,"91":-0.0800937098160771,"92":-0.06744292148309655,"93":-0.007826075173845311,"94":0.06876579733917186,"95":0.001730002734038615,"96":-0.0713844166880415,"97":-0.01654353969387261,"98":-0.13061295311261925,"99":0.034085827667068753,"100":0.03771956959374285,"101":-0.031508701029926235,"102":0.07228041098664156,"103":0.059167193802256164,"104":0.0174064866234667,"105":-0.011660458938731468,"106":0.06124139193158105,"107":0.028554017508049683,"108":-0.03645967395366759,"109":0.03817012711385839,"110":-0.009909143997197695,"111":-0.05756713135382138,"112":0.05737652141184191,"113":0.049768876189326856,"114":0.01247515801228415,"115":0.05257600969592565,"116":0.00477498287053818,"117":0.0034923635907145516,"118":-0.008502217039600581,"119":-0.04774844191352744,"120":-0.01469232942841863,"121":0.009063805920587071,"122":-0.003439894232180334,"123":-0.08416688924248848,"124":-0.0254672076451197,"125":0.02184074190675161,"126":-0.05109507816438291,"127":-0.034634321681921154,"128":-0.03381213737571961,"129":0.01415107967322852,"130":-0.01745394579482619,"131":0.053840582895277087,"132":-0.009952390629298934,"133":0.0330715927730829,"134":0.03676438129294926,"135":0.07064527552724005,"136":-0.062068996222466546,"137":-0.04431182444929275,"138":-0.012024573014495943,"139":0.006569696124787374,"140":-0.014101493616700487,"141":-0.07481263815262897,"142":-0.061138227925889466,"143":0.03457680546046982,"144":0.01862810684696975,"145":0.016247530692836264,"146":0.013107885117074095,"147":0.011034600167715077,"148":-0.05111217918214305,"149":-0.005914263375203213,"150":0.019219490719132544,"151":-0.010342034003843151,"152":-0.07953998289222042,"153":-0.026789904849667468,"154":0.05807987779975254,"155":-0.01566134585210443,"156":-0.042586948658483954,"157":0.06819700743913823,"158":0.013704412713579714,"159":0.01786660330739821,"160":-0.03564794804677755,"161":-0.04977690084237017,"162":-0.019234325346844574,"163":0.017068942260748763,"164":-0.030211579691976954,"165":0.004749305410347753,"166":0.03409587285043923,"167":0.0043922877458245175,"168":-0.006153885081796444,"169":0.0885447588017821,"170":-0.03419558226976931,"171":0.07764269084158483,"172":0.004588102305457486,"173":-0.16675842786536066,"174":0.13212915947401815,"175":0.011836476082360348,"176":-0.0031991624878604558,"177":0.08755502040366822,"178":-0.027425454245062278,"179":-0.01791746422818074,"180":0.016440727458046693,"181":-0.042950229686520444,"182":0.06528528452377214,"183":-0.010635042303878166,"184":-0.03767011824614309,"185":-0.012540258191530268,"186":-0.023022471650276044,"187":-0.004915157328650104,"188":0.048344878608980756,"189":-0.013842529111732645,"190":0.033117662763706056,"191":0.07515081558100076,"192":0.03378155061682427,"193":0.030082563677274247,"194":-0.03063534415099568,"195":0.012472315991924192,"196":-0.051186578154368764,"197":0.020427280443080342,"198":-0.06918541407601478,"199":0.04351978110126602,"200":0.04180962803222456,"201":-0.005410844070831434,"202":-0.0005401288482977761,"203":0.0373708864100519,"204":-0.01353797468402193,"205":0.012497302612222334,"206":0.02730297075197596,"207":-0.040557225704701196,"208":0.03327722924784568,"209":0.027718167547230655,"210":-0.04099306538733963,"211":0.022151158559403052,"212":0.014415292651154104,"213":0.024830630786179492,"214":-0.027877498006719573,"215":-0.03073333877520952,"216":-0.09683342331847454,"217":0.03957071556403315,"218":0.03481837590332536,"219":-0.009971054743660989,"220":0.014853146308861016,"221":0.024815883647448987,"222":-0.06682532211737763,"223":-0.02685607618335204,"224":0.015363583292108955,"225":0.05290401837365711,"226":-0.02501276730030548,"227":-0.05472910774730833,"228":-0.01097930828286765,"229":0.0052322593895579314,"230":-0.013230241943933728,"231":0.020443446956119916,"232":-0.0013731426265732995,"233":0.013064513228748232,"234":-0.027809463777407718,"235":-0.029964979187483445,"236":-0.02122058836644642,"237":-0.030530066428366087,"238":0.03747219546787392,"239":-0.035540485417269126,"240":0.007673434601376029,"241":0.005712901913712857,"242":0.021266238977084323,"243":0.016920538563406213,"244":-0.0372036670350372,"245":-0.0200156649603224,"246":-0.07497781640240153,"247":-0.04062038034194116,"248":-0.027834931373040436,"249":-0.004852665829470779,"250":0.012214518390317012,"251":0.03031910746913785,"252":0.023197313197836227,"253":-0.007898314310884376,"254":-0.11876608316196625,"255":-0.038510993722510385,"256":-0.021531364614674947,"257":0.0002639770703529814,"258":0.04962070280436988,"259":0.007620458507369988,"260":0.029319756196471397,"261":-0.0005112031558565131,"262":-0.013324291045536242,"263":0.055064470914141087,"264":0.004273184874889631,"265":0.04140877320299391,"266":0.005022140241582495,"267":-0.03537516835561062,"268":-0.05401566495949147,"269":-0.05276031818254364,"270":-0.04541708815273394,"271":0.062217336214462925,"272":-0.04566871394478704,"273":-0.008440119257086588,"274":0.09216425865331353,"275":0.021823573572471312,"276":0.06522982994766907,"277":0.028886148103853922,"278":0.025510483754370445,"279":-0.0020752282041727756,"280":0.00268220127228992,"281":-0.00039551880479096117,"282":-0.00031937833359364136,"283":0.005858743622529271,"284":0.048956979680375295,"285":-0.003963586107941338,"286":-0.06316198595333383,"287":0.03139117912913168,"288":-0.060589948910273896,"289":0.06326736313361407,"290":0.05725421468224761,"291":-0.07346218034900737,"292":0.06438292728787237,"293":0.00936946679602853,"294":0.07852193335121194,"295":0.051916164672576495,"296":0.006412695897938611,"297":-0.023944294223023042,"298":-0.01098965966289884,"299":0.023669456220512874,"300":-0.026216293849651646,"301":-0.04218790341818097,"302":0.029604408041697814,"303":0.049697095707351924,"304":-0.05788850616863736,"305":-0.015058307813697972,"306":-0.039993405362075955,"307":-0.029119025414271082,"308":-0.06977524465951448,"309":-0.03085523572881058,"310":0.015323367677412561,"311":-0.01158853247352684,"312":-0.03896580990382956,"313":0.02738872819418852,"314":0.044412829444795535,"315":0.04996514173068942,"316":0.004693522353963529,"317":0.020980329219989702,"318":-0.039002482473674084,"319":0.04369524671391219,"320":-0.01614112191219683,"321":-0.0029621800648298815,"322":-0.021272338817962998,"323":-0.01852153237321187,"324":0.05557559442063238,"325":0.09664746570820323,"326":-0.011388949523069578,"327":0.05220084098051947,"328":-0.01934611710355208,"329":0.011003589321352111,"330":0.01819637824992513,"331":-0.014552323519069437,"332":-0.09787412045936168,"333":-0.008774465625237088,"334":0.011271784600410636,"335":0.027911291094498237,"336":0.05879907528753501,"337":-0.03694152086284473,"338":0.00415961282853651,"339":0.03815651224617083,"340":0.02308270727822911,"341":0.013953873194043329,"342":-0.10512621109511112,"343":-0.036521179158351236,"344":0.029329826639414098,"345":-0.018749072144516418,"346":-0.10186444409514392,"347":0.04286613111422316,"348":0.020516839227263495,"349":-0.048082118181643076,"350":-0.04147259542530216,"351":0.02253180665529285,"352":-0.05866153612060532,"353":0.037704471698905846,"354":-0.00570399419926832,"355":-0.05506894214596058,"356":0.1076908077413486,"357":-0.05671384257449074,"358":0.003992713678978712,"359":-0.012538212529692408,"360":0.0017872075143373775,"361":-0.024461370566151597,"362":0.026134719527574093,"363":0.03726155433809605,"364":-0.0038330520336967537,"365":-0.03806165536754488,"366":0.03654472576469113,"367":-0.08392540930067664,"368":-0.011414130445738526,"369":0.09590007478683554,"370":-0.10613125544123626,"371":-0.06406429812654678,"372":0.010595376572414933,"373":0.007583877622284122,"374":0.026562718259420314,"375":-0.03744188707207138,"376":0.014645559868780083,"377":-0.07829559647964512,"378":-0.0013021183968851084,"379":0.019841249855471765,"380":0.033015259587887036,"381":0.006374339559001552,"382":-0.03360850328837353,"383":0.034203350099408385,"384":-0.015323114802738503,"385":0.04510353900770654,"386":0.05277215584059068,"387":-0.025022853449880013,"388":-0.0376055291065574,"389":0.12113746806590123,"390":0.012674832531130054,"391":0.019875600450140887,"392":-0.02609235810320311,"393":0.016298983815755626,"394":-0.09257936162779494,"395":0.009261073050695956,"396":0.04048467752627017,"397":-0.03911580764714083,"398":-0.02014549982998259,"399":0.03138120531159534,"400":0.05074378367630549,"401":-0.013608718034942568,"402":0.04925440478867657,"403":0.012964009070446213,"404":0.015295474493609176,"405":0.027056168609312644,"406":-0.01795120496044599,"407":-0.043039765432829946,"408":-0.05959781773113431,"409":-0.014862722968811266,"410":-0.06253164934452146,"411":0.043727958676027454,"412":0.09150477622100917,"413":-0.07828734331185666,"414":-0.04842714884139557,"415":-0.005452489684474023,"416":-0.0047448400133492195,"417":-0.02391497908709334,"418":0.021444324509257325,"419":-0.013365318898931089,"420":0.029632861701935083,"421":0.04697867808870494,"422":0.0750337027781242,"423":-0.02692370461998084,"424":-0.01824243895814394,"425":-0.025037822091154825,"426":-0.0028252323280141757,"427":-0.06535800878498742,"428":-0.022005249869292563,"429":0.06753770586801852,"430":-0.037467184354324966,"431":0.06180505367636733,"432":-0.022614470883717146,"433":0.01918696025279223,"434":0.029535814900523285,"435":0.03470969495382386,"436":-0.045216492407998674,"437":-0.02926948269173656,"438":0.06851234791513128,"439":0.05153378977012007,"440":-0.01274612176153665,"441":-0.032354691636943426,"442":0.059373626945883204,"443":-0.06310852232577116,"444":0.0403217640021586,"445":0.0026418569044208678,"446":0.05550356606098209,"447":0.019460422758336624,"448":-0.10160565457813901,"449":0.03170097046067075,"450":-0.09826332247870682,"451":-0.003044598872169735,"452":-0.01825403831562951,"453":-0.007362342001430286,"454":-0.1095316813244109,"455":0.0001362658833528357,"456":-0.02656824501540467,"457":0.12842895003402408,"458":-0.023516344820766283,"459":0.030817673066055744,"460":0.03605412633499839,"461":-0.002935805609172916,"462":0.07033144459800963,"463":-0.08603152794755738,"464":0.12073515137015424,"465":-0.008755579862436642,"466":-0.06346751180567815,"467":0.010759115619319632,"468":-0.026436408038160327,"469":-0.012167153448489012,"470":-0.007504844938488645,"471":0.08644247095312596,"472":-0.027885850310683087,"473":0.009096747005881435,"474":-0.040214605486990754,"475":-0.012023432025159122,"476":-0.008315326357899088,"477":0.04743201053348535,"478":0.04942731427576799,"479":-0.02609407149195382,"480":0.07035852106992099,"481":-0.0398832453831796,"482":0.02872688028585452,"483":-0.03876371445416031,"484":0.0065068612664219705,"485":0.04033620045818401,"486":-0.009478143959680371,"487":0.096779048166656,"488":0.024197763016697293,"489":-0.004138490472098308,"490":0.052652762355702196,"491":-0.04226440813376445,"492":0.0117104112051746,"493":0.001590230712606403,"494":-0.038833084663055906,"495":-0.010864211645629793,"496":-0.05501467126782968,"497":0.04540965851176884,"498":-0.0207302288314753,"499":0.04507081051658827,"500":-0.04980188931953564,"501":-0.0009123840472770381,"502":-0.06401561873721645,"503":-0.05617727010822099,"504":0.09929509200601573,"505":-0.01804327646805507,"506":-0.04757678608982816,"507":0.0008550801716994511,"508":-0.010725258903552002,"509":-0.0037755598986591783,"510":-0.024745820476364932,"511":-0.044576519229381814,"512":-0.004801560247250157,"513":0.0642864419113026,"514":0.048600409052065745,"515":0.02696260349505981,"516":0.035184564105750306,"517":-0.00019022083787957446,"518":-0.008558305503294096,"519":0.04367485967275235}},{"sx":1,"sy":1,"depth":520,"w":{"0":-0.009097306665946629,"1":-0.061175540854190864,"2":0.05119291224946745,"3":0.059746682235561656,"4":-0.0276608748227372,"5":0.04033430581270688,"6":0.003556024275372721,"7":-0.069500852553707,"8":-0.05929931266199982,"9":-0.010283417676456647,"10":0.05123335492010326,"11":-0.08270944420172334,"12":0.042744960977552024,"13":0.036427894651210956,"14":-0.027502986708323875,"15":-0.04262164705994761,"16":0.020622578822788142,"17":-0.014030079545434507,"18":-0.045491985467305915,"19":0.01810640150874498,"20":0.0027564326844428137,"21":0.04656010790794083,"22":0.06337299129173318,"23":-0.05512498618761736,"24":0.026288176002250994,"25":-0.05617052299274161,"26":-0.005612186019110432,"27":0.027233339878312564,"28":-0.050065868849443355,"29":0.036543978321612575,"30":0.001967130451062056,"31":-0.00019985976409115624,"32":-0.02735326370509737,"33":0.05792899850665878,"34":-0.05177174579253505,"35":0.0388082639255687,"36":-0.01810435165689759,"37":0.06456962058060124,"38":0.006725633213617578,"39":0.04660845830194815,"40":-0.054093525852003166,"41":0.06589420171766926,"42":0.1370467744636353,"43":0.02733240185745154,"44":0.043507458580614056,"45":0.010539099002753438,"46":0.05808845903373837,"47":0.009731384331773637,"48":-0.019689292355309782,"49":0.019067870076543744,"50":0.006264417868168472,"51":-0.058898992113196755,"52":0.00428068089919786,"53":0.032307903872953216,"54":-0.029681445567346924,"55":-0.024656240977281207,"56":0.0052450411773781,"57":-0.0523392730257599,"58":-0.04418690329827622,"59":-0.015009840421233928,"60":-0.025565839565907567,"61":0.04503589428587641,"62":0.021394451240903268,"63":-0.03813797083947639,"64":0.024625031082179148,"65":-0.033075940112568876,"66":-0.013115585819058362,"67":0.09024308415417993,"68":-0.028599090810921244,"69":0.03712280400443456,"70":0.013278742115783776,"71":-0.07071280560890242,"72":0.03305656868489232,"73":0.03756608761252871,"74":0.06880897106559938,"75":-0.037708284552288224,"76":-0.013590790942024875,"77":-0.02489748172448869,"78":0.04867884496012325,"79":-0.03433153316037088,"80":-0.02449865460776937,"81":-0.018097478799060047,"82":0.025140565885986243,"83":0.04852249716126449,"84":-0.027735009562674013,"85":0.02770827237170168,"86":-0.038670133575808924,"87":-0.05978956272630846,"88":-0.045009450589270354,"89":-0.047167086952810515,"90":-0.06027199932114383,"91":-0.02245404676172196,"92":-0.046527625281382115,"93":-0.03734382688229307,"94":0.05287941047643517,"95":-0.01817745239474271,"96":0.035859646342383464,"97":0.03389760018350356,"98":-0.024104969463471924,"99":-0.06386018885905276,"100":0.09252221232108901,"101":0.037319894191188335,"102":-0.061803861653706334,"103":-0.0005300934379478753,"104":-0.017464458839520816,"105":0.05172996577997869,"106":0.020624621718157415,"107":-0.09281192671161147,"108":-0.060585759233838306,"109":-0.013127991794077934,"110":-0.013508076935164511,"111":0.04742256243966656,"112":-0.006437289247233929,"113":0.029711416267993066,"114":-0.029689665673647083,"115":-0.03839749168155445,"116":0.028629150455854183,"117":-0.008277414056391692,"118":-0.05472848394924066,"119":0.006087166349849861,"120":-0.062077306642220394,"121":0.05296776234087519,"122":-0.07249665819608475,"123":-0.001795091194056124,"124":-0.012307617855619676,"125":-0.03113652128547827,"126":0.051675616075742566,"127":-0.021759193648913728,"128":0.05793501757396712,"129":-0.004127766847541859,"130":-0.041427890275873756,"131":0.020804174393429038,"132":-0.009099884502126551,"133":0.013434666304118851,"134":-0.07966620832518913,"135":-0.005752205654755872,"136":0.023586423853300533,"137":-0.0063450076657585895,"138":0.01939899089882417,"139":0.10366645686755249,"140":-0.002333876904790985,"141":-0.028231055944693658,"142":0.0319101219495054,"143":0.042223378991711684,"144":0.03875030992509999,"145":-0.036949854278327296,"146":0.03875342527226031,"147":0.027189140284761618,"148":-0.021041900060315366,"149":0.004925940620252901,"150":0.042826724651973444,"151":0.011988292154978824,"152":-0.027633479160996125,"153":-0.035374582547087315,"154":0.04921453220322438,"155":-0.002585291502937218,"156":0.06512757557152525,"157":0.035815780062758235,"158":-0.04148241118025679,"159":-0.02222384584561044,"160":0.024778534396985404,"161":0.062183895187934955,"162":0.015617974072685378,"163":-0.013283369817333305,"164":0.012060756203693065,"165":-0.03238170758895254,"166":-0.0473306871640779,"167":0.016198476084557538,"168":0.008866489810023793,"169":-0.034664271435200386,"170":-0.01952746620353892,"171":-0.05044460013551641,"172":0.022165760801444903,"173":0.04398718674568766,"174":0.005955048605318404,"175":-0.008281758472106453,"176":0.08157923510950092,"177":-0.007023969394521502,"178":0.0642239906290049,"179":0.03156205345437663,"180":0.020502118329629254,"181":-0.0024371669552887077,"182":-0.05663896583917438,"183":0.0014650979064891384,"184":0.04241240884448785,"185":-0.007447762608306253,"186":-0.008989645276968897,"187":-0.02458375984485227,"188":0.051664611884542015,"189":0.025529573276363623,"190":-0.025480334491194145,"191":0.031011339965906687,"192":0.019167674422540037,"193":0.06691189414490066,"194":-0.04207393643520193,"195":0.09196241032180955,"196":0.0052900172437456055,"197":0.026658262950661968,"198":0.07392559584286129,"199":-0.01921857836808363,"200":-0.04995178802018812,"201":0.037700157384455604,"202":-0.05133510197515095,"203":-0.01652218590333068,"204":0.054605283276133336,"205":0.02907689037063333,"206":0.029436428876490586,"207":-0.01830469161692113,"208":-0.0450810881579005,"209":0.03380506178285366,"210":-0.05733994643218281,"211":-0.058598360078448944,"212":-0.0006212651717627467,"213":-0.03635774635476971,"214":0.016999522727526667,"215":-0.04983895316532051,"216":0.01807909581279738,"217":-0.00005462823973863259,"218":-0.06748977081040321,"219":0.04816341479692409,"220":0.05074816799790827,"221":0.040499878542925825,"222":-0.036674467081311446,"223":-0.014311295830424925,"224":0.029572657880273856,"225":-0.011425944243705253,"226":0.006727348947023024,"227":-0.03763476680405756,"228":0.035145320201287335,"229":0.004263150950899566,"230":0.0128898543339577,"231":-0.0611002574533866,"232":-0.008166479718740412,"233":0.0397647474211598,"234":-0.023047561610602233,"235":-0.03779579914339673,"236":-0.035920278625700935,"237":0.05105695044921302,"238":0.01547098131550276,"239":0.04090090316580079,"240":-0.006566783293668498,"241":-0.04816120302452382,"242":-0.006483463155558511,"243":0.0368503414784987,"244":-0.0012388620811816479,"245":-0.010504881187776307,"246":0.09894821886956834,"247":-0.008951483163965853,"248":-0.04638722733204235,"249":0.023661616575816828,"250":0.011051884513109822,"251":-0.02079760431700994,"252":-0.0025814237219256193,"253":0.09874431300179655,"254":0.0016715767862464784,"255":-0.04612418963094873,"256":0.0308335679506078,"257":0.0034088505403157957,"258":0.021100687916497874,"259":-0.0008165349212874557,"260":0.0071923740484864185,"261":-0.0005607357383476976,"262":0.06422617340757464,"263":-0.041244703973988564,"264":-0.02197184980474066,"265":-0.013421903633360932,"266":-0.04447843663528181,"267":-0.02399273819606087,"268":-0.0323982688076044,"269":0.015023243458703962,"270":0.02746443908070711,"271":-0.11747790896820685,"272":0.04940407039840122,"273":0.02178828732987476,"274":-0.08621690740999426,"275":-0.0444145798913751,"276":-0.01624336825122362,"277":-0.04567663538776921,"278":-0.03930165679837828,"279":0.012641513372917463,"280":-0.012113141600847954,"281":0.06843224272470307,"282":0.06720228123081658,"283":0.04161913751339892,"284":0.07559759639773608,"285":-0.054836075007669176,"286":-0.0028316824303798904,"287":0.04623873517279168,"288":-0.05763819805846577,"289":-0.027478660938851356,"290":-0.02796382295274489,"291":-0.04044843059154437,"292":0.03648524584346127,"293":-0.045507136562827934,"294":0.020701074918871833,"295":-0.04439368676103988,"296":-0.0036884570478846667,"297":-0.014288508485420381,"298":-0.014689804572604616,"299":-0.0665362592468871,"300":-0.06239444471822802,"301":0.029994135111093473,"302":0.07441664841277382,"303":-0.05376330877879181,"304":0.0067290655187991055,"305":-0.014298255740475439,"306":0.006687621413172021,"307":-0.0038140462133957184,"308":-0.0050332575683850215,"309":0.023626601816127527,"310":-0.03723120059360998,"311":-0.005175151502531786,"312":0.01175182836668738,"313":0.03912674506390302,"314":-0.03761800999064503,"315":0.060374784114908354,"316":0.00519043022182072,"317":-0.0744491444562055,"318":0.003941863865208779,"319":-0.031044146293572557,"320":-0.02601823252922951,"321":-0.03050435258374161,"322":-0.0885153094614502,"323":-0.0004508718281993763,"324":0.06294786068036602,"325":-0.02506797570900017,"326":0.037630976719842786,"327":0.01066341949393386,"328":0.00559644254845832,"329":0.027275002577081743,"330":0.04128440752329587,"331":0.025003579944166576,"332":-0.016061740304007917,"333":-0.006989703596930526,"334":-0.04159551288679364,"335":0.034015071527174874,"336":0.06908491097661121,"337":-0.04265350723668202,"338":-0.019453385826768064,"339":0.055856017229902175,"340":0.007471020718806698,"341":0.001402769365935311,"342":0.06876241413112297,"343":-0.031370515976270615,"344":-0.00880961225146687,"345":-0.09927559567906492,"346":-0.00472835703384083,"347":-0.06504585963695099,"348":-0.006010814945087074,"349":0.003205286152218046,"350":-0.014319098837020065,"351":0.01702776926869472,"352":-0.01714721363277517,"353":-0.046096386103757804,"354":0.024336599023543414,"355":0.0422793424101277,"356":-0.01750316139427224,"357":-0.06812616858795284,"358":-0.04261702213737965,"359":0.017288807458540344,"360":0.017676910253039996,"361":-0.008738037402508069,"362":0.07949128754844899,"363":0.012725730434625158,"364":-0.004399569466684072,"365":0.03827874100369947,"366":-0.06129209796346412,"367":-0.08457337473722132,"368":-0.004543746302806972,"369":-0.0726300679289896,"370":-0.02099110417621391,"371":0.009094035758444053,"372":-0.06415211534741194,"373":0.07004248576603259,"374":0.008985215994121469,"375":0.03968802311669005,"376":-0.033810414144305946,"377":0.03158803871675932,"378":0.027248022096684074,"379":-0.007022584463108698,"380":-0.023689394471419413,"381":-0.06397498763042576,"382":0.03151812392255685,"383":-0.050563130793907764,"384":0.021836146185202722,"385":0.038606187965989906,"386":-0.04529218247826444,"387":0.008096336631361268,"388":0.00955646618418357,"389":0.03938882247858682,"390":-0.01781322332286983,"391":-0.035835983079111115,"392":-0.01808018444354114,"393":0.032520793900124176,"394":0.0558854616768898,"395":0.001354580090669476,"396":-0.05649062573788105,"397":0.0007286208151773546,"398":-0.015135423378849345,"399":0.016541957980681258,"400":0.017150705007284765,"401":-0.021541570561988767,"402":0.02254974778511794,"403":-0.03484967326923968,"404":0.09940176687846991,"405":0.002730030844025116,"406":0.11255583783072713,"407":0.025858032594922725,"408":0.0556966399058703,"409":0.007582942110569323,"410":-0.044645802472473066,"411":0.021566883414116722,"412":0.02413805079988532,"413":0.04142517448481354,"414":0.035068410192734975,"415":0.02829945227741214,"416":0.0326195817734248,"417":0.017020169608621107,"418":0.005986888742788954,"419":0.018999196718326904,"420":0.006622289164969528,"421":-0.08111212576164678,"422":-0.0798016086127638,"423":0.014571684153997838,"424":0.006555116457062335,"425":-0.07284006372897589,"426":0.013524989858183008,"427":0.002852728548981675,"428":0.05654576343525334,"429":-0.04090155035906875,"430":-0.020991355556215733,"431":0.021247904252995452,"432":-0.10300683435067534,"433":-0.009317956749381854,"434":0.020399735302861346,"435":-0.03089276537820656,"436":-0.010656163319728766,"437":-0.050834001369133276,"438":0.021746874912503142,"439":0.06978067352569224,"440":-0.009176922816340556,"441":-0.001803566265992539,"442":-0.0949920104356987,"443":-0.042792137425543754,"444":-0.03965848173214244,"445":0.008116864210576752,"446":-0.022706854365060623,"447":0.08238128307515231,"448":-0.04231728015968129,"449":0.030899151876169224,"450":0.007103434526407254,"451":0.06172659371202328,"452":0.03253664061912686,"453":-0.0013386705706957883,"454":0.019553765914477005,"455":0.0942880706397105,"456":0.07133529851655472,"457":0.020925453782215525,"458":-0.05608093735952073,"459":0.03270436522801927,"460":0.000028981505689334824,"461":-0.05947605481662993,"462":-0.09302190885170293,"463":0.022786972624114856,"464":0.03595120858209057,"465":-0.03493454262383321,"466":0.0578325774136532,"467":0.0016724812037325727,"468":0.05114313274820976,"469":0.000047949123203636717,"470":0.05217415614527417,"471":0.026866720534129408,"472":0.04616743700520819,"473":-0.10724011401819358,"474":-0.028210906680567794,"475":0.05049363944996304,"476":-0.03660800631912335,"477":-0.06213500309811628,"478":0.01039275633039398,"479":0.07976021564078284,"480":-0.022968735379416,"481":0.03637364949495256,"482":0.06724578746843929,"483":0.020284113628814895,"484":0.018878470769204764,"485":0.025811479827761427,"486":-0.022101788047121318,"487":0.0534238783479394,"488":0.00043094507046582574,"489":0.12166484957910022,"490":0.01752863458054745,"491":0.003969185626727334,"492":0.10257474073787402,"493":-0.05364660318071369,"494":-0.015355924117449151,"495":0.0011091438287163908,"496":0.04887403131853072,"497":-0.013598393722719692,"498":0.026206493413250143,"499":-0.11128002886143495,"500":0.0025140791596402596,"501":-0.0495194525989054,"502":0.06536134592158677,"503":0.04982607520732205,"504":-0.027676628708508788,"505":-0.006053068115736024,"506":-0.010165648998576837,"507":-0.07207901467010217,"508":-0.013207613168508157,"509":0.003936992547379882,"510":-0.04381023111723154,"511":-0.039297279686542404,"512":-0.05679056597286717,"513":-0.07058921789650335,"514":-0.04635013247320093,"515":0.08373910712992512,"516":0.04898748344465093,"517":0.016966654060858944,"518":-0.015021005608161974,"519":-0.13880683325889137}},{"sx":1,"sy":1,"depth":520,"w":{"0":-0.035224780498105124,"1":0.011624833250440687,"2":0.00471269694816735,"3":-0.02635393987982232,"4":-0.020423079174498177,"5":0.005961132854025487,"6":0.07827890776795396,"7":0.0747523343562454,"8":-0.049810654057547636,"9":-0.01848302881209675,"10":0.055382446126118645,"11":-0.006243954727534321,"12":-0.007900701140820518,"13":-0.000884125563946564,"14":0.024029785557561432,"15":0.011864227109525238,"16":-0.03751495694945722,"17":-0.07689690207614798,"18":0.04705865410770348,"19":-0.04650581223003666,"20":-0.008777612002013003,"21":-0.07710293251979015,"22":-0.09330714576570955,"23":-0.0014694561168574192,"24":-0.038016299459074865,"25":-0.0036606071007909864,"26":0.010503943211842576,"27":0.011543302752899361,"28":-0.08722892944775631,"29":0.0047482356402808725,"30":-0.022488649339077176,"31":0.06349987588634542,"32":-0.04052033886345399,"33":0.02956565192358388,"34":0.007641374354210076,"35":-0.09436757392685026,"36":0.006790296557022336,"37":-0.03686287608293546,"38":0.0071371486949805,"39":0.011478258752135402,"40":0.007034865386580428,"41":-0.00930726590918204,"42":0.0545538728283713,"43":0.01215213534961083,"44":-0.05331722238162737,"45":-0.047253383113105736,"46":-0.0029596812460194696,"47":-0.01704227755483529,"48":0.004309664168003441,"49":-0.0012762570448348284,"50":0.08128265752972462,"51":0.02923428139075271,"52":-0.002666843544574706,"53":-0.08049419345208113,"54":-0.02278533436463693,"55":-0.007301966177913562,"56":-0.04452147624656257,"57":0.0305278520311889,"58":-0.03795936825720929,"59":0.017666283495606866,"60":-0.021498139881640628,"61":0.05696449808241273,"62":0.033210089687589456,"63":0.12175803889557814,"64":0.02683314027476145,"65":-0.011468537224744812,"66":0.03356010934208679,"67":-0.09300014993733077,"68":-0.04938697859023911,"69":-0.003034381666208634,"70":0.010032230830166364,"71":-0.05997720509745441,"72":-0.0021164146311096845,"73":0.030603873667573396,"74":0.07830666009441058,"75":-0.011358603722821613,"76":-0.019039905462003105,"77":0.05305003675383973,"78":-0.07786877168543097,"79":-0.0036499239726978765,"80":0.009158431546915428,"81":0.08211745410395026,"82":-0.013404999087696559,"83":0.01986728434871366,"84":0.051252435952574255,"85":0.0500442772840561,"86":-0.03525130774804265,"87":-0.04139705502757325,"88":-0.07292003550666892,"89":0.009193602240948945,"90":-0.024740704293263558,"91":-0.04368811506887197,"92":0.008928580237883578,"93":0.008376460792441042,"94":-0.024190395480786706,"95":-0.0624991004868171,"96":0.06144496833194722,"97":-0.01525520557168332,"98":0.004716506976700735,"99":0.04920885292976721,"100":-0.004962288021152226,"101":0.03849694958331169,"102":0.03608694980679486,"103":-0.028566417443159506,"104":-0.029362482834238444,"105":-0.06215083017316022,"106":0.00997797568445466,"107":0.030570462308117198,"108":0.05408424305099726,"109":0.002256071434758978,"110":-0.037472601694165816,"111":-0.04645397747324968,"112":0.06150328234100262,"113":0.040529788000410925,"114":0.02444912785398895,"115":0.05740854586588853,"116":0.035241626069185746,"117":0.008397832202073748,"118":-0.009962195037579221,"119":-0.01758453408251066,"120":0.011724307612514398,"121":0.033386312815178384,"122":0.02970898149044701,"123":-0.027876349320817798,"124":-0.03599720902584596,"125":-0.019664930786753215,"126":0.008282668450507777,"127":-0.026554713443869254,"128":-0.006208901336160607,"129":0.04389577779871364,"130":0.0032069307382886565,"131":0.058219473311872286,"132":0.00232476687174706,"133":0.031481434723662674,"134":0.007968714263756603,"135":0.06276946888810318,"136":0.04949742350563105,"137":-0.0055495601912133406,"138":0.009462541381765404,"139":-0.011921441995795194,"140":0.004292922535918554,"141":0.0113771907888347,"142":-0.1148835118461378,"143":-0.058731674993921124,"144":0.07587821332791807,"145":-0.08225062357880975,"146":0.0028986855386155786,"147":0.017872749155013332,"148":0.0046453010449646025,"149":0.022129575069196397,"150":-0.07017753282144029,"151":0.02129396594076298,"152":-0.06791126556481514,"153":0.09036157901455134,"154":0.01328451569789377,"155":0.09783179686035638,"156":-0.07112121999697416,"157":0.020275267791683076,"158":-0.005881705431978194,"159":0.038507528904403066,"160":0.03801531151432958,"161":-0.020652112416637444,"162":-0.052212758149838834,"163":0.08074052481399825,"164":0.056785133908675005,"165":-0.10825559653843857,"166":0.0045515351375682795,"167":-0.022561950435196612,"168":0.009142055868673048,"169":0.05622531458861287,"170":-0.03220044614438569,"171":0.008520026859859224,"172":0.015287498908210817,"173":-0.03694830386535994,"174":0.0010384485895777867,"175":-0.00689429302588565,"176":0.03857981588015501,"177":-0.010813574061459653,"178":-0.029634050717486964,"179":0.046774923156297825,"180":-0.032121111103057175,"181":0.006771312415826133,"182":-0.00633959011336026,"183":-0.018551282419414613,"184":-0.015086209068129821,"185":-0.02726200508273667,"186":0.010107966651528867,"187":0.011991426408060451,"188":0.12499862855779406,"189":-0.05015601814940515,"190":-0.045598490050086184,"191":-0.06953136383346188,"192":0.05247321688200763,"193":-0.055156646969029256,"194":0.054380473814303734,"195":-0.006285737544640315,"196":-0.009403944492165804,"197":-0.05427165576848663,"198":0.010541311760106972,"199":-0.02836318036659491,"200":0.01127727409918119,"201":0.034836263358681396,"202":0.05502018651524609,"203":-0.048751932159529804,"204":0.0538458612023445,"205":-0.004658786774150191,"206":0.012222357247018673,"207":0.11967167848932643,"208":-0.0018180905493662873,"209":-0.027704494344983982,"210":0.007642622461600268,"211":0.028303966505013985,"212":0.18688607896000434,"213":-0.08780975502274882,"214":0.024786066639330445,"215":0.026337295027771875,"216":-0.004724532889691067,"217":-0.03637262659235039,"218":0.05618768977205069,"219":-0.026684254428224932,"220":0.027965709208902043,"221":0.08005680252731662,"222":0.05293224963728092,"223":-0.0014796363220504949,"224":0.05261604397745146,"225":-0.007729684974039826,"226":0.06922252891148176,"227":-0.048006461812368235,"228":-0.04288310074645747,"229":0.00816029212969903,"230":0.09242038200937201,"231":0.06344248422352221,"232":0.005961501577862646,"233":0.04572293406763747,"234":-0.0372035776671941,"235":0.0699306451599076,"236":0.0942855865413572,"237":0.016798600320260284,"238":0.07373209317704839,"239":-0.019484331390715228,"240":0.009988805782669943,"241":0.026307993189222285,"242":0.05742337678208227,"243":-0.053625749734699156,"244":-0.04673629215664988,"245":-0.058330252368661094,"246":0.04263643632466945,"247":-0.018734261249436467,"248":0.007543410622934654,"249":-0.014233322755499121,"250":0.04673052556445696,"251":-0.005954553293272351,"252":-0.02718915911018358,"253":-0.05569930858618423,"254":-0.03282723830098676,"255":0.04015158485820907,"256":-0.04620450801035709,"257":0.006830995175141014,"258":0.013386624407437594,"259":0.031241056933763174,"260":-0.02227031891793205,"261":-0.046415705365340086,"262":-0.0225775187345606,"263":0.05995181128072949,"264":0.06976228170753446,"265":-0.022780691184121626,"266":0.004179916286389224,"267":-0.09191972622741139,"268":-0.0032041068929554474,"269":0.008982539953097635,"270":0.04858914091264825,"271":0.06123173350229387,"272":0.01134563835932384,"273":0.0038753857967057303,"274":0.05406585596970304,"275":0.05282571268481437,"276":0.03141016632442969,"277":0.039837607929800005,"278":-0.003288428867369943,"279":0.027472609762911687,"280":-0.025988477770364612,"281":0.018439917710538784,"282":-0.0749349898288885,"283":0.011805602006368602,"284":-0.012130340212975321,"285":-0.001359758632460528,"286":0.0305339931952942,"287":0.01731239526178343,"288":-0.008109520407867195,"289":0.03119172324389648,"290":-0.02631573138794152,"291":0.02502233498663172,"292":-0.023281951873938746,"293":-0.043031412626996,"294":0.033180185407160605,"295":0.03707596456255222,"296":-0.06213777171182813,"297":0.03634694027129364,"298":0.061344907326008294,"299":-0.06765615309283253,"300":0.00394696341949984,"301":-0.06416324499373409,"302":-0.02911858549880792,"303":-0.017091382928310434,"304":-0.024368757343030456,"305":0.021215119531074484,"306":-0.04191315666810271,"307":0.0037373341691232047,"308":0.04975143001664223,"309":-0.0014516176911113451,"310":0.04266920865363027,"311":0.007343646624000538,"312":-0.034813494286326165,"313":-0.0280867826839182,"314":-0.016519694474321472,"315":-0.07344408331132267,"316":0.04584964947435096,"317":0.0022259316967169914,"318":0.030048865605035883,"319":-0.031738432709997405,"320":0.018624105856468683,"321":-0.11669925942545653,"322":-0.005571041546155721,"323":0.013800797783301467,"324":0.017426893711583194,"325":-0.030515086504903498,"326":0.022748174004224655,"327":0.027615106874582625,"328":0.003080026126530692,"329":0.03321319284838556,"330":-0.013950786945637757,"331":-0.012075247216714944,"332":-0.059487595488297386,"333":0.03638194182827714,"334":-0.013824628864216563,"335":0.011870177747800673,"336":0.03179453496134029,"337":-0.058396987612055085,"338":0.022018220386334247,"339":-0.04902973242539465,"340":-0.0017819192807419758,"341":0.011963353474246008,"342":0.030124009407495447,"343":0.03542530420554975,"344":-0.148519578149602,"345":-0.06339938728376804,"346":0.057935518715754225,"347":-0.04557649668156182,"348":-0.005840242373725127,"349":0.06342477838661677,"350":0.0698337261610762,"351":-0.11519831887088844,"352":-0.013472486814323033,"353":0.05513920851367191,"354":-0.036532811334338014,"355":-0.039168490485274196,"356":-0.02230924750318614,"357":-0.030877319559723306,"358":0.008538190208268502,"359":0.020032420407449385,"360":0.08494094273812328,"361":-0.04954365430400267,"362":0.033449909142619826,"363":-0.03823258739779776,"364":-0.0530734290346196,"365":-0.033237475895912576,"366":-0.07981010977480976,"367":-0.07403193457335439,"368":0.050436462273664634,"369":-0.04252560188303592,"370":-0.013608709669732917,"371":0.012712847153139854,"372":0.0005049283742777303,"373":0.018338492257388452,"374":0.015509687616400637,"375":0.012512125123776703,"376":0.07501064399117348,"377":0.028808970114593466,"378":0.04615832898770119,"379":0.051322751330956276,"380":0.03606637967200109,"381":-0.017333259275767524,"382":-0.018707843997871558,"383":0.03221877230652978,"384":-0.01598513609556641,"385":-0.06451305447464903,"386":-0.002552107099412932,"387":-0.03648431637681207,"388":-0.06571455877263468,"389":0.06872228633721304,"390":0.0029547598257507533,"391":-0.0038061163748213567,"392":-0.02956225433971754,"393":-0.03336524959682922,"394":0.06748473371795685,"395":0.03377117596965509,"396":-0.027475471124124688,"397":-0.020867140160688493,"398":-0.056128635211945124,"399":-0.002225325982028124,"400":-0.03626966122074577,"401":-0.025989409877731094,"402":0.027518666536043786,"403":0.03377273120946408,"404":-0.007166852216902527,"405":-0.0025122798019252906,"406":-0.002670811105628072,"407":-0.024800635396464668,"408":0.040911584118627595,"409":0.057966033216905646,"410":-0.11374621792961657,"411":-0.06693951807785208,"412":-0.059160958143314166,"413":-0.0052532152512553484,"414":-0.032660369613746416,"415":-0.021857801712865933,"416":-0.010252087386309222,"417":-0.07782966125893152,"418":0.03120722107037956,"419":-0.0669176762495365,"420":0.014096551056243203,"421":0.016646575216805893,"422":0.0027399817622730245,"423":-0.022556239533448767,"424":0.04168181431182436,"425":-0.010894783301052402,"426":0.00904381832913721,"427":0.03600112785273268,"428":-0.046749588040038606,"429":0.12417877159744316,"430":0.03972294728673767,"431":-0.054393664095650635,"432":-0.02382028061335747,"433":-0.016393761255811923,"434":-0.01184301674666914,"435":-0.013387289177392488,"436":0.05746624914081986,"437":0.07678604914766543,"438":0.04455272553115792,"439":0.0022745029489676083,"440":0.03036942499518117,"441":-0.013996088960994274,"442":-0.07349751464671568,"443":-0.023086184853291287,"444":0.0549569328514645,"445":0.01253168199698241,"446":-0.042563040037765815,"447":-0.00013753297474499324,"448":0.017774978903647737,"449":-0.0018424167205185285,"450":-0.07456714704838358,"451":-0.06910211025504531,"452":0.04957193934576486,"453":-0.01779119379265494,"454":0.00725315809634475,"455":0.05873988333358317,"456":-0.02011602774664579,"457":0.02070789789425036,"458":0.06428977578359704,"459":0.011078162723921547,"460":0.042605302436146075,"461":-0.017293297978772482,"462":-0.012209728188256757,"463":-0.026750552210918273,"464":-0.06681772570990448,"465":-0.03127517528037922,"466":-0.033097208834370215,"467":-0.012243641775533541,"468":0.04775524948676512,"469":0.0795255700288251,"470":-0.07952439411076,"471":-0.03993057941482284,"472":0.03647506285173553,"473":0.04404572139588723,"474":-0.008767129934329902,"475":-0.08424574703333335,"476":0.014312726239766234,"477":-0.024346255712057226,"478":-0.04437880601739574,"479":0.005438702266774769,"480":0.04583919135507539,"481":0.03862086125863309,"482":0.007551315890707452,"483":-0.004344840952469409,"484":0.01818541816715641,"485":-0.014237673124157052,"486":0.05442441615515036,"487":0.042720840269187585,"488":-0.056192818688619896,"489":0.021558211023591078,"490":0.015352838790224031,"491":-0.008146932298916026,"492":-0.07116519690961175,"493":0.014099163098468696,"494":0.027518562857294468,"495":0.028498368335713526,"496":0.013559180795970977,"497":0.015931868502144987,"498":0.03738245575566091,"499":0.07544905056911615,"500":-0.046246297713871294,"501":0.024361996401703483,"502":0.03310653038445257,"503":-0.029315954464257006,"504":0.03249738779136978,"505":0.01612105214546987,"506":0.01460061801268163,"507":-0.003636257654002478,"508":0.03731790374624196,"509":0.027342267611957724,"510":-0.006363993655898946,"511":0.04665168911059693,"512":-0.08021274916798284,"513":-0.04722472558661483,"514":0.046615203953710806,"515":0.0399589661497397,"516":0.03050560337333234,"517":0.009453707787754952,"518":0.04755927306163722,"519":0.01710681279038317}},{"sx":1,"sy":1,"depth":520,"w":{"0":0.03335090796526561,"1":-0.019554627207514625,"2":-0.02653999807112873,"3":-0.054714814601604364,"4":-0.07459002348754708,"5":-0.024543518620529593,"6":0.0072847394378015825,"7":-0.0679597547471668,"8":0.10660370295745752,"9":-0.008734807846086216,"10":-0.012504055706498292,"11":-0.029875799896554506,"12":0.01966565310822817,"13":-0.056004243296770166,"14":-0.04545620227403364,"15":0.005311430634729211,"16":-0.010109097836783792,"17":-0.015538341580823213,"18":-0.011792926508795328,"19":-0.03451036789447482,"20":0.013418089402305405,"21":-0.0561156762139831,"22":0.04446350755157188,"23":0.06090470972217611,"24":0.024081502941288416,"25":-0.049187496677825994,"26":-0.021380272259618124,"27":-0.005415813927975626,"28":-0.00918684459412216,"29":-0.03641035223978705,"30":-0.016054137266184335,"31":0.11001828768594588,"32":0.09498008331060173,"33":-0.03341870473955124,"34":0.0034532689868913926,"35":-0.014504028602913496,"36":-0.02805638336154716,"37":-0.06934730929943449,"38":-0.00018386945606205075,"39":-0.025156930056013247,"40":0.02867784836320327,"41":-0.019435705246137403,"42":0.049458913162477254,"43":-0.009120787572138548,"44":0.024992446740822953,"45":0.010641486452137605,"46":-0.05851461537015846,"47":0.006660547878444157,"48":0.016747539956471248,"49":0.05365846449765404,"50":-0.0023325149652018594,"51":0.03231265323150509,"52":-0.023634020465365797,"53":0.00008446796582283492,"54":-0.05251757873261048,"55":0.03006818289319497,"56":-0.006532777368940418,"57":-0.0511202587866628,"58":-0.024517705317538923,"59":0.004219661105409074,"60":0.004075514069639206,"61":0.021360339712275495,"62":0.05546387118791408,"63":0.008309683457724742,"64":0.011886168337572504,"65":0.010111237288509982,"66":0.05295807499060184,"67":-0.081820466577671,"68":0.010907623723062117,"69":-0.016582217322453293,"70":-0.04052675199278608,"71":0.01763513374163278,"72":-0.014174504258982718,"73":-0.02687671708505032,"74":-0.05910585476474991,"75":-0.051286166489224724,"76":0.0012630466668303595,"77":-0.050804849177680744,"78":0.002455058792417204,"79":-0.04249702490055562,"80":-0.06698309977395286,"81":-0.01169991695797916,"82":0.047659872980034684,"83":-0.05128430575270062,"84":-0.05476668441732447,"85":-0.022304112886614234,"86":-0.003110795249657583,"87":-0.05695404739453782,"88":-0.0614397971009843,"89":0.029784921048675927,"90":0.04231114574887513,"91":-0.04566600091264006,"92":-0.03161267913804286,"93":-0.05318282006024963,"94":-0.016188661433819602,"95":0.03992740583090016,"96":0.05894873045186474,"97":0.06787579297279622,"98":-0.0008007363483951692,"99":-0.12326578717416099,"100":0.0248772479194713,"101":0.006559736741182965,"102":-0.05071924339859664,"103":-0.08839793004085783,"104":-0.04772966266180033,"105":-0.0526550642384704,"106":-0.054921867793941655,"107":0.05058604888702204,"108":-0.021789779615948395,"109":0.057621613564110184,"110":-0.04000315515532551,"111":-0.0021755985937560026,"112":0.05733343932087355,"113":0.06293628220405893,"114":-0.0008993779756271847,"115":0.04085239837643414,"116":0.014303785054844729,"117":0.061408339142124235,"118":-0.006081509600472305,"119":-0.04950015184736311,"120":-0.07501666746868618,"121":0.07611697231989475,"122":-0.10149914103122044,"123":0.0006741491199832116,"124":0.011185605086863504,"125":-0.09511997793980298,"126":0.043986755823130906,"127":0.011824795681798821,"128":0.0002909265116122743,"129":-0.06489153784926283,"130":0.058763877151283034,"131":0.02590015738062754,"132":-0.045458000737180364,"133":0.006015784184841992,"134":0.011406412405275304,"135":-0.0017509088919885835,"136":-0.02204152305165602,"137":-0.021169228790283316,"138":-0.007399184604925509,"139":-0.012779921645746893,"140":-0.01659094406369864,"141":0.018959333675208016,"142":-0.1894310584323355,"143":-0.009371913000707704,"144":-0.00975312172906326,"145":0.022475317312454147,"146":-0.031641142735927455,"147":0.038932314971133454,"148":0.016174544571706428,"149":-0.029881388135920672,"150":0.029820190517615686,"151":0.050440053817276995,"152":-0.009771753718544603,"153":0.06865754810588362,"154":0.004765779746344503,"155":-0.05932704762231904,"156":-0.047445214543532385,"157":0.018013598202895127,"158":-0.0381401850944264,"159":0.0345567958356169,"160":0.019623521920150107,"161":0.029361773216725538,"162":-0.04741774292976723,"163":-0.010069551402185944,"164":-0.039913012149441596,"165":0.036019407533984055,"166":-0.017011178865581966,"167":0.016498778111835664,"168":0.06465360733557259,"169":-0.004900732565561926,"170":-0.0013401904392113507,"171":-0.01665651740168507,"172":-0.010546243346479783,"173":-0.0033669079672049673,"174":-0.013465197988074624,"175":-0.07441378103998274,"176":0.025480989122405144,"177":0.01968140011281449,"178":0.03766011787695651,"179":0.027025518114053734,"180":0.044798261802975164,"181":-0.031229216764783567,"182":-0.0519313648269266,"183":-0.007136733404048634,"184":0.010593805350165252,"185":0.03921389811509442,"186":0.007685238950028191,"187":0.004435281268050402,"188":0.008055571200696502,"189":0.0035995233695215547,"190":0.04104134290887339,"191":-0.08573109872485474,"192":-0.05922842092303655,"193":0.014139663467315112,"194":0.042708722927597906,"195":0.02097602805325549,"196":-0.021859252723235658,"197":-0.0625438490884553,"198":0.037664212369717766,"199":0.04464785200591598,"200":0.026458643951982944,"201":-0.042236796300421695,"202":0.0063253014074905545,"203":-0.02693812275260968,"204":-0.06539038630141342,"205":-0.014173240512294459,"206":-0.0001333235205744639,"207":0.03924635319206442,"208":0.013787754667537852,"209":-0.02478291626418522,"210":0.06396923485432832,"211":0.01113770863164561,"212":0.01802075198769209,"213":0.053606609623616616,"214":0.06467398815212096,"215":-0.07781256901087799,"216":-0.03050215862023235,"217":-0.014299637373939262,"218":0.02624361187850359,"219":-0.03553033526231744,"220":0.01847290596866412,"221":-0.050797170770080995,"222":0.01979769336427994,"223":0.03184199831248869,"224":0.08742737045655631,"225":-0.003491977212877468,"226":0.008412235751734743,"227":-0.057261233763136604,"228":-0.10201531240109585,"229":-0.015625620209442376,"230":0.011043857071033324,"231":-0.004459895433094009,"232":0.017885121322887915,"233":0.08888428046681392,"234":-0.0055949448947810836,"235":0.036998065535074356,"236":0.005879435579463208,"237":0.0029017298453588003,"238":0.03898268317421236,"239":0.012446031170049257,"240":-0.06915346016630317,"241":0.014411115628608863,"242":0.014784422760300342,"243":-0.04380611692060111,"244":-0.045101783611497824,"245":0.012432175949494037,"246":0.025030226489726186,"247":0.035816804189645966,"248":0.0157189092360512,"249":0.01237484303803325,"250":0.06533746448449927,"251":-0.02637994608701504,"252":0.03743867422807292,"253":-0.10791529748805463,"254":0.02962529449533529,"255":-0.037147054232337044,"256":0.0199416745145819,"257":0.0739059698848743,"258":0.05359155213018023,"259":0.022247133856506156,"260":-0.06563269783139963,"261":0.007029309233354453,"262":-0.037884849090256516,"263":-0.08729700658925248,"264":-0.03381818268340806,"265":-0.0640657137641532,"266":0.006044154759294009,"267":0.05525658890591529,"268":0.01279076504506955,"269":0.10764985537337139,"270":-0.016246079327163813,"271":0.02398106243724005,"272":-0.0016883451933415337,"273":-0.02861338322391487,"274":-0.031042760645741917,"275":0.07058448815621178,"276":0.03905535257569177,"277":0.037944427518725204,"278":-0.009283653955909054,"279":-0.06909234161706686,"280":0.01834320278193557,"281":0.02664001902206916,"282":0.043659607624556764,"283":0.08016571856874169,"284":-0.021076300864015463,"285":0.04859845241739898,"286":0.027833941152178424,"287":-0.06839139892636201,"288":0.020029760189030868,"289":0.06180889538268901,"290":-0.08382823775183122,"291":0.06659691271858625,"292":-0.0003844235680255885,"293":0.009651999273207982,"294":-0.05603915739313624,"295":0.07453391381491806,"296":-0.03944632530859373,"297":0.009144803562266976,"298":0.011671710580889757,"299":0.0353270980807238,"300":0.02510817588402002,"301":-0.029570194253701384,"302":-0.041074970219992825,"303":0.021645026654395518,"304":0.0733943932355218,"305":0.005246410972850883,"306":-0.07647226023413736,"307":-0.06996838914136996,"308":-0.025178525124773074,"309":-0.03861145514426122,"310":0.05359830885112231,"311":0.02448266159137316,"312":-0.024893029357273035,"313":0.057342852801158826,"314":-0.007755712691766547,"315":-0.04266370922496871,"316":0.047356679243193686,"317":-0.06921277309637094,"318":0.05610736045584855,"319":0.028519165653010072,"320":-0.0001192298020884609,"321":-0.007878182059168534,"322":-0.07973810793025063,"323":-0.023098902681162884,"324":-0.0017928261632996448,"325":0.024533034550841798,"326":-0.017042910798939662,"327":0.002506914247103362,"328":0.04039512273113915,"329":0.02554686849627325,"330":0.01969727558735745,"331":0.016086768009492373,"332":-0.003182026515676085,"333":-0.021247273506020188,"334":0.03879283378511483,"335":0.020069153558157037,"336":-0.04027242853119543,"337":0.0001898102738171504,"338":0.007927696402412115,"339":-0.08807604320883662,"340":0.031207372460989626,"341":-0.06165329408496297,"342":0.012784381989500073,"343":0.05647507110403874,"344":0.0032350719431931043,"345":0.004409321952754083,"346":0.0058275084005226935,"347":0.08367860728260053,"348":0.04910529936240358,"349":-0.028381327489868605,"350":-0.023803896682637615,"351":0.004797277383962471,"352":0.010392041550588973,"353":0.04803552868538596,"354":-0.028423791227422716,"355":-0.02712570998589965,"356":0.050896251091027266,"357":0.026576507684093344,"358":0.10380029540629024,"359":0.039924896139025966,"360":-0.039260755066900827,"361":0.03421998193908663,"362":0.11246935260298194,"363":-0.11491552995425146,"364":-0.012766694231129812,"365":0.04262103399620607,"366":-0.013151401953225035,"367":-0.04833967451235543,"368":-0.021178019767201704,"369":0.05384679088629119,"370":0.03540759878843345,"371":0.0011200049729912787,"372":-0.030814364494969673,"373":-0.05292243910675979,"374":-0.03621392481214092,"375":0.03666424350741734,"376":-0.03997243177792784,"377":0.011191411823028064,"378":0.02587729110610766,"379":0.055858959751760286,"380":-0.005568167287761437,"381":0.03932960560308741,"382":-0.01747869568545509,"383":-0.015344439546171143,"384":-0.04942171668108696,"385":0.054569759414432054,"386":-0.026050227810712877,"387":-0.024625450163311427,"388":-0.02372175885415333,"389":0.03154928548584912,"390":-0.007684224788121255,"391":0.051681109092111766,"392":-0.0863366156342294,"393":0.07450843498180694,"394":-0.034328972355575735,"395":-0.04261401137419281,"396":-0.04277178644145098,"397":-0.06765150101630588,"398":0.018985971313516415,"399":-0.030198985758597988,"400":-0.010784848790945753,"401":-0.08101306245466877,"402":0.043202285933349335,"403":0.0439773352816799,"404":0.05049538288119537,"405":-0.02830912075746001,"406":-0.0021285089207319233,"407":-0.004671545129679483,"408":-0.011016504147157834,"409":0.057537666106985,"410":-0.06310095099164417,"411":-0.0342683334813214,"412":0.07444310399720269,"413":-0.03570494106722978,"414":-0.04838894212877362,"415":0.02829543161665194,"416":0.04116412148316894,"417":0.007589316227825083,"418":-0.08972906076818334,"419":-0.07713824910968856,