//<![CDATA[

// a few things don't have var in front of them - they update already existing variables the game needs
lanesSide = 6;
patchesAhead = 30;
patchesBehind = 10;
trainIterations = 150000;

// the number of other autonomous vehicles controlled by your network
otherAgents = 10; // max of 10

var num_inputs = (lanesSide * 2 + 1) * (patchesAhead + patchesBehind);
var num_actions = 5;
var temporal_window = 0;
var network_size = num_inputs * temporal_window + num_actions * temporal_window + num_inputs;

var layer_defs = [];
    layer_defs.push({
    type: 'input',
    out_sx: 1,
    out_sy: 1,
    out_depth: network_size
});
layer_defs.push({
    type: 'fc',
    num_neurons: 24,
    activation: 'tanh'
});
layer_defs.push({
    type: 'fc',
    num_neurons: 12,
    activation: 'tanh'
});
layer_defs.push({
    type: 'fc',
    num_neurons: 12,
    activation: 'tanh'
});
layer_defs.push({
    type: 'fc',
    num_neurons: 24,
    activation: 'tanh'
});
layer_defs.push({
    type: 'regression',
    num_neurons: num_actions
});

var tdtrainer_options = {
    method: "adagrad",
    learning_rate: 0.01,
    momentum: 0.001,
    batch_size: 192,
    l2_decay: 0.001
};

var opt = {};
opt.temporal_window = temporal_window;
opt.experience_size = 30000;
opt.start_learn_threshold = 500;
opt.gamma = 0.97;
opt.learning_steps_total = trainIterations;
opt.learning_steps_burnin = 500;
opt.epsilon_min = 0.01;
opt.epsilon_test_time = 0.0;
opt.layer_defs = layer_defs;
opt.tdtrainer_options = tdtrainer_options;

brain = new deepqlearn.Brain(num_inputs, num_actions, opt);

// CUSTOM_VARS_BEGIN
var gen_name = 'genQ-V1';
var count = 0;
var eval = false;
var save_checkpoint = 250;
var noSaveCheckpoint = false;
var eval_start = 2000;
var target_mph = 68.00;
// CUSTOM_VARS_END

learn = function (state, lastReward) {
    brain.backward(lastReward);
    var action = brain.forward(state);

// CUSTOM_CODE_BEGIN
    function getFixedData() {
        var data = editor.getValue() + "\n/*###########*/\n";
        data = data.replace("otherAgents = 0","otherAgents = 10");
        if (brain) {
            data += "if (brain) {\nbrain.value_net.fromJSON(" + JSON.stringify(brain.value_net.toJSON()) + ");\n}";
        }
        return data;
    }

    downloadNamedCode = function (thisName, forward_passes, data) {
        var blob = new Blob([data], {type: 'text/plain'});
        var url = URL.createObjectURL(blob);
        var blobAnchor = document.getElementById("blobDownload");
        blobAnchor.download = "net-" + gen_name + '-' + forward_passes + '-' + thisName + ".js";
        blobAnchor.href = url;
        blobAnchor.click();
    }

    if(self.document !== undefined) {
        if ((document.getElementById("trainProgress").value > 0) && (document.getElementById("trainProgress").value < 95)) {
            noSaveCheckpoint = false;
        } else {
            noSaveCheckpoint = true;
        }
    }

    if (typeof(count) != "undefined") {
        if(noSaveCheckpoint == false) {
            if(brain.forward_passes >= eval_start) {
                if(brain.learning == false) {
                    count = count + 1
                    if(count >= save_checkpoint) {
                        if(brain.forward_passes > 0){
                            if(eval === false && self.document !== undefined) {
                                thisData = getFixedData();
                                var myWorker = new Worker("eval_webworker.js");
                                eval = true;
                                myWorker.onmessage = function (e) {
                                    if (typeof e.data.percent != 'undefined') {
                                        // do nothing / placeholder
                                    }
                                    if (typeof e.data.mph != 'undefined') {
                                        console.log('Eval complete - ' + e.data.mph);
                                        if(e.data.mph >= target_mph) {
                                            console.log('Saving checkpoint at ' + brain.forward_passes);
                                            downloadNamedCode(e.data.mph, brain.forward_passes, thisData);
                                        }
                                        eval = false;
                                    }
                                };
                                myWorker.postMessage(getData());
                            }
                        }
                        count = 0;
                    }
                }
            }
        }
    }
// CUSTOM_CODE_END

    draw_net();
    draw_stats();
    return action;
}

//]]>
/*###########*/
if (brain) {
brain.value_net.fromJSON({"layers":[{"out_depth":520,"out_sx":1,"out_sy":1,"layer_type":"input"},{"out_depth":24,"out_sx":1,"out_sy":1,"layer_type":"fc","num_inputs":520,"l1_decay_mul":0,"l2_decay_mul":1,"filters":[{"sx":1,"sy":1,"depth":520,"w":{"0":-0.008792247122690056,"1":-0.05850606753778361,"2":0.08285502111359136,"3":0.08354807433373393,"4":0.0726837380987357,"5":0.09583986003378629,"6":-0.0005875367462111461,"7":-0.006697235903720478,"8":-0.06347627602781215,"9":-0.011726186224107323,"10":0.07031755725892395,"11":0.040359101389309565,"12":0.011242524790122185,"13":0.002146317545831261,"14":-0.008624236904276683,"15":0.04980971792682613,"16":0.10332601366331674,"17":-0.01533629652387688,"18":0.00676367925374724,"19":-0.06283424445362461,"20":-0.08703814521554122,"21":-0.024787688396394298,"22":0.06958604355612057,"23":0.03543657733394992,"24":0.0007513768187479988,"25":0.021130581844284742,"26":-0.011806851587948164,"27":-0.009706548827308505,"28":0.025445487450778913,"29":-0.007787917326282346,"30":0.004459872313925641,"31":-0.016406800716578424,"32":-0.03037050803716655,"33":-0.0474187954531739,"34":-0.02159259273579789,"35":0.05727707621541153,"36":0.07527395442167217,"37":-0.007921380938075404,"38":-0.007899741341748166,"39":-0.044804647622366654,"40":0.04012203777479069,"41":-0.06678943562428082,"42":0.012504069264208514,"43":-0.014750371661807685,"44":0.0011649952672156119,"45":-0.022157353162287154,"46":-0.04440017628282692,"47":-0.09450139992886036,"48":0.05619745650094788,"49":0.007400919155411621,"50":0.056012578963220254,"51":0.08312673501277125,"52":-0.045447228388150705,"53":0.10892698703728829,"54":0.028393666455454568,"55":0.05630805451558236,"56":0.016136192712762277,"57":-0.0046488979682347345,"58":0.008373307427505208,"59":-0.030727986137017514,"60":0.0071783459591423454,"61":0.015921502839922805,"62":0.05991425742867348,"63":0.06043195519636299,"64":0.08108852021511159,"65":-0.08361350784580342,"66":0.06467099279730014,"67":0.039854114350265514,"68":0.019823374367786913,"69":-0.0010392857181153667,"70":0.0603301273059816,"71":-0.015545806452375037,"72":0.09867971988304837,"73":-0.023959206002410104,"74":-0.08185565341254437,"75":-0.016445753464770434,"76":-0.013330717902362814,"77":0.06071240426557192,"78":-0.0657421940071117,"79":0.0322366853462566,"80":-0.000637764333791581,"81":0.0008977596283843478,"82":-0.04186385279435488,"83":0.02505730456295844,"84":-0.02579110935833413,"85":0.06134649400074234,"86":0.13205649979300277,"87":0.12541987357353793,"88":-0.017891188374636373,"89":0.14037538417905449,"90":0.014404534226454453,"91":-0.023638409644346083,"92":-0.03520393566767992,"93":0.022780364499334845,"94":0.010181552748884187,"95":-0.09227899370282348,"96":0.04220292335943531,"97":-0.017296511515781817,"98":0.04697426515890983,"99":0.0508333428951772,"100":0.01578531730847411,"101":0.03244046005269161,"102":0.03768724503672961,"103":0.010007414818912683,"104":0.05311212318247364,"105":-0.029836397697236304,"106":0.019423705413243585,"107":0.05010900557609014,"108":0.018014028425867815,"109":-0.0030412757922199146,"110":0.05042483135856629,"111":0.0532777196226761,"112":0.11212706205694842,"113":0.013004261699714153,"114":-0.0366563693549998,"115":0.05711960188716729,"116":0.010613350486447416,"117":0.025819571605465965,"118":0.0013557815204945699,"119":-0.06310554070955565,"120":0.0005407207220020755,"121":-0.008330256818258575,"122":-0.01177470414068786,"123":-0.03188754656280896,"124":0.05444856108432191,"125":-0.021271455516966978,"126":-0.023905749322078923,"127":0.056004556915893525,"128":0.07482423715748245,"129":0.015469095844234651,"130":-0.04170802384812956,"131":0.01698596250445705,"132":0.031773153900947725,"133":0.053206981902975806,"134":-0.021813172583584898,"135":0.047325796673367906,"136":0.027001058147131617,"137":-0.007754090489987749,"138":0.021367736556728117,"139":-0.005132849182313285,"140":0.06817003521664676,"141":0.027239829285908304,"142":0.029185303205467517,"143":-0.019419058685172182,"144":0.0720620849635022,"145":-0.002488112607512149,"146":0.028793358965585745,"147":0.05050949405435401,"148":-0.038629174064461265,"149":-0.00014912677436887203,"150":0.0323696548717478,"151":0.041905893328785276,"152":0.01838376896794697,"153":-0.01917597048444042,"154":0.11903531232708592,"155":0.04471590036095462,"156":-0.0473880460853799,"157":0.01190251320820533,"158":-0.010928857008689955,"159":0.04237982009303339,"160":0.017324998663807014,"161":0.0018663672588018186,"162":-0.04712313270964987,"163":-0.01817097640922583,"164":-0.00028010214482776904,"165":0.07219878142461009,"166":-0.07474446265930412,"167":0.08711505992971003,"168":0.02388189479097572,"169":-0.034395846607947665,"170":-0.016249256368657428,"171":0.05649219062028969,"172":0.04218418762629964,"173":0.051056107630301516,"174":0.053382374511520274,"175":-0.11910412683921916,"176":-0.018556621948012327,"177":-0.012977681514555296,"178":0.01246513130128168,"179":-0.06414121149973195,"180":0.07351310751080938,"181":0.05520946600249484,"182":0.01912571665913146,"183":-0.0028739731107329577,"184":0.01973550637369144,"185":0.024959490166473506,"186":-0.013509605400452753,"187":-0.08849770671218266,"188":-0.09211868164661252,"189":0.017196123611706058,"190":0.09384456632503803,"191":-0.018545959284758287,"192":-0.04643272531283487,"193":0.046007895816069386,"194":0.10920830886125635,"195":-0.019016732410374302,"196":0.02066169134400634,"197":-0.019017931026477572,"198":-0.0104648143810821,"199":0.011012492782383155,"200":-0.03487961236397712,"201":-0.14636808822721675,"202":-0.023958999138020597,"203":0.023238119623813787,"204":-0.021518880676971407,"205":-0.03191704608174926,"206":0.051127779921969686,"207":0.035025432046639056,"208":0.010327937549857027,"209":0.06330716782564216,"210":0.004418580942501141,"211":0.009514355560248397,"212":0.0069901626653743575,"213":-0.0006939105993152679,"214":-0.09341737302172888,"215":-0.007708055706232016,"216":-0.03402225618527045,"217":-0.05920212436460582,"218":-0.022370702451469878,"219":0.021420872976004594,"220":0.0929497025438389,"221":0.0019440918015716515,"222":0.0003736435407023559,"223":-0.04522691002551031,"224":-0.030558190344268085,"225":-0.04889569700455657,"226":-0.059194896161337884,"227":-0.06069447850144506,"228":-0.08000153146953626,"229":0.0870326935005749,"230":0.03527908456724795,"231":0.06260409061516604,"232":0.01324466673787512,"233":0.09588975855038079,"234":-0.02313752342447731,"235":-0.03534807835389249,"236":-0.000632995699299436,"237":-0.035101325509485096,"238":0.08105565943847579,"239":-0.05869994179179384,"240":-0.061085308399235864,"241":-0.012826842577455722,"242":-0.08146844322009517,"243":-0.07211653860738572,"244":0.0034985320808685496,"245":0.07948772776071426,"246":0.10569170642456831,"247":-0.020774217179983918,"248":-0.033417936020751084,"249":-0.009439829137258712,"250":0.0749561692506295,"251":0.011102984657704514,"252":-0.027049076140728996,"253":-0.08733535773849349,"254":-0.05819177878588755,"255":-0.1038249506898602,"256":-0.04901130343375317,"257":0.02516590199879022,"258":0.059489108557718356,"259":-0.02762568717973039,"260":-0.054447974621168405,"261":-0.05712967100034726,"262":0.07172073273203412,"263":-0.02551172108496477,"264":-0.01141950922818725,"265":-0.06526636356645431,"266":-0.1221784289281658,"267":-0.05133671876157393,"268":-0.06340733001472965,"269":0.0064840998960276845,"270":0.06837974221724925,"271":0.09439896434827554,"272":0.09486864854763334,"273":-0.04535506613335673,"274":0.015503580720730761,"275":0.08660258742413335,"276":0.028489149536319727,"277":0.018486062514165517,"278":-0.004911611720420602,"279":-0.15906371363742391,"280":-0.0305122296539161,"281":-0.024555972731800935,"282":0.043204272705124516,"283":0.02971966136922811,"284":0.028688217641456067,"285":0.07162093873092382,"286":-0.03774195763345039,"287":-0.006561894560270801,"288":0.0023439963445296345,"289":0.02765248163979007,"290":0.004043860449285098,"291":0.03064428150497931,"292":-0.18185731798876792,"293":-0.05424578232063124,"294":-0.10303213184555728,"295":-0.003439456458947932,"296":0.029556778541674475,"297":-0.015301518442038598,"298":0.018021315503368135,"299":0.03764801961295481,"300":-0.008267779766707433,"301":0.002098964549450881,"302":0.0765805461168084,"303":0.039006566078556765,"304":-0.03520157883612296,"305":-0.23652132167667178,"306":-0.1145684437847415,"307":-0.06927530080079763,"308":0.10699959323554827,"309":0.024743803816650815,"310":-0.03209399365047759,"311":0.041423430156303384,"312":-0.009794935792306877,"313":-0.01402011498817266,"314":0.012482523597502883,"315":-0.0451251548748472,"316":0.08194625550581454,"317":0.002300240914236235,"318":-0.22544997717548598,"319":-0.1108311740887495,"320":-0.016996004942408757,"321":0.09085657476879692,"322":0.013944427414864763,"323":-0.059760916771735846,"324":-0.024876236135297162,"325":0.04156302886670512,"326":0.0006078529952169397,"327":-0.012279027446223232,"328":-0.010703204322479743,"329":0.03874313792717699,"330":-0.030149467423892903,"331":-0.12952415359611488,"332":-0.08358839045836054,"333":-0.0521330297736762,"334":0.018216483437194435,"335":0.02022728570041021,"336":-0.043529614327273196,"337":-0.03999616549894292,"338":-0.06184940636768856,"339":-0.013176370778434544,"340":-0.03867316964168188,"341":-0.011999916837467128,"342":0.032259234226999965,"343":0.01769930024374218,"344":-0.043478003623595565,"345":-0.037965163477378945,"346":-0.04744722786015694,"347":0.006734943448669711,"348":0.05794348433205862,"349":0.006463898934264217,"350":-0.04213577418802367,"351":-0.04301397416638098,"352":-0.02155994924234322,"353":-0.00589280375632091,"354":-0.05664166113304585,"355":0.058695906899024784,"356":0.13167161177763617,"357":0.07229751982609192,"358":-0.09390857021772747,"359":-0.016861267596115677,"360":-0.014338398001614584,"361":0.06170310187316691,"362":-0.01570410515399403,"363":0.02841106420133126,"364":-0.035371264132226035,"365":-0.04827393383310672,"366":0.06395555198916399,"367":-0.00024723398636822844,"368":-0.012247560168676522,"369":0.21824361649146098,"370":0.09517301722796961,"371":-0.10411161226395792,"372":-0.06388266707724072,"373":-0.02194947272674551,"374":0.0072705193258218144,"375":-0.006289692516805656,"376":-0.025377282607301033,"377":0.013068674688882639,"378":0.04404044022399655,"379":0.004954047083504696,"380":0.010148332459690221,"381":0.06198633610797237,"382":0.07122003848488814,"383":-0.016556360221641628,"384":-0.17943340939807262,"385":-0.010803812395272533,"386":0.11696439285826445,"387":0.04669054576473486,"388":-0.041417330240620165,"389":-0.07631769398153376,"390":0.0022031179926991886,"391":0.03653842431350264,"392":-0.004452929193317674,"393":0.0871068186079887,"394":0.03422398148504431,"395":0.041681514322105116,"396":0.4010248435206984,"397":-0.19377815179925117,"398":0.07888624541877615,"399":0.030654087823769993,"400":0.011178749785458774,"401":-0.03996589367230227,"402":-0.038161772780328,"403":0.03348157339014981,"404":0.04864911826582566,"405":-0.009588509003532449,"406":0.013905962090896668,"407":0.007793099623923913,"408":0.06247594266890503,"409":0.399364335257992,"410":-0.12471298670594798,"411":-0.024785934993040253,"412":0.029536934313785124,"413":0.027987325902079564,"414":0.015957763923955537,"415":-0.10508469072475256,"416":0.019232462068758817,"417":0.060933830216786174,"418":-0.03248843051116511,"419":0.0037553029541502587,"420":-0.05086431874584069,"421":0.06524729138789437,"422":0.39868034764127624,"423":-0.17299728524698002,"424":0.02355483498966706,"425":-0.0016245968284778723,"426":0.01221113033859017,"427":0.051871761328806734,"428":-0.05762838611124689,"429":-0.01939660957327709,"430":-0.012017683119794008,"431":-0.012452990754789376,"432":0.04929093866565183,"433":0.07771376277315438,"434":0.05637220060727624,"435":0.39620782653626,"436":-0.08172695126993702,"437":-0.004876712686363522,"438":-0.03937363104306178,"439":0.007159011716518442,"440":0.0021784269754685564,"441":-0.00429458826943643,"442":-0.0076183182411685224,"443":-0.00024412621523050085,"444":0.09046990639757758,"445":-0.045300208650269236,"446":0.10014938683543144,"447":0.05693378209541593,"448":0.010954831062156159,"449":-0.02128769798464534,"450":0.03396534770617107,"451":-0.022026034510289984,"452":0.00667847043420185,"453":0.05003107233296238,"454":-0.03265186624313806,"455":-0.0752113602467686,"456":-0.12382254165250677,"457":0.04079019552026485,"458":0.025299261562274807,"459":0.09878052068431757,"460":0.006165850869678212,"461":0.024441425409121267,"462":0.07406231994813911,"463":0.022564927223895744,"464":0.013407667234290079,"465":-0.07257551144221598,"466":-0.034113002498099426,"467":-0.08759400344044958,"468":-0.05013046558690871,"469":-0.0837692784996846,"470":0.011476379080888017,"471":0.07259879218313577,"472":0.017554364242661668,"473":-0.03493605123031343,"474":0.07631669474739229,"475":0.0388541898880269,"476":0.05666502948512764,"477":0.07486199282723356,"478":-0.02855936294638012,"479":-0.01771727149410231,"480":-0.07566069322055712,"481":-0.02764950281843209,"482":-0.08066884233722484,"483":-0.010559378507833585,"484":-0.03782470177711542,"485":0.005586315540456897,"486":-0.04458910258061703,"487":-0.0013476696714881551,"488":0.1390776205722392,"489":0.036736462954153004,"490":0.0018126427946901296,"491":0.00002900460402729381,"492":-0.07478417025368529,"493":-0.02386121405252451,"494":-0.056390420569980455,"495":-0.022877553063652495,"496":-0.04012656660220202,"497":-0.0037778855216784014,"498":-0.06220289118716703,"499":-0.004461519470147319,"500":-0.0008965810209319547,"501":0.07126304244584268,"502":-0.02095813040782374,"503":0.0448568711426484,"504":-0.06034620239956276,"505":-0.10811676080957994,"506":0.00611632948277336,"507":-0.01685010163701261,"508":0.05214631686542106,"509":-0.07146564860498071,"510":-0.03843680416681539,"511":0.04239488116461173,"512":0.0023049760644876416,"513":0.039888486145911194,"514":0.04159348756429989,"515":0.021012233060811354,"516":-0.02588711459303538,"517":-0.08353388011056813,"518":-0.08061380595117416,"519":0.07923005112726042}},{"sx":1,"sy":1,"depth":520,"w":{"0":0.015985680568112934,"1":0.1262566996480087,"2":0.0955611772595565,"3":0.006928341482894992,"4":0.035644440154531644,"5":-0.09042546298968168,"6":-0.043750769290559696,"7":0.08694500910334439,"8":0.03698157101257794,"9":0.018542051140183972,"10":-0.06040851703212448,"11":-0.0076060298101653405,"12":-0.1315419800045166,"13":-0.0006663222155112914,"14":0.0524405604598788,"15":0.053367740926748196,"16":0.10604737090547918,"17":-0.02866271751090397,"18":0.008766412384319938,"19":0.007502519199518723,"20":0.011264562986199395,"21":0.05069729351406696,"22":-0.05492523347969168,"23":-0.026400916948028878,"24":0.08256230139134889,"25":-0.017791163414513603,"26":-0.015528499798828697,"27":0.011028620960126825,"28":0.09000027893842028,"29":0.09994970964963594,"30":0.07598907199493836,"31":-0.04277569916298252,"32":-0.015126534639585071,"33":0.018134039407057014,"34":-0.0420438027172433,"35":-0.031725299867945644,"36":-0.006651126445571235,"37":0.028724176746525464,"38":0.02794906023090469,"39":-0.03505075783998533,"40":-0.03197409626616631,"41":0.08060495728046355,"42":0.040066292105634276,"43":-0.06231719674484161,"44":-0.02848612261642184,"45":0.016646554228246197,"46":-0.04585422101660481,"47":0.02076683550090213,"48":0.017511448286031163,"49":0.013453614780604693,"50":0.01947587465490273,"51":0.08826712315632995,"52":0.0077774150647961,"53":-0.04059339969742418,"54":0.06252024416855365,"55":0.043904069435743966,"56":0.07169904870235769,"57":0.027439136836033984,"58":0.05883227496474234,"59":-0.04373965792307887,"60":-0.010566365181400542,"61":-0.01568302384615141,"62":-0.005326891374308566,"63":0.08353242504273785,"64":0.11834003643127339,"65":0.049947942631650824,"66":-0.045831599609203126,"67":0.009667351621374118,"68":0.03861312452563396,"69":0.0005355165114985864,"70":0.039315382759950314,"71":0.009170587813897433,"72":0.06715594895168901,"73":-0.027443903506881372,"74":0.031057079798791503,"75":0.055887861437824794,"76":0.019928812995560805,"77":0.06397710121063148,"78":0.04881441122718237,"79":-0.019619233045189005,"80":0.040280411514757725,"81":0.031937325253862205,"82":-0.007529378108326864,"83":-0.05436025652669674,"84":0.06729606453380563,"85":0.046705047555574954,"86":-0.03338369725378393,"87":-0.01403774604469573,"88":-0.0645998558287946,"89":-0.09865912000739786,"90":0.02078856403397324,"91":0.097319554653385,"92":0.03255675057676013,"93":0.09133775481696509,"94":-0.016842155348931957,"95":-0.052942562103885704,"96":0.03216864836001585,"97":-0.010551895493815992,"98":0.058955035485817237,"99":0.057520528038333296,"100":-0.004509346953124377,"101":0.01136075641393875,"102":0.013791456646491798,"103":-0.06586636280933432,"104":0.042056206999174145,"105":0.0011873734759161065,"106":0.04681444109868021,"107":0.11733087464064237,"108":0.020250411119402047,"109":-0.026340679921974988,"110":-0.002904016572445783,"111":0.03723478515948229,"112":-0.062236078809682786,"113":0.006467588211997371,"114":0.010174696997826223,"115":0.09172080708054398,"116":-0.03376436905559419,"117":0.15777461066348736,"118":0.0606151524273568,"119":0.00011209487586484578,"120":0.00666690217071027,"121":0.0922447771763692,"122":-0.03168066908594409,"123":-0.05979325214467385,"124":-0.015238022772547896,"125":0.04091052842106089,"126":-0.021973568233978277,"127":0.004455428632822438,"128":0.06696006200977257,"129":-0.02164605533558492,"130":0.0552289139311607,"131":0.06455557397426522,"132":0.03842994096994072,"133":0.053852723434072026,"134":-0.02569187133189081,"135":0.06272637833238666,"136":-0.00040456240326091806,"137":0.058223882494011094,"138":-0.04050802379247817,"139":0.03473084637319041,"140":0.004990516413686988,"141":0.055340496174514704,"142":-0.019830078581942603,"143":0.04009814057244955,"144":-0.04486248558624884,"145":-0.008142212332209462,"146":0.015004854628336948,"147":0.022013513749920107,"148":0.019287985908465803,"149":-0.001777838622999038,"150":-0.05367148963764417,"151":0.01310983668524729,"152":0.0062374127707255644,"153":-0.018587532521982243,"154":0.0337818377533345,"155":-0.014236847764231172,"156":-0.020064416459581225,"157":0.02823510058337982,"158":-0.08531525865845364,"159":0.11836727974127069,"160":0.0012857800990123966,"161":-0.03235326499274637,"162":-0.055433336026076654,"163":-0.007225712644234183,"164":-0.002524499835639821,"165":-0.008774995563757397,"166":-0.03424123224425027,"167":-0.022412646779907088,"168":-0.04596919152163731,"169":0.00895296269233882,"170":-0.00229887278243323,"171":-0.0420256603259929,"172":-0.003717605237747488,"173":-0.0008555213812521564,"174":0.06987593470567116,"175":-0.016830692789631983,"176":-0.004318922527160398,"177":0.05048482221286032,"178":-0.08785314774716436,"179":-0.04119366574650946,"180":0.007705211533535629,"181":0.0031057572774699053,"182":0.058790892072144815,"183":0.10530585710491974,"184":-0.034795197323001806,"185":0.008105579499946936,"186":-0.01940083165355169,"187":-0.009689709108565281,"188":0.06511809549066018,"189":-0.028639803079795245,"190":-0.026900363324763105,"191":0.03000833011329136,"192":-0.10339208133687994,"193":0.0824543243188299,"194":-0.0555519017274602,"195":0.04512419229670227,"196":0.05189523826782978,"197":-0.0464943119230386,"198":-0.015928072512185643,"199":-0.046553709101275716,"200":-0.0433700930266917,"201":-0.07808355576429964,"202":0.04233507946256693,"203":-0.003395589107173967,"204":-0.0033683279518716943,"205":-0.050370360831166666,"206":0.08090451213051778,"207":0.011516137568999982,"208":0.06980711230321172,"209":0.04963482896622045,"210":-0.010027295256612263,"211":-0.0364951061604626,"212":-0.015453138761615137,"213":-0.043845583493416204,"214":-0.09632573456249206,"215":0.009048170683117947,"216":0.0038564810359454985,"217":-0.05367625564795623,"218":-0.008193589432276169,"219":0.049994460907463185,"220":0.032233950366940003,"221":0.008623104333959762,"222":-0.06317160449597102,"223":-0.016756302276227538,"224":-0.03191259710263465,"225":0.019136478658476414,"226":-0.02539903546156183,"227":-0.08661321233329428,"228":0.01806855177501453,"229":0.06852713730210128,"230":-0.01311537177361417,"231":-0.05685852791612745,"232":0.01880943827592696,"233":0.04632965586558787,"234":0.006636692246784639,"235":-0.028275283823668083,"236":0.02945854448739911,"237":0.005720579556247855,"238":-0.008178000810180382,"239":-0.05251457806461998,"240":-0.029058116761350488,"241":0.0008722240381298958,"242":-0.050616918685763325,"243":0.05526139908602823,"244":-0.010894819817053921,"245":0.10977947000449732,"246":-0.04406584383225857,"247":-0.12207714254225892,"248":-0.04777720507375957,"249":-0.005868755544305435,"250":-0.013861191602225799,"251":-0.011498582714313891,"252":-0.0010302175652721803,"253":-0.01627606356511844,"254":-0.005040071386189154,"255":0.0012087484876499406,"256":0.011302593258255196,"257":-0.04023994927850272,"258":0.04555388557695983,"259":-0.008487837325771169,"260":-0.12443649679481567,"261":-0.140317728496688,"262":0.04857419525622302,"263":-0.004948166032710043,"264":0.011744851002240932,"265":0.023142150356881705,"266":0.03975054512254214,"267":0.07810771933046039,"268":0.023078556792981698,"269":-0.0028204890840855426,"270":-0.052415038155366064,"271":0.07659068856269248,"272":0.034495172115214086,"273":-0.06666765770689079,"274":-0.0545990030743746,"275":0.022848495540153682,"276":-0.04868647317546387,"277":0.0649951546837961,"278":0.036120214236792764,"279":-0.005984947563057188,"280":-0.06010304772993421,"281":-0.0585536178381935,"282":0.025912530812908178,"283":-0.045978446568074746,"284":0.04398569989989159,"285":-0.008526179296500644,"286":-0.04156908588527258,"287":-0.12343656953464632,"288":-0.0344950920660757,"289":0.002853584722172857,"290":-0.00039667742793129084,"291":0.022391614637067465,"292":-0.05376508650605206,"293":-0.0009143035990001706,"294":-0.021699304951649612,"295":-0.02121761127273527,"296":-0.0006144857035786366,"297":-0.05619716810556941,"298":-0.032090079484814994,"299":-0.0050880801949515705,"300":-0.06688325723912354,"301":0.042755489551460496,"302":-0.015786734138584124,"303":0.04615918619950742,"304":0.07319500331584285,"305":-0.09601130561726003,"306":-0.06526774902323486,"307":0.015366783026710854,"308":0.04760587264035757,"309":-0.03333579345318799,"310":-0.011766311733573486,"311":0.045421019008710636,"312":-0.050458314513049024,"313":-0.022518738212679183,"314":0.01010477674617703,"315":-0.028257253620261213,"316":-0.01951105240870753,"317":0.1138203848274951,"318":-0.07629601016630243,"319":-0.011189463850641249,"320":-0.04231532017769257,"321":0.10023925924445178,"322":0.07941550515235346,"323":0.00633806169511919,"324":0.004725594773297138,"325":-0.07301727281548619,"326":-0.09084429556587328,"327":-0.08972663569941065,"328":-0.02230763785609315,"329":0.0633019900354321,"330":0.013574716535269577,"331":0.018030226967492652,"332":-0.034542963305605676,"333":0.09034452696297632,"334":-0.0033048162743985715,"335":0.005359188496177804,"336":0.11589672405679534,"337":0.0415839706053659,"338":-0.06125844631808699,"339":0.006387458139000938,"340":-0.007285955211607679,"341":-0.05298592997152588,"342":0.017948053496857335,"343":-0.020815524954998353,"344":-0.028607838074293377,"345":-0.015798586836605042,"346":-0.016159593106087226,"347":0.04811472619435066,"348":0.0558285892128692,"349":0.008666288388739871,"350":-0.025035941348089348,"351":-0.04103302192234945,"352":0.06716794170920386,"353":0.0037105083234340594,"354":0.04078937897163841,"355":0.113041336382028,"356":0.019615483354503728,"357":0.04222395363208335,"358":0.03731823398065291,"359":-0.045261452733589745,"360":-0.005192871515415123,"361":-0.03198783745716082,"362":-0.02101330958975594,"363":0.07837878290685875,"364":0.06713369850640592,"365":-0.00344899717822573,"366":-0.004698234186773357,"367":0.04069758077532609,"368":0.06629156878517219,"369":0.04478790234157128,"370":-0.04767182031726973,"371":-0.00890737830531249,"372":-0.03558081650723828,"373":0.007136718724423837,"374":0.01154845965597055,"375":-0.023506464310640518,"376":0.011527198999676608,"377":0.003485356184074879,"378":0.08377368002904792,"379":0.06871656650143125,"380":0.004635664059420226,"381":0.0011175901085307843,"382":-0.05192907854407577,"383":-0.002131060952494879,"384":0.03250416707323381,"385":0.02260861157140679,"386":-0.05203634480267102,"387":-0.013704488791463462,"388":-0.04413261502299728,"389":-0.06487481493229436,"390":0.00555359134737626,"391":0.10611071223656389,"392":0.033168984299624955,"393":-0.04262346298932116,"394":0.011417124896094526,"395":-0.06776373020345616,"396":1.1938547098095011,"397":-0.010044340017736573,"398":0.07952949271036107,"399":-0.009022534856304517,"400":0.04332730006727118,"401":-0.019472156409928696,"402":-0.09296803438722989,"403":-0.04767707502951504,"404":0.019363758480293935,"405":0.035870589146236906,"406":0.055815831479921495,"407":0.017643972519230326,"408":0.031921087904902334,"409":1.1880921859914204,"410":0.07036626128981467,"411":0.028152905341696077,"412":-0.020816613895082322,"413":-0.01949662426391357,"414":-0.011067134577143093,"415":-0.18143611934375428,"416":0.016355962488146233,"417":0.0771896831766837,"418":0.11521543590337222,"419":-0.019979392787301757,"420":-0.0012801220225896995,"421":-0.03935139842955454,"422":1.180920430895546,"423":-0.006326571249847217,"424":0.03126708282105347,"425":0.03571780402934384,"426":0.03218473260284011,"427":0.019993643659759346,"428":0.021069782278808777,"429":0.004287583246748237,"430":0.04666364039319302,"431":0.0725466510000596,"432":0.03178502436989432,"433":-0.07476257801225171,"434":0.01122117065974507,"435":1.2097476324212866,"436":-0.009668262422808287,"437":0.004871848402067042,"438":0.008028563526370935,"439":-0.04153407359591718,"440":0.1374046391694306,"441":0.0128166533263088,"442":-0.0013503708556213178,"443":0.047517622813110914,"444":-0.010899647492052031,"445":-0.0760314050676324,"446":-0.07374663909937083,"447":-0.04670071644959962,"448":0.004355180293174815,"449":-0.027436499698327198,"450":0.031311301339143296,"451":0.08358432588535862,"452":-0.03744611136600527,"453":0.011400866392524044,"454":0.09337272535835885,"455":0.009924515980636824,"456":-0.0048284961979812805,"457":0.0387201620693661,"458":-0.048900016078767775,"459":-0.09781080412021943,"460":-0.09006899360223956,"461":-0.00034371872076488855,"462":-0.009763790619892482,"463":-0.05296013032643989,"464":-0.012815361373692267,"465":0.034217932309450645,"466":-0.034269859429041975,"467":0.09313654893382839,"468":-0.009980810248374076,"469":-0.08980770211742263,"470":0.03658765751216836,"471":0.046992466192002084,"472":-0.01384467555193244,"473":0.0695350197519398,"474":-0.037231329622481955,"475":0.026753852338785418,"476":-0.012111250135013357,"477":-0.01384274760012672,"478":-0.015795082789880812,"479":-0.010382647512522759,"480":0.01879125278192719,"481":0.008460711523243526,"482":-0.04709037790405932,"483":0.024684946361418467,"484":0.05177407986824596,"485":0.03823283046951026,"486":-0.04001926501151659,"487":0.03255127267845549,"488":-0.005992504381924851,"489":0.012237401522631955,"490":-0.016248175792194796,"491":0.08246226033984633,"492":0.055952101979424004,"493":-0.018481217910182885,"494":0.13806772276186105,"495":-0.03173548345843655,"496":-0.003645819704725224,"497":-0.01828256643823716,"498":0.020459754824909793,"499":0.07227587153694173,"500":0.006186667317547376,"501":0.09922186073246843,"502":0.01092397605460894,"503":0.06173984443775858,"504":0.0956927497683844,"505":-0.04374597641000879,"506":0.007079800674993626,"507":0.05904725640947239,"508":0.07139751111046731,"509":-0.1019666403110939,"510":-0.007941277933217594,"511":0.052927990780919164,"512":0.05569193052431086,"513":0.005173558453189075,"514":0.027727702064945067,"515":-0.028541248329242472,"516":-0.01293371565466979,"517":0.17367790968064278,"518":-0.034766581409768654,"519":-0.05620550262722926}},{"sx":1,"sy":1,"depth":520,"w":{"0":0.133578042437352,"1":-0.036607197973972695,"2":0.10848492428197636,"3":0.029210065160592196,"4":0.11775977194783088,"5":0.04602583022580335,"6":0.027445328401703523,"7":0.023034962050307587,"8":0.03087950431739213,"9":0.0022475167995766863,"10":0.055223576002616265,"11":0.01703153751519168,"12":-0.016804722358347696,"13":0.11304911712878431,"14":0.05006030719502636,"15":-0.03208152874659044,"16":0.030990202425959013,"17":0.04511208943867639,"18":0.015878324239898906,"19":0.0704838033048722,"20":-0.015685893614831324,"21":-0.009775001242263706,"22":0.017212902899088178,"23":0.0029040218468081402,"24":0.03629633594933582,"25":-0.044741520712727224,"26":0.15262177056341653,"27":-0.06947841535051906,"28":-0.046807977472851946,"29":0.00488291171985171,"30":0.07154987913200406,"31":0.006813719255762203,"32":0.03486562559093427,"33":-0.03059770870316226,"34":0.005865868879505255,"35":-0.003889197699304063,"36":0.03996332998607179,"37":-0.005750820762550446,"38":0.06352101119997505,"39":0.169716460633496,"40":-0.029639363604385335,"41":-0.13189080939096953,"42":0.11609515658875252,"43":0.03138425376206613,"44":0.0641615929686421,"45":0.02027725313532943,"46":0.054112655269231175,"47":0.03794356680019736,"48":0.009421069009655494,"49":-0.03582196525821186,"50":0.01926015909181393,"51":0.03097472936840903,"52":0.08218173062148788,"53":0.09914612851036854,"54":-0.01903756406304368,"55":0.11992551185327424,"56":0.09729105821496899,"57":0.06972046195461162,"58":0.024017286237280736,"59":0.047013062005968,"60":0.04458727050935021,"61":0.020972274919248763,"62":-0.009046267489400054,"63":0.01936415570982255,"64":0.0477411692048861,"65":0.09524317221911073,"66":-0.014987530225283213,"67":0.05953490903670863,"68":0.05653281957796206,"69":0.0922948345506749,"70":0.050706794896615004,"71":0.013618575520631565,"72":0.022426029282391336,"73":-0.010143837089405049,"74":-0.014446675463751847,"75":0.007409515372358755,"76":0.00551474366166981,"77":0.026969612830478218,"78":0.1012473215368658,"79":0.04264793344436539,"80":0.11520437561789058,"81":0.007831736630545944,"82":0.07262255657053504,"83":-0.0022112408508189662,"84":0.06271935916357271,"85":-0.06242474201260471,"86":0.008136298268345577,"87":-0.028850783193248925,"88":-0.008527232685293241,"89":-0.0039031497020134533,"90":0.07435860227199935,"91":0.07020973149885666,"92":-0.020437373008058868,"93":0.12402503245520866,"94":0.08100560195349629,"95":-0.016881149157560404,"96":0.031776245849455965,"97":0.060961569289475596,"98":0.03729762406002509,"99":-0.0713080100287789,"100":0.011407840874387351,"101":0.05826000410648533,"102":0.02818591316481331,"103":-0.00862697102396467,"104":0.06718721067837698,"105":-0.00382176040667148,"106":-0.02287102817841553,"107":0.09709390018934834,"108":0.04116610136098668,"109":0.03837405180889127,"110":0.05607894164052539,"111":-0.0047328236136194544,"112":0.0369573318062755,"113":0.04332942921356787,"114":-0.0012433890376864916,"115":0.04226144321328304,"116":-0.05773685919733514,"117":0.05506163427645824,"118":-0.045150421772003825,"119":-0.11353344824212239,"120":0.1443471660371199,"121":0.06571016711970214,"122":-0.010732527169477996,"123":-0.015941123228081177,"124":0.013155418628118804,"125":0.014094067673267935,"126":0.02269721060631569,"127":-0.020108990581886643,"128":0.06681992061028211,"129":0.009414093576710815,"130":0.08391502443566363,"131":0.006846601582792804,"132":-0.1654016837990791,"133":0.12215606655102373,"134":-0.020155357001957624,"135":0.003891596406206227,"136":-0.0020230324748557564,"137":0.07379383924302466,"138":0.0226741546627139,"139":-0.01313707721283403,"140":0.056561301513645704,"141":0.042913490530598106,"142":-0.018063579725433286,"143":0.15377763117506668,"144":-0.008110472256454622,"145":-0.11155425299772874,"146":0.0019422054051619333,"147":-0.01873193754125424,"148":0.04105679710192042,"149":-0.022103983384550427,"150":-0.011277467716794812,"151":0.0032432874498971105,"152":-0.026891077679254707,"153":0.03442096124007885,"154":0.04662550322455862,"155":0.018659217805279113,"156":0.209615865289626,"157":0.02257279583691202,"158":-0.018479242406058905,"159":-0.006455939190144864,"160":0.02823632547958988,"161":0.005814148940203399,"162":-0.031662736371923905,"163":0.09065957328985245,"164":0.009919696024467782,"165":-0.04122142392021177,"166":-0.007229921738303231,"167":-0.012727889008892037,"168":-0.010322506247401025,"169":0.2306219966173437,"170":0.08027918456677145,"171":-0.048426159613066774,"172":0.06861029782328765,"173":0.02750496273398022,"174":0.024183347212028566,"175":0.023451681083561767,"176":0.08428380947457902,"177":0.00793957923700467,"178":0.06106117789857632,"179":0.03435716805751387,"180":0.030944585216194313,"181":-0.027865124152027073,"182":0.1379789213066858,"183":-0.05016996032241453,"184":0.005107792454692804,"185":0.016904471182041414,"186":-0.058971268285994645,"187":0.009804037448959364,"188":0.010972514861212394,"189":0.00591136417805528,"190":0.07195634909201161,"191":-0.01186505245965209,"192":0.015534912598776889,"193":0.009489737199303723,"194":-0.014835148737885386,"195":0.06486121472604718,"196":-0.02650297069742667,"197":0.04657931518756493,"198":0.028047008214049072,"199":0.03186567781126582,"200":0.0147314124703492,"201":0.004753989595266368,"202":0.01423954216245567,"203":0.026497445167848438,"204":-0.044724353609772345,"205":0.021998384484995425,"206":0.042408416920770686,"207":0.06286856290448559,"208":0.08200640052030186,"209":-0.08002170840724213,"210":0.07130535347461107,"211":-0.045993006650016675,"212":-0.08173637906944983,"213":-0.03189166945137962,"214":-0.002103940620071639,"215":0.012862346501338178,"216":-0.050846414856215355,"217":0.01135998523652078,"218":0.02185896832462422,"219":-0.0020156489387471196,"220":-0.0062107863247350785,"221":0.06411314491077391,"222":-0.001502199298816565,"223":-0.019620344493351663,"224":-0.09625464497935685,"225":-0.05344281844440468,"226":-0.041637073861571366,"227":-0.024202366243803536,"228":0.03328823117134817,"229":-0.030031373326868043,"230":0.025594384646480332,"231":-0.023011060877325143,"232":0.038960257065008906,"233":-0.0371295379311707,"234":0.05305497128763862,"235":-0.013680854268361006,"236":-0.005438694131895282,"237":-0.03055939852631565,"238":-0.05623713418970538,"239":-0.028090161194207836,"240":-0.023058591013885108,"241":-0.04455101837352471,"242":0.005062529223836212,"243":-0.0035864149677212087,"244":0.06612428976398436,"245":0.01424959978701233,"246":0.010839709047195471,"247":0.031315199828782635,"248":0.07004637274247869,"249":0.03319855281481829,"250":-0.025756906444825554,"251":-0.04864785785997075,"252":0.02656513779845358,"253":0.02790427684075415,"254":-0.041334408832825076,"255":-0.014285854502692362,"256":-0.0430769525247179,"257":0.002058869622280106,"258":0.011031808675403045,"259":-0.015143723698290269,"260":0.0446022294778601,"261":0.17637334275937624,"262":-0.03454715500115594,"263":0.03591192390341175,"264":0.010530887564039158,"265":-0.026573512598892877,"266":0.017296866615912457,"267":0.015025271373160818,"268":-0.03637058805189266,"269":0.021881502780894756,"270":0.0037102510952822616,"271":0.007439593159081639,"272":0.03922134891466105,"273":0.08389036141728384,"274":0.07099000723126019,"275":-0.013032812783787602,"276":-0.0024294509342745354,"277":0.035084409712692353,"278":-0.027629019315545865,"279":-0.01877569659272887,"280":0.029431226354260445,"281":0.020475175850402448,"282":-0.02760768233756895,"283":-0.03445315809115603,"284":-0.019367618864220712,"285":-0.027747103941223115,"286":0.07358638664369553,"287":0.0876064618670093,"288":0.1424977604593066,"289":0.04074365029769366,"290":-0.07492221114992079,"291":-0.045587797136167826,"292":-0.012831682269392028,"293":0.06958329582655438,"294":-0.01893516892413874,"295":-0.010594389882922235,"296":-0.07727769537540068,"297":-0.050643539597049224,"298":0.06332750592180887,"299":0.09101381318174065,"300":-0.039150728648611174,"301":0.09003529692981443,"302":0.0023830420070399707,"303":0.020035887361716548,"304":-0.0029163938452246136,"305":-0.03011136644511693,"306":-0.051931480039727446,"307":0.011064369855243414,"308":0.0128292192089662,"309":-0.04218591632252678,"310":0.03612816920139161,"311":-0.057733155883135094,"312":0.10796871004790244,"313":-0.16626804194575487,"314":0.1373131741320424,"315":0.08882668423561564,"316":-0.0458608197843511,"317":0.028208023643284508,"318":-0.07260728567113536,"319":-0.04717683178782218,"320":-0.07385006832412166,"321":-0.043872852400594096,"322":0.016230431023236597,"323":-0.001663958642347381,"324":0.009505336856927725,"325":0.11116127449140274,"326":-0.16269809081403772,"327":0.2538807310857582,"328":0.06269651053627563,"329":0.01371811558570813,"330":0.10163438362334773,"331":-0.13772265189090593,"332":-0.10757112764869252,"333":0.03833452116064232,"334":-0.004267691219414301,"335":-0.0408251177828142,"336":-0.007964165192551748,"337":-0.01785777526620972,"338":0.042699430677040164,"339":-0.06115146945247946,"340":0.22673440749783189,"341":0.09644104457577028,"342":0.014107685521599056,"343":0.17940552156798034,"344":-0.014076193428439814,"345":-0.11946067854739945,"346":-0.009482945833127622,"347":0.0051867240418576885,"348":-0.004397296978490359,"349":-0.054700797678916176,"350":0.017479782263387672,"351":0.08780596566583487,"352":0.10466130014530739,"353":0.17107703562957152,"354":0.04343492168400083,"355":-0.01130711572688985,"356":0.10202827024745868,"357":0.013384696299373297,"358":-0.12316284849215126,"359":-0.06775556991027092,"360":0.038676324500093215,"361":0.02992431638788837,"362":-0.0035080708184791376,"363":0.08037473300860086,"364":0.08376517297203971,"365":0.23967036504010367,"366":0.15311636998261505,"367":-0.04998412130855863,"368":0.025195879683239237,"369":0.07747702528224636,"370":0.038045424799034055,"371":-0.17203320976229988,"372":-0.009629908045285367,"373":0.004081829189469274,"374":0.022401629966790206,"375":-0.04267923163200846,"376":0.014328739703486427,"377":0.09184228892150209,"378":0.3683287644916223,"379":0.11255645156380088,"380":-0.06062922617585544,"381":-0.02501609795213941,"382":0.04006312889362649,"383":0.0037764877327341054,"384":-0.11551646444055282,"385":-0.02807084953540827,"386":-0.029221980820729805,"387":-0.022210611468970277,"388":-0.021118267976629194,"389":0.01869938698676439,"390":0.09793938502726023,"391":0.46225033328507315,"392":0.025591528322155135,"393":-0.10727335887631391,"394":0.013694088116395171,"395":0.02155372200945755,"396":-1.660380171890019,"397":-0.10432693453941451,"398":-0.011388591357766169,"399":0.02101160397649284,"400":-0.010253467075849456,"401":-0.0549161669369358,"402":-0.06033195905733564,"403":0.15075000599760344,"404":0.10420986498109663,"405":0.13901677966484793,"406":-0.04199127037847857,"407":0.07486639446949728,"408":0.058658998373743824,"409":-1.6655876685923368,"410":-0.08568120742031185,"411":-0.017575249800510312,"412":0.023681246017985758,"413":0.030939584444444244,"414":0.00945819950064235,"415":-0.04689275719506571,"416":0.11803662068626618,"417":0.03802587014721568,"418":0.10571928442430432,"419":-0.0009265491252441521,"420":-0.03413755713589811,"421":0.0015983317556819076,"422":-1.6514652696248355,"423":-0.04919953527836969,"424":-0.06092543301373607,"425":0.07273204951416512,"426":-0.012287471897137995,"427":-0.015959444260443555,"428":-0.018857035479097124,"429":0.09254654827882151,"430":-0.08331338401329295,"431":0.039588000777752326,"432":0.08158931241688235,"433":0.0316904755634964,"434":0.02116021897560696,"435":-1.6596831593816226,"436":-0.04586635306788437,"437":-0.022929154875808128,"438":0.019200140964217495,"439":0.0007708491056469836,"440":0.029220211827350594,"441":0.016015756349780336,"442":0.08256217922933601,"443":-0.1381285437416135,"444":0.09717615311412992,"445":0.05127523062083038,"446":-0.004987333781715879,"447":0.030314833166863935,"448":0.09661738557548001,"449":-0.024972566482020928,"450":-0.05728289675600155,"451":0.02624421911030867,"452":0.07049870637456801,"453":-0.05991379577695109,"454":-0.05977761694435972,"455":0.07833004483943985,"456":0.08955965731517267,"457":-0.04751681188625129,"458":0.04898411668799122,"459":-0.09260893424625664,"460":-0.05287050885259852,"461":0.016175729618851224,"462":-0.008348372700402434,"463":0.025154933602877697,"464":0.09617126387418454,"465":0.035158246861203474,"466":0.03697518215906742,"467":0.005913215735998772,"468":0.057579907160766296,"469":0.10751748137901489,"470":-0.15430259007420727,"471":-0.02524729925824552,"472":-0.01930236854942831,"473":-0.028984472485020396,"474":-0.04717817102005695,"475":-0.0005325762455247506,"476":-0.001603516246810147,"477":0.02499625618042435,"478":-0.008521744792971216,"479":0.022565131404262924,"480":0.04555625937426709,"481":0.04478595520443432,"482":0.11334287783595047,"483":-0.05144869254250449,"484":0.0871155847494346,"485":-0.02986162961436451,"486":-0.02653391027412993,"487":0.034439792590045745,"488":-0.005534632620255771,"489":-0.015361639028765006,"490":-0.01547164162165711,"491":0.03318689460273995,"492":-0.0673310123795527,"493":-0.01956086287142244,"494":0.07511472895486714,"495":0.05003554323287749,"496":-0.1151112357621089,"497":0.08839491760856796,"498":0.002501428733129408,"499":-0.05354731395215765,"500":-0.037350391751907644,"501":0.01878334845627076,"502":0.01650728411142289,"503":0.0059521714590875284,"504":-0.02116822914507771,"505":-0.003556926128054717,"506":0.051603747224755345,"507":0.06629513738927213,"508":-0.06805283247195541,"509":-0.09585720322097006,"510":0.11642731021645099,"511":0.008302394846177117,"512":-0.09232654599316818,"513":-0.08382887610796415,"514":-0.011449965650032298,"515":0.0451795334111849,"516":0.02092114682979593,"517":0.033936364724433524,"518":0.04161884382983826,"519":-0.05239301338798048}},{"sx":1,"sy":1,"depth":520,"w":{"0":0.032101589487881436,"1":-0.09900824181685082,"2":-0.08672507595801764,"3":0.0483736434630694,"4":0.010411797793895446,"5":-0.10111229973413978,"6":0.0015537786343745956,"7":0.013875994658575435,"8":-0.010909619320117215,"9":-0.03706965343514333,"10":0.020600404970548304,"11":0.035050704874571584,"12":-0.02062931725975115,"13":-0.005161138792799671,"14":-0.06984512720900311,"15":-0.05093600512125207,"16":0.03987211157173176,"17":-0.04804245601959836,"18":-0.07543322786442931,"19":0.07331694032525372,"20":0.08961092687804373,"21":-0.04569711636752447,"22":-0.0422023545451916,"23":0.07437606113979395,"24":0.04521046321635197,"25":-0.027557380692923576,"26":-0.032239130953541494,"27":-0.07507638931575283,"28":-0.11339408041596545,"29":0.040712530102879146,"30":0.019815470152714322,"31":0.03375393554203957,"32":0.030672319864949747,"33":-0.013471334173794784,"34":0.0331839709430172,"35":0.02414359132776177,"36":-0.02190557259615692,"37":0.06195142804416239,"38":-0.019571863239859554,"39":-0.03722526868313958,"40":0.0037569737622733983,"41":0.027703050379522087,"42":-0.04504129650004806,"43":-0.0013375881884971227,"44":0.013011390653455572,"45":-0.04899476006334743,"46":0.009909191875366118,"47":-0.028629599760282634,"48":0.13980675002071224,"49":-0.0307448420854934,"50":0.06298469641959593,"51":0.05123519400094601,"52":0.004825577687449909,"53":-0.03840412810890809,"54":-0.04587533572494716,"55":-0.005185899899458637,"56":0.07985117227632044,"57":-0.0010059700019965272,"58":-0.02709689791592816,"59":0.04003605043484214,"60":0.02313855989129324,"61":0.018620753336525103,"62":-0.03987095806572181,"63":0.008915529263703027,"64":0.08344573201549581,"65":0.02436145871367812,"66":-0.03667228077484877,"67":-0.043043634646024155,"68":0.015799267077745757,"69":0.05377728870114034,"70":-0.06486655859298752,"71":-0.07802872786691226,"72":-0.018847532758065305,"73":-0.00611772063884427,"74":0.018738874458099023,"75":-0.031781265084903566,"76":0.07931448183348308,"77":0.05370399663392163,"78":0.06704174779570517,"79":0.009638988761931592,"80":-0.08545033967423743,"81":0.015687351419432487,"82":0.021122541384852877,"83":-0.017699238193365323,"84":-0.02246760644667002,"85":0.036761859480580375,"86":-0.04281237008715483,"87":0.06261099120714317,"88":-0.07095289005801632,"89":0.013886443170886394,"90":0.04096327332319473,"91":0.013567117377418508,"92":-0.05767907406438636,"93":-0.011486545729499987,"94":0.0921952777619509,"95":0.019764869190199378,"96":-0.1073493863921531,"97":-0.042493489700508424,"98":-0.01828504404303071,"99":0.05917239925255582,"100":0.021639839392150043,"101":-0.04925342317508635,"102":0.09932964964361785,"103":0.09529974794848914,"104":0.05084672547956178,"105":-0.024533002358412475,"106":0.030441222579252206,"107":0.03148006495735361,"108":-0.051484203385297606,"109":0.020617720596378376,"110":-0.01142182893404294,"111":0.07167196479128601,"112":0.0091388120526955,"113":0.0483478202707873,"114":-0.014186897796513562,"115":0.0805833699330421,"116":0.01212291507319701,"117":0.0011695913971303978,"118":-0.07450963382838897,"119":-0.018431501990582456,"120":0.012072821498505665,"121":-0.03311434247240878,"122":0.009162495368296246,"123":0.036611752729963386,"124":0.05091065289392675,"125":-0.028709317370835128,"126":0.009690927982154592,"127":-0.03833945876556476,"128":-0.05442967259672386,"129":0.03494183057148069,"130":0.010969702742269017,"131":-0.06460494878092185,"132":-0.03028350630569933,"133":0.014572824967829578,"134":0.03236102945378514,"135":0.03966736318883007,"136":-0.03255602332905822,"137":-0.021011257762523425,"138":-0.03336703922755402,"139":0.009232141032357206,"140":-0.021822284735572066,"141":-0.0936843603191755,"142":-0.05363478564392334,"143":0.05423670522227078,"144":-0.033353742988308656,"145":0.029713116563096657,"146":0.006399605917225607,"147":0.02338417808605003,"148":-0.06574944413464076,"149":0.026248961706959045,"150":0.012079993914565467,"151":-0.11175687978338321,"152":-0.08280065252319621,"153":-0.015517008279805188,"154":0.033440105919712915,"155":0.029036225494129323,"156":0.007033021214228314,"157":0.00576680409202287,"158":0.04400370711041253,"159":0.04975791829303918,"160":0.021809763383623674,"161":-0.039820265429422096,"162":0.0217419319560298,"163":0.015980042375628768,"164":-0.06588815890070107,"165":-0.049615434544282314,"166":0.04697183383708395,"167":-0.018612526188906436,"168":0.029464245601154484,"169":0.06648892707565049,"170":-0.04436884667075887,"171":0.022453420317383007,"172":0.01091727168423849,"173":-0.10383620482326453,"174":0.15087500666548323,"175":-0.010341528262783492,"176":0.003974809859926802,"177":0.01342165916068953,"178":-0.1380959425941835,"179":-0.02867580869938358,"180":0.04422634264564186,"181":-0.020583068170591058,"182":0.053549384948114405,"183":-0.005472945269483851,"184":-0.07520463542984258,"185":-0.07909751619499368,"186":0.02791710224271431,"187":0.03593748077767961,"188":0.04568656660195645,"189":0.005024263409560777,"190":-0.026478493462461197,"191":0.0270490030014013,"192":0.0410569969679605,"193":0.06892082680232296,"194":-0.022500300239161292,"195":-0.026774224794751486,"196":0.026027151813335318,"197":0.011758725010859072,"198":-0.023977744665291217,"199":0.009407716881744577,"200":0.1133934471944428,"201":0.03833559563812023,"202":0.002924605897819436,"203":-0.06774172519424868,"204":-0.04424430664542911,"205":0.010958788710041894,"206":0.03213085722033015,"207":-0.04081804626689366,"208":-0.09261803930917366,"209":0.13004191113045294,"210":-0.07619711375666718,"211":-0.02666570103848087,"212":-0.02835898266834945,"213":0.10561039113014056,"214":-0.1670436362552087,"215":-0.07489172436339092,"216":-0.19015713881425966,"217":0.013572197855952498,"218":0.020899106325033747,"219":0.046972306420411655,"220":-0.03614576479812444,"221":-0.0017313426345678816,"222":0.054572767008421764,"223":0.022552911789757355,"224":0.024270280081118797,"225":0.06273675671401623,"226":0.07604870980078089,"227":-0.12101182606249657,"228":-0.024543512091066547,"229":-0.1006513568201747,"230":-0.02590586798810586,"231":0.019730832938895344,"232":-0.005269302301004871,"233":-0.0014787938962993771,"234":-0.04781370739060874,"235":0.051259445217346836,"236":0.05000903005934247,"237":0.02522174212208908,"238":0.032873153065393616,"239":0.07696652492458747,"240":0.003367349690022078,"241":-0.024612682743336493,"242":-0.05629140224811646,"243":-0.05305846043482336,"244":-0.0638150744085585,"245":-0.006056874164182147,"246":-0.02175208061126285,"247":-0.07980261762250072,"248":0.03835872601604298,"249":-0.02331086115983564,"250":-0.07028831390745229,"251":0.04515157783550281,"252":0.051742306391211426,"253":-0.02284725611816366,"254":-0.11776666949421188,"255":-0.04047023856816348,"256":-0.11650928885585034,"257":-0.03400057294321783,"258":0.08658305554534626,"259":0.04231097842720846,"260":0.03823959141411057,"261":0.021247772807584327,"262":0.021352883629616078,"263":0.007517467694041007,"264":0.04601841916183451,"265":0.1320880300321975,"266":0.09868034947041018,"267":-0.008649908485499947,"268":-0.08166535240415675,"269":-0.15362049542559103,"270":-0.038557487250880776,"271":0.04797456568540238,"272":0.017280953993297203,"273":-0.017882895700864362,"274":0.08189773526668809,"275":-0.05916916118844948,"276":-0.04402799290270121,"277":0.05301127036188729,"278":0.11936595628548115,"279":0.005556267623430924,"280":0.07707392304993249,"281":-0.024177087656564778,"282":-0.09672661708599381,"283":0.038123938105352334,"284":0.07114187647342617,"285":0.01985307377333281,"286":-0.09519076439960857,"287":0.00867126355764338,"288":-0.10465612762993226,"289":-0.004665195474018858,"290":0.03899574069019942,"291":0.11166061734441585,"292":0.008767543708222346,"293":0.017187758374942602,"294":0.050491331324839274,"295":0.01707751885251137,"296":0.07464889074635217,"297":-0.03345079237911314,"298":0.014270343320452376,"299":-0.03787027420224033,"300":-0.10125789856375132,"301":-0.05565248245626274,"302":-0.02673845949644806,"303":0.07506327108059019,"304":0.044717365777180385,"305":-0.22569334597453372,"306":-0.10066261236204474,"307":-0.04480175850170398,"308":-0.08462568906999136,"309":-0.027828236323034595,"310":0.03898914899961479,"311":0.0017265103503356935,"312":-0.0941708543295811,"313":-0.03071504266913621,"314":-0.005900610297743229,"315":0.059020904018138295,"316":-0.011403891045522568,"317":0.21587587979338965,"318":-0.2337136391677654,"319":-0.06551274180107657,"320":0.011900075762841487,"321":-0.04688867860268346,"322":-0.04594108093957429,"323":-0.005565533228571812,"324":0.04829568518481211,"325":0.02828498924610479,"326":-0.045241948289855345,"327":0.10839358769086362,"328":0.007741409588769822,"329":0.011405998806404067,"330":0.14854345551293574,"331":-0.15089041426006083,"332":-0.20063181668419097,"333":0.05210533377274792,"334":-0.03690484009916643,"335":-0.036629625687441686,"336":0.05442821745736199,"337":0.007362708610610632,"338":-0.014787690321123164,"339":-0.05207415092035414,"340":0.06012170920438042,"341":-0.033652946478724154,"342":-0.0158308768689485,"343":0.08772095644591292,"344":-0.03577840815787173,"345":-0.10428953459151559,"346":-0.05815318164136304,"347":0.030183494276005408,"348":-0.02047529523145509,"349":-0.019234858872495538,"350":-0.003910165864856312,"351":0.008639956046873318,"352":-0.13714049408456488,"353":0.058329775550508764,"354":-0.007789395968989739,"355":-0.020322908675298332,"356":0.29348918125386014,"357":-0.03484456484875379,"358":-0.11557550559903167,"359":0.04419773894851479,"360":-0.010454914101411647,"361":0.012501083847326398,"362":-0.0014784465593465055,"363":0.03492226681708336,"364":0.011288603581495138,"365":-0.09666120575205843,"366":0.01277092829658062,"367":-0.10779916760278824,"368":0.06006506068762451,"369":0.12726562100873043,"370":-0.10913600722338987,"371":-0.14604142115142554,"372":0.031779403906725984,"373":-0.04909105678582985,"374":0.0698530955314627,"375":-0.04036456381970117,"376":0.027674679315901587,"377":-0.12622706465022981,"378":-0.08111463471601561,"379":0.019972264264844494,"380":0.021490097333636382,"381":0.016525888229138173,"382":0.1455991739443778,"383":0.0003292361067342485,"384":-0.07359096639277125,"385":0.07499865292680423,"386":-0.02599682414799566,"387":0.017212715988346713,"388":-0.0184713382408441,"389":0.07393373670922387,"390":-0.037563277357615776,"391":0.07578413199236722,"392":0.009995059035043318,"393":0.030468472907512863,"394":-0.02353089522535723,"395":0.1644759673093462,"396":0.05116320258937959,"397":-0.08869300279720237,"398":-0.009988284273367867,"399":-0.07252273045495031,"400":0.01427912888201379,"401":0.0008707971849531197,"402":0.05532296636679488,"403":-0.03983974249364139,"404":0.05039846964262308,"405":0.00889007630664866,"406":0.014145939783424299,"407":0.04154604463304039,"408":0.07357537642227126,"409":0.03577267849115163,"410":-0.04689163773823064,"411":0.06889495729047729,"412":0.00909450441056841,"413":-0.11777936852379817,"414":-0.0035873407371425784,"415":0.010757234517083191,"416":-0.01951681228609998,"417":-0.007944096380102081,"418":0.02975348821305265,"419":0.003245303787736422,"420":0.10062175710948633,"421":0.1276564251101644,"422":0.060773665464963704,"423":-0.03743190258998745,"424":-0.041320085088410195,"425":-0.06633803514604726,"426":-0.03081775405813361,"427":0.015231707178058905,"428":-0.03496346906487496,"429":0.09188805201041712,"430":0.0058886145800422255,"431":0.002795405573770142,"432":-0.060525510746637264,"433":0.06704528128998644,"434":0.12478122595438058,"435":0.04955713299520902,"436":-0.051285088497055646,"437":-0.03948869011615358,"438":0.06189484161349214,"439":0.02773698808630734,"440":0.03318770365959619,"441":-0.05606286878174351,"442":0.06400499419718715,"443":-0.05016890717867076,"444":-0.032633250344165546,"445":-0.028273561821129927,"446":0.026102848509036818,"447":0.06333998685508413,"448":-0.13551122781640923,"449":0.016574820823350375,"450":-0.05811924424416333,"451":0.03424849417479354,"452":-0.010107662722418071,"453":0.07225257748207373,"454":-0.13458211118273472,"455":0.032402197596395274,"456":0.004540465493347593,"457":0.10137000873340482,"458":-0.16688878323586964,"459":0.040161122398846213,"460":-0.023037308663434047,"461":-0.026000428982194238,"462":0.056124383819353064,"463":-0.1227822942454433,"464":0.1279525979088916,"465":-0.0011501145500849694,"466":-0.0011259112159896021,"467":-0.02540678612003602,"468":0.02092420693543235,"469":-0.016649439008105168,"470":-0.03139984889586638,"471":-0.011220893067243496,"472":-0.02934174224540228,"473":-0.05819552934137086,"474":-0.039797654298263554,"475":-0.04050375314891552,"476":-0.040481979628688575,"477":0.09505097393116534,"478":0.05313538450997883,"479":0.010995389768986162,"480":0.005360101469583677,"481":0.004059906187072213,"482":0.03418130912457531,"483":-0.013145570765677846,"484":0.03994656937698695,"485":0.014860789307977908,"486":-0.05128511951090372,"487":-0.0013582323390310264,"488":-0.03741801902034827,"489":-0.005926319662075251,"490":0.11189142899292306,"491":-0.03101405400834422,"492":0.07395599574883109,"493":-0.0208807347604133,"494":-0.016460208039368117,"495":-0.011175417473458387,"496":0.0056765598021182966,"497":0.10192045171287184,"498":0.030267955143533084,"499":0.042925575866752844,"500":-0.2139164632763495,"501":-0.06635391675511752,"502":-0.013505317324427458,"503":-0.02680116470401434,"504":0.08352227969036499,"505":0.022604882506345597,"506":-0.042446470350649454,"507":0.021999472215045935,"508":-0.032633923309989425,"509":0.06029442474692258,"510":0.03516669669539289,"511":0.01539760341168238,"512":0.0403281271153195,"513":-0.18044094003220487,"514":-0.02461245451884594,"515":0.11529758566797005,"516":0.06517539836029215,"517":0.02252816845112504,"518":0.04973430663300475,"519":-0.002993269773653002}},{"sx":1,"sy":1,"depth":520,"w":{"0":-0.006774195848830154,"1":-0.10767006545885197,"2":0.10445628362632085,"3":0.049285187426419186,"4":0.058940776208748796,"5":0.027618045210514003,"6":0.04313933393403966,"7":-0.03777927937383992,"8":-0.027571327679548605,"9":0.02644081575952581,"10":0.1174002318711119,"11":0.025305116172964867,"12":0.010002231717163136,"13":0.010909119267604322,"14":-0.09601323174364287,"15":-0.05318551116094479,"16":0.06610295800165263,"17":0.02266183332140015,"18":-0.05309656034672436,"19":0.025007664030796555,"20":-0.0058403022427789796,"21":0.04176396307896829,"22":0.07627197945516158,"23":0.03496430964404362,"24":0.03636914844047168,"25":-0.0396571498918586,"26":0.019906445659405435,"27":-0.08380673915837489,"28":-0.07356712130922907,"29":-0.010553231244432344,"30":0.04127412342489661,"31":-0.03572321861654936,"32":-0.06873394653074588,"33":0.05062656934053543,"34":-0.05479378261886321,"35":0.058337239650298994,"36":0.06127590029348169,"37":0.03902566648698826,"38":-0.008906134781258507,"39":0.031112804855659724,"40":-0.10756426605085473,"41":-0.03265991560159919,"42":0.15434301105891057,"43":0.05528419351735624,"44":-0.001910639111915255,"45":-0.005051322781485545,"46":0.023581302507073933,"47":0.018576758606984767,"48":0.005998888463363696,"49":0.05877061213226109,"50":-0.0019103031698625564,"51":-0.06280211324149203,"52":-0.00595129691903534,"53":-0.024058011301693518,"54":-0.07739337560238996,"55":0.040200392898155815,"56":0.030178866563883442,"57":-0.07093702977432072,"58":-0.024737023274201044,"59":-0.043814546045305394,"60":-0.03538800872792262,"61":0.11427083674688605,"62":0.02623623847776009,"63":-0.10745481845926194,"64":0.016767607206117766,"65":0.06646288975165886,"66":-0.05002559767328643,"67":0.09379098331561074,"68":-0.01148238958394478,"69":0.030658580388819842,"70":-0.02175487929859041,"71":-0.049758099314916454,"72":0.056437452296633654,"73":0.06846444921597387,"74":0.12463648192340161,"75":-0.028776988942103832,"76":-0.048455648112282076,"77":-0.029201559491702164,"78":0.07516766381569959,"79":0.006418504078488148,"80":0.017842438498898907,"81":0.03234795912310324,"82":0.004998902672175775,"83":0.03452108078909283,"84":-0.019494005883243258,"85":0.044239969403042013,"86":0.00890010037735082,"87":-0.021529933890182817,"88":-0.006451324789089797,"89":-0.03125118185602286,"90":-0.07404673751712557,"91":-0.004965230204527618,"92":-0.03463513532475721,"93":0.04269460146812738,"94":0.02330131444513667,"95":0.008659043348981337,"96":0.0358049675481271,"97":0.060448620496476854,"98":0.010565555537408353,"99":-0.07360979036967734,"100":0.1084610013547527,"101":0.08131274764389505,"102":-0.02237022575004465,"103":0.046024146355469656,"104":-0.03072138011804347,"105":0.021410198809224273,"106":0.03476917844364779,"107":-0.10983938331012814,"108":-0.04322525255540038,"109":-0.04580949394108252,"110":0.019511394508770184,"111":0.08651476603728302,"112":-0.019704897490045493,"113":0.041383622091735045,"114":0.032331257694952445,"115":0.028132643172737483,"116":0.09450018951680127,"117":-0.10150289022218681,"118":-0.09188055742766825,"119":-0.0068261682922663705,"120":-0.04915279076607494,"121":0.06240889737740261,"122":-0.04320705999979928,"123":0.014929540202690446,"124":-0.004554652814379331,"125":-0.03433271100462755,"126":0.07854773935708335,"127":0.04361125407501287,"128":0.08130445258512767,"129":0.07629189800542767,"130":-0.07951483120779104,"131":-0.0003644715288154542,"132":-0.016083892245004446,"133":0.0030250258242799366,"134":-0.08269903928056926,"135":0.04239503953877873,"136":0.05576116732219366,"137":-0.015399948050960045,"138":0.012104754443349679,"139":0.14111035436923128,"140":0.03365648906114512,"141":-0.036857749319910295,"142":0.12902419097663406,"143":-0.039054260841344925,"144":-0.003022407269924792,"145":-0.05802143657559281,"146":0.06520685186567503,"147":0.03598352857650407,"148":0.0024611931369312692,"149":-0.006929297449812141,"150":0.02718245733718021,"151":0.010169255059065437,"152":0.005036073311312184,"153":-0.013284073562775837,"154":0.049718914236945626,"155":0.0758860068649483,"156":0.025203304251131018,"157":0.004344677942184532,"158":-0.07593533527970357,"159":-0.0008972585361957208,"160":0.020080131222012722,"161":0.057948218066478006,"162":-0.04572899408999511,"163":-0.022396730357542773,"164":0.00023560261658772655,"165":-0.014970339267655121,"166":-0.045063916435331725,"167":-0.036707683686340684,"168":0.06435190418119835,"169":-0.040133923748846834,"170":-0.014162627911444497,"171":-0.04336337246222005,"172":0.023004235052083658,"173":0.06578925489926556,"174":0.000010396628865984535,"175":-0.06766314200931882,"176":0.08112640280374019,"177":-0.03846293718684774,"178":0.05544721107214552,"179":0.033475674666920155,"180":0.0071350676389539715,"181":0.04681586215705159,"182":-0.028267990791290443,"183":0.022672088318604792,"184":0.08846900216017656,"185":0.049539744568893165,"186":0.011092235383575524,"187":-0.05225478965222133,"188":0.01663039179703515,"189":-0.005197287922398264,"190":-0.06812369585426896,"191":0.03709408840819536,"192":0.0679320670923238,"193":0.11488498012598251,"194":0.007463482072921197,"195":0.08798469680968407,"196":0.030316061375124714,"197":0.10246271922752705,"198":0.09138190381018978,"199":-0.052794245085606296,"200":-0.01794899649808032,"201":-0.003978337545413459,"202":-0.0665465621730793,"203":-0.04882189697211233,"204":0.08530022849009841,"205":0.08613799828546236,"206":0.054556672364106,"207":-0.006856143034369997,"208":-0.0416524469329962,"209":0.04442395105492265,"210":0.04671878389073746,"211":0.002760228985221443,"212":-0.05422784205265544,"213":0.027371977899267735,"214":-0.06266445961454001,"215":-0.1236921330684841,"216":-0.013424020139807424,"217":-0.014678458063244542,"218":-0.008678219317371089,"219":0.035655456300104624,"220":0.04380322638995774,"221":-0.007568094227091761,"222":-0.008137952346380576,"223":0.05532532436283164,"224":0.13213910460285466,"225":-0.06713900050978532,"226":0.06394259705772481,"227":-0.11583353687077678,"228":-0.043384075584661376,"229":0.003090654264539752,"230":0.03191170812722893,"231":0.02781332848816205,"232":-0.012970462032055272,"233":0.09056765777848037,"234":-0.04905549425105094,"235":-0.02684612977848469,"236":-0.007835406954910487,"237":0.12681945296853142,"238":0.0011002319358633895,"239":0.09193933164452307,"240":-0.10954572249193491,"241":-0.13366162195831224,"242":-0.044186804453696216,"243":0.006021079255474322,"244":-0.001329684937390599,"245":-0.037682545511011245,"246":0.10355815166378443,"247":-0.016537567524320427,"248":-0.009549769029882875,"249":0.022944377887992876,"250":0.1339167678262731,"251":-0.06977405803111683,"252":-0.006265442232268571,"253":-0.01569046700739661,"254":-0.13376834813560207,"255":-0.051719058924112896,"256":0.005756802764094306,"257":0.038136797479583,"258":0.012706893027263895,"259":0.030532461329033138,"260":0.02225981995126724,"261":0.035988938221772716,"262":0.09506455519269973,"263":0.04439577498905006,"264":-0.0016870693116841618,"265":-0.03234960570785671,"266":-0.16970525413294413,"267":-0.11034392407506795,"268":-0.042070118309131654,"269":-0.012649950906266994,"270":0.0571133255173517,"271":-0.07566974220326518,"272":0.07446348167138941,"273":0.06288536566031422,"274":-0.013638166790207016,"275":0.03076764481707996,"276":0.01776767782982036,"277":-0.00835006754601187,"278":-0.012804981899327285,"279":-0.08821933656570916,"280":-0.11350767028848095,"281":0.06455020000955256,"282":0.06521627774409726,"283":0.06718751318054286,"284":0.11492017531150557,"285":-0.013728289764375212,"286":0.029884756476339785,"287":0.11743534872152367,"288":-0.008049025188040211,"289":-0.01262750781045124,"290":0.0005396081703193382,"291":-0.02815562012637903,"292":-0.062385108080625175,"293":-0.13821033862207988,"294":0.014900852421827523,"295":-0.01843948367424677,"296":0.06439395590173676,"297":0.027014580231526645,"298":0.02122396904361464,"299":-0.019199750380940454,"300":-0.02571877319042037,"301":0.03103951737037407,"302":0.0852680070289277,"303":-0.033632956925248265,"304":-0.025964255130039613,"305":-0.19843376339845076,"306":-0.05058229935867075,"307":-0.00234505956238314,"308":0.024427087222549985,"309":0.09105844431941014,"310":-0.03129552724137449,"311":-0.003379699972436999,"312":0.03595013587903814,"313":0.031628008298464676,"314":0.010936653736267662,"315":0.08157290363685507,"316":0.008007180804810856,"317":-0.08343107013391587,"318":-0.11071811109582261,"319":-0.12972730803243115,"320":0.025962972500135583,"321":0.009252934660060037,"322":-0.012876657215369982,"323":-0.023567742605215523,"324":0.047420726030253824,"325":0.003598888562282425,"326":0.03406377517658094,"327":0.056752328178247685,"328":0.013907732422236543,"329":0.007988851470578366,"330":0.010662878770412132,"331":-0.07248509565410577,"332":-0.07302542932631116,"333":-0.01841004909332652,"334":-0.06226953809923711,"335":0.05786371081694085,"336":0.13382891924606716,"337":-0.07476761066708462,"338":-0.013951411290698152,"339":0.011417839547183591,"340":0.055462164558148994,"341":0.04344472267863573,"342":0.05278116802819187,"343":-0.0010459875474223871,"344":-0.08169541779244156,"345":-0.19923451434056436,"346":0.008875881355279612,"347":-0.05595283530458425,"348":0.025175125574719952,"349":0.07014021596859119,"350":-0.06269574629473686,"351":-0.002986598638764539,"352":-0.022036632077940533,"353":0.08018587767682979,"354":0.07136601695591126,"355":0.048763321256570506,"356":0.06279580706214838,"357":-0.08937751407943346,"358":-0.18767524554288326,"359":0.05373370575039125,"360":0.05488582076074693,"361":0.01602688724152094,"362":0.14270656634614678,"363":-0.027836706532066623,"364":0.012993078373982603,"365":0.0022533212168662294,"366":-0.004292764409730038,"367":-0.03724197888944184,"368":-0.03459833063873703,"369":0.05338839664581945,"370":-0.03135697483926346,"371":-0.12580937829407113,"372":-0.04009522094570194,"373":0.11822819905921518,"374":0.0233592305241551,"375":0.12974979325664407,"376":-0.03500776926576249,"377":0.023380876197163433,"378":0.030989273187333365,"379":-0.04858030208868797,"380":-0.018454184864967367,"381":-0.08208093381108324,"382":0.10229201384699418,"383":-0.06040295189197496,"384":-0.17207382529360926,"385":0.05237103154226687,"386":0.02636499281416675,"387":0.036996409754741624,"388":0.0820895867428713,"389":0.03774159403388979,"390":-0.0031678453521422427,"391":-0.00726665948876844,"392":0.005390216844114412,"393":0.011606026188211426,"394":0.029430333115658708,"395":0.02211295498822029,"396":1.1843765826979036,"397":-0.12876104016411044,"398":-0.010852349781701414,"399":0.055747678542437895,"400":0.025569772597256717,"401":0.08081167277841458,"402":0.02399378294216173,"403":0.002739013702664016,"404":0.11536913218233572,"405":-0.005214998562274226,"406":0.056737020975946476,"407":0.011344023382447456,"408":0.0816817105587459,"409":1.2090703339447655,"410":-0.15624377540087717,"411":-0.013413857919837626,"412":0.05456383052491054,"413":0.042909141593916435,"414":0.07671550811369143,"415":-0.028418889008894586,"416":0.025519063197221865,"417":0.06817754786422692,"418":0.02282659180087338,"419":0.0010587826689783392,"420":0.03138312034883108,"421":-0.044929035737735074,"422":1.17538967035806,"423":-0.07792715990149222,"424":-0.0049692543027450185,"425":-0.03197012057524215,"426":0.029964807030680718,"427":0.03269599748347551,"428":0.012059858597346058,"429":-0.04624586783235874,"430":-0.0017519299784007894,"431":0.07727360367265873,"432":-0.0353323855901819,"433":0.04335650523911614,"434":0.05460963227588451,"435":1.1942430329631868,"436":-0.0382536094006297,"437":-0.019163020648623248,"438":0.02473627131876422,"439":0.06432210843161218,"440":-0.04121727007212135,"441":-0.06635845546304393,"442":-0.0841601141885095,"443":-0.04606224115627827,"444":0.0015405114582384466,"445":0.03251439178257053,"446":0.041155844008606786,"447":0.0982932126455086,"448":-0.04082345136211069,"449":0.03102272615326454,"450":0.0645467947510709,"451":0.10574873757110216,"452":0.04909970987403026,"453":-0.009182592380176787,"454":-0.06891345260300008,"455":0.05765734389206276,"456":0.006227503212253268,"457":0.03517676807469854,"458":-0.006492166458913287,"459":0.08724899051438417,"460":0.05307845922237848,"461":-0.05898051876591438,"462":-0.04106431764626884,"463":0.044253119676942156,"464":0.06959575172697845,"465":-0.03054174487664364,"466":0.0587277618653215,"467":-0.03572390038613384,"468":0.00027235942916645364,"469":-0.03645526884497231,"470":0.09984128690297957,"471":0.1539011822942226,"472":0.0512222813371192,"473":-0.08034775250533878,"474":0.03473598953892854,"475":0.06033525457372825,"476":-0.007341964146185667,"477":0.033495016591038984,"478":0.04275080354759287,"479":0.10157133447935045,"480":-0.0677001568405099,"481":-0.001988200416641831,"482":0.02787180565356882,"483":0.032910139723699765,"484":0.09767857214032571,"485":0.02372212435974339,"486":0.004543769587638386,"487":-0.13160143401426727,"488":0.019655864442823082,"489":0.11963537283063153,"490":0.07457592251194771,"491":0.038801648007908786,"492":0.12359436866265328,"493":-0.07658680758091159,"494":-0.07812516822783441,"495":-0.012049146501067193,"496":0.08947633853478279,"497":0.043376345849826206,"498":-0.03331018924417085,"499":-0.056427327949149016,"500":-0.17445058896906449,"501":-0.03265311118925965,"502":0.06569565906621311,"503":0.06772048887348696,"504":0.04230112799735987,"505":0.0007827468355951676,"506":0.03296982049036488,"507":-0.08750859030520147,"508":0.09981915006478112,"509":0.04114912254153594,"510":0.01618447602336594,"511":-0.06537717271456428,"512":-0.03851186472749671,"513":-0.13684576281506142,"514":-0.022685932067196764,"515":0.1247435122086601,"516":0.052828741076686524,"517":0.07319182219000196,"518":-0.005711702188493813,"519":-0.07172904864764418}},{"sx":1,"sy":1,"depth":520,"w":{"0":-0.07763345873196288,"1":-0.05968464913173338,"2":0.013697652948747715,"3":-0.01966588182764945,"4":-0.026392826865347475,"5":0.03488630481850332,"6":0.08144301217120618,"7":0.07663050113878123,"8":-0.06008017558349092,"9":-0.025176265455505154,"10":0.0333912658580945,"11":0.01052250559950871,"12":0.03449303286430302,"13":0.000696762871678938,"14":-0.017356721773562497,"15":0.014847510667450915,"16":-0.027995791499592984,"17":-0.06874044405236095,"18":0.06005217089502277,"19":-0.04339169646275572,"20":0.02488725620599186,"21":-0.05600306077341514,"22":-0.06365339884682043,"23":0.02684578204345266,"24":-0.019849619607560764,"25":0.05715152658230405,"26":0.0011838906910267735,"27":-0.015953751142819994,"28":-0.060420323732903715,"29":-0.03470931817428851,"30":0.0064746519275951505,"31":0.11738664990804111,"32":0.007329322870420527,"33":0.09891302560009718,"34":0.01642769799818959,"35":-0.07183467379015718,"36":0.03105044631131776,"37":-0.005885978384486021,"38":0.017820037090872105,"39":-0.04732813530904964,"40":-0.008779480403363103,"41":-0.006602694270318736,"42":0.04896246880893167,"43":-0.03326058729016476,"44":-0.012400165408451149,"45":-0.04282595032049489,"46":0.06588716318949457,"47":0.0012179627011274358,"48":-0.02286066239905515,"49":0.014775094364637045,"50":0.1372690434080381,"51":0.03909751411857133,"52":-0.04082460226545296,"53":-0.08864720296776266,"54":-0.0029077221564592455,"55":-0.0050318432842510275,"56":-0.06420859051583888,"57":0.04149048613963759,"58":-0.0036394967548789084,"59":0.06158369792138426,"60":0.011724909793194141,"61":0.029899913296636316,"62":0.026436111314825803,"63":0.16142535034568584,"64":0.019407187729422595,"65":-0.0390036093257316,"66":0.004493254094832395,"67":-0.07340941814184103,"68":-0.05423888186379784,"69":0.017978753606902438,"70":0.0362066498414047,"71":-0.02467492908681446,"72":0.03778723835489041,"73":0.042077418319669005,"74":0.043346542464425056,"75":0.004697213548261227,"76":-0.012385925296385214,"77":0.0445407642944209,"78":-0.042176291435101876,"79":0.013574208354164775,"80":0.0176590481866842,"81":0.13958605508613137,"82":-0.023645916225212397,"83":0.03959648600786554,"84":0.026099405388162314,"85":0.07918607070273431,"86":-0.008711334157007696,"87":-0.023587201460778456,"88":-0.04260528205085997,"89":0.01008452514533225,"90":-0.05295093874564501,"91":-0.027224496135362132,"92":-0.04068592098706211,"93":0.019306359146848247,"94":0.005335666496490709,"95":-0.05561671657607161,"96":0.06503042371375949,"97":-0.027134821700011223,"98":0.06195786381163697,"99":0.07197237058499024,"100":-0.017076526446000516,"101":0.06936359275471468,"102":0.06570754171845365,"103":-0.0452295819017281,"104":-0.017567652998783104,"105":-0.09233717434287689,"106":-0.022891872322384453,"107":0.06911834371094794,"108":0.061639122327069064,"109":-0.0053263369530636906,"110":-0.02690159931112405,"111":0.03821605031952936,"112":0.06565910653403814,"113":0.043490710258011454,"114":0.03572017301256714,"115":0.043266614621594104,"116":-0.009691522922996874,"117":0.008013138884660896,"118":-0.0294878023807581,"119":-0.020839042011283754,"120":0.089950800570744,"121":0.02395078046932586,"122":-0.001379487348631727,"123":-0.01589206259399938,"124":0.037793957176221075,"125":0.016064404129088754,"126":0.041368698041378084,"127":-0.006885487666003226,"128":0.023069382546897773,"129":0.005267700284381033,"130":-0.007597358449733532,"131":0.045175723680072125,"132":0.007241105484037184,"133":0.026445345009878083,"134":-0.008045579847971338,"135":0.0471731205060303,"136":0.14789794148544738,"137":0.0563661391660392,"138":0.03485286213841228,"139":-0.02738641948499759,"140":0.0034397001512606953,"141":0.033541263783578024,"142":-0.13955161383474476,"143":-0.04614859470230739,"144":0.09761604053455458,"145":-0.08173101103814254,"146":0.0026838327327654674,"147":0.04612924509933798,"148":0.0009017401027000646,"149":0.06786014381292259,"150":0.018332553691743726,"151":0.05072287499612915,"152":-0.05583416516269618,"153":0.07354703915141853,"154":0.031081481863234124,"155":-0.0012615387355293616,"156":-0.02626349946080234,"157":0.07310597629664703,"158":-0.00220770881757532,"159":0.07497603131205759,"160":0.062325058337801116,"161":-0.02364179332217938,"162":-0.03745620497718982,"163":0.15648951238460115,"164":0.09096143834264375,"165":-0.06275787829630555,"166":-0.020336593510188846,"167":0.008174220707145087,"168":-0.05874553392168048,"169":0.04962329270293708,"170":-0.013938907926639574,"171":0.02716879409564221,"172":0.038671296406542245,"173":-0.005933763454717455,"174":0.020977426472839917,"175":-0.014811400890797997,"176":0.08277826146680373,"177":0.03151437621309326,"178":0.004133988378701382,"179":-0.004238503031114247,"180":-0.013196937363075345,"181":0.023972958301350118,"182":0.02404230441126751,"183":0.033809796984653286,"184":-0.00558031600422341,"185":0.002996294898506849,"186":0.05264014555260499,"187":0.06161931933192681,"188":0.05529790647108707,"189":0.004978479810703029,"190":0.02118112692999771,"191":-0.03716944856486032,"192":0.0015560805820602505,"193":-0.010343428130425164,"194":0.0769778736965101,"195":0.008961446291196301,"196":0.025032592289988997,"197":-0.05197469692464915,"198":0.01629841589323914,"199":0.010740879841470517,"200":0.011060393748540806,"201":0.006495060267971691,"202":0.08831307922316359,"203":-0.023583623195009232,"204":0.08911421904663812,"205":-0.02995016653934294,"206":0.025957079798704544,"207":0.17733347755150503,"208":-0.015214690956195412,"209":-0.011267928570455355,"210":0.0012905117589990746,"211":-0.02914017692779413,"212":0.19063095315108994,"213":-0.018636009406580476,"214":-0.042119360619158386,"215":0.0832860263999665,"216":0.01677688648197239,"217":-0.0388049114458813,"218":-0.0010670659565468709,"219":-0.03915464457149716,"220":0.05883688589575806,"221":0.03946637131779165,"222":0.07611776006286657,"223":-0.016032597785526816,"224":-0.030542343596049116,"225":-0.012053544089970914,"226":0.13140835693228978,"227":-0.05699549628032988,"228":-0.0007465987451076767,"229":0.020226240405035435,"230":0.06910162106113646,"231":0.050057836418289585,"232":0.006397306565987725,"233":0.006165212546717704,"234":-0.07756363721664851,"235":0.04914951206377317,"236":0.042899962733041114,"237":-0.013996649757557971,"238":0.0739671040958916,"239":0.017427056887785123,"240":-0.019119723132176643,"241":0.0481917707594066,"242":-0.006681947414404858,"243":-0.059065722883962855,"244":-0.07608054472776787,"245":-0.03773759560756476,"246":0.03152176009942101,"247":-0.07525964122213087,"248":0.030278847125798196,"249":-0.06455471168003059,"250":0.0385979696487976,"251":-0.031418611899020586,"252":0.012430645055632926,"253":-0.10750264153979593,"254":-0.03477450897618224,"255":0.0202945320798542,"256":-0.0065191688942644,"257":-0.0505843042954774,"258":-0.0027257387980671624,"259":-0.03317135322558045,"260":-0.028655347583190334,"261":-0.06383014988647547,"262":-0.06636902248884517,"263":0.05855168106268321,"264":0.07802099292459092,"265":-0.0006636217057107505,"266":-0.016090108585930806,"267":-0.1344410938039345,"268":-0.031543438747728476,"269":-0.0075803619182951395,"270":0.02996578224004071,"271":0.08126044910813959,"272":-0.0012280291006558429,"273":-0.004849673155138105,"274":0.01074954564461505,"275":0.012761298075164424,"276":0.059421317880203106,"277":0.07428427074389478,"278":0.03712298146907399,"279":-0.024196200526119434,"280":-0.04321446706483847,"281":-0.02854873713880416,"282":-0.09511615030333703,"283":-0.06726547751434428,"284":0.03231428096093606,"285":0.016114842301349908,"286":0.01489033395486408,"287":-0.012951474115651016,"288":-0.00006896937370858876,"289":0.026211106616003867,"290":0.030158327369765512,"291":0.028546188368557292,"292":-0.04110515230116869,"293":-0.06375065097961131,"294":0.03179554778610445,"295":0.03227716211175809,"296":-0.11294719608778724,"297":0.06115822057542211,"298":0.03783475931315255,"299":-0.027895550996333635,"300":-0.0025149313465795595,"301":-0.01909113967947088,"302":0.02400674239247115,"303":0.03799728138539266,"304":0.008896824923096793,"305":-0.0671536912953099,"306":-0.049178255233608775,"307":0.029511833497454065,"308":0.04961395135426983,"309":0.009484382990535433,"310":0.06987950823325167,"311":0.0159376729551295,"312":-0.02028960438675769,"313":-0.01274357471059355,"314":0.025897635185205693,"315":-0.047070716420567094,"316":0.047642447615430294,"317":-0.01742076983702422,"318":-0.045739631283650634,"319":-0.023678571341442304,"320":0.02441265589684376,"321":-0.10233420693009582,"322":-0.014195355737670582,"323":-0.01191196419778624,"324":0.010362027242491419,"325":0.01238778518705743,"326":0.051552860012656056,"327":0.06680536821398585,"328":0.015833759856140644,"329":0.06043025135675117,"330":-0.02647075073313866,"331":-0.08836181529600057,"332":-0.048536053514348566,"333":0.056590725814908385,"334":0.005150176210291625,"335":0.030414266293708147,"336":0.0015181014463017072,"337":-0.06732816656783326,"338":0.10585583301256646,"339":-0.038796658344251396,"340":0.010086052508231243,"341":-0.003937396175847786,"342":0.04256989789686355,"343":0.04108238004841509,"344":-0.22311885477822296,"345":-0.0692480875382107,"346":0.05098928055956747,"347":-0.03408577732001359,"348":-0.012702237790785461,"349":0.017358084627861887,"350":0.06160566050737122,"351":-0.020500583256830386,"352":-0.039570779172475506,"353":0.06676010935885167,"354":-0.040048402259633596,"355":-0.017741350532322498,"356":-0.029923079303905937,"357":-0.06642631070734242,"358":-0.07614615216269935,"359":0.004688513966377589,"360":0.11536402253247914,"361":-0.1088698762038897,"362":0.0034944402666459064,"363":-0.04031964707249889,"364":0.04713483644945856,"365":-0.05155442302004334,"366":-0.08420066642764593,"367":-0.08938985437346327,"368":0.07936337174330174,"369":0.022332808164317847,"370":-0.05443856031336021,"371":-0.07137775046427758,"372":0.01689935612692467,"373":0.06296107666283983,"374":-0.02152649309497531,"375":0.024609652886722698,"376":0.08034396782115115,"377":0.07254020013096463,"378":0.0245775902576156,"379":-0.014219297112372893,"380":0.0033226869537208176,"381":-0.03603988320140194,"382":0.02562201073965467,"383":-0.0025816225970939116,"384":-0.09971496563690149,"385":-0.05089112755276364,"386":0.030017875105030695,"387":-0.06337018525912053,"388":-0.04160172899406869,"389":0.07142735219292655,"390":0.10977035406991034,"391":-0.004149194134709849,"392":-0.02907320048039608,"393":0.011411731576321454,"394":0.043818240445429965,"395":0.05564492715465776,"396":1.1662522244597264,"397":-0.046770958277844485,"398":-0.029560145481238174,"399":0.030077899982795947,"400":-0.07142197784285365,"401":0.014830071925943274,"402":0.02316332077661281,"403":0.13346429083246075,"404":0.005747594536051272,"405":-0.04463249844132466,"406":-0.005492911095512639,"407":-0.0630739337620614,"408":0.025306285308089066,"409":1.219321433549159,"410":-0.09040371504560378,"411":-0.05213219990754749,"412":-0.06380172186651542,"413":-0.04501074629613202,"414":-0.014199127485612695,"415":-0.014673974720813781,"416":0.07967603660029357,"417":-0.03503745523710329,"418":0.008782143321440042,"419":0.02873979856388574,"420":-0.01678264493812618,"421":0.008565264636152259,"422":1.185021390129103,"423":-0.03555370991884814,"424":0.08300610723425692,"425":0.009238274329856576,"426":0.0034310912913421013,"427":0.03800396580138144,"428":-0.026683429939075128,"429":0.1775240374588005,"430":0.05743194871282449,"431":-0.05413137427864509,"432":0.059018692258509566,"433":0.008130626817369454,"434":-0.018574163532716167,"435":1.1750037623300036,"436":0.017478308764538895,"437":0.11744424956667317,"438":0.07488943719625506,"439":-0.000014855969204282592,"440":0.021271254171337607,"441":0.006118255885369911,"442":-0.026461469724273056,"443":0.02013477804970972,"444":0.05198646064549491,"445":0.04173349621346049,"446":-0.05580079204210414,"447":-0.06204314972298906,"448":-0.01153492373735922,"449":-0.04447990857134846,"450":-0.045581644316520516,"451":-0.04159271859649395,"452":0.06936813738972641,"453":0.00230968988657639,"454":0.04750810142113039,"455":0.07443905095560324,"456":0.017605945495844436,"457":0.015010437581288352,"458":0.09943175660055192,"459":0.006534099786410273,"460":0.0032474920840094173,"461":-0.03878063977525357,"462":-0.026830057123694767,"463":-0.012691197995301261,"464":-0.014958040223663843,"465":-0.01910446833027023,"466":-0.01027865661398563,"467":-0.028332760395349037,"468":0.07658733785509765,"469":0.053675239282120646,"470":-0.05927382424325435,"471":-0.01902213636759001,"472":0.02165300502016586,"473":-0.016363136820028747,"474":0.000564711126601754,"475":-0.05619759173518956,"476":-0.006306113667080412,"477":-0.006261812412731016,"478":-0.059506359609374525,"479":0.03922567901471049,"480":0.025200702475622345,"481":0.0668394034984263,"482":0.040742068941546715,"483":0.03458875909687561,"484":0.029635538407776555,"485":0.0016932928596757922,"486":-0.03454336628639336,"487":0.0900551220888862,"488":0.0348197676291999,"489":-0.012508506130439703,"490":0.043815259829452356,"491":-0.052015670052203734,"492":0.012308610055020834,"493":-0.029359050713114634,"494":0.0625043707909279,"495":0.03639608530417954,"496":0.007413299234931196,"497":0.04061564690852097,"498":0.03797830203668092,"499":-0.005732717352526621,"500":-0.1334656950781996,"501":0.023032166663585714,"502":0.013461573821783116,"503":-0.006074261306553742,"504":0.03022936394654063,"505":0.07408842511353038,"506":-0.00028779337858980594,"507":0.09593631670925053,"508":0.015872525400915962,"509":-0.006065465388172788,"510":0.04443198062270762,"511":0.04299788207550012,"512":-0.10803574837630577,"513":-0.12722128233014382,"514":0.039430597504476805,"515":-0.0014391194933358372,"516":-0.002707198092524594,"517":0.01074007890615049,"518":0.08262530141291935,"519":0.038291624041650464}},{"sx":1,"sy":1,"depth":520,"w":{"0":0.0037834018265555523,"1":-0.0030306112294259755,"2":0.011058499996371238,"3":-0.04358953277705828,"4":-0.06802411850760375,"5":-0.03728641067474458,"6":0.010294644635953658,"7":-0.07268560886036511,"8":0.09865028497825394,"9":-0.05834567142421635,"10":0.02192423586263702,"11":-0.10004655979986304,"12":-0.003804135190640077,"13":-0.00877854270298363,"14":0.004037576752657193,"15":0.04665794812235158,"16":-0.0035397692159362297,"17":-0.0529096035067569,"18":-0.03382783573316165,"19":-0.04605118929548064,"20":-0.024190729954209865,"21":-0.04096287621902563,"22":0.03369826773330191,"23":0.04436427864537044,"24":-0.04503177059328186,"25":-0.07484758000007266,"26":0.019162619982148552,"27":0.0019457080307246,"28":0.03315504369987414,"29":-0.04730325712480167,"30":-0.02956162973677683,"31":0.06371659763495593,"32":0.03148017001583163,"33":-0.0640468599707262,"34":0.03345052286912094,"35":-0.014207085392611032,"36":-0.0035525679642215875,"37":-0.0820259646304494,"38":0.05251899768319231,"39":0.025237519502057423,"40":0.019696805328154692,"41":0.022527176287619757,"42":0.012363946348212827,"43":-0.01601733717048916,"44":-0.011310118734735006,"45":0.016279508850832524,"46":-0.08446365163893331,"47":0.020935903094977008,"48":-0.0010666866918565593,"49":0.10533575239701255,"50":0.0029928425260981875,"51":0.06580612871798662,"52":0.023859224890362907,"53":-0.0019218909595733078,"54":-0.019189557050103542,"55":0.004422099549871388,"56":-0.036880326384173316,"57":-0.043247310598017265,"58":-0.023651285620457433,"59":-0.017158806439237555,"60":0.06744922523424426,"61":0.03093334873683985,"62":0.042118671779613724,"63":0.04099445312279926,"64":0.029343818482722404,"65":0.07364858359154916,"66":-0.0005236186686159571,"67":-0.037130175134,"68":-0.01530756624623281,"69":-0.031973288529207715,"70":-0.03780824523302431,"71":0.02496093951745829,"72":-0.03377560949675128,"73":-0.009166076340961024,"74":-0.037887856922825175,"75":-0.004790762094626548,"76":0.054052504433311846,"77":0.004908039882037814,"78":0.040322333564064304,"79":-0.023849639870123118,"80":-0.01925843367618174,"81":-0.02080057906457924,"82":-0.005370378246954226,"83":-0.04166883935812434,"84":-0.05138636567700999,"85":-0.0686883600473538,"86":0.06701670230440315,"87":-0.05478706402311979,"88":-0.013093668725250413,"89":0.006299740111251249,"90":-0.00135216341770038,"91":-0.006855095475309016,"92":-0.03246890626334399,"93":-0.013710795531561739,"94":-0.02093313441264404,"95":0.04035401065242984,"96":0.021624534524237626,"97":0.002259062681028363,"98":-0.046434068566041486,"99":-0.055632730830085755,"100":-0.016537177484097127,"101":0.03760000975863034,"102":-0.000561056122064715,"103":-0.06592631676688833,"104":-0.04829599904423029,"105":-0.03773641907941715,"106":-0.04731135046655007,"107":-0.018075409801762865,"108":-0.030812837013412208,"109":0.04691655016880763,"110":-0.046604506688831135,"111":-0.047256268755754643,"112":0.03217096246160298,"113":0.028296083897149035,"114":0.04207577487602863,"115":0.007963309069436144,"116":0.03305566069718924,"117":-0.0029946958374186395,"118":-0.032448012011008276,"119":-0.05333074975988601,"120":-0.08271292803889012,"121":0.010760693432725923,"122":-0.08853741198847213,"123":-0.03969917662101102,"124":-0.012777963801801491,"125":-0.025741619388439548,"126":0.02551953378726777,"127":0.005189525926724449,"128":-0.03232449232988104,"129":-0.031081202181448834,"130":0.03501791314783217,"131":-0.012138792654831438,"132":-0.019207319125783044,"133":-0.014611498922276811,"134":-0.024382943125368265,"135":-0.01495298095963522,"136":-0.029208725702741137,"137":-0.019445998167965148,"138":-0.02457358509715355,"139":-0.041661320513311756,"140":0.005530838167537695,"141":0.035778575765492,"142":-0.08445711913028177,"143":-0.022879511908028446,"144":-0.036756329112602994,"145":-0.0004413705983484361,"146":-0.030547412859649747,"147":-0.028381574748356137,"148":0.02564907823772657,"149":-0.04586002851221658,"150":0.028484964440405033,"151":-0.005510371978247226,"152":0.012438806476823284,"153":0.07179592068102951,"154":0.005152154823946146,"155":0.003170585186286285,"156":-0.026360500790672377,"157":-0.04830665843300822,"158":-0.007143398368116405,"159":0.003571900412595702,"160":-0.060032134120664646,"161":0.004235545655844037,"162":-0.03055975848507951,"163":0.011988499334538659,"164":-0.04507881749891112,"165":0.058873024760960374,"166":-0.056800354009592505,"167":0.012213286503696585,"168":0.13840618267251092,"169":-0.012222675460448468,"170":-0.031956607879686565,"171":0.03414734561782974,"172":-0.03644983403492124,"173":-0.017697020069719654,"174":-0.03035512956978287,"175":-0.05058944344111219,"176":0.028470627057188107,"177":-0.05183618915686932,"178":0.07897990006462832,"179":0.030534929519605476,"180":0.006404023996804371,"181":0.02258384346705902,"182":-0.02486405706997836,"183":-0.031213156012194175,"184":0.002551613269670503,"185":-0.04278019870137296,"186":-0.01135827169045981,"187":0.0052241166484525686,"188":0.020088147411585603,"189":0.00035786622470820195,"190":-0.005800302760503655,"191":-0.01932402261902351,"192":-0.12577357047587293,"193":-0.035540939122303584,"194":0.07175205963638459,"195":0.0042087357903008256,"196":-0.006985983280469235,"197":-0.03132819462805279,"198":-0.038753005823335025,"199":0.005163077551738639,"200":0.01059444186541461,"201":0.012480970823492537,"202":-0.026095864528009712,"203":-0.05683672777596964,"204":-0.02539185748380705,"205":-0.07106361793074047,"206":-0.07419359749435545,"207":0.041935457067691397,"208":-0.030275118583149546,"209":-0.06578769973308962,"210":0.022834724475725317,"211":-0.03801601862928955,"212":-0.047174073645087376,"213":0.004078857341417903,"214":0.09768864646786359,"215":-0.01869127208090141,"216":-0.04533455710268126,"217":-0.004729576291410419,"218":-0.050534819901232646,"219":-0.12219993061026169,"220":0.01771892354704003,"221":-0.04445240521253536,"222":-0.019828459888597813,"223":0.018581841166313746,"224":0.014855937326002606,"225":-0.008572207952535991,"226":-0.005944674125804522,"227":0.027096477544936118,"228":-0.016923640944897823,"229":-0.03303670205759188,"230":0.025452656000298127,"231":-0.05896529458245372,"232":0.0062089532044138016,"233":0.15604502566015377,"234":-0.006015250757519099,"235":-0.017516222164134326,"236":-0.01042602578495636,"237":-0.030249421721804736,"238":-0.0045898017031283656,"239":0.017857881725934877,"240":0.025313813128010045,"241":0.05586914678015497,"242":-0.024273315587838254,"243":-0.029935121012688987,"244":-0.06145755564407014,"245":-0.0047656212514235385,"246":0.11022518359141076,"247":0.03607043150516901,"248":-0.04110740204237733,"249":-0.019492534392962405,"250":0.009673634772301447,"251":-0.02222577292355625,"252":0.028008688411629148,"253":0.044621238353829785,"254":0.03224599391613134,"255":-0.025614035754589735,"256":-0.007589608569545273,"257":0.010202011335378717,"258":-0.022776058384815882,"259":0.11866395154302072,"260":-0.02196699076038378,"261":0.005749706369355223,"262":-0.03084581815199504,"263":-0.04561626869210103,"264":0.021841213847427172,"265":-0.004886269940309056,"266":0.10550513737568974,"267":0.04373207748815082,"268":-0.0034610616598980018,"269":0.04087684067127331,"270":-0.044020308192817804,"271":0.006622729193951255,"272":0.1036458869712765,"273":-0.043996503680456676,"274":-0.04491347916188944,"275":0.036587478242686794,"276":0.027531001314567254,"277":0.046288012136289934,"278":0.055566901047975556,"279":0.036586377305172224,"280":0.05013243980017478,"281":0.018165610796839343,"282":-0.04993358063096648,"283":0.00035475973329698375,"284":-0.0706221758776731,"285":0.1599927605420083,"286":0.012079804351837257,"287":-0.05524983366443359,"288":0.023338358914512466,"289":0.03388240642655449,"290":-0.026355472851458832,"291":0.1573664521978986,"292":0.13093321297012905,"293":0.14542048436739138,"294":-0.02720011488945079,"295":0.019210017932971873,"296":-0.09853700853432908,"297":0.000976685308367087,"298":0.05957672449320876,"299":-0.010445259685011475,"300":-0.018528804007085963,"301":-0.02908211846934531,"302":-0.01582993842430152,"303":-0.0005303180254039283,"304":0.18913129270022944,"305":0.17720435153295766,"306":0.023564583587724872,"307":-0.05044179936361264,"308":-0.013630756494457733,"309":-0.09978508869553218,"310":0.03979680952866247,"311":0.05697674920505318,"312":-0.06631273468756194,"313":0.024786978568915482,"314":-0.024901926737965145,"315":-0.034132981461022886,"316":0.03970144792138753,"317":0.13585357602252687,"318":0.1839857659918256,"319":0.09475766426944027,"320":-0.005462761092971091,"321":-0.01585480957412926,"322":-0.07491298448944202,"323":-0.05457191511701733,"324":0.048066786173689306,"325":-0.019508709606316024,"326":0.0002609085596984365,"327":0.013626003473575633,"328":0.01893561661503095,"329":0.04424893242828663,"330":0.1912793685181303,"331":0.09475334200771869,"332":0.07297060563220063,"333":-0.01664459336575981,"334":0.012819118973976121,"335":0.0067636570410068535,"336":-0.06607043853682774,"337":-0.023662552499129144,"338":-0.009873362253458185,"339":-0.04992659232606063,"340":0.007992608519153439,"341":-0.025205445440289312,"342":0.032626967852388736,"343":0.20612235550449529,"344":0.04733477966090698,"345":0.06568406852111737,"346":-0.018998885405715184,"347":0.04133293353299409,"348":0.009559293060992976,"349":-0.06061205929772422,"350":0.029503885865200214,"351":-0.0036946083978085607,"352":0.029435633638790672,"353":0.022318349680452362,"354":-0.004415792586006953,"355":0.011260827865831241,"356":0.21625074589430468,"357":-0.05008409303915288,"358":0.157523771029749,"359":-0.044012733554008004,"360":-0.04615153458036235,"361":0.018300546768076277,"362":0.06675819475943506,"363":-0.04866441843128035,"364":-0.008564202171308804,"365":0.02597143635230487,"366":-0.0037183758924879463,"367":-0.05535377023419324,"368":-0.017117447980475427,"369":0.25019680453191123,"370":-0.03202330266335613,"371":0.05645079284102209,"372":-0.09398596044554552,"373":-0.017054579224759926,"374":-0.040600011314796035,"375":0.013247291900181429,"376":0.08062682338752718,"377":-0.007348045231031562,"378":0.007813676747509875,"379":0.027613080772051005,"380":0.0008597588530649416,"381":0.010482570776731339,"382":0.2091427653997531,"383":-0.08255411746063296,"384":0.03555660286278564,"385":-0.026128792681685897,"386":-0.023930581474471944,"387":0.02013535818511118,"388":-0.05932752506052961,"389":0.14400331905469993,"390":-0.019323467926369676,"391":0.00553311816890196,"392":0.011176016954254417,"393":0.02944345191704642,"394":-0.015874461534146175,"395":0.16248750152452876,"396":1.1396973843072555,"397":-0.029615568090694298,"398":-0.05132055951396796,"399":-0.033033049183979576,"400":-0.03532166579637815,"401":-0.11870585680109536,"402":0.06397878959076317,"403":-0.006597671743694885,"404":-0.004738337516063374,"405":0.012359359415968918,"406":-0.023620962514616352,"407":0.0020453669410457607,"408":0.19578367816213002,"409":1.1928822506930377,"410":0.002823524187468195,"411":-0.06249730734311013,"412":0.025189071980382883,"413":-0.04799775985285318,"414":-0.08642882560396781,"415":0.038008892712649574,"416":0.02301657758586316,"417":-0.028567079499776934,"418":-0.04972806289990512,"419":-0.05912119147998329,"420":0.016236654322008447,"421":0.16984735110072066,"422":1.181641516340961,"423":0.012401748038524644,"424":-0.05993145520256107,"425":-0.04007793563938804,"426":-0.013672809561770256,"427":-0.07674297898459635,"428":-0.06859948266902477,"429":-0.06466215719897844,"430":0.0027916977295086194,"431":-0.037696714980523946,"432":-0.0027232960424073667,"433":0.007114019299519211,