//<![CDATA[

// a few things don't have var in front of them - they update already existing variables the game needs
lanesSide = 6;
patchesAhead = 30;
patchesBehind = 10;
trainIterations = 150000;

// the number of other autonomous vehicles controlled by your network
otherAgents = 10; // max of 10

var num_inputs = (lanesSide * 2 + 1) * (patchesAhead + patchesBehind);
var num_actions = 5;
var temporal_window = 0;
var network_size = num_inputs * temporal_window + num_actions * temporal_window + num_inputs;

var layer_defs = [];
    layer_defs.push({
    type: 'input',
    out_sx: 1,
    out_sy: 1,
    out_depth: network_size
});
layer_defs.push({
    type: 'fc',
    num_neurons: 32,
    activation: 'tanh'
});
layer_defs.push({
    type: 'fc',
    num_neurons: 16,
    activation: 'tanh'
});
layer_defs.push({
    type: 'fc',
    num_neurons: 16,
    activation: 'tanh'
});
layer_defs.push({
    type: 'fc',
    num_neurons: 32,
    activation: 'tanh'
});
layer_defs.push({
    type: 'regression',
    num_neurons: num_actions
});

var tdtrainer_options = {
    learning_rate: 0.01,
    momentum: 0.001,
    batch_size: 128,
    l2_decay: 0.01
};

var opt = {};
opt.temporal_window = temporal_window;
opt.experience_size = 30000;
opt.start_learn_threshold = 500;
opt.gamma = 0.97;
opt.learning_steps_total = trainIterations;
opt.learning_steps_burnin = 500;
opt.epsilon_min = 0.01;
opt.epsilon_test_time = 0.0;
opt.layer_defs = layer_defs;
opt.tdtrainer_options = tdtrainer_options;

brain = new deepqlearn.Brain(num_inputs, num_actions, opt);

// CUSTOM_VARS_BEGIN
var gen_name = 'genA-V2';
var count = 0;
var eval = false;
var save_checkpoint = 250;
var noSaveCheckpoint = false;
var eval_start = 2000;
var target_mph = 68.00;
// CUSTOM_VARS_END

learn = function (state, lastReward) {
    brain.backward(lastReward);
    var action = brain.forward(state);

// CUSTOM_CODE_BEGIN
    function getFixedData() {
        var data = editor.getValue() + "\n/*###########*/\n";
        data = data.replace("otherAgents = 0","otherAgents = 10");
        if (brain) {
            data += "if (brain) {\nbrain.value_net.fromJSON(" + JSON.stringify(brain.value_net.toJSON()) + ");\n}";
        }
        return data;
    }

    downloadNamedCode = function (thisName, forward_passes, data) {
        var blob = new Blob([data], {type: 'text/plain'});
        var url = URL.createObjectURL(blob);
        var blobAnchor = document.getElementById("blobDownload");
        blobAnchor.download = "net-" + gen_name + '-' + forward_passes + '-' + thisName + ".js";
        blobAnchor.href = url;
        blobAnchor.click();
    }

    if(self.document !== undefined) {
        if ((document.getElementById("trainProgress").value > 0) && (document.getElementById("trainProgress").value < 95)) {
            noSaveCheckpoint = false;
        } else {
            noSaveCheckpoint = true;
        }
    }

    if (typeof(count) != "undefined") {
        if(noSaveCheckpoint == false) {
            if(brain.forward_passes >= eval_start) {
                if(brain.learning == false) {
                    count = count + 1
                    if(count >= save_checkpoint) {
                        if(brain.forward_passes > 0){
                            if(eval === false && self.document !== undefined) {
                                thisData = getFixedData();
                                var myWorker = new Worker("eval_webworker.js");
                                eval = true;
                                myWorker.onmessage = function (e) {
                                    if (typeof e.data.percent != 'undefined') {
                                        // do nothing / placeholder
                                    }
                                    if (typeof e.data.mph != 'undefined') {
                                        console.log('Eval complete - ' + e.data.mph);
                                        if(e.data.mph >= target_mph) {
                                            console.log('Saving checkpoint at ' + brain.forward_passes);
                                            downloadNamedCode(e.data.mph, brain.forward_passes, thisData);
                                        }
                                        eval = false;
                                    }
                                };
                                myWorker.postMessage(getData());
                            }
                        }
                        count = 0;
                    }
                }
            }
        }
    }
// CUSTOM_CODE_END

    draw_net();
    draw_stats();
    return action;
}

//]]>
/*###########*/
if (brain) {
brain.value_net.fromJSON({"layers":[{"out_depth":520,"out_sx":1,"out_sy":1,"layer_type":"input"},{"out_depth":32,"out_sx":1,"out_sy":1,"layer_type":"fc","num_inputs":520,"l1_decay_mul":0,"l2_decay_mul":1,"filters":[{"sx":1,"sy":1,"depth":520,"w":{"0":-0.1244595743921965,"1":-0.18099771221117408,"2":0.003426276797962523,"3":-0.21968094229431473,"4":0.22266572938841975,"5":0.7053238305145245,"6":0.48366792775750356,"7":-0.18753238066990768,"8":-0.09311887296058072,"9":0.14776609728135798,"10":-0.15909677468149158,"11":-0.18051983619050202,"12":0.12053033287000996,"13":-0.05785174493057355,"14":-0.2617294647909362,"15":0.3354608359304925,"16":-0.19138364095976076,"17":0.07585925988108816,"18":0.29547977442029083,"19":0.19207817068357638,"20":-0.1616303286543199,"21":0.31493181499430933,"22":-0.1422494433358954,"23":0.2949799603214304,"24":0.1043064332059567,"25":0.1499914998272613,"26":-0.23605841458011145,"27":-0.14022482054674046,"28":0.1522043382457593,"29":-0.09297224173474881,"30":0.0820580501245966,"31":-0.0020454115055305896,"32":-0.16527448493805802,"33":-0.04035779375458713,"34":0.05716459004057034,"35":-0.07706313090455251,"36":0.19055778711659976,"37":-0.012592002795843526,"38":0.14840003122778872,"39":-0.04028484283146095,"40":-0.09930362188091944,"41":0.18825805292041203,"42":-0.023151655101151983,"43":-0.08627856675336837,"44":0.027249352241127487,"45":0.14411789184057666,"46":0.14781270884076383,"47":0.08928407271845613,"48":0.03167241920477635,"49":0.0052456014217364955,"50":0.24023734820997494,"51":0.06537460884811622,"52":0.008899451919990949,"53":-0.08921159132515201,"54":0.027271213103198983,"55":-0.01551905489785936,"56":0.35882600576033585,"57":-0.06528465436973611,"58":0.016761591808403194,"59":-0.021593880546044088,"60":0.14649598657789298,"61":-0.20797462423309485,"62":-0.026780670461389995,"63":-0.13728083570978583,"64":0.27366817708347835,"65":0.18583399175013415,"66":-0.1659699365346457,"67":-0.18056447310351428,"68":-0.44380373479191737,"69":0.12251106530553377,"70":0.2672338416095502,"71":-0.1730244664834194,"72":-0.06940626558037512,"73":-0.28967385788161826,"74":-0.010059339102680236,"75":0.146699773251148,"76":-0.042310233378406205,"77":0.13392623861373126,"78":0.29561314422817925,"79":-0.045085718732618865,"80":0.004515470173215835,"81":-0.14389981896473616,"82":-0.06570585421662839,"83":-0.07014316446891278,"84":-0.313285951836327,"85":-0.018524258062112862,"86":-0.23942928319149742,"87":-0.26485084851186264,"88":-0.06519936208007003,"89":0.07494390560561132,"90":-0.129041334114247,"91":0.18750831705973353,"92":0.2532042203140433,"93":-0.022983427655684386,"94":-0.2052688064123455,"95":0.36234544034325694,"96":-0.11121512538333676,"97":0.1945653593633902,"98":0.056616144422521233,"99":0.03282029998832717,"100":0.019625666617570474,"101":0.021344938094658008,"102":-0.1935363680914462,"103":0.1552767126544872,"104":-0.18005235625029828,"105":0.06704918872086132,"106":-0.07840917263977853,"107":-0.30949179567100465,"108":0.15157591247307559,"109":0.11730314536584299,"110":-0.3621544066660814,"111":0.0648768921041743,"112":-0.09944935050149091,"113":0.4404579175155642,"114":0.24306143095544855,"115":-0.06575436135013366,"116":-0.016054018425169996,"117":-0.3192060136355917,"118":-0.059269647266270514,"119":0.009461617917289798,"120":0.09628861941340773,"121":0.03605557260629299,"122":-0.29236088171291613,"123":-0.0007881551376144275,"124":0.052422671805042814,"125":-0.053155876646202034,"126":0.07516802396222748,"127":-0.2084317868899706,"128":0.014516659348277816,"129":0.2638161586523793,"130":-0.20105930029899177,"131":-0.09275981720946996,"132":-0.2023766626135132,"133":-0.19810089825996186,"134":0.0909362332011401,"135":0.14162028117745287,"136":0.10397819457871404,"137":0.024464739736264403,"138":0.016231122398128288,"139":-0.061940244454238624,"140":-0.13538340357608655,"141":0.10266181800568286,"142":0.22776226367185368,"143":-0.18728173419113062,"144":-0.06560219763500982,"145":-0.13628979177239403,"146":-0.3005099601655307,"147":0.17462161185579106,"148":0.2064396518212046,"149":-0.14773900154071723,"150":-0.18695511456289943,"151":-0.21659118100178612,"152":0.19278815072193603,"153":-0.17155477611355832,"154":0.050895274328346285,"155":0.1686383335885415,"156":-0.009806474235734934,"157":0.07665995182137353,"158":-0.018416488109858967,"159":-0.10108859236809303,"160":-0.1144571067967118,"161":0.19542824816235532,"162":0.18811777712843272,"163":0.12059036857294589,"164":-0.07762190314159584,"165":-0.019958243460990236,"166":-0.21447493022290381,"167":0.2575260684609514,"168":0.35945862147733915,"169":-0.3396188643180854,"170":-0.14401353334601052,"171":0.019464246323531397,"172":-0.0373636496399726,"173":0.1354964259866905,"174":0.2854242656064637,"175":0.396205527790772,"176":0.3714176239244513,"177":0.17308259682959568,"178":-0.015556197295353,"179":-0.21331713422433943,"180":0.19420985842008423,"181":0.2602509364698004,"182":-0.2438587862055113,"183":-0.23356989823314192,"184":0.06778848119402475,"185":-0.12544406325976212,"186":0.03741383003599711,"187":0.037643151277305206,"188":-0.14410239249240042,"189":0.036833893168762726,"190":-0.18910609480232551,"191":0.0457601672036991,"192":-0.42559245880682606,"193":-0.007599231870946023,"194":0.306943121501059,"195":-0.07390979746562189,"196":-0.03597880666613004,"197":0.012348180519106126,"198":0.18646368432743793,"199":0.12296520876361068,"200":-0.06010490406532773,"201":-0.2192580839444267,"202":-0.06796440544573032,"203":0.11408779776699718,"204":-0.17146153956397014,"205":0.06133743546978586,"206":0.2915827159421534,"207":0.014157774308799281,"208":-0.29587741442248355,"209":0.008746821869787676,"210":-0.030471499379613298,"211":0.2972905320739331,"212":0.4967149717486746,"213":-0.040207736088340704,"214":0.1256039411042149,"215":-0.1800732413234293,"216":-0.19371596619092,"217":-0.3009753362290384,"218":-0.07540514249630349,"219":0.08432081990744808,"220":-0.13889076125990515,"221":-0.23039614074714826,"222":0.07558908230798303,"223":-0.11178746990261115,"224":0.1481800045351123,"225":-0.01638529035426527,"226":-0.5229204340378886,"227":-0.1596088599303146,"228":-0.007840826705644148,"229":-0.09952734426446358,"230":-0.14647001166987186,"231":-0.16317984146030406,"232":-0.043020151535418605,"233":-0.336779191530543,"234":-0.15698198652355153,"235":-0.1655789636841526,"236":0.049078502467738636,"237":0.10998324967266042,"238":0.055669733032113894,"239":0.013124201308703369,"240":-0.1315862408433988,"241":-0.09491907424415925,"242":0.15742844096605219,"243":0.006938074640036158,"244":0.12781567945106412,"245":0.18733567674848264,"246":-0.2329802920436649,"247":-0.499578630321306,"248":-0.2008992365963324,"249":0.14936731910953238,"250":0.27218759857994834,"251":0.2909697725285256,"252":-0.09890154636855494,"253":-0.12913527289435164,"254":-0.42779410471584367,"255":-0.11259395847025849,"256":-0.0817167613854196,"257":0.08444523146157751,"258":0.15673101569661438,"259":0.019327262680898308,"260":-0.2990181138955286,"261":-0.1438822293341491,"262":0.17944153638144839,"263":0.18936274339178324,"264":-0.13679047187069956,"265":-0.19413325754256006,"266":-0.4229542830062336,"267":0.003272817808258519,"268":-0.15261923313891712,"269":0.014484894686586735,"270":0.44749581262637794,"271":0.16665958172812503,"272":0.07076214372340602,"273":0.11506547600872213,"274":-0.020924636959001354,"275":0.17192780110568395,"276":0.3871922488802556,"277":0.10978396701691312,"278":0.2785694385950221,"279":-0.16406257761273407,"280":-0.023477731818359444,"281":-0.11927388489894221,"282":0.015583386972416296,"283":-0.07262439294056382,"284":0.04580131735480925,"285":0.3429684759961778,"286":0.15461982324040513,"287":-0.07187863608428924,"288":0.051965194696234965,"289":0.5639307613733986,"290":0.23665353562502947,"291":-0.17183915886471163,"292":-0.10488468712943877,"293":-0.17430007761061905,"294":-0.22490157275086559,"295":-0.23604430570757043,"296":-0.012801673615177303,"297":0.040951959383016025,"298":0.07153008234725114,"299":0.4306643587014845,"300":0.0359054877826488,"301":-0.09339689419509335,"302":0.06257719837521801,"303":-0.15582012326343145,"304":-0.05763985305209934,"305":-0.39767268005652273,"306":-0.02981283896128833,"307":-0.06758046199489218,"308":-0.1372215962391127,"309":0.08941402382389248,"310":-0.034057373409977394,"311":-0.012541839484352089,"312":0.3809649650974786,"313":0.01637062808063853,"314":0.06783361144843564,"315":0.15988205192866986,"316":0.13990680925602766,"317":0.2029011768814087,"318":-0.2142719249373213,"319":0.035744738011343286,"320":-0.05644086796710946,"321":-0.12786477331382531,"322":-0.07324751187418357,"323":-0.0006610238227151941,"324":0.18266600087286838,"325":0.3431903172209988,"326":0.16612526784028783,"327":0.08551567756180323,"328":0.11757376186619922,"329":0.16016710003158988,"330":0.15048362836213658,"331":-0.2619627360501924,"332":0.5184585092668975,"333":0.07259722886512505,"334":-0.008026008932033753,"335":0.37899368417403223,"336":0.18844826883531932,"337":0.10010777414631461,"338":0.32438825322915743,"339":0.20216267759062764,"340":0.22677984887391714,"341":-0.008305551614097698,"342":0.40364013214549177,"343":0.32824913040642556,"344":-0.03440600145717888,"345":0.6233884523191667,"346":0.009953596743444088,"347":0.06207429667606575,"348":0.4727073873891234,"349":0.058462760110014,"350":0.32559599630603214,"351":0.18698278163564722,"352":0.14536330817918602,"353":0.12001183878515613,"354":0.23979903059035523,"355":0.32221351474779963,"356":0.30328320822980287,"357":0.20469469416406622,"358":0.5640163750866711,"359":-0.005808410238700058,"360":0.26935881370931974,"361":0.17631892460421755,"362":0.06565567826253668,"363":0.24201120209516447,"364":0.1643731782012642,"365":0.09681755938688408,"366":0.005963055777338461,"367":0.5224365512159388,"368":-0.09447755718896661,"369":0.0492343085248716,"370":0.1791803969085935,"371":0.13023158687604805,"372":0.058483490241041734,"373":0.16086428570511968,"374":0.13001192044874138,"375":0.14876497440139683,"376":-0.03309378726011824,"377":0.08443768028185375,"378":-0.07260161648353439,"379":-0.22845457295665406,"380":0.08770296846195742,"381":0.07815373320927764,"382":0.1486899861278746,"383":0.25581950241739254,"384":-0.35604144114958713,"385":0.08089246885985019,"386":-0.28605315059025477,"387":0.5814171869907842,"388":0.01080596980884135,"389":0.15061042142279737,"390":0.08154861039498403,"391":0.0645923350191013,"392":-0.3310547684960534,"393":-0.08908816607872512,"394":0.10427880195820773,"395":0.1549413819196297,"396":-0.6360417967190546,"397":-0.1758997295056199,"398":-0.14556814860283646,"399":-0.22680599999579784,"400":0.11845598035690291,"401":-0.18164864017994398,"402":0.21148106680601578,"403":0.22965288263292544,"404":0.05639606208645148,"405":-0.1372272952967729,"406":-0.4161153227109515,"407":-0.12146743758194571,"408":-0.2668605892621629,"409":-0.677410706177864,"410":0.29955448303872684,"411":0.19430193597884085,"412":-0.10188623855633931,"413":0.4948733541345506,"414":0.23948739256727097,"415":0.006451801870967694,"416":0.28901343779849753,"417":-0.0633913263798052,"418":0.0031198002861469974,"419":-0.35091942986917396,"420":-0.003288021850530571,"421":0.1574088993193053,"422":-0.8225079292851393,"423":-0.08617291550289762,"424":0.1559633643441758,"425":0.32269787030860386,"426":0.0009278344508005612,"427":0.15755413016227418,"428":-0.045627838268078716,"429":0.2623170773123157,"430":-0.016953388595143008,"431":0.34394606992219634,"432":-0.275525353060055,"433":0.1649822155916593,"434":0.21727264253487824,"435":-0.7216350258636379,"436":-0.23334704493336808,"437":-0.10539559744911958,"438":0.24679746323798776,"439":-0.14107545558557097,"440":0.10900146401425177,"441":-0.09951454229178268,"442":-0.029647373708246955,"443":-0.08793590503927858,"444":0.20627150553719956,"445":-0.11963020728408454,"446":-0.09086600959718048,"447":-0.15100596447770578,"448":0.1058871744802472,"449":-0.04958322449972168,"450":0.19008891579087678,"451":0.04192375686713139,"452":0.21404511392674502,"453":0.1533857453959098,"454":-0.11407191336501295,"455":0.13684389830634588,"456":-0.202622188778018,"457":-0.02214492814083833,"458":0.020912669707435418,"459":-0.0796971188794384,"460":0.08354706722211602,"461":-0.054453407549364244,"462":0.019014646759020027,"463":-0.24314674912601456,"464":-0.19525809422179405,"465":-0.08516442983571226,"466":0.13990639317121156,"467":0.09647346442131541,"468":0.038574378940421206,"469":0.00057294961825477,"470":0.14524104390520504,"471":0.1728267329024907,"472":-0.34909266191738136,"473":-0.17551206431753696,"474":-0.23225678341933834,"475":-0.08417739067115562,"476":-0.06733460973020694,"477":-0.179794772451222,"478":0.10209492668799722,"479":-0.03935230803973665,"480":0.10429647591914318,"481":0.0660058852310861,"482":0.021932956001457463,"483":-0.40547971639606345,"484":0.02531425945077991,"485":0.017718140934545344,"486":-0.20425575994963713,"487":-1.7659669598930254,"488":-0.2185774218995838,"489":0.36765629323101723,"490":0.12324298254782799,"491":-0.11254045593191923,"492":0.17860898908831363,"493":0.03158015178517046,"494":0.13840984980086762,"495":0.07327906039579368,"496":-0.31605090729418667,"497":-0.08332116964845408,"498":-0.006873390416625202,"499":-0.33706977472541716,"500":-1.5884800629647973,"501":-0.19495915852636483,"502":0.3621800103693648,"503":-0.05930856757071177,"504":-0.43385159745720375,"505":-0.0995958486309273,"506":0.16432883625733358,"507":0.07094269254868638,"508":0.28536425733948817,"509":0.13913851420402545,"510":0.006627899905467847,"511":0.11610455214588325,"512":0.19237338822494754,"513":-2.753593086236279,"514":-0.6017298642655535,"515":-0.10688467172947322,"516":0.28420691728159403,"517":-0.3302245786456925,"518":0.09779904869104633,"519":-0.06264008720034088}},{"sx":1,"sy":1,"depth":520,"w":{"0":0.019255925944039406,"1":-0.2955957398906923,"2":0.2791462949328116,"3":0.5421911033894564,"4":-0.01740966999361995,"5":-0.48919361725000643,"6":0.024053689716853954,"7":-0.36021493660760934,"8":0.2556517292066252,"9":-0.13269263218250152,"10":-0.07511794741960795,"11":0.8815567623151064,"12":0.678828402450028,"13":-0.0543801766751564,"14":0.018554082152865997,"15":0.2820837805322154,"16":0.23900105149272113,"17":0.10459331933197374,"18":-0.14661115635097452,"19":0.3125687628974989,"20":-0.2282976757388552,"21":0.29407440740168656,"22":-0.006942382041527957,"23":0.2572741330267009,"24":0.5861778158488838,"25":0.44487675922606446,"26":-0.017884837699379603,"27":0.32153565691251007,"28":-0.12183063418344488,"29":-0.10566196373773633,"30":0.02786439842108243,"31":0.20956844891520943,"32":-0.14941439936801407,"33":-0.12548491825959554,"34":-0.15021166035125366,"35":0.25831991048763053,"36":0.5465889926859069,"37":0.613743726037769,"38":0.41687632055320345,"39":-0.06215604967842355,"40":0.2822424997727577,"41":-0.005214027784544582,"42":-0.0006778242108573814,"43":-0.05335174174552292,"44":0.08605848902794058,"45":0.07608240275356577,"46":-0.24628732410613113,"47":0.07895360145496988,"48":0.2860198648271704,"49":0.27830622369277036,"50":0.38841255863785157,"51":0.19202388389944083,"52":-0.015647528513448767,"53":-0.0642704320147297,"54":0.22893700908158474,"55":-0.10799948163068078,"56":0.03068228190307746,"57":0.25261583710137486,"58":-0.11125321475985632,"59":0.2926606438878504,"60":-0.16712331006719786,"61":0.19838963400894125,"62":0.4786828231115147,"63":0.3797639265518813,"64":0.10303831662778189,"65":0.043730696605543296,"66":-0.009588441298553732,"67":0.18213741048169263,"68":-0.09258864378980064,"69":-0.23307473811412008,"70":0.1604588653780716,"71":-0.25101572769705877,"72":-0.19879855551847758,"73":0.18487174487233274,"74":0.1634805527094882,"75":0.36587633817839615,"76":0.33058773620338444,"77":0.2771293336369351,"78":0.08394434181897456,"79":-0.019189997161386637,"80":0.15462740613062037,"81":0.21294848105206704,"82":-0.037938553350000764,"83":-0.06283424690717317,"84":0.06861225971434766,"85":-0.44024911253819743,"86":0.1645490263753297,"87":0.25859135418563,"88":0.16094948856319102,"89":0.09423789605414076,"90":0.008332431725173195,"91":0.06987064542911699,"92":-0.2704073015093651,"93":0.07945752257668538,"94":-0.0067770456596971534,"95":0.01966572239825895,"96":0.051596587788734875,"97":-0.056405543429349204,"98":-0.024302903007357043,"99":0.07069466735872088,"100":0.006455345489523783,"101":0.055928044220004705,"102":-0.25659330727099483,"103":-0.12967174819483399,"104":0.043757980115497946,"105":-0.04148727652259263,"106":0.19471227372776861,"107":0.19466795652886495,"108":0.42034082060013184,"109":0.4204701976021331,"110":-0.006321871056007971,"111":-0.24273069721703883,"112":0.31967142955832667,"113":0.1251805849459652,"114":0.18344896928378923,"115":-0.10910983149662061,"116":0.10821621090318709,"117":0.019956028595418764,"118":-0.3461450715927554,"119":-0.08357212221722114,"120":0.19541696521612242,"121":0.2509786044614712,"122":0.3539932181597882,"123":0.2801776832370039,"124":-0.6821347958676425,"125":0.043672060784707444,"126":0.10258625350494957,"127":-0.004758281326414154,"128":0.08933203427969344,"129":-0.1344762514886007,"130":0.03734051429652591,"131":-0.37440106367997356,"132":-0.15176675455708835,"133":0.24452204843810546,"134":0.1150251440143105,"135":-0.06831802366001831,"136":0.255900574371628,"137":-0.6706734718758259,"138":0.029991910836157546,"139":-0.0016780300651329466,"140":-0.15964801137644222,"141":0.1858924002531722,"142":0.1117816138329586,"143":0.04699135834382633,"144":-0.22424382080755162,"145":0.23108905709510547,"146":0.06616264962071332,"147":-0.19071277847707158,"148":0.26572120009707617,"149":-0.08947864329038914,"150":-0.23092599510428394,"151":0.20150238225225384,"152":-0.17372205561292123,"153":0.10738278351368039,"154":0.39195534144077043,"155":-0.14402293202910738,"156":-0.04934655602132972,"157":-0.28738197867739346,"158":-0.0040139632648562565,"159":0.09526164293187663,"160":0.21266077812940415,"161":0.09485897179906572,"162":-0.07302288261591629,"163":-0.24125334140752067,"164":0.1213862683579137,"165":0.014822521706931805,"166":-0.2693543455824608,"167":0.30727805869826536,"168":0.09170986078520059,"169":-0.06534026389752572,"170":-0.11073417200959916,"171":0.31607670440391294,"172":-0.0831916597201513,"173":-0.14666964752703243,"174":-0.011169721894054114,"175":0.1709090856397985,"176":-0.30444989506255304,"177":-0.1945319218983708,"178":0.05689510460007408,"179":-0.09657162008308635,"180":0.3036578691677133,"181":0.10771002765294169,"182":0.05238146511268645,"183":-0.27070985891501204,"184":0.5213509476948134,"185":0.1372487750420514,"186":0.2129701319184446,"187":0.46669540981195956,"188":0.1698166418236388,"189":-0.5310345991479329,"190":-0.03129954334407515,"191":0.111111452017182,"192":0.14687913579365502,"193":-0.016881334196268836,"194":-0.1059143023237461,"195":-0.02485945833021197,"196":-0.14558747972926153,"197":0.03328181332586016,"198":-0.06235342956674611,"199":0.31481154480728896,"200":0.34899690037600883,"201":-0.245284699201739,"202":-0.6972632125999544,"203":-0.2871102701570927,"204":0.2695904584126843,"205":0.029549884656344404,"206":0.04601295608137382,"207":0.17322954752149314,"208":0.012490440021718749,"209":-0.15887105891075134,"210":0.2787797929230799,"211":-0.07281306378910912,"212":-0.1960318512520358,"213":0.3540407466877803,"214":-0.0486286359005886,"215":-0.7958884844208453,"216":-0.41235662148600577,"217":-0.20308512447777113,"218":-0.18861096859768783,"219":-0.3524804225648533,"220":-0.026493177902864203,"221":-0.036777869706885874,"222":0.0568576395830908,"223":0.22474106811517444,"224":0.13254273879515502,"225":0.05494170200780403,"226":0.22091569646081965,"227":-0.35685435859757303,"228":-0.2970527478037859,"229":-0.21934721318725167,"230":-0.5254566928250787,"231":-0.010514205793863553,"232":0.2725568901393209,"233":0.19064801307946652,"234":-0.018690205379399652,"235":0.09858399425729603,"236":0.011230713898532491,"237":0.17294116968249768,"238":0.13219697500777092,"239":0.25202212291114723,"240":-0.35250116324661995,"241":-0.694168532335089,"242":-0.5619432274917723,"243":-0.20658755274086638,"244":-0.03754446366389467,"245":-0.16934033710066676,"246":0.48022109533885005,"247":-0.04850986696760903,"248":0.08473532063148416,"249":0.023721103920276543,"250":0.0010500035428580479,"251":-0.0156769845623584,"252":0.42694239619721325,"253":-0.0603287776746827,"254":-1.0172386460752816,"255":-0.540118357467194,"256":0.08959395724846196,"257":-0.026971999823570895,"258":-0.1085504148179271,"259":0.3508739454639103,"260":-0.0017323027052292069,"261":0.12904849954523392,"262":0.10321834292517817,"263":0.18213309755985452,"264":0.005009634169281881,"265":0.15635671382792574,"266":0.029087078136474813,"267":-0.9932357070690824,"268":-0.33148241909332815,"269":0.19289593676439196,"270":-0.23688022812571546,"271":0.10454223613585507,"272":0.19533332426988995,"273":-0.013482850493490873,"274":-0.04118731126126443,"275":-0.16380591449220702,"276":0.18549517659036294,"277":0.13231004420687195,"278":0.2544420120782422,"279":-0.10108166897671607,"280":-0.8290020903095859,"281":-0.3168117718169311,"282":0.11937345069828383,"283":0.04345800896752228,"284":-0.14913150675836842,"285":0.24144397545552357,"286":0.021458644560753408,"287":-0.08568939829878558,"288":0.0009538318077472153,"289":-0.06502323356838613,"290":0.055057839735138996,"291":0.2539238360298679,"292":0.05023405905365725,"293":-0.8457612382694749,"294":-0.20425245863749514,"295":0.1453519772537343,"296":-0.03833931007938227,"297":0.040222279796352234,"298":0.32189557117857304,"299":0.08357328219471855,"300":-0.11211503567163425,"301":0.07443610617038676,"302":0.052383496769260685,"303":0.28856034669963004,"304":0.20553420369335335,"305":0.2815808578675138,"306":-1.089040401081639,"307":-0.17708109981668127,"308":-0.05926331824535141,"309":-0.16798183298919184,"310":0.18738683769658535,"311":0.12576399838091556,"312":0.01267560843076029,"313":0.03933597833748252,"314":-0.17535364106634466,"315":0.22074442392215934,"316":0.08139965775710037,"317":0.4794570129426182,"318":-0.2864273712247082,"319":-1.2777180084339217,"320":-0.0982784933459613,"321":0.15431158464313338,"322":0.0319217966500053,"323":-0.06420846945258632,"324":0.1211760648944986,"325":0.003267677598308091,"326":-0.07533283058074221,"327":0.3599572166619706,"328":0.05085739317162364,"329":0.4740978928102294,"330":0.6519642372382279,"331":-0.25876638749659564,"332":-1.2312273148115256,"333":-0.42156054590109354,"334":0.2990743265603836,"335":-0.3896269043527187,"336":-0.47031373121034964,"337":0.08170791208513638,"338":-0.008041486156740557,"339":-0.0738892237957242,"340":-0.005194284558125187,"341":-0.08980639865902024,"342":0.09415752640495792,"343":0.25910617769063693,"344":-0.32635304607716287,"345":-1.2887608628737794,"346":-0.3559202734407217,"347":0.0371161119454307,"348":-0.44458694826561546,"349":-0.15091301945919328,"350":-0.20356718819945138,"351":-0.002208208258335962,"352":-0.1135924080481994,"353":0.18577060535185305,"354":0.23255636642836489,"355":0.16133639160679963,"356":0.7590963782370647,"357":0.1939313030052816,"358":-1.3756433165002364,"359":-0.11977269973014176,"360":0.00046550838465910264,"361":-0.08068847632608317,"362":-0.31494243435785146,"363":-0.06106257293771287,"364":-0.051223676988879106,"365":-0.3475243370915269,"366":0.32414804870730723,"367":-0.041881777012760066,"368":0.2737968804660119,"369":0.45209375306358923,"370":1.2804191582590068,"371":-1.452478890503357,"372":-0.03447470553885712,"373":-0.22334275754543934,"374":0.0008960628407985833,"375":-0.31269218830100154,"376":-0.16476259390009135,"377":0.04805646206969774,"378":-0.23063711699915626,"379":0.07931954725770393,"380":-0.06848301950707564,"381":0.09626672252338864,"382":0.6573253453440171,"383":0.9980984278785318,"384":-1.3589752065387701,"385":0.047401485177025915,"386":-0.019424997176947435,"387":0.36067944404529984,"388":0.01324888489446644,"389":-0.2373422605650723,"390":0.04056015574643306,"391":-0.19929676807164745,"392":0.327504442227187,"393":-0.17590305729879535,"394":0.22862130914977863,"395":0.5622870859048928,"396":-0.19245721142351427,"397":-0.8892344327887395,"398":0.02710883892480288,"399":0.13148094053940337,"400":-0.0020328281629512063,"401":-0.18005892122046427,"402":-0.02039512520839517,"403":0.016561766364662767,"404":-0.18977217628975618,"405":0.10453876725832542,"406":0.1621819858390132,"407":0.19959061063548209,"408":0.40053200076044193,"409":-0.32915002822604417,"410":-0.7665218831253408,"411":-0.05750807041051672,"412":0.1163548291987943,"413":0.3183500106517825,"414":-0.00754711387090945,"415":0.042296724670697554,"416":0.019505974010260038,"417":0.005551524824193723,"418":-0.21983829166988034,"419":-0.1643561606359042,"420":0.08075910433066454,"421":0.46551027339339773,"422":-0.21090843964844114,"423":-1.086304915018824,"424":-0.1803734670983983,"425":0.07713878374870241,"426":0.13813851085614956,"427":-0.30276035185786415,"428":-0.2771707185402388,"429":0.029110383744098217,"430":-0.13299043555673148,"431":0.2825067926454746,"432":0.014435128853750683,"433":0.07387053960018207,"434":0.38422112200875697,"435":-0.19747656400091493,"436":-1.221588578069601,"437":-0.0024248745741224263,"438":-0.07884467577987288,"439":0.019567023393593373,"440":0.04936436877793349,"441":-0.2352168850601188,"442":-0.007292145890707545,"443":0.008545551601432893,"444":0.09132149402416803,"445":0.021420590081306472,"446":-0.018912073927337184,"447":0.4286721238686858,"448":1.178481884809279,"449":-0.40011310879001444,"450":0.42307146153041103,"451":0.19130418883015646,"452":0.47722531960084613,"453":-0.33945103232378265,"454":-0.15346186020252406,"455":0.04098212841656511,"456":0.0664813587382425,"457":-0.047635420682473395,"458":-0.11526048704385071,"459":-0.3328620386806985,"460":0.38469178978445556,"461":1.1057082030828467,"462":-0.28920944559460765,"463":0.1293992921664038,"464":-0.32867683622188737,"465":0.09884200721187981,"466":-0.0701922581792669,"467":-0.46966855510720745,"468":0.01684222256967315,"469":0.37358486914067346,"470":0.0716693829380252,"471":0.17668928329901243,"472":0.013867877470785989,"473":0.005542495917069395,"474":1.0693359757926282,"475":-0.18799151088430432,"476":0.0451550911636043,"477":0.012248703926702464,"478":-0.04703880749991261,"479":-0.097655287129136,"480":-0.3025227575010105,"481":0.038895222075246066,"482":0.04815940354875579,"483":-0.30312537879682533,"484":0.12278576970901586,"485":0.005874002381498191,"486":-0.0387034083896099,"487":0.5610520987938806,"488":0.0765427262434234,"489":0.10532984083980956,"490":0.08547072593236599,"491":0.31279918648998684,"492":-0.28402580301729136,"493":0.24112182337986682,"494":0.04955955186454276,"495":-0.052726202247084866,"496":-0.04852276307918662,"497":-0.0026892141712896917,"498":-0.11912475652478058,"499":0.12049817516121818,"500":0.8816523410983801,"501":-0.08541581586623631,"502":-0.013512467121017124,"503":0.06554603922103178,"504":0.29211995250371803,"505":-0.10272672350385725,"506":-0.041230224843997874,"507":0.002595498262686361,"508":-0.11727393728726175,"509":-0.10742905343122187,"510":0.1791312667869493,"511":0.09871886034883062,"512":-0.12478562221066483,"513":0.30902642935184976,"514":0.3819417887309105,"515":0.44808009061368315,"516":-0.01266806897070157,"517":0.33752149864708975,"518":-0.07554395033768903,"519":0.22456818729719355}},{"sx":1,"sy":1,"depth":520,"w":{"0":0.1561361757034322,"1":0.0378068034779866,"2":-0.38599809990561135,"3":0.03279612363338407,"4":-0.24079887669782152,"5":-0.314387293572121,"6":0.18524568437443673,"7":0.17375241149929563,"8":-0.3171327195522174,"9":-0.17468692650800358,"10":-0.5200795699055081,"11":-0.17925931551843108,"12":-0.03498877467872007,"13":0.19577450077086445,"14":-0.18645794042934216,"15":0.029847095600641808,"16":-0.10321096170335903,"17":-0.1438564912873464,"18":-0.2753487241593682,"19":-0.1074787269814891,"20":0.1091929393863158,"21":0.021562823316984607,"22":-0.1394298626546108,"23":-0.04378781369399052,"24":-0.2797873124766391,"25":-0.12178049975789014,"26":0.10419676332947896,"27":0.006901138595929767,"28":0.05697408490585745,"29":0.08650811562576192,"30":-0.08533439215559646,"31":-0.1930921202603922,"32":-0.28420961746747464,"33":0.2202485743557071,"34":-0.04082797087594612,"35":0.011818785245023033,"36":-0.193518763951364,"37":0.12468915494163617,"38":-0.0883533253428376,"39":-0.20502873400596372,"40":0.21606378223459669,"41":-0.059460163093079,"42":-0.2323332810150967,"43":-0.06901454386362339,"44":0.1729054868382459,"45":-0.19979737877857096,"46":0.035936135059555986,"47":0.019846084649642555,"48":-0.22880551177621733,"49":0.12145782719625854,"50":0.12587589125087925,"51":-0.08980715814872266,"52":-0.06496511012615301,"53":0.013034103285367228,"54":-0.03965604267074731,"55":-0.08690769150304296,"56":-0.028757260037073913,"57":0.02846480598743845,"58":0.20149440531031318,"59":0.03235672820035665,"60":-0.11254006177481496,"61":-0.22469912758166732,"62":-0.1901592085324597,"63":0.06649637767413645,"64":-0.1620771327821355,"65":-0.02703153157105839,"66":-0.024121818689911888,"67":-0.33463461278133433,"68":-0.28573748230520357,"69":-0.10939207419559457,"70":0.07700774835247576,"71":0.10861126866994356,"72":0.31539843212564705,"73":-0.24435040846847128,"74":0.17100155622374236,"75":-0.14181962839301562,"76":-0.16268730886952273,"77":-0.253938582086281,"78":0.2959747733186195,"79":-0.044512040909850656,"80":-0.1601820050778698,"81":-0.15434800188664438,"82":0.08540334881588875,"83":0.17271359933423625,"84":0.01671530355011725,"85":0.10563360291463895,"86":-0.18824110906124794,"87":-0.32779901692465674,"88":0.0925228695396211,"89":0.05726059749362679,"90":-0.062318054246704384,"91":0.5537355735618761,"92":-0.06261261991469863,"93":-0.08052463354471347,"94":0.049502158807340574,"95":-0.009191448667642252,"96":-0.008863783440118943,"97":-0.07360668366090635,"98":0.23090578483540705,"99":0.044544286598597875,"100":-0.13526565685742842,"101":-0.3603062540745829,"102":0.13120606378639285,"103":-0.16294549052824317,"104":0.44240852858144813,"105":-0.2798856196309914,"106":-0.008535726164328886,"107":-0.11546939659871654,"108":-0.19291725315631447,"109":0.007347686097461293,"110":0.0322994345180643,"111":-0.11006439319323413,"112":-0.007235517903734458,"113":0.04304898916285524,"114":-0.011850860202441544,"115":-0.10825735063027482,"116":0.04226106577731407,"117":0.6150586416370586,"118":-0.11032884418605571,"119":0.2813918179002855,"120":-0.05679105529813416,"121":0.2420531954739205,"122":0.4106649224428755,"123":0.056730799303526876,"124":-0.033855361605660925,"125":0.23176366871689144,"126":-0.09013510720112629,"127":-0.26755250427064353,"128":0.18357554468683013,"129":-0.03472394350434974,"130":0.32450902233287066,"131":0.0638015170860583,"132":0.25235382799155187,"133":-0.29530813984416776,"134":0.041080383655249714,"135":0.21378517352761076,"136":0.05856944673713294,"137":0.20030994264410817,"138":-0.045884550280682834,"139":-0.04490729679197973,"140":-0.09613654506381476,"141":0.1345380469364941,"142":0.03330754021352698,"143":0.4864032698012647,"144":-0.14397535730800973,"145":0.12056258953238401,"146":-0.2746295700183493,"147":0.25319485678025405,"148":0.22101728118648115,"149":0.26177728632632397,"150":0.08475361843646781,"151":-0.05782239508836028,"152":0.07066057589053504,"153":-0.19030005401729508,"154":-0.011301170926141937,"155":0.218970774815789,"156":0.5825821198370194,"157":0.18436716649221702,"158":0.11160088696336336,"159":-0.26784683355054584,"160":0.10394531087800236,"161":0.47791246172695695,"162":0.2301807949072513,"163":0.41717212891659516,"164":0.029173714934072007,"165":0.00426611517777907,"166":-0.05341170185160092,"167":0.17154816170543596,"168":0.27768683192160304,"169":0.40820067945454197,"170":0.13410908059375035,"171":-0.12839946413992978,"172":-0.23273742425099836,"173":0.07901424754714677,"174":0.6251781520250428,"175":0.007259176363577282,"176":0.24579383942419744,"177":0.08044528732759595,"178":-0.040842301037605694,"179":-0.27459274104781317,"180":-0.13348648530331053,"181":0.2904741167026603,"182":0.7806545498176295,"183":0.038953237858129985,"184":-0.06071541321851988,"185":-0.2018073627261992,"186":0.11219304548367144,"187":0.3103898432019218,"188":0.05458196331276612,"189":0.6322232129677211,"190":0.09249820499203364,"191":0.10657191313537406,"192":-0.08609630345111735,"193":-0.1303404100771468,"194":0.2267332226871802,"195":0.5586321570968753,"196":0.31721307974447976,"197":-0.08232733956019217,"198":-0.18902377623040523,"199":0.19124508891662811,"200":0.3354771091257953,"201":0.4360415808316534,"202":0.5934120929919353,"203":0.13773009303869221,"204":-0.01712887159237232,"205":0.04010414812187479,"206":-0.04287324170569674,"207":0.0339129795450556,"208":0.45599381590161986,"209":0.25983399608803376,"210":-0.23386943768478805,"211":-0.22607525490680688,"212":0.035987020610949064,"213":0.28459693198882013,"214":0.42470353508108466,"215":0.9922238111004853,"216":-0.036533418431825726,"217":-0.10209506770201209,"218":-0.2268549340174356,"219":-0.32665707811260647,"220":0.10113067593296199,"221":0.4430948054334233,"222":0.12058881471272954,"223":0.14138835611881062,"224":0.019205974074336885,"225":-0.1909833397750221,"226":0.4899941540425555,"227":0.37165480076205365,"228":0.9567740634122787,"229":0.1620042041009934,"230":0.00979188466619954,"231":-0.2228333444417327,"232":-0.07937401039923665,"233":-0.07556283848782773,"234":0.3080062060592986,"235":-0.02651943928824906,"236":0.05382219527707437,"237":-0.18508107174230284,"238":0.12217347563683945,"239":0.48079441566192144,"240":0.34937211431744014,"241":0.7368001650527924,"242":0.4669715504982333,"243":-0.11493185616171456,"244":-0.26655561132310196,"245":-0.011940191754158612,"246":-0.04766089552897893,"247":0.1881335525549182,"248":-0.23382394516971422,"249":0.14319483733281496,"250":-0.3212277643413349,"251":-0.1565086772500539,"252":0.2581710566081852,"253":0.593240258320826,"254":1.0744215652346523,"255":0.24165283012655825,"256":-0.07421198062495517,"257":0.005897642571972838,"258":-0.0693554998134458,"259":0.08821849080016882,"260":0.3926049796166165,"261":-0.2157276202955226,"262":-0.07037497150471521,"263":-0.3974959065856366,"264":0.09493820893846323,"265":0.4728079290759628,"266":0.382093602303109,"267":0.824838267423397,"268":0.17860052422135037,"269":-0.08914171932032963,"270":-0.12333035235894212,"271":-0.13287519710868156,"272":-0.06294795113666764,"273":0.34131642044301713,"274":-0.12601407255015407,"275":-0.17434882245595928,"276":-0.26937930095034573,"277":-0.17761527549145162,"278":0.31353524037203967,"279":0.5179235987736284,"280":0.9797214046037467,"281":0.16440889899367303,"282":-0.06467343133205444,"283":-0.0967573427786407,"284":-0.11773309312948307,"285":-0.09068119153973464,"286":0.23127601771048314,"287":0.010910705986026902,"288":0.35914826205684314,"289":-0.059897994542470606,"290":-0.2536351461811999,"291":0.23607470626846597,"292":0.5471577687223536,"293":1.0391053950644504,"294":-0.016346575474913,"295":0.13986016553341438,"296":-0.010427927645585137,"297":-0.11393920956795511,"298":-0.13023825264548622,"299":0.050813973619721765,"300":-0.028581514385448453,"301":-0.019281090578815413,"302":0.042324612858173814,"303":-0.23884815481627292,"304":-0.35988236545598395,"305":0.637162228468317,"306":0.6226158522582163,"307":0.14200506114677927,"308":0.21435027891473318,"309":-0.05476158619869995,"310":-0.05289220415628684,"311":-0.041238379736773946,"312":-0.011664965129429402,"313":-0.11720753752135099,"314":-0.10696048931449616,"315":0.008407512110361802,"316":-0.1584044830982904,"317":0.004237324276988189,"318":0.5505807745913903,"319":0.8881962207321704,"320":0.14177949967653916,"321":-0.0742366190835165,"322":-0.21667174293209715,"323":-0.11669917453378516,"324":-0.09542496209785682,"325":0.12273153567979816,"326":-0.0869685354231702,"327":-0.4139894665779385,"328":-0.04761103712425552,"329":-0.08708164497286829,"330":-0.21333185952324893,"331":0.983508448168713,"332":0.7438064396411506,"333":-0.1106443055436444,"334":0.08113331635728718,"335":-0.04865298437771829,"336":-0.13140010511621972,"337":-0.26912075832317667,"338":0.21668242171829458,"339":-0.09630141726206551,"340":-0.33330798007660273,"341":0.051012869041463856,"342":0.13159026041122843,"343":-0.28726702723287467,"344":0.9107312803832917,"345":0.6288065938664467,"346":-0.2531882909759178,"347":0.027420730586300214,"348":0.18195015166166636,"349":-0.005165018037188969,"350":-0.18464710802205503,"351":0.4245710606730779,"352":-0.05496026547718533,"353":-0.22335658580856918,"354":0.031026045576943703,"355":-0.12004775925833769,"356":-0.1640338449944499,"357":-0.2292961506176008,"358":0.48367194180015965,"359":-0.07497301627323616,"360":-0.07209026631925423,"361":-0.06315744365534591,"362":0.08125809021569691,"363":0.006022400549946716,"364":0.1951035351101893,"365":-0.15941297262230356,"366":-0.10503434073050723,"367":-0.12629808648200852,"368":-0.0651149013517177,"369":-0.179533451450486,"370":-0.9828827527875211,"371":0.6104890571929384,"372":-0.016712663688854934,"373":-0.17436476092474323,"374":-0.06251637006707736,"375":-0.07966689472946531,"376":-0.09098989803802573,"377":0.14937426795954095,"378":-0.24788337358604595,"379":-0.10807708707676877,"380":-0.1813895205906027,"381":-0.016380977422405334,"382":-0.485862329762309,"383":-1.0423686612170708,"384":0.45720219924172506,"385":-0.09797685100686765,"386":-0.03975525589950968,"387":-0.015997339704253453,"388":0.10967181095875148,"389":0.16832028295884724,"390":0.2246680964573237,"391":-0.2243274743860821,"392":-0.47880170654294063,"393":-0.15862029445950449,"394":-0.266187187008766,"395":-0.4573771826593715,"396":0.29991870535645265,"397":0.09049784054909711,"398":-0.011577175191836788,"399":-0.15247408090889344,"400":-0.17820225681081633,"401":-0.12621414096169406,"402":0.11878358456023114,"403":0.1299656789260948,"404":-0.10760127197905195,"405":-0.3058827199728429,"406":-0.317666488505305,"407":-0.2964887284345431,"408":-0.1415105482356945,"409":0.27984510060336093,"410":-0.07508315865102004,"411":0.2082544234593598,"412":-0.12881624801886757,"413":-0.237261653355175,"414":0.05835542402251624,"415":0.32272638322066416,"416":0.42796841552209497,"417":-0.0472514779662713,"418":-0.33424876219878064,"419":-0.3419988213376944,"420":-0.46032004907784324,"421":-0.23847360415561952,"422":0.31174827648753733,"423":-0.09431081702690464,"424":0.1174916934999356,"425":-0.17211083173700498,"426":-0.1509016000003677,"427":0.24775780342698575,"428":0.16693542518764423,"429":0.43182031626109085,"430":0.011529509879493038,"431":-0.14230608308075982,"432":-0.13273027528667852,"433":-0.23175617361718792,"434":-0.28329797732037876,"435":0.2152856030891139,"436":-0.006884802859689881,"437":0.10059887913749788,"438":-0.39506845833702153,"439":-0.40940995296676713,"440":0.05935319015982966,"441":0.1438530648299082,"442":0.12629759917748085,"443":0.11355369294900272,"444":-0.02428745159548829,"445":0.03928564000994522,"446":-0.2219032640621131,"447":-0.28072490519256665,"448":-1.250219951297796,"449":-0.10190614285018584,"450":0.09548472455164063,"451":-0.3520333602886018,"452":-0.25085581055366385,"453":0.15068723790139732,"454":0.22293926170912265,"455":0.29975160417545255,"456":-0.08046648272043429,"457":0.23544332745360294,"458":-0.12019697845176393,"459":0.04468486342321626,"460":0.10090027294016782,"461":-1.2355231512025178,"462":-0.008707790722825976,"463":0.21971685568116422,"464":-0.11926916361638412,"465":-0.2152654345837937,"466":-0.3560070994579365,"467":0.25532310870127994,"468":-0.05569211911667446,"469":-0.11443462529823069,"470":0.23426663127466843,"471":0.20424297884959206,"472":-0.00615033841795023,"473":-0.040650939390373834,"474":-1.1227368206140962,"475":-0.1575917892510842,"476":-0.10332498021625136,"477":-0.2502099068201186,"478":-0.20620361780139448,"479":-0.21077240786269447,"480":0.30407709289970875,"481":0.055727607194217384,"482":0.15016076640056217,"483":0.08020346875090661,"484":0.06059479273891214,"485":0.07618986291285972,"486":-0.1527618127370344,"487":-0.571933089994171,"488":-0.22068305857497883,"489":0.15837457113178657,"490":-0.0842308822914347,"491":0.13048351765569371,"492":-0.1277039946226901,"493":0.02056631190636912,"494":0.2886288910890675,"495":0.19417316397808634,"496":-0.1257189649602704,"497":-0.11756634051258326,"498":0.04580384934090021,"499":0.07625078031782306,"500":-1.1092890141143879,"501":-0.16337087408235038,"502":0.02781744478411236,"503":-0.24227389213133713,"504":0.020542227352876485,"505":-0.2899539842833497,"506":0.07515700004825647,"507":0.09638578618546902,"508":0.047721653858022385,"509":0.007349656844004224,"510":-0.05241943282032659,"511":-0.22826540061848147,"512":0.11037975351228614,"513":-0.8041471660468894,"514":0.08967805466346114,"515":0.02775586718677387,"516":-0.09680851841145816,"517":-0.16241649520964135,"518":-0.4157044626411231,"519":0.25995482739674886}},{"sx":1,"sy":1,"depth":520,"w":{"0":-0.20600719214732055,"1":0.2368465732701324,"2":-0.1514236725859888,"3":-0.028180486125260088,"4":-0.05136619985038472,"5":0.3500272529172168,"6":-0.11800575905563285,"7":-0.08853593839148573,"8":0.1272476495548745,"9":-0.2164752945848962,"10":-0.13669658828000084,"11":-0.07807298020473437,"12":-0.02061507939690168,"13":0.08108607050466285,"14":0.1847085602165982,"15":-0.06556816427115697,"16":-0.07942391657060974,"17":0.22477565404772773,"18":0.21212110227498987,"19":-0.037279649977091454,"20":0.14510450901953023,"21":-0.07266731460040621,"22":-0.39462075146713327,"23":-0.439109954990752,"24":-0.15374906591323848,"25":0.02393014305682272,"26":0.08489709636894156,"27":-0.058061186926685694,"28":0.08982584696003255,"29":-0.22044110835429137,"30":0.025921009675378616,"31":0.3433022248910559,"32":-0.5055699675309376,"33":0.4922147482773262,"34":-0.00034857698522086807,"35":-0.4068246001703461,"36":-0.23711868653941298,"37":-0.02071772914497142,"38":-0.06587128368770524,"39":-0.06866294997717255,"40":0.026115514360317647,"41":-0.2080339107465088,"42":-0.02454722277166101,"43":0.23406885629391339,"44":0.47661913361741437,"45":0.04313973197376319,"46":0.5282076407786627,"47":-0.18795647101361918,"48":-0.2500007331422319,"49":-0.20866238026802444,"50":0.07928513964961399,"51":0.013855033759543611,"52":0.23641286543542944,"53":-0.0008051187253939965,"54":0.0731847297700313,"55":-0.14113351124734155,"56":0.27683227061100774,"57":0.3034136069023403,"58":0.17960988232165223,"59":0.3662937964132755,"60":-0.17597861703261083,"61":0.08133146115962997,"62":-0.21036578931720887,"63":0.1086303925935507,"64":-0.01938214200386138,"65":0.021105350900544148,"66":-0.2299971715813329,"67":0.019175582217626195,"68":0.01075721255482819,"69":0.3940070418575115,"70":0.11442206627977823,"71":-0.12315810818618926,"72":0.4873786072242796,"73":-0.19722831271020222,"74":0.4893423609019461,"75":0.09560843192134287,"76":0.32373213601008755,"77":0.012078939976769985,"78":-0.09648152921125686,"79":0.12368954613460474,"80":-0.04542330711918218,"81":0.13978806051973663,"82":0.3154415165452662,"83":0.28363575163063015,"84":-0.21299096504729043,"85":0.22777950626819696,"86":-0.1728674979520341,"87":0.5008598621819608,"88":0.14799403459580524,"89":-0.009439730417699957,"90":-0.04735024776963394,"91":-0.025158154477141287,"92":0.12203177424346454,"93":-0.18977936553421354,"94":0.06332429667217658,"95":0.4023674630727283,"96":0.20058586874775058,"97":-0.20682163725220737,"98":0.32245333630512857,"99":0.03255992600625893,"100":0.4339644334453666,"101":0.13269669779391258,"102":-0.22846534852897488,"103":-0.008141631441974667,"104":0.02257197063563707,"105":0.16919891438360996,"106":-0.14637812795964875,"107":-0.021571983113882528,"108":0.491568342182327,"109":0.23406882144681043,"110":-0.09115149875992222,"111":0.42122990107925556,"112":-0.26394723866300274,"113":0.2265163637199132,"114":0.4536793188483597,"115":-0.11640586092304835,"116":-0.08298666689274067,"117":0.07249219552685876,"118":0.06822400026602814,"119":-0.08104951429258456,"120":0.158684622771486,"121":0.2633567897964211,"122":0.546716756396875,"123":-0.05685015290735904,"124":0.18343366847325196,"125":-0.17376893545854027,"126":0.14520861724043704,"127":0.5279934637116157,"128":0.28815319545262774,"129":-0.025984239463111684,"130":0.3077757664540271,"131":0.0900200325589057,"132":-0.10327711086835728,"133":-0.5178669092171524,"134":0.0745782298411567,"135":0.5419864841130857,"136":0.1513053274817984,"137":0.37105514705219234,"138":-0.12574101411364216,"139":0.07052120264020342,"140":0.19318961908095927,"141":0.17868458332662404,"142":0.10211291156388157,"143":0.17328588255134794,"144":0.12286214457095088,"145":-0.022494430267526205,"146":-0.3342533871321537,"147":0.22687155995677283,"148":0.4006108638154587,"149":0.03344803849632033,"150":0.06256537005851423,"151":-0.228792806690506,"152":0.03371388960641482,"153":0.1428619166340196,"154":0.2444549120805398,"155":0.1868182493170853,"156":0.09919957825489147,"157":0.08167829982229513,"158":-0.07673878010365555,"159":0.039711744709143584,"160":0.14505850163237327,"161":0.32394567484320963,"162":0.09426410845086898,"163":0.06468634395808559,"164":-0.1830887035740086,"165":-0.06757576886412676,"166":-0.234668605838089,"167":0.3015677763485559,"168":0.3960594836114821,"169":0.09533655744326736,"170":-0.0888888859518471,"171":-0.2032820891665991,"172":-0.03188350540636076,"173":0.2974507904613532,"174":0.21822503336506344,"175":0.2811248686078854,"176":-0.0020702941497182494,"177":-0.4242717149060115,"178":0.13127202151896755,"179":-0.06310890394728498,"180":0.18464937050827662,"181":0.46196560020344646,"182":-0.05232937005275702,"183":-0.2338201170435974,"184":0.15897858762618725,"185":-0.11809259285082256,"186":0.05915429305653687,"187":0.02434589054067453,"188":0.360328093010423,"189":0.03523797250148008,"190":-0.1446798975615265,"191":-0.0723256690451825,"192":-0.15886169659886534,"193":0.07819902825603034,"194":0.34811165035784347,"195":-0.007923071506112211,"196":-0.1762486383902981,"197":0.24285904991488255,"198":-0.15345600697980216,"199":0.0011799451015472688,"200":0.132885668435782,"201":0.018526707233027483,"202":-0.061363985336166126,"203":-0.21807016457004702,"204":-0.04404880385050046,"205":-0.19412847390375804,"206":0.24223838043031687,"207":0.647222433488529,"208":-0.16721083084321894,"209":0.04405196591603951,"210":0.24264903461370316,"211":-0.17028354576005564,"212":0.04342274167008745,"213":0.09656835675854111,"214":-0.532488666040264,"215":0.04434794744199237,"216":-0.13144554464577024,"217":0.10172620187562018,"218":-0.19628977660254227,"219":-0.06627931247967123,"220":0.5532816117765962,"221":-0.21162945189689064,"222":-0.1156990242986774,"223":0.49841061027011296,"224":-0.1872120701549508,"225":0.17341222132327053,"226":-0.19814050457848992,"227":-0.27159758613291973,"228":-0.18679536215006726,"229":-0.007397065530936862,"230":-0.3250381850112714,"231":-0.06165961544523332,"232":0.13070587049429147,"233":0.5029471003188646,"234":-0.42099049938992056,"235":0.009319338118184072,"236":-0.0645243331067514,"237":0.00866908472380044,"238":0.014822514851148182,"239":-0.4516710152362322,"240":-0.4824747026717322,"241":-0.3094977622327011,"242":-0.42212076477920063,"243":-0.08098814936314322,"244":0.06781694974581033,"245":0.3156462145631967,"246":0.5241650284140738,"247":-0.11218981183146527,"248":0.15453076316911352,"249":-0.1548151156204977,"250":-0.23090632469197295,"251":-0.1092288686273816,"252":0.36968776777100143,"253":-0.7269275217556171,"254":-0.1105792096017999,"255":0.03470400877963382,"256":0.04653954172206137,"257":-0.11449444302202322,"258":0.395861263890435,"259":0.28408337212562446,"260":-0.07614981989431793,"261":0.058892049438665856,"262":-0.33703614353897926,"263":-0.08110264611310436,"264":0.18361748926460686,"265":0.21267943771803713,"266":-0.031753003515240984,"267":-0.0682059052347073,"268":0.2478867035887817,"269":-0.19734199678733572,"270":-0.018247386928046335,"271":0.5056672346193445,"272":0.09271973039121492,"273":0.30160544401667144,"274":0.1151044993806839,"275":-0.48303228034257495,"276":-0.16305170069006147,"277":0.050233286859509084,"278":-0.0698097590896509,"279":-0.581993450424643,"280":-0.3609175859141677,"281":-0.06638246637667469,"282":-0.14819398901803124,"283":-0.09501396137418498,"284":0.03255744529132877,"285":0.04959279894119374,"286":0.20725371231861522,"287":-0.25705847987567876,"288":-0.16675491748156995,"289":-0.07261897331582566,"290":-0.024667126215776398,"291":-0.4163930979584198,"292":-0.7885624990802281,"293":-0.3266597156950427,"294":0.1476306809775492,"295":-0.05151935557000752,"296":0.15633639990043482,"297":0.12853787686469073,"298":-0.26937966441592787,"299":0.4580100782861176,"300":-0.4186445401182736,"301":-0.06834193565672139,"302":-0.19945470574318677,"303":0.02119808731366042,"304":0.22495846452387952,"305":-1.530554044497953,"306":0.11131222516079434,"307":-0.10438806334248828,"308":-0.3808819005003185,"309":-0.252595215206087,"310":-0.07952894870546433,"311":-0.27612308758161974,"312":0.3980633632401189,"313":-0.1393772103092032,"314":-0.27086036499727395,"315":0.02126956233208491,"316":0.02299673736774231,"317":-0.18179751014234455,"318":-1.7687573597172206,"319":-0.262355795491971,"320":-0.05632155920661315,"321":-0.26392107166644885,"322":-0.2479669504859789,"323":-0.1193630432669202,"324":-0.14720109552035326,"325":0.20308976682405028,"326":0.18363303455541743,"327":-0.15667906324799663,"328":-0.10271803109105922,"329":-0.13949152758639002,"330":-0.20934526074857002,"331":-1.1307523122117547,"332":-0.04661588704415066,"333":-0.09276546483709287,"334":-0.3652621131095043,"335":-0.43315060260481925,"336":0.07809848991784328,"337":-0.22088362277290222,"338":0.2966447739255446,"339":0.23795825209799246,"340":-0.25039738191272615,"341":0.08335425405460889,"342":-0.08292078605177707,"343":-0.4079242618867013,"344":-1.093415677397263,"345":0.015059643898518356,"346":-0.15737119068634695,"347":-0.4426567929297533,"348":-0.4482661955840923,"349":-0.0005022844080193505,"350":0.12177376008980774,"351":-0.04347260527941728,"352":0.23707799672469387,"353":-0.30370273123465263,"354":0.40358547834220465,"355":0.29485322824137317,"356":-0.964270354099301,"357":0.45111140988299386,"358":-0.46749596924973713,"359":0.05739093413811744,"360":-0.06739597981336927,"361":-0.07681090783856694,"362":0.08428772071450415,"363":-0.09179319480056246,"364":0.010538924042425592,"365":0.12796934489429623,"366":0.02858073689812578,"367":0.0062034472632609364,"368":0.1419781846043574,"369":-1.028072796669959,"370":0.6560281507391903,"371":-0.34438084368443844,"372":0.10837874690875116,"373":-0.26789262981743717,"374":-0.1886138531193745,"375":0.23477616735893253,"376":-0.024240251982621065,"377":-0.125702650227896,"378":-0.08189468008511473,"379":-0.030396905265263563,"380":-0.0653940091040037,"381":-0.04220532495436936,"382":-0.8403541053062313,"383":0.4899877409825611,"384":-0.2677819632092892,"385":-0.14593813545157594,"386":0.3285974419510109,"387":-0.1737122810078254,"388":-0.04511042870561196,"389":0.14713161766552924,"390":0.09133543924835717,"391":0.05440381647322205,"392":0.18167146920675994,"393":-0.08895163478906337,"394":-0.00862913663937975,"395":-0.7759476298538384,"396":-0.20482962149911343,"397":-0.1702252911480801,"398":0.18512039527192414,"399":0.18775984387384512,"400":0.07675748182154478,"401":-0.030620116409601567,"402":0.1996684138377309,"403":-0.32423415268783107,"404":0.11653364304036701,"405":0.26784456686738217,"406":-0.10296167268939245,"407":-0.15883759018805224,"408":-1.0057282436493458,"409":-0.1739895489449887,"410":-0.13817100041425817,"411":0.11968183283467924,"412":0.1021684641064875,"413":0.016757367754290466,"414":0.03216649326064939,"415":0.5413254327911999,"416":-0.020001848184909785,"417":-0.11419640738325267,"418":0.14509810454407124,"419":-0.1528124283622879,"420":-0.358022484593154,"421":-0.82814415253356,"422":-0.16363777381785424,"423":-0.3628337683803285,"424":-0.08432084217402189,"425":0.377449785690784,"426":-0.01890228360103742,"427":0.014349776050765779,"428":0.29777620195016363,"429":-0.11460261302119626,"430":-0.002891076792207006,"431":0.31490620490811266,"432":-0.08908565263245863,"433":-0.31261485416113555,"434":-0.764634541113468,"435":-0.11072940070097163,"436":-0.5318984046055713,"437":0.20950513596198117,"438":-0.029653270194451464,"439":-0.06801329401365397,"440":-0.00221263052114197,"441":0.552953920746025,"442":-0.18840225313341202,"443":0.3088030684364669,"444":0.2483490628886907,"445":-0.3780088249903181,"446":-0.16398695631209392,"447":-0.470982556888583,"448":0.5903461808923371,"449":-0.24168151823498982,"450":0.2776943418450946,"451":0.20561550291047512,"452":-0.1757772894865461,"453":-0.03558853883707401,"454":0.34376517875448986,"455":-0.09775998178617239,"456":-0.1492860765781323,"457":0.17085997980040277,"458":-0.08612033173426727,"459":0.033693246093666085,"460":-0.1422802156741533,"461":0.5906420303166504,"462":-0.06716784648143823,"463":0.10278434383522154,"464":-0.099372843741834,"465":-0.03937102359200098,"466":-0.16930185269996084,"467":0.1084833022881176,"468":-0.34699496208344505,"469":-0.034857811973382315,"470":0.27476946381868067,"471":-0.2703636054717854,"472":-0.15384823911460838,"473":0.36585556181313683,"474":0.7285419938463937,"475":-0.006420240679472515,"476":-0.06450312851330042,"477":-0.15123312078480217,"478":0.03884936669369113,"479":-0.14784262033113013,"480":0.2037996121009449,"481":-0.09634556166815512,"482":0.07665205695025866,"483":0.22872247704610266,"484":-0.04527592164796259,"485":-0.09913280075546094,"486":0.475283161299661,"487":-0.36422393582755275,"488":0.1202932535524395,"489":0.36804570880368914,"490":0.1296105157147859,"491":-0.049139341137375295,"492":0.0014220076157904582,"493":0.2450729673111231,"494":-0.21398037229747463,"495":0.1386870598519309,"496":0.1382928419981141,"497":-0.006151811150239682,"498":-0.15040233048625107,"499":0.712318441559258,"500":-0.6535263702585701,"501":0.058389587362521526,"502":0.10916055112506182,"503":0.14827012163823566,"504":-0.16203816799867016,"505":0.2285353372843265,"506":0.10386674459150787,"507":-0.23928671156786227,"508":0.1570180172800073,"509":0.16407165805724166,"510":-0.30227921066130975,"511":-0.01858584122788023,"512":0.5152945476403207,"513":-0.9589327896618622,"514":0.33035657603216007,"515":0.16011623532312247,"516":0.0894391859451858,"517":0.1529074427775463,"518":0.15282340185022644,"519":0.22494328294670948}},{"sx":1,"sy":1,"depth":520,"w":{"0":0.07072152728103222,"1":0.004752635229525832,"2":-0.007983143530477629,"3":-0.049903877601146306,"4":0.0560894674982309,"5":-0.007284661505593145,"6":0.02505536572765036,"7":-0.06584381975400401,"8":0.04067729457279079,"9":0.08677511696276255,"10":-0.056997838996919736,"11":0.037153714244935354,"12":0.05581120003363408,"13":0.023958688963889464,"14":0.049553517491183044,"15":0.009697176214725973,"16":-0.04021133487718214,"17":0.09754860744879697,"18":-0.05041401897837703,"19":-0.04628053837753777,"20":-0.0066132896415382085,"21":0.04996684317351323,"22":0.09466845134929108,"23":-0.012469014138545242,"24":0.01039654388671478,"25":0.04452424180511218,"26":-0.05102936713639222,"27":0.04925759050202064,"28":-0.04080883207475492,"29":-0.010787609081437097,"30":0.029938073549420404,"31":0.12193175950907519,"32":-0.038954805734747744,"33":-0.03176234309890557,"34":0.043325155012151076,"35":0.06214295059464346,"36":0.0030348803194341412,"37":-0.021494329171703876,"38":0.024523326633764123,"39":-0.06853006429494038,"40":0.062049746731270596,"41":0.02852402281622873,"42":0.06653248343619927,"43":-0.02797734178978298,"44":0.013425596072033868,"45":0.005465234926357028,"46":-0.010306539790189672,"47":0.08582838207755694,"48":0.06932323251130582,"49":0.05722648912595315,"50":-0.060620328630703865,"51":0.1448820707718324,"52":0.02804400678577688,"53":0.00598364314746295,"54":-0.06615975013095181,"55":0.03074111223254314,"56":0.00823274239023855,"57":0.02775598639677462,"58":0.03981091306341555,"59":0.10384526850772932,"60":-0.01962984463208621,"61":0.06875305590377183,"62":0.10380249692520577,"63":-0.028948699105436727,"64":0.0752855978508943,"65":0.03292325386396763,"66":0.08898231452592759,"67":0.039672185575312796,"68":-0.012763974674185106,"69":-0.006101971412726565,"70":0.01368040655267508,"71":0.04625567483947148,"72":-0.0007646937501717338,"73":-0.014623194403884305,"74":-0.0385257641458089,"75":0.04226983794583832,"76":-0.008860898489739573,"77":0.0787989920789251,"78":0.010645095314706535,"79":0.016673228770989316,"80":-0.02192657253951815,"81":-0.006849306912426193,"82":0.013069056418301759,"83":0.06435078366333098,"84":0.025865496215559915,"85":0.09493143334323532,"86":-0.13667807481093378,"87":-0.053566630566122944,"88":0.04534478678691328,"89":-0.0006102527777221648,"90":0.07970020189751878,"91":0.09293835640813189,"92":0.04288352934778208,"93":0.05706370369160168,"94":-0.0111567793808819,"95":-0.030241876151392417,"96":0.07223446553633281,"97":-0.0001531869945285276,"98":0.08660827093956006,"99":0.032987357440333924,"100":0.007683272475600405,"101":0.054407733448226275,"102":-0.046640600786557025,"103":0.09125592940010414,"104":-0.010047780217731759,"105":-0.07329543895858472,"106":-0.06881389062719419,"107":0.02117183266407605,"108":0.0031980649006055567,"109":0.008958733566423346,"110":0.04122503576516051,"111":0.10640028730394825,"112":-0.032745353846753755,"113":-0.015856192981667846,"114":0.05780534821595379,"115":0.033018092900840554,"116":0.0633571923401914,"117":-0.0642920606603217,"118":-0.045727946997879125,"119":0.030906462061337486,"120":0.027306243802776013,"121":0.005877917676462601,"122":-0.0014247606562232558,"123":0.05220521459138512,"124":0.2549458513975955,"125":-0.06928112080774725,"126":-0.012983299777026457,"127":0.019038842633336384,"128":0.016624731901908784,"129":0.051194340848689124,"130":0.1248866320467824,"131":0.03460192529972774,"132":0.05805970374794902,"133":0.009055326287250674,"134":-0.05711920804611789,"135":-0.03528994705795852,"136":-0.07022741052877345,"137":0.13994920727119708,"138":0.028841379788880742,"139":-0.034601847045779885,"140":0.005096581093008686,"141":-0.022651254452931462,"142":0.18695069605500603,"143":-0.07390285470410514,"144":0.06643320806973203,"145":-0.025366414057690707,"146":0.11432514995720315,"147":-0.00017770707719260662,"148":-0.0698503629421498,"149":-0.07787247396442588,"150":0.07753898117905962,"151":0.0009717706827331573,"152":-0.014205880793735507,"153":0.05190014016031017,"154":0.02450070511831929,"155":0.04936218553400231,"156":0.02256331913784945,"157":-0.018541017413088626,"158":0.0185514697609131,"159":0.05897544520566589,"160":-0.014510231017421046,"161":0.0008855970428379381,"162":-0.0498816484592012,"163":0.13609545152620178,"164":0.05563610557378006,"165":-0.031930056378360425,"166":0.01537694732414285,"167":-0.07230856253039132,"168":0.10442049581043356,"169":0.005442532647198581,"170":0.026880610770597307,"171":-0.04341573064606529,"172":0.10786132195519336,"173":0.06771885478517242,"174":-0.05817446516020575,"175":0.08075836592673984,"176":-0.03318737142913665,"177":-0.012474267589268223,"178":-0.0480413478057057,"179":-0.04439604977254218,"180":-0.06810904043440566,"181":0.05460400661754076,"182":0.029553427138437133,"183":0.012407327188102129,"184":0.0010103644568457807,"185":0.06327945431858792,"186":0.09245481349509846,"187":0.009438174942856373,"188":-0.07559696292870197,"189":0.024568552541200717,"190":-0.12608001545972447,"191":0.022415357988061525,"192":-0.009999824926962251,"193":-0.038770922482345635,"194":0.09603164870259945,"195":-0.002214877097311094,"196":0.045213227839183294,"197":0.004510355849722718,"198":0.1370096133943458,"199":-0.072159073587898,"200":-0.087319887838287,"201":0.11906118076091546,"202":0.04081718793001394,"203":0.009771489725713104,"204":-0.009569419282203756,"205":-0.10023913820203821,"206":-0.07086341609966404,"207":0.13095777965039745,"208":0.02254848890585018,"209":0.03101156719706553,"210":-0.02959709550415927,"211":-0.0172302747108978,"212":0.005172051060635307,"213":0.007687319754375497,"214":0.1796238547457219,"215":0.0037826844931620864,"216":0.025829141220613354,"217":-0.07700157683327946,"218":-0.018404930960983203,"219":-0.07653530890780648,"220":0.13505302471820035,"221":0.02127003995863139,"222":-0.013480845023039381,"223":-0.03239454358874107,"224":0.009121485661795119,"225":0.0385178573662466,"226":0.0946276418647947,"227":0.11564471112434498,"228":0.14818283755133713,"229":0.013274359440864128,"230":-0.05585093583984219,"231":0.008144548333579712,"232":0.013495381216125637,"233":-0.00580177428636033,"234":-0.053027541021689606,"235":0.061350218155511664,"236":-0.009264114112794673,"237":0.011992671913466943,"238":0.014936528920566862,"239":0.020938709273789016,"240":0.2568502121490034,"241":0.16294976175647372,"242":0.021946150621258882,"243":-0.1538715543592344,"244":-0.08299289547316684,"245":-0.05115394474694573,"246":0.05776778780055354,"247":0.04977410865455819,"248":0.0720082253199028,"249":-0.011229728552807683,"250":0.04820456877812749,"251":0.008588771439924255,"252":0.010380428099918616,"253":0.12744208778279453,"254":0.2014822312279726,"255":0.029445120138695602,"256":-0.0940604482950621,"257":0.03989006783751156,"258":-0.10057498620465533,"259":0.03594186644824635,"260":-0.04191835710335027,"261":0.011830293993741818,"262":-0.081294874842479,"263":0.12473554136508211,"264":-0.044855491785900724,"265":0.046591092893241905,"266":-0.006150902748412928,"267":0.17824064806347154,"268":-0.09404519329630566,"269":-0.12039522479606907,"270":0.015949608124512342,"271":-0.055919137896146665,"272":0.0314722358987378,"273":0.09180741894099056,"274":-0.06400069015227738,"275":0.025600229833272613,"276":0.04553277504474538,"277":0.06530810470368639,"278":-0.04775406149982756,"279":0.05780509692370809,"280":0.12035937083444861,"281":0.004910291981890677,"282":-0.02678541549185805,"283":0.07557009771672193,"284":-0.04846667320106929,"285":0.024434729120602447,"286":0.09861441456180949,"287":-0.03242554999753369,"288":0.016685581001639277,"289":0.061669676723402886,"290":0.005156928920574915,"291":0.011840191665797018,"292":0.07037639213883551,"293":0.128416269721564,"294":-0.06240796644452912,"295":-0.026023860866644898,"296":-0.028522031482445122,"297":-0.13078677710132144,"298":0.05924873989052673,"299":0.025336061558598914,"300":-0.0013682856425654172,"301":0.08790518046923908,"302":-0.06776049994975963,"303":0.036476238763383136,"304":-0.10566999244460579,"305":-0.0731342378568653,"306":0.10147447470871868,"307":-0.10458631310839733,"308":0.009935889191654515,"309":0.01436011785699413,"310":0.006901378417177715,"311":0.11567536497864163,"312":0.053023545201356805,"313":0.0418341575113053,"314":0.04071282694318541,"315":-0.02067526624185221,"316":-0.012431243043014583,"317":0.10013743863686586,"318":0.023492965399348798,"319":0.1400334990582276,"320":0.09106691185707022,"321":0.1023908174363206,"322":-0.03349905933827978,"323":-0.03916173194645083,"324":0.046967276964393456,"325":-0.04393630334342157,"326":-0.037748979502398555,"327":0.02172316113630364,"328":0.021570409209206817,"329":0.07708807181822605,"330":-0.07176377092834264,"331":-0.007001215799481881,"332":0.06341372086699973,"333":-0.09146991177615851,"334":0.026103337226422836,"335":0.07547437232187924,"336":-0.04004391368894503,"337":0.05241184259767227,"338":0.01643008039013655,"339":0.031117796047785164,"340":0.07147399019309751,"341":-0.04976170790227711,"342":-0.011395938909365655,"343":-0.008734424742962488,"344":-0.10648112017052233,"345":0.025775073459628792,"346":0.03615164134176519,"347":0.033841394250590705,"348":0.00649221144987417,"349":0.010232903158945622,"350":0.06920251880064018,"351":0.05314833327813195,"352":0.02683302089524297,"353":-0.023911699987935006,"354":-0.004887621058646642,"355":0.042680778729022456,"356":0.1580981575890383,"357":0.06126532928019753,"358":0.13319395386716734,"359":-0.008253154699488304,"360":0.07553464320148995,"361":-0.004812748545086357,"362":-0.04495230692994538,"363":0.1389821059486697,"364":0.0365708501657571,"365":0.09308756951496183,"366":0.017023230135106798,"367":0.03622680140172624,"368":0.03323412523146075,"369":0.07794306601679697,"370":0.01405668474017073,"371":0.11466679672134078,"372":0.07447921783214084,"373":0.04404032064622845,"374":-0.002246624190593465,"375":0.025168796239293093,"376":0.08902134368676286,"377":0.11948350781804833,"378":0.08054356546615814,"379":0.025758886303737915,"380":0.039884092706094894,"381":0.017469135378425763,"382":0.02916257606641814,"383":0.01583104713703895,"384":0.2246083513226126,"385":0.05522039793271417,"386":0.06866488233908984,"387":-0.031968351972649925,"388":-0.011590850846124903,"389":0.07150125636671081,"390":0.06683653709572497,"391":0.031179774352152086,"392":0.005094120210773593,"393":0.14369323801343664,"394":0.06265307678574993,"395":0.02782877987416559,"396":0.018738671246671963,"397":0.254143242782012,"398":0.1108801227832834,"399":0.07097348787237294,"400":0.030722713808501098,"401":-0.023799638744431254,"402":0.03559256867925513,"403":0.029708385100979427,"404":0.03597539802927107,"405":0.05813675344796414,"406":0.04149882915961785,"407":-0.11547038215029866,"408":0.03383215981054124,"409":0.030429691066228042,"410":0.23914939955012504,"411":0.04989547248406686,"412":-0.04088880137561741,"413":-0.011342748925720703,"414":-0.08482846007609338,"415":0.07211784628567422,"416":-0.013057674009107092,"417":0.013742651932798545,"418":0.007826633375043792,"419":0.1124917234294729,"420":0.008372202862729891,"421":0.0048728298767051325,"422":-0.06342402748823894,"423":0.17346336659790051,"424":0.08341734630908422,"425":0.02678491234566495,"426":0.05039545844702366,"427":0.01630899781447353,"428":0.06980933179806444,"429":-0.010014938042399819,"430":0.0933024302617476,"431":0.015697021898951356,"432":0.07719831100530049,"433":-0.04419609751588374,"434":0.007555835823606513,"435":-0.0009045493565326503,"436":0.14104752621891853,"437":0.017592021147633773,"438":-0.06950554935665164,"439":0.06101664606773656,"440":0.05244677935231903,"441":0.10099645692746965,"442":0.03575564077261962,"443":0.03981982219978395,"444":-0.022963493069569154,"445":0.08964260724399613,"446":-0.019028691206177634,"447":-0.03975532806325205,"448":0.14941609849210355,"449":0.19757265698517612,"450":0.0761612161414994,"451":0.008784423811074357,"452":-0.003732640509759731,"453":0.03798718650520435,"454":-0.0022901742456421016,"455":0.06875000737973858,"456":-0.006122545782146518,"457":0.09102686544243944,"458":0.0663885796770895,"459":-0.001439302171892519,"460":-0.017813093193046296,"461":0.06432645623348167,"462":0.19313804474413473,"463":0.06952007157821205,"464":0.023358941708864957,"465":0.018514530462917452,"466":-0.09820314228977313,"467":0.05776685313147953,"468":-0.044203651675091604,"469":-0.029630289994031164,"470":0.0434862437501296,"471":0.015342153038966995,"472":0.10767741524597232,"473":0.06424266184630649,"474":0.13489774563575954,"475":0.1383383573156913,"476":0.09787474567795496,"477":-0.07362625642316069,"478":0.03722201499327228,"479":0.0569354756044237,"480":-0.05682807553036782,"481":0.003914862210628269,"482":0.003137970102858384,"483":-0.03977823084589611,"484":-0.013883505733902665,"485":0.0919757863739841,"486":0.0004126293955095063,"487":-0.0803876913961872,"488":0.13199686244457895,"489":-0.030804524269877728,"490":-0.09980991286253485,"491":0.03162477710624102,"492":0.052970492228700594,"493":0.08106161263755172,"494":-0.06859799954074305,"495":0.053086933091125645,"496":-0.03328432951844733,"497":-0.05838867108468847,"498":0.10021161507639118,"499":-0.04330380642355726,"500":0.04313669595039358,"501":0.10235168638525853,"502":0.07489354188804824,"503":-0.06998304989892762,"504":0.031004502473037817,"505":0.12475584992122864,"506":0.10925924238203463,"507":-0.01825175345304917,"508":0.04474605666063583,"509":0.014688372635831217,"510":-0.029864316777974936,"511":0.18041507111036537,"512":-0.07683136091288212,"513":-0.0642939266157533,"514":0.14156538189144682,"515":0.03466333029708319,"516":-0.06761544843025849,"517":0.0014248644863338175,"518":0.04428147353311519,"519":0.06940035399982997}},{"sx":1,"sy":1,"depth":520,"w":{"0":-0.0377947145387676,"1":-0.034910854095618976,"2":-0.22411729155451166,"3":0.0008516610294070339,"4":0.1170779669302653,"5":0.1863873859199916,"6":-0.09388309962303445,"7":-0.07353717081939394,"8":-0.03568251615704856,"9":0.0005235659356379261,"10":-0.04756529668143749,"11":-0.0037370096457989234,"12":-0.03745860014852418,"13":0.09485416151252682,"14":0.05385126010334617,"15":-0.21897605125762326,"16":0.14649279026200518,"17":-0.025493250512289675,"18":0.23177156374452582,"19":0.14945032190280386,"20":-0.04491729439483315,"21":-0.027193456830547563,"22":-0.013878077281189432,"23":-0.0413638848597341,"24":0.020505645321789175,"25":0.02194051787834182,"26":0.1382826661155762,"27":-0.06582377284619303,"28":-0.21955936224512515,"29":0.10182157547655059,"30":-0.24742374192408936,"31":0.13920302768938783,"32":0.06053489068352584,"33":-0.02579081107446863,"34":-0.07346183272614298,"35":0.029064934851140378,"36":0.02928238190585529,"37":-0.010460661037062715,"38":0.05660605646832715,"39":0.30092876491884246,"40":0.018744238481407476,"41":-0.27185776365809555,"42":0.09690445891747303,"43":-0.3365164747709711,"44":0.03869694939386702,"45":0.04159792292751267,"46":-0.10046333693208392,"47":-0.030170197930904707,"48":-0.07054780837047654,"49":-0.016553818612802734,"50":0.020230540516612414,"51":-0.0521256489954877,"52":0.13971658550538915,"53":-0.08852927379319411,"54":-0.23961549343090774,"55":-0.06866165617816032,"56":-0.13713654861559893,"57":0.09010988948890729,"58":0.04098163061427726,"59":-0.018208817211211176,"60":-0.04658944204868434,"61":0.02003193439784535,"62":-0.006287377441594953,"63":0.04574148712981377,"64":0.0025092915860222033,"65":0.09419579229697557,"66":0.11713890417011019,"67":-0.19932348983376166,"68":0.00034867356155347145,"69":-0.1422212517588668,"70":0.0022029273705114864,"71":-0.11821726819351604,"72":-0.03024713223743443,"73":-0.0673884553836193,"74":-0.04062443014494583,"75":-0.11316128813880921,"76":-0.01894809479345828,"77":0.015713599980933232,"78":0.12403083917772478,"79":0.1430918539925239,"80":-0.023736028848921294,"81":0.04123178156435493,"82":0.017764316533271887,"83":0.02976810009601214,"84":-0.11613153741931012,"85":-0.0835231218943041,"86":-0.12661765046357829,"87":-0.04784136839628047,"88":-0.0004633254554145481,"89":-0.09441211987292322,"90":0.04364986028386355,"91":-0.06209407163150542,"92":0.037517648485074113,"93":0.1623143417759421,"94":0.29198595196769855,"95":0.13223941740280912,"96":0.05945146583972678,"97":0.04897393274446896,"98":-0.08169464434034043,"99":-0.0662501642150162,"100":-0.10448731093306617,"101":-0.00037153334996837097,"102":-0.026200475249983292,"103":0.009249032033393102,"104":-0.11367512279640223,"105":0.12239933260081641,"106":0.1585193204330291,"107":0.225153540424934,"108":0.23262372348365581,"109":-0.03700962892240625,"110":0.06488949616678948,"111":-0.0028122702138422026,"112":-0.04303667435118711,"113":0.007274423670552613,"114":-0.012015561068972554,"115":-0.06944978601423721,"116":0.01511702162097104,"117":-0.13521677004708293,"118":0.1217930075480815,"119":0.1396529251810342,"120":0.18928293227044063,"121":0.1820903845764184,"122":0.051898883159079826,"123":0.12831655737306802,"124":-0.08100150924234763,"125":-0.015926357006172915,"126":0.008909807173803887,"127":0.030475576390061297,"128":0.031203683370638304,"129":0.00603045392255903,"130":0.048164291907050065,"131":0.2324034957087439,"132":0.025956419857061406,"133":0.14123196646836197,"134":0.26114704518705983,"135":-0.04597363191985711,"136":0.18632639865128292,"137":-0.12244972553930979,"138":-0.02457766817895533,"139":0.028216836072158878,"140":-0.03789862044814724,"141":0.04249602238325159,"142":-0.06512790809807675,"143":0.08058650692070668,"144":0.10077363488797998,"145":-0.07678206345555852,"146":0.006569387960774817,"147":0.011480984614657224,"148":0.1279647467614135,"149":-0.010004026328946716,"150":-0.05215168404560984,"151":-0.09552883750640943,"152":-0.05765273525154235,"153":0.030503016007827878,"154":-0.05565433094294305,"155":-0.008966642022583462,"156":0.1146526659247091,"157":0.21384010577102835,"158":-0.10160973014919077,"159":0.14854661234906744,"160":-0.0545990032660817,"161":0.035799201595482645,"162":0.1070111836534871,"163":-0.028360620106153003,"164":-0.03980825538434772,"165":-0.07527556648551827,"166":-0.0018645873619571492,"167":0.014846364412518832,"168":-0.010951662288781293,"169":0.1635168528020498,"170":-0.007790979844440727,"171":-0.12494213061406602,"172":-0.05110144163571933,"173":0.08542280922604667,"174":0.024683712655050413,"175":-0.01631678591492953,"176":0.006784690338215087,"177":-0.09118582430561326,"178":-0.015493527053312129,"179":0.02151254005779366,"180":0.05660766138142169,"181":-0.03524893681800308,"182":0.046859974299373976,"183":-0.05154559620187039,"184":-0.2361161648364755,"185":0.04778811262567089,"186":-0.17010123631091403,"187":-0.08076258721162889,"188":-0.18794153140561537,"189":-0.039429002065111185,"190":-0.06269663134131971,"191":-0.11854780243274776,"192":0.015338345480391678,"193":0.08505202223929638,"194":-0.006520429911961582,"195":-0.0589891755327587,"196":-0.029582261573977076,"197":-0.00748643913890674,"198":0.10274202498289062,"199":-0.13616198793993628,"200":-0.06002855782199949,"201":-0.3106599370073507,"202":-0.022020678088794366,"203":-0.04165749684840302,"204":-0.0029398431240715943,"205":-0.0765070699817959,"206":-0.054742826826474626,"207":-0.01154190589211221,"208":0.06138743224168131,"209":-0.030415436675418135,"210":-0.06240008210451896,"211":0.01972988544067532,"212":-0.2385377829133497,"213":0.019277880448955058,"214":-0.5860967341386484,"215":-0.09114739466090202,"216":-0.018140159880053953,"217":0.00897159002326457,"218":0.02294491835821408,"219":-0.03442529716102781,"220":0.008679201898554095,"221":0.04200224523462767,"222":-0.22188512760985407,"223":-0.29425728662385797,"224":-0.009827723764447831,"225":-0.18964454275101225,"226":-0.04914876726375275,"227":-0.5184345721336822,"228":-0.07788132486238639,"229":0.0024691602129490817,"230":-0.08101348323301387,"231":0.013730064169170077,"232":0.008077562120858505,"233":-0.004496914991752537,"234":-0.1161411614180214,"235":-0.07101609881317884,"236":-0.13345948142170042,"237":-0.2647510780484817,"238":0.06457166709018371,"239":0.25556507627949887,"240":-0.2994269153818121,"241":-0.07056012974627203,"242":-0.03737846100770355,"243":-0.0577153239162634,"244":0.02067782498968089,"245":-0.04351398731475087,"246":-0.0021802546516887238,"247":0.06429649563786652,"248":-0.015113261586100405,"249":-0.25161193780845337,"250":-0.16917412882644373,"251":-0.20727848500045098,"252":0.10410177830591161,"253":-0.200067324993366,"254":-0.07025673153029213,"255":0.04390891936885396,"256":-0.08552945401981919,"257":-0.03389412054680702,"258":-0.041225849944018116,"259":0.023493982676950114,"260":-0.09409777954462449,"261":0.10709150361379738,"262":-0.11396299438802487,"263":-0.24275584593278526,"264":-0.07420474626822739,"265":-0.10068356516334058,"266":0.09403779814272849,"267":-0.018645337578609516,"268":0.006679876261744176,"269":-0.11129037624086316,"270":-0.06674139367589499,"271":-0.01362283304833014,"272":-0.0108580361683722,"273":-0.008700025185440271,"274":-0.001593037785774848,"275":-0.13231109882345066,"276":-0.01685053983757121,"277":-0.2461247972566092,"278":-0.2488960872825166,"279":0.0884511226706715,"280":-0.11017090490597983,"281":-0.040593203803462596,"282":0.007309795836694211,"283":0.07694720658229263,"284":-0.0160898224889122,"285":0.008579929906048006,"286":0.16429526863656718,"287":-0.004367380272490652,"288":-0.25405174629154476,"289":0.1503218781097957,"290":-0.25714632591780245,"291":-0.3764313586011767,"292":0.1421325798926851,"293":-0.04773545304072155,"294":-0.06825372171586996,"295":-0.08800571344053089,"296":-0.04192966975008937,"297":-0.07854960434194386,"298":0.021424256895931693,"299":0.030278004459385794,"300":0.00930197646630021,"301":-0.16904258334967776,"302":0.04535165375123682,"303":-0.1532630849714431,"304":-0.4283249422555353,"305":-0.26453916054634247,"306":0.01425006595139888,"307":-0.030429470230770347,"308":-0.008661558791655472,"309":-0.09056569442477226,"310":-0.021795214989217514,"311":-0.05489480936870061,"312":0.043851177593519766,"313":-0.07337415781542873,"314":-0.21884396598670747,"315":-0.14618544190851157,"316":-0.03812377118825992,"317":-0.3280975114773032,"318":-0.26785381384089857,"319":-0.04269711731935872,"320":0.014665010080198918,"321":-0.01720041107877228,"322":-0.04999055989512492,"323":-0.048146549555679624,"324":-0.03928809996189052,"325":0.014300329045683641,"326":0.05198533083648465,"327":0.020293287169410184,"328":-0.08137509146927181,"329":-0.0514930509200648,"330":-0.03038308723313465,"331":-0.33694255370442083,"332":-0.07576781137186374,"333":-0.05988445139594014,"334":-0.06479691759488607,"335":0.006782439933741841,"336":0.036109437797716526,"337":-0.028033425986338265,"338":-0.04767647676520511,"339":0.18551159634238865,"340":0.14028367871014186,"341":-0.32612910122057676,"342":-0.12348790919825103,"343":0.019954708364265984,"344":-0.28574208010173235,"345":-0.04372372905685636,"346":-0.02591091919703152,"347":-0.013727152163738906,"348":0.060482942822922055,"349":0.04156272604775605,"350":0.025205721740524593,"351":0.14469687191441613,"352":0.1678795429560748,"353":0.08737197748088377,"354":-0.1299358574448949,"355":0.05175266281859488,"356":0.019890354291061934,"357":-0.11440925391756483,"358":-0.14911239743611718,"359":0.02012439372139613,"360":0.020362122377532283,"361":0.06148475224430266,"362":-0.04041076099251553,"363":-0.07841280672494765,"364":0.09915522848524888,"365":0.2322304471202835,"366":0.006272977606621124,"367":-0.0030106495824960113,"368":0.0060556874886679895,"369":0.13581321288212925,"370":-0.030096135320433724,"371":-0.04369248382658866,"372":-0.09907197304641736,"373":-0.02609384707785896,"374":0.032795641553350234,"375":-0.043316477290322335,"376":-0.04761021409673006,"377":-0.03602163702527133,"378":-0.11203560206629462,"379":-0.1670776081431236,"380":0.041320836609408336,"381":-0.046809317540731844,"382":0.28635289915478473,"383":0.005179520776831785,"384":-0.027982159861355948,"385":0.002110970571383892,"386":-0.03760735515962805,"387":-0.06200533508184953,"388":0.024291386882415947,"389":-0.04707557029968541,"390":-0.03957549345711326,"391":0.03630250569265177,"392":-0.06330512702016444,"393":0.24992132287042976,"394":0.1732409625403835,"395":0.3212730243710302,"396":0.06663263617090316,"397":-0.05411116231749422,"398":-0.05512454280386473,"399":-0.03244151137620591,"400":-0.027891100295008436,"401":-0.04402497019293072,"402":-0.019001402344316333,"403":0.00010553185603942803,"404":0.04672061940427878,"405":0.08027200446897878,"406":0.09287958266328451,"407":0.16861851816726456,"408":0.23788797118931232,"409":0.02500121277226989,"410":-0.02879936010201182,"411":-0.056434274295199226,"412":0.0470619261644061,"413":-0.007997530197044496,"414":0.06443651505288087,"415":0.014632182778032354,"416":0.044861750511262156,"417":-0.0552392988541739,"418":0.253863117731283,"419":0.12149894152528633,"420":0.16574868668408252,"421":0.2173776410409736,"422":0.041357158489529436,"423":-0.023926232921541207,"424":-0.023381528471148976,"425":-0.0333535864118053,"426":0.0027550394977989803,"427":0.02369466100327235,"428":0.02900246500322023,"429":0.15619239769968166,"430":0.1750978533464932,"431":0.14033455464548064,"432":-0.03115830101389,"433":0.17396806341472124,"434":0.08461651078560045,"435":0.0583228932175875,"436":-0.07617882080944359,"437":0.08242005826418936,"438":-0.01688641654878457,"439":-0.05314567845049157,"440":0.042519621836208735,"441":-0.07129767305184562,"442":0.2377448958801246,"443":0.11539744321052343,"444":0.24200909630940218,"445":0.011272690283968483,"446":0.018018177829299376,"447":-0.061125772108831876,"448":-0.05035765863945356,"449":-0.017227148964807718,"450":-0.025372199055270207,"451":-0.03989175049272682,"452":-0.010729537626561368,"453":0.0465609681877844,"454":-0.04095810491647824,"455":0.15079490748117927,"456":-0.15979905799558453,"457":0.0727543958101613,"458":0.04206418622866886,"459":-0.109850295675756,"460":-0.44809570274738386,"461":-0.008574000554859207,"462":-0.080795655885512,"463":-0.03676516101538648,"464":0.00679780432674793,"465":0.06338379606423052,"466":-0.024389293910475333,"467":0.02832943569400372,"468":0.03940722423271715,"469":-0.04493036483896834,"470":0.1472239522499716,"471":-0.07331613822243092,"472":-0.11844235315770114,"473":-0.5330308353468458,"474":-0.00020918352534043537,"475":-0.12257945628452943,"476":-0.07497131586054674,"477":-0.048159898697036505,"478":-0.028119874144086874,"479":-0.024807857098722443,"480":-0.026350140316989824,"481":0.008096257656814796,"482":0.04068254412765693,"483":0.16568766037633864,"484":-0.11711652246662027,"485":-0.03814763007347393,"486":-0.14071295415384938,"487":0.031951037682392665,"488":-0.06743527706223941,"489":-0.04616039601874603,"490":-0.0025664431206250784,"491":-0.0334931975531195,"492":0.026438660827954555,"493":0.024845191348746194,"494":-0.10965680290741738,"495":-0.024153565962290457,"496":-0.03983127988563438,"497":-0.12090470330849297,"498":-0.11759154356315546,"499":0.03803926061322471,"500":0.10227131921193736,"501":-0.08885025587602959,"502":0.005182492376115092,"503":0.0029515377118981916,"504":-0.03622529942360392,"505":-0.025856951441771782,"506":-0.014080607419785349,"507":-0.05303731562228563,"508":0.03518353416843303,"509":-0.1341052435095505,"510":-0.2632429151765966,"511":0.03150667904117334,"512":0.13933721287727127,"513":0.2174837364484329,"514":-0.10353266876631338,"515":-0.008825357040326443,"516":0.015668871129956404,"517":-0.012093511675819237,"518":0.06165601730160223,"519":-0.018286058347639356}},{"sx":1,"sy":1,"depth":520,"w":{"0":0.01931983276931414,"1":0.12031632259112328,"2":-0.17793969663594084,"3":-0.3609088069660014,"4":0.08152303462601584,"5":-0.09682775014131337,"6":0.037716361515863175,"7":0.11787008539319799,"8":-0.06175392959425002,"9":0.031572260046253325,"10":-0.08146988023863977,"11":-0.0481725841218483,"12":-0.005415138679527954,"13":0.012461575343177485,"14":-0.0024327067462150314,"15":-0.32515598833602194,"16":-0.08663465269240828,"17":0.013040993928138928,"18":0.24131549259612317,"19":-0.08146925333368148,"20":0.04088303212805556,"21":-0.04225053508050757,"22":0.0965538865806871,"23":-0.045844475625767114,"24":-0.07439822924926061,"25":-0.09089323087141833,"26":-0.06061160654398763,"27":-0.1505880328114116,"28":-0.2049877807882176,"29":-0.0331268789411002,"30":0.14296251229877174,"31":0.18365347965130502,"32":0.15585674573434183,"33":0.11099103810244144,"34":0.07700325154206654,"35":0.021097674121370407,"36":0.0911869740910804,"37":0.018597177409416764,"38":0.0057791932706645005,"39":-0.028608286350475236,"40":-0.06014138615505283,"41":-0.3736987885848982,"42":-0.2590223890669705,"43":-0.1160334492022731,"44":-0.08059227335795639,"45":-0.00795555624356151,"46":0.1509892980745004,"47":0.04636612365197171,"48":0.12113437794585305,"49":-0.033864686233694076,"50":-0.07762723738302944,"51":0.01864276839072912,"52":0.010690810852932414,"53":-0.08104102233649592,"54":-0.264819232443139,"55":-0.37411105715667947,"56":-0.1544238524638679,"57":0.05952613155770317,"58":0.18086427876409375,"59":-0.0671275428193577,"60":0.26124670723332244,"61":0.046424807918077876,"62":-0.003995463706612595,"63":-0.050655671076940384,"64":-0.05591113992339334,"65":0.060297331472947635,"66":-0.15156072157780132,"67":-0.20243511859067287,"68":-0.3228226391609511,"69":-0.03662553114821187,"70":-0.009474994748187061,"71":-0.01600191609073866,"72":0.192584181242775,"73":0.20014014289707438,"74":-0.02946521764635742,"75":-0.103791777388305,"76":-0.08043282105769962,"77":-0.13043819253123845,"78":0.02046346900837092,"79":-0.15891095460410223,"80":-0.3272449118582511,"81":-0.33224452189689774,"82":-0.15637760892816394,"83":0.1105430720162157,"84":0.12989865634076245,"85":0.21233733498365726,"86":0.2816553522785478,"87":-0.00694468078175013,"88":-0.005533297500444855,"89":0.021809634291544682,"90":0.04787404294619339,"91":0.00317311296315054,"92":0.15293975215870392,"93":-0.185341952498669,"94":-0.08914026760866112,"95":0.014041645148493884,"96":0.11286166356846258,"97":0.3518597171579757,"98":0.43206543378394363,"99":0.24989970720053542,"100":-0.03468591111235374,"101":-0.12038203816401626,"102":-0.04064315151943593,"103":-0.10753873881463108,"104":-0.03217280383272291,"105":-0.09520034714343108,"106":-0.37051358000693074,"107":-0.23457197047504075,"108":-0.126092305162717,"109":0.12669196429696908,"110":0.32612183742427026,"111":0.39896920919892126,"112":0.222827907368843,"113":-0.10656256750152374,"114":0.08404434536356205,"115":-0.03492307353297881,"116":0.028131344556461307,"117":-0.09240721844055527,"118":0.03504302679670861,"119":-0.23417701110162656,"120":-0.1614561457988489,"121":-0.015149770454557876,"122":0.23534374383475204,"123":0.2707394420627233,"124":0.5214499627219805,"125":0.26856297404487767,"126":-0.03918638818728035,"127":0.0029825028420512345,"128":-0.007161843487150795,"129":0.033464506514811546,"130":0.06674133218256348,"131":-0.07985211176700532,"132":-0.16553806717422104,"133":-0.16629974297690314,"134":0.06645101098484625,"135":0.054821874513506556,"136":0.26379982785924394,"137":0.3746294423882589,"138":0.2003690298841224,"139":0.10830408421295346,"140":0.07333441724980597,"141":-0.020304371665570944,"142":0.0726008545921737,"143":-0.06222543839969299,"144":-0.16993961109361422,"145":-0.2630346535068369,"146":-0.3594095273024875,"147":-0.09271482111124252,"148":0.0070844656591041305,"149":0.2270257052271424,"150":0.29917803276671634,"151":0.38220379121800047,"152":0.10039320644624405,"153":-0.05766748221356507,"154":0.020923633208368517,"155":-0.00388348858379982,"156":-0.0432139109593603,"157":-0.15740021378196206,"158":0.019725771066315265,"159":-0.16204739459208317,"160":-0.2787505692865419,"161":-0.2553462809392894,"162":0.3378652136584032,"163":0.5252875776086404,"164":0.3062775340544056,"165":0.021858447603262533,"166":-0.07484147820109538,"167":0.07873974451687127,"168":0.014421890817042258,"169":0.04584448381307744,"170":-0.11697574764180811,"171":-0.2939119372112605,"172":-0.14337981825579954,"173":-0.02222768695554737,"174":-0.125680952136334,"175":0.48094362325344153,"176":0.500976102322603,"177":0.22888760233309366,"178":-0.05209725410714382,"179":-0.006895216807831941,"180":-0.04476144759451596,"181":-0.06586183912642948,"182":0.05606672153353974,"183":0.02608117792572673,"184":-0.47564471701473476,"185":-0.19661434387775537,"186":-0.19116929917168157,"187":0.20160005058142055,"188":0.4199540072940396,"189":0.8245055272502796,"190":0.21620008270349772,"191":-0.03858301530668394,"192":0.046065911300500154,"193":-0.07287506584351841,"194":-0.05417062513592386,"195":-0.05163648053511074,"196":-0.03972084582339155,"197":-0.016759335064425233,"198":-0.040074191979629414,"199":-0.422095666312832,"200":-0.16929814713890806,"201":0.2433891587374437,"202":0.9318993085858529,"203":0.036678938726670884,"204":-0.0703786562691801,"205":0.01216592498549814,"206":-0.012446824296597684,"207":-0.07593040415257567,"208":-0.001670823108984175,"209":0.12733168468021583,"210":-0.13675061360084248,"211":-0.1464974331003716,"212":-0.22862231841548886,"213":-0.030165649282163375,"214":0.6491404168413686,"215":1.042562816462122,"216":0.11195667119640461,"217":0.03738833441472551,"218":0.008733659304929309,"219":-0.013129578019853835,"220":-0.06300159105057454,"221":-0.025835092841467167,"222":-0.02925476097441641,"223":-0.011140198457919491,"224":-0.20277874217221611,"225":-0.15846952004065717,"226":-0.3236910981533024,"227":0.3574055467096021,"228":0.8471587721629371,"229":0.17750308285999816,"230":-0.03437466221449647,"231":-0.08476878500363186,"232":-0.0700438880320882,"233":-0.06192699373500533,"234":-0.009512689360286722,"235":-0.0973894387157149,"236":-0.031559289640495834,"237":-0.024317576271488034,"238":-0.12771543238373992,"239":-0.15084529410343475,"240":0.2249052235734709,"241":0.8158989129290932,"242":0.19157213067099174,"243":-0.01781924322155592,"244":0.095483085363358,"245":0.05782425445901115,"246":-0.04053327693244186,"247":0.032603667816815333,"248":-0.01000734340114077,"249":-0.336795543867038,"250":-0.14531352283245486,"251":-0.20690995721750013,"252":-0.1468210539577309,"253":0.06329580430468291,"254":0.8114706368081435,"255":0.09079553502045147,"256":-0.12845704305094793,"257":0.19646929790134826,"258":-0.08495327325098688,"259":-0.042504840484331396,"260":-0.009913361788300122,"261":-0.0978600408576138,"262":-0.3332618051269903,"263":0.061158535978727155,"264":-0.1313167009800907,"265":-0.13096918183383233,"266":-0.48057818127942586,"267":0.651580810531088,"268":-0.04156011486408873,"269":0.06377470099025127,"270":0.01573815563896178,"271":0.03683587409432857,"272":-0.0347069307985876,"273":0.04467459490366151,"274":0.038570378103043215,"275":-0.12867107137129133,"276":0.1691127665056295,"277":-0.09743260550449281,"278":-0.09393614776677546,"279":-0.054482401401382725,"280":0.5772995324970162,"281":0.08126579126928503,"282":0.11698778715608549,"283":-0.012128800988560192,"284":-0.020533742525100554,"285":-0.030522699048302016,"286":0.004578891246526476,"287":0.1449151562025802,"288":-0.14003397675213836,"289":-0.047552914020004756,"290":-0.21934759778269183,"291":-0.04777556886848344,"292":-0.10495243898204352,"293":0.7050113462820699,"294":-0.015232896763143497,"295":0.06838359315166148,"296":-0.1263272296797319,"297":-0.04001276563228301,"298":-0.056226979355338214,"299":0.020825286225839765,"300":-0.008109074618792728,"301":-0.06030434374943297,"302":0.07557176089143737,"303":-0.1621335114385579,"304":-0.13655353441378107,"305":-0.19624391701136507,"306":0.6082239458912461,"307":0.003619569991656877,"308":0.045117268958816646,"309":0.0874824564441868,"310":0.000011357087341666992,"311":-0.04851371072926136,"312":0.024494024755007057,"313":-0.003020784221070066,"314":-0.11248749748174247,"315":-0.01785640209766667,"316":-0.045723481212308195,"317":-0.2640198292464338,"318":-0.3088323074248219,"319":0.5688544781462453,"320":-0.07394078463932219,"321":-0.03614400725124147,"322":-0.03662229831858325,"323":0.02770976961425593,"324":0.03484880178803533,"325":0.01485510638585476,"326":-0.011236180314887618,"327":-0.2762122816336636,"328":0.053141602046206805,"329":0.06579119777832881,"330":-0.15511760506847116,"331":-0.03219706757240406,"332":0.5317586025731188,"333":-0.026201267664176322,"334":0.032560773426818464,"335":-0.02393631407619853,"336":0.03904474411626443,"337":-0.028628076534128296,"338":-0.047965394424232845,"339":0.03094341241475316,"340":0.04996208543681868,"341":0.14989940841757782,"342":-0.10709854580416792,"343":-0.2852046563164131,"344":-0.04631500498900368,"345":0.34677910415326,"346":-0.06104251543068863,"347":-0.03288809634189952,"348":-0.0020003573557543187,"349":-0.01498452862594103,"350":0.05432284610811167,"351":-0.06856243957931302,"352":0.016778616969520162,"353":-0.17787209645628907,"354":-0.11804789419731908,"355":-0.024597748672053124,"356":-0.16975123163758696,"357":0.04348813804617645,"358":0.2304073706193144,"359":-0.1257486746811736,"360":0.06618047707956907,"361":0.01648389704094718,"362":-0.028742526352198927,"363":-0.015897414556072204,"364":-0.03288205002120375,"365":0.23255014278682107,"366":-0.2005831570333713,"367":-0.16726830678561558,"368":-0.00817856512991166,"369":-0.2092336168093135,"370":-0.12038169888027325,"371":-0.029545283632204423,"372":0.05367986311815266,"373":0.00060708235857627,"374":-0.0537425112742781,"375":0.00045676211566754806,"376":0.013024487379576826,"377":-0.019129812431414796,"378":-0.001748203881934848,"379":-0.08663695934943241,"380":0.010427700349718516,"381":-0.007022641301581246,"382":-0.42366413841882616,"383":-0.33584231382268476,"384":-0.051743256709009006,"385":0.028707472815162206,"386":0.13089997423094268,"387":0.08807960924518772,"388":-0.00622209065517308,"389":-0.00014001878511929854,"390":-0.04452098099107733,"391":-0.07862877329707413,"392":-0.08939461567929043,"393":-0.03142612318405188,"394":0.1677129248787462,"395":-0.41335031620685964,"396":0.2062511561942578,"397":-0.2044181518154218,"398":0.11635286474680262,"399":0.060255607706043615,"400":0.006098177528886162,"401":-0.10110032270070116,"402":-0.028587231324257896,"403":-0.06293021065048796,"404":0.07657571000287544,"405":-0.06409569622081214,"406":0.04820318643014634,"407":0.11350562785867792,"408":-0.23920332280300885,"409":0.25000861639385386,"410":-0.20145378483243442,"411":0.0945515465790285,"412":0.16560394491692745,"413":-0.0005550974989994637,"414":0.045283061049814034,"415":-0.056502746644282495,"416":-0.023419642118588355,"417":-0.03773755906468042,"418":0.028886391498259698,"419":0.23173214955133284,"420":0.35242001959469466,"421":-0.24615982779501466,"422":0.16751200251787837,"423":-0.24751028336369935,"424":-0.05991453722346338,"425":0.12614907222409716,"426":0.08013590499187408,"427":0.08191474962518847,"428":-0.04982355872434734,"429":-0.03210131007507732,"430":0.17355627498110235,"431":-0.0915871497924184,"432":-0.030282022432512646,"433":0.18094848253081774,"434":-0.21500093824099376,"435":0.20827389280163444,"436":-0.027860994448620398,"437":-0.12962322365172183,"438":0.16379277763388553,"439":0.00410612205890442,"440":-0.020259689107129233,"441":-0.14825879559476382,"442":-0.02492293725388514,"443":0.10057611314394381,"444":-0.19977956882120843,"445":0.04032170579132157,"446":0.10414179042729405,"447":0.01618114288028788,"448":-0.30235866808575645,"449":0.15001036629468545,"450":-0.1534236437795262,"451":0.09300802818483565,"452":0.04692397272139435,"453":0.08068154200154329,"454":0.052740630517535386,"455":-0.08547439720711564,"456":0.15661140974636872,"457":0.26927335063221824,"458":0.03969964400614994,"459":0.03628123789877796,"460":-0.08692322434364243,"461":-0.27504967698535,"462":-0.006915559825774761,"463":0.038709595582497126,"464":-0.029220818886281856,"465":0.06834388324251921,"466":0.006180699228449067,"467":-0.03364607246128736,"468":-0.07114662967532835,"469":-0.11604160594665225,"470":-0.015505664979287135,"471":-0.0678825669109854,"472":0.13725694703887736,"473":-0.03202563963797071,"474":-0.1860464496912817,"475":0.02897524734061614,"476":0.09222738071904692,"477":0.04871603939288113,"478":0.03094149529695944,"479":0.006454246988222505,"480":-0.12333901971798149,"481":-0.026212255957769912,"482":0.10380655395201156,"483":0.02471325405593264,"484":0.24263051946443587,"485":-0.09612572381103464,"486":-0.14064723480930413,"487":0.09946886901222195,"488":0.0695212884942992,"489":0.07508407605268919,"490":0.053518591350120125,"491":-0.08272979352469402,"492":-0.07002379881140532,